#include "model_weights_hybrid_int8.h"

const float lstm_W[1536] = {
  -0.153458f, -0.162145f, -0.033263f, -0.016390f, 0.364336f, -1.022361f, 0.259489f, -0.010531f,
  -0.198889f, 0.071930f, -0.456564f, 0.390060f, 0.243140f, 0.031717f, 0.061914f, 0.056137f,
  -0.377729f, 0.571137f, -0.257477f, -0.026688f, -0.107068f, -0.186185f, -0.211355f, -0.684348f,
  0.113091f, -0.064973f, 0.012832f, -0.140233f, 1.448937f, 0.226214f, -0.392035f, 0.093312f,
  -0.102126f, 0.139428f, -0.624141f, 0.698654f, -0.159384f, -0.125770f, 0.092285f, -0.012306f,
  -0.483469f, 0.080381f, -0.074209f, -0.125813f, -0.017804f, -0.075232f, 0.872716f, 0.550781f,
  0.099412f, 0.101575f, -0.071036f, -0.076093f, 1.028999f, 0.066769f, -0.301203f, 0.020820f,
  -0.105265f, -0.164040f, -1.124140f, 0.501040f, 0.025373f, 0.231962f, 0.013348f, 0.260262f,
  0.371181f, 0.146194f, -0.181158f, -0.278102f, -0.040936f, -0.030176f, 0.145782f, 0.378186f,
  0.266447f, 0.118214f, 0.010530f, -0.036611f, -0.769651f, 0.389957f, 0.223711f, 0.147841f,
  0.064342f, 0.082602f, 0.030565f, 0.804161f, 0.025189f, 0.381943f, 0.018509f, 0.027299f,
  -0.415281f, -0.102392f, 0.049131f, 0.068467f, 0.018411f, -0.040288f, 0.914113f, -0.293226f,
  -0.102457f, 0.060433f, -0.080175f, -0.061287f, 0.264284f, 0.960269f, -0.074199f, 0.099907f,
  -0.277490f, 0.305678f, 0.190315f, -0.529514f, 0.226440f, 0.240432f, 0.037931f, -0.097540f,
  0.124069f, 0.355291f, -0.210113f, -0.277627f, -0.119648f, -0.156444f, 0.929384f, -0.662724f,
  -0.171471f, 0.013283f, -0.138410f, 0.034821f, -0.896586f, 0.229402f, 0.087309f, -0.018181f,
  0.052035f, 0.031452f, -0.703267f, 0.875147f, 0.141613f, 0.004077f, -0.067426f, -0.100225f,
  0.544550f, -0.989124f, 0.042936f, -0.084750f, 0.095240f, 0.042362f, 1.666567f, 1.149322f,
  0.016313f, 0.418443f, 0.061151f, -0.174243f, -0.319080f, 0.066796f, 0.176684f, -0.032071f,
  0.374878f, -0.118510f, 1.184315f, -0.500798f, -0.191610f, 0.159422f, -0.023078f, 0.078771f,
  -1.402560f, 0.792107f, -0.043046f, -0.039205f, -0.150444f, 0.153842f, -1.602735f, 0.471149f,
  -0.056750f, -0.295443f, 0.165125f, 0.004244f, 0.605291f, -1.657418f, 0.248598f, 0.338449f,
  -0.042133f, -0.113083f, -0.067106f, -1.066257f, 0.140088f, 0.076600f, -0.075586f, -0.168272f,
  0.063766f, -0.514316f, 0.203393f, -0.197726f, -0.050828f, 0.044453f, 0.646625f, -0.238906f,
  -0.044148f, -0.225347f, -0.062342f, 0.067684f, 1.063204f, -0.372965f, -0.149638f, 0.145907f,
  0.064637f, 0.180941f, 0.357203f, -0.063829f, 0.039512f, 0.094129f, 0.211106f, 0.103412f,
  0.697029f, 0.282046f, -0.070469f, -0.125083f, -0.000279f, 0.173201f, -0.532262f, 0.128249f,
  -0.096722f, 0.000020f, -0.307295f, 0.211360f, 0.780268f, 1.802494f, 0.003414f, 0.020960f,
  0.140156f, -0.000922f, 0.563824f, -0.241404f, 0.154246f, 0.226183f, -0.136634f, 0.021897f,
  -2.152526f, 0.586212f, 0.217204f, -0.185345f, 0.149474f, -0.018250f, -0.104126f, -0.071680f,
  0.201953f, 0.313595f, 0.044346f, 0.071812f, 0.582947f, -0.698997f, -0.132622f, -0.218014f,
  0.039415f, -0.068702f, 1.525995f, -1.259618f, 0.130057f, 0.128915f, -0.102246f, -0.065046f,
  0.548626f, -0.500332f, 0.051586f, 0.306493f, -0.060889f, 0.095125f, -0.249984f, -0.544927f,
  0.021605f, 0.447239f, 0.056512f, 0.070907f, -0.159378f, -0.127563f, -0.023968f, -0.065134f,
  -0.097553f, -0.048114f, 0.146958f, -0.456323f, -0.029492f, -0.158621f, -0.123722f, 0.005447f,
  0.144967f, -0.266891f, 0.112772f, 0.151991f, -0.167779f, 0.057549f, 0.030719f, -0.200302f,
  -0.089749f, 0.326738f, -0.137508f, 0.133578f, -0.078751f, 0.736345f, -0.122532f, -0.384896f,
  0.132497f, 0.067325f, 1.119283f, -0.994975f, -0.168870f, -0.157163f, 0.014049f, -0.055794f,
  -0.257926f, 0.387356f, -0.114234f, -0.089118f, -0.193624f, 0.021429f, 1.823340f, -1.015676f,
  -0.003516f, -0.100175f, 0.034375f, 0.077703f, 0.726206f, 1.076979f, 0.049143f, 0.088794f,
  -0.176369f, 0.005468f, 0.107084f, -0.272643f, -0.167460f, -0.056945f, 0.179990f, 0.072587f,
  -0.611715f, -0.104553f, 0.218362f, 0.014575f, 0.302699f, -0.006752f, 0.140676f, -0.147617f,
  0.012320f, -0.197826f, 0.027596f, -0.131823f, 0.701103f, -0.472918f, 0.011119f, 0.434282f,
  -0.061697f, 0.022873f, 0.252330f, 0.488718f, 0.173048f, 0.214146f, -0.200781f, -0.043221f,
  0.212883f, -0.793844f, 0.051904f, -0.218100f, 0.142569f, -0.354984f, -0.536379f, 0.178489f,
  0.293038f, -0.045545f, -0.195005f, 0.090376f, 0.479937f, 0.089713f, 0.013492f, 0.105016f,
  -0.067522f, 0.298552f, 0.193769f, -1.523208f, 0.062684f, 0.023221f, 0.187420f, -0.124652f,
  1.550644f, -1.143993f, 0.132663f, -0.083001f, 0.009688f, 0.104762f, 0.362567f, -1.306587f,
  -0.329191f, 0.146902f, 0.162825f, 0.102426f, 0.560035f, -0.750178f, 0.191880f, -0.308804f,
  -0.259149f, 0.072351f, -0.562204f, 0.257716f, 0.042357f, 0.144515f, 0.093336f, -0.175845f,
  0.044667f, 1.413110f, 0.097411f, 0.082148f, -0.188906f, -0.022915f, -0.213524f, -0.939924f,
  -0.017453f, -0.047831f, -0.038964f, 0.028569f, 1.475626f, 0.906522f, -0.351848f, 0.064103f,
  -0.003828f, -0.037352f, -0.375938f, -0.021351f, -0.028135f, 0.220470f, -0.208000f, 0.060075f,
  -0.385740f, 0.334136f, -0.182022f, -0.240331f, 0.068148f, -0.101333f, 0.535606f, 0.572490f,
  0.326938f, -0.096164f, -0.006552f, -0.209625f, 1.071460f, 0.407224f, -0.179443f, 0.328171f,
  0.009974f, 0.028167f, -1.031739f, 0.241962f, -0.203877f, 0.027001f, 0.019876f, 0.326505f,
  0.627192f, 0.076024f, -0.233132f, 0.052387f, 0.111647f, 0.203473f, 0.272871f, 0.090510f,
  -0.009334f, -0.093524f, -0.116624f, -0.140579f, -0.472206f, 0.220593f, -0.005531f, 0.216697f,
  0.052358f, -0.092360f, -0.094238f, 0.566346f, -0.269453f, 0.385650f, 0.054788f, 0.260826f,
  0.064327f, -0.355767f, -0.143983f, -0.102644f, -0.221878f, 0.126699f, 0.251930f, -0.308259f,
  -0.135155f, 0.150266f, 0.013760f, -0.186202f, 0.521052f, 1.306061f, -0.314335f, 0.043230f,
  0.101912f, 0.012544f, 0.823689f, -0.115060f, -0.012087f, 0.380465f, 0.034059f, 0.060527f,
  0.025191f, 1.054274f, -0.189669f, -0.276520f, 0.107428f, -0.185402f, 0.816901f, -0.523718f,
  -0.255199f, 0.266744f, 0.240106f, 0.051259f, -0.928212f, 0.207970f, 0.034177f, 0.316489f,
  -0.075582f, -0.069402f, -0.825806f, 0.533951f, 0.264584f, -0.271349f, -0.043964f, -0.195299f,
  0.092115f, -1.706112f, -0.093814f, -0.105346f, -0.001998f, -0.158752f, 2.004932f, 0.592332f,
  -0.186051f, 0.172201f, 0.172811f, -0.042892f, -0.262904f, 0.011673f, 0.301334f, -0.215017f,
  0.159617f, 0.120859f, 1.119967f, -0.129529f, -0.007951f, 0.161922f, -0.027407f, -0.011558f,
  -0.910540f, 0.853275f, 0.091476f, -0.046383f, -0.247490f, 0.187110f, -1.632903f, 0.338283f,
  0.181382f, -0.113493f, 0.113979f, 0.101988f, 0.860518f, -0.770050f, 0.118142f, 0.224870f,
  -0.064583f, 0.196793f, -0.278459f, -1.597424f, 0.301513f, -0.126519f, 0.029839f, -0.001118f,
  0.622660f, 0.060046f, 0.096603f, -0.330048f, -0.118345f, -0.180184f, 0.397303f, -0.403076f,
  0.047808f, -0.028684f, -0.096395f, -0.130331f, 1.130967f, -0.505642f, -0.030596f, -0.021191f,
  -0.129111f, 0.161344f, 0.037179f, 0.079518f, 0.079563f, 0.095423f, 0.056942f, 0.174131f,
  0.678918f, 0.157822f, 0.002494f, 0.095947f, 0.020719f, -0.124343f, -0.253940f, 0.023129f,
  0.133152f, 0.212676f, -0.041132f, 0.281202f, 0.978059f, 2.505031f, 0.059168f, -0.069763f,
  -0.006581f, -0.087671f, 0.746630f, -0.062903f, -0.266447f, 0.083757f, 0.016425f, -0.213011f,
  -1.462236f, 0.297711f, 0.183736f, -0.005002f, 0.067698f, 0.006336f, -0.151004f, 0.182520f,
  0.254648f, 0.259411f, 0.162365f, 0.150068f, 0.562663f, -0.579452f, 0.125370f, -0.007903f,
  -0.134656f, -0.120027f, 1.662398f, -0.735867f, -0.113655f, 0.142809f, 0.087344f, 0.002957f,
  0.324025f, 0.520421f, 0.174555f, 0.353180f, -0.071888f, 0.031600f, -0.114985f, -0.682141f,
  -0.036147f, 0.557704f, 0.032092f, 0.082446f, 0.078996f, -1.016711f, -0.023180f, 0.101540f,
  -0.112714f, 0.101914f, 0.284901f, 0.029915f, 0.242456f, -0.141748f, -0.029923f, 0.130162f,
  -0.569568f, 0.369601f, -0.267375f, -0.044365f, 0.010730f, 0.107402f, 0.750600f, -0.112980f,
  -0.019337f, 0.265215f, 0.065406f, -0.064060f, -0.019676f, 0.154504f, 0.214721f, -0.007577f,
  -0.079502f, -0.034302f, 0.289193f, -0.252740f, -0.092553f, 0.038484f, -0.162860f, 0.051169f,
  -0.111145f, 0.297653f, 0.113946f, -0.002484f, -0.042133f, -0.086015f, 1.400274f, -0.090579f,
  -0.048315f, -0.153697f, -0.118015f, -0.116290f, 0.208502f, 0.077263f, -0.212625f, -0.096894f,
  -0.267690f, 0.021950f, 0.297819f, -0.212080f, -0.113753f, -0.004403f, 0.109559f, -0.061279f,
  -0.521047f, -0.211222f, 0.188885f, -0.006100f, 0.121527f, 0.137019f, 0.401868f, -0.473479f,
  0.210138f, -0.113013f, -0.186728f, 0.031795f, 0.656977f, -0.715985f, -0.114190f, 0.281133f,
  -0.025536f, -0.020467f, 0.401113f, 0.101261f, 0.273294f, 0.391789f, -0.148486f, 0.175815f,
  -0.164360f, -0.959809f, -0.047606f, -0.144651f, 0.166994f, -0.357109f, -0.264391f, -0.187195f,
  0.291070f, -0.048998f, 0.066134f, 0.076935f, 0.160806f, 0.384770f, 0.140494f, 0.076455f,
  -0.034453f, 0.300649f, 0.644726f, -0.816491f, -0.058824f, -0.015508f, 0.133326f, -0.114181f,
  1.631202f, -0.572368f, 0.094023f, -0.094547f, 0.070569f, 0.169508f, 0.038014f, -1.493942f,
  -0.213497f, 0.024380f, 0.069990f, -0.068131f, 0.263604f, -0.790990f, 0.217297f, -0.339206f,
  -0.265693f, -0.034421f, -0.410657f, 0.500641f, 0.219686f, 0.026788f, 0.148391f, 0.011243f,
  -0.245804f, 0.477312f, -0.237518f, -0.218499f, -0.088765f, -0.093168f, -0.247979f, -0.069942f,
  -0.009317f, -0.167382f, 0.138116f, -0.025022f, 1.555655f, 1.588810f, -0.341377f, -0.189356f,
  -0.157016f, 0.085566f, -0.514000f, -0.483964f, -0.182349f, 0.094456f, 0.137030f, -0.257377f,
  -0.349771f, -0.407114f, -0.236026f, -0.151279f, 0.034714f, -0.131380f, 1.158480f, 0.549262f,
  -0.038001f, -0.103382f, 0.095670f, -0.238535f, 0.987401f, 0.655173f, -0.415416f, 0.157429f,
  -0.031282f, -0.201394f, -0.916651f, 0.438121f, -0.140668f, -0.001080f, 0.024366f, 0.316281f,
  1.065105f, 0.006438f, 0.081062f, -0.040126f, -0.046301f, 0.050024f, 0.061917f, 0.363083f,
  0.154338f, 0.035667f, 0.022731f, -0.104834f, -0.251004f, 0.121565f, 0.279740f, 0.052324f,
  -0.088303f, 0.071729f, 0.053457f, 0.678628f, -0.082753f, 0.335133f, 0.114268f, 0.269898f,
  -0.239285f, -0.585996f, 0.148962f, -0.265267f, -0.271925f, 0.181722f, 0.774721f, 0.331676f,
  0.055678f, -0.018764f, 0.183492f, 0.012006f, 0.511127f, 1.231203f, -0.050863f, 0.127215f,
  0.417304f, -0.277655f, 0.670243f, -0.459635f, 0.104962f, 0.398138f, 0.158348f, -0.014753f,
  -0.046787f, 0.351676f, -0.119756f, -0.293700f, -0.038925f, -0.094677f, 1.238566f, -0.464499f,
  -0.019609f, 0.044495f, 0.098612f, -0.184502f, -0.650073f, -0.018878f, -0.075394f, 0.155591f,
  0.050889f, 0.045700f, -0.586939f, 0.521348f, 0.264036f, -0.215641f, 0.100281f, 0.036018f,
  0.597014f, -1.586373f, -0.194944f, -0.217527f, -0.073448f, -0.167478f, 1.954219f, 0.599967f,
  0.001120f, 0.133218f, -0.003295f, -0.308316f, -0.515335f, -0.054384f, 0.023898f, 0.003282f,
  0.217159f, -0.093571f, 2.085271f, -0.225666f, 0.037009f, 0.221126f, -0.210871f, 0.070470f,
  -1.129262f, 0.570295f, 0.054403f, -0.209273f, -0.139251f, 0.024388f, -2.141678f, 0.358607f,
  -0.203311f, -0.131487f, 0.235334f, 0.096757f, 0.651580f, -0.143448f, 0.353581f, 0.142871f,
  -0.080636f, 0.179794f, -0.650828f, -1.338355f, -0.090845f, -0.237703f, 0.123295f, 0.088677f,
  0.550724f, 1.249909f, 0.225322f, -0.063968f, 0.112796f, -0.137709f, 0.647694f, -0.534881f,
  -0.024204f, -0.114007f, 0.287351f, 0.042050f, 1.116295f, -0.468381f, -0.256450f, -0.152329f,
  0.076696f, 0.027829f, 0.356682f, 0.112182f, 0.100157f, 0.116528f, -0.129601f, 0.070741f,
  0.825686f, -0.345634f, -0.072084f, 0.073205f, 0.218147f, -0.100928f, -0.466753f, -0.045574f,
  -0.057089f, -0.020515f, -0.129042f, 0.220157f, 0.440468f, 2.667666f, 0.165481f, -0.167368f,
  -0.127999f, -0.004697f, 0.772354f, -0.010808f, -0.023123f, 0.335937f, 0.005725f, -0.187984f,
  -2.460014f, 0.457536f, 0.258195f, -0.137559f, -0.125094f, 0.061229f, 0.256365f, -0.085812f,
  0.241042f, 0.289179f, -0.101515f, 0.014847f, 0.453533f, -0.669560f, 0.176662f, -0.310221f,
  -0.118938f, -0.016747f, 1.762223f, 0.138394f, 0.020125f, -0.085319f, 0.041002f, -0.155406f,
  0.132650f, 1.178595f, 0.154156f, 0.446065f, 0.022404f, 0.095011f, -0.345576f, -0.870226f,
  0.255402f, 0.642556f, 0.006374f, 0.296208f, -0.190669f, -1.735234f, 0.114410f, -0.077431f,
  -0.170659f, 0.154510f, 0.500351f, 0.833828f, 0.066677f, -0.126816f, 0.027319f, 0.156721f,
  0.438928f, 0.003472f, -0.010272f, -0.025442f, 0.343557f, -0.115613f, 0.685686f, -0.219201f,
  -0.086113f, 0.380706f, -0.084301f, -0.222802f, 0.058244f, 0.073789f, -0.114773f, -0.416656f,
  0.165746f, -0.143831f, 1.527876f, -0.032634f, -0.146603f, 0.078221f, 0.051558f, 0.011044f,
  -0.172483f, 0.407241f, -0.093563f, -0.158842f, -0.080174f, -0.091820f, 1.685884f, 0.140842f,
  0.003562f, 0.107953f, -0.295965f, 0.048379f, 0.754114f, 0.520600f, -0.223195f, -0.298602f,
  -0.302142f, -0.027909f, 0.290932f, 0.057697f, -0.122787f, 0.097023f, -0.028440f, 0.109443f,
  -0.561022f, -0.174217f, 0.060231f, -0.173504f, 0.029188f, 0.303279f, 0.283699f, -1.508319f,
  0.073455f, -0.098743f, 0.151661f, -0.041245f, 0.640155f, -1.271432f, -0.209935f, 0.267200f,
  -0.042407f, 0.049499f, 0.306559f, 0.082436f, 0.122937f, 0.325512f, -0.177437f, 0.165362f,
  -0.091959f, -1.304590f, -0.199064f, 0.066739f, -0.098735f, -0.444251f, -0.354631f, 0.112153f,
  0.263721f, -0.136299f, -0.180058f, -0.099734f, 0.236424f, 0.343551f, -0.033810f, 0.069336f,
  -0.064555f, 0.356787f, 0.777442f, -1.685171f, -0.057227f, -0.057318f, 0.325579f, -0.292169f,
  1.308255f, 0.009865f, 0.055678f, -0.250291f, -0.154509f, -0.053736f, 0.126046f, -2.131420f,
  0.147069f, 0.181497f, -0.039848f, 0.111587f, 1.413583f, -0.194016f, 0.198880f, -0.035456f,
  0.053948f, -0.245051f, -1.422466f, 0.138083f, 0.032825f, 0.117271f, -0.203137f, 0.159053f,
  0.911788f, -1.390066f, 0.126307f, 0.010995f, -0.295599f, -0.025501f, -0.340529f, 0.221136f,
  0.048080f, -0.385762f, -0.046750f, -0.153702f, 1.494065f, -0.699354f, 0.280605f, -0.024044f,
  0.046918f, 0.023411f, 2.131515f, 1.072551f, -0.238063f, -0.033652f, -0.010779f, 0.126038f,
  -1.131787f, -0.047534f, 0.130943f, -0.222019f, -0.085536f, -0.080987f, 2.776343f, 0.056544f,
  -0.181693f, 0.265274f, -0.066723f, 0.116549f, -2.068722f, 0.155519f, -0.189751f, 0.075928f,
  0.057768f, -0.208221f, -1.184121f, -0.262016f, 0.040421f, -0.343457f, 0.017633f, -0.022981f,
  -1.321677f, 0.514744f, 0.075439f, -0.122616f, 0.005245f, 0.108640f, 2.428276f, 0.133447f,
  -0.455322f, 0.048780f, -0.115287f, 0.053565f, -1.449639f, -0.745229f, 0.233095f, -0.114176f,
  -0.149070f, -0.182017f, 1.311482f, 0.338890f, 0.176450f, -0.356097f, -0.065539f, -0.169868f,
  1.190872f, 0.382428f, 0.006208f, 0.177633f, 0.082204f, -0.124289f, -2.482303f, 0.144571f,
  -0.369993f, 0.163723f, -0.066224f, 0.110437f, -0.708361f, -0.571935f, 0.078941f, -0.050807f,
  0.015182f, -0.075991f, -1.020936f, 0.702084f, 0.271312f, 0.074189f, 0.006079f, 0.060280f,
  -0.723106f, 0.955974f, 0.165017f, -0.160907f, -0.019770f, -0.146850f, 2.444106f, -0.071252f,
  0.294709f, -0.067093f, 0.035440f, 0.032915f, 1.777564f, 0.385518f, 0.267622f, 0.206414f,
  0.142378f, 0.028732f, -0.411228f, 0.217781f, -0.125614f, 0.121464f, -0.174304f, 0.058538f,
  -0.823446f, 0.914189f, 0.157339f, -0.276979f, -0.034976f, -0.077521f, 2.240113f, 0.412695f,
  -0.064523f, 0.096400f, -0.030644f, 0.153661f, 1.458710f, 0.087812f, 0.179385f, -0.204677f,
  0.018877f, -0.204494f, 0.974671f, -0.116467f, 0.144957f, -0.014959f, -0.011100f, 0.215771f,
  1.245551f, 0.760874f, -0.037141f, -0.010642f, -0.148560f, -0.233964f, -0.014511f, -0.978229f,
  -0.001958f, -0.460858f, 0.005697f, 0.076429f, 1.265006f, -2.212878f, 0.070135f, -0.221759f,
  -0.009301f, -0.244401f, -0.443076f, -0.302332f, 0.194117f, -0.370341f, -0.040800f, 0.042446f,
  2.211865f, -2.364061f, -0.315803f, 0.136464f, -0.122923f, 0.008292f, -1.085228f, 0.383271f,
  0.130045f, 0.316501f, 0.011136f, -0.060239f, -0.557351f, 1.425886f, 0.103634f, 0.105823f,
  -0.111951f, -0.043184f, 0.604947f, -0.042866f, -0.204742f, 0.244808f, 0.140099f, 0.101059f,
  0.313392f, -1.188522f, 0.141411f, 0.099127f, -0.118105f, -0.145698f, -0.574642f, -0.543526f,
  -0.164903f, -0.496410f, -0.171831f, 0.077994f, 2.959893f, -0.776008f, -0.244630f, 0.039889f,
  -0.069294f, -0.022684f, -1.084114f, 0.244948f, -0.483740f, 0.342873f, -0.035036f, -0.079595f,
  -1.173322f, 0.033848f, 0.354761f, -0.189082f, 0.003791f, -0.192035f, 1.233165f, -0.027962f,
  0.103880f, 0.201206f, 0.102853f, 0.138823f, -0.690247f, -0.119859f, 0.169866f, 0.295591f,
  -0.039496f, -0.107022f, -3.208865f, 1.032147f, 0.338864f, 0.005459f, -0.224755f, -0.017907f,
  -1.221029f, 1.487477f, 0.017520f, -0.241763f, -0.062666f, 0.030507f, 0.764947f, 0.620896f,
  0.085789f, -0.370912f, -0.140547f, -0.081771f, 0.415032f, 0.973867f, -0.154472f, 0.066406f,
  0.046532f, -0.087134f, -2.465680f, 1.050134f, -0.241614f, 0.063463f, -0.184220f, -0.084316f,
  0.066113f, -0.635668f, -0.164121f, -0.247402f, -0.048433f, 0.065507f, 0.482499f, -1.130470f,
  0.004466f, -0.087137f, 0.068505f, 0.145036f, -0.797338f, -0.152786f, -0.133099f, -0.448200f,
  0.118892f, 0.053101f, 2.520929f, -0.637042f, -0.009504f, -0.195215f, 0.046110f, -0.074452f,
  0.661188f, -0.092123f, -0.210759f, 0.290574f, -0.128524f, -0.008475f, -2.508087f, 0.397270f,
  0.108246f, -0.191983f, -0.044712f, 0.085259f, 3.507796f, 0.678049f, 0.043376f, 0.186120f,
  0.056312f, 0.176408f, -0.676617f, 0.135701f, 0.323755f, 0.120492f, -0.038560f, -0.038375f,
  1.215408f, 0.319793f, 0.033087f, 0.057745f, -0.000098f, -0.367622f, -1.106918f, 1.377847f,
  -0.188333f, 0.012073f, -0.002103f, -0.020339f, -1.128644f, 0.400332f, 0.068785f, 0.145887f,
  -0.059443f, -0.055849f, 1.978542f, 0.436822f, -0.012498f, -0.194237f, -0.067847f, -0.048745f,
  1.171245f, -0.147930f, 0.056278f, 0.151095f, 0.040661f, -0.292245f, 0.945687f, -0.101403f,
  -0.174478f, 0.235182f, 0.076261f, -0.051079f, -2.127326f, -0.069835f, 0.233652f, -0.192527f,
  -0.060467f, -0.200303f, 0.021712f, -0.129372f, -0.036749f, -0.308124f, -0.044820f, 0.045205f,
  1.494963f, -0.556054f, 0.259644f, -0.121277f, -0.012567f, 0.183702f, 1.629353f, -1.049703f,
};

const float lstm_R[16384] = {
  -0.183808f, 0.079706f, 0.018372f, -0.086611f, 0.011479f, -0.030741f, 0.121838f, -0.073814f,
  -0.152362f, -0.080025f, -0.087343f, -0.032941f, 0.043841f, -0.123350f, -0.059463f, -0.111366f,
  0.125648f, 0.134300f, -0.108349f, -0.063415f, -0.118308f, -0.122486f, -0.074259f, -0.043569f,
  0.079378f, -0.015836f, -0.129534f, 0.006536f, 0.099846f, -0.160379f, 0.116614f, 0.173550f,
  0.073978f, 0.126905f, -0.081638f, 0.045484f, 0.188126f, 0.121911f, 0.109952f, -0.179315f,
  0.069876f, -0.020407f, 0.115371f, 0.196303f, -0.098474f, -0.047791f, 0.144460f, -0.180346f,
  0.082362f, -0.046364f, 0.146418f, 0.078827f, -0.012450f, -0.120470f, -0.056511f, 0.153175f,
  0.085556f, -0.065914f, 0.124510f, 0.163806f, -0.030645f, -0.117788f, -0.210075f, -0.079611f,
  0.145947f, 0.081380f, -0.027143f, -0.165069f, 0.051121f, 0.206173f, -0.012221f, -0.061039f,
  -0.018272f, -0.180802f, 0.102109f, -0.065371f, 0.189340f, 0.010417f, 0.152025f, -0.038519f,
  -0.229510f, 0.190450f, 0.113569f, -0.025926f, 0.153701f, -0.118024f, 0.009937f, 0.022035f,
  -0.051905f, 0.164450f, 0.052909f, 0.109402f, -0.017312f, 0.223630f, 0.118906f, -0.032349f,
  -0.241584f, -0.040941f, 0.074197f, 0.034379f, -0.007172f, 0.087217f, -0.094570f, 0.056588f,
  -0.037546f, 0.001154f, 0.203304f, 0.171040f, 0.058823f, 0.040452f, -0.014955f, 0.090685f,
  0.012669f, -0.057641f, 0.073987f, 0.045191f, -0.074119f, -0.031509f, 0.150943f, -0.067648f,
  0.045814f, 0.109367f, 0.011548f, -0.133410f, -0.072926f, 0.108804f, -0.006992f, 0.068648f,
  -0.012500f, 0.119736f, -0.115325f, -0.074446f, -0.119280f, 0.119556f, -0.124624f, -0.080855f,
  -0.064678f, -0.195154f, 0.130484f, 0.261198f, -0.309191f, 0.062947f, -0.076347f, 0.117118f,
  -0.204720f, -0.051535f, 0.084204f, 0.160091f, 0.183684f, 0.046150f, 0.148767f, -0.069793f,
  0.114757f, 0.162137f, 0.155466f, -0.226154f, 0.183989f, -0.101010f, 0.190269f, -0.110812f,
  0.023289f, -0.241589f, 0.021761f, -0.116254f, -0.024084f, -0.244722f, -0.110059f, -0.073514f,
  0.065866f, 0.074454f, 0.177747f, -0.058296f, 0.049122f, 0.106150f, -0.122153f, 0.129715f,
  0.028693f, 0.100983f, 0.045001f, 0.071628f, 0.227818f, 0.006955f, -0.037886f, -0.185106f,
  -0.145233f, -0.069850f, 0.003786f, -0.088686f, 0.002437f, -0.167639f, 0.103028f, 0.269839f,
  0.034470f, 0.203726f, -0.211113f, -0.100557f, -0.049535f, -0.098943f, -0.065177f, 0.075591f,
  0.011171f, -0.031007f, 0.045261f, 0.201211f, -0.115511f, 0.159020f, -0.072528f, -0.164247f,
  -0.005073f, 0.193371f, 0.091671f, 0.095966f, 0.096251f, -0.164454f, -0.038606f, 0.225268f,
  0.061672f, 0.073332f, 0.006486f, 0.274748f, -0.106501f, 0.050036f, 0.338562f, -0.140454f,
  0.132505f, -0.033860f, -0.001299f, 0.073703f, 0.218077f, 0.028937f, -0.113703f, 0.218852f,
  -0.064599f, -0.097914f, 0.060927f, 0.058652f, 0.009240f, -0.143821f, -0.025469f, 0.071358f,
  0.050601f, 0.231730f, 0.069099f, -0.340061f, 0.130507f, -0.230765f, 0.035799f, 0.022104f,
  -0.069334f, 0.144882f, -0.055247f, -0.119624f, 0.021624f, -0.058514f, -0.122386f, 0.118840f,
  -0.132181f, -0.109936f, -0.061896f, 0.111770f, 0.045237f, -0.127423f, 0.159078f, 0.076499f,
  0.070071f, -0.022263f, -0.167466f, 0.017030f, 0.096735f, -0.037517f, -0.090543f, 0.014633f,
  -0.039525f, -0.108413f, -0.063771f, -0.146657f, 0.031410f, 0.167191f, 0.115700f, 0.082452f,
  -0.087257f, 0.073013f, -0.011978f, -0.019935f, -0.082845f, 0.210657f, -0.041167f, -0.079220f,
  -0.067654f, 0.085036f, 0.005328f, -0.157324f, 0.036286f, -0.005868f, -0.133379f, -0.062844f,
  -0.135964f, -0.141357f, 0.033179f, 0.068195f, 0.006150f, 0.015579f, 0.087002f, 0.037810f,
  -0.080289f, -0.002821f, 0.042307f, 0.173066f, 0.034429f, -0.031719f, -0.029623f, 0.018168f,
  0.060933f, 0.041015f, 0.222162f, -0.067104f, -0.024274f, 0.106094f, 0.011083f, -0.033245f,
  -0.110676f, -0.140518f, 0.191658f, 0.069129f, 0.027437f, -0.024466f, 0.089640f, -0.101025f,
  0.204624f, -0.091938f, 0.038377f, 0.019293f, 0.173699f, 0.018225f, -0.041628f, 0.052503f,
  0.088710f, -0.201027f, -0.019243f, -0.145910f, -0.135639f, 0.059115f, 0.068064f, -0.106984f,
  0.125876f, -0.054331f, 0.065399f, -0.022414f, 0.098920f, 0.034039f, 0.001990f, 0.044750f,
  0.129313f, -0.118392f, 0.075185f, -0.102995f, 0.294299f, -0.060069f, -0.002601f, -0.048827f,
  0.130014f, 0.044626f, -0.202018f, 0.170230f, 0.066496f, -0.000062f, 0.032492f, 0.166767f,
  -0.035885f, 0.053190f, 0.017093f, 0.147859f, -0.010999f, 0.203333f, -0.119267f, -0.049903f,
  0.150827f, 0.080382f, -0.095391f, -0.004767f, 0.116197f, -0.014998f, 0.078735f, -0.000484f,
  -0.243653f, -0.077054f, -0.078304f, -0.040058f, -0.141360f, -0.248026f, 0.233297f, -0.290815f,
  -0.014394f, 0.028536f, 0.221401f, -0.035440f, -0.040762f, -0.283269f, -0.150631f, 0.179050f,
  -0.019873f, 0.067728f, -0.116144f, -0.205932f, -0.140285f, -0.114661f, 0.055057f, -0.178441f,
  0.046323f, -0.052755f, -0.003383f, -0.051581f, -0.006267f, -0.104704f, -0.106820f, -0.034482f,
  -0.114593f, -0.262571f, -0.077807f, -0.185543f, 0.096475f, 0.050142f, -0.080028f, -0.289274f,
  0.221023f, -0.134375f, -0.117601f, -0.100392f, -0.073818f, 0.271390f, -0.107362f, 0.031761f,
  0.027595f, -0.044353f, -0.041756f, 0.029527f, -0.082644f, -0.063901f, -0.178940f, 0.061077f,
  0.062661f, -0.258998f, 0.101057f, -0.049233f, 0.086115f, -0.067411f, 0.016782f, -0.033293f,
  -0.079482f, -0.218961f, 0.019219f, 0.071678f, -0.019655f, -0.041853f, 0.067885f, 0.017588f,
  0.014042f, -0.030982f, 0.188597f, 0.100387f, -0.067359f, 0.079188f, -0.013025f, -0.108150f,
  -0.015968f, 0.018946f, 0.008122f, 0.154586f, 0.017439f, 0.009897f, 0.077598f, 0.182977f,
  0.012704f, 0.077655f, 0.012978f, 0.055189f, 0.006221f, -0.074014f, 0.158288f, -0.041685f,
  -0.043486f, -0.089856f, -0.012192f, -0.144830f, -0.037561f, 0.041955f, -0.159800f, 0.149023f,
  0.077059f, -0.000806f, -0.051032f, -0.047091f, -0.098812f, -0.009255f, -0.200064f, 0.071009f,
  -0.160523f, 0.129158f, 0.058625f, 0.175397f, 0.144728f, -0.107892f, -0.126283f, -0.002444f,
  -0.175827f, 0.013330f, 0.043924f, 0.096409f, -0.035522f, 0.178126f, 0.121898f, 0.066650f,
  -0.193022f, 0.146709f, -0.077109f, -0.061176f, -0.089693f, -0.064828f, -0.024127f, 0.205004f,
  0.015003f, -0.037238f, -0.024124f, -0.168335f, -0.259349f, 0.073552f, 0.029936f, 0.053886f,
  -0.200741f, 0.138994f, -0.043345f, -0.010712f, 0.077335f, 0.102597f, 0.134589f, 0.267642f,
  0.050193f, 0.025689f, 0.131724f, 0.050414f, -0.056670f, 0.225879f, 0.011753f, -0.163545f,
  0.166396f, -0.126172f, -0.202102f, 0.042083f, 0.035765f, -0.012208f, -0.011776f, 0.124454f,
  -0.069720f, 0.101898f, 0.004745f, 0.026541f, 0.013350f, -0.013095f, -0.174444f, -0.045860f,
  -0.041192f, 0.172040f, 0.045061f, -0.014647f, 0.184603f, -0.014053f, 0.054870f, 0.011870f,
  0.096317f, 0.176272f, -0.035816f, -0.108788f, 0.049303f, -0.015090f, -0.185582f, -0.022044f,
  -0.035726f, 0.100218f, -0.178455f, -0.004956f, 0.124757f, -0.061898f, 0.219909f, -0.047015f,
  -0.060263f, 0.131128f, -0.121019f, -0.133997f, 0.083206f, 0.022475f, -0.051062f, -0.124919f,
  0.146686f, 0.059002f, 0.145756f, 0.039384f, 0.096089f, -0.080204f, 0.146972f, -0.040433f,
  0.118731f, -0.218733f, 0.050975f, -0.189266f, 0.082708f, 0.101888f, 0.114871f, -0.019635f,
  -0.006074f, -0.173903f, -0.017463f, -0.152266f, 0.197395f, 0.156867f, 0.084596f, 0.011676f,
  0.128129f, -0.038410f, 0.116248f, -0.121029f, 0.131986f, 0.062733f, -0.000864f, 0.013135f,
  0.052924f, 0.222126f, 0.099161f, 0.049131f, 0.074309f, -0.161933f, -0.221867f, 0.178088f,
  -0.008510f, -0.019218f, -0.031060f, 0.110606f, 0.094294f, 0.019481f, -0.049451f, 0.048519f,
  -0.023313f, -0.013162f, -0.060323f, 0.079340f, 0.006649f, 0.080717f, 0.184604f, -0.187141f,
  0.029381f, -0.168334f, -0.146040f, -0.035356f, -0.076377f, -0.123822f, 0.049815f, 0.097781f,
  -0.002877f, -0.161146f, -0.091329f, -0.089542f, -0.009418f, 0.262364f, 0.042983f, -0.083873f,
  0.124509f, -0.055149f, 0.098074f, -0.140198f, -0.118088f, -0.118662f, -0.162900f, 0.252440f,
  0.079899f, 0.141148f, 0.232264f, -0.046210f, 0.029659f, 0.030245f, -0.114872f, -0.012116f,
  0.066404f, 0.108025f, 0.098491f, -0.131368f, -0.123902f, 0.065888f, 0.073535f, -0.025429f,
  -0.046614f, -0.066354f, 0.116924f, 0.221164f, -0.036417f, 0.173045f, 0.043965f, -0.164875f,
  0.093396f, -0.026159f, -0.077776f, -0.126083f, 0.066907f, -0.028769f, 0.074405f, 0.079067f,
  -0.111703f, 0.094075f, -0.174189f, -0.013170f, 0.184922f, -0.210647f, 0.158351f, 0.054468f,
  -0.136479f, -0.030853f, 0.106709f, 0.123104f, 0.071818f, -0.093514f, 0.049398f, 0.230050f,
  0.092571f, 0.224650f, 0.035001f, 0.055027f, -0.229485f, -0.003860f, -0.115386f, -0.177728f,
  -0.085250f, -0.081137f, -0.212532f, 0.045417f, 0.250894f, 0.012241f, 0.055025f, 0.009095f,
  -0.038287f, -0.009225f, 0.014739f, -0.025750f, 0.024896f, 0.128055f, 0.109973f, -0.105684f,
  0.014592f, -0.008672f, -0.209813f, 0.104539f, 0.154062f, -0.061158f, 0.174659f, 0.214695f,
  0.122950f, 0.204308f, 0.077556f, 0.024956f, 0.104645f, -0.043588f, -0.041318f, -0.128858f,
  -0.155207f, -0.024328f, 0.134996f, -0.068155f, -0.059869f, 0.059544f, 0.110053f, 0.094430f,
  -0.091508f, 0.031275f, -0.128770f, -0.090311f, -0.191561f, 0.145190f, -0.147338f, -0.146485f,
  -0.002897f, -0.130171f, -0.347918f, -0.003972f, 0.011088f, 0.023704f, -0.052142f, 0.362091f,
  -0.121576f, 0.156026f, 0.025227f, 0.196076f, 0.078720f, -0.041575f, -0.056857f, 0.009553f,
  -0.079944f, 0.013058f, 0.172221f, 0.081646f, -0.036395f, 0.249534f, 0.017602f, -0.000190f,
  0.051429f, 0.099074f, -0.103734f, 0.142046f, -0.220439f, -0.216701f, 0.141679f, 0.108064f,
  -0.013793f, 0.053671f, 0.102880f, -0.075261f, 0.114369f, 0.147430f, -0.132090f, -0.154250f,
  0.129995f, -0.068278f, 0.033925f, 0.052835f, 0.048922f, 0.205137f, -0.067576f, 0.123662f,
  -0.042296f, -0.091901f, -0.243075f, -0.081993f, 0.054883f, -0.070259f, -0.152974f, -0.124250f,
  -0.151463f, -0.181070f, -0.222620f, 0.047283f, -0.185901f, 0.077660f, 0.131830f, 0.022584f,
  -0.055586f, 0.082713f, 0.056797f, -0.070725f, -0.259779f, 0.097234f, 0.042384f, 0.258506f,
  -0.084920f, 0.122436f, 0.148826f, 0.040325f, 0.050111f, 0.106927f, 0.064910f, -0.245169f,
  0.034723f, -0.039165f, -0.180967f, -0.048257f, -0.268961f, 0.045412f, -0.333678f, 0.099033f,
  0.045494f, -0.092514f, -0.052383f, -0.165388f, -0.107489f, 0.010666f, -0.084402f, 0.064837f,
  0.072085f, -0.015451f, -0.066254f, -0.202535f, -0.065711f, 0.111061f, -0.208207f, 0.006159f,
  -0.000569f, -0.062233f, 0.098761f, -0.114939f, 0.108286f, 0.205377f, 0.012709f, 0.123499f,
  -0.085808f, -0.205606f, 0.045668f, -0.057554f, -0.078327f, 0.191356f, 0.128743f, -0.063592f,
  -0.045486f, 0.112210f, 0.020324f, -0.220546f, -0.051536f, -0.088074f, -0.030434f, 0.123666f,
  -0.184346f, 0.047976f, -0.042497f, -0.130955f, 0.155654f, 0.020495f, -0.110638f, -0.076765f,
  -0.003457f, 0.117308f, 0.012026f, 0.146933f, -0.058082f, 0.143873f, 0.140395f, 0.013697f,
  0.230308f, -0.185381f, 0.168179f, 0.073723f, -0.129587f, -0.221860f, -0.002105f, -0.084390f,
  0.054154f, -0.014283f, -0.119601f, 0.061415f, -0.098318f, 0.131967f, 0.280944f, 0.035264f,
  0.082341f, -0.000787f, -0.092727f, -0.041979f, -0.151794f, 0.043053f, -0.080575f, 0.117280f,
  0.004377f, -0.015751f, 0.137648f, 0.250143f, -0.083381f, -0.032474f, 0.058607f, -0.048275f,
  0.084123f, -0.048890f, 0.119204f, -0.048956f, -0.029833f, -0.158885f, 0.034991f, 0.092791f,
  -0.000229f, 0.000579f, 0.052859f, -0.113527f, 0.000894f, 0.131611f, -0.104666f, 0.050098f,
  0.159108f, -0.021177f, -0.016378f, -0.011819f, 0.138986f, 0.063405f, 0.009538f, -0.094590f,
  0.136747f, 0.014458f, -0.114022f, 0.027371f, -0.150895f, 0.147144f, 0.114542f, 0.096252f,
  0.049071f, 0.000912f, 0.101057f, 0.010985f, -0.069690f, 0.032554f, 0.009457f, 0.063446f,
  0.146847f, 0.284293f, -0.063640f, -0.082796f, 0.113153f, -0.054442f, 0.028699f, -0.140952f,
  -0.014224f, -0.126771f, -0.055740f, -0.025481f, -0.008302f, -0.068620f, 0.040741f, -0.115566f,
  -0.007427f, 0.158409f, 0.008251f, 0.017254f, 0.036052f, 0.005898f, -0.028521f, -0.174903f,
  0.112288f, -0.006706f, 0.052028f, 0.112639f, -0.051016f, -0.185012f, -0.131094f, 0.108571f,
  0.146888f, 0.081220f, 0.033318f, -0.134196f, 0.036896f, 0.152490f, 0.031663f, 0.033912f,
  0.068088f, -0.066905f, -0.033853f, 0.071507f, -0.111310f, -0.136310f, 0.012071f, 0.256465f,
  -0.069873f, 0.020117f, 0.112773f, 0.143105f, 0.151901f, 0.045113f, 0.167191f, -0.131981f,
  0.083868f, -0.110264f, 0.061834f, 0.177495f, -0.132248f, 0.190936f, -0.111910f, -0.117009f,
  0.054401f, -0.065391f, -0.108267f, 0.104232f, 0.007322f, -0.110984f, -0.049224f, -0.116485f,
  -0.102005f, 0.160106f, -0.116098f, 0.022804f, -0.033894f, -0.020969f, -0.162717f, -0.163826f,
  -0.057991f, -0.010997f, -0.020568f, -0.075378f, -0.099413f, -0.043845f, 0.067786f, 0.256585f,
  0.120155f, 0.050140f, 0.105481f, -0.038325f, 0.143344f, 0.015223f, -0.054265f, -0.103704f,
  0.074871f, -0.209780f, 0.351744f, 0.201601f, -0.349646f, 0.132947f, 0.111740f, 0.058796f,
  0.321948f, -0.272800f, -0.077300f, 0.126546f, 0.533443f, 0.161041f, 0.264960f, 0.029744f,
  0.443812f, -0.177251f, 0.089422f, -0.166792f, -0.081312f, -0.260980f, -0.132266f, -0.027929f,
  -0.320986f, -0.272523f, -0.114582f, 0.000214f, -0.286105f, -0.370681f, -0.067766f, 0.437208f,
  0.378603f, 0.142826f, 0.083447f, 0.112932f, 0.429141f, 0.259006f, -0.200382f, -0.327208f,
  -0.045137f, 0.025418f, 0.176329f, -0.080689f, -0.006771f, -0.315911f, 0.192852f, -0.320554f,
  -0.017130f, -0.091901f, -0.188876f, 0.281491f, -0.121146f, 0.018964f, 0.111014f, -0.521076f,
  0.547397f, -0.205133f, 0.327448f, -0.325466f, 0.109838f, -0.234360f, -0.234999f, -0.311934f,
  -0.004554f, -0.085586f, -0.153313f, -0.172263f, -0.090129f, 0.185253f, -0.029655f, -0.148402f,
  -0.006762f, 0.003962f, -0.183633f, -0.047765f, -0.085434f, 0.117252f, -0.238203f, 0.020874f,
  0.098818f, 0.002925f, 0.146523f, 0.059167f, -0.027476f, 0.284979f, 0.105149f, -0.131002f,
  0.139542f, 0.088075f, 0.040578f, 0.045154f, -0.257123f, -0.136141f, -0.112378f, 0.143968f,
  0.174006f, -0.124102f, -0.107549f, 0.009218f, -0.192961f, 0.180332f, -0.032868f, 0.091449f,
  0.130910f, 0.110699f, 0.014868f, -0.014218f, -0.244241f, 0.131036f, -0.215683f, -0.059886f,
  0.199648f, -0.281398f, 0.118433f, 0.091731f, 0.008183f, -0.090471f, 0.107596f, 0.248653f,
  0.160685f, -0.048235f, -0.103288f, -0.034479f, 0.171183f, 0.037047f, -0.108296f, -0.263229f,
  0.038009f, -0.098911f, -0.113510f, -0.063709f, 0.217344f, -0.231399f, 0.243389f, 0.093529f,
  -0.135264f, -0.061636f, -0.115171f, 0.015926f, -0.033152f, 0.070856f, 0.158918f, 0.030781f,
  0.113769f, 0.178782f, 0.026615f, -0.135330f, -0.146552f, 0.040397f, -0.100666f, -0.010844f,
  -0.070235f, 0.032922f, -0.137969f, -0.017485f, -0.008225f, 0.217268f, 0.048449f, 0.007472f,
  0.026465f, -0.006273f, -0.099208f, -0.109220f, 0.048889f, 0.026953f, -0.201444f, 0.037576f,
  0.209428f, -0.154836f, -0.037753f, 0.068494f, 0.013405f, -0.080286f, -0.032158f, 0.165157f,
  -0.047005f, 0.026946f, 0.106614f, -0.010283f, -0.134765f, 0.061386f, -0.165959f, 0.162483f,
  -0.048697f, -0.175060f, 0.113502f, -0.054666f, 0.033749f, 0.200266f, 0.209058f, -0.053715f,
  0.124549f, 0.076689f, -0.075093f, -0.147457f, 0.028942f, -0.048361f, 0.071839f, 0.035133f,
  -0.031615f, -0.028620f, -0.277243f, 0.095379f, -0.127282f, 0.014269f, 0.098629f, 0.036531f,
  -0.013862f, 0.035372f, -0.076008f, -0.009241f, -0.096057f, -0.181434f, 0.017944f, 0.073920f,
  0.212379f, -0.050055f, -0.096716f, -0.112757f, 0.126779f, -0.054920f, -0.036911f, -0.040109f,
  -0.096064f, 0.043231f, -0.188437f, -0.156813f, -0.252815f, -0.049484f, 0.212748f, 0.093129f,
  0.040579f, 0.154325f, 0.018800f, -0.043570f, -0.080413f, 0.150215f, -0.234073f, 0.021278f,
  0.114587f, 0.175518f, -0.003816f, 0.180671f, 0.104061f, -0.073369f, 0.115255f, 0.270995f,
  0.076210f, 0.017004f, -0.071070f, 0.041156f, -0.064963f, -0.006578f, -0.014910f, -0.019908f,
  -0.087345f, 0.018519f, 0.022825f, -0.002330f, -0.165259f, -0.024358f, 0.239942f, -0.047159f,
  -0.087815f, 0.010072f, 0.182187f, -0.096100f, 0.034910f, -0.010225f, -0.052806f, 0.210278f,
  0.023721f, 0.267463f, -0.114792f, -0.196648f, 0.014492f, 0.039446f, -0.121489f, -0.197872f,
  0.046375f, -0.007969f, 0.021138f, -0.016695f, -0.186118f, -0.027968f, 0.071941f, 0.154127f,
  0.012956f, -0.070338f, 0.025901f, -0.155618f, 0.002095f, 0.165333f, 0.028639f, -0.103995f,
  0.089195f, 0.165251f, -0.035069f, 0.021193f, 0.014500f, 0.180559f, -0.044102f, 0.151050f,
  0.183017f, 0.065303f, 0.193068f, 0.164287f, 0.121135f, 0.153963f, 0.063592f, 0.187527f,
  -0.066507f, -0.252558f, 0.019240f, 0.023778f, 0.109677f, 0.017161f, -0.053733f, -0.200527f,
  -0.020937f, 0.121833f, -0.086078f, -0.078410f, -0.040266f, 0.058359f, 0.104652f, 0.033918f,
  -0.029015f, -0.179172f, 0.032339f, 0.055787f, -0.129316f, 0.089943f, 0.097242f, -0.210061f,
  -0.107153f, 0.018575f, -0.008803f, 0.106741f, -0.050892f, 0.122977f, -0.010054f, -0.061293f,
  0.008794f, -0.103203f, 0.074091f, 0.015283f, 0.103473f, 0.039438f, 0.281363f, 0.102535f,
  0.029734f, -0.030878f, -0.136981f, -0.013374f, -0.058648f, 0.002440f, -0.320915f, 0.172671f,
  0.038861f, -0.051873f, 0.233908f, -0.209394f, -0.047287f, -0.026895f, -0.018160f, 0.165754f,
  -0.054087f, -0.152176f, 0.051574f, 0.203317f, -0.061559f, -0.156873f, -0.122877f, -0.130137f,
  0.048578f, -0.074383f, -0.003240f, -0.068078f, -0.063052f, -0.026747f, 0.038862f, -0.018652f,
  -0.199707f, 0.097551f, 0.018334f, 0.156792f, 0.043331f, -0.221689f, 0.145359f, -0.032865f,
  -0.089945f, -0.002341f, 0.000984f, -0.093341f, 0.049746f, -0.081149f, 0.087600f, -0.124826f,
  0.019240f, -0.006554f, -0.022099f, -0.051561f, 0.028776f, -0.118744f, -0.087033f, -0.024087f,
  0.108619f, -0.122015f, 0.051888f, 0.029292f, -0.017293f, -0.003633f, 0.068939f, 0.124407f,
  -0.041412f, -0.048839f, 0.148853f, -0.013677f, 0.128924f, 0.026112f, 0.044831f, 0.029939f,
  -0.016127f, -0.205071f, 0.029080f, 0.077550f, 0.104016f, -0.167617f, 0.135271f, 0.047609f,
  -0.097476f, 0.148236f, -0.083127f, 0.208107f, -0.011772f, 0.028975f, 0.010039f, 0.024996f,
  -0.046294f, -0.006500f, 0.243464f, -0.074645f, 0.079267f, -0.014946f, 0.061310f, -0.008715f,
  -0.008806f, 0.117457f, -0.047943f, -0.207567f, -0.046709f, 0.220811f, -0.246704f, 0.095063f,
  -0.169593f, -0.026730f, 0.018699f, -0.210693f, 0.045730f, -0.065580f, -0.107673f, -0.028730f,
  0.173155f, 0.061480f, -0.221243f, 0.049520f, 0.032688f, 0.093166f, 0.206488f, 0.184094f,
  -0.121119f, 0.139592f, 0.103890f, 0.007810f, -0.070630f, 0.063749f, 0.092716f, -0.031486f,
  0.041775f, 0.029024f, -0.028801f, 0.002877f, -0.107059f, -0.132333f, 0.189899f, -0.087727f,
  0.191264f, 0.159556f, 0.044713f, -0.062550f, -0.291825f, 0.096742f, -0.039362f, -0.054854f,
  -0.140492f, 0.037613f, -0.000321f, 0.144036f, 0.028799f, 0.120454f, 0.115118f, 0.176828f,
  -0.152582f, 0.072169f, -0.140585f, 0.001195f, 0.235224f, -0.091649f, 0.006671f, -0.103234f,
  -0.011920f, 0.028070f, -0.232476f, -0.170133f, -0.030259f, 0.161419f, 0.073032f, 0.047504f,
  -0.128057f, -0.012916f, 0.030482f, 0.180164f, -0.043435f, -0.162237f, -0.189956f, -0.058429f,
  -0.041776f, -0.045744f, -0.086503f, -0.085573f, -0.012786f, 0.057596f, -0.026714f, 0.033768f,
  -0.019918f, 0.226672f, -0.007572f, -0.095753f, -0.124195f, 0.018323f, 0.210619f, -0.250302f,
  0.026240f, 0.080072f, 0.119304f, -0.097143f, 0.024454f, 0.112666f, -0.077559f, 0.022704f,
  0.081338f, 0.065713f, -0.230188f, -0.130273f, -0.214142f, 0.006743f, -0.184841f, 0.176061f,
  -0.060066f, 0.202169f, -0.016743f, -0.174016f, -0.105289f, 0.034135f, 0.110501f, -0.019133f,
  0.081861f, -0.011899f, -0.068477f, 0.095592f, -0.115275f, 0.019784f, -0.108061f, 0.094545f,
  -0.028547f, 0.117654f, 0.115199f, -0.001621f, -0.017446f, -0.047969f, 0.064584f, 0.027546f,
  0.076636f, -0.052404f, 0.046990f, 0.008239f, -0.051552f, 0.072703f, 0.000648f, 0.008302f,
  -0.011256f, 0.006730f, -0.052058f, 0.010825f, 0.118527f, -0.090766f, 0.156168f, -0.055148f,
  0.054847f, -0.065886f, -0.117692f, 0.010244f, -0.023652f, 0.023118f, 0.193655f, 0.226975f,
  -0.134991f, -0.020360f, -0.004114f, -0.090285f, -0.034460f, -0.027219f, -0.115189f, 0.016968f,
  0.084844f, 0.100319f, 0.047384f, 0.044280f, -0.245974f, -0.064448f, 0.055782f, 0.141062f,
  0.011008f, 0.007769f, 0.009342f, 0.240907f, 0.220656f, 0.125335f, 0.062967f, -0.098469f,
  0.068988f, 0.056151f, 0.120224f, 0.016007f, 0.033937f, -0.029889f, 0.101803f, 0.160244f,
  0.263982f, -0.085751f, 0.145213f, -0.012067f, -0.013095f, -0.049093f, 0.140685f, 0.178616f,
  0.112667f, -0.037354f, 0.042219f, -0.027091f, -0.033193f, -0.021412f, 0.090856f, -0.034204f,
  -0.114414f, -0.061663f, -0.079124f, 0.165744f, -0.069838f, -0.144601f, -0.215377f, 0.180531f,
  -0.156627f, 0.021974f, -0.107151f, -0.119338f, 0.064372f, -0.013634f, 0.166033f, 0.196547f,
  -0.040584f, -0.021867f, 0.016221f, -0.047487f, 0.001361f, -0.068096f, -0.011029f, 0.037726f,
  0.110534f, -0.030554f, 0.180644f, 0.188445f, 0.242379f, -0.003808f, 0.087451f, 0.073956f,
  -0.009675f, 0.120121f, -0.167320f, 0.165895f, 0.102713f, 0.038985f, 0.007235f, -0.109785f,
  -0.130602f, -0.050121f, -0.049722f, -0.100326f, -0.340636f, 0.065819f, 0.028193f, 0.008586f,
  -0.084081f, -0.169698f, 0.063507f, -0.179514f, -0.057263f, -0.062544f, 0.195636f, -0.123515f,
  0.119105f, -0.044207f, -0.005567f, 0.038000f, 0.113274f, -0.181840f, -0.024300f, -0.043262f,
  0.134549f, -0.125412f, -0.158927f, -0.039051f, 0.051792f, 0.049883f, 0.022029f, 0.032401f,
  -0.071367f, -0.031934f, -0.058608f, -0.208720f, 0.120283f, 0.015193f, 0.018106f, -0.017103f,
  -0.078085f, 0.006598f, 0.000276f, -0.023115f, -0.106423f, -0.044875f, 0.040369f, -0.040904f,
  -0.065266f, -0.044543f, -0.150931f, -0.027233f, 0.030168f, -0.039118f, -0.026448f, 0.122864f,
  0.128780f, 0.010967f, 0.159288f, -0.141913f, -0.049964f, -0.034543f, -0.195311f, -0.191623f,
  0.012997f, 0.011599f, -0.160931f, -0.074229f, -0.091688f, 0.025500f, -0.017846f, -0.000770f,
  0.077302f, 0.202163f, 0.081674f, 0.004005f, -0.002467f, 0.023502f, -0.062373f, 0.129612f,
  0.006452f, -0.160939f, -0.127751f, -0.100261f, -0.133540f, 0.005947f, 0.007291f, -0.122110f,
  -0.055105f, 0.000369f, 0.240843f, 0.150885f, 0.207154f, -0.001569f, -0.052309f, 0.082940f,
  0.065644f, 0.058920f, 0.139202f, -0.005273f, 0.086993f, 0.060224f, 0.021042f, -0.003986f,
  -0.113629f, -0.063130f, 0.027776f, -0.025745f, 0.205743f, 0.096857f, -0.032479f, 0.091174f,
  0.024344f, -0.060480f, 0.261426f, 0.030534f, 0.128967f, -0.107893f, -0.025084f, -0.156906f,
  -0.007142f, 0.027491f, 0.060273f, 0.078624f, -0.006270f, -0.198155f, 0.129258f, 0.113936f,
  -0.097883f, -0.099840f, 0.150580f, 0.093088f, -0.291540f, -0.015873f, -0.129928f, -0.018975f,
  0.031692f, -0.024679f, -0.150906f, -0.150901f, 0.075957f, 0.157610f, 0.066965f, 0.206183f,
  -0.049546f, 0.073273f, -0.025920f, 0.037944f, -0.162355f, 0.001666f, 0.160958f, -0.056143f,
  -0.009252f, 0.147122f, 0.273505f, 0.061378f, 0.082347f, 0.113697f, -0.004170f, -0.038034f,
  0.100746f, 0.091647f, 0.136314f, -0.060009f, 0.010607f, 0.095044f, 0.133474f, -0.106996f,
  0.205775f, 0.002228f, 0.010290f, 0.028738f, -0.110820f, -0.094906f, -0.074903f, -0.021320f,
  -0.158518f, -0.006196f, -0.015103f, 0.117300f, 0.137459f, 0.072953f, -0.174637f, -0.062991f,
  0.139433f, -0.066747f, -0.140503f, 0.080187f, 0.111762f, 0.016407f, -0.109902f, -0.004002f,
  0.060816f, -0.083420f, 0.059262f, 0.096108f, -0.151652f, 0.005186f, -0.122066f, 0.101608f,
  -0.017120f, 0.070400f, -0.167822f, 0.021027f, 0.107456f, -0.176516f, 0.063160f, -0.194242f,
  -0.034595f, 0.008878f, 0.154806f, -0.188390f, -0.014967f, -0.194307f, -0.156266f, -0.047927f,
  0.087936f, 0.299014f, -0.008443f, -0.176236f, 0.007589f, -0.029711f, -0.107793f, -0.273262f,
  0.063450f, 0.016668f, 0.016728f, 0.061206f, -0.024118f, -0.036576f, 0.031025f, -0.101052f,
  0.038833f, -0.177788f, 0.022957f, -0.150915f, -0.056327f, 0.083734f, -0.090782f, -0.116053f,
  0.102453f, 0.023471f, -0.146101f, -0.050467f, -0.011198f, 0.167713f, -0.166472f, -0.163996f,
  -0.018386f, 0.122691f, 0.127797f, 0.195738f, -0.076752f, 0.067961f, -0.153518f, 0.173796f,
  -0.005327f, 0.024652f, 0.073484f, 0.040904f, 0.039150f, 0.235792f, 0.052800f, 0.080317f,
  -0.138018f, -0.147017f, -0.237778f, -0.164160f, 0.044141f, 0.002969f, -0.106929f, 0.261560f,
  -0.066347f, 0.008790f, 0.207290f, 0.231006f, -0.055360f, 0.013031f, 0.174679f, -0.174300f,
  -0.202651f, 0.120421f, -0.226745f, 0.006131f, 0.070781f, 0.047615f, 0.095257f, -0.007712f,
  0.251084f, 0.098099f, 0.003944f, -0.074872f, 0.307091f, 0.169151f, 0.232193f, -0.326919f,
  -0.003292f, -0.279298f, -0.238703f, -0.123073f, 0.025816f, -0.131502f, -0.119378f, 0.143755f,
  -0.042665f, -0.133919f, 0.078518f, 0.176594f, 0.104524f, 0.103971f, -0.282645f, 0.173083f,
  -0.135085f, 0.108439f, 0.220957f, 0.043095f, 0.228439f, -0.030339f, -0.277766f, -0.048105f,
  -0.144199f, -0.127158f, 0.081571f, -0.194508f, -0.149379f, 0.018701f, 0.155902f, -0.049347f,
  -0.100084f, 0.023402f, -0.095251f, 0.002904f, -0.135031f, 0.149851f, -0.134153f, 0.136321f,
  0.060489f, 0.063408f, -0.068025f, -0.001653f, -0.018692f, 0.045965f, -0.303664f, 0.045812f,
  -0.021169f, 0.238942f, -0.319961f, -0.031354f, 0.090219f, 0.168923f, 0.100838f, -0.029517f,
  0.255789f, -0.081220f, 0.028984f, -0.120669f, -0.004027f, -0.039888f, 0.209856f, -0.092653f,
  -0.054870f, -0.122403f, 0.101466f, -0.127707f, -0.053431f, -0.132744f, -0.019755f, -0.147733f,
  0.205628f, 0.011165f, -0.085126f, -0.161417f, -0.082686f, 0.164651f, -0.251815f, 0.164976f,
  0.036832f, -0.116403f, 0.102279f, 0.157861f, -0.041343f, 0.048749f, 0.097969f, 0.012061f,
  0.077413f, 0.072801f, -0.077144f, 0.000202f, 0.007754f, 0.002965f, -0.019026f, -0.081135f,
  -0.170484f, -0.057693f, -0.188890f, -0.197495f, 0.121721f, 0.007921f, 0.013312f, -0.143078f,
  -0.113129f, 0.114868f, -0.148658f, -0.149157f, -0.089327f, -0.249320f, -0.101932f, 0.179064f,
  -0.002030f, 0.137612f, -0.121619f, -0.115177f, -0.071821f, 0.045577f, -0.070778f, 0.009922f,
  0.080370f, 0.028688f, -0.101809f, -0.180571f, 0.011374f, 0.037043f, -0.075834f, -0.152665f,
  0.098508f, -0.119625f, 0.005031f, -0.185602f, -0.070344f, -0.163971f, 0.079446f, -0.106751f,
  -0.019311f, -0.005510f, -0.006734f, -0.020573f, -0.119252f, -0.030545f, -0.084657f, 0.177670f,
  0.236873f, 0.200930f, 0.127383f, 0.065200f, -0.013780f, 0.033008f, -0.083027f, 0.035092f,
  -0.004670f, -0.093248f, -0.237043f, -0.022121f, 0.067485f, -0.064963f, 0.076978f, -0.036566f,
  0.068868f, -0.113465f, 0.063070f, -0.026388f, -0.104706f, -0.176639f, 0.010659f, -0.059275f,
  -0.154640f, 0.070565f, 0.087364f, -0.135657f, 0.116664f, -0.069628f, -0.223328f, -0.172902f,
  0.103998f, 0.270075f, -0.158482f, -0.032106f, -0.207485f, 0.093357f, -0.082306f, -0.285376f,
  0.160091f, -0.115630f, -0.002666f, 0.077797f, -0.179081f, -0.124686f, -0.199645f, 0.167212f,
  0.303346f, -0.202508f, -0.328464f, 0.081852f, 0.030752f, 0.259068f, 0.074928f, -0.089152f,
  0.238577f, 0.082601f, 0.002224f, -0.072055f, -0.101254f, 0.104567f, -0.228317f, -0.174255f,
  0.044581f, -0.030283f, 0.157427f, 0.266153f, 0.050830f, 0.086200f, -0.278545f, 0.107555f,
  0.202720f, 0.033558f, -0.056024f, -0.059111f, 0.287809f, -0.089202f, -0.330057f, 0.041149f,
  0.154203f, 0.114695f, 0.148303f, -0.024670f, 0.066065f, 0.291341f, 0.065281f, 0.141316f,
  -0.018670f, -0.182814f, -0.178022f, -0.098284f, -0.046659f, -0.089321f, -0.093687f, -0.119985f,
  -0.196016f, 0.171686f, 0.005059f, 0.052423f, 0.168089f, 0.043691f, 0.221001f, -0.056866f,
  -0.006862f, -0.037811f, 0.128438f, -0.092305f, -0.011367f, 0.129941f, 0.139141f, 0.109317f,
  0.006494f, -0.057033f, -0.064125f, -0.057936f, 0.031595f, -0.163478f, -0.139387f, -0.023305f,
  -0.132094f, -0.021155f, 0.136557f, 0.194848f, 0.092248f, 0.062600f, -0.128978f, -0.041452f,
  0.000563f, 0.107261f, -0.047151f, 0.001270f, 0.145389f, -0.067187f, 0.087149f, -0.028388f,
  0.038364f, 0.144087f, 0.068277f, -0.025649f, -0.024383f, 0.058828f, 0.072381f, 0.018893f,
  -0.005794f, -0.044086f, -0.095163f, -0.176240f, 0.015069f, -0.165036f, 0.066909f, -0.052367f,
  -0.017868f, 0.116999f, -0.070919f, -0.142963f, 0.044429f, -0.085678f, -0.028574f, 0.046100f,
  0.057553f, -0.169360f, 0.063048f, -0.091902f, 0.128425f, -0.019371f, 0.142758f, -0.036246f,
  0.021953f, -0.030658f, 0.090079f, 0.080095f, -0.086742f, 0.008943f, -0.051294f, 0.015022f,
  -0.201081f, -0.119133f, 0.058800f, -0.050518f, -0.102681f, 0.098871f, 0.080854f, -0.086517f,
  0.237981f, -0.000736f, -0.082377f, -0.054000f, -0.023304f, 0.150310f, -0.141772f, -0.006259f,
  -0.071988f, -0.021905f, -0.091557f, 0.108882f, -0.045501f, 0.174444f, 0.069020f, 0.106479f,
  -0.141821f, -0.094981f, -0.170986f, -0.050483f, 0.132303f, 0.111092f, -0.018822f, 0.097079f,
  -0.020270f, 0.154935f, -0.140733f, -0.142147f, 0.004286f, -0.005998f, 0.100883f, -0.047440f,
  -0.155270f, 0.188053f, 0.068357f, -0.063693f, -0.074614f, 0.108551f, 0.080832f, 0.165184f,
  -0.062895f, 0.102750f, -0.084764f, -0.033023f, 0.065629f, -0.039762f, 0.005482f, 0.026256f,
  -0.026250f, 0.074040f, -0.095103f, -0.089880f, 0.052371f, 0.124830f, 0.115127f, -0.074708f,
  -0.034230f, 0.083127f, -0.003946f, -0.001578f, 0.090313f, 0.079298f, 0.223852f, 0.056476f,
  0.201156f, 0.159377f, 0.056882f, -0.090445f, 0.065610f, 0.067844f, -0.073917f, -0.092030f,
  -0.010710f, 0.090754f, 0.213716f, 0.025030f, -0.106056f, -0.016766f, 0.001476f, 0.050340f,
  -0.002742f, -0.097214f, -0.207485f, 0.078217f, 0.047234f, -0.048913f, 0.080424f, 0.065900f,
  0.208503f, -0.031445f, -0.172861f, -0.257434f, 0.013448f, 0.078238f, 0.054238f, -0.041829f,
  -0.083270f, -0.038278f, 0.029734f, 0.104960f, -0.114638f, -0.002979f, -0.112161f, -0.122018f,
  0.000852f, 0.123252f, 0.000450f, 0.000356f, 0.211151f, 0.116706f, -0.273215f, -0.201289f,
  -0.052783f, 0.007106f, 0.056105f, -0.126333f, 0.001054f, -0.104563f, 0.185707f, 0.102790f,
  -0.055606f, 0.091582f, 0.153801f, -0.038289f, -0.090422f, -0.076184f, -0.258602f, 0.147814f,
  0.087998f, -0.154676f, 0.161164f, -0.228151f, -0.055168f, 0.059185f, -0.177910f, 0.197065f,
  0.140159f, 0.197867f, -0.013028f, -0.060535f, 0.137000f, 0.032321f, -0.029677f, 0.016299f,
  -0.174464f, -0.001193f, -0.137004f, -0.193266f, -0.117418f, -0.134158f, 0.034266f, 0.054372f,
  0.094745f, -0.137698f, -0.041235f, 0.100860f, -0.074360f, 0.149526f, 0.205210f, -0.137353f,
  0.081704f, -0.099801f, -0.135243f, 0.024620f, -0.128415f, 0.014139f, -0.090059f, 0.050023f,
  -0.081524f, -0.146413f, -0.046456f, -0.048456f, 0.126565f, 0.241568f, 0.036873f, -0.089165f,
  -0.022736f, -0.109782f, 0.094311f, -0.167978f, -0.174566f, -0.065781f, -0.021361f, -0.086845f,
  0.208784f, 0.159254f, -0.144928f, -0.147977f, -0.118437f, -0.067521f, -0.106244f, 0.012861f,
  0.079631f, 0.068132f, 0.063222f, -0.231855f, -0.038002f, 0.070402f, -0.106617f, -0.020501f,
  0.144699f, 0.009179f, -0.080335f, 0.051027f, 0.039410f, 0.158625f, 0.092451f, 0.045128f,
  0.102236f, -0.096730f, -0.157334f, -0.009380f, 0.094854f, 0.128244f, -0.249289f, -0.129106f,
  0.070947f, -0.239712f, 0.048156f, -0.113111f, -0.061522f, -0.121696f, 0.070435f, -0.024072f,
  -0.110885f, -0.294183f, 0.106168f, 0.204596f, -0.074511f, -0.014805f, 0.055880f, -0.026457f,
  0.173163f, 0.096349f, 0.159309f, -0.177781f, -0.147707f, 0.071455f, 0.215403f, 0.208113f,
  0.102134f, -0.126195f, -0.184990f, -0.062274f, 0.151033f, 0.005247f, 0.184149f, 0.082323f,
  -0.058697f, -0.145866f, -0.068926f, -0.002484f, 0.034007f, 0.082976f, -0.337809f, -0.129101f,
  0.185820f, -0.071237f, 0.045515f, 0.013159f, -0.030295f, -0.150563f, -0.117106f, -0.023479f,
  -0.128317f, -0.031264f, 0.229807f, -0.084045f, 0.172196f, 0.192984f, -0.148376f, 0.063228f,
  0.097349f, -0.162640f, 0.052330f, 0.125922f, 0.165749f, 0.079489f, -0.012497f, 0.117675f,
  0.170624f, 0.032719f, -0.169418f, 0.020689f, 0.124688f, 0.030734f, -0.269232f, -0.035170f,
  -0.059520f, -0.091120f, -0.120163f, 0.031004f, -0.170139f, 0.034461f, 0.040829f, 0.139435f,
  -0.020005f, -0.190734f, 0.123294f, 0.200795f, 0.103656f, 0.027444f, 0.092449f, 0.139157f,
  0.043651f, -0.067389f, 0.005916f, -0.017632f, 0.116026f, -0.066887f, -0.007022f, -0.009373f,
  -0.097759f, 0.049075f, 0.001263f, 0.049888f, 0.016007f, 0.001506f, -0.169834f, 0.059793f,
  -0.161687f, 0.060957f, 0.103847f, -0.062065f, 0.150553f, 0.077156f, -0.206058f, 0.056205f,
  0.127162f, -0.021588f, -0.065381f, 0.008860f, -0.065425f, 0.157941f, 0.006032f, -0.057798f,
  0.133884f, 0.043805f, 0.055878f, 0.008573f, -0.030344f, 0.021764f, 0.190457f, -0.175965f,
  0.157097f, -0.068347f, 0.006672f, -0.096226f, -0.022955f, 0.146670f, 0.132672f, -0.020769f,
  0.083314f, -0.012960f, -0.090297f, 0.064664f, -0.128497f, 0.077841f, -0.121108f, 0.121836f,
  0.127563f, -0.209711f, 0.002152f, 0.127179f, 0.042959f, 0.199400f, -0.023311f, 0.111985f,
  0.055469f, 0.062477f, -0.070305f, 0.071255f, -0.115469f, 0.071345f, 0.033460f, 0.159217f,
  -0.006540f, 0.025861f, 0.114841f, -0.019391f, 0.024035f, 0.099936f, -0.111362f, 0.132300f,
  0.036800f, -0.065243f, -0.122887f, -0.110386f, -0.097888f, -0.021745f, -0.025655f, 0.072422f,
  0.044920f, -0.265059f, -0.031988f, 0.234260f, 0.014475f, 0.026805f, 0.201896f, 0.068230f,
  0.032814f, -0.108625f, -0.029560f, -0.168041f, -0.004070f, -0.026679f, -0.120870f, 0.139717f,
  0.183744f, -0.163166f, 0.140031f, -0.228274f, -0.184616f, 0.089690f, 0.127505f, -0.140447f,
  -0.002287f, 0.035332f, -0.150132f, -0.038741f, 0.032431f, -0.012094f, 0.098024f, 0.191777f,
  0.023304f, -0.173505f, 0.101446f, 0.056685f, -0.008733f, 0.095433f, 0.100483f, -0.076520f,
  0.002270f, 0.002303f, -0.045907f, 0.107011f, -0.211907f, -0.139032f, -0.244728f, 0.020235f,
  0.034007f, 0.128034f, 0.053764f, -0.076547f, -0.132984f, -0.029326f, 0.081444f, 0.088418f,
  0.078805f, -0.027013f, -0.050587f, -0.024909f, -0.098755f, -0.097832f, -0.080308f, -0.125720f,
  0.031626f, -0.140134f, 0.013047f, -0.069864f, -0.028473f, 0.123047f, 0.038515f, 0.151259f,
  -0.061000f, 0.071751f, 0.041626f, 0.105950f, 0.086272f, -0.048024f, -0.103606f, 0.164500f,
  0.233791f, 0.135273f, 0.004122f, -0.058938f, -0.042608f, 0.144012f, -0.038248f, -0.089853f,
  -0.061186f, 0.050954f, -0.079808f, 0.017106f, 0.009439f, -0.003074f, -0.117891f, -0.153926f,
  0.121295f, 0.035793f, 0.117293f, 0.021101f, 0.059929f, -0.018944f, 0.148261f, 0.177251f,
  0.073152f, -0.125357f, -0.117869f, 0.090709f, 0.122893f, 0.180505f, -0.101799f, 0.120629f,
  -0.073867f, -0.023413f, 0.054868f, 0.046993f, -0.065647f, -0.057399f, 0.048994f, 0.000064f,
  -0.110318f, -0.099070f, -0.053457f, 0.001486f, 0.051533f, 0.029872f, -0.004689f, 0.004614f,
  -0.000404f, -0.027949f, 0.029882f, 0.178950f, 0.167364f, -0.023809f, 0.176694f, 0.040407f,
  -0.107999f, 0.162463f, -0.055194f, -0.127536f, 0.118131f, 0.031282f, 0.098830f, -0.138613f,
  -0.102462f, 0.126181f, -0.025691f, -0.109106f, 0.292293f, 0.137183f, 0.097618f, 0.185626f,
  -0.186675f, 0.027077f, 0.057662f, 0.201887f, 0.060951f, 0.233120f, 0.147501f, -0.255796f,
  -0.227169f, -0.035175f, -0.034715f, 0.234561f, 0.129527f, -0.128208f, -0.294236f, 0.238869f,
  0.083062f, 0.125929f, 0.031132f, -0.095034f, 0.063462f, -0.139725f, 0.323435f, -0.048581f,
  -0.039951f, -0.017096f, 0.072480f, -0.046298f, 0.130444f, -0.178484f, -0.016913f, 0.079108f,
  -0.181089f, -0.136698f, 0.105279f, -0.021207f, 0.159002f, -0.235105f, 0.042219f, 0.074615f,
  0.210444f, 0.049992f, 0.170304f, -0.184708f, 0.218573f, -0.090690f, 0.109306f, -0.317900f,
  -0.263438f, -0.003879f, 0.106124f, -0.177038f, -0.191862f, -0.110497f, 0.130595f, 0.381523f,
  0.328898f, 0.007180f, 0.229123f, 0.167856f, -0.117928f, 0.332184f, 0.234592f, 0.192051f,
  0.212861f, -0.106845f, -0.034582f, 0.219206f, 0.207421f, 0.108522f, 0.150524f, -0.037469f,
  0.060429f, -0.270978f, 0.204084f, 0.228706f, 0.133497f, -0.064336f, -0.211053f, -0.150313f,
  -0.197873f, -0.272836f, 0.240924f, -0.108158f, -0.101316f, -0.377525f, 0.163956f, 0.072242f,
  0.191823f, 0.255614f, 0.324913f, 0.234591f, 0.197435f, 0.169000f, -0.460119f, 0.229784f,
  -0.070264f, -0.075843f, 0.288328f, -0.034017f, 0.196108f, -0.310795f, 0.068449f, -0.153355f,
  -0.087041f, -0.238552f, -0.206136f, 0.079416f, 0.164232f, 0.021589f, 0.055548f, -0.261556f,
  0.192687f, 0.017561f, 0.297545f, -0.262674f, -0.184870f, 0.055137f, -0.078804f, -0.096903f,
  0.188885f, -0.207208f, -0.000146f, -0.134733f, -0.192226f, -0.270757f, 0.219172f, 0.065878f,
  0.013873f, 0.028099f, -0.086148f, -0.093830f, 0.259023f, -0.075339f, -0.102470f, -0.004688f,
  0.335506f, -0.026918f, -0.112527f, -0.155524f, -0.339616f, 0.007574f, 0.245917f, 0.008831f,
  -0.021552f, 0.039160f, -0.010693f, 0.138775f, -0.095450f, -0.032792f, -0.006995f, 0.082520f,
  0.074652f, -0.010179f, 0.072489f, -0.115344f, 0.110853f, 0.270683f, 0.121509f, -0.206703f,
  0.226284f, -0.024962f, -0.170501f, -0.244709f, -0.116787f, 0.132856f, 0.158512f, -0.093103f,
  -0.160566f, 0.048634f, 0.103100f, 0.225583f, -0.044077f, -0.089908f, -0.138465f, 0.048914f,
  0.015118f, 0.145396f, -0.148120f, 0.066940f, 0.320363f, -0.127406f, 0.165016f, 0.012292f,
  0.040477f, -0.102321f, 0.075032f, 0.098073f, -0.045778f, 0.070566f, 0.075507f, -0.056021f,
  0.006167f, 0.037785f, 0.038746f, 0.072324f, -0.030264f, -0.000635f, -0.093510f, -0.115707f,
  -0.084791f, -0.051378f, 0.016123f, 0.050944f, -0.051841f, 0.162197f, 0.044974f, 0.078483f,
  -0.123585f, 0.017683f, -0.109872f, -0.182470f, 0.027756f, 0.099060f, 0.007768f, 0.140416f,
  0.039367f, -0.049210f, -0.052868f, 0.095367f, 0.078843f, 0.024664f, -0.214589f, -0.121432f,
  0.182968f, 0.129557f, 0.042389f, 0.045533f, 0.156176f, 0.185177f, -0.119933f, -0.070402f,
  -0.018700f, -0.038440f, 0.203925f, 0.005263f, 0.025594f, 0.001226f, -0.274244f, -0.022213f,
  0.027918f, -0.258149f, -0.070793f, 0.049474f, 0.208227f, 0.112721f, 0.122723f, -0.182035f,
  -0.248298f, 0.023624f, -0.172431f, 0.047847f, -0.039962f, -0.254203f, 0.062559f, -0.142082f,
  -0.075744f, 0.072741f, 0.156129f, -0.039298f, -0.150630f, -0.034221f, 0.017351f, 0.104422f,
  0.049569f, 0.054018f, -0.191239f, -0.054561f, 0.084360f, -0.063268f, 0.129562f, -0.190602f,
  0.086847f, 0.132561f, 0.007763f, 0.001766f, -0.032242f, 0.167462f, 0.159844f, -0.065340f,
  0.188386f, -0.268625f, -0.083157f, -0.125013f, -0.090351f, -0.038862f, 0.025379f, -0.030763f,
  0.079059f, -0.070290f, 0.097239f, 0.015034f, -0.118928f, 0.278850f, -0.127832f, -0.008955f,
  0.095773f, 0.030796f, 0.141000f, 0.206739f, -0.057594f, -0.098850f, -0.235022f, 0.039897f,
  0.083527f, -0.130796f, 0.019043f, 0.040406f, -0.080540f, 0.100702f, -0.073858f, -0.184488f,
  0.004047f, -0.126889f, -0.044174f, -0.044144f, 0.190585f, -0.174006f, 0.203305f, 0.058427f,
  -0.177864f, -0.201378f, 0.027313f, -0.020308f, 0.087893f, 0.047388f, 0.114984f, 0.002684f,
  0.066733f, 0.094234f, 0.104373f, 0.048147f, -0.290023f, -0.261490f, -0.149091f, 0.144645f,
  -0.110433f, 0.135575f, -0.024307f, -0.045830f, 0.018144f, 0.112243f, -0.045071f, -0.003314f,
  -0.096867f, 0.020295f, -0.101699f, -0.129467f, 0.013539f, 0.115352f, -0.133380f, 0.121563f,
  -0.101277f, -0.056846f, -0.003459f, 0.007864f, 0.181270f, 0.104612f, -0.065925f, 0.118146f,
  -0.018219f, -0.131640f, 0.017814f, -0.016289f, -0.049472f, -0.069674f, -0.074295f, 0.081745f,
  -0.004023f, -0.180469f, 0.118118f, -0.106758f, 0.033866f, 0.290491f, 0.203504f, -0.080759f,
  -0.045261f, -0.018926f, -0.181205f, 0.013975f, -0.095738f, -0.029163f, -0.073716f, -0.015129f,
  -0.113038f, -0.041028f, -0.211820f, -0.134394f, -0.143991f, 0.031525f, 0.000989f, -0.125024f,
  0.025442f, 0.078751f, -0.089902f, 0.055575f, 0.037330f, 0.003361f, 0.234248f, 0.048800f,
  0.071022f, 0.041607f, -0.031727f, -0.043780f, -0.041223f, -0.065465f, 0.057679f, 0.105218f,
  0.056513f, 0.014563f, -0.081363f, -0.058216f, -0.080811f, 0.027951f, -0.072623f, 0.080791f,
  -0.058453f, 0.000849f, 0.051560f, 0.119999f, -0.258363f, 0.088679f, 0.118714f, -0.092520f,
  -0.103869f, 0.092968f, 0.084963f, 0.206785f, 0.135405f, 0.004881f, 0.145840f, 0.079487f,
  0.038999f, 0.032108f, -0.017685f, -0.076760f, -0.042430f, 0.024011f, -0.101555f, 0.126173f,
  0.046655f, -0.212916f, -0.131354f, -0.080274f, 0.144413f, -0.149535f, -0.047903f, -0.197555f,
  -0.067878f, 0.045566f, 0.061946f, -0.024672f, -0.078483f, 0.141242f, -0.050981f, -0.096428f,
  0.159147f, 0.060107f, 0.015097f, -0.114557f, -0.060299f, -0.088827f, 0.161532f, -0.015310f,
  0.056972f, 0.021986f, 0.069444f, -0.111787f, -0.020917f, 0.008961f, -0.036022f, 0.226278f,
  -0.150490f, 0.096107f, 0.128737f, -0.032072f, 0.120118f, 0.041983f, 0.012319f, -0.193076f,
  0.089547f, 0.051893f, 0.044716f, 0.064226f, 0.068938f, -0.195808f, 0.101974f, -0.021669f,
  -0.135596f, -0.143488f, 0.093384f, -0.078818f, 0.012884f, -0.109617f, -0.006538f, 0.167116f,
  0.037255f, -0.114246f, -0.029151f, -0.079088f, 0.099134f, 0.062193f, -0.085313f, -0.091428f,
  -0.201122f, 0.052423f, 0.019155f, -0.110242f, 0.022055f, 0.019915f, 0.193969f, 0.037867f,
  -0.104235f, 0.226928f, 0.170347f, -0.168098f, -0.095650f, -0.182045f, -0.185151f, -0.132131f,
  0.013488f, -0.101972f, 0.105879f, -0.132287f, -0.030395f, 0.030002f, -0.012924f, -0.085260f,
  0.018154f, 0.040838f, -0.136368f, 0.045677f, 0.013679f, 0.087188f, -0.196847f, 0.130757f,
  0.121844f, -0.214275f, 0.174888f, -0.081769f, 0.115981f, -0.018286f, 0.168333f, -0.205080f,
  -0.034976f, -0.089719f, -0.039162f, 0.138444f, -0.189802f, 0.176033f, 0.037942f, 0.070424f,
  0.108212f, 0.081798f, -0.095954f, 0.159808f, -0.005545f, -0.042455f, -0.115685f, -0.114254f,
  0.049370f, 0.031410f, 0.088246f, -0.139276f, -0.076997f, -0.113961f, 0.226181f, -0.053101f,
  -0.095525f, -0.051354f, -0.179632f, -0.092652f, 0.044600f, -0.024774f, 0.079796f, -0.236834f,
  -0.090705f, -0.097168f, 0.126619f, -0.064660f, -0.187288f, -0.161816f, -0.124389f, -0.126272f,
  0.093194f, 0.043651f, -0.032119f, -0.066225f, 0.007100f, 0.299368f, 0.064266f, -0.108097f,
  -0.032274f, 0.093160f, 0.015166f, -0.128938f, 0.122206f, -0.258618f, 0.009981f, -0.006175f,
  0.029661f, 0.035717f, -0.148737f, -0.008921f, -0.080546f, -0.053870f, -0.042803f, -0.135669f,
  0.139136f, 0.089815f, -0.007816f, -0.135089f, 0.008436f, -0.003821f, 0.004952f, -0.089413f,
  0.068095f, 0.026250f, 0.249682f, 0.059181f, -0.074358f, 0.043534f, -0.130043f, 0.023650f,
  -0.116719f, -0.204861f, -0.038222f, 0.123201f, 0.087773f, -0.128034f, 0.041117f, 0.038670f,
  0.042987f, 0.163024f, -0.000195f, 0.040337f, -0.005626f, -0.173715f, 0.079223f, -0.038677f,
  -0.068720f, 0.034743f, -0.154083f, -0.136494f, -0.035315f, -0.106571f, -0.194326f, 0.013085f,
  -0.007114f, 0.093391f, 0.138221f, 0.006044f, 0.044981f, 0.170123f, 0.088075f, -0.181739f,
  -0.124611f, 0.000217f, -0.095244f, -0.116549f, -0.007909f, -0.012685f, 0.094747f, -0.129802f,
  -0.037015f, -0.051078f, 0.047009f, 0.090264f, -0.288655f, -0.016676f, -0.051174f, -0.041989f,
  0.091333f, -0.024778f, 0.048051f, -0.124003f, -0.373955f, 0.085164f, 0.015748f, 0.083935f,
  0.052467f, -0.009955f, 0.140939f, 0.106581f, -0.098762f, -0.174517f, -0.070082f, 0.097261f,
  0.016981f, -0.093648f, -0.307409f, 0.253093f, -0.011550f, -0.056295f, -0.074472f, 0.030238f,
  0.110771f, -0.043773f, 0.143251f, -0.172594f, 0.024744f, 0.103159f, -0.022988f, 0.157055f,
  0.049132f, -0.066545f, 0.050445f, 0.124975f, -0.093545f, -0.046793f, 0.049245f, 0.123632f,
  0.096718f, -0.004405f, -0.073365f, 0.109184f, 0.104740f, 0.166300f, 0.129036f, 0.134999f,
  -0.041818f, 0.130258f, -0.014542f, 0.124759f, -0.101159f, 0.073199f, -0.186366f, 0.158750f,
  0.008630f, 0.026345f, -0.105204f, 0.146313f, -0.015699f, 0.008432f, 0.145770f, 0.130825f,
  0.001341f, -0.014345f, 0.135295f, 0.103983f, -0.121181f, 0.084116f, 0.136526f, -0.223731f,
  -0.119103f, 0.010483f, 0.018403f, 0.329293f, 0.044564f, 0.043392f, -0.003422f, -0.001471f,
  0.063708f, -0.082979f, 0.102779f, 0.009354f, 0.107092f, 0.179278f, -0.115632f, -0.003701f,
  0.193521f, -0.093122f, -0.078990f, -0.120092f, -0.113863f, -0.138435f, 0.281020f, -0.076662f,
  0.116798f, 0.116849f, 0.052967f, -0.063348f, 0.037238f, 0.035691f, -0.008417f, 0.141651f,
  0.030848f, -0.052882f, 0.038898f, 0.069556f, 0.020477f, 0.150178f, 0.059560f, 0.099263f,
  -0.052743f, -0.119279f, -0.142051f, -0.062787f, -0.016413f, 0.006984f, 0.093211f, 0.033113f,
  -0.111300f, -0.051242f, 0.114406f, -0.173235f, -0.069166f, 0.056926f, -0.002616f, 0.124832f,
  0.121343f, -0.119668f, -0.107041f, -0.147098f, -0.004937f, 0.092794f, -0.228061f, 0.084140f,
  0.081278f, -0.124837f, 0.043304f, 0.018926f, -0.006727f, 0.080402f, 0.008080f, 0.047372f,
  -0.092484f, 0.035917f, -0.093082f, -0.161613f, -0.050454f, 0.042457f, 0.192994f, 0.092736f,
  -0.000975f, -0.092837f, 0.007593f, -0.056409f, -0.032182f, -0.002945f, 0.253692f, 0.062952f,
  -0.039087f, 0.006421f, -0.104798f, 0.030987f, 0.044921f, 0.069175f, -0.019355f, -0.150567f,
  0.070796f, 0.154625f, 0.071987f, 0.037642f, 0.031430f, 0.053065f, 0.122532f, -0.052941f,
  0.031616f, -0.070030f, -0.193691f, -0.041253f, 0.001710f, -0.024824f, -0.125726f, 0.225618f,
  0.081040f, 0.019727f, 0.038805f, 0.062374f, -0.079552f, 0.193879f, 0.092787f, -0.027134f,
  -0.040433f, 0.133616f, 0.019921f, -0.024729f, -0.006057f, 0.176050f, 0.031673f, -0.133094f,
  -0.046862f, -0.126765f, 0.017880f, 0.173160f, -0.017554f, -0.170922f, -0.120602f, -0.157805f,
  0.016098f, -0.005369f, -0.049749f, 0.280293f, 0.010635f, 0.094136f, 0.115804f, 0.022222f,
  0.067856f, 0.127557f, 0.062996f, -0.126538f, -0.009458f, 0.027909f, 0.091742f, 0.197101f,
  -0.124866f, -0.036556f, -0.119351f, 0.156098f, -0.025786f, 0.029203f, 0.047599f, 0.057603f,
  -0.060017f, -0.182656f, 0.117188f, 0.060813f, 0.277118f, -0.044157f, -0.000782f, 0.103785f,
  -0.107329f, 0.091234f, -0.003440f, -0.004425f, -0.052987f, 0.028390f, 0.235762f, -0.107751f,
  0.099909f, 0.099547f, -0.126539f, -0.065357f, -0.084387f, 0.019550f, -0.291369f, 0.261698f,
  -0.115345f, 0.023935f, 0.082082f, -0.005753f, 0.159606f, -0.035514f, -0.147382f, 0.042885f,
  0.095024f, -0.110785f, -0.131024f, -0.028443f, -0.026979f, 0.091384f, 0.027895f, 0.073353f,
  -0.033861f, 0.045658f, -0.025073f, 0.028927f, -0.136351f, 0.044103f, -0.018783f, 0.012420f,
  -0.146744f, -0.009540f, -0.064883f, -0.044409f, 0.091886f, -0.194153f, 0.127808f, -0.103713f,
  0.086071f, 0.092124f, -0.059052f, -0.066756f, -0.033839f, 0.036391f, -0.040202f, 0.035096f,
  -0.033501f, -0.000606f, -0.117553f, 0.065175f, 0.010607f, -0.085667f, -0.165455f, -0.148825f,
  -0.018873f, -0.119465f, -0.118420f, -0.055551f, -0.060179f, -0.235111f, 0.098475f, 0.041403f,
  -0.011696f, 0.019396f, 0.106651f, 0.036232f, -0.003982f, -0.067163f, -0.045160f, -0.021363f,
  0.112162f, 0.107323f, -0.123171f, 0.026565f, -0.074098f, -0.167737f, -0.028655f, 0.114587f,
  0.096442f, 0.073444f, -0.032513f, -0.020993f, -0.072804f, 0.212686f, -0.102623f, -0.089832f,
  0.118562f, 0.023454f, -0.176046f, -0.030660f, -0.048499f, -0.234973f, -0.151909f, 0.238072f,
  0.118476f, 0.142586f, -0.237082f, -0.043078f, -0.023326f, 0.213112f, 0.039349f, 0.077617f,
  -0.278991f, -0.022105f, 0.062819f, 0.026785f, -0.230934f, -0.215072f, -0.008291f, -0.288244f,
  -0.042749f, 0.071305f, 0.054593f, 0.159804f, 0.067377f, 0.028143f, -0.201930f, 0.082539f,
  0.003276f, 0.024751f, 0.017956f, 0.051700f, 0.127423f, -0.126045f, -0.039787f, -0.178029f,
  0.056976f, -0.141729f, -0.123610f, -0.063059f, -0.140724f, -0.106317f, 0.052414f, -0.012676f,
  0.046548f, -0.106463f, 0.197277f, -0.050641f, -0.038159f, 0.183729f, -0.405513f, -0.038470f,
  0.088750f, 0.202263f, -0.124432f, -0.194777f, 0.068962f, 0.028741f, -0.073812f, -0.070873f,
  -0.127406f, -0.001431f, 0.024596f, -0.066096f, -0.202826f, -0.035545f, -0.021357f, 0.081437f,
  -0.139934f, 0.095507f, -0.162601f, -0.077609f, -0.039923f, -0.008387f, 0.302424f, 0.119957f,
  -0.163063f, -0.074800f, -0.082587f, -0.005513f, 0.101898f, -0.232266f, -0.192046f, -0.055899f,
  -0.018192f, -0.077449f, 0.157222f, -0.016179f, 0.080033f, 0.057064f, 0.009916f, -0.013025f,
  0.034957f, 0.053458f, 0.113890f, 0.041821f, 0.005352f, -0.156906f, 0.046756f, -0.122526f,
  -0.053063f, 0.059126f, -0.025220f, -0.114788f, -0.077228f, -0.006998f, -0.180380f, 0.120383f,
  0.193391f, 0.050420f, -0.072351f, -0.072347f, -0.215792f, -0.106530f, 0.000321f, 0.047171f,
  0.023241f, 0.070452f, -0.066706f, 0.206816f, -0.065139f, -0.016407f, -0.198606f, -0.004286f,
  -0.013824f, -0.063068f, -0.101530f, 0.074694f, -0.010829f, -0.200997f, -0.016150f, 0.129071f,
  -0.123307f, 0.056625f, -0.126610f, -0.132092f, 0.091548f, -0.010800f, -0.014006f, -0.150849f,
  -0.012468f, 0.192907f, 0.005617f, -0.181729f, 0.041986f, -0.049737f, -0.137106f, 0.039031f,
  0.076794f, -0.058296f, -0.089494f, -0.150396f, -0.029212f, -0.058613f, -0.132950f, 0.032279f,
  -0.065360f, 0.015146f, 0.100313f, 0.048835f, -0.143760f, -0.143100f, 0.111741f, 0.002137f,
  0.164729f, -0.049098f, -0.028348f, -0.229709f, 0.015106f, -0.025417f, 0.097070f, -0.073358f,
  0.000617f, -0.088147f, 0.052176f, -0.017669f, -0.294182f, -0.043836f, 0.060061f, -0.118185f,
  0.017268f, 0.114485f, 0.117505f, 0.069207f, -0.058716f, 0.058139f, -0.163750f, 0.113438f,
  -0.071814f, 0.017806f, 0.007630f, 0.086246f, -0.095420f, -0.265796f, -0.128539f, -0.132928f,
  0.155415f, -0.028995f, -0.167965f, -0.059747f, 0.043702f, 0.230705f, 0.061118f, -0.009049f,
  -0.138911f, -0.036024f, -0.026275f, 0.187359f, 0.033936f, 0.050513f, 0.016015f, 0.105419f,
  -0.206127f, 0.179929f, 0.073140f, 0.036887f, 0.123573f, 0.091580f, 0.079091f, -0.092506f,
  0.128907f, -0.021487f, -0.037645f, 0.248453f, -0.063067f, 0.061314f, 0.199655f, -0.088606f,
  0.007741f, 0.162733f, -0.122561f, 0.225020f, 0.117328f, -0.003506f, 0.061498f, 0.074601f,
  0.032653f, -0.109508f, 0.136656f, 0.075338f, 0.014142f, 0.047132f, 0.158671f, 0.073782f,
  -0.185552f, -0.117135f, 0.074770f, 0.172383f, -0.020153f, 0.090456f, -0.037087f, 0.038689f,
  0.020313f, -0.147071f, -0.068637f, 0.032936f, -0.153480f, 0.215848f, -0.080970f, 0.063310f,
  0.146569f, 0.155484f, 0.021860f, -0.163801f, -0.004689f, 0.089381f, -0.126811f, 0.081597f,
  -0.226848f, 0.071236f, -0.001411f, -0.176256f, -0.149524f, 0.046714f, -0.189821f, 0.274970f,
  -0.062748f, 0.055795f, 0.096053f, 0.062113f, 0.094691f, 0.303143f, 0.005385f, -0.093879f,
  0.110461f, 0.125654f, -0.011335f, 0.146916f, 0.116573f, -0.064945f, -0.157921f, -0.125382f,
  0.121234f, -0.171297f, -0.048027f, 0.041078f, -0.036056f, -0.205739f, -0.040322f, 0.065505f,
  0.024492f, 0.100281f, -0.084727f, -0.216379f, -0.180113f, 0.208102f, -0.088916f, 0.004835f,
  -0.007633f, 0.102183f, 0.022886f, -0.055321f, 0.026856f, -0.015870f, 0.105364f, -0.041012f,
  -0.020171f, 0.165743f, -0.108220f, -0.031355f, 0.170412f, -0.005909f, 0.065421f, 0.046313f,
  0.093272f, -0.033770f, 0.224529f, -0.095481f, -0.180802f, -0.068780f, -0.160752f, 0.170985f,
  0.195241f, -0.026273f, -0.123780f, -0.123723f, 0.118715f, 0.166852f, 0.011136f, -0.150737f,
  0.123620f, 0.170004f, 0.010069f, -0.016667f, 0.126472f, -0.084208f, -0.139737f, 0.028886f,
  -0.001815f, -0.113062f, 0.084823f, -0.067651f, -0.090300f, -0.099898f, 0.057720f, 0.155610f,
  0.089562f, -0.010719f, -0.001964f, -0.024539f, 0.139205f, 0.148323f, -0.106252f, -0.120517f,
  -0.049984f, 0.169905f, 0.212228f, 0.017649f, -0.243552f, 0.073747f, -0.144005f, -0.054561f,
  0.109817f, -0.110907f, 0.075502f, 0.126450f, 0.040427f, 0.129970f, 0.135976f, 0.071192f,
  -0.102165f, -0.082723f, -0.266640f, -0.195767f, 0.213635f, 0.041441f, -0.185952f, 0.018859f,
  -0.110659f, -0.165555f, -0.163351f, 0.068584f, -0.028531f, 0.093124f, 0.154631f, 0.064242f,
  0.000760f, -0.013131f, -0.089955f, 0.146095f, -0.064228f, -0.117085f, -0.023033f, 0.100245f,
  -0.196765f, 0.152683f, 0.053083f, -0.026445f, 0.109711f, -0.054216f, 0.107512f, 0.146768f,
  -0.110010f, 0.073859f, -0.045239f, -0.126184f, 0.098192f, 0.225414f, 0.143283f, 0.012031f,
  -0.058570f, -0.132816f, 0.011981f, -0.124907f, 0.026729f, -0.017306f, 0.045896f, -0.000685f,
  0.049252f, -0.054287f, 0.014298f, -0.015836f, 0.180780f, 0.129327f, -0.126449f, -0.078603f,
  -0.045412f, 0.006427f, -0.018485f, -0.030503f, -0.030928f, -0.000302f, -0.067780f, -0.071877f,
  -0.164664f, -0.091087f, -0.090561f, 0.107524f, -0.002385f, 0.056323f, 0.147463f, -0.054186f,
  -0.081992f, -0.162623f, 0.148263f, 0.012885f, -0.071664f, 0.024180f, 0.177471f, -0.110144f,
  0.020497f, 0.146025f, -0.255032f, -0.098582f, 0.158264f, -0.035325f, -0.143473f, -0.064898f,
  0.054822f, -0.091882f, -0.094906f, -0.078169f, 0.007799f, -0.040325f, 0.012508f, -0.113847f,
  0.103120f, 0.078086f, 0.016580f, 0.099010f, 0.101153f, 0.042575f, -0.007759f, 0.178600f,
  -0.040321f, 0.088765f, 0.181323f, -0.094024f, 0.310121f, 0.038650f, 0.068718f, -0.139537f,
  0.176956f, 0.027713f, -0.080200f, 0.131197f, -0.072578f, -0.013183f, -0.065621f, 0.041880f,
  -0.007907f, 0.190521f, 0.103212f, 0.028581f, -0.031408f, 0.114314f, -0.166497f, 0.065648f,
  0.183101f, -0.122324f, -0.070447f, 0.078465f, 0.008602f, -0.216922f, 0.113212f, -0.074305f,
  -0.116397f, 0.113102f, -0.046830f, 0.016082f, -0.096680f, -0.013061f, -0.036415f, 0.010257f,
  0.126547f, -0.028855f, 0.155485f, 0.089697f, 0.118840f, -0.137540f, -0.102969f, 0.224213f,
  0.168167f, 0.018732f, 0.056324f, 0.095926f, -0.019376f, 0.124630f, 0.051490f, -0.077203f,
  0.099703f, -0.081757f, -0.043711f, -0.022932f, -0.220522f, -0.046780f, -0.201394f, 0.020913f,
  0.060300f, -0.076806f, -0.217831f, -0.092865f, -0.083848f, -0.019093f, -0.027286f, 0.098715f,
  0.214229f, 0.201252f, 0.026433f, -0.171813f, -0.104566f, 0.000439f, -0.038340f, 0.038483f,
  0.016531f, -0.165457f, 0.172396f, 0.039676f, -0.124288f, 0.121084f, 0.071328f, 0.294087f,
  -0.017903f, -0.150102f, 0.020473f, 0.183146f, -0.002237f, 0.090643f, -0.095840f, -0.048292f,
  0.026501f, -0.096825f, 0.049458f, -0.050126f, 0.011469f, 0.050041f, -0.015255f, 0.058784f,
  0.114239f, -0.021445f, 0.033991f, -0.061543f, 0.251958f, 0.112134f, 0.154036f, -0.012810f,
  -0.039089f, 0.142603f, -0.033369f, 0.116678f, -0.124766f, -0.010739f, -0.072940f, 0.243013f,
  -0.082560f, -0.168366f, 0.009409f, 0.097034f, 0.139714f, 0.074348f, 0.159097f, 0.108619f,
  0.072196f, 0.076668f, 0.018460f, 0.053797f, 0.149836f, 0.211153f, 0.015534f, 0.022555f,
  -0.121761f, -0.161103f, -0.086238f, 0.021031f, 0.150950f, -0.089106f, -0.025784f, -0.137549f,
  -0.160856f, -0.048687f, -0.084541f, 0.119903f, -0.026374f, 0.054189f, -0.111295f, 0.079523f,
  -0.120798f, -0.014526f, -0.038629f, 0.000211f, 0.008669f, 0.199146f, 0.030499f, -0.155618f,
  -0.136967f, 0.174419f, -0.067661f, -0.162304f, 0.067985f, 0.004524f, 0.046135f, 0.126661f,
  -0.158072f, 0.101989f, -0.009059f, -0.141291f, -0.193555f, 0.030929f, -0.154333f, 0.111813f,
  -0.105816f, 0.075433f, 0.028992f, 0.088947f, 0.036055f, -0.021856f, -0.010793f, 0.198842f,
  0.201765f, 0.003175f, 0.031062f, 0.154314f, -0.233281f, 0.126069f, 0.046841f, -0.040447f,
  -0.045642f, -0.223020f, -0.304489f, -0.108148f, -0.135520f, -0.091663f, 0.143665f, 0.124351f,
  0.032955f, -0.058011f, -0.074104f, 0.041507f, 0.085852f, 0.154156f, -0.235066f, -0.214571f,
  -0.102068f, 0.201351f, 0.185727f, 0.033934f, -0.054433f, -0.123795f, -0.054494f, 0.155322f,
  -0.012911f, -0.082385f, -0.054285f, 0.101619f, 0.089911f, 0.234558f, -0.070973f, -0.009200f,
  -0.104075f, -0.069309f, -0.016743f, -0.056562f, 0.046780f, -0.036820f, -0.073119f, -0.003572f,
  -0.023454f, 0.082654f, -0.260065f, -0.153152f, 0.083167f, 0.027589f, -0.276964f, -0.292220f,
  0.057590f, 0.218476f, -0.032318f, 0.096688f, -0.130451f, -0.098167f, 0.129947f, -0.073828f,
  -0.053559f, -0.104349f, 0.027591f, -0.025532f, -0.105012f, -0.055872f, -0.138660f, 0.127812f,
  0.052572f, -0.029210f, -0.033714f, -0.047065f, 0.084485f, -0.034097f, 0.018516f, 0.104852f,
  0.158107f, 0.094583f, 0.100661f, 0.027345f, 0.023939f, -0.089697f, -0.102136f, 0.038780f,
  -0.046799f, 0.109758f, 0.174133f, 0.254401f, -0.067203f, 0.042339f, -0.045877f, 0.069894f,
  0.146148f, -0.199990f, -0.167881f, 0.071251f, 0.053116f, -0.244265f, 0.020598f, 0.055205f,
  0.143746f, -0.064852f, 0.063656f, 0.050949f, 0.045243f, 0.069902f, 0.108433f, -0.110811f,
  0.067483f, -0.077750f, -0.277186f, 0.154505f, -0.099587f, 0.032281f, -0.094442f, 0.059967f,
  0.109014f, -0.000901f, -0.106598f, -0.078572f, 0.145619f, 0.098273f, 0.010909f, -0.150939f,
  0.192884f, 0.023866f, 0.152919f, -0.246767f, -0.125518f, -0.054670f, -0.050686f, 0.007033f,
  -0.071757f, 0.087876f, 0.075382f, -0.034087f, -0.003219f, 0.043658f, 0.101275f, 0.071701f,
  0.128894f, -0.120292f, 0.032144f, -0.219828f, -0.281439f, -0.111970f, -0.142603f, 0.191414f,
  0.172258f, 0.043178f, 0.046594f, 0.048429f, 0.057499f, 0.132794f, 0.078726f, -0.097519f,
  -0.021697f, -0.050119f, -0.103746f, -0.077144f, 0.066170f, -0.058023f, 0.025951f, 0.076789f,
  -0.066663f, -0.057591f, -0.086192f, 0.171703f, 0.090552f, 0.021195f, 0.193687f, -0.219398f,
  -0.115673f, 0.208890f, -0.074700f, 0.126032f, 0.130783f, -0.013444f, 0.095329f, 0.117989f,
  0.075925f, 0.190746f, -0.031700f, -0.096227f, -0.271195f, -0.142558f, -0.170379f, -0.179045f,
  -0.014580f, 0.129004f, -0.116361f, 0.074021f, 0.089474f, 0.171305f, 0.091090f, -0.087041f,
  -0.059330f, 0.061997f, 0.200747f, -0.111482f, 0.183189f, -0.090135f, 0.155826f, 0.095584f,
  0.033425f, -0.115161f, -0.059699f, -0.009809f, 0.300533f, -0.035247f, 0.169771f, 0.153778f,
  -0.135099f, 0.162630f, 0.124957f, 0.184776f, -0.158275f, -0.079681f, -0.075914f, -0.002501f,
  -0.063927f, -0.043594f, 0.069488f, -0.123508f, -0.178211f, 0.083534f, 0.050743f, 0.083102f,
  -0.088707f, 0.066962f, -0.090083f, -0.065662f, 0.093981f, 0.041835f, -0.194000f, 0.079835f,
  -0.124258f, 0.142582f, -0.107791f, -0.171221f, -0.139265f, 0.088802f, 0.126554f, 0.364254f,
  -0.228751f, 0.140509f, -0.003144f, 0.093065f, 0.100472f, -0.034753f, 0.111783f, -0.048079f,
  0.031801f, -0.021210f, 0.018641f, 0.040073f, -0.141159f, 0.091259f, 0.143057f, 0.003995f,
  0.006513f, 0.019685f, -0.003100f, 0.108490f, -0.134510f, -0.009291f, 0.205143f, 0.164860f,
  0.042581f, 0.147963f, 0.136497f, -0.251351f, -0.083939f, 0.211061f, -0.210153f, -0.105223f,
  0.097295f, -0.171312f, 0.092216f, 0.230051f, 0.054669f, 0.150803f, 0.122319f, 0.225619f,
  -0.024654f, 0.113197f, -0.185017f, 0.018786f, -0.112525f, 0.079906f, -0.015402f, -0.073333f,
  0.114565f, -0.044086f, -0.024225f, -0.128407f, 0.017684f, -0.084591f, 0.116354f, -0.163203f,
  0.098987f, 0.036533f, -0.055318f, -0.110802f, -0.130893f, -0.019723f, 0.005313f, 0.084916f,
  -0.139705f, -0.035521f, 0.206770f, 0.006297f, 0.024916f, 0.028009f, 0.035060f, -0.041185f,
  0.166664f, -0.012651f, -0.041435f, -0.091091f, 0.000699f, 0.080401f, -0.034139f, 0.049829f,
  0.010191f, -0.106662f, -0.010354f, 0.006635f, -0.093346f, 0.000796f, 0.165505f, 0.037752f,
  -0.044562f, 0.007146f, 0.046616f, -0.177585f, -0.185174f, -0.056133f, -0.196474f, -0.085568f,
  0.021222f, 0.033152f, -0.076269f, -0.100304f, -0.005694f, 0.000685f, 0.036459f, 0.263031f,
  -0.101683f, 0.087253f, 0.008651f, 0.027007f, 0.085301f, -0.034284f, -0.081871f, -0.014644f,
  0.042586f, -0.063161f, -0.099693f, 0.011728f, -0.101708f, 0.041004f, -0.065770f, 0.010864f,
  0.008601f, 0.211144f, -0.141174f, -0.036297f, 0.097738f, 0.108273f, -0.218749f, 0.037296f,
  0.058970f, 0.201144f, -0.236877f, -0.058211f, 0.078958f, -0.042553f, 0.188256f, -0.192893f,
  0.064588f, -0.011326f, 0.111604f, 0.101777f, -0.143691f, -0.091846f, -0.051204f, 0.017350f,
  -0.207099f, -0.027054f, -0.144013f, 0.080494f, 0.073366f, -0.069910f, 0.122371f, -0.030726f,
  -0.020958f, 0.070063f, 0.050068f, -0.158891f, 0.000139f, 0.005934f, -0.083847f, 0.090130f,
  0.224449f, 0.118199f, 0.172519f, 0.250413f, 0.123956f, -0.045690f, 0.006170f, -0.124697f,
  -0.057625f, -0.077497f, -0.061977f, -0.074986f, -0.085111f, -0.056003f, -0.046449f, -0.078510f,
  0.158825f, -0.033394f, 0.139819f, -0.078968f, 0.054834f, 0.024757f, -0.116352f, 0.179622f,
  0.067222f, 0.030201f, -0.193274f, 0.071637f, 0.118450f, 0.014545f, 0.040409f, -0.258692f,
  0.201606f, 0.074996f, -0.015482f, 0.224133f, -0.040815f, 0.066211f, -0.011133f, 0.133677f,
  0.118648f, 0.041075f, 0.125100f, -0.174398f, -0.055852f, -0.045606f, 0.097474f, 0.079254f,
  0.013954f, 0.304397f, -0.044389f, 0.039175f, 0.207333f, -0.013604f, -0.122775f, 0.173097f,
  -0.069433f, -0.168994f, -0.059550f, 0.030702f, 0.059056f, -0.099637f, -0.009096f, 0.075034f,
  0.039649f, 0.050432f, -0.014327f, -0.112054f, 0.172651f, -0.035941f, -0.006574f, -0.211519f,
  -0.052843f, 0.113704f, -0.164153f, 0.183908f, -0.184462f, -0.134226f, -0.076295f, 0.073354f,
  0.034319f, -0.083441f, -0.101195f, -0.034311f, 0.084157f, 0.088222f, 0.040435f, -0.176609f,
  -0.079023f, 0.023427f, -0.158674f, -0.153060f, -0.236075f, -0.018774f, -0.179438f, 0.186480f,
  0.042046f, 0.217568f, -0.053580f, -0.021016f, 0.163455f, 0.239029f, 0.104924f, -0.143900f,
  -0.010449f, 0.109515f, 0.005645f, 0.025575f, -0.083680f, 0.159972f, -0.042889f, -0.162226f,
  -0.006966f, 0.039870f, 0.041581f, -0.092901f, -0.158255f, 0.022430f, -0.037933f, 0.012693f,
  0.113626f, 0.005338f, -0.101811f, 0.109893f, 0.009855f, 0.199570f, -0.085286f, -0.016843f,
  0.058999f, -0.016836f, 0.033556f, 0.121094f, 0.070415f, 0.070074f, 0.069727f, 0.104387f,
  0.148155f, 0.021010f, -0.031899f, 0.032143f, 0.011412f, 0.056022f, 0.115956f, 0.075769f,
  -0.107423f, 0.180891f, -0.115816f, 0.020775f, -0.027450f, -0.033960f, -0.135966f, -0.121698f,
  0.000930f, 0.146063f, -0.093908f, -0.104078f, -0.075861f, 0.116692f, -0.192479f, -0.021628f,
  0.089648f, 0.194167f, -0.069410f, 0.020707f, -0.095288f, 0.086610f, -0.152368f, -0.131706f,
  0.072369f, 0.147758f, 0.137192f, 0.054589f, 0.085341f, -0.113819f, 0.139059f, -0.108299f,
  -0.234690f, 0.045578f, 0.001097f, -0.060969f, 0.017382f, -0.147799f, 0.110206f, 0.194479f,
  -0.055370f, -0.054783f, 0.060719f, -0.043863f, 0.120807f, 0.131547f, 0.040858f, 0.106308f,
  0.057521f, 0.193712f, 0.060911f, 0.108509f, -0.013761f, -0.011761f, -0.173592f, -0.118221f,
  -0.162472f, -0.050605f, 0.084216f, -0.143135f, -0.039994f, -0.034422f, 0.063444f, -0.033013f,
  0.054101f, -0.092584f, 0.115224f, -0.104406f, 0.023297f, 0.054582f, -0.187044f, -0.077881f,
  0.105881f, -0.083686f, -0.262426f, -0.010851f, 0.026965f, -0.063242f, 0.067177f, 0.007971f,
  -0.037778f, -0.136154f, 0.109944f, 0.107529f, 0.140164f, 0.005734f, 0.173045f, 0.010177f,
  -0.030883f, -0.000981f, 0.187875f, 0.063601f, -0.233630f, -0.144047f, -0.095754f, 0.170790f,
  -0.086776f, -0.060022f, -0.095661f, 0.077442f, -0.096696f, 0.164205f, -0.176125f, -0.034887f,
  -0.033510f, 0.174321f, -0.027572f, -0.058154f, -0.004609f, 0.212402f, -0.037895f, -0.135613f,
  0.208160f, -0.226437f, 0.115916f, 0.142308f, -0.130215f, -0.006756f, 0.214204f, 0.114379f,
  -0.027567f, 0.079936f, -0.177229f, 0.024589f, 0.047879f, -0.035993f, -0.103928f, -0.198811f,
  0.083597f, -0.040498f, 0.024468f, 0.055024f, -0.024935f, -0.026229f, 0.226595f, -0.002785f,
  -0.090151f, 0.019585f, -0.034096f, -0.061125f, -0.008590f, -0.045044f, 0.034730f, -0.034558f,
  0.144448f, 0.179982f, -0.047436f, -0.001689f, -0.086873f, 0.038255f, 0.051009f, -0.105713f,
  -0.028738f, 0.037405f, -0.133813f, -0.068245f, -0.012618f, 0.034296f, 0.173273f, 0.151673f,
  0.061714f, 0.052644f, -0.105554f, -0.137744f, 0.010545f, -0.081561f, 0.116802f, 0.082570f,
  0.152935f, 0.143453f, -0.201540f, 0.115585f, -0.206999f, 0.112393f, 0.000582f, 0.164445f,
  -0.013697f, -0.108175f, -0.082833f, -0.003573f, -0.101619f, 0.059587f, -0.123910f, 0.210382f,
  -0.021617f, -0.015288f, 0.052285f, -0.005368f, 0.053128f, 0.156545f, 0.036914f, -0.129353f,
  -0.044337f, -0.004308f, -0.010175f, -0.155323f, -0.007631f, -0.163680f, 0.208334f, -0.207681f,
  -0.014666f, 0.046391f, -0.294770f, -0.032478f, 0.039284f, 0.037125f, -0.027820f, 0.179805f,
  0.056995f, 0.123056f, -0.200548f, -0.072930f, -0.025357f, 0.028147f, -0.023919f, -0.116205f,
  0.069014f, 0.122558f, -0.011129f, 0.072579f, -0.073313f, 0.195316f, -0.014507f, -0.135029f,
  -0.016535f, 0.078652f, 0.150791f, -0.208802f, -0.149534f, -0.134000f, 0.282083f, -0.119879f,
  0.139709f, 0.103270f, -0.178160f, 0.051296f, -0.148661f, 0.021074f, -0.092326f, 0.003171f,
  0.091367f, 0.025418f, 0.122354f, 0.178635f, 0.021126f, 0.119224f, 0.107228f, 0.110060f,
  -0.093988f, 0.088889f, -0.138721f, -0.126522f, 0.068536f, -0.062186f, 0.140258f, 0.069402f,
  0.132512f, 0.060608f, 0.075833f, 0.053056f, -0.157514f, 0.106067f, 0.264512f, 0.057031f,
  -0.076006f, -0.081608f, -0.011564f, -0.015715f, -0.028954f, 0.110993f, 0.059793f, 0.042171f,
  0.054818f, 0.067585f, -0.085862f, 0.011852f, -0.256610f, 0.106830f, 0.154550f, -0.108031f,
  -0.019193f, -0.057339f, -0.104382f, -0.014778f, -0.083111f, 0.087346f, 0.030544f, 0.056317f,
  -0.161610f, 0.119702f, -0.180207f, -0.067012f, -0.138746f, 0.221683f, -0.045425f, 0.034809f,
  -0.102423f, 0.060391f, 0.093795f, -0.146108f, 0.096426f, 0.168221f, -0.031981f, 0.132086f,
  -0.192400f, -0.046760f, 0.119685f, 0.143969f, -0.000182f, 0.017351f, 0.038917f, 0.141744f,
  -0.090065f, -0.150033f, 0.156093f, -0.071381f, -0.068738f, 0.115599f, 0.015302f, -0.060304f,
  0.077601f, -0.025038f, 0.177870f, 0.016577f, 0.063371f, 0.143760f, 0.127558f, 0.217829f,
  -0.157202f, -0.206384f, -0.128966f, 0.035603f, -0.125647f, -0.089593f, -0.016273f, -0.147008f,
  0.118756f, 0.061048f, -0.052563f, 0.054103f, 0.030911f, 0.124066f, -0.064956f, 0.124915f,
  -0.041966f, -0.032101f, 0.009020f, 0.030411f, 0.068054f, 0.129096f, 0.369671f, 0.135946f,
  -0.037364f, -0.046486f, -0.017466f, 0.004499f, -0.100426f, 0.211020f, -0.152974f, 0.083089f,
  0.005687f, 0.059548f, 0.050206f, 0.026218f, -0.127262f, -0.138760f, -0.121890f, -0.017150f,
  -0.222350f, -0.054783f, -0.067392f, 0.069440f, 0.132146f, -0.062881f, 0.051468f, -0.009823f,
  -0.119482f, -0.082263f, -0.060469f, 0.013428f, -0.005766f, 0.028766f, -0.046349f, 0.041724f,
  -0.147900f, -0.012167f, 0.092802f, 0.110590f, -0.016623f, -0.223395f, 0.258791f, 0.022827f,
  0.055638f, 0.095252f, 0.010566f, -0.093637f, 0.020418f, -0.003457f, -0.131935f, -0.140399f,
  0.116733f, 0.201797f, 0.147304f, -0.113157f, 0.083928f, 0.059342f, -0.150981f, -0.057718f,
  0.098975f, 0.098727f, -0.001600f, 0.103511f, 0.067673f, 0.197290f, 0.128880f, 0.286097f,
  -0.162770f, 0.104625f, -0.006550f, -0.081971f, 0.165687f, 0.108648f, 0.114815f, -0.052396f,
  0.072228f, -0.092347f, -0.044999f, 0.136981f, 0.050857f, -0.036268f, -0.084555f, 0.050215f,
  -0.085228f, 0.090191f, 0.155067f, 0.114016f, 0.049387f, -0.063736f, -0.042816f, 0.079542f,
  -0.125852f, 0.009166f, 0.007891f, 0.233449f, 0.018213f, 0.028434f, 0.021802f, 0.013850f,
  0.151951f, 0.139723f, 0.018076f, -0.189168f, -0.018053f, 0.117356f, -0.111826f, 0.101604f,
  0.028439f, 0.117916f, -0.018415f, -0.286285f, -0.061494f, -0.022301f, -0.168637f, 0.015776f,
  0.068847f, 0.160127f, -0.080297f, 0.070053f, -0.003267f, 0.007719f, 0.193578f, 0.264585f,
  0.060708f, 0.167287f, 0.065905f, -0.018451f, 0.060732f, -0.019704f, 0.098066f, -0.004108f,
  -0.096024f, -0.114675f, -0.017928f, -0.089210f, -0.230751f, -0.114907f, 0.047948f, -0.011982f,
  0.046642f, 0.034359f, 0.009483f, -0.142785f, -0.119110f, 0.046313f, -0.100429f, 0.075785f,
  0.164878f, 0.066208f, -0.000461f, 0.050852f, -0.091873f, 0.074234f, 0.185359f, 0.062155f,
  -0.071010f, 0.183007f, -0.048087f, 0.179761f, 0.033729f, -0.077261f, 0.072743f, -0.016297f,
  -0.179504f, -0.049657f, -0.161205f, -0.189650f, 0.019423f, 0.035819f, 0.240331f, -0.213421f,
  -0.036168f, -0.105054f, 0.007112f, -0.037517f, -0.092103f, -0.090222f, -0.244670f, 0.031740f,
  0.019168f, -0.037098f, 0.070829f, -0.155013f, 0.075054f, 0.041364f, -0.064960f, 0.054362f,
  -0.041285f, 0.082212f, -0.159912f, -0.043000f, -0.075263f, 0.037105f, -0.041215f, -0.060398f,
  -0.188015f, 0.019471f, 0.045217f, -0.272558f, 0.047158f, 0.036118f, -0.156412f, -0.012742f,
  0.039361f, 0.040497f, -0.256642f, 0.024238f, -0.178785f, 0.051676f, -0.124483f, -0.017479f,
  -0.018482f, 0.086649f, 0.219498f, -0.236029f, 0.172117f, 0.003756f, 0.095876f, -0.166873f,
  -0.140358f, -0.172886f, -0.214403f, 0.154323f, 0.115392f, -0.173148f, 0.101018f, -0.017442f,
  0.129085f, 0.046094f, 0.131610f, 0.006267f, -0.028471f, 0.149478f, 0.070626f, 0.125998f,
  0.036433f, -0.073108f, -0.182905f, -0.000172f, 0.047490f, -0.036942f, -0.101099f, -0.064005f,
  0.003320f, -0.076997f, -0.035743f, -0.072732f, 0.116331f, -0.009490f, -0.045354f, 0.010371f,
  0.030132f, -0.001651f, 0.008478f, -0.136162f, -0.064282f, -0.081175f, 0.115472f, 0.168947f,
  -0.114424f, -0.090527f, -0.005570f, -0.030423f, 0.068471f, 0.038454f, 0.042536f, -0.002030f,
  0.043581f, 0.112630f, 0.120050f, 0.025457f, -0.231848f, 0.028277f, 0.181022f, -0.005921f,
  -0.215485f, -0.046107f, -0.076695f, 0.311631f, 0.079582f, 0.137013f, -0.019693f, 0.013205f,
  -0.015202f, -0.050985f, 0.070394f, 0.083401f, -0.125807f, -0.051716f, 0.073104f, 0.109243f,
  -0.010027f, -0.003412f, 0.185987f, -0.069274f, -0.079895f, 0.003460f, 0.018212f, 0.113786f,
  0.019208f, 0.045926f, -0.037967f, -0.049146f, 0.110518f, 0.063658f, 0.130758f, -0.267539f,
  0.032676f, -0.184350f, 0.098095f, -0.031322f, -0.041877f, -0.040518f, -0.142919f, 0.167951f,
  0.100370f, -0.139928f, -0.099191f, -0.049899f, 0.113227f, 0.096535f, 0.283784f, 0.028095f,
  -0.015785f, 0.127300f, 0.089872f, -0.026100f, 0.178803f, 0.098513f, 0.062378f, 0.042748f,
  -0.164566f, -0.133825f, 0.152131f, 0.200819f, 0.144346f, 0.081444f, -0.016306f, 0.202864f,
  -0.026132f, 0.206737f, -0.122355f, 0.129771f, 0.187183f, -0.091079f, 0.045541f, -0.102388f,
  -0.083727f, -0.005730f, -0.060761f, -0.247926f, -0.246990f, -0.059947f, 0.228978f, 0.100910f,
  -0.016913f, -0.134380f, 0.031211f, -0.068755f, -0.093122f, -0.108570f, 0.121580f, -0.097049f,
  -0.086081f, 0.022402f, 0.008046f, 0.062962f, 0.006671f, -0.149050f, 0.044499f, -0.049045f,
  -0.046969f, 0.002338f, -0.073641f, -0.163134f, -0.020518f, 0.217366f, -0.062141f, -0.066479f,
  0.028195f, -0.122797f, -0.053320f, -0.061388f, -0.074993f, -0.022120f, 0.144110f, -0.128853f,
  0.012386f, 0.174515f, -0.064728f, -0.085035f, 0.060099f, -0.079691f, -0.124470f, 0.164919f,
  -0.094150f, -0.010933f, -0.087209f, -0.166168f, -0.058316f, 0.039385f, 0.039952f, -0.036094f,
  -0.042368f, 0.111317f, 0.012388f, 0.076316f, -0.044902f, 0.023122f, 0.093393f, -0.113395f,
  -0.131442f, -0.028664f, -0.019552f, 0.074013f, -0.144615f, -0.141044f, -0.019927f, 0.093834f,
  -0.090429f, 0.065799f, -0.034127f, -0.003981f, 0.133640f, 0.204492f, 0.071362f, 0.025816f,
  0.002456f, -0.013940f, -0.022390f, -0.021682f, -0.158372f, -0.187255f, -0.142780f, -0.117447f,
  -0.101397f, 0.033669f, 0.200791f, -0.069071f, 0.250270f, -0.090753f, -0.092822f, -0.010348f,
  0.006025f, 0.096851f, 0.023009f, -0.102644f, 0.004044f, -0.045821f, 0.229181f, -0.064728f,
  0.012994f, -0.066352f, -0.125780f, 0.171919f, -0.152842f, 0.065865f, 0.098198f, 0.236169f,
  0.138390f, -0.095957f, 0.046763f, -0.084673f, 0.082611f, -0.137554f, -0.168067f, 0.030618f,
  0.111156f, 0.023263f, 0.047166f, -0.054364f, 0.120547f, 0.017873f, 0.165705f, -0.091135f,
  -0.182504f, -0.018020f, -0.081890f, -0.019798f, -0.230882f, -0.066063f, 0.058594f, 0.233381f,
  -0.020264f, -0.083081f, -0.004709f, -0.011241f, 0.110125f, 0.027850f, -0.190280f, 0.118521f,
  -0.069440f, -0.115478f, 0.055497f, -0.147053f, 0.049580f, -0.021462f, 0.289107f, -0.239510f,
  -0.173898f, -0.048517f, 0.260618f, -0.008064f, -0.015730f, 0.241066f, 0.048745f, 0.090115f,
  -0.083003f, 0.166219f, 0.105409f, -0.003918f, 0.064680f, -0.063026f, -0.080443f, -0.144075f,
  0.231527f, 0.129206f, 0.050109f, 0.022782f, 0.059165f, 0.039093f, -0.040007f, 0.146137f,
  -0.176509f, 0.115004f, -0.054610f, 0.119471f, 0.109551f, -0.131834f, 0.024210f, -0.036270f,
  0.027443f, -0.105982f, 0.008565f, 0.006909f, -0.043294f, 0.021486f, 0.003413f, 0.084119f,
  -0.164623f, 0.067154f, -0.126196f, 0.025835f, -0.060244f, 0.131951f, 0.054969f, 0.137703f,
  -0.169858f, 0.118172f, -0.162879f, 0.140765f, 0.203442f, -0.098065f, 0.138210f, 0.004963f,
  -0.278001f, 0.122243f, 0.167180f, -0.122870f, 0.026285f, 0.016603f, -0.084100f, 0.224997f,
  -0.067605f, 0.055782f, -0.058491f, -0.029359f, 0.009685f, -0.181001f, -0.187826f, 0.078263f,
  0.029985f, 0.288954f, -0.060869f, 0.099201f, 0.127716f, 0.141386f, 0.065470f, -0.192264f,
  -0.120411f, -0.047143f, -0.130845f, -0.121110f, -0.173858f, -0.090971f, 0.064782f, 0.144142f,
  0.004741f, -0.043494f, -0.155219f, 0.205602f, 0.181687f, 0.133645f, -0.044538f, 0.057906f,
  0.085267f, 0.144395f, 0.121002f, 0.078172f, -0.063655f, -0.161483f, -0.172751f, -0.044498f,
  -0.010010f, -0.099462f, 0.234287f, -0.017858f, -0.181739f, 0.128589f, 0.088774f, 0.023241f,
  -0.089232f, 0.029299f, -0.156024f, -0.112709f, 0.234557f, 0.168170f, -0.171396f, 0.131932f,
  0.063165f, -0.087737f, 0.122658f, 0.017466f, -0.225838f, 0.081127f, 0.059462f, -0.163252f,
  -0.294737f, 0.147199f, -0.064931f, 0.102480f, 0.153879f, -0.086558f, 0.090201f, 0.149391f,
  0.106433f, 0.065776f, 0.073843f, 0.009713f, 0.207904f, 0.108314f, 0.004334f, -0.151866f,
  0.086109f, -0.131648f, -0.051546f, -0.141676f, 0.026787f, -0.015869f, -0.041131f, 0.134937f,
  -0.023479f, -0.152116f, 0.142338f, 0.079528f, 0.114607f, 0.024384f, -0.163225f, 0.132089f,
  -0.025478f, 0.112698f, -0.022573f, 0.067602f, 0.186308f, -0.007955f, 0.140382f, 0.011098f,
  -0.204170f, -0.024641f, 0.074091f, 0.003258f, -0.017080f, 0.019583f, 0.007039f, 0.088502f,
  -0.007210f, -0.055030f, 0.090578f, -0.109648f, -0.206180f, 0.082079f, 0.008506f, -0.053917f,
  -0.009522f, -0.017958f, -0.181608f, -0.040055f, 0.119134f, 0.020856f, -0.006185f, -0.125525f,
  0.051685f, -0.110137f, -0.054988f, -0.081387f, -0.072877f, 0.019967f, 0.132504f, -0.102408f,
  0.155589f, -0.084821f, 0.069298f, -0.149924f, -0.096296f, -0.009027f, 0.152092f, -0.009404f,
  -0.124171f, -0.085675f, 0.043363f, 0.018094f, 0.193994f, -0.066475f, 0.052341f, -0.108073f,
  -0.009582f, -0.035627f, -0.022098f, 0.099201f, -0.204519f, -0.126003f, -0.036030f, -0.092675f,
  0.122456f, 0.050814f, 0.172916f, 0.127467f, 0.198927f, 0.084251f, 0.073587f, -0.061433f,
  -0.025591f, 0.084816f, -0.114233f, -0.014113f, 0.138794f, -0.091733f, -0.131607f, -0.113924f,
  0.013099f, -0.076787f, -0.129987f, -0.119780f, 0.013143f, -0.067805f, -0.164043f, -0.112206f,
  -0.108167f, 0.213512f, -0.204501f, -0.171893f, 0.111438f, -0.075002f, -0.128663f, 0.166105f,
  -0.122349f, 0.112946f, -0.129157f, 0.044856f, -0.111444f, 0.146301f, 0.126824f, -0.072544f,
  0.218942f, 0.223856f, -0.088344f, -0.243962f, 0.089096f, -0.029358f, 0.062804f, 0.063176f,
  0.015723f, -0.050361f, 0.055994f, -0.177483f, 0.061154f, -0.106470f, 0.025159f, 0.008887f,
  0.147771f, -0.084065f, -0.124732f, -0.016026f, -0.019711f, -0.006640f, 0.057554f, 0.116002f,
  0.230211f, 0.163750f, -0.105673f, -0.039861f, 0.099109f, -0.087820f, 0.012167f, 0.082775f,
  -0.031558f, 0.022513f, -0.190937f, 0.083612f, -0.037155f, 0.001416f, -0.010274f, 0.106305f,
  -0.168901f, -0.045100f, 0.054894f, -0.041501f, -0.067910f, 0.088618f, 0.005563f, 0.158909f,
  -0.149909f, 0.072673f, 0.063627f, -0.220247f, 0.102188f, -0.110717f, -0.005579f, -0.099252f,
  -0.061920f, 0.065760f, 0.037237f, 0.202770f, 0.074827f, -0.025384f, -0.194838f, -0.061321f,
  0.186478f, 0.155589f, -0.090502f, -0.115157f, 0.024911f, 0.007906f, -0.092710f, -0.149151f,
  0.187432f, -0.080950f, -0.161600f, -0.036669f, -0.062403f, 0.182814f, 0.211130f, 0.056494f,
  0.102328f, -0.083161f, -0.141782f, 0.005646f, -0.200951f, 0.202825f, -0.052022f, -0.047666f,
  0.032924f, 0.195363f, -0.022479f, 0.260224f, 0.115358f, 0.126459f, 0.105345f, 0.035018f,
  0.158192f, -0.110429f, -0.034451f, -0.027581f, -0.034206f, -0.012971f, -0.211514f, -0.043315f,
  -0.038193f, -0.062236f, 0.059336f, 0.031499f, 0.034814f, 0.183778f, -0.067736f, -0.085135f,
  -0.047772f, -0.027485f, -0.283481f, 0.073102f, 0.001410f, -0.014345f, -0.029047f, -0.053641f,
  -0.214529f, 0.194113f, -0.101133f, -0.048641f, -0.005386f, 0.025792f, 0.154859f, -0.095354f,
  0.119655f, 0.006097f, 0.082385f, -0.050018f, 0.042692f, 0.079699f, 0.119888f, 0.118711f,
  0.055531f, 0.080433f, -0.052274f, -0.038576f, -0.128887f, -0.054102f, -0.033253f, 0.088316f,
  -0.259260f, -0.123877f, 0.177323f, 0.109859f, 0.073417f, -0.139081f, -0.017779f, 0.126640f,
  0.041484f, -0.011011f, 0.138064f, -0.081834f, 0.170304f, 0.027916f, 0.194630f, 0.058010f,
  -0.071501f, 0.151301f, -0.029660f, -0.143215f, -0.276773f, 0.082867f, 0.136858f, 0.015257f,
  -0.088136f, 0.154806f, 0.112692f, -0.160670f, 0.084177f, -0.050241f, 0.187229f, -0.014347f,
  -0.048820f, -0.004800f, -0.078252f, -0.111633f, 0.144578f, 0.121205f, 0.104048f, 0.103071f,
  -0.002572f, 0.010780f, -0.022656f, 0.005894f, -0.067122f, -0.051967f, -0.052105f, 0.000133f,
  0.075223f, 0.170595f, 0.029765f, 0.108617f, 0.006099f, 0.113479f, -0.036802f, -0.003493f,
  -0.161794f, 0.066634f, 0.167093f, 0.040240f, 0.040150f, 0.005183f, -0.082119f, -0.089671f,
  -0.027404f, -0.082758f, -0.252064f, 0.038933f, -0.104156f, 0.073503f, 0.064751f, -0.132525f,
  -0.066351f, -0.104489f, -0.065712f, 0.060423f, 0.065089f, 0.160411f, -0.074340f, 0.097284f,
  -0.057996f, -0.016153f, 0.070500f, 0.042993f, 0.070560f, 0.179107f, 0.172187f, -0.054216f,
  -0.242812f, 0.003528f, -0.070923f, -0.034063f, 0.001947f, -0.162182f, 0.182848f, -0.281896f,
  -0.290408f, 0.375424f, -0.006755f, -0.251474f, -0.152442f, -0.110355f, -0.108676f, 0.015512f,
  -0.030778f, 0.132805f, -0.146616f, -0.122424f, -0.084762f, -0.121468f, -0.208659f, -0.175296f,
  -0.110560f, 0.072340f, -0.282377f, -0.141510f, 0.040854f, 0.159346f, -0.081144f, -0.050658f,
  0.047501f, -0.167305f, -0.115010f, -0.133269f, -0.156853f, -0.008088f, 0.177708f, 0.021531f,
  0.121994f, 0.100147f, 0.061889f, -0.024316f, -0.036384f, 0.291759f, -0.033764f, 0.136912f,
  -0.226599f, 0.325473f, 0.157548f, 0.007294f, -0.175640f, -0.118484f, -0.270179f, 0.127607f,
  0.139920f, -0.135706f, -0.034794f, 0.200754f, 0.181325f, -0.051003f, 0.074024f, 0.114456f,
  0.182363f, -0.122223f, 0.044317f, -0.119675f, 0.097969f, 0.008409f, -0.010878f, 0.023953f,
  0.049180f, 0.016254f, -0.021113f, -0.091995f, -0.102201f, -0.186403f, 0.113176f, -0.185671f,
  0.013611f, -0.040248f, 0.073651f, 0.004114f, 0.227324f, -0.015184f, -0.020814f, -0.168288f,
  -0.080881f, 0.052477f, -0.008951f, -0.019111f, 0.154815f, 0.078686f, 0.108781f, -0.013739f,
  -0.152948f, -0.003291f, 0.182033f, 0.154934f, -0.083669f, -0.001131f, -0.003679f, 0.019776f,
  0.084801f, -0.130396f, 0.017397f, -0.079250f, -0.237939f, 0.116797f, -0.257376f, 0.167468f,
  0.045045f, 0.161723f, -0.053117f, -0.074230f, 0.113447f, 0.184326f, 0.055661f, 0.066446f,
  -0.154456f, 0.021659f, -0.214547f, -0.091611f, -0.056225f, -0.054063f, 0.139093f, -0.039013f,
  -0.028723f, -0.062999f, 0.053623f, 0.203079f, -0.279660f, 0.082182f, 0.154234f, 0.001961f,
  0.128178f, 0.017130f, -0.187157f, -0.065045f, -0.036823f, 0.069093f, 0.033770f, 0.226863f,
  0.041475f, -0.091683f, 0.032557f, -0.099342f, 0.169829f, 0.255596f, 0.133543f, -0.148978f,
  -0.024677f, 0.037190f, -0.103597f, -0.007639f, -0.266918f, -0.262479f, -0.008945f, -0.030108f,
  0.191988f, 0.056605f, -0.205836f, -0.135267f, -0.146287f, -0.079757f, 0.003264f, -0.091908f,
  0.076962f, 0.020761f, 0.032848f, -0.119086f, -0.218648f, 0.016938f, -0.118020f, -0.021042f,
  0.012351f, -0.137010f, 0.070388f, -0.072162f, -0.167288f, 0.119242f, -0.011949f, 0.125895f,
  0.130326f, -0.093213f, 0.003167f, 0.157533f, 0.203818f, -0.025756f, -0.052575f, -0.096184f,
  0.135966f, 0.031366f, 0.079134f, 0.024432f, -0.100976f, 0.197081f, 0.040467f, 0.002808f,
  0.125027f, -0.109753f, 0.036320f, 0.057581f, -0.026407f, -0.046588f, -0.105245f, 0.051551f,
  0.027138f, 0.020549f, -0.025610f, 0.019427f, 0.149443f, 0.179868f, 0.121333f, -0.108100f,
  0.047766f, -0.102644f, -0.122379f, -0.075431f, 0.126069f, -0.052096f, -0.128765f, -0.120833f,
  -0.037605f, -0.033735f, -0.087469f, -0.073346f, -0.107839f, 0.057903f, -0.390615f, 0.098138f,
  0.019714f, 0.038261f, 0.218833f, -0.034095f, 0.049299f, -0.080900f, 0.052670f, 0.015880f,
  -0.253052f, -0.112701f, 0.149232f, -0.073397f, 0.148224f, 0.190153f, 0.087872f, -0.102342f,
  0.045951f, -0.078137f, 0.044866f, 0.023259f, -0.088582f, 0.172446f, -0.168636f, -0.040812f,
  -0.044394f, -0.058953f, -0.150514f, -0.105908f, -0.050830f, 0.070226f, -0.040671f, -0.027122f,
  -0.064473f, 0.170166f, -0.160535f, -0.067332f, -0.108025f, 0.080347f, -0.052129f, -0.001973f,
  -0.007214f, -0.112338f, -0.024534f, 0.148894f, 0.074929f, -0.037234f, 0.120796f, -0.024941f,
  0.059085f, 0.008495f, 0.082284f, 0.108365f, 0.090437f, 0.174804f, 0.046150f, -0.145584f,
  -0.036898f, 0.073947f, -0.065175f, 0.018152f, 0.042295f, -0.089326f, 0.077356f, -0.058202f,
  -0.088068f, 0.076071f, -0.121299f, -0.103602f, -0.000062f, 0.097315f, -0.014970f, 0.000538f,
  0.099698f, -0.085711f, 0.050145f, -0.017800f, 0.130361f, -0.035532f, 0.116867f, 0.020237f,
  0.034822f, 0.167092f, -0.073276f, 0.100445f, 0.009526f, -0.076715f, -0.023418f, -0.162053f,
  0.091395f, 0.062026f, 0.062056f, -0.280684f, -0.226674f, 0.050109f, 0.122613f, -0.017367f,
  0.267002f, -0.137401f, -0.014512f, 0.095069f, -0.032243f, 0.037202f, -0.097894f, 0.031013f,
  -0.007296f, -0.207583f, -0.077718f, -0.061005f, -0.025015f, 0.101648f, 0.101466f, 0.068470f,
  0.148590f, -0.118857f, 0.109575f, -0.118873f, -0.031963f, -0.037743f, -0.015669f, -0.005233f,
  0.097378f, 0.309683f, 0.125992f, -0.008554f, -0.096169f, 0.041403f, -0.115406f, -0.000132f,
  0.149647f, 0.162048f, -0.114225f, -0.011387f, -0.060289f, -0.075459f, -0.172884f, 0.091244f,
  -0.144877f, -0.173945f, -0.075059f, 0.186874f, 0.072196f, 0.131870f, 0.044296f, -0.061641f,
  -0.050493f, 0.073198f, -0.050478f, 0.000715f, 0.040422f, -0.044158f, -0.139473f, 0.070407f,
  -0.043604f, -0.069714f, 0.045813f, -0.245092f, -0.143782f, -0.044461f, 0.030829f, 0.024735f,
  0.156479f, -0.123404f, -0.088261f, 0.010414f, -0.204766f, -0.025586f, -0.153995f, 0.433924f,
  -0.044518f, 0.036203f, 0.094555f, -0.047479f, -0.017813f, 0.066152f, -0.022051f, -0.240271f,
  -0.038339f, -0.104330f, 0.005917f, 0.103709f, -0.265402f, 0.048496f, -0.182866f, 0.185743f,
  0.117155f, 0.010175f, -0.086421f, 0.147490f, -0.106157f, 0.117674f, 0.052632f, 0.002624f,
  0.007996f, -0.063002f, 0.104626f, -0.217020f, -0.266819f, 0.158890f, 0.004308f, -0.188193f,
  0.147780f, -0.246381f, -0.121233f, 0.100233f, 0.110115f, 0.151436f, 0.132876f, 0.047248f,
