/*
 * Auto-generated SOH model weights (2.1.0.0)
 * Checkpoint: 2.1.0.0_soh_epoch0120_rmse0.03359.pt
 * DO NOT EDIT MANUALLY
 */

#ifndef MODEL_WEIGHTS_SOH_H
#define MODEL_WEIGHTS_SOH_H

/* Model configuration */
#define INPUT_SIZE 6
#define HIDDEN_SIZE 128
#define MLP_HIDDEN 128
#define NUM_LAYERS 1

/* LSTM input weights: [4*H=512, In=6] */
const float LSTM_WEIGHT_IH[3072] = {
    0.19808178f, 0.26242012f, -0.85656673f, 1.43719494f, 0.44475958f, 0.24243326f, -0.78020936f, 0.66265976f,
    0.39324641f, 1.14937401f, -0.09818430f, 1.01150489f, -1.49512517f, 0.22837168f, -0.62145740f, -0.13757232f,
    -1.32069159f, 0.47038192f, 0.62976158f, 2.23253798f, 1.43430567f, -0.86236161f, 0.74932605f, 0.75780141f,
    -0.62752336f, 0.94111335f, -0.14130753f, -0.15901200f, -0.16093975f, -0.12182406f, -1.82730114f, -0.80145621f,
    -0.67211944f, -0.31143028f, -0.49634221f, -0.84847403f, 1.29206276f, 0.04414243f, -0.86139429f, 0.40104163f,
    -0.84955603f, -0.53060567f, -0.63599050f, -0.64488155f, 1.04400730f, 0.35449529f, 0.47085467f, 0.93909454f,
    0.33865178f, -0.54444975f, -0.75487280f, 0.75240189f, 1.41459501f, -0.09911864f, 0.86617661f, -0.46789187f,
    2.13872457f, -0.65108824f, 1.78594542f, -0.72855920f, -1.29447436f, 0.28184289f, -0.56410038f, 1.18058574f,
    -1.18804526f, 2.37484908f, 0.13403392f, 0.43876016f, -0.12651120f, 1.03832209f, 0.14838970f, 0.64139926f,
    1.26904869f, 1.84363556f, -0.72161913f, -0.68433601f, 0.97048855f, 2.18555808f, 1.19981205f, -0.22599000f,
    -1.54309225f, 0.04676012f, 0.72220290f, 1.74477232f, 1.28070247f, -1.67340434f, -1.87872744f, -1.73107886f,
    1.58010507f, 0.05302031f, 1.38536537f, -2.55900812f, -2.05548573f, -0.72197175f, 0.30758128f, -0.26551163f,
    1.40464151f, -0.61859763f, -1.42850482f, -0.59266686f, -0.27392194f, -1.42617941f, 1.73918211f, 0.57450771f,
    0.01680549f, -0.94905925f, 1.33211017f, -0.59064305f, 0.38968366f, -0.38342917f, -1.08164108f, -0.42402720f,
    0.27893180f, 0.39623743f, -1.44110680f, -1.03707385f, -0.31530344f, -0.02853589f, 0.69349462f, 0.45846042f,
    -0.95974648f, 0.40601790f, 0.97836792f, 0.66035086f, 0.39452720f, -0.42034882f, -1.06377733f, -1.87797678f,
    -0.96767575f, -0.39487073f, -1.17654085f, -0.10437827f, 0.52611750f, 0.69584554f, -0.31266448f, -0.93275177f,
    -1.22856820f, 0.49147022f, 0.02808091f, 0.05713860f, -0.70135313f, 0.47856617f, 0.67038512f, -2.63550830f,
    -1.71891642f, 0.93133253f, 3.26659584f, 1.23635864f, -1.47036147f, 0.60498589f, 1.09341741f, 0.45320570f,
    0.71039659f, -1.70269561f, -0.95636863f, -2.80762410f, -0.15011847f, -1.25657916f, 2.51619506f, -2.92079735f,
    -0.37451446f, 0.05668971f, -0.51404488f, -0.21957782f, -1.10399485f, -1.00372434f, 0.15785421f, 0.25021672f,
    1.12637746f, 0.00806071f, -0.20973577f, 2.51093507f, 1.21660578f, 0.04519156f, 0.27659222f, -0.13399711f,
    2.56854272f, 1.19482291f, 2.12104344f, -1.45531023f, -2.31726265f, 0.18551938f, 2.08597136f, -0.86893195f,
    -1.70167124f, 0.48494947f, -0.30949032f, 0.75301832f, -1.37248158f, 1.22232580f, 0.00206690f, 0.16487522f,
    0.21478875f, -0.36071393f, 0.96414965f, 0.31181175f, -0.64884454f, -0.97141057f, 0.76221281f, -0.43799394f,
    0.51367098f, 1.42865014f, -1.27833235f, -1.44860196f, -0.71384692f, -0.46123263f, -0.48593500f, 0.59148473f,
    -1.27902460f, -0.12113886f, 0.42956260f, 0.18040811f, 0.25203726f, 0.43490869f, 0.80535257f, -1.12945688f,
    2.71419907f, 0.75663817f, -0.21329883f, 1.03894556f, 2.04037523f, 0.64422971f, 0.55387974f, 0.33831897f,
    0.86900610f, -0.35942513f, -0.75647980f, 0.71042460f, -0.38153473f, 1.71439791f, 2.51713347f, 0.35254756f,
    -0.04963982f, -0.65086490f, -2.14697170f, 0.03476584f, 0.56289279f, 0.62743294f, 0.74498206f, -0.50173217f,
    1.12667716f, 0.33998203f, 1.47666705f, 1.20954025f, 1.22115135f, -0.79241782f, 1.14455271f, -0.23695447f,
    -0.13517304f, -0.06860793f, 0.81709677f, -0.63124299f, 0.56974107f, -0.02875435f, -0.48205441f, -0.28092387f,
    -0.75998795f, 0.19346714f, -0.69123882f, -0.80901593f, -0.01660114f, 1.15544009f, -0.73641706f, 1.45167851f,
    0.40094292f, -0.86796111f, -0.07819949f, 1.39366782f, -0.92907387f, -1.97945654f, 1.22804570f, -0.14981461f,
    -1.01140571f, 0.09741361f, 0.39757189f, 0.42163396f, -0.25037080f, -0.14114963f, -0.95155805f, 0.32820448f,
    -0.27158967f, 1.31505620f, 0.27450973f, -1.18875337f, -1.52625108f, 0.20327917f, 0.73683745f, 0.26218945f,
    -1.58855367f, 1.45970738f, 1.92284429f, -0.64818317f, -2.34295344f, -0.07398321f, 1.17714584f, -0.86096758f,
    -2.53560281f, -0.75836635f, 1.06628394f, -0.54100710f, -0.23734474f, 0.82242948f, 0.59472901f, -0.17084536f,
    -1.09822428f, -0.40744916f, -0.72317463f, -0.51782244f, 0.57665861f, -0.70267558f, -0.51570308f, -1.37126791f,
    0.23011149f, -0.55900347f, -0.41628626f, -0.84504747f, 0.51901072f, -0.55593783f, 0.67677385f, -0.06268381f,
    -1.16984677f, -0.01706249f, 0.63347155f, 1.11206174f, -0.30309549f, 0.55809486f, 2.57863617f, 0.24574582f,
    -0.85614324f, 3.63518810f, -2.13147449f, -2.36269379f, -0.90299714f, -0.31558049f, -1.59529245f, -0.89992744f,
    0.14027840f, 0.39107594f, -0.14602920f, 0.49217585f, -1.30226147f, -1.23992574f, -0.01077726f, 0.31370148f,
    -0.38243532f, -0.00344742f, -0.22351171f, 0.56300926f, 2.45960903f, 0.23084480f, 0.02399689f, 0.28333607f,
    2.29812884f, -0.32999852f, -0.12217316f, 0.05700097f, 1.22595561f, -1.03712487f, 0.73939329f, 0.40821776f,
    -1.57829392f, -0.43833649f, 1.17570698f, 0.80843705f, 1.05201662f, -1.91796303f, 1.05538654f, 0.05206728f,
    -0.48482892f, 1.96601439f, 1.19408381f, -0.19103351f, 0.61490947f, -0.38517085f, -0.51360404f, 1.55311108f,
    0.21368907f, -1.51197255f, 0.31529498f, -0.91116285f, -1.17030323f, 0.04397098f, 0.15061322f, -0.88673890f,
    0.58747333f, -1.13553584f, -0.83933616f, -0.35507852f, -2.36348891f, 0.22183487f, -0.60714477f, -0.69877100f,
    -1.18215048f, -0.02971600f, -0.15401211f, 0.34405375f, -0.99566776f, 0.56805378f, 0.65027684f, -0.18681672f,
    -1.44973242f, 0.49855164f, 0.38812590f, -1.11997044f, -0.59770364f, -0.44542325f, 1.99067605f, 1.34757900f,
    0.09692004f, -0.29361054f, -0.78656489f, 0.52967477f, -0.52975887f, -1.76307809f, 0.77187681f, -0.67369896f,
    -0.60349095f, 0.74921197f, 0.90284806f, -0.08188090f, -0.58034867f, -1.86255062f, -3.01532245f, 0.43392244f,
    -0.06939580f, 0.34189364f, -0.94484890f, -2.22745395f, -1.44637752f, -1.01338005f, -0.35338640f, 0.72738349f,
    -0.15887544f, -0.37822199f, 0.79321557f, 1.08843708f, 0.48342344f, -0.92231739f, -1.11633396f, -0.41990626f,
    3.67330694f, -1.35971260f, -0.96017355f, -0.15362705f, -0.03350826f, 0.71655637f, 0.48949128f, 1.74763441f,
    0.56633675f, -0.21753643f, -0.47604108f, 0.59930646f, 0.74742621f, 1.57847416f, -0.09762514f, 0.10915840f,
    -0.86744374f, 0.53339338f, -1.41513526f, 0.23445079f, -1.34954154f, 1.42716444f, -1.33123314f, -0.73194867f,
    -1.06375563f, 0.04952050f, 0.47831547f, -0.62409025f, -2.41739488f, 0.42031649f, 0.08062100f, 0.27527285f,
    -2.80555487f, 0.05903901f, 0.09073692f, 0.80592197f, -0.44120699f, -1.04777348f, -0.02865816f, -0.13856819f,
    0.70910817f, 0.61879933f, 1.29402256f, 1.43574786f, 1.32992959f, -0.24248572f, -0.16184053f, 0.19359910f,
    -0.97116345f, -1.26761770f, 0.79100555f, -0.20342879f, -0.33749583f, -1.75319934f, -1.25390959f, 0.06207414f,
    -0.85545266f, -0.95133221f, -1.36453080f, -0.33729771f, 0.44716331f, -0.89840662f, -1.71246338f, -1.12373996f,
    1.31965303f, -0.25204188f, -1.38950038f, -0.48810133f, 1.29271996f, -0.75387096f, 0.85403365f, -2.11179256f,
    -0.75999320f, 1.49887025f, -0.42892724f, -0.80752748f, 0.35061455f, -0.62261039f, -1.06741512f, 2.12445807f,
    0.55708039f, 0.58804959f, 1.93775821f, 0.14921042f, -0.99196601f, -1.33742702f, -0.11483926f, 0.94949204f,
    0.12271944f, 1.05953634f, 1.65452874f, -1.08301401f, 0.80356711f, 0.28773195f, 0.52503306f, -0.81399035f,
    -0.56690770f, -0.42864975f, -0.07336763f, 0.53881294f, -0.91516167f, 0.91001838f, 1.61607778f, -0.62397069f,
    -1.07491803f, -0.49849346f, 0.87836552f, -2.07132173f, -2.92800093f, -0.26294160f, -0.16827656f, -0.74555123f,
    0.45091620f, -0.85234034f, -0.20025080f, -0.93646437f, 1.78612864f, -0.05451466f, 0.00194392f, 2.34522796f,
    0.84666079f, 0.29770032f, -0.40211982f, -0.75748330f, -1.13825965f, -0.08049575f, -1.17713988f, -0.54324818f,
    -3.53715301f, 1.44219601f, 1.65645671f, -0.52481276f, 1.06442070f, 0.48930588f, 2.60509086f, -0.83446229f,
    -0.62035906f, -0.30250505f, -0.12773593f, -2.12677026f, 0.08716605f, 1.10192025f, 0.52482933f, -0.28422686f,
    0.06035612f, 0.13617592f, -0.11731685f, 0.14036590f, 0.73606336f, -0.39755794f, -0.80950314f, -1.39163888f,
    -0.12050956f, -0.53476274f, 1.37010729f, -0.01369799f, 0.36495602f, 0.53112626f, -0.39540568f, 0.56685841f,
    0.71602362f, 0.37060240f, 2.26044440f, 0.94272053f, 0.13459711f, -0.15512589f, 2.71569777f, -1.10019779f,
    0.42523310f, 0.80412316f, 3.56852984f, -1.09153771f, 2.88940001f, -0.67091447f, -0.98318696f, 0.98623079f,
    2.24739957f, -0.55249792f, 1.53530180f, 0.03444476f, -0.34533584f, -1.29545844f, 0.90192378f, -1.06458127f,
    0.57254517f, -1.46074462f, -0.64202666f, 0.43554151f, -0.56113917f, -1.83678710f, 1.54430270f, -0.15782669f,
    1.53166461f, -0.67995834f, 1.55909669f, -1.03210843f, 0.85636699f, 0.05975994f, 2.77962971f, -0.25693843f,
    1.17778885f, -2.48689914f, 1.51262188f, -0.31090519f, -0.12733623f, -1.96486688f, 0.60167909f, -1.56899488f,
    -1.22233617f, 1.00579822f, 1.69554126f, 0.80405384f, -0.13705373f, -1.24011314f, -1.43826973f, -0.41283041f,
    -0.99533069f, -0.72240758f, -1.62434614f, -0.87381107f, -0.25303096f, -0.73539025f, -0.88195908f, -0.41330782f,
    1.86318946f, 0.05205974f, -0.66555369f, -0.22387651f, 0.66931403f, 0.77605176f, 1.68511164f, 0.20187446f,
    -0.95974976f, -0.55829144f, -0.12276920f, 1.38336885f, -0.00210524f, -0.62401098f, 3.41936660f, 0.45111799f,
    -0.20502813f, 0.23110832f, 0.81606090f, 0.44913653f, 0.79860204f, -1.30062473f, -3.05722642f, -2.47258496f,
    0.99821061f, -0.91890836f, -0.90154999f, 1.27413607f, 3.12499595f, 0.73599643f, -1.10045481f, -1.03035510f,
    -1.00830543f, 2.16485238f, 0.90326184f, 0.48650891f, -0.82434464f, 0.08557383f, -0.39795938f, 0.40117025f,
    0.43086791f, 1.56258309f, 2.85895014f, 0.29734701f, 0.41304073f, -1.26886487f, -1.54894090f, 0.96950549f,
    -0.16567977f, -0.88805646f, 1.38725376f, -1.75939095f, -2.33386421f, 0.24507822f, 0.26648229f, -0.36904007f,
    0.55341613f, -1.21496105f, -2.74290514f, 0.23847583f, 1.58092523f, 0.55757940f, -1.03872085f, 1.66232204f,
    3.33521867f, 0.70277607f, -2.81972241f, -0.14090829f, -0.88074100f, -0.00975406f, -0.70782572f, -0.53316814f,
    1.32665527f, 1.73502064f, 0.02214995f, 0.64429361f, 1.44171810f, 1.11060035f, 1.14406967f, 0.53722990f,
    1.71842837f, 1.31534958f, 0.44229090f, -1.09362006f, 1.26928234f, -0.66086841f, 1.00567949f, 1.16790450f,
    1.13626266f, 0.25392249f, 0.35466757f, 0.45715398f, -0.70417678f, -0.30323887f, 0.24574001f, -0.53928763f,
    -0.36047325f, -0.39769602f, 1.78239799f, 0.00721476f, 0.85842961f, 0.70771617f, 1.43009615f, -0.09816946f,
    -0.02729232f, -0.36936113f, -1.33907211f, -0.37768021f, -0.11348925f, 0.08194369f, 0.42025501f, -0.07491753f,
    -1.11235559f, 1.04365063f, 1.23868310f, 0.91324133f, -1.74933612f, 0.02250115f, -0.41801476f, 1.16652882f,
    -2.72412276f, -0.33847097f, 2.09894347f, 1.33743155f, -1.98989713f, 1.27577043f, 2.30618238f, 1.72312891f,
    -0.94580591f, 0.73763847f, -0.87179828f, 0.65208781f, -2.12399507f, 0.28591490f, -2.17314839f, 0.31834620f,
    0.25093824f, -0.64041430f, -1.48197901f, -0.44599038f, 0.77413195f, -0.77734619f, -1.71596515f, 0.86872119f,
    -1.80107319f, -1.21936762f, 0.65131575f, 0.32324356f, -0.18538761f, 1.48884952f, 1.98333895f, -0.00952813f,
    0.53183156f, 1.07397199f, 0.59726012f, 1.10057282f, 1.48620677f, 0.90149915f, -2.67148113f, 1.05043304f,
    1.85278845f, 0.43947542f, -2.98311019f, 0.05695299f, -0.39237270f, -0.01592051f, -0.81590009f, 1.43135607f,
    -0.69724053f, -0.56993783f, 0.23963535f, 0.61324167f, -0.33947462f, 0.36487871f, -0.62786442f, 1.20103407f,
    -0.94267428f, 0.88741797f, -0.89909536f, 0.54863602f, -1.03078544f, 1.03080177f, 0.66851652f, -0.27488774f,
    0.34701204f, 1.65827310f, 0.53852463f, -0.48638114f, 0.98628783f, 0.00158052f, -0.27765429f, -0.72567731f,
    1.07346213f, -1.09416723f, 2.11519146f, -0.20520057f, -0.05749461f, 0.56564426f, 0.92869687f, 0.60831398f,
    0.74356097f, -0.11370141f, -0.60049975f, 1.12127376f, -0.76062906f, -0.89006054f, -1.68555915f, 0.35923603f,
    0.59492767f, -1.25980473f, -2.13672662f, 1.10823429f, 0.05535837f, 0.17700937f, -0.74661458f, -0.77790242f,
    -1.30864477f, 1.14182723f, -0.60029328f, -1.61013246f, -1.59483862f, -0.54130447f, 1.03268754f, -1.07061779f,
    0.68452179f, -1.06310642f, -0.26920280f, 0.99746847f, 2.08471322f, -1.01882160f, -0.13044795f, -0.47696364f,
    -0.05582180f, -1.49457991f, -0.45334217f, -1.50591958f, -0.14055048f, -0.65115124f, -0.69695115f, -0.63149542f,
    -2.02462411f, -1.40886998f, 0.30135316f, -0.78659260f, -1.33699000f, 0.01790608f, 0.08347457f, -0.33976132f,
    -2.36954045f, -1.11087501f, 1.69631290f, 0.15216914f, -2.65640044f, 0.42801473f, 0.34198219f, 0.00702588f,
    -0.36244991f, -1.81438291f, -2.11612701f, -0.94164616f, -1.24486101f, 0.27532986f, 4.02196836f, -0.12034897f,
    -1.91885996f, -1.02163517f, -1.44546282f, 0.29971430f, 0.47812447f, 0.37171149f, -1.33106911f, -0.94083458f,
    0.12836504f, 0.30322069f, -0.06359938f, 1.81410849f, -0.09714710f, -1.30533111f, -1.14934087f, 0.35456550f,
    -0.87441564f, 0.10316122f, 0.27666405f, 1.18308020f, -2.46501541f, -2.05546284f, -0.74562645f, -1.60355020f,
    -2.35911846f, -0.81854689f, -2.87634015f, -0.24168098f, -2.19088101f, -0.06266925f, -3.02063727f, -0.10086816f,
    0.41058254f, -0.58077300f, 0.68171513f, -1.36030805f, 0.02149538f, -1.79373384f, 0.02707485f, -0.13046373f,
    0.31776652f, -0.88255483f, -2.27510262f, -0.44783574f, 0.22538990f, -1.27123749f, 0.06229369f, 0.93620861f,
    -0.46150154f, -1.94137585f, 0.00341279f, 0.11578696f, 1.20470500f, 1.21031117f, 0.19183314f, 0.35038796f,
    1.46497905f, -0.55722201f, -0.75668174f, 1.18523228f, 1.75809038f, 0.24323604f, 0.97256768f, -0.20604828f,
    -0.45639285f, 0.28770193f, 0.59005737f, 0.15478550f, 0.11716071f, 0.26487634f, 0.40422499f, 1.84984660f,
    -0.13148420f, 0.59877694f, -0.33176830f, -0.82105845f, 2.35161638f, 0.17441572f, 2.04007983f, -0.81738770f,
    1.38067532f, -0.28362873f, -0.25496891f, -0.10101833f, 1.41088629f, -0.18084252f, 0.04311504f, 0.35596579f,
    0.24553744f, -0.27480415f, -0.81244409f, 0.10426111f, 0.05506335f, 0.00531972f, 0.11989020f, 0.75535148f,
    -1.40280330f, 0.24226651f, -1.45282698f, -0.57117718f, -0.97149146f, -0.52264714f, -2.55276418f, -0.28088284f,
    0.16285142f, -0.80313879f, -0.15111639f, -0.51565468f, -2.60476089f, -1.24347043f, -0.27062353f, -0.53080237f,
    -0.38116676f, 1.17618406f, -1.40629804f, -0.87783164f, 0.95496106f, -0.57115227f, 0.32618213f, -0.00467631f,
    0.96783203f, -1.14336026f, 1.08265460f, -1.32954443f, -1.62000751f, 0.43797457f, 1.83762717f, -0.05720763f,
    0.70216590f, -0.71501368f, -0.29732308f, 1.26508534f, 0.46411741f, -0.61115503f, -0.64395016f, -0.09808954f,
    -0.61411184f, -1.23384881f, -1.02907574f, -1.07738960f, -1.92449594f, 1.21311092f, -0.15233219f, 1.41816032f,
    -3.83618546f, 0.20446423f, 0.45286319f, 0.39173898f, 0.94040620f, 0.44440794f, 0.19967812f, 1.24187303f,
    0.81677037f, -0.35569534f, -1.15525019f, -1.08234012f, 1.08093941f, -0.25567153f, -1.41792488f, -0.39412215f,
    0.91051871f, 1.62438130f, -1.00433624f, -1.76492023f, -0.58741134f, -2.54311061f, -0.34275958f, 0.10714404f,
    -1.75782096f, 1.81626225f, -4.37368059f, 0.25483131f, 0.64095092f, 0.04949409f, -5.08102608f, -0.92763513f,
    -0.84887487f, 0.07293510f, -0.43514937f, -1.37843502f, -2.67021012f, -0.60561317f, 0.37080467f, 0.46844807f,
    -1.76888657f, -0.70631385f, 0.01826016f, 1.05436838f, 1.80329216f, 0.40900907f, 1.08572376f, 1.01042390f,
    1.93119061f, 0.16801928f, 0.10758844f, -0.13900320f, -0.18232392f, 1.29456067f, 0.77027732f, 0.48905548f,
    -0.81035596f, 0.50349802f, 1.39965451f, 1.86940706f, 1.02193701f, -1.29212499f, -0.32949629f, -1.19725502f,
    0.19062851f, 1.25422490f, -0.29043353f, -0.59503311f, 3.52586389f, -1.54563129f, -1.28553140f, 0.65456581f,
    3.23540378f, -0.93357521f, 1.21121681f, -0.85951990f, -1.39545476f, 0.71742713f, 0.96501672f, -1.32407045f,
    0.33978802f, -0.63518709f, 0.10477948f, -2.08381724f, -1.22775328f, -0.02502705f, 0.37664992f, -1.11226237f,
    -2.14989662f, 0.22609121f, 0.44873723f, 0.90799218f, 0.38784429f, -1.89166629f, 0.70871961f, 1.22872293f,
    -0.82458466f, -0.30226845f, -0.82970351f, -0.10503900f, -0.64911604f, 0.01154506f, 0.89712816f, 1.97644305f,
    0.91827953f, 0.89985108f, -1.62694931f, 0.11879595f, -0.41123497f, -0.69532943f, -1.20303261f, 0.34679678f,
    -0.39326668f, 3.01464987f, -1.50810266f, -1.10462272f, -1.90435266f, -1.21677279f, -0.49443194f, -0.19622527f,
    -1.56660163f, -1.11534142f, -0.57144696f, -0.58433306f, -0.56343240f, -0.28831810f, 0.46430615f, 0.49089465f,
    -1.63297069f, -0.01656911f, 0.37402835f, 1.44272625f, -1.70287979f, 0.10873365f, -1.72996140f, -0.88867664f,
    2.66099930f, 0.22384104f, -2.37654877f, -0.65811503f, 1.27402306f, 1.26232147f, 1.27673090f, 1.41927361f,
    0.86212426f, -0.64322883f, -0.19333071f, -0.26380411f, 0.18445782f, 2.30401325f, -0.17133282f, -0.12819847f,
    1.84851599f, -0.14581512f, -0.67730165f, 0.06024140f, 1.52249730f, -0.76816279f, -1.89802516f, 0.51608467f,
    0.55291587f, 0.12917849f, -0.51487434f, -0.70828688f, -3.74754190f, -0.61195952f, -1.74317050f, 1.40970767f,
    -7.50839376f, 1.30573618f, -1.43966424f, 1.11872482f, 0.03693489f, -0.25292468f, -1.75099266f, -0.64419842f,
    -1.03872502f, -0.02925995f, -0.82526690f, 0.01518014f, -0.93310010f, 0.71076787f, -0.86062825f, -0.45038491f,
    -1.21016836f, 0.18878859f, -0.23435433f, -1.40088642f, -0.75195283f, -0.47078958f, -0.05566080f, 0.28169253f,
    -1.87833333f, -0.97407764f, -0.40884420f, -0.03243921f, 0.74363363f, -1.07748365f, -1.06583393f, -0.05500143f,
    -0.38991511f, -0.50652742f, -0.62331218f, -0.03033348f, 0.05349094f, -0.89249086f, -0.48127329f, -0.56652737f,
    -1.48325527f, -0.70603096f, -2.67273927f, -0.64349765f, -0.35930780f, 0.30850387f, 0.08179621f, 1.87799156f,
    -0.31807092f, -0.48481974f, 0.07621051f, 1.57757401f, -0.27572748f, -1.33298433f, -2.84077191f, 0.05427075f,
    -0.89068186f, 0.26449153f, 0.45905995f, 0.03122020f, -0.68102986f, 0.97765684f, -0.53223115f, -0.66385365f,
    -0.36249062f, 1.27226031f, -2.14747977f, 0.12731844f, -1.94977212f, -0.86553985f, -0.62040162f, 0.04136204f,
    -2.29632497f, -0.63225764f, 1.81148493f, -1.12047815f, -1.72745955f, -0.15466340f, 0.59048605f, 0.51494068f,
    -1.82215309f, 0.09987386f, -0.47926292f, 1.03755987f, -0.81272113f, -0.17160356f, -0.77386981f, 0.33847615f,
    -2.46758437f, 0.71462208f, -1.32328141f, -0.63369775f, -2.40912533f, 0.19959477f, -0.23564267f, -0.16862020f,
    -5.02198935f, 0.78915840f, 0.49054414f, 0.76991457f, 0.73047608f, 2.02878022f, 1.01723123f, -1.92897201f,
    2.51505828f, -0.65647614f, -1.11754179f, -0.49626413f, 3.24966335f, 1.63256896f, -2.72565627f, -0.07924131f,
    -0.70233959f, -0.64706731f, -5.42503834f, 0.79435825f, -0.59116906f, 0.38067147f, 0.69874233f, 1.59517026f,
    -0.74091804f, -0.85182518f, 2.52444005f, -1.54485130f, -0.56223083f, 0.21661851f, 0.84453773f, 0.19747286f,
    -0.84052950f, 0.93127012f, 1.38085437f, 1.03674293f, -2.21446204f, 0.65666783f, 0.94117504f, -0.42277476f,
    -0.44081366f, 0.51378977f, 1.76276731f, -1.74843550f, 0.89435780f, -1.52087450f, 0.69122505f, 0.33697018f,
    0.59423667f, -2.43919683f, 0.70425940f, -0.44359106f, -1.64645720f, 0.08113997f, 1.40429628f, -0.04198488f,
    -0.24807279f, -1.76570356f, -2.66445875f, 1.06418824f, -3.68918061f, -0.49310684f, 0.18503998f, 1.25055575f,
    1.06562865f, 1.32472873f, -0.52993387f, 0.95295691f, 1.80878890f, 0.73259288f, -0.05876491f, 0.79080731f,
    1.24632180f, -0.50811744f, -0.64559042f, 1.29806948f, 0.67851132f, -3.69631839f, -2.63640189f, -0.20103359f,
    -1.28182232f, 1.07000434f, 2.23271775f, 1.06699109f, -0.22463405f, -0.57083440f, -2.60941458f, 0.15290846f,
    0.29925370f, -0.04674341f, -3.17281771f, -1.24988842f, 1.12552917f, -0.18814661f, 0.02315662f, 1.80521202f,
    1.66620231f, 0.63245529f, -0.78199309f, 1.11713850f, 1.00878716f, -0.46824950f, 1.26414430f, -0.45854047f,
    -0.18908955f, 0.58454287f, -0.62080252f, -0.01699509f, 0.66055465f, 0.08627988f, 2.53609443f, 0.05816256f,
    -0.26034126f, 1.46045566f, 0.36569527f, 1.14585054f, -0.75336856f, 0.76608837f, -2.27191186f, -2.28786254f,
    -1.99634492f, -1.24442112f, -0.77731830f, -0.63241416f, -0.23144488f, -0.62140006f, -1.68519497f, -1.01515186f,
    1.04135823f, -0.93171990f, -0.91273391f, 0.79609692f, 0.03122564f, -0.54573280f, 0.03832188f, 0.02648812f,
    -0.42948198f, 0.74397659f, 1.93195570f, -0.76575077f, 1.24051249f, 0.18592881f, -0.46454570f, 0.99803650f,
    1.48262310f, 0.19997650f, -0.71378416f, 0.28710818f, -0.70150042f, -0.63087356f, -2.95520926f, 0.47998697f,
    -1.24904537f, 1.91295552f, 0.86901617f, -0.18300936f, 0.29610243f, 1.11340725f, -3.51199603f, 1.49319875f,
    2.74293661f, -0.68637455f, -5.94075251f, 1.26261699f, -1.66009927f, -1.17661321f, -1.48592758f, -0.87715155f,
    -0.71731436f, 0.77352631f, 0.89829344f, 0.55618662f, 0.70978105f, -0.91558582f, 1.86779726f, -1.72911417f,
    0.54224318f, 0.26625472f, 1.76272106f, -1.46668398f, -0.65756047f, 0.26657170f, -1.28691888f, 0.01226704f,
    -1.02386308f, -0.55547822f, -1.86223137f, 0.76717800f, 1.94958115f, 0.37271857f, 0.17100266f, 1.02689195f,
    2.01502776f, -0.15204342f, -0.62901014f, 0.52020317f, 0.52412748f, 0.44397208f, -1.25694740f, -0.62400228f,
    0.26503217f, 0.47980157f, 0.49105436f, -0.24726625f, -0.31401244f, 0.04842268f, -0.59029526f, 0.77112907f,
    1.59564519f, 0.77599800f, 0.75811589f, 2.07255101f, 0.67127001f, -0.97413397f, -1.78871322f, 0.42342409f,
    -0.96356857f, -1.64997387f, -0.88518822f, 1.05593967f, 2.45632768f, 1.46254539f, 0.53359109f, -0.06968244f,
    1.49392128f, -0.93573177f, -0.72050989f, 0.22195104f, 1.43433237f, -0.54685760f, 2.68325353f, -0.78325027f,
    -2.11096501f, 0.98579800f, -0.11574063f, 0.19410847f, -3.15594673f, 0.53927809f, 0.79695654f, -0.74273348f,
    1.26812661f, -0.91458601f, 0.70721799f, 0.44603723f, -0.25873640f, -0.07659549f, 0.97528756f, 0.42157602f,
    0.35838032f, -1.40182281f, -1.76997459f, -0.98954725f, 0.27596125f, 0.00866338f, -0.93830967f, -0.49710968f,
    -0.85147250f, 0.68225127f, -0.29273048f, -0.24565871f, 0.51068431f, -0.49676812f, -0.68352312f, -0.75473374f,
    0.53061736f, -0.30061224f, -0.31793946f, 0.28093070f, -0.24419461f, 0.51966101f, 1.58224928f, -0.71670163f,
    0.39115781f, 0.66376120f, -1.16147017f, -0.34192291f, -0.14066567f, 0.01194046f, 1.33642995f, -0.45419380f,
    -1.50924432f, -0.23930787f, 0.76638114f, 0.98896903f, 0.50213617f, -0.67501563f, -1.54819214f, 0.46576053f,
    -1.23963439f, 0.44678876f, -0.54453808f, 1.47761059f, 1.87461412f, -0.81379974f, -2.21393228f, 0.02228000f,
    -0.49902514f, 1.04465473f, -0.13342969f, -0.64044350f, -1.69517875f, -0.85379070f, -2.03190088f, 0.05603297f,
    -0.92151135f, 0.13217686f, -2.46628165f, 1.07672143f, 0.69951451f, 0.87044549f, 1.06110466f, 0.26194108f,
    -2.21569467f, 1.03594959f, 0.01053797f, -0.03268776f, -0.97471315f, 0.63507169f, 0.24118784f, 0.32559824f,
    -0.02607535f, -0.99434394f, -0.25845194f, 0.77805591f, 0.21243376f, -0.64883232f, -0.39336008f, 0.07247174f,
    -0.60160589f, -2.58563161f, -0.48374411f, 0.33289501f, 0.59921724f, -0.52022052f, -2.08007622f, -0.37480307f,
    1.69995975f, -0.12514532f, 0.03676039f, 0.23163544f, 0.06507384f, 0.23314926f, -0.71793091f, 1.00421190f,
    0.66045147f, -0.16254118f, -2.73699689f, 0.59075761f, 1.39850152f, -0.09688003f, -0.25126705f, 1.76318562f,
    -0.68986213f, 0.99012911f, -1.17659700f, -0.55434060f, -0.77232015f, -1.06707144f, -2.41943479f, 0.74977344f,
    0.88556129f, 0.76299787f, -1.77806437f, -0.58112717f, -0.40709725f, 0.95979977f, -0.14061736f, -0.99228990f,
    0.35169584f, 1.67789721f, 0.00953290f, 0.26670754f, 0.58418262f, 0.76627493f, -0.11343445f, 0.02939271f,
    -1.67950094f, -0.64296931f, -1.28518057f, 1.11389375f, 0.48205155f, 0.24059062f, 0.37765318f, -0.80896080f,
    -0.42791769f, 0.45600587f, -0.39596140f, -0.56984514f, -0.56452787f, 0.91280580f, -1.23601973f, 1.74067640f,
    -1.50000048f, -0.32596356f, -0.62627494f, 0.58078539f, -2.35617995f, 0.98849499f, -0.26303732f, 0.23924915f,
    -0.11532313f, 0.69711190f, -1.43103135f, -0.25607240f, 0.51064241f, 1.94739759f, 3.51348901f, 1.44683051f,
    0.57280183f, 1.55478907f, -2.46140909f, -0.37203184f, -0.16280667f, -1.23843658f, -0.04633086f, -0.32082623f,
    -0.64165062f, -0.96036929f, -2.15636635f, 1.95034659f, 1.33923924f, 0.36000556f, -0.67407191f, 0.28647098f,
    1.34156549f, -0.89393872f, 1.29725373f, -0.81381625f, 1.30726695f, -0.61625779f, -1.04931819f, -0.26847729f,
    -2.21966505f, -0.19724174f, -2.10976553f, 1.25658047f, 2.11540937f, -0.61699593f, 0.30036667f, 0.39906892f,
    -0.91621375f, -0.55393070f, -0.44369102f, -0.84720033f, -2.53449726f, 0.82478470f, -1.20223844f, -0.71477735f,
    -1.93194711f, 0.14337023f, 0.76347268f, 1.28895080f, -2.14422798f, 0.11220964f, -0.55753744f, -1.54095542f,
    1.22299051f, 0.04422171f, 0.13861257f, 0.65282750f, 0.50074321f, -1.63555145f, 0.67470539f, -0.56256133f,
    -1.81631529f, 0.61817533f, 1.05206513f, 0.55006999f, 0.92630661f, -1.21802497f, 0.16716865f, 0.37713936f,
    0.42493200f, -0.34937406f, 0.33341429f, -0.33493483f, -0.77553684f, -0.88130462f, -0.28083411f, 1.52480650f,
    0.29329824f, -0.12047224f, -0.85050315f, 0.57711548f, 2.73491740f, 0.84144574f, 0.37783229f, 0.15997033f,
    -1.45600832f, -1.10830224f, 1.47562957f, 0.23943208f, 0.61875069f, -0.37403184f, 0.95716649f, -0.46981317f,
    0.59383857f, 0.47373113f, 1.18491995f, -1.63418698f, 0.27741858f, -0.24712239f, -0.81444007f, -0.53360653f,
    0.72624910f, -0.54119325f, -2.14061832f, 0.47108415f, -0.46590102f, -0.10381676f, 0.29419965f, 0.46494013f,
    1.44847190f, -0.06693932f, -0.00887762f, 0.17744946f, 3.70668125f, -0.60535377f, 1.35649776f, -1.00083268f,
    -0.83454818f, 0.89210582f, -2.40283108f, -0.57938415f, -1.40427721f, -1.41577876f, -2.05117726f, 1.52278805f,
    -0.13457040f, -0.85191041f, -0.63767380f, -0.57649994f, -2.71673703f, -0.07098053f, -0.68763906f, 0.62490505f,
    -0.13162081f, 0.03825343f, -0.13329132f, 0.51434594f, -1.67320549f, 0.51841295f, 0.40064031f, 0.20694551f,
    1.63231397f, -0.04459451f, 0.38458136f, -0.02484478f, -3.24403167f, 0.52288800f, 1.33408415f, 0.12547365f,
    -1.63747430f, 0.69529963f, -0.64348418f, -0.56651199f, 0.97097421f, 0.02070793f, -0.08945107f, -0.17923026f,
    0.01614390f, 0.29982540f, 0.23657212f, -0.42776334f, -1.15341783f, 0.87542611f, -1.26589358f, 0.09579527f,
    0.24353202f, -3.22054029f, 1.25007153f, -0.84444332f, 0.17458397f, -1.05239654f, 1.03589892f, -0.48059759f,
    -1.13007271f, -0.89263844f, 1.47513378f, -2.57919836f, 0.31592244f, 3.01763439f, -0.14139599f, -0.22154771f,
    -0.17743328f, -1.36727774f, -1.58536017f, 2.18226027f, 0.37350544f, -0.35696667f, -1.77059734f, 1.11154878f,
    -0.57428718f, -0.74048638f, 0.89385253f, -0.00521567f, -0.94152153f, -0.04308541f, -0.85452366f, 1.17260075f,
    -0.12790765f, 1.04463267f, 1.08081007f, -0.12252469f, -1.49549210f, 0.25881085f, 1.81862879f, 0.60132068f,
    -1.99441838f, 0.40803948f, 0.04432404f, 0.05812027f, -2.69550252f, -0.27849612f, 0.89912480f, -1.19389975f,
    0.27103367f, 1.44670904f, -0.00617426f, -1.18185866f, -0.36664355f, 0.44100830f, -0.71377903f, -1.49375534f,
    0.55200768f, 0.31188086f, 0.22360989f, 0.79459035f, 1.47965479f, -0.31624028f, 0.09418416f, 0.87185800f,
    -2.34716344f, 1.14452755f, -0.34553334f, 0.15137875f, -0.90620714f, 0.57315099f, 0.61482859f, -1.94288945f,
    -1.13204241f, -0.39529762f, -0.05967939f, -0.32325506f, -0.31715813f, 0.54115063f, 1.09965384f, 0.62936723f,
    1.68215239f, -0.06449329f, 0.31672892f, 0.21680488f, -1.19333768f, 0.56155407f, -2.48158836f, 0.23507343f,
    -1.11328912f, 0.68290192f, -0.67772830f, -1.19504178f, -0.59814006f, 1.02707326f, 0.87482041f, 1.06956196f,
    1.03608537f, 0.09681904f, 1.86341858f, 1.24446285f, -2.37794113f, -1.14377213f, -1.14338458f, 1.19181347f,
    -0.47377774f, -0.94634455f, 0.34954721f, -0.61588258f, -0.27009147f, 0.54130667f, 2.94898987f, -0.37681299f,
    1.02184403f, -0.34149516f, 0.02542866f, -0.06367040f, -0.61112791f, 0.69684058f, -1.63305461f, 0.40009892f,
    1.30051041f, -1.32589722f, 1.36102605f, -0.28840423f, 0.54611635f, 0.88396037f, 0.61253178f, -1.03060758f,
    -0.21592399f, 0.88050604f, -0.92420501f, 0.13448288f, -0.64258754f, -0.19101623f, 1.56871569f, -0.01659368f,
    0.39663151f, 0.38707671f, -0.21763028f, 1.28619552f, 2.16046572f, 0.72255325f, 0.99212140f, -0.29476810f,
    -0.38706866f, -0.93571603f, -0.64291376f, 0.89017576f, 0.11864373f, -0.31650162f, -1.00056219f, 1.93315744f,
    -0.67192203f, 0.00198837f, -1.86975324f, 0.15456411f, 1.14173388f, 0.31464347f, 0.92907542f, 0.27569327f,
    2.80730748f, -0.75275081f, 7.41270924f, -1.63780737f, -1.24835050f, 0.92056042f, 0.72668219f, 0.56477678f,
    1.96784890f, 1.05040205f, -1.31211340f, -0.54867935f, 1.84976411f, -0.00468957f, 0.38098508f, -0.09439419f,
    1.38765132f, -0.96826148f, 0.43844670f, 0.99106294f, 2.05823278f, -0.03338752f, -2.19847322f, 0.37587768f,
    0.35530517f, -0.62164992f, -1.68781745f, -0.69334179f, -0.77291119f, 0.83406502f, -0.29012296f, 0.67714459f,
    4.67228031f, -1.86669695f, 0.28650889f, -0.54092300f, 0.46724710f, -0.56897885f, -1.09531844f, 0.51933622f,
    2.47718287f, 0.21435428f, -0.52354097f, -0.22134055f, 0.62685019f, 0.26997259f, -0.04713487f, 2.13640785f,
    2.20794225f, -0.15066579f, -0.35406807f, -0.18320608f, -0.03640646f, -1.12226927f, 1.38914931f, -0.21548852f,
    -1.91234827f, 0.77711701f, -1.50641859f, 1.10604608f, -1.26185250f, -0.73075217f, 0.48110771f, 1.21951437f,
    -1.94299912f, -0.05205358f, -1.89809310f, 0.42068177f, 0.06797330f, -0.94485897f, 1.17121470f, 0.16204688f,
    0.59195143f, 0.76935947f, 1.59613788f, -0.82684565f, 1.59947073f, 0.10401533f, 1.12352216f, -0.31298396f,
    0.67339754f, -0.43891847f, 1.80368388f, 0.24218839f, 0.24207748f, -0.02028511f, -0.11407962f, -0.60614318f,
    -1.64959300f, -0.08967618f, 2.19602275f, -0.19951592f, -0.57081312f, -0.97176713f, -0.77700353f, 0.16397154f,
    -0.47752839f, -0.12205373f, -0.77672702f, 0.18365276f, 2.06054568f, -1.13712096f, 0.72304696f, 0.62396246f,
    -1.21183753f, -1.22243774f, 0.09244876f, 0.77804536f, 0.31015810f, -0.80978090f, -0.38085648f, -0.20202987f,
    1.04826689f, -0.33687976f, 0.11489639f, -2.01863956f, -1.25420141f, 0.57338232f, 0.61696053f, -1.39749002f,
    -0.27249205f, 0.05867307f, 0.04270495f, -0.01675076f, 0.30455127f, -0.67230415f, -0.68968695f, 1.03169477f,
    2.47159100f, 1.05094182f, 0.46689850f, 0.18916978f, 0.57208401f, -0.32560521f, 1.35181117f, 0.60876119f,
    0.78110540f, -1.27164948f, 0.18770093f, 0.03931244f, -1.41632903f, -1.22573662f, -0.23719934f, 0.85610467f,
    -0.31761158f, -0.35865071f, 0.25224262f, 1.25548172f, -0.65439761f, -0.11711012f, 0.73739845f, 0.56774306f,
    1.61633694f, 0.30935925f, 2.40552521f, -0.39522547f, -0.07866118f, 1.49114740f, 1.32704604f, -1.27530408f,
    -1.20807302f, -0.11833016f, -0.77719533f, 1.52788055f, 0.95351338f, -0.98671025f, 0.93156719f, 1.04722333f,
    -0.21132670f, -0.71971262f, 1.54592371f, 1.17343414f, -0.47953388f, -0.40992248f, 1.82692635f, -0.04365958f,
    -0.99043375f, 0.96660221f, 0.11784820f, -0.22148848f, 1.57311070f, -0.00964975f, 0.21822375f, -0.63905257f,
    -0.76155394f, -0.98438716f, -1.34947300f, -1.16230154f, -0.06754214f, 0.08889742f, 0.74367023f, -0.00833384f,
    0.57667696f, 1.20197165f, 1.21531272f, -0.36956275f, -1.44689679f, -0.92293268f, -0.93631625f, 0.54149491f,
    1.23271906f, 0.12762438f, -0.38959715f, 0.51734489f, -1.10815430f, -0.41332826f, 0.21628286f, 0.07824381f,
    1.67782080f, -1.22825742f, -2.64478755f, -0.73717761f, -0.86574715f, -0.55185360f, -0.08772755f, 0.45039633f,
    0.00641620f, 0.06935232f, 2.03398180f, -0.56819928f, 0.44520825f, 0.59961379f, 2.67192125f, -0.70273620f,
    -2.44040155f, -1.04072928f, -0.64885354f, -0.36211708f, -2.47726393f, 0.92028260f, 0.90917265f, 1.03654647f,
    0.60941398f, 0.26471534f, 0.67063886f, -0.92938721f, 0.02627080f, 0.05786390f, -0.28980082f, -0.97762823f,
    -0.80580950f, -0.17488043f, -1.18876815f, 0.37718314f, -1.04781592f, 0.42047718f, -1.27793515f, 1.64912927f,
    0.01573011f, 0.94482410f, 0.29983500f, 2.30633712f, -1.89256132f, 0.47678483f, 0.87168634f, 1.38414466f,
    -1.25116062f, -1.14287877f, 0.13299935f, 1.39324689f, 0.01768641f, 2.70254230f, -0.28843400f, 0.35636178f,
    -1.79476547f, 1.29319191f, 0.12731001f, 0.56156766f, -0.45539856f, -0.73021173f, -1.31321311f, -0.55064291f,
    -1.35083330f, 0.01840825f, 0.58629394f, -0.95314872f, -0.25962248f, 0.38445991f, 1.01708519f, 0.39875653f,
    -3.18364286f, -1.12968099f, 0.68970078f, -0.05321888f, 0.30136395f, -1.40345109f, 1.12102234f, -0.70710939f,
    0.57048851f, 0.94095045f, 0.64354771f, 0.05455168f, 1.53322935f, 1.76454031f, -0.33992288f, 1.00892758f,
    0.32311359f, -0.93666518f, 0.84737867f, 0.72099167f, 0.58539450f, -0.34389216f, -1.13178837f, 0.44996950f,
    0.31505919f, 0.91895646f, -0.36976746f, -1.10662282f, -0.60315639f, 2.14660692f, -1.23856127f, -0.71302211f,
    0.28763488f, 1.03635919f, 0.85529310f, 0.45903879f, 1.07922912f, 0.86962587f, -0.88904643f, 0.09118389f,
    0.10711874f, 0.52437752f, 0.44931322f, 0.58590603f, 0.71654004f, 0.22829789f, 0.06072536f, -1.30804086f,
    0.83843541f, 0.84765685f, 2.38498712f, -0.12931789f, -0.85140848f, 0.21940063f, 1.79167116f, 0.30854365f,
    1.61813927f, 0.51695043f, 0.61661696f, -0.35958654f, -0.53794384f, -0.68511707f, 0.55089146f, -0.38103139f,
    -0.30496675f, -0.34615594f, 2.77510357f, -0.76584047f, 0.00727030f, 0.32370463f, -1.31542039f, -0.66390401f,
    -0.76023060f, 0.63161105f, -0.55664527f, -1.62659740f, -1.78562701f, -0.18442476f, 0.97490114f, 0.83687514f,
    -0.23714247f, 0.94176805f, 1.55200768f, -0.10927438f, 0.83514345f, -0.04670973f, 0.27044645f, -0.62482709f,
    -0.10430373f, 0.02549969f, 0.32656631f, -0.49146530f, -0.46224383f, -0.38493145f, -1.43467355f, 0.18601148f,
    -1.67030966f, 0.49357596f, 1.00976253f, 0.53998363f, 1.42709625f, 0.53286964f, 3.04764843f, -1.19805098f,
    -0.66668922f, -1.60902226f, 0.02834640f, 0.71703959f, -0.49404606f, 0.00323068f, 0.43460551f, -1.11371040f,
    0.23865224f, -0.23895173f, -1.17802358f, -2.29330897f, 0.09511995f, 1.09366405f, 3.88944221f, -1.20055521f,
    0.22733673f, -0.44643822f, 0.12831438f, -0.45777521f, -0.47165284f, -1.30660367f, 0.38059786f, -1.17989910f,
    -2.05045414f, -0.34301111f, -0.95101303f, 1.36928523f, -1.99210787f, -0.18553749f, -1.36847436f, 1.45347261f,
    2.07719135f, 0.51990402f, 0.95931244f, -0.34239715f, -1.22387815f, -0.66322380f, 2.08666778f, -2.45683646f,
    -1.07713258f, -0.95376390f, -1.70865297f, 1.39186227f, 0.87312996f, -0.02168401f, -2.16471481f, 0.96765667f,
    0.10533635f, -1.08173084f, 1.03435409f, 0.68539041f, -0.23061243f, -0.20934831f, -1.23099315f, -0.21722513f,
    -0.42974010f, 0.69914722f, -3.14656568f, -0.07851648f, 1.44383204f, 0.16884768f, 0.00024960f, 0.50124300f,
    2.09615445f, -0.05049634f, 0.22492845f, -1.38668025f, -0.64415491f, -0.34097192f, 1.02204776f, -1.12237275f,
    0.94834703f, 0.09520119f, 0.23911721f, 0.39231840f, 1.20943964f, 0.73584014f, -1.13571870f, 0.19152704f,
    -0.21977396f, 1.61378205f, -2.42426682f, -0.54694968f, -0.45601749f, 1.33859837f, 1.55595779f, 0.22044185f,
    2.37028766f, -0.30252689f, -1.26615012f, 0.51049948f, -1.93830335f, -0.31813851f, 1.04508877f, -0.41794059f,
    0.71400595f, 0.51914066f, 0.30494264f, -0.71829736f, 1.91262400f, 0.84983987f, 1.51539171f, 0.20880595f,
    0.24344723f, -0.07448237f, 0.31088468f, -1.17043388f, 1.55409741f, -0.84793156f, -0.98896766f, 1.26142406f,
    0.03030167f, -0.52123463f, -1.57287121f, -0.85028750f, 0.45357323f, -0.46007213f, -1.48457181f, -0.00049943f,
    0.98138988f, -0.77777374f, 0.44815221f, 0.34793043f, -1.25295901f, -0.93174255f, 0.57487541f, -1.82101142f,
    -0.96746755f, -0.04057603f, -2.48136783f, -1.79190755f, 0.03833907f, 0.13851030f, 0.05803332f, 1.09053481f,
    -0.53390491f, -0.95952642f, 1.19786656f, -0.42911279f, 1.02802384f, -0.79974437f, 1.99587572f, -1.03426147f,
    1.17373526f, 1.09554458f, 0.73874038f, 0.20832928f, 0.97407073f, 0.94677925f, 0.25165078f, 0.03131436f,
    -1.86964273f, 0.33472773f, 0.94267702f, 0.21518882f, 0.00843085f, 0.36611974f, -0.51326126f, 0.26938370f,
    -0.56427920f, 1.29032612f, -0.52522522f, -1.16635108f, -0.50941348f, -0.51163971f, -0.65242887f, -0.75745463f,
    0.09800655f, -0.26900738f, -0.25620085f, -0.95992994f, 0.43435442f, 0.21079662f, 0.98438078f, 0.87123615f,
    -0.64115888f, 0.48200825f, 1.06466055f, 1.12779760f, -0.47151786f, -3.35338211f, 1.73483121f, -0.57530642f,
    0.01272580f, 0.14299354f, -0.17567471f, 0.33880183f, -0.08407287f, 0.67374206f, 0.17093079f, 0.59251928f,
    -0.81770074f, 0.84891915f, 0.27179393f, 0.44668069f, -2.43251705f, -0.68469656f, 0.43837598f, 1.96056533f,
    -0.65635473f, -2.04239964f, -0.43006638f, 1.68562496f, 1.02009022f, -0.32114717f, -1.08611715f, -0.28472400f,
    0.26332480f, 0.48371613f, -0.55572724f, -0.13910916f, 1.44711816f, 0.72726250f, 0.75861472f, -0.84489518f,
    -0.60084903f, 1.60666883f, 3.53397322f, -1.15345132f, 1.85927081f, -0.72364867f, 0.99626631f, -0.16923681f,
    -0.51572782f, 0.69637406f, 1.22914004f, 0.78133518f, -1.02347922f, -0.18370241f, -0.03726750f, 0.24427418f,
    0.08898497f, -0.59021324f, 1.22807574f, -1.33282459f, -0.96875370f, 0.64819986f, 0.74455410f, 0.11673679f,
    -1.06739938f, -0.65196061f, 0.30190668f, 1.04689109f, -2.03415513f, -0.26418459f, 0.62225515f, 0.19338655f,
    0.91032183f, 0.63842541f, 1.26559269f, 0.48573852f, -0.80355394f, -1.93616986f, -1.93241692f, 0.25310043f,
    -1.94506550f, -0.13567923f, -1.38584507f, 1.16551685f, 1.69496894f, -0.48603803f, 0.09453131f, 0.31691822f,
    0.13974127f, -0.00065969f, -0.63343918f, 0.98752481f, 0.01302142f, 0.01982591f, -0.41232350f, 0.68808073f,
    -0.49020860f, -1.34701347f, -0.18312588f, -0.66326272f, -0.12048840f, -0.08126707f, -0.48074433f, -0.37081555f,
    -0.13952973f, -0.11388688f, -1.32044303f, -0.67968065f, 0.61197543f, 1.60316205f, -0.69358742f, 1.21358693f,
    0.65135527f, -1.85059714f, -0.72603518f, -0.39930612f, 0.93114614f, -0.16256596f, 0.58657360f, 1.00430691f,
    1.56354654f, -1.13998604f, -0.27505216f, 0.52939767f, -0.46298829f, 0.22111748f, -0.26298773f, 1.34473717f,
    -0.47750700f, 0.80490375f, 0.48272097f, -0.02979562f, 0.44233197f, 1.27421331f, 1.20701671f, -0.19460110f,
    0.31354150f, -0.98714739f, -0.96052915f, 0.02936200f, 1.03995669f, 0.37659749f, -2.06377983f, 0.20534523f,
    -0.65744877f, 1.50781631f, -0.51114500f, -0.41617313f, -0.77788204f, -0.58322072f, 2.61651111f, 1.51621473f,
    0.12823530f, -1.87746859f, 1.83968103f, 0.33437663f, 0.12573852f, -1.19710720f, 0.30748332f, 0.30737874f,
    -1.27695084f, -0.20482862f, 0.25947180f, 0.30265591f, -4.08032656f, -0.95254385f, -0.14395921f, 0.29866809f,
    -1.32695353f, 0.49846828f, 0.37107742f, -0.10565881f, -1.14033592f, -0.43166611f, 0.71878546f, -1.53632247f,
    -3.67198920f, -1.35863101f, 0.71060032f, 1.02065778f, 0.84040928f, 0.39363641f, 0.06011434f, 0.81484967f,
    0.75050658f, 0.33654177f, -0.83681262f, -0.00684964f, 1.53419447f, 0.27384079f, 0.24648893f, -0.11905538f,
    -1.19891250f, 0.03531957f, -3.26469970f, 0.50791723f, -0.18301339f, -0.77238381f, -3.62959480f, 0.02059145f,
    -0.47741586f, 1.55741322f, 0.90749884f, 0.10612059f, 0.48146504f, -0.16377017f, -1.19878554f, -0.16958316f,
    0.49531260f, 1.41475415f, 1.71987593f, -0.23423845f, 0.79684192f, 0.32397535f, 0.32027742f, -1.05395651f,
    -0.99680191f, 0.20276755f, -2.52631545f, -0.36079749f, -1.07869160f, 0.89993513f, 0.60961479f, 0.83853954f,
    -1.71024656f, 1.28080428f, 0.66482162f, 0.58806413f, -0.25757280f, 0.40794557f, -0.53957015f, -0.79477865f,
    -0.17717551f, -0.60833395f, -0.64446479f, 1.63767493f, 0.92164314f, 1.24098337f, 0.91437870f, 0.78433502f,
    -0.16557792f, -0.04034959f, -0.15182345f, -1.11942482f, 1.49946868f, 1.13924170f, 1.99613893f, 0.79813486f,
    -0.68614149f, 0.75074077f, -0.91788155f, 0.04055465f, 1.47010922f, 1.05394423f, -0.42582896f, 0.48819366f,
    0.84461850f, 0.04270361f, -1.24129248f, -0.70993513f, 1.99174273f, 1.84162903f, -0.01943478f, -0.06548014f,
    0.67383230f, 1.54151642f, -0.32599011f, 0.60984266f, 0.75385737f, -1.11709511f, -1.29768658f, 0.38552022f,
    0.55810130f, -0.29296494f, 2.56203365f, -2.17102742f, -0.65275723f, -0.01121476f, 1.06106889f, -1.09995878f,
    0.05395528f, -0.66916519f, -0.03877500f, -0.46237010f, 0.90902632f, 1.28823423f, 1.08749580f, -0.26216251f,
    0.26345381f, 0.47216910f, 1.60706210f, -0.37677464f, 0.41100088f, 0.56907499f, 0.33739710f, 0.50229651f,
    0.78336143f, -0.69118118f, 1.82725990f, 0.38355815f, 0.65968043f, 1.81234074f, 1.61512947f, -0.55473775f,
    2.40870094f, -0.76547700f, -0.68408453f, 0.46325514f, -0.41578674f, -0.69471759f, -0.68656272f, 0.01604479f,
    -0.55701488f, 0.87420106f, -0.65393639f, 1.33721924f, 2.39491153f, -0.35104814f, 0.44089875f, -0.91435307f,
    2.22382927f, -1.13331330f, 1.55003464f, 0.29492617f, 0.51825225f, 1.15819132f, 0.53850865f, 0.38473433f,
    -1.09991491f, 0.18419728f, 0.86761922f, 2.44479251f, -0.26242122f, -0.16419107f, -0.68007648f, 0.34174523f,
    1.22288442f, 1.39308918f, -0.67255813f, -1.61750567f, -3.97134042f, -0.62099206f, -0.52872324f, 0.71502733f,
    -3.32066941f, 0.00733577f, -0.17533727f, 0.55744898f, 0.41293409f, -1.52026439f, 2.06569719f, -0.65770453f,
    -0.53879243f, 0.54983747f, 0.89014405f, -0.35966444f, 0.70253831f, 0.27291548f, 1.02308011f, 0.50295264f,
    0.30467558f, 1.11077237f, -2.72490573f, -0.01549360f, 0.40763190f, 0.29914004f, -2.06932378f, -1.93738520f,
    -0.13649103f, -0.70970666f, 0.45379075f, 0.99286544f, 1.72704613f, -0.20194569f, 0.48695663f, -0.22220778f,
    0.02008796f, 1.77706110f, 1.08320832f, 0.23223978f, 0.12602748f, -0.12082927f, -1.11018944f, 1.29304564f,
    1.97282505f, -0.65667152f, 0.80275863f, -0.05964449f, -0.79965693f, -0.42871577f, -0.47050938f, -0.55035180f,
    -0.51914889f, -0.34798440f, 1.09585500f, -1.44318652f, 0.28537524f, 0.66832203f, -2.75634074f, -0.87841004f,
    0.34939551f, -0.68055773f, -1.91619432f, -0.45107830f, 1.68938696f, 0.93849790f, -0.17417116f, 0.60350442f,
    -0.66121650f, 0.27478769f, -2.09689522f, 0.77578425f, -1.02679789f, 0.59064740f, -0.27750936f, -0.07163911f,
    -0.93077695f, 0.31152499f, -1.10973179f, 0.26206756f, 1.06937420f, 0.47363356f, 0.35097677f, -0.45954862f,
    -0.37833032f, 0.47847250f, 1.97042632f, -1.08919024f, -0.08237463f, -0.99441111f, 0.68449342f, 1.15638447f,
    1.78282690f, -1.16833675f, -1.48938489f, 1.67245340f, -0.92919362f, -1.00985837f, -1.11289716f, -0.18576781f,
    -0.48904499f, 0.86150646f, -1.17143905f, 1.14455318f, 0.56898499f, -0.79812264f, -1.43569124f, 1.25250185f
};

/* LSTM hidden weights: [4*H=512, H=128] */
const float LSTM_WEIGHT_HH[65536] = {
    -0.07891861f, 0.90312409f, 0.05463474f, -0.49864680f, -1.68010437f, 1.28652573f, 0.35413286f, -0.37220249f,
    -0.54090601f, -0.13240230f, -0.03867782f, 1.53921700f, 0.91262728f, 3.00105786f, -0.50976825f, -0.89168936f,
    -1.65983939f, -0.89902771f, -0.29213709f, -0.66165650f, -0.67890710f, -1.07277572f, 2.30637908f, -0.82116753f,
    0.42972380f, -0.35525545f, 0.92672735f, -1.02723122f, 0.16985039f, -0.26910332f, -1.22214937f, -1.15395617f,
    -0.76112705f, -1.19944489f, -0.63045025f, 0.34339130f, 1.30876231f, -1.32584131f, 0.57533038f, -1.44788659f,
    -0.70249689f, 1.39158380f, -0.89126086f, -0.41609061f, 1.03080368f, 1.64015031f, 0.05106390f, -0.01258869f,
    -1.16293609f, -0.63840759f, -0.53824723f, 0.03930521f, -0.03074854f, 0.76057124f, -0.66918182f, 0.67270142f,
    -0.64921260f, -0.45007196f, -1.08330810f, 0.10731471f, -0.20106661f, -0.18701352f, 1.03736377f, -0.55719596f,
    0.01865627f, -0.58524132f, 1.59628773f, 0.45554650f, -0.26728594f, -0.97661585f, -1.21372688f, 0.32465270f,
    0.55569732f, -1.14609218f, 0.00727111f, -0.23984970f, 0.21163349f, -0.12447490f, -0.63775504f, -0.02408780f,
    0.85295856f, 0.04907630f, -1.00358725f, 0.43704540f, 1.72775781f, -0.46438885f, 0.13240996f, 0.11743093f,
    -1.08970678f, -0.35072884f, -0.07517093f, -0.74623287f, -0.20135669f, -0.43406269f, -0.28482687f, 0.58676541f,
    0.70498514f, 1.16828227f, -0.20318224f, -0.06728522f, 0.19631025f, 0.63875788f, -0.33965319f, 1.26195598f,
    1.70934033f, 0.66724712f, 0.75588864f, 1.62894964f, 0.48074949f, -0.93633544f, -0.93452877f, 0.40407199f,
    2.27732229f, -1.45751500f, -1.50837553f, -1.12248552f, 0.15037915f, 0.42402282f, 1.34905338f, -1.01017904f,
    0.20582260f, -0.08698277f, 0.42660838f, 0.05432932f, -0.10007311f, -0.73171479f, 0.45642748f, 0.33474845f,
    -1.05323422f, -0.34175876f, -0.54147249f, 1.09620547f, 0.29673570f, -0.78593212f, -0.86047482f, -0.79315567f,
    -1.70650804f, 0.35564679f, -1.04782009f, 0.63255990f, -0.21411122f, 0.31658360f, -0.86397606f, 0.70576054f,
    0.27706686f, -0.44631982f, 1.19941509f, 0.97720701f, 0.67957163f, -0.80535138f, 0.27958566f, 0.11274674f,
    0.39679715f, 1.48023784f, 0.04540543f, 0.81718951f, -0.83357161f, 0.32271919f, -1.06115890f, -1.09099078f,
    -0.12300746f, 0.42443177f, 0.14500158f, -0.90117460f, 0.34554848f, 1.22132516f, 0.19799626f, -0.33124518f,
    -0.26246992f, 0.64253271f, -1.93916440f, -1.65908027f, 0.63570452f, -0.93384540f, 0.68650186f, 1.28719211f,
    0.21592844f, 0.29110140f, -0.07254943f, -1.25422788f, -1.24650943f, 1.34449792f, 1.05067253f, -0.20568836f,
    0.55555338f, 0.25259972f, -0.11886068f, -0.68215948f, -1.23947775f, -1.74128258f, 0.84409082f, 1.76235950f,
    1.55341685f, 0.50008208f, -0.07403802f, -0.92177176f, 0.91006517f, 0.78325462f, -0.97157478f, 0.53075063f,
    -0.38047761f, -1.47139132f, 0.39539647f, 0.16957094f, -0.28188628f, -1.36016345f, 0.49677143f, -0.82464689f,
    0.59222269f, 0.01786424f, 0.31382611f, -1.21056509f, 0.52586561f, -1.35838115f, 0.15627581f, -0.39613229f,
    1.23955083f, 1.11341965f, 0.27702418f, 0.11714116f, -1.59293270f, 0.58839679f, -0.60175395f, 0.40858546f,
    -0.37923646f, 0.93338364f, 0.28476554f, -0.19511114f, -0.20635949f, -0.08562865f, 0.30966622f, -1.36123967f,
    -1.87314403f, -0.68008822f, -0.80641550f, -1.18120253f, -0.22169329f, -0.22936958f, 1.14298475f, 0.73121274f,
    -0.21606550f, 1.47262418f, 0.21603662f, -0.01583875f, 0.49447200f, 0.19894861f, -0.70829451f, -0.02722120f,
    -0.39781147f, 0.31130141f, 0.07538921f, 1.89065194f, -0.23807122f, -1.16478264f, 2.08411407f, 0.60842693f,
    -1.01142609f, 0.42400798f, -0.92954069f, 0.15075691f, 0.55402869f, -0.87753218f, 0.52192414f, -0.28487766f,
    -1.81691933f, -2.08191013f, 0.20143449f, -0.65156311f, -0.41459942f, 0.10891290f, 0.56767446f, 0.85275710f,
    -1.19824219f, -0.08309967f, -1.23422909f, -0.59121054f, -0.47957712f, -0.28095105f, 1.88311362f, 0.64524108f,
    0.81419939f, -0.89445043f, 0.06612150f, -0.33872721f, -0.74090010f, -0.16171177f, 0.02073322f, -0.34285128f,
    0.40145022f, -0.01946205f, -0.46114773f, 0.65414262f, 0.82771963f, 1.69827139f, -0.16585928f, 0.08301387f,
    -0.19751936f, -0.18371384f, 0.34823099f, 0.04186156f, -0.02036751f, 1.51049161f, -0.93611562f, 0.34808776f,
    -0.47137734f, 1.61945128f, 0.79581952f, 0.64362377f, 1.11621976f, 0.32835755f, -0.12988359f, -0.21631101f,
    -0.54142845f, 1.61322796f, -0.48716417f, 2.33880186f, -0.58387542f, -0.91342491f, 0.41323006f, 0.57893318f,
    -2.48048902f, -2.57368517f, -1.02460396f, -0.09501328f, 0.86786824f, 0.09121358f, 0.05535102f, -0.68613577f,
    0.83068591f, -0.16629374f, -0.72535205f, 0.90325439f, -1.17914069f, -0.14812307f, 1.24544156f, -1.02982223f,
    -0.78944707f, 0.23458494f, -0.03228354f, 1.44839382f, 1.18390858f, -1.32720888f, -0.20039190f, -0.97739208f,
    -0.98668361f, -0.65485007f, -0.88092971f, -1.74883783f, -1.47227466f, -1.67666757f, 0.55778050f, 1.38006532f,
    -0.12095793f, 0.00987876f, -1.14160359f, 1.67305112f, -0.10972430f, 1.05979931f, 0.07121115f, 2.24769330f,
    1.02672195f, 0.16543987f, -1.33964813f, 0.68038327f, -0.09703835f, 1.09426308f, 0.45222765f, 1.40041959f,
    -0.51643342f, -0.54106379f, -0.01944703f, 0.81602961f, 0.18285538f, -0.29657024f, 0.45144215f, -0.20270011f,
    -1.23338020f, -1.88392389f, -1.98895311f, 0.55020857f, 2.09124088f, -0.17411695f, -1.04137254f, 0.23198320f,
    -0.59346730f, 1.00414515f, 1.29909921f, 0.77869260f, 0.43262321f, -0.61027622f, 0.68646097f, 0.06781644f,
    -1.46710336f, -1.44644046f, 0.65147752f, 0.35634708f, -0.61314374f, -0.99417472f, -0.93551552f, 1.52894688f,
    -0.91372520f, 0.45983925f, -0.33953997f, -0.50760454f, 0.22193229f, -0.88257760f, 0.57809025f, -0.96889448f,
    -1.46974742f, -1.49367750f, -1.02172482f, 0.36986011f, 0.07769009f, -1.12497425f, 0.31612170f, -0.12548164f,
    1.03757310f, -1.50882757f, 1.70271432f, -0.42984012f, -2.34145689f, 0.49444491f, -0.94310796f, 1.19379270f,
    0.13775016f, -1.65880382f, -1.94773901f, -0.52531654f, 1.34219587f, -0.77962035f, -1.30441248f, 0.47704402f,
    1.00080240f, 2.14287496f, 0.44740549f, -1.13957465f, 0.62625247f, 0.43836895f, -1.30438828f, 0.40891922f,
    -0.88538915f, 0.85184103f, -0.09837924f, -0.12227613f, 0.56822163f, -0.12028798f, 0.21068487f, 1.48842061f,
    0.59123462f, 0.24285638f, 0.90676194f, 0.10627336f, -0.71704513f, -1.08267128f, -0.21048355f, -0.41163024f,
    -0.17062657f, -0.12849157f, -0.02196886f, -0.41235906f, 1.50755167f, -0.43550414f, -1.89686394f, -0.02697204f,
    -0.28278211f, -1.08344257f, 1.44986773f, 0.27612019f, -1.37606061f, -1.80331349f, -0.40967664f, 0.39295685f,
    -0.13453314f, 0.23248656f, -1.69958317f, 0.25959128f, 0.91667932f, -0.31283686f, -0.69947636f, -0.44662774f,
    0.21161675f, -1.10457718f, 1.05578697f, -1.66180575f, 0.68841428f, 1.23997307f, -0.92477179f, 0.65804297f,
    0.87512857f, -0.86410195f, 0.18564637f, 0.58580959f, -1.21371484f, -0.67467898f, 0.58960497f, -1.21366119f,
    -0.46367818f, 0.90464121f, 1.21885252f, 0.61055028f, 0.57850569f, 1.07955623f, 0.72935075f, 0.32243669f,
    0.08422705f, -0.59636223f, -0.01175390f, -1.64906442f, 1.56021249f, -0.39471918f, -2.08284068f, 0.36171061f,
    0.79241860f, -1.07575119f, 0.17270009f, -0.22869273f, 0.74633682f, -0.01311082f, -0.65625912f, 0.49327701f,
    0.22000237f, 0.56922221f, 0.25643975f, 1.22419107f, -0.77977091f, -0.50549543f, -0.08860515f, 0.02618926f,
    0.69106627f, 0.67624956f, 1.19670010f, 0.60431838f, 1.13329697f, -0.02299957f, -1.04059649f, 0.50528294f,
    1.24695647f, 0.64484930f, 0.48957884f, 0.51501542f, -1.07782996f, -1.07064593f, -0.15163410f, 0.86203659f,
    -1.05756974f, -0.60997283f, 0.24767533f, -1.04952919f, 1.73190606f, -1.88953114f, 0.61050004f, 0.36681634f,
    0.40185890f, -0.78286624f, -0.77534008f, 0.07411029f, 0.55412722f, -0.03463593f, 0.45975551f, 1.06728446f,
    -1.59613216f, 0.24495044f, 0.60992175f, -0.40486810f, -0.83657134f, 1.67611945f, 0.66658139f, 0.34913936f,
    2.18054891f, -0.30966383f, 0.22809781f, 0.04927209f, 0.83161622f, -0.90524453f, -1.04427862f, 0.75855356f,
    -0.94450760f, 0.50216591f, 0.57003534f, -0.96526968f, 0.88902801f, -2.53488207f, -0.70440465f, 1.31397915f,
    0.54951239f, 0.65901524f, 0.59539676f, -0.93493021f, -0.68621057f, -0.60878044f, -0.35662466f, 0.57617092f,
    -2.58197665f, -0.21886924f, -1.13113749f, -0.17253530f, -1.36005139f, -0.35612118f, 1.10112941f, -1.35663939f,
    -1.52014470f, -0.44239703f, -0.34582186f, -0.38740826f, -0.16166145f, -0.85504907f, 1.18502522f, 0.47932518f,
    -0.01706942f, 0.67813808f, 1.59144723f, -1.67414165f, 0.38637891f, -1.36651516f, 0.07399278f, -0.86842287f,
    -0.64709139f, 0.99403566f, 0.32954270f, -0.69893545f, -1.76861775f, 0.51000828f, 0.14823863f, -1.14794719f,
    -0.06301166f, 0.75913966f, 0.86939389f, -0.67125583f, -0.70174444f, 1.50449026f, 0.20500702f, 0.61916405f,
    0.67167538f, 0.63514107f, 0.92760897f, -0.97434700f, -1.32130873f, -0.88478494f, 0.23937994f, -0.35701847f,
    0.27095172f, -0.23239358f, 0.72005731f, 1.04493475f, -0.27236786f, -0.00392087f, -1.11886477f, -0.53042394f,
    -1.63515866f, 0.08743080f, -0.33396068f, 1.44856203f, -0.66990805f, -0.49255070f, 0.50113755f, -1.16998971f,
    0.52729189f, 2.02700400f, 1.01258230f, 0.61900616f, 1.14782465f, -1.53080249f, 0.36005953f, 1.10543704f,
    1.04256654f, -1.63902414f, 1.11552775f, -0.06314045f, 0.24355191f, -1.62404394f, 0.18655112f, 0.45093259f,
    0.53319603f, 1.36398578f, -1.00168157f, -0.24822260f, -0.39074221f, -0.12677480f, -0.81899059f, -0.67574245f,
    0.50437081f, -1.21186197f, -1.60858512f, -0.44816297f, 1.76800823f, -0.73937052f, 0.11952739f, 0.80196625f,
    0.54624432f, 0.75189781f, -0.66788322f, -1.34501553f, 0.94406688f, 1.76800191f, 0.77035922f, 0.71940762f,
    -0.48793161f, 0.02964802f, 0.62395537f, 0.40149122f, -1.14901471f, -1.22358310f, -0.58051753f, 1.82027829f,
    -0.28612539f, 0.50249195f, 0.65152168f, -1.18924093f, 0.51049989f, 1.10351515f, 0.23666601f, -0.63732350f,
    -0.08771442f, -0.79071677f, 0.53073776f, -0.15793306f, -0.49141484f, -1.21576726f, 0.50327772f, 0.54905361f,
    0.81589431f, -1.70902848f, -0.08279701f, 1.02137172f, 0.41125515f, -1.40862250f, 0.80016553f, -0.38860762f,
    -0.20123044f, 0.71610129f, -1.84974241f, 0.13802665f, 0.58288091f, -0.48440167f, -1.14540493f, 1.24404800f,
    -0.28641680f, 0.42314291f, 1.01878142f, -1.90842927f, -0.71262836f, -0.22664122f, 0.53648037f, -0.22419913f,
    0.74401629f, -0.32117316f, 0.95381713f, 0.32256582f, 0.47400925f, -1.66346312f, 0.80862540f, -0.57070035f,
    -0.73975009f, 0.99360961f, -0.99751437f, 1.35665822f, 1.45497596f, -0.89952213f, -0.44619447f, -0.80895233f,
    0.36044627f, -0.90281528f, -0.48891586f, 0.14423735f, 0.70415246f, -0.55764914f, 1.05056036f, 0.75070643f,
    -1.21980274f, -0.27033389f, -0.34658214f, -0.45665708f, -2.45225620f, 0.97736824f, -1.11672211f, 0.30589959f,
    -0.30460235f, 0.52340406f, -0.00482051f, 1.48532438f, -0.69690984f, -1.03942537f, 0.46979198f, -0.62283021f,
    -0.87415141f, 0.94865125f, 0.58750552f, -1.57711518f, -0.40234566f, -0.63919520f, 1.26713586f, -0.38597515f,
    0.42538428f, -0.23956978f, -0.41000393f, -1.47018790f, -1.32246828f, -0.03808131f, 0.18187565f, 0.56678647f,
    -0.61892551f, -0.41117156f, -0.42521936f, -0.20095335f, 0.48778039f, -1.50237620f, -1.10547566f, -1.25819814f,
    -1.23168063f, 1.01057601f, 0.64303732f, 0.99968022f, 1.09455252f, -0.33589774f, 1.89359391f, -0.33502907f,
    -0.00847341f, -0.99256051f, 1.64451003f, 0.33384001f, -0.03512857f, 0.59436554f, 0.03772325f, 0.75365460f,
    -1.24987817f, 0.50800043f, -0.60318518f, -0.57622468f, 0.40910253f, -0.60971022f, -1.50841784f, -0.23097812f,
    -1.35516572f, -0.13584270f, -0.37859052f, 0.17428136f, -0.27030486f, -0.65536392f, -0.37841165f, 0.50203007f,
    0.31281698f, -0.87057489f, -0.45242441f, 0.00815560f, -0.90048522f, 0.73919064f, 0.47912988f, 0.25661311f,
    -0.30428627f, -0.21927667f, -0.95898813f, 0.58125079f, 0.89991933f, -0.18204942f, 1.47765315f, 0.89575022f,
    -0.55750316f, -0.22081988f, -0.08811557f, 0.03756767f, 0.54281348f, -0.55487007f, -1.82434094f, 1.32684898f,
    1.16823411f, -0.53178614f, -0.44058898f, 0.40438405f, 0.19563797f, -0.53898793f, -1.28618932f, -1.06543851f,
    0.15837885f, -0.74973100f, -1.21133780f, 1.12744844f, -0.53448462f, -0.69276696f, -0.73563284f, 0.30824164f,
    2.03808284f, -2.80453920f, -0.38867673f, 1.18782544f, -1.22069967f, -0.50634390f, 0.26280451f, -0.60035414f,
    -1.02609813f, -0.40087533f, -0.70063233f, 1.13057256f, 1.09260726f, -1.12601876f, -0.31331605f, -0.48962745f,
    -0.85583079f, 1.22351992f, -2.20742464f, 0.49683872f, -1.11552763f, -0.79774445f, 1.43493700f, -0.99569690f,
    -0.11504482f, -0.39027008f, -0.30993867f, 1.07634985f, 0.93220681f, 0.96417803f, -0.96258706f, 0.20106284f,
    0.34844667f, 1.25499558f, 0.72563088f, -1.43466592f, -0.51385403f, 0.43366092f, 0.79605722f, -1.29369891f,
    0.17538026f, -0.91595823f, 0.22453314f, -1.27718949f, 0.05313205f, -0.15065669f, -0.55065560f, 0.18382639f,
    -0.90306461f, -0.60152131f, 2.11702085f, -0.34910884f, -0.45846930f, -0.20188650f, -1.23839200f, 1.30047309f,
    -0.01965607f, -0.51440990f, 0.53782976f, 0.58652401f, 0.73065478f, 1.73903668f, -0.10042981f, -0.24548708f,
    -1.24451244f, -0.59977067f, -0.83404911f, -0.37783140f, -0.49507910f, -0.86031038f, -0.80215979f, -1.07753420f,
    0.09571267f, 0.78057778f, 1.10824466f, 0.08675730f, 0.07142022f, -0.80363905f, -0.19297141f, -1.10297394f,
    2.27016687f, 0.76121062f, -0.24582352f, 0.76230901f, -0.72608793f, -0.02573765f, 1.60157418f, 1.37990165f,
    -1.38798082f, -0.24941643f, -0.07997146f, -1.74551809f, 0.77973735f, 0.71074718f, 1.39085925f, -0.87991977f,
    0.20176598f, -0.80190641f, -0.00207085f, 0.77449608f, 0.43496189f, -1.43579257f, -0.19037439f, 1.86684108f,
    -0.09660956f, 1.39183784f, -1.46342409f, 0.61095423f, 0.63499457f, -0.88575011f, -0.15923505f, 0.05314760f,
    -1.17732000f, -1.29079854f, -0.68852431f, -0.71998268f, -1.21536887f, -0.62436891f, 0.39956298f, -1.76672459f,
    -0.00164906f, -0.86212724f, -0.22552824f, -2.27559066f, -2.27807784f, -0.32735065f, 0.48998946f, -0.35099423f,
    2.75144219f, 1.18624377f, 0.18199006f, -0.92776412f, -1.10262847f, -1.22488034f, 0.78248751f, -1.26625931f,
    -0.26263177f, -1.66769648f, -0.60325295f, -0.64316410f, 0.92935336f, -3.25153565f, -0.01365965f, 0.29244515f,
    -0.36967456f, 1.34136844f, -0.59215891f, 0.02330808f, 0.90941614f, -0.20978174f, 0.35275954f, 0.03374667f,
    -0.16835816f, -1.15653396f, -1.30482388f, -0.94224399f, -1.39765632f, 1.41216826f, -0.26082218f, -1.50229335f,
    -0.31055242f, -0.46258292f, 0.15819962f, 2.26726842f, 1.52642608f, 0.23460214f, -0.15284026f, 0.28358412f,
    -0.17201573f, 0.50089186f, 0.47441974f, -1.43613756f, 0.68829280f, -0.74364537f, 0.52819729f, 0.27290833f,
    0.12068232f, 1.04960847f, 0.00431085f, 0.73742229f, -1.65652013f, 0.73110229f, -1.37607968f, 0.45087004f,
    -0.33890095f, 0.63682276f, 0.79725540f, -1.36640978f, -0.98658836f, -1.55599689f, -1.36038160f, -0.41074961f,
    0.87094384f, -0.66115355f, 1.10675859f, -2.34841752f, -0.33268809f, -0.09880595f, 0.66544574f, -0.00761921f,
    0.83477759f, 0.89239204f, -1.03122127f, -0.26048139f, 0.15790163f, -0.21691954f, -0.70879626f, -0.51932037f,
    0.11068311f, 0.47643337f, 0.19041562f, 0.71894485f, 0.42212459f, 0.35772231f, -0.35916024f, 0.71924764f,
    0.58223188f, 1.12529981f, -0.07533140f, -0.91814935f, 0.73186439f, -1.05812740f, 0.21318457f, 1.01717973f,
    0.39432353f, -0.31722748f, 0.03091486f, 0.57230693f, -0.13604610f, 1.25555992f, -2.52744675f, 0.65930307f,
    1.11274779f, 0.35664955f, -0.19805858f, -0.81570506f, -0.24234819f, -2.31836772f, 0.47334805f, 0.32372546f,
    1.81253016f, -0.65261465f, -1.15572965f, 0.29410225f, -0.86049056f, 0.55616641f, 0.16861017f, -1.70878959f,
    -0.13948287f, 0.57312208f, 0.28106076f, -0.06208759f, -0.37411493f, 1.11716151f, 0.76434129f, -2.46024370f,
    -0.69730383f, 1.19157803f, -1.77112341f, 0.41437083f, 1.20607591f, 0.91268933f, 0.22012290f, -0.27081889f,
    -1.34947383f, 2.09322357f, -0.12560725f, -0.96797472f, 1.28875256f, -2.08811402f, 0.18455702f, 0.17886801f,
    0.57260197f, 0.26276281f, -1.21217775f, -0.07636418f, 0.25017768f, 1.12315726f, -1.25287592f, -0.33865812f,
    -0.74092698f, -0.59352887f, -0.60884368f, -0.38402048f, 0.44915569f, -0.19413452f, -1.01807654f, 1.17899787f,
    0.53516656f, -1.57897091f, 0.28041926f, -0.74466336f, -1.00847375f, 0.37762111f, -0.61069739f, -0.27236813f,
    -1.16751730f, 0.15125148f, -1.48451245f, -1.46260440f, 0.52046138f, 0.08107156f, -0.21708477f, -1.35409212f,
    0.28835437f, -2.21625781f, 1.39004230f, -0.04099302f, -0.25296724f, 1.62672269f, -1.37243426f, 1.84252703f,
    -0.29780778f, 0.00950345f, 1.11368275f, 0.24299958f, -0.75213146f, -1.22646284f, 0.41060081f, 1.26670730f,
    0.05982332f, 0.78628457f, 0.01702461f, -1.40149689f, 0.05357166f, -0.28391656f, 0.24519376f, -1.05628455f,
    0.19262345f, 1.21280420f, 0.06529015f, -1.69755864f, -0.50805312f, -0.93518311f, -2.14194798f, 1.05454028f,
    -1.03172934f, 0.38435012f, -1.08203363f, 0.11856294f, -0.75864619f, -0.27483571f, 1.43162143f, 1.06988704f,
    -1.21102881f, 0.46979052f, 1.35518444f, -1.29117060f, 0.71970034f, 0.11807858f, -0.98398894f, -0.92147362f,
    -0.67680126f, 0.88696265f, 0.37714770f, 0.65127909f, 0.16554610f, -0.99912220f, -2.04006767f, 0.86762989f,
    -0.57405061f, -0.09949233f, -0.21430920f, 0.81478506f, 0.78998131f, 0.36102107f, 0.91579759f, 0.92408830f,
    1.37140918f, -0.45237455f, -0.13437837f, -1.12285781f, -0.47715339f, -0.30396986f, 0.21899264f, 0.54588318f,
    1.25852907f, 1.32488894f, 0.25918636f, 0.21523239f, 1.69045866f, -1.40981066f, 0.75239784f, -0.32314897f,
    1.18490779f, -0.20249940f, 0.90677583f, -0.86705238f, -1.41349769f, -0.59164792f, 0.65062594f, -0.29277521f,
    0.76818186f, -2.50515103f, 0.54721409f, -2.16075611f, 1.04948223f, -0.32903486f, -2.68230724f, -1.13868761f,
    -1.10107553f, 0.37899271f, -0.29661724f, -0.04359601f, 0.32633701f, -1.66958213f, 0.47864392f, 1.16163325f,
    0.29387450f, -0.71542352f, 0.26593512f, 0.19643132f, -0.17354885f, 1.08015585f, -0.89008081f, 1.15167391f,
    0.13679054f, -0.45493725f, -0.70275086f, 0.76908869f, -0.22248544f, -1.25857353f, 0.09931584f, 1.63781333f,
    -1.63302827f, -0.34605113f, 0.74637526f, 0.33742532f, 0.47824821f, -0.87050009f, 0.10998954f, -0.28483233f,
    0.19428059f, 0.86728030f, -0.69897568f, -0.38344690f, 0.71469402f, 0.35716403f, -0.69820994f, -0.48160443f,
    -1.00707650f, 0.81741095f, 0.37002310f, -0.58846682f, -0.38021615f, -0.00358541f, -0.35058996f, 1.59594083f,
    0.26351508f, -0.20221385f, -0.02634944f, 0.43821821f, -0.93432891f, -0.01913693f, -0.47836322f, 1.13972938f,
    -0.42331022f, -1.10673833f, 0.34715748f, 0.23610336f, -0.63199168f, 0.42864528f, 1.92317069f, -0.67693138f,
    0.89317566f, 0.36019489f, 0.65626234f, 0.77282643f, 1.22143066f, 2.20740914f, -3.18908644f, -0.79442781f,
    -0.16610739f, -0.45903897f, -1.39351392f, 2.54120445f, 1.77692366f, -0.24720179f, 1.45165825f, 0.12561163f,
    1.15354872f, 0.37037739f, 0.13556868f, -2.55755472f, -0.34007615f, -0.27646363f, 0.03047493f, -0.85251647f,
    1.13127100f, 0.61244941f, 0.92558217f, 0.01493709f, -0.45671794f, -0.05153136f, -0.75432128f, -0.60326856f,
    -0.01545408f, -0.52084821f, 0.44870487f, -0.26868585f, -1.82303178f, -1.15702426f, -0.00681493f, -0.04354210f,
    0.29587707f, -0.15826765f, -2.50454116f, -0.80019653f, -0.45958248f, 0.53279692f, 0.44903556f, -0.47663921f,
    -0.36622685f, -0.36674666f, 0.20339662f, -0.23514742f, -0.58365786f, -1.14209664f, 1.03807557f, -0.93620229f,
    1.22995639f, 0.60462648f, -1.39058053f, 1.76431644f, -1.38940179f, 0.51091093f, -0.13460913f, -0.47896230f,
    -0.38219050f, 0.40276271f, 0.06241748f, -1.63655090f, -0.23289846f, -0.71931303f, 0.36174119f, 1.66510725f,
    1.13756037f, -1.17773914f, -0.48556751f, -1.68808126f, 1.27674890f, -1.18907595f, 0.42274019f, -0.06437636f,
    0.32411507f, -0.16775194f, 0.20848279f, 1.09469688f, -0.15522014f, 0.82763350f, -1.48337293f, 0.78160948f,
    -0.43302307f, 1.48303425f, -2.23795819f, -0.27582288f, 2.00893354f, -1.04051423f, 0.17597581f, 2.07971406f,
    2.12549424f, 0.17581381f, -0.54361039f, 0.13261539f, -0.65578747f, 0.41877407f, 0.15966070f, 0.14400505f,
    -0.26030302f, -0.97102582f, -1.59857070f, 1.36727953f, -0.35976735f, 0.43199787f, -0.58001345f, 0.00781214f,
    0.19616388f, 1.29066145f, -0.87377739f, 0.23999085f, 0.43525028f, -0.94037849f, -1.22173727f, 0.24586445f,
    0.42376682f, -0.45232221f, 1.52182758f, -0.98928046f, 1.08687437f, -1.28607738f, 1.40960860f, -0.26707733f,
    -2.68453908f, 1.86654925f, 0.14882021f, -0.37375006f, 0.12430253f, 0.16707619f, -0.75617582f, -0.57266021f,
    0.10246586f, -1.94909179f, -1.78077579f, -0.83586156f, 1.22969043f, -1.18837774f, 0.26899463f, 0.19286066f,
    -0.90666819f, -2.67377877f, 1.07717276f, -1.62334907f, -0.80976766f, 0.66279131f, 0.92319918f, 0.21716182f,
    -0.95550209f, -0.28305838f, -1.53831637f, 0.05742170f, 0.08503000f, -0.56432611f, -0.76885420f, -0.81847316f,
    0.68525380f, 0.09773881f, -0.47577909f, -0.84445643f, 0.81389707f, 1.56647849f, -0.44731113f, 0.35059968f,
    -0.44315326f, -0.35722271f, -1.51271808f, -2.56345534f, -2.16013455f, 1.08360577f, -0.83515716f, -1.78128064f,
    -0.91846830f, -0.52103299f, 0.54032582f, 0.29202449f, 0.52056730f, -0.84355009f, -0.05843912f, -0.61649138f,
    0.10039711f, 0.28301394f, -0.94080466f, -2.11701894f, 0.98038507f, 1.68590832f, -0.02540890f, 0.85570228f,
    -2.12065482f, 0.14277938f, -0.32422075f, 0.46399561f, -1.64759493f, 0.67778158f, 0.71386492f, -0.67915684f,
    -0.89231408f, -0.92856359f, -0.15631221f, 0.06625675f, 1.03512764f, 0.00497948f, 0.53117555f, -1.22810447f,
    -0.46115834f, -0.83290440f, -0.21471582f, -1.20732689f, 0.53499216f, 0.51588035f, 0.93331605f, 0.00672812f,
    -0.87292236f, -0.24159966f, 1.21221566f, 0.46874216f, -1.27696478f, -1.97939479f, -0.73958290f, -0.09774510f,
    -2.17190576f, -0.76653945f, -1.36247861f, -0.18927918f, 1.47931063f, 1.81398606f, -0.68392307f, -1.08108914f,
    -2.24622440f, 0.65548563f, 1.77567232f, 0.44824478f, 0.77716333f, -0.91186428f, 1.41459560f, -1.55035985f,
    -0.82905066f, 1.06988370f, 1.11018670f, -0.31957555f, 0.77135545f, 1.24189591f, 0.07496656f, -1.90434408f,
    -2.33043671f, 0.15984721f, -1.99451923f, -0.40225315f, -0.71807754f, -0.20494720f, -0.73590243f, -1.16685140f,
    1.10169184f, -0.56476611f, 2.47464657f, 0.00035885f, -1.41658354f, 0.46298876f, -0.62140447f, -0.20766084f,
    1.42661381f, 0.70096391f, -0.14055246f, 1.37690568f, 0.08090165f, 0.32856324f, 0.85678893f, 0.50724155f,
    -1.25968707f, -0.82634711f, -2.02480769f, 0.69822258f, 1.95670819f, -1.38583910f, 0.26645344f, 0.83808631f,
    -0.42009613f, -1.75783408f, -0.35586473f, -0.99874085f, -1.22217596f, 0.24995735f, 1.17938948f, 0.62867814f,
    0.65939915f, -1.48861492f, -1.06658626f, 0.73567849f, -0.19539155f, 0.24450429f, 0.19083479f, -1.01626885f,
    0.32080787f, 0.48820549f, 1.98420990f, 0.46979171f, 0.38941652f, -0.27596244f, -1.33853471f, 1.36706769f,
    1.11413097f, 0.33938903f, -1.39605165f, 1.76838684f, 0.16263014f, -0.08227510f, 0.40130919f, 0.48759201f,
    -0.23809044f, -0.88606566f, 0.59084493f, 0.10446099f, -0.47971913f, -1.50986183f, 0.00338398f, -0.31285849f,
    -1.14123154f, -0.10455290f, -0.74118072f, -1.86450303f, -1.53009570f, -0.01361798f, 0.86383635f, 0.09198184f,
    -0.76096213f, 0.89909500f, -0.36815798f, 0.35398105f, -0.03386942f, 0.37008613f, -1.21787119f, 0.09260201f,
    -0.30134082f, 1.15660083f, 0.39547005f, -1.48814726f, 0.40948090f, -1.07490027f, 1.41471064f, -0.30318329f,
    -1.55409682f, -1.15205455f, 1.52408290f, 0.55047387f, -0.02223868f, 0.66856962f, -2.29965615f, -0.00011403f,
    -0.00969063f, 0.38503385f, 0.41351920f, 1.36603951f, 0.23192233f, -0.73866665f, 0.79164571f, -0.77311677f,
    0.49996722f, -0.09632640f, 1.52825963f, -1.35216558f, 0.57985127f, -0.77972215f, -0.73046362f, -1.26672900f,
    0.42743501f, 0.45116985f, 2.09135985f, -0.29170704f, -1.95739365f, 0.25791368f, 0.23892437f, 0.66300076f,
    -0.31249338f, -0.57496762f, 0.30699518f, -0.27741888f, 0.91693282f, 0.17696978f, -1.23521245f, -0.77162701f,
    -0.57018441f, 0.22231539f, -0.17511271f, 0.48757491f, 1.32611620f, 0.22737411f, 0.51971924f, 0.36944801f,
    -0.01228115f, 1.06651175f, -1.83225739f, 1.73331356f, 0.61838895f, 0.74037397f, -1.53882468f, -0.73343062f,
    0.34019625f, -0.52910119f, -1.44181311f, 0.00886017f, 1.04452157f, -0.11307752f, -0.91981840f, -2.50413561f,
    0.11312794f, -0.54894942f, -0.84548259f, -0.51151097f, 2.23889422f, -2.59678507f, -0.27326718f, -1.24194145f,
    1.04196572f, 0.99472195f, -0.17213531f, 0.72228670f, 0.84553003f, -0.22668299f, -0.24025778f, -0.81890625f,
    1.19084442f, -0.93205041f, -1.00540018f, 2.48327565f, 0.27071396f, 0.65707618f, -2.18458200f, 1.34010923f,
    0.66540200f, -0.24960001f, 0.77992618f, -0.13118161f, -1.59357786f, -0.38411677f, 1.18396616f, -0.45318350f,
    -0.07984760f, -0.53104407f, 0.70047659f, 0.66215235f, -0.77756453f, -0.16253527f, 0.40862468f, 1.05042791f,
    -0.57109308f, -1.40345335f, 1.91680133f, -0.79889888f, -1.12232101f, -0.35022694f, 0.87091202f, 0.82010615f,
    1.37654769f, 1.86923110f, 1.37165773f, 0.86054873f, -0.24824075f, 0.12256207f, 0.91329312f, -1.40271950f,
    -0.04741735f, 1.15685809f, -1.66974366f, -0.49782091f, -0.47794420f, 0.83993733f, 0.56942278f, -0.19083796f,
    0.34684631f, -1.09331787f, 1.16326380f, 0.25873250f, 0.36125559f, 0.20290230f, -0.93808025f, 0.22927980f,
    -0.25284088f, 0.74362487f, -0.75285298f, 1.03050470f, 1.08632720f, -0.38937908f, -0.75897223f, 0.10151949f,
    0.18178080f, 1.12132943f, 1.42785454f, -1.67327476f, -1.37481642f, -0.66052288f, -1.81433964f, 0.39912158f,
    0.31764665f, -0.91909212f, 2.34713745f, 1.20297384f, -0.26388460f, -1.03027833f, 1.97259963f, 1.01288188f,
    -1.33132219f, -1.56970334f, 0.60936058f, -0.22869934f, 0.33713692f, 2.03226781f, 0.28501850f, -1.42060745f,
    0.28728288f, -0.08512886f, 0.04840851f, 0.23107068f, -0.32829234f, -0.22866528f, 0.16158862f, 0.87578154f,
    0.87140328f, 0.68431026f, 0.82334828f, -0.90954918f, 0.24928911f, -1.13256145f, 0.10722387f, 0.75687611f,
    -0.01996230f, -0.37260810f, -1.14679718f, -0.06480011f, 0.27094796f, -0.01142788f, -0.62952834f, 0.84330028f,
    -1.03143561f, -0.56569737f, 0.43007946f, -0.54816341f, 1.17905486f, 0.81786990f, -0.85240251f, -1.22540128f,
    -0.23696178f, 0.03918586f, 0.42604113f, 1.74946189f, -0.09505706f, -1.08278942f, 0.17459132f, -0.22996214f,
    0.69046813f, -0.28613707f, -0.86944818f, 0.33231336f, 1.64595056f, 0.61115980f, -0.80995446f, -0.95469451f,
    -1.08432996f, 1.31295013f, -1.39681911f, -1.31055510f, -0.16316853f, 0.11975267f, -0.30748251f, -0.28328565f,
    -1.08498251f, 0.64616930f, 0.27710584f, 1.32634532f, -0.61715168f, 0.50607955f, 0.80363739f, 0.52162111f,
    0.18180950f, 0.21302612f, 1.66900921f, -0.38554564f, 0.43654427f, 0.77251458f, -1.43477249f, -0.36344707f,
    0.45079041f, -0.93311387f, -0.95598835f, 1.11361706f, 2.05726171f, 1.52182388f, 0.25661382f, 0.15705614f,
    0.09973788f, 0.74116689f, 1.40477955f, -1.12990820f, 0.43819094f, -0.23326169f, -0.07475613f, 1.23693407f,
    0.18384880f, -0.25952488f, 1.21363258f, -1.69434047f, -0.62506968f, 0.27919686f, -0.74436533f, -1.49229050f,
    0.66281474f, 0.43776703f, -1.52942955f, 0.08587513f, 0.26522157f, -0.30029166f, 1.52562189f, -1.77390718f,
    -1.52196848f, 1.56084800f, -1.15351629f, 0.23972404f, -0.32322809f, 1.68708670f, -0.26756629f, -0.68860114f,
    0.58530706f, 0.15698057f, -1.20499337f, -0.86858064f, -0.41226763f, 0.93177450f, -0.51648766f, 1.15285230f,
    -0.84532034f, 1.00962198f, -1.50666285f, 0.49159741f, 0.46937573f, -1.69410145f, 0.31121850f, -0.50364113f,
    -0.43780586f, -0.18030305f, 0.62799102f, -0.06355148f, -0.03720763f, 1.79830587f, -0.30569351f, 0.36181399f,
    -0.55183536f, 0.17940563f, -1.04315114f, 0.19634016f, -0.92130619f, -0.34254640f, -1.58786964f, -1.78883994f,
    0.93898207f, -1.41477311f, 0.43663001f, 1.14132524f, 0.31005326f, 0.17507443f, 0.74680316f, -1.33570826f,
    -0.96118265f, -1.64983153f, 0.02968160f, -0.56661534f, -1.01453972f, -0.66747487f, -0.49193212f, -0.24653190f,
    0.70357013f, 1.53154850f, -0.27711880f, -0.73620176f, -0.75882697f, 1.33848929f, -0.42090955f, 1.22537470f,
    -0.36971417f, 0.57106358f, -0.60496527f, 1.18583751f, -0.80057734f, -0.86312973f, 0.52260733f, 0.58108664f,
    -0.09544231f, -0.70822448f, -1.75664592f, -0.38634190f, 0.80391586f, 0.79301405f, 0.94701129f, -1.32548952f,
    -0.93436426f, -1.10293853f, -0.55671036f, -0.75213313f, 1.10676980f, 1.17627192f, 0.22706267f, 0.83631629f,
    0.35013157f, -0.05412573f, -0.50456494f, -1.35813582f, 0.75387967f, -0.20333979f, -0.41032055f, -0.65838808f,
    -1.37774563f, 2.24854970f, -0.68337482f, -0.04435931f, -0.21352346f, -2.56283617f, 1.08143103f, 0.40718201f,
    0.28719932f, -0.27061287f, -0.26318562f, -0.18260223f, -0.64619839f, 0.59114295f, -0.98583770f, -0.23735820f,
    0.68385720f, -0.07854184f, -0.26925439f, -0.09396572f, 1.53813183f, 1.95378149f, -0.58463371f, -0.38234997f,
    0.86969024f, 0.10853039f, 1.89797652f, -1.26196313f, -0.10303384f, 1.50775588f, 0.21072806f, 1.19325173f,
    1.20402682f, -1.95050883f, 0.31247044f, -0.54270756f, -0.00723617f, -0.78014493f, -0.87877494f, -0.48812759f,
    0.37403673f, -0.15355267f, 0.21139786f, -1.40493929f, -0.64963138f, -0.10610466f, -0.36584315f, -0.78526056f,
    0.13575178f, -0.53190571f, 1.12116015f, -0.54168540f, 3.13941669f, 0.57323915f, 0.73676813f, -0.23842072f,
    1.33835566f, 1.12379134f, 0.56739402f, -0.52816111f, -0.03021176f, -0.47437993f, 0.18235269f, 0.64765120f,
    0.60075605f, -0.75728446f, 1.24015403f, -0.08927239f, -0.56796962f, -0.29319409f, -2.24756694f, 0.11276188f,
    0.16448684f, -1.15544653f, -0.57700622f, 0.01768377f, -0.14556329f, 0.89356977f, 1.15511739f, 1.54283381f,
    -1.37870693f, -0.06482556f, 0.26844317f, 1.15761471f, 0.52649844f, -0.47091618f, 0.76337934f, -0.90873265f,
    0.93236357f, 0.02218669f, -0.22096579f, -1.65479040f, 0.32442975f, -0.07675946f, -0.18929587f, 1.39707708f,
    -0.64359653f, 0.17472115f, 0.09100098f, 0.29255950f, -0.23690157f, -0.48993200f, 0.37984714f, -0.53255016f,
    0.68619460f, 1.98993444f, 1.00239122f, -0.68091321f, 0.09841028f, 1.24271655f, -0.62970978f, 0.62973833f,
    1.88317752f, -1.11320364f, 0.40816185f, -0.14271739f, -1.63414598f, 0.12659314f, -0.92648065f, -0.75976998f,
    -0.55223912f, -0.08459789f, -0.19227618f, 0.49812871f, -0.90845329f, 0.31616360f, 0.11286210f, 0.53542066f,
    0.31221098f, -1.69224930f, -1.93812418f, -0.05189783f, 1.18210495f, 1.00979781f, 0.26111609f, 0.20127645f,
    -0.64491671f, -0.34498027f, 0.33548534f, -0.08467806f, 0.13612178f, -1.52181339f, 1.06964266f, -0.73191178f,
    2.21921062f, -0.25763142f, -0.54029441f, 1.53170967f, 0.06442263f, -0.62103277f, -0.65152186f, -0.52976227f,
    -0.87008625f, -1.16641724f, -2.56749129f, -0.21921057f, -1.15770054f, 0.39315432f, 0.22605714f, -0.83933800f,
    -0.38131225f, 0.12025294f, -0.72581351f, -2.18844533f, 2.26651669f, -0.03837051f, 0.56856406f, -0.80954587f,
    1.14986157f, -0.59116054f, -0.40326047f, -0.80352193f, 1.88968408f, 0.86121517f, -1.98675287f, -0.33127078f,
    -1.31748664f, 0.76854694f, -0.55883873f, 1.35128343f, -0.01435886f, 0.56375587f, -1.12774408f, -0.78715914f,
    -0.20676249f, 1.01867974f, 0.63616222f, -0.72191858f, 0.15135336f, 1.19771075f, -0.72166967f, -0.51809877f,
    0.09628578f, -1.17569923f, -1.11259127f, 1.02865672f, 0.03238929f, -1.82528818f, 0.45600626f, 0.24957013f,
    0.61399537f, 0.03600448f, 1.89459872f, 0.12999707f, 0.96776992f, -1.03817546f, 0.57555449f, 1.84642649f,
    -0.76598263f, -1.31427991f, -0.02481316f, -1.00643063f, -0.14587122f, 0.71986568f, -0.00076770f, -0.24909988f,
    2.92306423f, 0.41019258f, 1.39400041f, 1.16052926f, 1.39541817f, 2.37814450f, 0.32345644f, -0.26911685f,
    0.07515781f, 0.10607873f, -0.03824925f, 0.07478754f, -2.25385118f, -0.73729199f, 1.26646209f, 1.81323838f,
    0.19808619f, -1.56139398f, -0.57910585f, 1.40380681f, 1.25397813f, -1.27535832f, -1.30682421f, 1.36289227f,
    -2.23853493f, -1.51377499f, -0.87834936f, 0.45285910f, 0.77594990f, -0.37130627f, -0.76828843f, 0.10825486f,
    0.49230245f, -0.92402744f, -0.46634117f, 0.43902826f, 0.45736641f, 0.99037403f, -0.02206291f, -1.89899075f,
    -0.31093284f, 0.42229873f, 0.29703569f, 0.84982878f, 1.25494230f, 0.64788938f, -1.51010251f, 0.16786826f,
    -1.07771540f, 1.41729796f, -0.16516435f, -0.81572884f, -0.13289869f, -2.41254735f, 2.34215164f, -0.24657507f,
    1.41368663f, -0.69094115f, 0.36417300f, -0.77363586f, 0.40351740f, 0.55527693f, 0.74308002f, 0.22965370f,
    0.01268009f, -0.03741087f, -0.56029761f, -0.56847239f, -0.40996554f, -1.81748319f, 1.04050493f, 0.70043594f,
    -0.17487134f, 1.04564905f, 0.44995591f, -1.33307123f, 1.21121049f, 0.69633365f, 0.64345658f, 0.06911942f,
    -0.89722008f, -0.62653321f, 0.35859102f, 1.60133195f, -1.45341420f, 0.21672432f, 0.63427740f, 0.21228978f,
    1.70300996f, -0.05656434f, 0.88348711f, 0.64448941f, -0.27406630f, -0.62089795f, -0.16776992f, 0.35821497f,
    0.39671466f, 0.73541564f, 1.41484976f, 0.09178809f, 0.80564374f, -0.36351702f, 0.51220405f, 0.51074457f,
    1.52231300f, -1.10372603f, 0.45946270f, 0.39151403f, 1.97306108f, 0.81349176f, -0.14746271f, -0.52571386f,
    0.32264721f, -0.29165438f, -0.05083698f, 0.75521499f, 0.64685720f, -0.62937301f, 0.22289103f, 1.41654122f,
    -2.01736808f, -0.32858223f, -1.84771931f, -0.28655457f, 1.11077726f, -1.13978589f, -2.66482425f, 1.23657227f,
    -0.77373010f, 1.14025474f, 0.42370155f, 1.34862506f, -1.68558598f, -0.74620920f, -0.04626324f, -0.90646935f,
    1.83479941f, -0.21904622f, -0.81130570f, 0.21169743f, 0.19535048f, -0.12114014f, -0.79906356f, 0.54131895f,
    0.34702325f, 0.30386800f, 2.08471179f, -0.12704399f, -0.28924960f, 1.39268577f, 1.13621306f, -0.28884730f,
    -1.80872107f, -2.56681252f, -1.06478357f, 0.88296574f, -0.12372532f, -0.02936713f, 0.51859653f, 0.16166122f,
    0.28978238f, 0.18501863f, -0.75687814f, -0.54090518f, -0.98148000f, 0.73821473f, 1.44251895f, -1.12989557f,
    -0.14728169f, 0.70047808f, 0.43055645f, 0.00354185f, 0.63456082f, 0.15974578f, -0.63108379f, -0.42584074f,
    -1.12499857f, -0.19738975f, -2.15035295f, 0.65592039f, 0.47750112f, 0.03898377f, 0.43790033f, -0.14696339f,
    0.23413467f, 0.69419491f, 1.00471282f, -0.41750452f, -0.88210416f, -1.06414807f, -0.53888410f, -1.64930940f,
    0.39128408f, 0.23722017f, -0.00018906f, 2.42824221f, 0.01397812f, 1.23141086f, 0.81740147f, 1.56054163f,
    -0.64432174f, 1.90157473f, 1.00694311f, 0.26638514f, 0.74608648f, 0.12878993f, -0.39307615f, 0.12991126f,
    -0.52926183f, -0.32524341f, 0.64934361f, 1.87565124f, 0.78280473f, -1.86258614f, -0.14117533f, 0.01279363f,
    -1.10643589f, 0.91783631f, -1.43515754f, -0.42250136f, 0.46378586f, 2.04612732f, -0.08643825f, 0.08847877f,
    0.91706645f, 1.33601832f, 0.34514946f, -0.00978593f, 0.89433032f, -0.25867182f, 0.46470323f, -0.66951120f,
    -0.94725919f, 0.82827199f, 0.73596573f, -0.64085877f, -0.70624208f, -1.10365379f, -0.10758167f, 1.86177540f,
    -0.20838585f, 0.78721160f, -0.30281067f, 0.43476766f, 1.00492501f, -0.41882330f, -0.17434688f, 0.75842357f,
    -1.47180796f, -0.83976400f, 1.30799830f, -0.43153092f, -0.59770626f, -0.74086976f, 0.77512175f, -0.43297821f,
    0.18167724f, -0.49914253f, -1.05655670f, 1.93890548f, 0.14575927f, -0.12361617f, -0.39384016f, 0.24409258f,
    1.97308445f, -0.05515014f, 0.38257682f, 0.54787022f, 1.03394830f, -0.58400589f, 0.95095581f, -0.33143726f,
    -0.67216671f, -0.31826800f, 0.24987148f, -0.63558686f, -0.68347657f, -0.28858116f, 0.77960306f, 2.19879317f,
    -1.45411360f, 0.25758940f, 1.24950755f, 0.01030718f, -0.85069519f, -1.66035497f, 1.37954342f, -0.26852727f,
    -1.02046800f, 1.26169860f, -0.05623432f, 0.30970240f, -1.20045853f, 0.21068673f, 0.29571837f, -0.01396403f,
    -0.46851736f, -0.16362263f, -0.04847901f, 1.26169038f, -0.12383348f, -0.57420939f, -0.61702663f, 0.05749021f,
    -1.29120564f, -0.57577121f, 1.04604352f, 1.44076324f, 1.07311940f, -0.09760122f, 0.52196902f, -0.87999713f,
    0.12093422f, -0.12195667f, -0.15294515f, 0.60290426f, 0.00180622f, -0.30652836f, -0.62547976f, 0.45094290f,
    0.66158384f, -0.31950262f, -0.15018059f, 0.53429627f, 0.28164953f, 0.52011532f, 0.54798520f, 0.68915659f,
    0.02706455f, 0.17915075f, -0.63240647f, 0.79330510f, 2.49354410f, -0.23843546f, 1.22015667f, -0.98203939f,
    1.45100522f, -0.78779435f, -0.92199320f, -0.32635468f, 0.27888834f, -0.30913100f, -1.22998464f, -1.59064829f,
    -0.65977877f, -0.71360892f, -0.12935629f, 0.40749019f, 1.18155992f, -0.47385222f, -0.64048141f, 0.14894328f,
    1.56004262f, 0.07017013f, 0.14070314f, -1.51097536f, -1.19836664f, 0.98238575f, -0.14968434f, -1.31750357f,
    -0.16397406f, -0.19068751f, 1.99651206f, -2.24019742f, -0.63445807f, -0.66608959f, 1.32800186f, -0.22235745f,
    0.46576068f, 1.43546808f, -0.36675271f, 0.33361682f, 0.62483519f, -0.95290136f, -0.95303702f, 0.91570258f,
    -0.99183822f, -0.36395210f, -0.83047158f, -1.45030093f, 0.86784786f, 0.17612647f, -0.08308137f, -0.44448736f,
    -0.69211292f, -2.33527708f, 0.08603082f, 0.86723107f, -0.26723975f, 0.26375717f, 1.11105394f, -1.08181214f,
    -0.14613593f, 0.02304437f, 0.31395450f, 2.34571075f, -1.56827867f, -0.16389126f, 1.53928995f, 0.18058710f,
    0.53182423f, 0.29624012f, 0.10758928f, -0.49213648f, 1.82823575f, -0.85403353f, -0.61457777f, 1.99714291f,
    -1.67204106f, -1.01253152f, -1.10704911f, -0.14471281f, 0.39138901f, -0.47196126f, 0.44238478f, 0.10233029f,
    -0.98816508f, 0.06347539f, -0.60699987f, 0.24173000f, -1.90106916f, -0.23330320f, 0.73502457f, 1.31202233f,
    1.41603160f, -1.11123168f, 1.65537977f, 1.43745553f, 0.28389639f, -3.30943680f, -1.06168807f, -0.28542969f,
    -0.27992064f, 0.15673999f, 0.35801163f, -0.28653535f, -0.08370049f, 1.02739596f, 0.84523833f, 1.40429962f,
    0.21738069f, -0.86497939f, 0.08440267f, 0.88346851f, -1.26906586f, 0.99945378f, -1.89668930f, -0.96403354f,
    -0.12421841f, 1.18224072f, -1.09750915f, 1.17531991f, -1.23258233f, 0.85010111f, 1.24892259f, 0.01562811f,
    -0.48626727f, 0.30850378f, -0.10343952f, -0.98127061f, -0.21185832f, -1.39671588f, -0.38343140f, -1.01447248f,
    1.05403435f, 0.21008062f, -0.46241695f, 1.50289297f, -0.62489480f, 1.11838639f, -0.52192718f, 0.33723867f,
    -1.15739834f, 1.07189059f, 0.97491658f, 0.35340333f, -0.04766209f, 0.68091500f, 0.40896833f, -1.74175334f,
    0.23726007f, 0.31271619f, -0.63010639f, -0.47693047f, 0.13302235f, 0.75544083f, 1.75039947f, -0.20758760f,
    0.17385095f, -1.45732725f, 0.90025866f, -0.10882487f, -1.07043028f, -0.22477245f, 0.03138635f, -0.46360189f,
    0.01184773f, -0.02005658f, 0.35470411f, 0.18806186f, 1.41627455f, -1.28205204f, 1.04586327f, 1.13300967f,
    2.48866916f, -0.31547755f, -0.67457342f, -0.62733519f, 0.23167560f, -0.63371837f, -0.68343294f, -0.42017749f,
    -0.96712106f, -0.21664935f, 0.93681735f, 0.58175743f, -0.54120332f, -0.55595720f, -0.96063787f, -0.52391613f,
    -1.20323098f, -0.23290220f, -0.71305758f, 0.33966187f, 0.61526483f, -0.07370240f, -1.03036642f, -0.44186351f,
    1.14841950f, 0.82874435f, 0.34767586f, 0.19098036f, -0.13818713f, 0.71515363f, 1.74296618f, 0.73006886f,
    -0.35731903f, 1.40555763f, 0.77598178f, 3.17077446f, -0.38768831f, -0.32807043f, 0.96906155f, 0.54725832f,
    0.14784920f, -0.49905223f, -0.05410396f, 2.16947269f, 0.50796551f, 0.49699599f, 1.14105594f, 0.79232502f,
    0.98662072f, -0.45969003f, -1.13252282f, 1.28137457f, -0.84387189f, -0.24149856f, 0.92855161f, -0.94150376f,
    0.10898068f, -1.71930158f, -0.21819302f, 0.51671159f, 0.81320393f, -0.09127289f, -0.88891757f, -0.55002338f,
    0.52270949f, 2.21690822f, 0.80854452f, 0.29191634f, -0.64635420f, -1.14940119f, 0.13128132f, -0.98830903f,
    -1.07122862f, -0.82523316f, 0.22273946f, -1.04968965f, 0.31149223f, 0.97423440f, -0.55396897f, -1.00720143f,
    0.43816575f, 1.35874093f, -0.29050913f, -0.34903112f, 0.33255795f, -0.21401891f, -0.72320247f, -2.30760503f,
    0.78912282f, -0.01255722f, -0.64854759f, 0.69324535f, -0.77793396f, 2.00608206f, 0.86224812f, -0.11609104f,
    -0.64197195f, -1.74602592f, -1.06738853f, 1.36981213f, -1.04823363f, -2.28453326f, -0.38889149f, 1.81836963f,
    1.34461796f, 0.92043692f, 0.33913970f, -0.11887229f, -0.43590561f, -0.23366368f, -0.14361608f, -1.15919197f,
    0.08314644f, -0.23196332f, 0.14832433f, 0.66069412f, -1.50831831f, -0.07057729f, -0.01658032f, 0.01136917f,
    -0.23075344f, -0.72173274f, -0.86155307f, -0.08546042f, 0.67579252f, -0.07322301f, -0.98644191f, 0.74848437f,
    -0.53683239f, -0.29800114f, -1.85466349f, -2.18331456f, 0.66467887f, -0.24128197f, -1.34078312f, 0.52021760f,
    0.24386552f, -0.71861941f, 1.13537061f, 0.47119772f, -1.19060600f, 1.18200159f, -0.89773494f, -0.15302902f,
    -0.47570953f, 0.83049190f, -0.73310971f, 0.25573581f, -1.00312388f, 0.73786646f, -0.48490617f, -0.58072102f,
    -0.88867646f, 0.44424057f, -0.64440739f, -0.25513494f, 1.37539840f, -1.68195057f, -0.78241956f, 1.33961153f,
    -0.09087873f, 1.48310041f, 0.72253197f, -0.70975494f, 0.38429570f, 0.26134580f, 0.52553391f, 0.44488963f,
    -0.67614764f, -0.65998542f, 0.79595929f, -0.37209237f, -2.18083096f, -0.74186647f, 0.38073733f, -0.39174968f,
    -0.06924371f, 0.12029674f, 2.37583184f, -0.22070645f, -0.38196123f, -0.23075491f, 1.52569711f, 0.38040605f,
    0.23809588f, 1.11394763f, -0.41491559f, -0.50407487f, 0.22657569f, -1.72172022f, 0.24870440f, 1.07719052f,
    1.61122799f, 1.02766955f, 2.01681972f, 0.45024788f, -0.39945614f, 0.04877318f, -2.25046563f, -1.31685078f,
    0.07266637f, 0.22975034f, -0.67608440f, 0.37594917f, -0.92666531f, 1.29996312f, 1.45507848f, -0.95899260f,
    -0.45999104f, -0.53103322f, -0.50511831f, -1.62094021f, 0.97263843f, -0.22089176f, -1.64942598f, -0.48017609f,
    1.25314200f, -0.12378518f, -2.08414125f, 0.55551749f, -2.17260623f, 0.62033159f, 1.44138503f, 0.57874590f,
    -0.15490527f, 0.33167517f, 0.63943529f, 0.63728070f, -1.26656497f, 0.53982270f, 1.08769619f, 0.73752773f,
    1.27496588f, 0.03407224f, 0.33507016f, -0.50817287f, 0.24595502f, 1.26906419f, -0.80958092f, -1.97595310f,
    -0.74178594f, 0.53497237f, 1.03143060f, -0.57427096f, -0.50420284f, 0.41247383f, -0.00443139f, 0.07193950f,
    0.72103280f, -1.07907248f, 1.02455771f, -0.76217645f, 0.78822368f, 0.27087989f, 0.62847245f, -1.52809703f,
    -0.20631722f, 0.73248726f, 1.44929695f, 0.15284868f, 1.60467982f, -0.01381499f, -1.32816064f, 0.59298515f,
    -0.48985815f, -0.88193649f, 0.32875931f, 1.08331454f, 0.68501383f, -0.71295327f, 1.32654047f, 0.56597579f,
    1.32290578f, 1.04859424f, -0.08403368f, 0.12225866f, 0.82724988f, 0.99300277f, 0.50701767f, 0.05306240f,
    -1.24310088f, 1.02945352f, -0.60469121f, -0.02812499f, 0.62551916f, -0.37703332f, -1.14840698f, -1.64239621f,
    -1.02465320f, -1.02304637f, -0.16089264f, 0.66218150f, -0.47301868f, 0.88172925f, 0.03250987f, -0.72268480f,
    -0.01567482f, 0.53310597f, -1.28547680f, 1.23834777f, -1.36000657f, -1.99158156f, 0.81455576f, -1.05991852f,
    -0.75308859f, -1.08414471f, -0.58738887f, 0.62271196f, -0.79335141f, -0.19925900f, 0.38402143f, 0.29866818f,
    -1.66939604f, 0.35442784f, 1.23594940f, 0.80260360f, 1.15143096f, -1.17704892f, -0.72322392f, 0.38456020f,
    -1.79418147f, -0.37682894f, 1.04237068f, 0.27850854f, 0.31672564f, -0.96737677f, -2.62369156f, -0.41342381f,
    0.00975823f, 0.99104756f, 1.03198314f, 1.42335594f, -0.31238890f, -1.04903245f, 0.42278379f, -0.30973184f,
    0.06820614f, -2.01346755f, 0.02172973f, -0.60385484f, -0.05617769f, 0.44014463f, -0.04255648f, 2.21014667f,
    0.08834436f, -0.77246928f, -0.72089350f, -0.10467965f, -1.28236997f, -0.35441792f, -1.13049662f, -0.19052906f,
    0.36579812f, 0.43217868f, 0.61143553f, 0.65116841f, 0.55994302f, 1.07112265f, 0.29332364f, -1.84338331f,
    -0.12501472f, -0.53571445f, 0.00404271f, -0.93335110f, 0.36425337f, -0.81047946f, 1.33907259f, -0.54363382f,
    1.85781455f, 0.60528904f, 2.33827043f, -0.05154097f, -0.12196736f, -1.97848117f, 0.78991157f, 0.68916082f,
    0.51074892f, 1.48561430f, 0.16819285f, -1.79703999f, -0.25768957f, 0.73967773f, 1.12583625f, 1.07757664f,
    1.87528503f, -0.32575792f, -0.22632150f, 0.50571191f, 0.65457702f, 0.16679303f, 0.03423288f, 0.15082812f,
    0.43505186f, -0.90607673f, 1.72529614f, 0.54350257f, -0.18649736f, -1.15972841f, 1.68731332f, -1.54564989f,
    0.45424139f, -0.85627526f, 0.26123852f, 0.36833993f, -0.61622262f, 0.56952602f, 0.93907958f, -1.39097917f,
    -1.11058342f, -0.92607713f, -0.03616467f, 0.74830782f, 1.11576784f, -0.44426128f, 0.50571316f, 0.76737320f,
    0.26542151f, 0.56181949f, 0.47147825f, 0.10990731f, 0.24318153f, 0.24360405f, 0.47230244f, -0.24118902f,
    0.98767054f, -0.37094402f, 0.17097875f, -0.03804773f, 0.57639164f, -0.98456538f, -0.55666488f, -0.41300541f,
    -0.02544433f, -0.57642615f, 0.38965803f, -1.42064834f, -0.41183698f, -0.27764568f, -0.64214253f, 1.84116554f,
    0.76844490f, -1.61300969f, 1.82552278f, -0.49718106f, 0.05109502f, 0.78673726f, -1.59401417f, 0.11792486f,
    0.16192667f, 0.27663928f, 0.24374580f, 0.48405844f, -1.04447043f, 0.36351123f, -0.48752692f, -1.10349870f,
    0.62256551f, -0.33202562f, 0.57757872f, 1.50924671f, -0.29176682f, -0.57345843f, 2.30331612f, -0.41908666f,
    3.21803761f, -1.82724202f, 0.04268858f, 0.24705163f, 0.07019751f, -0.53640467f, -0.60603613f, 0.78496379f,
    -0.25155377f, 0.43146971f, 0.91950935f, 0.41418082f, 0.13336675f, 0.60873979f, 0.65652788f, -1.64668727f,
    0.01591945f, 2.79502845f, 0.29769844f, -1.36128128f, 0.75078505f, -0.42139724f, -0.00575631f, -0.21314625f,
    -1.65824413f, -0.24931000f, -0.54299742f, -1.57060730f, -0.64605665f, -0.26352227f, 0.30570212f, 2.01259184f,
    0.03727100f, 0.01074826f, -1.55432868f, 0.00598567f, -1.05079782f, 0.75524634f, -0.48840895f, 1.46707809f,
    -1.34243333f, -0.17135699f, -0.34524688f, -1.32342470f, -0.79130119f, -1.15075600f, -0.82110262f, 0.62851250f,
    -0.04991126f, 1.10778856f, -0.62925255f, 2.48662210f, 1.82725906f, 0.23580644f, -0.44838035f, -1.56273770f,
    0.37918618f, -0.06352690f, 0.70336914f, -0.84848589f, 2.06246543f, -1.39524198f, 0.97469294f, -0.17839138f,
    -0.82665771f, -0.75735456f, -0.85100597f, -0.16968226f, -0.00178841f, -0.36684054f, 0.15710050f, 0.24130115f,
    0.28610063f, -0.25984916f, 0.16057919f, -0.37656984f, 0.28600752f, -0.00095028f, 0.08877353f, -0.85707456f,
    0.42752495f, -0.08318041f, -1.58163965f, -0.69808465f, 1.82491159f, 0.04958196f, -1.32837999f, -0.09596871f,
    -1.56848645f, -0.44253740f, -0.20055331f, -0.55965275f, -0.28793606f, 0.69035405f, 1.20691800f, -0.30401811f,
    2.71991086f, -0.21889932f, -1.13017797f, 0.72782308f, 1.24327898f, 0.45399952f, -1.23772120f, -1.75600278f,
    -0.35989434f, -0.07982660f, -1.38351905f, -1.39713073f, 0.49158221f, 0.09383947f, 0.63784325f, -1.92503023f,
    -1.57573545f, -0.32271844f, -0.80238295f, -1.86782467f, -0.56302083f, -0.41694090f, 2.33012152f, 1.24614847f,
    0.14981478f, -0.88917130f, 1.00822973f, 0.74679810f, 2.84873796f, 0.49612880f, 1.76070416f, -1.03507507f,
    0.05049147f, 2.13536358f, 2.32342553f, -1.69615388f, -0.08377511f, -0.32633001f, -0.69072801f, -1.06480336f,
    -0.53228098f, -0.39354438f, -0.81789833f, 0.14361840f, 0.72875476f, -0.80510312f, 1.15504384f, -0.02814477f,
    -0.42879826f, 0.71502864f, -0.20783284f, -1.69800079f, 0.33983487f, -0.09438293f, -1.88864505f, 0.06165082f,
    -1.14011216f, -0.33873904f, -0.36594164f, 0.60579801f, -0.67770976f, -0.59912008f, -0.31831023f, 1.02525508f,
    0.90406007f, 0.00494975f, -0.04477349f, -1.04816866f, 1.26899028f, 1.28564608f, -0.74443167f, 0.10169956f,
    -1.28684938f, 2.74845362f, -0.51754397f, 0.05723287f, 0.84540343f, 1.44948685f, 1.30513597f, 0.04283673f,
    0.88704115f, -0.41778436f, 0.15243511f, -0.48086742f, -0.13948096f, 1.94725776f, -0.04085804f, 2.56206369f,
    1.28239274f, 0.22633013f, -0.79934633f, -0.06831895f, 0.36368719f, 0.29961258f, -1.14394975f, 0.35090250f,
    0.48317671f, 0.32460725f, -1.51395237f, 1.39770222f, -0.44473058f, -1.43627155f, -0.58615577f, 2.73272943f,
    0.76820916f, 1.48970783f, 0.78766149f, 1.24031985f, -0.26549703f, 0.36757231f, -0.84113348f, -0.01382806f,
    -2.27902269f, 0.20277746f, -0.53648621f, -0.67559779f, 0.88455856f, 0.41539183f, 0.73410934f, -0.38787499f,
    -0.06719589f, -0.57826805f, -0.90517795f, -0.05574755f, -0.10806829f, 0.55102897f, 1.99526298f, 0.00412948f,
    2.23899817f, -0.52351606f, 0.58823150f, 0.57226187f, -0.77551520f, 0.24466805f, -0.32967377f, -1.32875597f,
    -0.24730352f, -0.66664821f, -1.06981647f, -0.43699142f, -0.74407297f, 0.10343056f, 1.46547747f, -0.71698433f,
    1.36415124f, -0.79763508f, -0.26337096f, -1.52978468f, -1.08322608f, -0.39818481f, 0.39052042f, -0.53077102f,
    -0.48183972f, 0.54095358f, 1.13523102f, -0.64658123f, -1.16212130f, 0.34582081f, -1.12379026f, -0.16811553f,
    -0.42881119f, 0.90846688f, 1.09782183f, 0.04245331f, 0.06999992f, -0.44738263f, -0.04565963f, -1.23872685f,
    0.40848491f, 0.42744911f, 1.43070924f, -0.15782748f, 0.25257140f, -0.94980448f, -1.59236002f, 1.69854045f,
    -1.63402140f, -1.76054037f, 0.33749458f, 0.87070197f, -0.17543615f, 0.12911531f, -0.27188143f, 0.53111762f,
    0.23644181f, 0.59720123f, -0.31344065f, 0.53226018f, -0.80010080f, 1.00482500f, -0.09311669f, -1.18428957f,
    -2.22605467f, 0.23333935f, 0.03787921f, -0.36636847f, 0.26147673f, -0.25958043f, 0.18541096f, -1.30559838f,
    0.55969656f, 0.75514704f, -1.64626920f, 0.22995029f, 1.69300497f, 0.94881314f, -0.45880446f, -0.57580316f,
    -1.52774453f, -1.01731038f, -0.45213500f, -0.78630751f, 0.63504595f, -0.22329089f, -0.23724788f, 1.65826070f,
    0.52017754f, -1.02485442f, 0.03410950f, 1.09205103f, -1.50308836f, 0.15298967f, -1.38468850f, 2.28206849f,
    1.24737251f, 0.57685030f, -0.84227842f, -0.45733500f, 1.18206859f, 0.53495353f, -1.69754827f, -0.06056921f,
    -0.03114995f, -0.38778406f, -0.56279939f, 1.73210776f, -0.63205630f, -0.12458419f, -0.22327188f, 0.71257985f,
    -0.97219336f, 0.01155290f, -0.97936481f, 0.14862861f, -0.39901221f, -0.37831590f, 0.15173014f, -1.28692722f,
    -1.20536208f, 0.92839962f, 1.60124290f, 0.20513646f, -0.60705268f, -0.08609753f, -0.03297728f, 0.77718371f,
    -0.46633983f, -1.32511890f, -0.25986537f, 0.33599946f, -0.55671608f, -0.73177445f, 0.62445283f, -1.18462634f,
    -0.07968677f, -0.48002735f, -0.28157729f, -0.69870967f, 0.61118817f, -2.23925233f, 0.78088284f, 0.34525809f,
    0.41612661f, 0.71695524f, -0.00063797f, -0.32734439f, -0.79401499f, 0.10573108f, -1.92851114f, -1.04170263f,
    -0.35109821f, -0.12230103f, 0.62601101f, 0.17494357f, 0.36241782f, -0.80527675f, 0.63915324f, -0.55534166f,
    -0.69427222f, 0.13201785f, 0.50705892f, -1.05543661f, -0.19457373f, -0.86304545f, 1.11786509f, -0.48840386f,
    -0.99435908f, 0.68592620f, 0.17969894f, 1.20182407f, 0.13995059f, -0.02738742f, 0.98577887f, 1.21155763f,
    -1.18320417f, 1.32468033f, 0.54738915f, 1.11893332f, -1.49113727f, -0.56758231f, 1.22895348f, -0.69363385f,
    0.50064331f, -0.57268947f, 1.26018679f, -0.40201405f, 0.65715557f, 0.33533457f, -0.74075633f, 0.03132326f,
    0.42228118f, -0.33634055f, 0.07174601f, 1.39602625f, -1.11911356f, -0.40699950f, -0.61509454f, -0.31945565f,
    -0.18683612f, -0.58652937f, -1.69075942f, -0.78543222f, 0.24773718f, -1.08640194f, 1.20334065f, 0.16231366f,
    -0.69810134f, 0.44696689f, -0.27646795f, 1.07549858f, 1.24811363f, 0.20075738f, 0.44423974f, -0.31369919f,
    0.30524361f, 0.53195345f, 1.29014337f, 0.16094722f, -1.84382451f, 0.48518801f, 0.88828778f, 1.66512918f,
    -0.26780286f, -0.04961702f, -0.85142857f, -0.50647378f, 0.46540061f, -0.44755471f, -0.66417938f, 0.43268925f,
    -0.43243140f, 0.46190646f, 0.06104677f, 1.31453657f, 0.25778788f, -0.56758797f, 0.76515752f, 1.88725317f,
    -0.60952991f, -0.44701985f, -0.37408203f, 0.71753895f, -0.14648548f, 0.63864928f, -0.02742791f, 0.83584785f,
    0.11255408f, 1.49395609f, -0.68719918f, -1.21041834f, 1.27824926f, -0.82536876f, 0.14497079f, -0.26837912f,
    -0.29398474f, -0.93569696f, 1.65112782f, 0.41780323f, 0.58602464f, 0.81055355f, -1.44246459f, 0.94397151f,
    -0.31640854f, 0.15279374f, -0.36675584f, 0.49677783f, 0.10757878f, 0.99780351f, 0.52001834f, -0.41677460f,
    0.63473016f, -0.31080279f, -1.09107018f, 0.58967382f, 0.68433595f, -0.90374398f, 0.09615485f, -1.64952040f,
    -0.97098124f, -1.22866607f, -0.22371961f, 0.53856772f, -0.65159541f, 0.05403327f, -0.73955435f, -0.69153464f,
    -0.73050398f, -0.14939784f, -0.19505049f, 0.01121840f, 1.38482594f, 0.51514566f, -0.29181328f, 1.15706420f,
    1.24351513f, 0.66977346f, 0.02222784f, 0.01881312f, 0.95695210f, -0.58141327f, 1.65851855f, -0.29342875f,
    0.19929314f, 0.58902168f, 0.58727044f, 0.63354105f, -0.65932280f, 0.72118050f, -0.62664896f, -1.16996014f,
    -0.00560089f, -0.61569005f, -1.41310716f, -0.86517227f, 0.44312865f, 1.03285408f, -0.72915238f, -0.25077504f,
    -0.03086405f, -0.54040766f, -0.33264858f, 0.12506945f, 0.98624521f, -0.46510625f, -1.23585367f, 0.41501933f,
    0.87549353f, 1.08319247f, -0.18449792f, 0.46914393f, 0.97007811f, -0.17652895f, 0.46190518f, -0.17662521f,
    -0.96082413f, -0.67345387f, 1.22910058f, -1.28211033f, -1.09068263f, 0.86004657f, 0.27563325f, 0.48692653f,
    -0.85592413f, -0.02902169f, -0.50429344f, 0.45785698f, -0.94452918f, 0.23758373f, -0.04848791f, 0.45059368f,
    1.08963025f, 0.38523334f, 0.48189732f, -1.24089229f, 0.41791123f, -0.74661148f, 0.05503890f, 0.00869219f,
    -0.25246555f, -0.83617914f, 1.33432496f, 0.37239754f, -0.03052730f, 0.67897552f, 1.09870946f, -0.66523856f,
    0.48858875f, -0.94510972f, 0.90330130f, 0.05729506f, -0.60620868f, 0.55292600f, -1.52239645f, 0.00220753f,
    -0.63802540f, -0.32370925f, -0.84099197f, -0.80557209f, -0.10538559f, 0.79244208f, 2.41922832f, 0.47651884f,
    0.73350066f, 0.13625678f, -0.13125756f, 0.30499583f, 2.13362861f, 0.19070606f, -0.60965866f, -0.44922954f,
    -0.02639463f, 1.06833458f, -1.97787690f, 0.06011584f, -0.72933173f, -0.41184831f, 1.01860428f, -0.95332927f,
    -0.13534814f, -0.28115395f, 0.50439054f, -0.11426956f, -0.43802816f, 0.07992706f, 1.32139206f, 0.00160104f,
    1.51671064f, -0.18744552f, -0.88161302f, 0.14643425f, 2.14125633f, -1.15761065f, -1.45079863f, -0.88199049f,
    -0.15267138f, 0.65594822f, 1.86065423f, -1.54457176f, -0.73095775f, -0.05887524f, -0.03649316f, 0.06937532f,
    0.08581401f, -0.83027023f, 1.34512973f, 0.74213308f, -0.25841290f, -0.58857232f, -0.76774639f, 1.55456424f,
    -0.16208819f, -2.02074218f, 1.70590210f, -2.02920270f, -0.71826649f, 1.17565858f, -0.24238455f, 0.91060078f,
    1.35551476f, 0.96387380f, 1.55325973f, 0.56720430f, 1.07285416f, -0.53245157f, 1.13281834f, -0.06070705f,
    0.79082370f, 0.52103335f, 1.20664573f, 0.49501190f, -0.50636393f, -0.03017958f, -0.92675257f, 1.58026898f,
    -0.27974850f, 1.50902426f, -1.30489099f, -0.04470607f, -2.06203771f, 0.43960544f, -1.00157571f, -0.86989278f,
    -1.58546114f, 0.31673220f, -0.91549307f, -1.15555716f, 0.80033678f, -1.64987183f, 0.94767439f, -1.04418457f,
    -0.13673587f, -0.75791907f, -0.59990549f, 1.24855459f, 0.77972412f, -0.75117451f, -0.99151826f, -0.95556259f,
    0.79513115f, 0.91061747f, -0.07151516f, -0.66056085f, 1.28545332f, 0.47397578f, 0.02750578f, -0.13744941f,
    -0.20001931f, 0.25860986f, -1.71879780f, 0.12771489f, -1.29241359f, 0.93945539f, 1.90168846f, -0.54779321f,
    0.52153045f, -0.14265548f, 0.89836615f, 0.59012032f, -0.42976046f, 0.68909216f, 0.41291252f, -0.07187767f,
    -0.85380489f, 0.61433047f, 0.43798840f, -0.88237417f, -1.91267180f, 0.62040156f, 1.77190518f, -1.01428092f,
    -0.54221338f, -0.48813793f, -0.30730057f, 1.86302960f, -1.28583491f, -0.29957536f, 0.25086981f, -0.25399980f,
    -0.86749494f, -1.91422892f, -0.20107472f, -0.04523284f, 0.36342347f, 0.00293368f, 1.46308887f, 0.32007551f,
    0.54387665f, 0.28930911f, 1.05880690f, 1.05389535f, 1.00692248f, -0.14037004f, -0.93103534f, -1.15144169f,
    -1.74509239f, 0.12271405f, -0.59553021f, 0.63825870f, -2.45140624f, 0.79388428f, -1.70524752f, 1.62160265f,
    -1.54204178f, 0.41952574f, 0.53169638f, -0.29976255f, 1.01860487f, -0.20618787f, 0.97790730f, -0.97699100f,
    1.18532264f, 0.65119857f, 0.58111048f, 1.25292957f, 1.11769724f, 0.42524552f, -0.31630260f, -0.82601261f,
    -0.39645493f, 0.00249674f, -0.24649335f, 0.19598940f, -1.14747036f, -0.28663322f, 0.37674382f, -0.83891612f,
