/*
 * EXAKTE LSTM Gewichte aus trainiertem PyTorch Modell
 * Modell: BMS_SOC_LSTM_stateful_1.2.4.31
 * Arduino Hidden Size: 8 (reduziert von 32)
 * Intelligente Neuron-Selektion basierend auf MLP-Wichtigkeit
 */

#ifndef LSTM_WEIGHTS_EXACT_H
#define LSTM_WEIGHTS_EXACT_H

// Arduino LSTM Konfiguration
#define ARDUINO_HIDDEN_SIZE 8
#define INPUT_SIZE 4
#define MLP_HIDDEN_SIZE 32


// LSTM INPUT Gate - Input zu Hidden Gewichte [32][4]
const float lstm_input_ih_weights[32][4] = {
  {0.749454f, -0.016598f, -0.141873f, 0.361292f},
  {0.475359f, 0.604170f, -0.451453f, 0.652291f},
  {-0.157973f, 0.583345f, 0.115709f, 0.082873f},
  {0.394411f, -0.238914f, 0.237860f, 0.628154f},
  {0.383960f, -1.305752f, 0.027461f, 0.550273f},
  {-0.454238f, 0.367503f, 0.394895f, 0.744095f},
  {-0.167339f, -0.946305f, 0.175601f, -0.006252f},
  {0.040008f, -0.522333f, 0.554062f, -0.187609f},
  {-0.109610f, 0.747136f, -0.056350f, 0.106747f},
  {-0.537313f, 0.671678f, 0.083879f, 0.231057f},
  {-1.014323f, 0.133764f, -0.112696f, -0.102167f},
  {0.280336f, -0.356708f, 0.151650f, 0.200282f},
  {0.743878f, 0.420669f, -0.438617f, -0.793085f},
  {0.701165f, 0.107066f, -0.198747f, -0.185160f},
  {-0.152909f, 0.144116f, 0.285472f, -0.190132f},
  {-0.262594f, -0.047485f, 0.212624f, 0.215295f},
  {0.326559f, 0.391181f, 0.087472f, -0.217521f},
  {0.464880f, 0.032883f, 0.286847f, 0.648344f},
  {0.034079f, 0.328706f, 0.049230f, -0.040938f},
  {0.186485f, 0.413831f, -0.376180f, -0.359924f},
  {0.729862f, 0.008339f, -0.164780f, 0.203590f},
  {0.621063f, 0.352907f, 0.150707f, 0.026216f},
  {-0.593896f, 0.001406f, 0.078520f, 0.856386f},
  {-0.047711f, -0.343778f, -0.114112f, -0.108475f},
  {-0.096114f, 0.656760f, -0.405281f, 0.710917f},
  {-0.697760f, 0.251968f, -0.166732f, -0.423832f},
  {-0.778611f, -1.400712f, -0.053618f, 0.600730f},
  {0.653292f, -0.240949f, 0.117993f, 0.242574f},
  {0.341294f, -0.350752f, 0.238330f, -0.231676f},
  {0.534578f, -0.886613f, 0.144025f, 0.638154f},
  {-0.583494f, 0.604095f, 0.073054f, 0.151240f},
  {0.827412f, 1.580425f, -0.057330f, -0.240488f},
};

// LSTM INPUT Gate - Hidden zu Hidden Gewichte [32][32]
const float lstm_input_hh_weights[32][32] = {
  {0.028769f, -0.012722f, 0.044067f, 0.143153f, -0.553491f, -0.518027f, -0.184312f, -0.349234f, -0.249052f, 0.031335f, 0.239341f, -0.568847f, 0.689410f, -0.414798f, -0.276203f, 0.458193f, -0.741797f, -0.035690f, -0.196451f, 0.400912f, 0.827971f, -0.146473f, -0.420248f, -0.148463f, -0.466139f, -0.314512f, 0.168616f, 0.367329f, 0.287528f, 0.422852f, -0.195919f, 0.367920f},
  {-0.275621f, 0.672130f, 0.823516f, 0.076765f, -1.232715f, -0.401823f, 0.040435f, -0.066647f, 0.073330f, -0.346913f, 0.204768f, 0.534872f, 0.693947f, -0.077959f, -0.837700f, -0.719901f, 0.165193f, 0.141099f, -0.136977f, 0.104093f, 0.429836f, 0.055576f, -0.052887f, -0.698179f, -1.071816f, 0.086199f, -0.040550f, -0.165165f, 0.151401f, -0.214850f, -0.576851f, 0.058606f},
  {-0.069260f, -0.280504f, -0.009438f, -0.074680f, -0.696878f, -0.208086f, 0.365023f, -0.314258f, 0.131812f, -0.084725f, 0.266550f, -0.364421f, -0.156917f, 0.297696f, -0.177145f, -0.347573f, 0.415014f, 0.209775f, 0.119302f, 0.190760f, -0.400719f, -0.092829f, -0.264901f, 0.069768f, -0.198697f, -0.231489f, 0.554526f, 0.332088f, 0.300076f, 0.083363f, -0.082010f, 0.153953f},
  {0.507009f, -0.283227f, -0.103478f, 0.337715f, -0.051020f, -1.445883f, -0.151205f, -0.419266f, 0.035313f, 0.541601f, -0.028867f, 0.214889f, 0.722386f, -0.042004f, -0.599977f, 0.259992f, -0.296574f, 0.585570f, 0.083109f, 0.157408f, -0.515973f, 0.073897f, -1.554222f, -0.281306f, -0.638195f, 0.451068f, 0.668021f, 0.087971f, 0.542028f, -0.113706f, -0.170670f, -0.557716f},
  {0.489457f, -0.512179f, 0.089890f, 0.155837f, -0.290128f, -0.000947f, -0.088088f, -0.193849f, 0.582807f, 0.057191f, 0.351352f, 0.195763f, 0.371757f, 0.171732f, -0.207088f, -0.113519f, 0.115358f, 0.363676f, 0.039500f, -0.162671f, -0.667079f, 0.630984f, 0.312937f, -0.248535f, 0.292183f, 0.033230f, -0.433490f, 0.511663f, -0.014665f, 0.052506f, 0.082471f, -0.048147f},
  {-0.070664f, 0.020237f, 0.187960f, -0.677233f, -0.398464f, 0.024045f, -0.152322f, -0.236823f, -0.037851f, 0.346139f, -0.249115f, 0.093036f, -1.330150f, -0.105988f, -0.063349f, 0.067102f, 0.297569f, -0.381784f, 0.102401f, -0.394465f, 0.143396f, 0.064068f, 0.297445f, -0.329014f, 0.222828f, -0.304077f, -0.153426f, 0.568640f, 0.311708f, 0.019000f, 0.208442f, 0.950248f},
  {-0.211480f, -0.137189f, -0.411900f, 0.335716f, 0.245382f, 0.484312f, -0.129058f, -0.536081f, 0.238653f, 0.187611f, 0.189464f, -0.225831f, 0.371224f, 0.304930f, -0.305473f, -0.487871f, 0.219727f, -0.356355f, -0.168290f, 0.100796f, -0.169261f, -0.552621f, -0.446622f, 0.058860f, -0.786400f, -0.388799f, 0.700923f, 0.093603f, 0.017800f, -0.132993f, -0.174677f, -0.519777f},
  {-0.139120f, -0.718724f, 0.297373f, -0.087326f, -0.234952f, 0.520865f, -0.126497f, -0.233106f, 0.316028f, -0.047031f, 0.148896f, -0.277650f, 0.425465f, -0.496728f, -0.006499f, 0.137847f, 0.254583f, -0.268828f, 0.256894f, 0.117809f, -0.190503f, -0.142662f, -0.036148f, -0.134854f, -0.356571f, -0.307816f, -0.062069f, -0.113166f, 0.120998f, 0.635292f, -0.045339f, 0.219146f},
  {0.161794f, -0.252176f, -0.362875f, 0.237690f, 0.124216f, -0.266972f, 0.255557f, -0.269730f, -1.108832f, -0.659510f, 0.449275f, 0.505262f, 0.350977f, 0.265450f, 0.001928f, 0.046144f, -0.891459f, 0.325759f, -0.031260f, -0.480149f, 0.195618f, 0.608894f, 0.307728f, 0.307285f, 1.241704f, 0.178946f, -0.003354f, 0.289883f, -0.427582f, 0.363171f, 0.699174f, -0.200713f},
  {-0.492518f, -0.334695f, 0.446541f, 0.040002f, -0.325319f, -0.212760f, 0.012551f, -0.395782f, 0.030309f, -0.135801f, 0.750961f, 0.263687f, 0.215934f, 0.121666f, -0.217853f, -0.187581f, 0.045635f, -0.077734f, -0.296990f, -0.633326f, -0.145003f, -0.477688f, 0.192584f, 0.365890f, 0.140494f, -0.395878f, 0.552221f, -0.319462f, -0.632815f, 0.216368f, 0.167532f, -0.193119f},
  {0.135484f, 0.796668f, 0.387415f, 0.019932f, -1.731279f, -0.015534f, -0.185067f, 0.049047f, 0.092171f, -1.213947f, 0.818986f, 0.621739f, -0.006227f, 0.178941f, -0.810786f, -0.724433f, 1.328241f, 0.139694f, -0.209522f, -0.640112f, -0.600178f, -0.114136f, -0.919462f, -0.057234f, -0.705968f, -0.280374f, -0.777938f, -0.253114f, -0.678256f, -0.425795f, -0.490089f, 0.121326f},
  {0.616872f, -0.576819f, -0.207064f, -0.133141f, -0.333166f, -0.029751f, -0.184604f, 0.036329f, -0.045431f, 0.068163f, 0.561521f, -0.133029f, 0.014693f, 0.097373f, -0.225058f, -0.131433f, -0.344782f, 0.127749f, 0.201719f, 0.211359f, -0.871506f, 0.683261f, -0.261452f, -0.115961f, -0.328750f, -0.038763f, -0.112658f, 0.427911f, 0.081381f, -0.130002f, -0.070591f, 0.205008f},
  {-0.055016f, -0.013739f, 0.221501f, 0.468245f, 0.064117f, -1.628801f, 0.485319f, 0.200832f, -0.339032f, -0.181168f, -0.213537f, -0.541948f, 0.243933f, 0.104388f, 0.647625f, -0.468709f, -0.619417f, -0.515241f, -0.250784f, 0.476305f, 0.365408f, -0.832719f, -1.269587f, 0.511092f, -0.489484f, 0.021005f, 0.366099f, -0.618139f, -0.352670f, 0.196621f, 0.554756f, 0.153720f},
  {1.345732f, -0.306704f, 0.730724f, 0.303005f, -1.466143f, -1.453405f, 0.567303f, -0.404632f, 0.077361f, -0.724091f, 0.259343f, 0.931523f, -0.395022f, -0.043602f, 0.130274f, -0.475442f, -0.512593f, 0.656838f, -0.254147f, 0.216700f, -0.108761f, 0.200476f, -1.609393f, -0.740848f, -1.008784f, 0.112667f, 0.750953f, 0.103579f, -0.469822f, 0.104368f, -0.192950f, 0.312640f},
  {-0.142471f, -0.419504f, 0.177145f, 0.051408f, -0.265389f, -0.233384f, -0.329733f, 0.016771f, -0.053989f, 0.409118f, -0.096163f, -0.272099f, 1.242593f, -0.282985f, -0.230452f, -0.116888f, -0.151185f, -0.301236f, -0.216571f, 0.338974f, 0.126567f, -0.230500f, -0.812271f, -0.120707f, -0.926297f, -0.003523f, 1.379126f, 0.011247f, 0.214398f, 0.232693f, -0.111848f, -0.307561f},
  {-0.282390f, 0.561598f, 0.336596f, 0.329607f, -0.686239f, -0.266688f, 0.086410f, 0.094144f, -0.020924f, -0.297260f, 0.349007f, 0.097886f, 0.196320f, 0.084370f, -0.243155f, -0.423178f, 0.616273f, 0.228567f, -0.166513f, -0.579373f, 0.308512f, -0.087466f, -0.617091f, -0.297650f, -0.961844f, -0.099912f, 0.655656f, -0.445361f, -0.682212f, -0.316248f, -0.454780f, 0.413301f},
  {-0.751643f, -0.401527f, 0.191530f, 0.594185f, -0.111005f, -0.104708f, -0.145887f, -0.166265f, 0.300223f, -0.180280f, 0.235993f, -0.438136f, 0.525174f, -0.581682f, -0.145002f, 0.359228f, -0.027405f, -0.209932f, -0.362466f, 0.396742f, -0.021571f, -0.750759f, -0.751932f, -0.016144f, -0.708719f, -0.274136f, 0.114663f, -0.504703f, -0.365767f, 0.401857f, -0.430289f, -0.292464f},
  {0.607238f, -0.942359f, 0.007848f, -0.372230f, 0.271369f, -0.388755f, -0.427103f, -0.149117f, 0.067300f, 0.388866f, 0.134552f, 0.068226f, 0.140087f, 0.128558f, 0.084207f, 0.296424f, -0.176161f, 0.229846f, -0.533681f, -0.539874f, -0.933540f, 0.335585f, -0.050060f, -0.171271f, -0.486895f, -0.009343f, 0.115344f, 0.273667f, 0.063191f, 0.069745f, 0.063563f, 0.459567f},
  {0.190031f, -0.179261f, 0.400020f, 0.472849f, -1.052786f, -0.552686f, -0.179458f, -0.628189f, -0.290897f, -0.071861f, 0.593142f, 0.906306f, -0.164981f, -0.161659f, -0.831821f, -0.786851f, 0.345894f, 0.044643f, -0.047107f, -0.341522f, -0.066712f, -0.070699f, -0.982538f, -0.303647f, -0.658780f, -0.340364f, 0.695567f, -0.235396f, -0.214100f, 0.455383f, -0.014262f, 0.039001f},
  {1.051945f, 0.119840f, 0.378790f, 0.296907f, -1.256439f, -1.111874f, 0.067880f, -0.449901f, -0.323316f, -0.344217f, 0.704676f, 0.760856f, -0.348577f, 0.412342f, -0.563062f, -0.914259f, 0.299632f, 0.770496f, 0.032601f, -0.354793f, -0.211624f, 0.099948f, -1.110156f, -0.527027f, -0.608418f, -0.583784f, 0.991392f, -0.122847f, 0.178318f, 0.548614f, 0.275459f, 0.488590f},
  {0.029531f, 0.087110f, 0.057113f, 0.334864f, -0.886594f, -0.678254f, -0.335136f, -0.514741f, -0.450968f, 1.021986f, -0.036163f, -0.183031f, 1.131940f, -0.142328f, -0.215964f, 0.013538f, -1.739911f, 0.085893f, -0.124495f, 0.206147f, 0.393800f, -0.176257f, -0.643584f, -0.303394f, -0.846097f, 0.289716f, 0.097122f, 0.151238f, 1.011000f, 0.312461f, 0.095081f, 0.163750f},
  {0.127817f, -0.193261f, 0.032517f, 0.483925f, -0.665633f, -0.568455f, -0.335496f, -0.182067f, -0.529202f, -0.248269f, -0.046708f, 0.833417f, 0.449131f, -0.225780f, -0.180118f, -0.072129f, -0.422808f, 0.437037f, 0.577879f, 0.576414f, 0.365356f, 0.218437f, -0.469429f, -0.135664f, -0.176450f, 0.159654f, 0.228078f, -0.360558f, -0.489438f, -0.581455f, 0.549708f, -0.346236f},
  {0.705096f, -0.267476f, -0.132865f, -0.443695f, -0.347585f, -0.128911f, -0.716180f, -0.159320f, -0.397450f, 0.295550f, -0.552445f, 0.690767f, -0.988493f, 0.417441f, 0.113724f, -0.285835f, -0.654964f, 0.437462f, 0.143263f, -0.468599f, 0.173676f, 0.016971f, 0.242040f, -0.764666f, 0.876219f, -0.540307f, -0.345054f, 0.611289f, 0.112446f, -0.253441f, 0.650701f, 0.430859f},
  {-0.265573f, 0.643768f, 0.305097f, 0.135152f, -0.502092f, 0.221150f, -0.352188f, -0.654840f, 1.158431f, 0.029768f, 0.738325f, -0.137649f, 0.677392f, -0.290255f, -0.783546f, -0.256478f, 1.030255f, 0.201260f, -0.034192f, -0.579607f, 0.198386f, -0.145483f, -0.183635f, 0.131292f, -0.643697f, -0.846363f, -0.117189f, -0.103764f, 0.338259f, 0.080047f, 0.037382f, 0.341490f},
  {0.947819f, -0.634526f, 0.238034f, -0.261751f, -0.127307f, -0.922272f, -0.499344f, -0.125093f, -0.579930f, -0.006970f, 0.213095f, 1.009339f, -0.390641f, 0.313200f, -0.226212f, -0.090597f, 0.049250f, 0.751825f, -0.413607f, -0.498670f, 0.148003f, -0.076572f, -0.245008f, -0.638569f, -0.325160f, 0.007847f, 0.136776f, 0.424440f, 0.292417f, -0.157886f, 0.272178f, -0.193569f},
  {0.315461f, -0.270696f, 0.415612f, -0.050839f, 0.181560f, -0.460185f, -0.527343f, -0.082381f, 0.149576f, -0.288621f, 0.199489f, 0.557036f, 0.514594f, -0.256319f, -0.512530f, -0.631807f, 0.758864f, 0.393388f, 0.034252f, 0.123480f, -0.184256f, -0.038353f, -0.885033f, -0.259831f, -0.808686f, 0.026561f, -0.053107f, 0.136680f, 0.067020f, -0.217733f, 0.050716f, -0.448687f},
  {0.390793f, -0.066567f, 0.440905f, -0.061801f, -0.546084f, 0.237973f, -0.729785f, -0.432241f, 0.428469f, -0.411129f, 0.382600f, 0.682566f, 0.257459f, -0.204530f, -0.379292f, -0.460600f, 0.008869f, 0.431872f, 0.134299f, -0.377023f, 0.197566f, 0.018806f, -0.250181f, -0.624619f, -0.820221f, -0.042507f, -0.458577f, -0.049896f, 0.123033f, 0.269997f, -0.236723f, 0.214136f},
  {0.212897f, 0.300982f, -0.392723f, 0.475401f, -0.037997f, -0.758868f, -0.032769f, 0.046752f, -0.149268f, 0.303946f, -0.217223f, 0.372683f, 0.975389f, 0.280373f, -0.550701f, 0.102446f, 0.192204f, -0.007668f, -0.090266f, 0.137484f, -0.518613f, 0.259400f, -1.058921f, -0.171411f, -0.776293f, -0.215190f, 0.905568f, -0.122749f, 0.219372f, -0.665377f, -0.411083f, -0.557358f},
  {-0.487085f, 0.712412f, -0.069885f, 0.029592f, -0.064170f, -0.458212f, -0.644874f, -0.466942f, -0.152692f, 0.108196f, 0.441931f, -0.130911f, 0.383054f, 0.410571f, -0.921647f, -0.198123f, 0.278489f, 0.343156f, -0.190242f, -0.770922f, 0.411086f, -0.744372f, -0.840717f, -0.649902f, -1.169930f, -0.538708f, 0.969777f, 0.468664f, 0.275611f, -0.240039f, -0.029610f, 0.139678f},
  {0.290810f, -0.008549f, -0.104581f, 0.492679f, -0.488789f, -0.782262f, 0.278559f, 0.155279f, 0.460192f, 0.796694f, -0.056964f, -0.390871f, 0.462710f, -0.034297f, -0.458188f, 0.256906f, -0.551337f, 0.539039f, -0.045626f, -0.093231f, 0.145217f, 0.382759f, -1.152181f, -0.524947f, -0.971281f, 0.734399f, 0.452515f, 0.184096f, 0.544677f, 0.341851f, -0.460406f, -0.318411f},
  {-0.258099f, -0.193354f, 0.086484f, -0.447078f, -0.415046f, 0.166378f, -0.051065f, -0.200476f, -0.646321f, 0.026872f, -0.013851f, 0.212734f, -0.155473f, 0.036831f, 0.102539f, 0.096025f, -0.386749f, -0.122212f, 0.026092f, 0.087355f, 0.098215f, -0.108903f, 0.181331f, 0.194887f, 0.261301f, 0.258568f, -0.033589f, 0.258982f, 0.192443f, 0.208516f, 0.194853f, 0.102626f},
  {-0.428104f, -0.155825f, 0.150656f, 0.822501f, -0.363589f, -0.388012f, 0.180420f, 0.286748f, -0.732589f, -0.330319f, 0.149517f, 0.367120f, -0.727708f, -0.256299f, -0.466909f, -0.845954f, 0.070789f, 0.346283f, 0.238479f, -0.153011f, 0.485543f, -0.418259f, 0.066831f, 0.203487f, -0.388367f, 0.137508f, -0.012721f, -0.458510f, -0.047361f, 0.017262f, 0.016120f, 0.076560f},
};

// LSTM INPUT Gate - Bias [32]
const float lstm_input_bias[32] = {
  -1.061587f, -2.306125f, -1.529356f, -1.823722f, -0.892823f, -0.341663f, -1.157441f, -0.158492f, 0.257696f, -0.355921f, -2.136007f, -0.802173f, 0.524216f, -1.821089f, -0.637832f, -2.644516f, -0.439897f, -1.065724f, -2.865666f, -1.551257f, -2.561452f, -1.054721f, -0.002234f, 0.226203f, -0.504993f, -0.758045f, -1.761410f, -1.480853f, -1.253063f, -2.965261f, -0.469247f, -0.347140f
};

// LSTM FORGET Gate - Input zu Hidden Gewichte [32][4]
const float lstm_forget_ih_weights[32][4] = {
  {0.834065f, 0.146593f, -0.070329f, 0.584432f},
  {0.568121f, -0.023757f, -0.171279f, 1.148381f},
  {0.018134f, 0.435444f, -0.072804f, 0.077192f},
  {0.473857f, -0.256652f, 0.125778f, 0.249599f},
  {0.449655f, -0.775559f, -0.122882f, 0.605232f},
  {-0.095077f, 0.072057f, -0.066219f, 1.001778f},
  {-0.561223f, -0.965917f, 0.075219f, -0.114499f},
  {-0.167291f, -0.943786f, 0.298793f, 0.448725f},
  {0.028163f, 0.311191f, -0.200112f, 0.347665f},
  {-0.686163f, 0.608388f, -0.060251f, -0.147411f},
  {-1.186926f, 0.797921f, 0.093838f, -0.299895f},
  {0.362604f, -0.240229f, 0.107154f, 0.569785f},
  {0.179112f, 0.144739f, -0.054109f, -0.117839f},
  {0.247295f, 0.328122f, -0.092314f, -0.054983f},
  {0.014617f, -0.039234f, 0.001154f, -0.178926f},
  {-0.243436f, 0.324557f, 0.450809f, -0.022891f},
  {0.661525f, 0.850443f, -0.057663f, -0.071250f},
  {0.632934f, -0.199495f, 0.318233f, 1.015479f},
  {-0.149750f, 0.192672f, 0.426651f, -0.133175f},
  {-0.247884f, 0.130213f, 0.227222f, 0.071175f},
  {0.468577f, -0.343181f, 0.074114f, 0.883241f},
  {0.572057f, 0.070460f, 0.092522f, 0.349748f},
  {0.077758f, -0.179725f, -0.143260f, 0.983936f},
  {0.900139f, 0.133779f, -0.219832f, 0.300447f},
  {-0.228705f, 0.281961f, -0.367398f, 0.798097f},
  {-0.489349f, 0.655693f, 0.327013f, -0.316594f},
  {-0.481252f, -1.746921f, 0.004363f, 0.850059f},
  {0.340750f, -0.355450f, 0.028617f, 0.120293f},
  {0.033876f, -0.425741f, 0.045296f, -0.221110f},
  {0.612573f, -1.139056f, 0.145207f, 0.724742f},
  {-0.077047f, 0.377226f, -0.033888f, 0.685576f},
  {-0.483207f, 0.521584f, -0.110379f, -0.791942f},
};

// LSTM FORGET Gate - Hidden zu Hidden Gewichte [32][32]
const float lstm_forget_hh_weights[32][32] = {
  {-0.131546f, 0.018935f, -0.391356f, 0.158897f, -0.456742f, -0.581275f, -0.113617f, 0.178142f, -0.366638f, 0.701430f, 0.187204f, -1.055376f, 1.191304f, -0.419869f, -0.032516f, 0.448610f, -1.231463f, -0.348416f, 0.262034f, 0.805680f, 0.306695f, -0.452547f, -0.147820f, 0.036326f, -0.268449f, 0.157197f, -0.014667f, 0.215306f, 0.917984f, 0.422121f, -0.195673f, 0.264342f},
  {-0.616630f, 0.709999f, 0.648245f, -0.057208f, -1.212705f, -0.092031f, -0.272659f, 0.531851f, 0.633582f, -0.522521f, 0.214727f, 0.507763f, 0.694844f, -0.246132f, -0.542435f, -0.708511f, 0.037424f, -0.441595f, -0.031998f, -0.181743f, 0.349828f, 0.306685f, 0.436081f, 0.041029f, -1.169535f, 0.190179f, -0.480685f, 0.103337f, 0.494905f, -0.244203f, -0.637444f, 0.133281f},
  {-0.059768f, -0.383939f, -0.467776f, 0.289315f, -0.534875f, -0.453036f, 0.342636f, -0.001035f, 0.145956f, 0.023441f, -0.094218f, -0.365892f, -0.132316f, 0.434655f, -0.121361f, 0.048734f, 0.256817f, 0.078780f, 0.241338f, 0.358368f, -0.164195f, 0.093222f, -0.173044f, -0.210726f, -0.643776f, -0.045851f, 0.430136f, 0.246426f, 0.229394f, -0.002722f, -0.184326f, 0.085306f},
  {0.340138f, -0.438176f, -0.014746f, 0.348487f, -0.364299f, -1.436165f, -0.189708f, -0.371102f, -0.255930f, 0.497690f, 0.100686f, 0.529674f, 0.334558f, 0.034568f, -0.683314f, 0.166300f, -0.127412f, 0.494994f, -0.108479f, 0.400973f, -0.134972f, 0.045744f, -1.159729f, -0.467361f, -0.449865f, 0.538403f, 0.249888f, -0.149883f, 0.085941f, -0.143829f, 0.117120f, -0.423702f},
  {-0.054889f, -0.118091f, 0.342928f, 0.519953f, -0.518304f, 0.118199f, 0.430648f, 0.323439f, 0.431559f, -0.456042f, 0.290124f, -0.061261f, 0.065114f, 0.016632f, -0.111654f, 0.111013f, -0.195423f, -0.041294f, 0.196382f, -0.069805f, -0.026924f, 0.498226f, 0.322673f, -0.038668f, -0.099030f, 0.118422f, -0.725991f, 0.299912f, -0.265662f, 0.198171f, -0.135590f, 0.170348f},
  {-0.259334f, 0.134990f, -0.014441f, -0.014986f, -0.434186f, 0.180886f, -0.018099f, 0.080878f, 0.015698f, -0.065156f, -0.135500f, -0.289590f, -0.860689f, -0.652750f, 0.253546f, 0.335943f, -0.009725f, -0.460621f, -0.160901f, -0.650542f, 0.182346f, 0.358868f, -0.015099f, 0.095943f, 0.171342f, -0.117802f, -0.380637f, 0.189166f, 0.350191f, -0.124511f, -0.216744f, 0.850534f},
  {-0.440391f, 0.068642f, 0.033076f, -0.104676f, 0.835156f, 0.304424f, -0.132271f, -0.889712f, 0.482117f, 0.077445f, 0.588683f, -0.027746f, 0.348730f, 0.473983f, -0.782208f, -0.617368f, 0.419980f, 0.074241f, 0.176260f, -0.124011f, 0.255750f, -0.697906f, -0.109220f, -0.134045f, -0.105861f, -0.695443f, 0.532925f, -0.033520f, -0.080452f, -0.238150f, -0.024665f, -0.096530f},
  {-0.340128f, -0.214468f, -0.154936f, 0.383654f, -0.378971f, 0.558253f, -0.344032f, 0.161833f, 0.161038f, -0.189156f, 0.324787f, -0.393555f, 1.025552f, -0.182094f, 0.063468f, 0.357027f, -0.016381f, -0.452608f, -0.044117f, 0.173559f, 0.002785f, -0.194472f, -0.031463f, 0.465712f, -0.156203f, 0.165648f, -0.177336f, -0.291343f, 0.079604f, 0.289986f, -0.068560f, -0.099009f},
  {-0.224638f, 0.007372f, -0.675186f, 0.406988f, -0.000717f, 0.180423f, 0.267720f, 0.100932f, -1.105847f, -0.426838f, 0.080236f, 0.123366f, 0.309377f, 0.085890f, 0.184978f, 0.417631f, -1.086406f, -0.014233f, 0.065612f, -0.028602f, 0.357507f, 0.647874f, 0.386207f, 0.385433f, 0.722156f, 0.606142f, -0.193911f, 0.091331f, -0.226340f, -0.088678f, 0.405824f, -0.683283f},
  {-0.488146f, -0.003618f, 0.270849f, -0.032255f, -0.241850f, -0.436673f, -0.325006f, -0.237399f, -0.206445f, -0.399003f, 0.806928f, 0.223045f, -0.008757f, 0.258758f, -0.460701f, -0.319410f, 0.609272f, -0.084187f, -0.362361f, -0.669745f, -0.121663f, -0.568680f, -0.212765f, -0.009037f, 0.459674f, -0.357123f, 0.594896f, -0.247061f, -0.159430f, 0.031411f, 0.218862f, 0.273211f},
  {-0.765385f, 1.355385f, 0.497014f, 0.162048f, -2.259691f, 0.815705f, -0.092096f, -0.334299f, -0.308116f, -1.455546f, 0.895021f, 0.013603f, -0.634662f, -0.206834f, -0.909462f, -0.931990f, 1.634630f, -0.631138f, -0.408755f, -0.914815f, -0.281025f, -0.564175f, 0.149800f, 0.507368f, -0.267138f, -0.451875f, -1.077856f, -0.371632f, -0.703209f, -0.054413f, -0.301152f, 0.582548f},
  {0.190215f, -0.014997f, -0.488170f, 0.093903f, -0.577299f, 0.130636f, -0.233749f, 0.174056f, 0.158484f, 0.321098f, 1.024937f, -0.110966f, -0.216673f, 0.277879f, 0.186320f, -0.195223f, 0.129606f, -0.042566f, -0.067646f, -0.001173f, -0.650216f, 0.404879f, 0.033575f, 0.109785f, -0.458618f, 0.283491f, -0.124200f, 0.381502f, -0.182408f, -0.068181f, -0.331048f, 0.006448f},
  {-0.286539f, -0.593943f, -0.178923f, 0.129024f, 0.116558f, -0.967559f, 0.707106f, 0.930599f, 0.089050f, 0.590412f, -0.993264f, -0.337282f, 0.118550f, 0.665765f, 1.193759f, -0.077511f, -0.459111f, -0.539275f, -0.004183f, 0.071052f, -0.080042f, -0.097069f, -0.555190f, 0.864429f, -0.070763f, 0.381843f, -0.119942f, -0.248542f, -0.121650f, 0.331277f, 0.239378f, -0.115156f},
  {0.967713f, -0.127172f, 0.395603f, -0.030585f, -0.993416f, -1.430026f, 0.220722f, -0.334164f, 0.377272f, -0.802343f, 0.129738f, 0.799824f, -0.667318f, -0.030392f, 0.390670f, -0.481563f, -0.358730f, 0.160202f, -0.097442f, -0.020704f, -0.634066f, 0.206364f, -0.983703f, -0.418560f, -0.296843f, 0.052815f, 0.483511f, -0.228882f, -0.427260f, -0.103305f, -0.295062f, 0.120572f},
  {-0.289687f, -0.059457f, 0.137261f, 0.296631f, -0.524928f, -0.122707f, 0.010176f, -0.134694f, -0.027363f, 0.203695f, -0.434704f, 0.035525f, 1.047239f, -0.176594f, -0.224080f, 0.074901f, -0.280201f, -0.350364f, 0.119370f, 0.211109f, 0.090684f, 0.095420f, -0.793775f, -0.080457f, -1.072812f, -0.064386f, 1.222216f, -0.115358f, 0.243722f, -0.025244f, -0.233340f, -0.205163f},
  {0.048288f, 0.236075f, 0.297466f, 0.313779f, -0.652625f, -0.192015f, 0.232911f, -0.132044f, 0.024777f, -0.318674f, 0.450410f, 0.100243f, 0.055555f, -0.036376f, -0.391370f, -0.320093f, 0.535267f, 0.165515f, -0.036130f, -0.237666f, -0.040172f, -0.206831f, -0.178292f, -0.392384f, -0.356316f, -0.340942f, 0.618014f, -0.104056f, -0.297453f, -0.138874f, 0.041906f, 0.433211f},
  {-0.691920f, -0.555800f, 0.381761f, 0.594225f, -0.660730f, -0.719458f, 0.568660f, 0.215420f, 0.591488f, -0.324793f, 0.284933f, -0.406977f, 0.049300f, -0.614237f, 0.127939f, 0.118071f, 0.108092f, -0.246744f, -0.286128f, 0.330206f, -0.357512f, -0.630574f, -0.807246f, 0.385448f, -1.091993f, -0.337980f, 0.126475f, -0.728128f, -0.558132f, 0.344825f, -0.220646f, -0.065226f},
  {0.217399f, -0.943887f, 0.088888f, -0.564943f, 0.144384f, 0.292169f, -0.255344f, -0.038288f, 0.261047f, 0.471692f, 0.444250f, 0.076078f, 0.356407f, -0.153038f, 0.115503f, 0.196781f, -0.072484f, 0.303229f, 0.003922f, -0.075224f, -0.580639f, 0.256166f, -0.040858f, 0.199554f, -0.338672f, 0.266965f, 0.031623f, 0.199974f, -0.214281f, 0.122370f, 0.198684f, 0.131461f},
  {0.456987f, -0.379223f, 0.562498f, 0.487391f, -1.009156f, -0.342489f, 0.010401f, -0.596014f, -0.672864f, 0.056592f, 0.516004f, 0.668004f, -0.369799f, -0.237057f, -0.783411f, -0.344060f, 0.443415f, 0.297578f, 0.062885f, -0.447965f, 0.275801f, -0.296126f, -0.753043f, -0.372176f, -0.332560f, -0.476020f, 0.545683f, -0.514041f, -0.057138f, 0.193251f, 0.154504f, 0.091760f},
  {0.923666f, 0.071126f, 0.201096f, 0.564886f, -1.419904f, -0.222311f, -0.176581f, -0.231121f, -0.252528f, -0.227148f, 0.693004f, 0.427685f, -0.136901f, 0.698735f, -0.421376f, -0.604787f, 0.301986f, 0.306893f, 0.203594f, -0.135056f, -0.119506f, 0.081042f, -0.407530f, -0.184333f, -0.598902f, -0.395938f, 0.646083f, -0.030827f, -0.068921f, 0.381928f, -0.170869f, 0.382576f},
  {-0.174626f, 0.294208f, -0.287315f, 0.402759f, -0.475298f, 0.215894f, 0.249383f, 0.723081f, -0.314026f, 0.627428f, 0.096422f, -0.538568f, 1.173426f, 0.048727f, 0.332902f, 0.485505f, -1.497434f, -0.973411f, -0.150897f, -0.065069f, 0.370156f, 0.323397f, -0.558293f, -0.008083f, -0.424260f, 0.186403f, -1.063277f, -0.197140f, 0.798398f, 0.155104f, -0.942782f, 0.094752f},
  {-0.087545f, 0.067580f, -0.134085f, 0.219382f, -1.001353f, -0.266568f, -0.447567f, 0.058613f, -0.318570f, -0.053901f, 0.071751f, 0.537029f, 0.609871f, -0.320895f, -0.339590f, -0.089633f, -0.249590f, 0.082220f, 0.441671f, 0.249248f, 0.599361f, 0.368263f, -0.488086f, -0.350069f, -0.321909f, 0.169139f, -0.219406f, 0.043684f, -0.402248f, -0.404156f, -0.004202f, 0.007367f},
  {0.665050f, 0.105312f, -0.122989f, -0.217368f, -0.601432f, -0.397366f, -0.087342f, 0.042746f, -0.221043f, -0.015383f, -0.057318f, 0.230680f, -0.462321f, 0.623590f, -0.053918f, -0.192137f, -0.758108f, 0.192411f, 0.138526f, -0.150268f, 0.451569f, 0.127071f, -0.275565f, -0.273743f, 0.387832f, 0.060424f, -0.342873f, 0.438684f, 0.045560f, -0.026870f, 0.162604f, 0.671889f},
  {-0.695907f, 0.865345f, 0.632697f, 0.091292f, -1.006027f, 0.301828f, 0.509736f, 0.241436f, 0.966902f, -0.091366f, 0.749846f, -0.305396f, 0.576924f, -0.305299f, -0.302867f, -0.291480f, 1.172946f, 0.003678f, 0.287794f, -0.232943f, 0.308700f, 0.069571f, -0.192064f, 0.537971f, -0.588346f, -0.363325f, -0.324020f, -0.060485f, -0.079043f, 0.883509f, -0.359247f, -0.170022f},
  {0.285810f, -0.632889f, -0.194481f, -0.170486f, -0.277006f, -1.056637f, -0.191993f, 0.029908f, -0.433217f, 0.178419f, 0.037963f, 0.644482f, -0.012643f, 0.039050f, -0.029655f, 0.142236f, -0.548031f, 0.510865f, -0.131596f, -0.481446f, 0.413354f, 0.204143f, -0.319785f, -0.228564f, -0.425617f, -0.151694f, 0.507203f, 0.343212f, -0.090540f, -0.078911f, 0.177539f, -0.087678f},
  {0.115129f, -0.212226f, 0.299174f, 0.240768f, -0.035257f, -0.686751f, -0.447792f, -0.002339f, 0.074534f, -0.444261f, 0.285785f, 0.644303f, 0.149014f, -0.414781f, -0.290753f, -0.627149f, 0.980412f, 0.003214f, -0.174721f, 0.252529f, -0.233078f, -0.108005f, -0.701720f, 0.218297f, -0.732621f, -0.337539f, -0.263062f, -0.202320f, 0.111377f, -0.119770f, 0.048982f, -0.335323f},
  {-0.411842f, 0.729313f, 0.328459f, 0.207747f, -0.904998f, 0.668813f, -0.361156f, 0.415162f, 0.864559f, -0.696725f, 0.483024f, 0.210539f, 0.216768f, -0.259309f, -0.044278f, -0.274029f, 0.036329f, -0.145938f, -0.012547f, -1.057298f, 0.537981f, 0.608648f, 0.130172f, -0.045359f, -0.370656f, -0.028608f, -0.899497f, -0.251567f, -0.117180f, 0.656550f, -0.570625f, -0.098672f},
  {0.130976f, 0.277423f, -0.055423f, 0.395482f, -0.077401f, -0.526446f, -0.213843f, -0.201747f, -0.056941f, 0.159292f, -0.051128f, 0.444861f, 0.599764f, 0.426408f, -0.712410f, 0.040803f, 0.220319f, 0.186737f, -0.180914f, -0.252929f, -0.243895f, 0.189952f, -1.187197f, -0.113809f, -0.677656f, -0.184413f, 0.967403f, 0.108206f, -0.179984f, -0.399956f, -0.610565f, -0.577252f},
  {-0.793666f, 0.856623f, 0.013742f, 0.054797f, -0.419497f, 0.066547f, -0.886513f, -0.318119f, 0.202117f, 0.212256f, 0.367308f, 0.196644f, 0.036051f, 0.064606f, -0.637241f, 0.012081f, 0.167024f, 0.208453f, -0.852316f, -0.869991f, 0.577304f, -0.506214f, -0.982901f, -0.632926f, -1.034010f, -0.514033f, 0.467375f, -0.141513f, 0.058569f, -0.122477f, 0.009504f, 0.053407f},
  {-0.003870f, 0.328914f, 0.061152f, 0.462150f, -0.771611f, -0.297548f, 0.566158f, 0.463815f, 0.464460f, 0.466364f, 0.092233f, -0.406136f, 0.387945f, 0.260098f, -0.036750f, -0.025690f, -0.421805f, 0.102917f, -0.287547f, 0.127045f, 0.555445f, -0.255396f, -1.015743f, -0.326749f, -0.812927f, 0.365788f, 0.082782f, 0.213816f, 0.729814f, 0.554622f, -0.729563f, -0.202921f},
  {-0.472277f, 0.122523f, -0.328409f, 0.023759f, -0.659561f, 0.401117f, 0.282458f, 0.447376f, -0.172916f, 0.014292f, 0.207495f, -0.495617f, 0.408955f, 0.010924f, 0.264708f, 0.315334f, -0.797427f, -0.505686f, 0.511297f, 0.260144f, 0.466707f, -0.096674f, 0.080580f, 0.356546f, -0.121120f, 0.513046f, -0.569358f, 0.029378f, 0.022242f, 0.373264f, -0.172792f, -0.005547f},
  {-0.062187f, 0.002049f, 0.466497f, 0.061815f, -0.508087f, -0.410930f, -0.091524f, -0.117250f, -0.662193f, -0.584261f, 0.267502f, 0.060796f, -0.934545f, 0.134766f, -0.081364f, -1.027651f, 0.053948f, 0.264465f, 0.095845f, -0.530978f, 0.174231f, -0.145117f, 0.115785f, 0.246793f, 0.131811f, -0.388507f, -0.285022f, -0.209401f, 0.334793f, 0.116438f, -0.060036f, 0.741677f},
};

// LSTM FORGET Gate - Bias [32]
const float lstm_forget_bias[32] = {
  -0.715867f, -1.237280f, -1.881511f, -1.581123f, -0.878407f, -0.641728f, -0.853776f, -0.865314f, 0.344705f, -0.274378f, -0.687271f, -1.071400f, 0.292928f, -1.435568f, -0.687350f, -1.703613f, -0.700479f, -1.042698f, -2.027246f, -1.211951f, -1.460938f, -1.075229f, -0.417405f, 0.035507f, -0.466177f, -0.704854f, -0.526834f, -1.326114f, -0.872872f, -1.792429f, -0.969838f, 0.337767f
};

// LSTM CANDIDATE Gate - Input zu Hidden Gewichte [32][4]
const float lstm_candidate_ih_weights[32][4] = {
  {-0.447743f, -0.250849f, 0.137643f, -0.540832f},
  {0.361551f, 0.038786f, -0.300447f, 0.282560f},
  {-0.723686f, 0.648821f, -0.011386f, -0.436141f},
  {0.656130f, 0.077933f, -0.056403f, -0.137243f},
  {-0.148634f, -0.141346f, -0.021932f, -0.879292f},
  {-0.100593f, -0.037412f, 0.201945f, 0.805395f},
  {-0.053403f, 0.321326f, 0.016120f, 0.354303f},
  {0.576158f, -0.119548f, -0.008868f, 0.743612f},
  {0.047419f, -2.715572f, -0.031015f, 0.563389f},
  {0.867784f, -0.644904f, 0.060579f, 0.454189f},
  {-0.339549f, -0.136182f, -0.102252f, -0.256541f},
  {-1.026937f, 0.646918f, -0.015533f, -0.415494f},
  {1.122122f, -0.917157f, -0.000448f, 0.096161f},
  {-0.162722f, -0.126027f, -0.032888f, 0.395529f},
  {0.503688f, -0.162811f, -0.030638f, 0.484351f},
  {0.469543f, -0.242576f, 0.072334f, 0.279567f},
  {-0.791318f, 0.601986f, 0.057190f, -0.372968f},
  {-0.653941f, 0.518074f, 0.008815f, -0.644030f},
  {-0.139866f, -0.106408f, 0.082839f, 0.017131f},
  {0.947146f, -0.154834f, -0.069771f, -0.030547f},
  {0.360006f, 0.811568f, 0.001695f, 0.169610f},
  {-0.882471f, -0.518359f, -0.006721f, -0.235910f},
  {-0.086173f, 0.298309f, 0.072541f, 0.858528f},
  {0.617756f, 0.171234f, -0.135720f, 0.789499f},
  {-0.178320f, 0.534946f, -0.023685f, 0.607638f},
  {0.796750f, -0.304202f, 0.013504f, 0.245682f},
  {0.577747f, 0.199975f, 0.000852f, -0.242430f},
  {-0.234953f, -0.765382f, -0.064289f, 0.129094f},
  {0.371590f, -0.453663f, -0.042766f, 0.028807f},
  {0.502570f, 0.303497f, -0.114722f, 0.111987f},
  {-0.264275f, 0.639714f, -0.150689f, -0.847219f},
  {-0.711829f, -0.069149f, 0.038088f, 0.046934f},
};

// LSTM CANDIDATE Gate - Hidden zu Hidden Gewichte [32][32]
const float lstm_candidate_hh_weights[32][32] = {
  {-0.060195f, -0.064831f, 0.129591f, -0.105325f, 0.014232f, 0.117361f, 0.482684f, -0.041254f, 0.041231f, -0.588236f, 0.146945f, 0.464829f, -0.871795f, -0.006009f, 0.253315f, -0.507823f, 0.140196f, 0.352428f, 0.760297f, -0.215327f, -0.323565f, 0.539654f, 0.148234f, 0.293218f, 0.105557f, 0.525195f, -0.104829f, 0.083777f, -0.777974f, -0.692514f, -0.019940f, -0.758827f},
  {-0.355885f, 0.029117f, 0.522483f, -0.189035f, -0.425766f, 0.022750f, -0.419468f, 0.012878f, 0.107066f, -0.655423f, -0.001538f, 0.494897f, 0.113995f, -0.328114f, -0.272559f, -0.306043f, -0.015343f, -0.327120f, 0.062186f, -0.201127f, 0.427757f, 0.142068f, 0.186556f, -0.206441f, 0.036489f, -0.049602f, -0.374626f, 0.185258f, 0.123829f, 0.272025f, -0.008907f, 0.066431f},
  {-0.316644f, 0.006719f, -0.847059f, 0.419094f, 0.021869f, -0.075872f, 0.208641f, 0.066501f, 0.006451f, 0.312753f, -0.203763f, -0.324823f, -0.236670f, 0.163366f, 0.282614f, 0.619814f, 0.049755f, -0.631368f, -0.055835f, 0.097985f, -0.226851f, -0.122411f, 0.126865f, 0.518812f, 0.080926f, -0.038822f, -0.374710f, -0.026454f, 0.146618f, -0.088865f, -0.087972f, -0.449493f},
  {-0.438772f, -0.321324f, -0.616559f, -0.525323f, -0.227760f, -0.588896f, -0.024509f, 0.387079f, -0.191893f, 0.433547f, -0.173654f, -0.365232f, 0.269319f, -0.107792f, 0.473967f, 0.328864f, -0.802854f, -0.061800f, 0.832692f, 0.050812f, 0.232907f, 0.279466f, -0.233863f, 0.384786f, -0.058172f, 0.637489f, -0.381219f, 0.212709f, -0.292757f, -0.107895f, 0.185718f, -0.358915f},
  {-0.113765f, 0.139714f, 0.250772f, 0.185958f, -0.264630f, 0.026995f, 0.531191f, 0.217958f, -0.093307f, -0.342548f, 0.562064f, 0.267543f, -0.230238f, 0.449831f, -0.088617f, -0.057408f, 0.164902f, 0.176881f, -0.558271f, -0.622705f, 0.583528f, 0.060041f, 0.009263f, 0.192512f, 0.127256f, -0.055819f, 0.455604f, -0.170615f, 0.160143f, -0.337425f, 0.163850f, 0.003384f},
  {-0.125914f, 0.167069f, -0.051612f, -0.103501f, 0.131608f, -0.387770f, -0.161245f, -0.390721f, -0.033629f, -0.161494f, 0.366855f, 0.113779f, -0.123620f, 0.618916f, -0.133067f, -0.388726f, 0.172103f, 0.445374f, -0.577746f, -0.481470f, -0.021445f, -0.122372f, 0.136805f, -0.468201f, 0.447677f, -0.719763f, -0.107607f, -0.073905f, 0.317477f, 0.001068f, 0.436435f, 0.881564f},
  {-0.859919f, 0.125416f, -0.456859f, 0.126740f, -0.191123f, 0.457697f, -0.694278f, 1.304440f, -0.313519f, 0.453417f, -0.478247f, -0.987889f, -0.334423f, 0.397743f, 0.458053f, 0.724114f, -0.427075f, -0.899379f, 0.256178f, 0.190364f, 0.769534f, -0.347296f, 0.934324f, 0.872731f, 0.391486f, 0.941463f, -0.222291f, -0.052053f, 0.289004f, -0.424317f, -0.493469f, -0.316720f},
  {0.024308f, 0.275646f, 0.403589f, -0.441439f, -0.168280f, 0.070040f, -0.753862f, -0.869715f, -0.247599f, 0.060832f, 0.213703f, 0.082726f, -0.143170f, 0.051838f, -0.386907f, -0.030624f, -0.146346f, 0.177766f, -0.004283f, -0.299933f, 0.093724f, -0.101773f, 0.058300f, -0.515238f, 0.234263f, -0.254440f, 0.133723f, 0.206507f, 0.629858f, -0.386982f, 0.354548f, 0.547419f},
  {0.375840f, 0.393734f, -0.163142f, -0.622455f, 0.456888f, 0.100019f, -0.377410f, -0.073931f, 0.641347f, 0.513328f, -0.156502f, 0.121796f, 0.280265f, 0.492889f, -0.075532f, -0.062790f, -0.082333f, 0.318140f, 0.233962f, -0.071656f, -0.081644f, 0.752767f, -0.105929f, -0.413842f, 0.051492f, -0.343586f, 0.062443f, 0.814566f, 0.438660f, -0.016904f, 0.127765f, 0.244157f},
  {0.476253f, -0.165693f, 0.310314f, -0.222138f, 0.284360f, 0.245455f, -0.512180f, -0.393541f, 0.399269f, -0.321277f, 0.318671f, 0.331259f, 0.110178f, -0.043577f, -0.404053f, -0.418209f, 0.440666f, 0.692208f, -0.090682f, -0.193150f, -0.486816f, 0.136253f, -0.124803f, -0.614327f, -0.446764f, -0.180033f, 0.223510f, -0.118200f, 0.197076f, -0.069821f, 0.433058f, 0.523334f},
  {0.415344f, 0.729437f, -0.022351f, 0.430020f, -0.885592f, -0.182674f, 0.202613f, -0.078355f, 0.070107f, -0.484790f, 0.095810f, 0.227544f, -0.026719f, -0.086543f, -0.143653f, -0.159400f, 0.331530f, -0.451693f, 0.019852f, -0.015773f, -0.566198f, 0.143464f, -0.453403f, 0.530407f, -0.721370f, -0.115824f, -0.396484f, -0.027303f, -0.547084f, 0.014345f, -0.145343f, -0.062805f},
  {-0.422528f, -0.127359f, -0.108617f, -0.017769f, -0.340751f, -0.030531f, 0.217810f, 0.266314f, -0.237416f, 0.029024f, -0.680295f, -0.592813f, 0.060950f, 0.350392f, 0.225662f, 0.185539f, 0.002479f, -0.397467f, 0.351434f, -0.227954f, -0.042584f, 0.328411f, 0.322609f, 0.434539f, 0.277254f, 0.524061f, -0.173532f, 0.306804f, 0.016620f, 0.041820f, 0.088680f, -0.684933f},
  {0.274731f, -0.461964f, 0.000591f, 0.184873f, 0.320629f, -0.387942f, -0.229487f, -0.354042f, 0.210117f, 0.306550f, 0.102577f, -0.174346f, 0.165151f, -0.173635f, -0.078869f, 0.006023f, -0.432916f, 0.057148f, -0.183591f, -0.032843f, 0.075459f, -0.329430f, -1.051119f, -0.182134f, -0.477434f, 0.008232f, 0.304132f, 0.087874f, 0.200343f, -0.218852f, 0.096569f, 0.029509f},
  {0.431939f, -0.525998f, 0.211163f, -0.641405f, 0.349800f, 0.301106f, -0.195613f, -0.050834f, -0.249467f, 0.203112f, -0.036391f, -0.122356f, 0.090332f, -0.519422f, -0.242920f, -0.320566f, 0.124095f, 0.635993f, 0.136104f, -0.350393f, -0.334570f, -0.122671f, 0.413092f, -0.180935f, 0.431313f, -0.264688f, 0.305810f, 0.440866f, 0.406445f, -0.337901f, 0.436115f, 0.019965f},
  {-0.275448f, 0.084449f, 0.385338f, -0.367977f, 0.031273f, 0.080422f, -0.215493f, -0.108530f, 0.277602f, -0.062731f, 0.282498f, 0.307581f, -0.365404f, 0.211016f, -0.378036f, -0.237744f, -0.008873f, 0.788140f, 0.047221f, -0.099302f, 0.213765f, 0.268181f, 0.422216f, -0.329794f, 0.605941f, -0.343738f, 0.971087f, 0.390581f, 0.201070f, -0.059530f, -0.185598f, 0.391991f},
  {0.130234f, -0.447816f, -0.019845f, -0.324959f, 0.116412f, 0.220393f, 0.008932f, 0.337501f, 0.206962f, 0.594711f, -0.020168f, -0.395810f, 0.658587f, 0.160427f, 0.021980f, -0.718474f, -0.336607f, 0.265851f, -0.393792f, -0.016742f, -0.852247f, 0.227611f, 0.376624f, -0.471632f, -0.455726f, 0.173591f, 0.155470f, -0.070228f, 0.625807f, 0.195922f, -0.283160f, 0.305306f},
  {-0.175217f, 0.501706f, -0.105657f, 0.090060f, 0.082844f, 0.138957f, 0.268089f, -0.007574f, 0.225776f, -0.176643f, -0.141295f, -0.189505f, 0.085515f, -0.147074f, 0.009953f, 0.146862f, -0.281719f, -0.310252f, 0.151873f, 0.244982f, -0.014565f, -0.126378f, 0.469094f, 0.580911f, 0.113531f, 0.418971f, -0.414497f, -0.160508f, -0.290519f, -0.199324f, -0.204160f, -0.383021f},
  {-0.206865f, 0.406581f, -0.269500f, 0.010295f, -0.453841f, -0.477245f, -0.141460f, -0.295356f, -0.573636f, -0.394183f, 0.038552f, 0.304890f, -0.413709f, -0.086116f, 0.113983f, -0.111694f, 0.191135f, -0.333479f, -0.454891f, -0.885863f, 0.487024f, 0.295421f, 0.176535f, -0.248522f, 0.003352f, -0.391018f, -0.345023f, 0.152459f, 0.439089f, 0.142021f, 0.217431f, -0.094891f},
  {-0.639070f, 0.136368f, -0.228183f, -0.471087f, 0.863814f, 0.576873f, 0.151093f, -0.032451f, 0.503691f, -0.121001f, -0.028427f, -0.390976f, 0.770627f, 0.618131f, 0.080725f, 0.256503f, -0.411198f, 0.205242f, -0.952410f, 0.166247f, -0.659558f, 0.284856f, 0.648541f, -0.341207f, 0.252724f, 0.186115f, -0.329171f, 0.117778f, 0.300338f, 0.083459f, -0.198709f, -0.270392f},
  {0.250207f, 0.680434f, -0.267431f, 0.089713f, -0.213830f, 0.041509f, 0.522965f, 0.039178f, 0.023633f, 0.298496f, -0.456614f, 0.226307f, -0.279028f, -0.339823f, 0.395052f, 0.096366f, -0.710674f, -0.161751f, -0.307505f, -0.441150f, 0.045125f, 0.211166f, -0.322616f, -0.234561f, -0.484220f, 0.266920f, -0.357447f, 0.327149f, 0.362209f, -0.335006f, -0.058034f, 0.253266f},
  {0.063477f, -0.301693f, -0.425927f, 0.081803f, -0.105949f, -0.423384f, -0.408413f, 0.058569f, -0.364928f, 0.284248f, 0.102196f, 0.021428f, 0.879701f, 0.369670f, -0.009450f, 0.650498f, -0.233222f, -0.282644f, -0.135418f, 0.073543f, -0.979520f, 0.248300f, -0.194443f, -0.315032f, -0.252185f, -0.247378f, -0.232148f, 0.116717f, 0.200818f, -0.987551f, 0.501376f, 0.330983f},
  {-0.161148f, 0.040532f, 0.091230f, -0.397193f, 0.062732f, 0.192654f, 0.088072f, 0.227012f, -0.079581f, -0.427916f, -0.125305f, -0.300681f, -0.151926f, 0.569501f, 0.154385f, -0.059915f, -0.161100f, -0.133033f, 0.248974f, -0.310873f, -0.509396f, -0.246358f, 0.170084f, -0.075373f, 0.499543f, -0.018484f, -0.281358f, 0.189892f, 0.210620f, 0.307899f, -0.059111f, -0.158759f},
  {0.419989f, 0.077044f, -0.048302f, -0.393329f, 0.274527f, -0.399056f, -0.474398f, -0.278202f, -0.314568f, -0.013378f, 0.221759f, -0.234646f, -0.148939f, -0.074848f, -0.380635f, -0.156945f, -0.191150f, 0.415744f, -0.326706f, -0.740798f, -0.060611f, 0.052535f, -0.230236f, -0.585481f, 0.281380f, -0.643273f, 0.037736f, 0.556375f, 0.637199f, -0.331713f, 0.485397f, 0.667642f},
  {-0.533999f, 0.684124f, 0.061150f, -0.076913f, -0.284707f, 0.483196f, -0.254101f, 0.668757f, 0.209808f, 0.105002f, -0.014418f, -0.277715f, 0.313751f, -0.320649f, -0.093357f, 0.372437f, -0.554857f, -0.247530f, 0.005600f, 0.992944f, -0.023927f, -0.856613f, 0.294755f, 0.032602f, 0.605122f, 0.858621f, -0.382647f, -0.167124f, -0.183764f, -0.160225f, -0.451662f, -0.481666f},
  {0.303685f, -0.080254f, -0.277425f, -0.137622f, 0.413916f, -0.205068f, -0.353230f, -0.217896f, -0.517263f, -0.035438f, -0.032371f, 0.263490f, 0.199938f, -0.057912f, -0.549944f, -0.095515f, 0.093763f, 0.501959f, -0.701225f, -0.386626f, -0.292519f, -0.154953f, -0.113843f, -0.575909f, -0.229569f, -0.206089f, 0.214188f, 0.316402f, 0.489088f, -0.021468f, 0.101609f, 0.064942f},
  {-0.836387f, 0.616242f, -0.358671f, -0.134327f, -0.216270f, 0.798228f, 0.075973f, -0.096296f, -0.176610f, 0.634391f, 0.077264f, -0.581805f, -0.302017f, 0.210930f, 0.481222f, 0.356148f, -0.854518f, 0.193007f, -0.121009f, -0.365323f, 1.030302f, 0.080730f, -0.006115f, -0.185931f, -0.055051f, -0.387589f, -0.780982f, 0.384720f, 0.277721f, -0.091454f, -0.368644f, 0.303316f},
  {0.196236f, -0.410670f, -0.118652f, -0.403187f, 0.567923f, -0.338189f, 0.442888f, -0.263045f, -0.230737f, 0.538398f, -0.364869f, -0.194705f, -0.028114f, -0.372730f, 0.029371f, 0.057709f, 0.186668f, -0.101818f, 0.610318f, 0.393162f, -0.148892f, 0.158513f, -0.451394f, -0.053288f, -0.733445f, 0.102436f, 0.358551f, 0.505081f, -0.458765f, -0.335620f, 0.191459f, -0.224937f},
  {0.228898f, -0.305891f, 0.224785f, -0.273582f, 0.526105f, -0.017771f, -0.406804f, -0.280564f, -0.326955f, -0.142377f, 0.096693f, 0.009622f, -0.362985f, -0.069860f, -0.105530f, -0.603969f, -0.334811f, 0.514643f, -0.618514f, -0.880480f, -0.120980f, 0.385735f, -0.158195f, -0.515843f, 0.058810f, -0.564265f, 0.525208f, -0.306520f, 0.465646f, 0.387346f, 0.016322f, 0.443255f},
  {0.166002f, 0.323535f, 0.283136f, 0.250949f, -0.700927f, -0.087419f, -0.891722f, -0.491447f, -0.153931f, 0.047864f, 0.653044f, 0.197432f, 0.157770f, -0.293038f, -0.455706f, -0.444471f, 0.039438f, 0.478595f, -0.668268f, -0.603982f, 0.267176f, -0.206406f, -0.495972f, -0.617835f, -0.831803f, -0.953015f, 0.574058f, 0.034528f, -0.397540f, 0.536785f, 0.511722f, 0.753500f},
  {-0.352292f, 0.245248f, 0.271436f, 0.137693f, -0.188432f, 0.606574f, 0.468606f, -0.053914f, 0.237918f, -0.421802f, -0.498374f, 0.066971f, -0.070445f, -0.061185f, -0.087745f, -0.098041f, 0.343420f, 0.253148f, 0.115166f, 0.261916f, 0.133204f, -0.337853f, 0.717548f, 0.167366f, 0.544878f, 0.004451f, 0.346299f, -0.377881f, -0.465384f, -0.392339f, 0.153271f, 0.128780f},
  {0.025956f, -0.092862f, -0.031292f, 0.385194f, 0.204177f, 0.068312f, 0.278014f, 0.532847f, 0.016427f, -0.682568f, -0.111804f, -0.000784f, -0.268832f, -0.155081f, 0.291849f, -0.070545f, 0.101000f, -0.266586f, -0.203549f, 0.279867f, -0.149811f, 0.543958f, -0.061999f, 0.292314f, -0.242762f, 0.929772f, -0.184437f, -0.096165f, -0.299196f, -0.130739f, -0.578067f, -0.857536f},
  {1.622161f, -0.701470f, 0.832136f, -0.276289f, 0.377208f, -0.750152f, -0.283545f, -0.783342f, -0.142983f, -0.939297f, 0.330994f, 1.212950f, -1.097649f, -0.511473f, -1.166355f, -0.912134f, 0.705233f, 0.141284f, -0.627783f, 0.247957f, -1.512374f, 0.063050f, -0.513509f, -0.342112f, -0.188910f, -0.769897f, 0.111623f, 0.005344f, -0.341834f, -0.090084f, 0.549371f, 0.189201f},
};

// LSTM CANDIDATE Gate - Bias [32]
const float lstm_candidate_bias[32] = {
  -0.212066f, 0.438501f, -0.392524f, -0.252204f, 0.499150f, 0.371350f, 0.015077f, 0.375983f, 0.484579f, 0.428071f, -0.516672f, -0.289300f, 0.074708f, 0.682814f, 0.468772f, 0.430142f, -0.343381f, 0.179848f, 0.222439f, -0.182738f, 0.166366f, 0.210803f, 0.535937f, 0.068405f, 0.660637f, 0.266067f, -0.387680f, 0.418813f, 0.191211f, -0.552149f, -0.083864f, -0.068023f
};

// LSTM OUTPUT Gate - Input zu Hidden Gewichte [32][4]
const float lstm_output_ih_weights[32][4] = {
  {0.814484f, -0.003254f, -0.241877f, 0.379668f},
  {0.607126f, 0.328028f, -0.499160f, 0.652496f},
  {0.321428f, 0.579317f, 0.134827f, 0.005123f},
  {0.604648f, -0.093955f, -0.017273f, 0.284065f},
  {1.040786f, -0.429612f, 0.071517f, 0.600486f},
  {-0.436176f, 0.429340f, 0.500275f, 0.610121f},
  {-0.016572f, -0.271220f, 0.145637f, -0.114832f},
  {-0.359725f, -0.233247f, 0.394010f, -0.218158f},
  {-1.117824f, -0.488880f, 0.044113f, 0.136151f},
  {-0.635641f, 0.172303f, 0.058340f, -0.041327f},
  {-0.235270f, 0.309437f, 0.518406f, -0.004886f},
  {0.921366f, 0.382481f, -0.235920f, 0.190864f},
  {0.696599f, 0.067502f, -0.253021f, -0.691686f},
  {0.627702f, 0.319314f, -0.363113f, -0.112091f},
  {-0.096677f, -0.384287f, 0.273458f, -0.129693f},
  {-0.056147f, 0.093456f, 0.565132f, 0.322220f},
  {0.366570f, 0.280008f, 0.222359f, -0.189992f},
  {0.294539f, -0.183548f, 0.042488f, 0.909100f},
  {-0.076369f, 0.068291f, 0.302620f, 0.125949f},
  {-0.092746f, -0.103843f, -0.039037f, -0.093202f},
  {0.613637f, 0.046889f, -0.152778f, 0.566257f},
  {0.638909f, 0.273786f, 0.069116f, 0.361469f},
  {-0.000391f, -0.044784f, 0.084720f, 0.788910f},
  {0.310106f, -0.433133f, 0.197994f, 0.102031f},
  {-0.477941f, 0.021717f, 0.153612f, 0.686939f},
  {-0.285632f, 0.234731f, 0.573183f, -0.337544f},
  {0.313726f, 0.183182f, -0.304163f, 0.997897f},
  {0.511052f, -0.084808f, 0.178492f, 0.067768f},
  {0.139225f, -0.268896f, 0.178438f, -0.004745f},
  {0.512802f, -0.643712f, 0.019919f, 0.689732f},
  {-1.150554f, -0.205291f, 0.331902f, -0.012678f},
  {-1.644616f, -0.021607f, 0.275470f, -0.221922f},
};

// LSTM OUTPUT Gate - Hidden zu Hidden Gewichte [32][32]
const float lstm_output_hh_weights[32][32] = {
  {0.012146f, 0.330939f, -0.145544f, 0.365362f, -0.419899f, -0.566837f, 0.155152f, 0.233268f, -0.155233f, 0.465987f, 0.352412f, -1.044435f, 0.757000f, -0.486343f, -0.247712f, 0.445702f, -1.091639f, -0.273500f, 0.021479f, 0.423813f, 0.763491f, -0.454579f, -0.279902f, 0.119418f, -0.367334f, -0.034045f, -0.086642f, 0.333099f, 0.651909f, 0.604199f, -0.304568f, 0.164898f},
  {-0.912450f, 0.765609f, 0.047852f, 0.383410f, -0.780681f, -0.662545f, 0.359778f, 0.676881f, -0.071114f, -0.155501f, -0.070805f, -0.380964f, 0.868072f, 0.221599f, -0.202756f, -0.286900f, -0.831518f, -0.346245f, 0.040949f, 0.026917f, 0.770900f, -0.096161f, 0.011240f, -0.495194f, -0.912491f, 0.058688f, -0.022506f, -0.128658f, 0.714223f, 0.033644f, -0.431701f, 0.127814f},
  {0.022696f, -0.381011f, -0.221523f, -0.087352f, -0.861227f, -0.019039f, 0.363620f, 0.061292f, 0.027491f, 0.038174f, -0.005605f, -0.510653f, -0.059995f, 0.193513f, -0.182771f, -0.256189f, 0.125502f, 0.190596f, 0.386864f, 0.521379f, -0.323859f, 0.269973f, -0.282847f, -0.180200f, -0.827751f, -0.209035f, 0.794085f, 0.260464f, 0.359607f, 0.234445f, -0.218052f, 0.127469f},
  {0.350323f, -0.382319f, -0.052019f, 0.252132f, -0.340032f, -1.573929f, -0.407121f, -0.512357f, 0.100994f, 0.315925f, 0.189116f, 0.517713f, 0.696204f, 0.027834f, -0.650730f, 0.221837f, -0.127744f, 0.410649f, -0.299868f, 0.444576f, -0.471196f, -0.052343f, -1.383889f, -0.708498f, -0.554641f, 0.142089f, 0.727765f, -0.054667f, 0.477726f, -0.303549f, 0.313345f, -0.307195f},
  {-0.364060f, 0.240621f, -0.120085f, 0.123318f, -0.326567f, 0.086842f, 0.249330f, -0.019364f, 0.244146f, -0.012118f, 0.310780f, 0.003697f, 0.693605f, 0.358285f, -0.188267f, 0.166540f, -0.569728f, -0.113116f, 0.142064f, 0.382754f, 0.184977f, -0.043724f, 0.352296f, 0.172551f, 0.008730f, 0.197840f, -0.431359f, -0.006332f, -0.053429f, 0.019547f, -0.338528f, -0.107504f},
  {-0.325466f, -0.048368f, 0.026453f, -0.383270f, -0.516407f, 0.343722f, -0.022836f, 0.336896f, 0.127699f, 0.454565f, -0.433462f, -0.159028f, -1.269394f, -0.182831f, 0.488252f, 0.379168f, 0.467687f, -0.519997f, 0.293270f, -0.350058f, 0.087913f, 0.445309f, 0.618270f, -0.310985f, 0.562429f, -0.013495f, -0.618894f, 0.512115f, 0.120110f, -0.295031f, -0.239264f, 0.551462f},
  {-0.123044f, -0.077326f, 0.043486f, 0.433291f, 0.142434f, -0.209922f, -0.110425f, -0.943122f, 0.069735f, -0.125815f, 0.131326f, 0.122089f, 0.311768f, 0.280235f, -0.781572f, -0.296366f, 0.451839f, 0.317529f, 0.440397f, 0.009099f, 0.200418f, -0.583753f, -1.005753f, -0.134645f, -0.965356f, -0.429938f, 1.234145f, -0.325532f, 0.204156f, -0.147460f, 0.226633f, -0.150487f},
  {-0.341706f, -0.197116f, 0.262497f, 0.069007f, -0.615820f, 0.710147f, -0.086941f, -0.220399f, -0.076056f, -0.181966f, 0.189099f, -0.520465f, 0.542461f, -0.376446f, -0.143250f, 0.205181f, 0.259456f, -0.789144f, 0.202466f, 0.120208f, 0.031290f, -0.363140f, -0.128192f, 0.172619f, -0.085545f, -0.404374f, -0.622882f, -0.231975f, 0.450949f, 0.310533f, 0.009311f, 0.432224f},
  {-0.066012f, 0.665081f, -0.750509f, 0.066896f, 0.256948f, -0.439259f, 0.236258f, 0.134227f, -0.321894f, 0.258270f, 0.043951f, -0.233118f, 0.319350f, 0.354875f, 0.077889f, 0.187698f, -1.246420f, -0.184816f, 0.319860f, -0.247633f, 0.457665f, 0.908127f, 0.160487f, -0.070728f, 0.454655f, 0.441675f, -0.198333f, 0.843521f, 0.186121f, 0.022759f, 0.013741f, -0.366860f},
  {-0.425871f, -0.079762f, 0.139936f, -0.142437f, -0.053051f, 0.344981f, 0.104629f, -0.288363f, 0.070799f, -0.149197f, 0.550499f, -0.043697f, 0.329714f, 0.203145f, -0.457761f, -0.447038f, 0.569981f, -0.401405f, -0.002670f, -0.302917f, -0.170772f, -0.269011f, 0.469713f, 0.444765f, 0.454988f, -0.204944f, 0.679316f, -0.229097f, -0.273970f, -0.063164f, -0.181930f, -0.069556f},
  {-0.124923f, 1.003114f, 0.224958f, 0.305524f, -1.833996f, 0.461927f, 0.513772f, 0.117552f, -0.128145f, -0.032717f, 0.087510f, -0.134908f, 0.045468f, 0.464623f, -0.237875f, -0.045275f, 0.424782f, -0.863266f, 0.558686f, 0.037916f, 0.016031f, 0.020439f, 0.145006f, -0.223964f, -0.172275f, -0.233923f, -0.704681f, -0.230486f, -0.358948f, -0.104240f, -0.139665f, -0.022652f},
  {-0.042753f, 0.110889f, -0.334253f, 0.099422f, -0.597620f, 0.246910f, -0.325765f, -0.037011f, 0.017016f, -0.083755f, 0.737319f, -0.036007f, -0.049721f, 0.139216f, -0.220167f, -0.020900f, -0.536065f, 0.185363f, 0.435816f, 0.097568f, -0.157531f, 0.263260f, 0.116019f, -0.181918f, -0.534143f, -0.321650f, 0.158137f, 0.084891f, 0.366928f, 0.055576f, -0.058258f, 0.471646f},
  {-0.109715f, -0.722213f, 0.037361f, 0.161698f, 0.046161f, -1.316447f, 0.419114f, 0.368201f, 0.023630f, 0.156253f, -0.292491f, -0.200882f, -0.225138f, 0.136460f, 0.491072f, 0.019863f, -0.560554f, -0.451521f, -0.073680f, 0.491168f, -0.374513f, -0.151135f, -1.064065f, 0.311179f, -0.603266f, 0.051983f, 0.615528f, -0.011810f, -0.072498f, 0.626148f, 0.409689f, 0.056018f},
  {1.034152f, -0.175284f, 0.830815f, 0.090084f, -1.349680f, -1.435323f, 0.662538f, -0.037263f, 0.133671f, -0.700738f, 0.122309f, 0.848590f, -0.370810f, -0.062161f, 0.177596f, -0.484863f, -0.286445f, 0.571972f, -0.302016f, -0.030078f, -0.253825f, 0.192209f, -1.615830f, -0.686928f, -0.942555f, 0.150933f, 0.760465f, 0.110196f, -0.272941f, -0.096691f, -0.231359f, 0.299377f},
  {-0.096538f, -0.273469f, -0.016082f, 0.080750f, -0.544172f, 0.014463f, -0.288661f, -0.186209f, 0.380064f, 0.428724f, -0.201812f, -0.368284f, 1.211617f, -0.444811f, 0.028291f, 0.040869f, 0.047403f, -0.573628f, -0.072069f, 0.441200f, 0.341108f, 0.029814f, -0.649687f, -0.231328f, -0.952702f, 0.040185f, 0.802889f, 0.076047f, 0.364506f, 0.253655f, -0.456157f, -0.056586f},
  {-0.252367f, 0.603893f, -0.021757f, 0.298389f, -0.768728f, -0.168187f, 0.498453f, 0.189642f, 0.333788f, 0.273540f, -0.185287f, 0.083852f, 0.095928f, 0.358857f, -0.233217f, -0.077947f, 0.359183f, 0.075002f, 0.192767f, 0.120873f, 0.238583f, 0.025581f, -0.643782f, -0.013395f, -0.954155f, 0.176650f, 0.841491f, -0.034489f, -0.796821f, -0.342383f, -0.597500f, -0.035907f},
  {-0.810931f, -0.757388f, 0.081382f, 0.338362f, -0.218763f, -0.553140f, -0.010370f, -0.074721f, 0.442318f, -0.001905f, -0.075185f, -0.369966f, 0.337030f, -0.329721f, -0.026758f, 0.344543f, 0.198726f, -0.611465f, -0.209420f, 0.190326f, -0.353273f, -0.436268f, -0.667578f, 0.212385f, -1.093578f, -0.239389f, 0.385121f, -0.525680f, -0.151745f, 0.150043f, -0.419136f, -0.131564f},
  {0.291340f, -0.861741f, -0.103302f, -0.457004f, 0.103610f, -0.041121f, -0.112103f, 0.215692f, 0.087396f, 0.336041f, 0.176377f, -0.204241f, 0.240710f, 0.045700f, 0.380151f, 0.373763f, -0.465601f, 0.159334f, -0.701368f, -0.486692f, -0.507765f, 0.188803f, -0.126011f, -0.049956f, -0.373108f, -0.014806f, 0.246351f, 0.548311f, -0.036641f, 0.139830f, -0.175344f, 0.542466f},
  {0.163741f, -0.448420f, 0.520647f, 0.717682f, -0.943826f, -0.385270f, -0.155527f, -0.785382f, -0.299630f, 0.056255f, 0.723591f, 0.456496f, -0.517721f, -0.043602f, -0.867934f, -0.492747f, 0.429838f, 0.379892f, 0.095820f, -0.428228f, 0.185946f, -0.080084f, -0.556717f, -0.442898f, -0.383968f, -0.363739f, 0.776676f, -0.412998f, -0.067640f, 0.494396f, 0.020053f, 0.215320f},
  {0.982072f, -0.115483f, 0.103374f, 0.567725f, -0.863847f, -0.728914f, -0.115530f, -0.558045f, -0.156393f, -0.286190f, 0.271633f, 0.483677f, -0.211837f, 0.687102f, -0.247654f, -0.569392f, 0.261774f, 0.481019f, 0.000906f, -0.121167f, -0.534763f, 0.446076f, -0.836334f, -0.622109f, -0.535404f, -0.320647f, 0.862775f, 0.144578f, 0.303292f, 0.472556f, 0.055493f, 0.244200f},
  {-0.382381f, 0.476371f, -0.125480f, 0.698813f, -1.001584f, -0.823177f, -0.218251f, -0.545640f, -0.068794f, 0.887611f, -0.088419f, 0.119577f, 1.034213f, 0.105942f, 0.045356f, -0.013299f, -1.596635f, -0.326189f, -0.036426f, 0.277630f, 0.763779f, -0.205036f, -0.538043f, -0.079014f, -0.727248f, 0.297359f, -0.590796f, 0.069023f, 0.407797f, 0.153959f, -0.140686f, -0.056413f},
  {0.056785f, -0.087331f, 0.398194f, 0.559912f, -0.887521f, -0.678597f, -0.456424f, -0.121528f, -0.161430f, -0.159042f, 0.354105f, 0.883150f, 0.464139f, -0.144365f, -0.465342f, 0.030705f, 0.149061f, 0.254249f, 0.279924f, 0.479943f, 0.249198f, 0.536296f, -0.660913f, -0.499882f, -0.016603f, 0.316188f, -0.042529f, -0.015836f, -0.318647f, -0.454046f, 0.532044f, -0.012723f},
  {0.376317f, -0.388472f, 0.223969f, -0.359261f, -0.462952f, 0.176180f, -0.090822f, -0.010483f, -0.292400f, -0.052631f, -0.376991f, 0.898546f, -1.351680f, 0.408275f, 0.207591f, 0.108018f, -0.471074f, 0.562983f, 0.129346f, -0.580460f, 0.572856f, 0.311267f, 0.475848f, -0.444891f, 0.716254f, -0.151432f, -0.314783f, 0.066448f, 0.057123f, -0.150328f, 0.388785f, 0.238465f},
  {-0.757940f, 0.540548f, -0.073612f, 0.265680f, -0.480010f, 0.677470f, -0.086520f, -0.163329f, 0.552957f, 0.184958f, 0.209714f, -0.848097f, 0.533451f, 0.027425f, 0.049994f, -0.204682f, 0.461926f, -0.282127f, 0.264333f, -0.290120f, 0.615765f, -0.967811f, 0.285388f, 0.424885f, -0.460111f, -0.736970f, 0.225353f, -0.438722f, 0.592165f, 0.196786f, -0.297863f, 0.166606f},
  {0.608797f, -0.701726f, -0.103395f, -0.132291f, 0.076268f, -0.641126f, -0.589947f, -0.382921f, -0.488350f, -0.101207f, 0.125964f, 0.888045f, -0.365561f, 0.103643f, -0.118553f, 0.059847f, -0.298996f, 0.642974f, -0.496020f, -0.677059f, -0.027929f, 0.480288f, -0.353719f, -0.508387f, -0.145902f, -0.436149f, 0.148739f, 0.756507f, 0.035953f, -0.327472f, 0.006827f, -0.153210f},
  {0.347070f, -0.224800f, 0.177833f, 0.029240f, 0.411329f, -0.062571f, -0.032775f, 0.091738f, 0.450234f, 0.674893f, -0.468876f, 0.202242f, 0.432923f, -0.125047f, -0.574951f, -0.251237f, 0.453144f, 0.387101f, 0.365712f, 0.359453f, -0.093815f, 0.289422f, -0.580894f, -0.116525f, -0.649098f, 0.014095f, -0.287962f, -0.253110f, 0.173944f, 0.151722f, -0.199697f, -0.205575f},
  {-0.322636f, 0.290665f, 0.520912f, -0.297693f, -0.694198f, 0.176194f, 0.000621f, 0.126783f, 0.291193f, -0.173776f, -0.394809f, 0.386427f, -0.077520f, -0.013358f, -0.173170f, -0.198419f, -0.221894f, 0.269652f, 0.018959f, -0.228737f, 0.348623f, 0.325285f, 0.353592f, -0.191102f, -0.329970f, -0.008395f, -0.509580f, 0.011040f, -0.625555f, 0.278263f, -0.374446f, -0.077595f},
  {0.297347f, 0.319223f, -0.365854f, 0.692385f, 0.026996f, -0.611001f, -0.243948f, -0.224920f, -0.155846f, 0.146782f, -0.133819f, 0.213929f, 1.142069f, 0.221990f, -0.743617f, -0.012293f, 0.016329f, 0.095650f, -0.130424f, -0.139053f, -0.268342f, -0.015997f, -1.308101f, -0.237033f, -0.687023f, 0.073930f, 1.133222f, 0.094562f, 0.038099f, -0.451481f, -0.323365f, -0.429170f},
  {-0.353720f, 0.606315f, -0.334218f, 0.103424f, 0.075189f, -0.026633f, -0.641721f, -0.371607f, 0.280791f, 0.251901f, -0.073967f, -0.002356f, 0.215974f, 0.161098f, -0.312300f, 0.040202f, 0.016721f, 0.230578f, -0.414063f, -0.666958f, 0.422827f, -0.334956f, -0.902532f, -0.372029f, -0.938779f, -0.345447f, 0.586250f, 0.163998f, 0.318878f, 0.269354f, -0.295641f, -0.042877f},
  {0.350837f, 0.120126f, -0.139924f, 0.476982f, -0.507438f, -0.723143f, 0.306984f, 0.322120f, 0.380083f, 0.849229f, -0.199917f, -0.352344f, 0.423613f, 0.248967f, -0.159653f, 0.061819f, -0.640949f, 0.273394f, -0.121930f, 0.011177f, 0.372739f, -0.022849f, -1.416288f, -0.644206f, -0.791809f, 0.648889f, 0.507036f, 0.306024f, 0.650159f, 0.307640f, -0.531046f, -0.169262f},
  {-0.272084f, -0.487525f, -0.070806f, -0.442616f, -0.302269f, 0.381573f, 0.065178f, 0.483934f, -0.013214f, 0.468572f, 0.273365f, -0.583924f, -0.337691f, 0.099673f, 0.203192f, 0.513705f, -0.234717f, -0.604498f, 0.323658f, 0.051872f, -0.033707f, 0.712442f, 0.193970f, 0.213234f, 0.372952f, 0.421673f, -0.716724f, 0.574538f, 0.135947f, 0.550719f, -0.415336f, 0.221765f},
  {0.219120f, -0.345912f, 0.155181f, 0.006318f, 0.410872f, -0.165450f, 0.043476f, 0.014419f, 0.158172f, -0.495240f, 0.511957f, 0.292078f, -0.468577f, 0.302775f, -0.247764f, -0.302987f, 0.350059f, 0.013734f, -0.212380f, -0.818723f, -0.496965f, 0.572887f, 0.073739f, 0.115153f, -0.105575f, -0.021930f, -0.064057f, 0.350719f, -0.196747f, -0.327019f, -0.081076f, 0.356443f},
};

// LSTM OUTPUT Gate - Bias [32]
const float lstm_output_bias[32] = {
  -0.885313f, -2.167983f, -1.616056f, -1.861104f, -0.929532f, -0.128853f, -1.292428f, 0.216775f, -0.155325f, -0.120194f, -1.121127f, -0.953153f, -0.074498f, -1.746814f, -0.456827f, -2.754201f, -0.476600f, -1.072940f, -2.603821f, -1.280175f, -2.252725f, -1.464308f, 0.272718f, 0.673815f, -0.535582f, -0.380440f, -1.453809f, -1.591710f, -1.203156f, -2.754028f, -0.465122f, -0.004543f
};

// MLP MLP0 Gewichte [32][32]
const float mlp0_weights[32][32] = {
  {-0.070777f, -0.597807f, 0.074641f, -0.251156f, -0.142144f, -0.655731f, 0.233439f, -0.004418f, -0.652806f, 0.099401f, -0.004118f, 0.483358f, -0.546641f, 0.220440f, 0.125407f, 0.100412f, 0.081228f, -0.384072f, -0.059548f, -0.401654f, -0.029293f, 1.047290f, -0.843300f, -0.315453f, -0.255850f, -0.365111f, 0.878129f, 0.380165f, 0.147718f, 0.209201f, 0.383940f, 0.419392f},
  {0.311114f, 0.130375f, -0.363414f, 0.478667f, 0.011367f, 0.033568f, -0.196240f, -0.108415f, 0.323797f, 0.202303f, 0.075999f, 0.654253f, -0.081890f, -0.259488f, -0.032499f, -0.512652f, 0.708620f, 0.089203f, -0.299835f, -0.107680f, 0.237384f, -0.058570f, -0.017559f, -0.064787f, 0.065537f, 0.010046f, 0.204579f, -0.411827f, -0.391293f, -0.088019f, 0.136406f, -0.118814f},
  {-0.306356f, 0.177865f, -0.265238f, -0.059442f, -0.940784f, 0.202404f, 0.193318f, 0.363208f, 0.151703f, -0.101140f, 0.200776f, -0.240573f, -0.428080f, 0.101421f, -0.179090f, 0.123606f, -0.227807f, -0.163411f, 0.414851f, -0.014744f, 0.309812f, 0.069081f, -0.557065f, -0.178024f, -0.203845f, 0.195529f, -0.306143f, -0.116455f, -0.013207f, 0.215801f, -0.355613f, -0.123977f},
  {-0.041477f, 0.017731f, -0.019352f, 0.253794f, -0.756238f, 0.404840f, -0.244288f, 0.426178f, 0.232680f, 0.214135f, 0.268407f, -0.310917f, -0.064535f, 0.167614f, -0.127969f, -0.635183f, 0.426211f, -0.151940f, -0.327820f, 0.147052f, -0.296086f, -0.428567f, 0.052803f, -0.140419f, -0.249387f, -0.057636f, -0.296783f, -0.458704f, -0.611592f, 0.093576f, 0.074699f, -0.453628f},
  {0.449118f, -0.348715f, 0.033701f, 0.332169f, -0.067231f, 0.289599f, -0.144873f, 0.417449f, 0.108761f, 0.051254f, -0.351013f, 0.413894f, 0.303669f, 0.015712f, 0.433215f, -0.070790f, -0.109377f, 0.092172f, -0.098720f, 0.402444f, 0.176111f, 0.111689f, -0.373249f, -0.212772f, -0.249511f, 0.252111f, 0.499794f, 0.014380f, -0.410895f, -0.108632f, 0.018010f, -0.072820f},
  {0.282558f, -0.494960f, -0.055395f, 0.013362f, -0.012602f, -0.693404f, 0.353841f, 0.015263f, -0.044514f, -0.031878f, -0.087320f, 0.058051f, -0.063206f, 0.367908f, -0.302175f, 0.310780f, -0.107893f, 0.019505f, 0.504888f, 0.092449f, -0.182298f, -0.014196f, -0.231352f, -0.303290f, 0.059893f, 0.000157f, 0.253566f, 0.484776f, 0.139854f, -0.381280f, -0.063094f, 0.001245f},
  {0.665155f, -0.427516f, 0.069219f, 0.085778f, -0.665026f, -0.655014f, -0.734470f, -0.468763f, -0.311632f, -0.351706f, 0.408877f, 0.229403f, -0.346033f, -0.331968f, -0.469633f, -0.556069f, 0.317276f, 0.181292f, -0.269119f, -0.376825f, 0.291669f, -0.315100f, -0.518771f, -0.358694f, -0.233280f, -0.111377f, 0.691958f, -0.371801f, 0.401040f, 0.119910f, 0.432846f, 0.659249f},
  {0.035982f, 0.307780f, -0.011722f, -0.029273f, 0.205373f, 0.064926f, 0.464296f, -0.459225f, 0.261558f, -0.097481f, 0.158027f, -0.145348f, -0.439801f, 0.854351f, 0.251551f, -0.424625f, 0.066402f, 0.007604f, 0.800669f, -0.123268f, 0.094717f, -0.341016f, -0.358251f, -0.372168f, -0.202719f, 0.052920f, 0.426389f, 0.278901f, -0.386839f, -0.223624f, -0.191307f, -0.163242f},
  {-0.183530f, 0.384394f, -0.421596f, 0.034618f, -0.695772f, -0.412616f, -0.362815f, 0.219655f, 0.076188f, 0.049355f, -0.301000f, 0.070228f, 0.089110f, -0.101773f, 0.101879f, -0.298223f, 0.095689f, -0.297442f, 0.229391f, -0.187367f, 0.130730f, -0.442098f, -0.057762f, -0.074697f, -0.664456f, -0.293306f, 0.981085f, -0.494119f, -0.482639f, 0.086425f, 0.182254f, 0.381552f},
  {0.319101f, -0.304038f, 0.363480f, 0.193588f, -0.608434f, -0.628194f, -0.470438f, -0.711575f, -0.284092f, -0.318778f, 0.694391f, 0.448273f, -0.133042f, -0.384877f, -0.915351f, -0.207036f, 0.063085f, 0.136897f, 0.007149f, -0.177620f, -0.102871f, -0.348115f, -0.532977f, -0.438757f, -0.240580f, -0.393713f, 0.078319f, 0.070983f, 0.561357f, 0.319016f, 0.100340f, 0.414249f},
  {-0.109908f, -0.128654f, -0.281644f, -0.438752f, 0.189146f, 0.413104f, 0.316489f, 0.390734f, 0.087699f, 0.285957f, 0.116337f, -0.212277f, 0.160858f, 0.255727f, 0.220980f, 0.207893f, -0.296262f, -0.116101f, 0.133875f, 0.111991f, 0.084000f, 0.019299f, 0.158733f, 0.140313f, 0.172474f, 0.348726f, 0.124827f, 0.176365f, -0.052432f, 0.115349f, 0.078638f, -0.177586f},
  {0.365079f, -0.034844f, -0.434370f, 0.377988f, -0.357926f, -0.098388f, -0.207756f, 0.357089f, 0.158248f, 0.753588f, -0.018168f, -0.119442f, 0.105372f, -0.046555f, 0.068947f, 0.266368f, -0.293070f, 0.450762f, 0.507931f, 0.225407f, -0.076344f, -0.014856f, 0.189057f, 0.075316f, 0.183751f, 0.071039f, 0.021700f, -0.097756f, -0.299170f, -0.316279f, 0.192475f, -0.116938f},
  {-0.124121f, -0.363485f, 0.714469f, 0.693283f, -0.746143f, -0.158696f, 0.067644f, -0.223713f, 0.199934f, 0.062945f, 0.366185f, 0.453724f, -0.456050f, -0.082755f, -0.653395f, -0.180549f, 0.904215f, 0.123323f, 0.131345f, 0.004479f, 0.007471f, -0.854435f, -0.097355f, -0.181589f, -0.220628f, 0.101702f, 0.591351f, -0.382635f, -0.132343f, 0.198143f, -0.034229f, -0.079050f},
  {-0.204081f, -0.102638f, -0.377696f, 0.088281f, -0.158078f, 0.202159f, -0.221647f, 0.477258f, 0.217297f, 0.291077f, -0.165643f, 0.016513f, 0.251060f, -0.035239f, 0.376504f, -0.122174f, -0.528327f, -0.065140f, 0.306737f, 0.486108f, -0.333023f, -0.091229f, 0.146159f, 0.376523f, 0.371756f, 0.153757f, 0.006761f, -0.197496f, -0.399005f, -0.378458f, -0.150942f, 0.003495f},
  {0.142000f, -0.490902f, -0.012784f, 0.361746f, -0.070221f, -0.280187f, 0.039913f, -0.602796f, 0.193225f, 0.647776f, 0.008235f, -0.133932f, 0.415277f, -0.226585f, -0.211828f, 0.235036f, -0.051215f, 0.236844f, -0.207626f, 0.217962f, 0.191500f, -0.247529f, -0.430577f, 0.082822f, -0.522956f, 0.269463f, 0.217301f, -0.036458f, -0.473696f, -0.251220f, 0.206406f, -0.089733f},
  {-0.071858f, 0.073620f, -0.640536f, 0.406891f, 0.353895f, 0.063203f, -0.199428f, -0.106837f, 0.038932f, 0.911550f, -0.414678f, 0.026728f, 0.116151f, -0.180359f, -0.044494f, 0.010143f, 0.099607f, 0.039768f, 0.337385f, 0.262321f, 0.131276f, -0.227933f, 0.156429f, 0.355386f, 0.272458f, 0.158690f, -0.560115f, -0.271764f, -0.526854f, 0.583982f, -0.022836f, -0.003663f},
  {0.260784f, -0.212120f, 0.148319f, 0.359697f, -0.323246f, -0.129460f, -0.057006f, -0.505458f, -0.474133f, 0.199175f, -0.114668f, 0.304767f, 0.646146f, 0.309457f, -0.668815f, -0.159129f, 0.204888f, 0.175596f, -0.137955f, 0.149802f, -0.273985f, 0.291888f, -0.562530f, -0.254725f, -0.994697f, -0.161207f, 0.383336f, 0.233623f, 0.106594f, 0.066998f, 0.211699f, 0.037662f},
  {0.238515f, -0.271802f, -0.101624f, -0.476761f, -0.121253f, -0.987933f, 0.238135f, 0.143038f, -0.163135f, -0.209258f, 0.311839f, 0.059674f, -0.491507f, 0.291308f, -0.048478f, -0.195028f, -0.500783f, 0.552997f, 0.084133f, -0.125768f, 0.277003f, 0.030111f, -0.591645f, -0.164790f, -0.096169f, 0.208589f, 1.379808f, -0.062391f, 0.620500f, 0.458385f, 0.164390f, -0.094646f},
  {-0.075238f, 0.007514f, -0.054555f, 0.083972f, -0.212276f, 0.472129f, 0.088385f, 0.447663f, 0.271234f, -0.123232f, -0.227815f, 0.016274f, 0.201236f, 0.133168f, 0.015905f, -0.362945f, -0.365820f, 0.143919f, -0.122045f, 0.690946f, -0.130604f, -0.125172f, 0.136540f, 0.165165f, -0.053897f, 0.706475f, 0.259592f, 0.031685f, -0.253797f, -0.105979f, -0.439152f, -0.314082f},
  {0.249552f, -0.115398f, 0.357326f, -0.169401f, -0.632463f, -0.679655f, -0.022029f, -0.179174f, -0.293794f, -0.257835f, 0.307781f, 0.223972f, -0.635233f, 0.334423f, 0.076125f, -0.011834f, -0.038167f, 0.415220f, -0.186275f, -0.505461f, 0.002828f, 0.185527f, -0.402752f, -0.490308f, -0.210445f, -0.103000f, 1.144327f, -0.102160f, 0.417553f, 0.044702f, 0.317150f, 0.579353f},
  {-0.018366f, -0.386806f, -0.142475f, -0.359670f, -0.443005f, -0.902809f, -0.269342f, -0.051191f, -0.237132f, 0.027107f, 0.204408f, 0.121453f, 0.097254f, 0.014391f, -0.361360f, 0.307119f, 0.048507f, 0.091365f, 0.240458f, -0.263533f, -0.383660f, 0.033248f, -0.907002f, 0.313852f, -0.720376f, -0.166457f, 0.216450f, 0.508068f, 0.122854f, 0.119162f, 0.084316f, 0.255728f},
  {-0.711401f, 0.049290f, -0.424469f, 0.552799f, -0.146313f, 0.887184f, 0.574895f, 0.664758f, 0.402707f, 0.080363f, 0.136288f, -0.424695f, 0.507356f, 0.206789f, 0.407925f, 0.369124f, 0.032797f, -0.735203f, -0.024790f, -0.043863f, 0.331687f, -0.022840f, 0.707174f, 0.805873f, 0.102422f, 0.208444f, -0.535707f, -0.648140f, -0.275619f, 0.465820f, -0.728614f, -0.138348f},
  {0.256838f, -0.315556f, 0.398058f, -0.061107f, -0.760982f, -0.837114f, -0.318768f, -0.548293f, -0.492275f, -0.309212f, 0.250108f, 0.711692f, -0.260010f, 0.002611f, -0.493730f, -0.309039f, -0.026058f, 0.114241f, -0.134508f, -0.191565f, 0.211850f, 0.097019f, -0.507247f, -0.505668f, -0.035657f, -0.504567f, 0.522610f, 0.067077f, 0.245489f, 0.249609f, 0.013736f, 0.441288f},
  {0.228817f, -0.024287f, 0.380638f, 0.199330f, 0.315137f, -0.330533f, 0.281962f, -0.232446f, -0.103470f, 0.043403f, 0.093836f, -0.309883f, -0.354301f, 0.252475f, -0.495643f, -0.389073f, 0.145508f, 0.095485f, -0.000642f, -0.143676f, 0.137105f, 0.160192f, -0.876728f, 0.287001f, -0.169820f, 0.112815f, 0.571107f, -0.200317f, 0.060788f, -0.136972f, -0.023885f, -0.023649f},
  {-0.319497f, -0.284638f, 0.198215f, -0.364556f, -0.021385f, -0.052741f, -0.339884f, 0.046807f, 0.137644f, -0.113834f, -0.148407f, 0.061547f, 0.143492f, -0.150935f, -0.165181f, -0.089670f, -0.255712f, -0.177837f, 0.216992f, -0.208714f, -0.333830f, 0.176056f, 0.099386f, 0.098452f, 0.096786f, 0.167980f, -0.000250f, 0.070764f, 0.188390f, 0.252930f, -0.323294f, -0.054212f},
  {-0.104571f, -0.202320f, -0.439232f, 0.025975f, -0.664210f, 0.320398f, 0.784622f, 0.551630f, -0.032244f, 0.183681f, -0.072844f, -0.327529f, 0.450079f, -0.088607f, 0.178733f, 0.204126f, -0.367521f, -0.344827f, 0.083072f, 0.201074f, -0.109852f, 0.304462f, 0.134548f, -0.199360f, -0.560813f, -0.077851f, -0.423625f, -0.134725f, -0.356597f, -0.047082f, -0.339281f, -0.255955f},
  {0.588670f, 0.006694f, 0.192891f, 0.331602f, -0.127860f, -0.614450f, 0.132947f, -0.224228f, -0.033952f, 0.254736f, 0.344884f, 0.302781f, 0.251675f, -0.182788f, -0.129707f, -0.256861f, 0.442228f, 0.296386f, 0.657004f, 0.038111f, 0.349084f, -0.543002f, -0.706878f, -0.066450f, -0.819489f, -0.518338f, 0.378637f, -0.337700f, 0.089765f, 0.255285f, 0.058286f, 0.109994f},
  {0.252995f, -0.326944f, 0.225886f, -0.257377f, -0.246729f, 0.305057f, 0.498543f, 0.189382f, 0.197329f, -0.340133f, 0.121078f, 0.492966f, -0.201840f, 1.320297f, 0.220733f, -0.015765f, 0.150392f, 0.799945f, -0.135706f, -0.342020f, 0.313956f, 0.761762f, 0.500646f, -0.329956f, 0.132781f, 0.200435f, 0.574371f, 0.027828f, 0.035978f, -0.422250f, -0.293657f, 0.158881f},
  {-0.011855f, 0.072407f, -0.632269f, 0.302540f, -0.719379f, -0.122024f, 0.197908f, 0.315189f, 0.239529f, -0.169990f, 0.585573f, 0.179812f, 0.156083f, -0.020667f, 0.007500f, 0.370675f, -0.634137f, -0.401541f, -0.085555f, -0.191562f, -0.193145f, 0.028360f, 0.101481f, -0.067919f, 0.071393f, -0.234361f, 0.078222f, -0.090719f, -0.327297f, -0.024231f, -0.324088f, -0.244188f},
  {0.340616f, -0.186471f, 0.051243f, -0.142394f, 0.048871f, 0.126964f, -0.155244f, -0.083865f, -0.027816f, -0.109400f, 0.110229f, 0.183076f, 0.162951f, -0.041180f, -0.015292f, -0.045549f, -0.401666f, 0.061232f, 0.134562f, 0.096173f, -0.092711f, -0.225141f, -0.008133f, -0.010416f, -0.167348f, 0.100988f, 0.063086f, 0.110573f, -0.017460f, 0.399716f, -0.005581f, -0.150373f},
  {0.318215f, -0.012995f, 0.114004f, -0.037087f, 0.194469f, 0.067401f, 0.722772f, 0.015519f, 0.150053f, 0.479721f, -0.046772f, 0.177228f, -0.055272f, -0.349835f, -0.003571f, -0.110806f, 0.399462f, -0.261228f, -0.073506f, -0.269868f, 0.321079f, -0.248762f, 0.023179f, -0.041479f, -0.047220f, -0.183035f, 0.275390f, -0.047877f, 0.051249f, -0.160866f, -0.184497f, -0.027146f},
  {-0.160895f, 0.316303f, -0.357623f, 0.235755f, -0.379799f, 0.657961f, 0.576450f, 0.840238f, 0.387657f, 0.080819f, 0.049551f, -0.159016f, 0.531309f, 0.438646f, 0.335783f, 0.108631f, -0.134678f, -0.183055f, 0.001875f, 0.502024f, -0.110761f, -0.201770f, 0.417690f, 0.602073f, -0.034330f, 0.636080f, 0.119329f, -0.247075f, -0.400691f, 0.437766f, -0.494931f, -0.209651f},
};

// MLP MLP0 Bias [32]
const float mlp0_bias[32] = {
  -0.044985f, -0.235715f, -0.142207f, -0.385655f, -0.309601f, -0.350098f, -0.114278f, -0.337414f, -0.571960f, -0.128498f, -0.059743f, -0.230815f, -0.325184f, -0.193740f, -0.224389f, -0.069453f, -0.111936f, -0.199859f, -0.029489f, -0.097013f, -0.333044f, 0.296065f, -0.143215f, -0.143374f, -0.188903f, -0.299834f, -0.235406f, -0.064308f, -0.435865f, -0.333335f, -0.429564f, 0.091528f
};

// MLP MLP3 Gewichte [32][32]
const float mlp3_weights[32][32] = {
  {-0.356407f, -0.478098f, 0.000136f, 0.396565f, -0.119676f, -0.571359f, -1.988923f, -0.402759f, -0.408138f, -2.216774f, 0.519230f, 0.148664f, 0.149257f, 0.272148f, -0.479245f, 0.499407f, -0.784145f, -0.474568f, 0.081312f, -0.349507f, -0.820263f, -1.681349f, -3.112818f, -0.083692f, 0.371183f, 0.104108f, -0.410113f, 0.426714f, -0.085513f, -0.216776f, 0.106395f, 0.356424f},
  {-0.568541f, -0.246965f, 0.172011f, 0.052175f, 0.181449f, -0.707844f, -2.863928f, 0.028702f, -0.008644f, -1.655610f, 0.798272f, 0.432892f, -0.268800f, 0.529925f, 0.457727f, 0.736270f, -0.526936f, -0.854326f, 0.578809f, -0.709572f, -0.279683f, -0.199082f, -1.152993f, 0.199378f, 0.213943f, 0.053045f, -0.867693f, 0.126744f, 0.052583f, -0.130469f, -0.007902f, -1.453924f},
  {0.218814f, -0.252212f, -0.249475f, -0.066532f, -0.007584f, -0.136602f, 0.220204f, -0.020387f, 0.294584f, 0.140326f, -0.472002f, -1.606084f, 0.123495f, -1.611197f, -0.689477f, -0.527823f, -0.034523f, 0.043973f, -0.495678f, 0.046806f, 0.064334f, -0.580428f, 0.009623f, -0.298417f, -0.114892f, -0.617150f, -0.095643f, 0.111078f, 0.082060f, 0.029459f, -0.309534f, -1.005323f},
  {0.008029f, 0.128547f, -0.516816f, 0.542915f, 0.270222f, -0.106734f, 0.158215f, -0.172644f, -0.011190f, 0.223814f, -1.439550f, -2.977844f, -0.261791f, -0.197576f, -1.039144f, -1.488029f, -0.225583f, -0.604031f, -1.906326f, 0.277084f, 0.106716f, -1.228029f, 0.274238f, -0.147168f, -0.951752f, -0.043336f, 0.207552f, -1.389834f, 0.045567f, -0.076571f, 0.130203f, -1.350892f},
  {0.260611f, 0.175614f, -0.421579f, 0.063240f, -0.135590f, 0.075249f, 0.013471f, -0.373156f, -0.199220f, 0.166145f, 0.051542f, -0.889986f, -0.278054f, -1.387283f, 0.315365f, -0.832541f, 0.268340f, -0.016283f, -0.601272f, 0.149761f, -0.166514f, -0.195719f, 0.209177f, -0.089867f, -0.024801f, -0.635530f, 0.176378f, 0.556423f, -0.485141f, 0.259112f, -0.530386f, -0.390866f},
  {-0.125077f, -0.212914f, 0.126046f, 0.075378f, -0.077335f, -1.355960f, -0.682179f, -0.211870f, -0.150265f, -0.379324f, 0.198124f, -0.103772f, 0.092764f, 0.362932f, -0.040356f, 0.200207f, -0.849801f, -0.244602f, 0.290151f, -0.221292f, -0.526448f, -2.348056f, -1.453304f, 0.461524f, 0.075861f, 0.066892f, -0.519496f, 0.207951f, -0.116924f, 0.277057f, 0.003794f, 0.373964f},
  {0.313848f, -0.239283f, -0.460124f, -0.165409f, -0.329979f, -0.215389f, 0.612072f, 0.221205f, -0.225462f, 0.182351f, -0.224114f, -1.194228f, 0.358434f, 0.212249f, -1.676972f, -0.259892f, 0.320721f, -0.274705f, -0.965749f, -0.143377f, -0.517429f, -1.627928f, -0.377237f, -0.310099f, -0.762584f, -0.419495f, 0.062118f, -0.202668f, -0.431680f, -0.030670f, 0.097598f, -0.369178f},
  {-0.933810f, -0.027594f, 0.163862f, 0.109421f, -0.134823f, -0.493634f, -1.079567f, -0.124142f, -0.357456f, -0.888543f, -0.100797f, 0.157664f, -0.126475f, 0.307301f, -0.230560f, -0.049536f, -0.411062f, -0.403625f, 0.149002f, -2.128038f, -0.787087f, 0.284771f, -0.555819f, -0.127738f, -0.050279f, -0.006166f, -0.470548f, -0.347840f, 0.244598f, 0.016829f, 0.109551f, 0.309224f},
  {-0.539876f, -0.226076f, -0.111178f, 0.230842f, 0.110333f, 0.037052f, 0.128272f, 0.133381f, 0.128059f, -0.740525f, -0.947607f, -0.271408f, 0.067005f, -0.338910f, -0.081955f, -0.840211f, 0.475319f, -0.003132f, -1.433260f, 0.113954f, -0.044028f, -0.261673f, 0.689882f, -0.120486f, 0.340913f, -0.260079f, 0.245066f, -0.039257f, -0.155200f, 0.220036f, 0.082153f, -0.779678f},
  {-0.743486f, -0.093655f, -0.064382f, 0.413441f, 0.130006f, -0.447455f, -0.578205f, -0.332679f, 0.085825f, -0.660916f, -0.061797f, -0.312466f, -0.248691f, -0.108527f, -0.141989f, 0.106471f, -0.653501f, -0.216439f, -0.179387f, -0.784091f, -0.923711f, 0.555220f, -0.587618f, 0.069146f, -0.128662f, -0.095180f, -0.886190f, -0.303796f, 0.067533f, -0.095365f, -0.013799f, -0.105218f},
  {-0.385901f, 0.020046f, -0.206692f, 0.248732f, -0.146451f, -0.593169f, -0.965441f, -0.108334f, -0.279605f, -0.890548f, 0.276219f, 0.190686f, 0.138806f, 0.259651f, -0.357288f, -0.152634f, -0.661718f, -0.291358f, 0.319775f, -0.792526f, -0.467553f, 0.307085f, -0.713124f, 0.087913f, -0.292702f, 0.160593f, -0.618489f, -0.106337f, 0.082435f, -0.246000f, -0.109606f, 0.194333f},
  {0.363937f, 0.662528f, -0.169180f, 0.411497f, -0.287916f, -0.189675f, -0.812783f, 0.262933f, 0.232634f, 0.382067f, -0.826099f, -1.317378f, 0.194161f, -0.376180f, -0.993462f, -1.038177f, 0.426091f, -0.014621f, -0.563401f, 0.144962f, -0.124254f, -0.293652f, -0.049316f, -0.270860f, 0.747996f, -0.732925f, 0.022172f, -0.001450f, -0.546591f, 0.027964f, -0.370624f, -0.666606f},
  {0.091419f, -0.327973f, -0.075518f, -0.358788f, -0.644160f, -0.005685f, 0.277462f, -0.456653f, 0.190003f, 0.056910f, -0.414924f, -1.529905f, -0.029864f, -1.276038f, -1.317876f, -0.527438f, 0.333836f, -0.232453f, -0.487430f, 0.344914f, -0.289875f, -0.545498f, 0.018672f, -0.528632f, -1.066864f, -0.443332f, 0.284399f, 0.018501f, -0.342504f, -0.261787f, -0.002117f, -0.981353f},
  {0.021985f, -0.043460f, -0.392800f, -0.127658f, 0.395207f, -0.189740f, 0.276491f, -0.085035f, 0.307321f, 0.389877f, -1.139102f, -1.902193f, 0.240096f, -0.411575f, -0.975193f, -0.736732f, 0.122371f, -0.239934f, -1.575328f, 0.437896f, -0.412013f, -0.603932f, -0.111638f, -0.197832f, -0.256973f, 0.097487f, 0.393143f, 0.368321f, 0.021564f, 0.100299f, 0.159320f, -2.274127f},
  {-0.638972f, -0.190868f, 0.172334f, 0.144484f, -0.266014f, -0.268158f, -0.657220f, 0.373399f, 0.101305f, -1.064696f, 0.156297f, 0.252804f, 0.040410f, 0.103758f, -0.169708f, 0.278522f, -0.380702f, 0.132020f, -0.000159f, -0.423056f, -0.099747f, 0.246520f, -0.639356f, 0.056174f, 0.249861f, 0.327177f, -0.393205f, -0.082964f, -0.052576f, -0.086263f, -0.236605f, 0.295896f},
  {-0.160696f, -0.007005f, 0.310027f, 0.495099f, 0.116577f, -0.357336f, -0.784581f, -0.144179f, -0.126208f, -0.721263f, 0.241665f, 0.049349f, 0.204113f, -0.026963f, -0.419490f, -0.191838f, -0.669312f, -0.104412f, 0.181937f, -0.453639f, -0.227631f, 0.299171f, -1.096841f, -0.114553f, 0.014799f, -0.135850f, -0.485985f, -0.143014f, -0.035450f, -0.169103f, 0.066190f, 0.299183f},
  {-0.205315f, -0.078325f, 0.458659f, 0.495435f, 0.146282f, -0.591940f, -0.901401f, -0.121501f, -0.224231f, -0.636068f, -0.046595f, 0.086649f, 0.318426f, 0.023473f, -0.255862f, 0.278206f, -0.521030f, -0.038722f, 0.441559f, -0.446808f, -0.378187f, 0.311556f, -1.645577f, 0.326762f, -0.148352f, 0.077907f, 0.102353f, -0.192755f, 0.140751f, 0.130357f, -0.024792f, 0.105314f},
  {0.009401f, -0.151909f, 0.094267f, 0.155165f, 0.139577f, -0.185565f, -0.951211f, 0.369828f, -0.460505f, -1.010155f, -0.190271f, -0.002184f, -0.394294f, 0.003833f, -0.288406f, 0.046210f, -0.565283f, 0.029662f, -0.264619f, 0.275667f, -0.243582f, 0.415580f, -0.976020f, 0.185052f, 0.000824f, -0.196836f, -0.847520f, 0.066357f, 0.047816f, 0.175095f, -0.015646f, 0.350974f},
  {0.204391f, -0.321449f, -0.479742f, 0.370923f, -0.112595f, -0.042269f, 0.298879f, 0.110896f, 0.359024f, 0.224977f, -1.345870f, -0.793928f, 0.094021f, -0.505348f, -0.712650f, -0.735282f, 0.191727f, -0.464839f, -0.775923f, 0.165170f, 0.040786f, -0.747419f, -0.048155f, -0.072729f, 0.443987f, -0.336455f, -0.014425f, -0.926827f, -0.415921f, 0.125090f, 0.145044f, -1.977872f},
  {-0.042418f, -0.559526f, -0.064633f, 0.141808f, 0.065116f, -0.347278f, -1.091626f, 0.048208f, -0.282825f, -0.382279f, 0.046931f, 0.244465f, -0.051570f, -0.163189f, -0.535037f, -0.075148f, -0.789297f, -0.023920f, -0.016382f, -0.092290f, -0.094325f, 0.332728f, -0.742694f, 0.021812f, -0.171019f, -0.043293f, -0.715961f, -0.210323f, -0.148642f, -0.184340f, 0.035669f, 0.382578f},
  {-0.017819f, 0.289802f, 0.063373f, 0.558885f, 0.390791f, -0.296941f, 0.216029f, 0.229372f, -0.117161f, 0.110277f, -0.400457f, -2.556253f, -0.031335f, -0.642816f, -1.153015f, -0.840374f, 0.205522f, 0.246383f, -0.927771f, 0.219007f, 0.027789f, -0.667775f, 0.325533f, -0.201248f, -0.822646f, -0.360832f, -0.087756f, 0.278716f, -0.262878f, 0.219475f, -0.226465f, -1.321264f},
  {0.554862f, 0.356850f, -0.392872f, -0.171833f, -0.189204f, 0.097969f, -0.049695f, 0.568158f, 0.295109f, -0.046963f, -0.643212f, -0.588642f, 0.086996f, -0.601184f, -1.225731f, -0.807013f, -0.078211f, -0.051532f, -1.608065f, -0.701153f, -0.044132f, -0.221295f, 0.558741f, -0.093429f, 0.333928f, 0.140912f, -0.001827f, 0.634780f, -0.208186f, -0.333532f, -0.153342f, -1.670860f},
  {-0.118715f, 0.117158f, -0.151800f, -0.523127f, -1.042408f, 0.022684f, 0.179919f, -0.284660f, -0.141833f, 0.034750f, -1.086472f, -2.083306f, 0.372432f, -0.973240f, -1.976541f, -1.506342f, -0.054114f, -0.040774f, -1.307853f, 0.355261f, 0.095818f, -0.676664f, 0.091403f, -0.593355f, 0.409343f, -0.435755f, -0.173412f, -1.713161f, 0.079469f, -0.379464f, -0.230313f, -2.512132f},
  {0.209354f, -0.170940f, -0.306624f, -2.007130f, -1.013165f, 0.423984f, 0.050091f, -0.226418f, -0.175777f, 0.261963f, -1.619862f, -3.657395f, 0.343113f, -1.025280f, -3.103825f, -1.575041f, -0.037870f, 0.139372f, -1.487205f, 0.228261f, -0.411472f, -1.119730f, 0.126684f, -0.154737f, -0.546745f, -0.086511f, -0.165351f, -0.175668f, 0.080443f, -0.026411f, -0.043003f, -3.984071f},
  {0.514567f, 0.136474f, -0.404419f, 0.022672f, 0.113199f, 0.197756f, 0.366510f, 0.214868f, 0.069281f, 0.057404f, -0.587792f, -1.493681f, -0.105752f, -0.681262f, -1.320318f, -1.080052f, 0.519967f, -0.220719f, -0.774924f, -0.331214f, 0.053361f, -0.050333f, -0.738098f, -0.179261f, 0.642044f, -0.304134f, 0.062312f, -0.014178f, -0.011897f, 0.066550f, -0.276879f, -1.026910f},
  {-0.494911f, 0.107688f, 0.016680f, -0.292507f, -0.959091f, 0.192460f, 0.210881f, -0.279661f, 0.057245f, 0.311225f, -2.052854f, -1.415157f, 0.534265f, -1.119029f, -0.455852f, -1.151826f, 0.058315f, 0.238667f, -1.178184f, -0.109319f, 0.128053f, -1.747346f, 0.024898f, 0.100071f, -0.678149f, -0.326276f, -0.069430f, -0.257474f, 0.125812f, 0.049123f, 0.128097f, -1.581454f},
  {-0.043901f, -0.001709f, -0.006631f, 0.505982f, 0.201072f, -0.410152f, -0.418211f, -0.157380f, -0.293361f, -0.566000f, 0.008843f, -0.531208f, -0.208861f, -0.485872f, -0.380785f, 0.153039f, -0.170723f, -0.594529f, -0.579503f, -0.318650f, -0.633473f, 0.532463f, -0.405220f, 0.047665f, 0.438388f, -0.037568f, -0.602670f, 0.167986f, 0.405670f, -0.166090f, 0.021903f, 0.083315f},
  {-0.003621f, -0.116807f, -0.248604f, -0.007959f, -0.176381f, -0.544407f, -0.548793f, -0.208401f, -0.470651f, -0.457114f, -0.446889f, -0.107691f, -0.519152f, -0.240897f, -0.464835f, -0.362965f, -0.140445f, 0.099720f, -0.290288f, 0.216557f, -0.558805f, 0.604361f, -0.464556f, -0.170498f, -0.567163f, 0.008642f, -0.475503f, 0.163405f, 0.262057f, 0.292227f, -0.314882f, 0.053331f},
  {-0.312642f, 0.031977f, 0.152523f, 0.487034f, 0.118400f, -0.460903f, -1.406123f, -0.019469f, -0.019453f, -0.943655f, 0.033247f, 0.225578f, 0.158855f, 0.403589f, 0.011096f, 0.198807f, -0.507918f, -0.290152f, 0.393552f, -0.560171f, -0.574919f, 0.152669f, -1.926571f, -0.144095f, 0.167363f, 0.149334f, -0.233779f, 0.199315f, 0.162065f, 0.213216f, 0.079798f, 0.152175f},
  {-0.157450f, -0.128775f, 0.067227f, 0.064769f, -0.119348f, -0.322583f, -0.930588f, -0.161550f, -0.182324f, -1.150260f, 0.252544f, 0.038675f, 0.179705f, 0.149366f, -0.462380f, 0.082877f, -0.331339f, 0.042072f, 0.179020f, -0.457570f, -0.669451f, 0.366678f, -0.486817f, 0.105416f, -0.002713f, -0.099239f, -0.814101f, -0.023419f, 0.129595f, 0.118175f, -0.110120f, 0.106819f},
  {-0.355366f, -0.050967f, -0.217159f, 0.223485f, 0.207071f, 0.087521f, -0.298789f, -0.052706f, 0.089813f, 0.399978f, -0.306519f, 0.130052f, -0.064521f, -0.740850f, -0.080223f, -0.715611f, 0.177825f, -0.178656f, -1.517702f, 0.308117f, -0.181212f, -0.431769f, 0.518950f, -0.431019f, -1.192968f, -0.438875f, 0.219474f, 0.391055f, -0.235617f, 0.187751f, 0.032144f, -1.089030f},
  {0.344127f, 0.115212f, -0.359769f, -0.135195f, -0.135950f, 0.014790f, 0.238154f, -0.442965f, 0.054269f, -0.088850f, -0.070400f, -1.264803f, 0.090533f, -1.410140f, 0.147098f, -0.677612f, 0.065169f, 0.139059f, -0.812347f, 0.078883f, 0.053877f, -0.265467f, 0.113971f, -0.415491f, -0.436779f, -0.748764f, -0.171107f, 0.213080f, -0.254607f, 0.305492f, -0.258944f, -0.630440f},
};

// MLP MLP3 Bias [32]
const float mlp3_bias[32] = {
  0.193977f, 0.068015f, 0.249246f, 0.027040f, 0.217613f, 0.176715f, -0.019319f, -0.004138f, 0.006050f, -0.115241f, -0.009065f, -0.005075f, 0.156830f, 0.085613f, -0.022142f, 0.002160f, 0.053810f, -0.065506f, 0.104734f, -0.048146f, 0.147429f, 0.052995f, 0.135678f, 0.152399f, -0.038049f, 0.038765f, -0.111302f, -0.114936f, 0.119321f, -0.025129f, 0.120940f, 0.245116f
};

// MLP MLP6 Gewichte [1][32]
const float mlp6_weights[1][32] = {
  {0.515886f, 0.638005f, -0.140773f, -0.086496f, -0.130799f, 0.567426f, -0.175399f, 0.138417f, -0.522559f, 0.184087f, 0.142639f, -0.419470f, -0.136958f, -0.131003f, 0.138165f, 0.131364f, 0.126272f, 0.138812f, -0.110514f, 0.144073f, -0.138107f, -0.251259f, -0.068027f, -0.135493f, -0.416297f, -0.186363f, 0.165201f, 0.205292f, 0.143303f, 0.137247f, -0.155415f, -0.129740f},
};

// MLP MLP6 Bias [1]
const float mlp6_bias[1] = {
  0.331477f
};

// Modell-Informationen
#define TOTAL_PARAMETERS 6881
#define MEMORY_USAGE_KB 26.88
#define MEMORY_USAGE_PERCENT 84.0

#endif // LSTM_WEIGHTS_EXACT_H
