/* MLP FP32 Weights for SOH head: ReLU -> Linear */
#ifndef MLP_WEIGHTS_FP32_SOH_H
#define MLP_WEIGHTS_FP32_SOH_H

#include <stdint.h>

#define MLP0_OUT_DIM 128
#define MLP0_IN_DIM 128
#define MLP1_OUT_DIM 1
#define MLP1_IN_DIM 128

static const float MLP0_WEIGHT[MLP0_OUT_DIM][MLP0_IN_DIM] = {
  {1.46609489e-02f, 1.89111456e-01f, 1.46003783e-01f, -1.39575424e-02f, 1.94156393e-01f, 2.42912441e-01f, -1.38715118e-01f, -1.25640497e-01f, 1.55998975e-01f, 1.57088116e-01f, 1.11462533e-01f, -4.50389236e-02f, 4.37453315e-02f, 1.97616309e-01f, -1.35114133e-01f, -1.76420256e-01f, -2.97789365e-01f, -7.75231868e-02f, 4.03395593e-02f, -6.06728867e-02f, -8.56065303e-02f, -1.14842258e-01f, 9.09480453e-02f, -9.86861736e-02f, -1.52853191e-01f, -2.82729924e-01f, -1.33050054e-01f, 6.33656373e-03f, -1.61538348e-02f, 8.03256258e-02f, 1.18454434e-01f, 4.05734628e-02f, 9.85028893e-02f, 1.57041490e-01f, -6.20698221e-02f, -2.47154325e-01f, -2.55140752e-01f, -7.88377449e-02f, 3.19570452e-02f, -1.87174720e-03f, 9.61474776e-02f, -3.18018869e-02f, 1.09711923e-01f, 1.42254174e-01f, 3.26200098e-01f, -3.32737453e-02f, -7.62585551e-02f, 1.51164934e-01f, 1.59427691e-02f, -1.94577798e-01f, -1.52805686e-01f, 2.23879308e-01f, -7.71853030e-02f, -6.43672273e-02f, -8.83605927e-02f, 1.75586306e-02f, -2.98984110e-01f, -1.78578570e-02f, -1.23454340e-01f, -2.08533090e-02f, -2.01863963e-02f, -1.90507486e-01f, -1.66286007e-02f, -1.33974299e-01f, 1.32115215e-01f, -1.90411076e-01f, -2.34558024e-02f, 8.27356651e-02f, -4.81574684e-02f, -5.98649867e-02f, -2.24329025e-01f, 3.39121674e-04f, -1.70765564e-01f, 2.13898625e-03f, 1.40531898e-01f, -3.51613611e-02f, 1.59486279e-01f, 1.46947861e-01f, 3.75777632e-02f, -2.52188236e-01f, 2.38331482e-01f, -7.77542144e-02f, -1.89193800e-01f, 4.94315833e-01f, -2.85430606e-02f, -2.84715384e-01f, -9.24916640e-02f, -1.61689386e-01f, 4.26034302e-01f, -3.92051786e-03f, -2.85767049e-01f, -1.06384926e-01f, -5.95626682e-02f, -7.59818330e-02f, -4.33017202e-02f, -2.87325174e-01f, -6.69666305e-02f, -1.00282719e-02f, -8.87714140e-03f, -1.05905682e-01f, 1.65238768e-01f, -1.74525842e-01f, 4.68192510e-02f, 1.28185287e-01f, 3.25081795e-01f, 6.01475202e-02f, -6.53206855e-02f, 1.80730671e-01f, -4.22347412e-02f, 6.70267865e-02f, -1.24620661e-01f, 2.15386763e-01f, 1.63799733e-01f, -9.14490893e-02f, -4.31427300e-01f, -4.85544801e-02f, 1.53095990e-01f, 4.46681725e-03f, -2.39232212e-01f, 1.61522225e-01f, 7.13242218e-02f, -4.38644364e-02f, 1.92750935e-02f, -2.09208652e-02f, 1.70030132e-01f, -2.28978068e-01f, -1.02162920e-01f, 2.30959937e-01f},
  {3.74494493e-02f, -6.41867071e-02f, -3.31507847e-02f, -4.96726371e-02f, 1.03687838e-01f, 1.65730529e-02f, 2.16178373e-02f, -2.10999809e-02f, 1.37900516e-01f, -2.34026983e-02f, 1.27810076e-01f, -9.13338736e-02f, 8.49199295e-02f, 2.93026995e-02f, -1.34389848e-01f, 2.75093690e-03f, 8.72770324e-02f, 4.83472608e-02f, 8.40719044e-02f, 3.88827659e-02f, -5.71067855e-02f, 6.64941818e-02f, -2.75859255e-02f, -1.21426061e-01f, -1.33263320e-02f, -8.31790343e-02f, 4.25880477e-02f, 6.50967006e-03f, -4.41453196e-02f, 1.70262873e-01f, -6.95571080e-02f, 1.48007413e-02f, 1.34105846e-01f, 5.08769304e-02f, 7.29873106e-02f, 7.58059621e-02f, -1.26538917e-01f, -6.04189076e-02f, 7.79169723e-02f, -1.59508046e-02f, 6.72120452e-02f, -1.96436401e-02f, 9.38214883e-02f, 1.09906361e-01f, 1.45787582e-01f, -1.37692466e-01f, 1.06273420e-01f, -1.08507290e-01f, -3.63761522e-02f, 1.25712380e-01f, 2.01474279e-02f, -2.33424623e-02f, -2.75084414e-02f, 7.82104358e-02f, 4.50642034e-02f, 2.02715546e-02f, -8.23671147e-02f, -1.92547768e-01f, -9.96758137e-03f, -1.25441402e-01f, 6.21064380e-02f, 4.34667282e-02f, 3.67508293e-03f, -1.33629635e-01f, 4.24059741e-02f, -4.12040614e-02f, 9.86693501e-02f, -2.14016642e-02f, 2.90133189e-02f, -3.84855345e-02f, 1.68057486e-01f, -9.72499885e-03f, -9.69033465e-02f, 7.59079233e-02f, -6.81339880e-04f, 1.11220613e-01f, 1.98905133e-02f, 2.56831907e-02f, -1.02513678e-01f, 2.94410884e-02f, -7.56330192e-02f, 2.51496974e-02f, -1.66342899e-01f, 7.12028220e-02f, 5.49611337e-02f, -9.73373875e-02f, -5.33044785e-02f, -2.07305718e-02f, -5.17329983e-02f, 7.00803250e-02f, 1.44925073e-01f, -4.20492031e-02f, -1.24454916e-01f, 4.24780250e-02f, -2.75327149e-03f, 1.20612703e-01f, 1.27877202e-02f, -2.88840998e-02f, 2.00447976e-03f, 1.30653173e-01f, -1.51020005e-01f, -4.27879021e-03f, -1.12765394e-01f, 1.33876666e-01f, -8.53022635e-02f, -1.31756172e-01f, -2.54258234e-02f, -1.97088141e-02f, -9.38500240e-02f, -7.60153905e-02f, -9.16345939e-02f, 9.99965742e-02f, -5.52591793e-02f, 5.65417446e-02f, 2.93736998e-02f, 1.07119374e-01f, -5.56189343e-02f, 1.47162527e-01f, -5.52390069e-02f, -4.77005653e-02f, -4.46875691e-02f, 1.67988956e-01f, -3.86686251e-02f, -5.73970266e-02f, 1.00173011e-01f, 8.76308978e-02f, 1.56472370e-01f, -6.52451441e-02f},
  {-1.95484400e-01f, 2.64754165e-02f, -1.02396026e-01f, -1.49182871e-01f, 6.98802173e-02f, -1.19152814e-01f, 5.00414483e-02f, 1.26457319e-01f, 1.27364963e-01f, -5.60459420e-02f, 2.85419729e-02f, 1.32447362e-01f, 3.92586380e-01f, -4.79452461e-02f, 3.77283208e-02f, 1.53468442e-04f, -7.52507895e-02f, 1.74665913e-01f, 1.21151663e-01f, -8.52048211e-03f, 1.38961270e-01f, -3.45563501e-01f, -4.97824047e-03f, -9.34684873e-02f, -1.54207885e-01f, 5.60355037e-02f, -6.05322048e-03f, 3.70550714e-02f, 1.24021554e-02f, -1.16851199e-02f, -1.24736272e-01f, 5.69791831e-02f, -4.57251742e-02f, -1.89453319e-01f, 2.76012748e-01f, -7.93452337e-02f, 1.72347248e-01f, 1.56850323e-01f, -1.13637783e-01f, 5.79525856e-03f, 5.25339432e-02f, -2.70996690e-01f, -4.65893224e-02f, 1.55212715e-01f, -6.84894025e-02f, 1.17766298e-01f, 3.46304178e-02f, 6.19533733e-02f, -1.70469712e-02f, 4.78855968e-02f, 8.85718688e-03f, -1.77107483e-01f, 1.42919406e-01f, 1.90960579e-02f, -5.38607314e-02f, 2.58718487e-02f, 1.83192283e-01f, -6.81618825e-02f, 4.55718003e-02f, 1.71691012e-02f, 9.47000273e-03f, -1.83913961e-01f, -1.96002722e-01f, -1.43993460e-03f, 2.44712695e-01f, 5.38539551e-02f, 5.25344275e-02f, -1.07190959e-01f, 3.20956588e-01f, -1.13264203e-01f, 1.18541166e-01f, -5.91717660e-02f, -1.25157252e-01f, -4.83428538e-02f, 1.02126069e-01f, 2.30099797e-01f, -9.31123719e-02f, -1.09443367e-01f, 1.47265326e-02f, -9.00177360e-02f, -2.72322804e-01f, -3.21855396e-02f, -1.81725882e-02f, 5.69459237e-02f, -1.57801807e-01f, 2.23203730e-02f, -1.49509395e-02f, 1.92060739e-01f, 2.73332983e-01f, 3.95503432e-01f, -5.57643734e-02f, -1.58414677e-01f, 6.29891679e-02f, -4.81564179e-02f, 1.75960327e-03f, 6.76735714e-02f, 1.49476686e-02f, -1.63495496e-01f, -7.72535950e-02f, -8.01163353e-03f, -1.68150380e-01f, -8.03166777e-02f, -3.75682823e-02f, 7.73072392e-02f, 1.03164650e-01f, 1.23638064e-01f, -1.28265023e-01f, -7.42108226e-02f, -4.32251506e-02f, 1.64199695e-02f, -3.44032496e-02f, -1.74279317e-01f, 9.10720527e-02f, 4.47373316e-02f, 1.28394617e-02f, 1.85828373e-01f, -2.24624753e-01f, 6.95909187e-02f, 3.09171706e-01f, 1.16642639e-01f, 1.58199787e-01f, -1.22557260e-01f, -1.63486362e-01f, -1.24041840e-01f, -7.21185654e-02f, 4.70371358e-02f, 5.25175296e-02f, -1.36546800e-02f},
  {2.13218797e-02f, 8.32044408e-02f, 1.71251670e-01f, 1.98225607e-03f, -2.14201033e-01f, 1.40781432e-01f, 1.10093713e-01f, 2.71240212e-02f, 9.37680826e-02f, 3.69699001e-02f, 5.80485500e-02f, -2.05819365e-02f, -1.31141290e-01f, 2.42069531e-02f, 1.62066873e-02f, -6.16483875e-02f, -1.59451842e-01f, -3.27038951e-02f, 3.95077802e-02f, -8.80749896e-02f, 1.78355575e-02f, -8.27838778e-02f, 3.32105942e-02f, 4.19215783e-02f, -5.50536672e-03f, 2.26567332e-02f, -1.88265182e-02f, 1.48994790e-03f, 3.25575806e-02f, -1.97579283e-02f, -2.01061610e-02f, -7.87733197e-02f, -2.12050434e-02f, -1.49624154e-01f, 2.38456935e-01f, 7.77360275e-02f, -1.17101544e-03f, 2.93320399e-02f, 3.05510849e-01f, 1.77176055e-02f, -1.70270696e-01f, -1.14227366e-02f, 3.40772979e-02f, -3.42398942e-01f, 7.45633394e-02f, 1.40229136e-01f, 4.93011475e-02f, 1.07822649e-03f, -2.67409235e-01f, -9.57246199e-02f, -1.43381255e-02f, -7.64199868e-02f, 1.03139266e-01f, -1.19775809e-01f, 5.89020997e-02f, 8.25251732e-03f, -4.12234180e-02f, 2.01988202e-02f, 2.18655199e-01f, 8.50284006e-03f, 7.63286129e-02f, -1.73734739e-01f, 4.55237413e-03f, -3.51444297e-02f, -1.72559842e-02f, -4.45792899e-02f, 2.70005744e-02f, 6.94247186e-02f, -5.52025549e-02f, 6.71724528e-02f, -3.60552631e-02f, -1.00166099e-02f, -1.66981146e-02f, 7.12255910e-02f, -1.04586169e-01f, -3.08358669e-01f, -1.80987969e-01f, 2.26773292e-01f, 1.09420314e-01f, 5.13280407e-02f, 3.38066444e-02f, -6.11294508e-02f, 3.11340660e-01f, 9.85505804e-02f, -2.11985596e-02f, 4.54516895e-02f, -2.45014858e-02f, 1.47194758e-01f, 7.63332248e-02f, 8.23264271e-02f, -6.90803081e-02f, 1.49900168e-02f, -6.11430258e-02f, 2.91831363e-02f, 3.39611173e-01f, 3.08270939e-02f, 2.55218774e-01f, -1.09319203e-02f, 7.17588440e-02f, -1.15908021e-02f, -3.23042035e-01f, 5.53728528e-02f, -1.85672380e-02f, -1.57234389e-02f, -3.96466628e-02f, -2.64028693e-03f, -5.97027503e-02f, -8.95300582e-02f, -1.70179754e-02f, 9.46488290e-04f, -9.29089822e-03f, -1.11482486e-01f, -2.15346199e-02f, -3.57817300e-02f, 5.51371276e-03f, 6.73379973e-02f, -1.58982262e-01f, -1.96270645e-01f, -1.01511970e-01f, 2.64683943e-02f, -4.28930670e-02f, 1.69475153e-02f, -8.51900801e-02f, 3.16870332e-01f, -4.18532908e-01f, -6.28735870e-02f, 2.38908872e-01f, -2.48727109e-03f},
  {-9.08104982e-03f, -1.73480471e-03f, -6.33656606e-02f, 6.22777529e-02f, 3.68391097e-01f, -1.89912543e-01f, 1.33563578e-01f, 1.39286257e-02f, -6.17518499e-02f, 2.51456583e-03f, -1.11770863e-02f, -3.70403635e-03f, 1.65697694e-01f, -1.41066074e-01f, 5.37796989e-02f, 2.10188925e-02f, -1.03727110e-01f, -5.13149239e-03f, -5.70150204e-02f, 2.58854736e-04f, 2.36858539e-02f, 9.07419063e-03f, 2.43551983e-03f, 1.98265277e-02f, -1.73473358e-02f, 4.99698147e-02f, 4.06654440e-02f, -4.02163761e-03f, -5.47205992e-02f, -3.94043000e-03f, -8.05672556e-02f, 6.66840747e-02f, 7.37027898e-02f, -1.88002571e-01f, -3.03759482e-02f, 3.92346866e-02f, 1.72832966e-01f, 9.13015381e-02f, 1.48232775e-02f, 3.85819934e-02f, -4.31400258e-03f, -7.81974231e-04f, -6.96554780e-02f, 1.67848200e-01f, 3.46784247e-03f, -8.45833942e-02f, -5.73902437e-03f, -1.84950978e-02f, -3.82303004e-03f, 1.26731679e-01f, 1.15853874e-02f, 1.62377991e-02f, 5.57295419e-02f, -7.92974234e-02f, 2.33312771e-02f, -6.29413053e-02f, 4.25992608e-02f, 3.37594710e-02f, -1.67795330e-01f, -6.40729256e-03f, 2.86521595e-02f, 1.29747272e-01f, 4.94138710e-03f, -2.60122176e-02f, 1.57706384e-02f, 6.84500113e-03f, 1.06687555e-02f, 3.25508192e-02f, 1.52594060e-01f, -8.60015023e-03f, -1.29388675e-01f, -4.50906530e-03f, 1.35427499e-02f, -3.81052084e-02f, -4.39249240e-02f, -1.61135688e-01f, -2.16300428e-01f, 1.27584115e-01f, 8.81333370e-04f, -9.37896688e-03f, -1.46599617e-02f, 6.43259585e-02f, -1.19793033e-02f, 7.40496116e-03f, -1.60889607e-02f, -1.36313429e-02f, -6.59110118e-03f, 2.31252983e-01f, -2.06572618e-02f, -1.78465135e-02f, -1.81656703e-02f, 8.24657083e-03f, -5.84884211e-02f, -1.58838909e-02f, 1.51025757e-01f, -6.58106655e-02f, -1.47634238e-01f, -3.99434799e-03f, -2.07019132e-02f, -1.74990278e-02f, 1.32291391e-01f, 1.01698644e-01f, 1.65457278e-02f, -1.36749039e-03f, 1.93574261e-02f, 5.60441874e-02f, -6.93948613e-03f, 3.32781971e-02f, 4.82153855e-02f, 2.49468512e-03f, -6.41940460e-02f, -7.87827745e-02f, 1.38167636e-02f, 9.24794599e-02f, -1.83799770e-03f, -4.10612486e-03f, -5.16493618e-02f, -3.86777036e-02f, 2.98693553e-02f, 2.47103143e-02f, -5.16462065e-02f, 1.15239076e-01f, -2.38893270e-01f, -3.63722630e-02f, -2.12777942e-01f, 2.99229287e-02f, 3.37859616e-02f, 5.49870636e-03f},
  {-3.47561002e-01f, 1.03436243e-02f, -3.69483769e-01f, 3.82891484e-02f, 4.22226340e-01f, -2.10700676e-01f, 1.89036027e-01f, -5.12908101e-02f, 9.57521871e-02f, -2.26594862e-02f, 1.13067724e-01f, 5.18690273e-02f, 3.52874607e-01f, -1.01489536e-01f, 6.03481941e-02f, 8.45403895e-02f, -1.99380010e-01f, -3.36175524e-02f, -1.02571249e-01f, -4.59879600e-02f, -7.97847100e-03f, -3.28010805e-02f, 1.38910552e-02f, -3.01572401e-03f, -2.05839123e-03f, 7.59659111e-02f, 4.92902249e-02f, -3.82860145e-03f, -2.57850271e-02f, 2.59769429e-02f, 6.44884333e-02f, -1.38827143e-02f, -2.74661276e-02f, -9.06061977e-02f, 2.72577196e-01f, -1.39934614e-01f, 2.60583043e-01f, 1.65564790e-01f, 2.39585061e-02f, -4.20629717e-02f, -2.01134518e-01f, 1.37007400e-01f, -3.59694302e-01f, 2.34203458e-01f, -6.68445826e-02f, 1.25656411e-01f, -9.36550722e-02f, -4.87590069e-03f, 6.83540991e-03f, -2.11877003e-01f, 1.09953173e-02f, 6.28301874e-02f, 1.89291574e-02f, 4.59828787e-02f, 7.36583918e-02f, 8.05727318e-02f, 9.17097628e-02f, 1.40921883e-02f, -4.05543745e-01f, 3.53567302e-02f, 8.46977085e-02f, 1.63020398e-02f, -3.85781378e-02f, -8.78107548e-02f, -1.53579349e-02f, 4.74726073e-02f, -2.05943245e-03f, -1.97526952e-03f, 3.59316796e-01f, -2.01655760e-01f, -4.64670733e-02f, 6.33544400e-02f, 1.07763417e-01f, -8.26709345e-02f, -2.52650902e-02f, -2.35164925e-01f, -5.72491467e-01f, -1.04963593e-01f, -1.37370676e-01f, -5.63956201e-02f, 3.55507433e-02f, -2.55063642e-03f, 3.15757468e-02f, -6.06733710e-02f, -4.00870014e-03f, -3.01632620e-02f, -4.10859250e-02f, 2.74436086e-01f, 4.29797433e-02f, 7.32851401e-02f, -8.62839520e-02f, -6.03525992e-03f, -4.34207469e-01f, 1.53660486e-02f, 4.90286589e-01f, -1.31102324e-01f, -1.87179819e-01f, -9.79733001e-03f, 2.00532153e-02f, 1.49839416e-01f, -7.69696310e-02f, -1.24701545e-01f, -8.62229690e-02f, 5.75530855e-03f, -2.42521837e-01f, -8.12482387e-02f, -4.30586785e-02f, 5.22717796e-02f, 6.94344044e-02f, -6.74443841e-02f, -1.47463635e-01f, -3.57633889e-01f, 5.69961295e-02f, -1.16996326e-01f, 9.87422317e-02f, 3.16431254e-01f, -3.41695771e-02f, -1.22630298e-01f, -1.96237370e-01f, -4.18703258e-02f, 2.85653975e-02f, 5.15521877e-02f, -2.39135519e-01f, -1.09332670e-02f, -3.01948786e-01f, -4.24408726e-02f, 2.71535486e-01f, -1.71308499e-02f},
  {1.35201246e-01f, -3.81948166e-02f, -2.14069009e-01f, 1.60107076e-01f, 8.65496323e-02f, -6.10030815e-03f, 7.29789957e-03f, 2.82904267e-01f, 1.51506126e-01f, 5.13325483e-02f, -8.47493112e-03f, 3.03373467e-02f, -2.09579915e-01f, 1.30824953e-01f, 1.35349989e-01f, 2.44066671e-01f, -1.06544740e-01f, 4.01990339e-02f, 8.62799026e-03f, 1.12892903e-01f, 7.62281641e-02f, -9.74270478e-02f, 1.95191130e-01f, -5.14533231e-03f, 1.12009449e-02f, 3.80073525e-02f, 1.21025816e-01f, 4.39798832e-02f, 2.91051328e-01f, 2.50482876e-02f, 4.39143144e-02f, -1.98705733e-01f, -1.25098571e-01f, -2.27325693e-01f, -3.01149726e-01f, 1.55566499e-01f, 2.26672947e-01f, 1.08005434e-01f, 9.74120870e-02f, -2.62595326e-01f, -1.42347142e-01f, 1.58640102e-01f, -6.53502792e-02f, -2.04813890e-02f, -2.28748331e-03f, -6.90407231e-02f, 1.09113017e-02f, 7.38565475e-02f, -8.47580731e-02f, -3.66165601e-02f, -7.72279203e-02f, -8.88736919e-02f, 6.64363727e-02f, 5.78871965e-02f, 9.01357457e-02f, 4.91520688e-02f, -1.07563496e-01f, -5.02618328e-02f, -9.68836546e-02f, 1.11192651e-02f, 3.96279357e-02f, 3.85186411e-02f, -2.91145378e-04f, -1.53942585e-01f, 2.02125181e-02f, -4.66746315e-02f, -5.11253392e-03f, -3.81743573e-02f, -4.58902717e-01f, 1.58208504e-01f, 1.61406651e-01f, 2.51741577e-02f, 9.11310464e-02f, -5.65533638e-02f, -4.50311368e-03f, 1.86661463e-02f, -1.06443904e-01f, -9.29988623e-02f, 3.76015231e-02f, 4.37172204e-02f, -4.13299650e-01f, -1.07375681e-01f, -8.48966315e-02f, 1.30942732e-01f, -1.96103211e-02f, 6.28621951e-02f, -3.21673006e-02f, 2.54384190e-01f, -7.45318905e-02f, 5.58948517e-01f, 7.98076317e-02f, 3.44817862e-02f, -1.35506824e-01f, 2.40448825e-02f, 1.67927071e-01f, -2.64531046e-01f, 3.36562753e-01f, 1.45718725e-02f, -3.10836211e-02f, -2.74779387e-02f, -6.92255273e-02f, 1.36502743e-01f, -6.24848790e-02f, 1.76513959e-02f, 6.47643864e-01f, -1.69246912e-01f, -1.90530717e-01f, 2.87419856e-01f, -9.70213860e-03f, -3.58146578e-02f, -6.14650287e-02f, -1.61406204e-01f, 1.34270906e-01f, 4.79089767e-02f, 2.04006489e-02f, -9.20827221e-03f, 5.50257862e-02f, 9.78360325e-02f, -3.04492265e-01f, 3.39592472e-02f, 2.36248295e-03f, -5.02913222e-02f, -8.03690851e-02f, 1.16648123e-01f, -2.40669370e-01f, -2.23289356e-02f, -3.00852269e-01f, 1.01677753e-01f},
  {-1.10613942e-01f, 5.43969460e-02f, 1.37561262e-01f, -9.97374430e-02f, 1.70815021e-01f, -8.50231349e-02f, -6.03461899e-02f, -4.20265287e-01f, -1.26630500e-01f, 1.12081073e-01f, -2.95483917e-02f, 2.03817710e-01f, -8.61149505e-02f, -3.97788137e-02f, -6.20138124e-02f, -2.33756766e-01f, 2.26799726e-01f, 4.31366980e-01f, -1.87855780e-01f, -1.79144993e-01f, -7.90841579e-02f, 1.91665329e-02f, -1.71970427e-01f, -1.07286982e-01f, 4.82645363e-01f, -3.12519997e-01f, 1.68312296e-01f, -1.53023750e-01f, 1.03663228e-01f, -1.33723095e-01f, -8.23557228e-02f, 3.01651214e-03f, 3.89408097e-02f, 6.57663792e-02f, 5.24873249e-02f, -3.91116828e-01f, 1.07918933e-01f, 2.21892700e-01f, 2.35552713e-01f, 2.26176947e-01f, -4.03517224e-02f, 5.04610725e-02f, 1.22440487e-01f, -8.27912316e-02f, -6.26401901e-02f, 1.41887322e-01f, 2.40928024e-01f, -9.84329879e-01f, 1.01333469e-01f, -2.14255661e-01f, -6.50734827e-02f, 3.48264128e-01f, -3.50197881e-01f, 8.72124881e-02f, 2.27865711e-01f, 1.94655716e-01f, 8.57550576e-02f, 1.05290353e-01f, 1.69299334e-01f, 2.15338588e-01f, -7.66792297e-02f, -3.96854132e-01f, -3.91820550e-01f, -3.01683873e-01f, 9.68228340e-01f, 4.85917985e-01f, -2.98847351e-02f, -3.59491497e-01f, 2.39963755e-01f, 1.22732315e-02f, -1.72544599e-01f, -1.55469686e-01f, 3.12127173e-02f, -1.41565904e-01f, 1.81953371e-01f, 1.24545306e-01f, 1.12273365e-01f, -3.77789110e-01f, 4.32014346e-01f, 2.74101257e-01f, -1.52244011e-03f, 2.40717351e-01f, 1.09658606e-01f, 2.48542771e-01f, -2.80525833e-01f, -5.63527882e-01f, 1.32459179e-01f, -1.55185834e-01f, 2.37488657e-01f, -3.39570902e-02f, 1.86020672e-01f, 3.12876731e-01f, -3.51416767e-01f, -9.05146778e-01f, -3.73543017e-02f, 9.06221569e-02f, -3.05121448e-02f, -3.73801380e-01f, 1.66611552e-01f, 6.43483818e-01f, 1.67890012e-01f, 3.03213894e-01f, 3.09704512e-01f, 6.71737045e-02f, 2.28753477e-01f, 1.03481025e-01f, 5.40619344e-02f, -1.74409077e-01f, -2.28081811e-02f, 4.59850840e-02f, 8.00132871e-01f, -1.07690180e-02f, -1.59788981e-01f, 5.61381616e-02f, 2.26758003e-01f, -1.35093063e-01f, 2.67581586e-02f, -9.41034406e-02f, 1.92788154e-01f, -7.85557985e-01f, 7.49443993e-02f, 5.25684543e-02f, 1.48516372e-01f, -4.56847288e-02f, 1.15446433e-01f, -1.73425600e-01f, 1.07253470e-01f, -1.24913350e-01f},
  {1.15858689e-01f, 2.41233408e-01f, -3.53295729e-02f, -2.37959951e-01f, 4.76564407e-01f, 2.64919013e-01f, -3.69167775e-02f, 1.26198068e-01f, -7.90733658e-03f, 6.48951381e-02f, -2.63907276e-02f, -1.81372941e-01f, 3.04669648e-01f, -2.64925569e-01f, 5.87345846e-02f, 1.12248830e-01f, 8.68768841e-02f, -3.48306336e-02f, 1.21098936e-01f, -5.49232624e-02f, -7.53871864e-03f, 2.67564915e-02f, 2.30993852e-01f, -2.59921938e-01f, 6.90800920e-02f, -1.27911776e-01f, -3.18237573e-01f, -1.95383757e-01f, -2.54452359e-02f, 3.19962353e-02f, 2.08423868e-01f, 7.71768317e-02f, 1.34524480e-01f, 3.49602588e-02f, -1.08624816e-01f, 1.51829839e-01f, -4.87863123e-02f, 4.98184040e-02f, -1.98481172e-01f, 1.74487025e-01f, -3.13695967e-01f, -9.93588492e-02f, 1.02145992e-01f, 4.85735536e-01f, 1.16199605e-01f, 6.30065147e-03f, 4.04953748e-01f, -2.00177342e-01f, -9.82677341e-02f, 4.40603085e-02f, 3.79099786e-01f, -1.97232842e-01f, 4.62071188e-02f, 1.39715210e-01f, -1.99683994e-01f, -1.05919048e-01f, -4.03573006e-01f, -9.84797478e-02f, 2.57493526e-01f, 2.67374605e-01f, -2.12335158e-02f, 2.41423175e-01f, 5.59590757e-02f, 3.13433091e-04f, -1.33593097e-01f, 9.48643908e-02f, -4.94464226e-02f, -4.26420808e-01f, 2.41338894e-01f, 1.60250291e-01f, -1.35229215e-01f, -1.68910861e-01f, -4.37484123e-02f, 1.05564840e-01f, 1.64287128e-02f, 1.02894343e-01f, 2.14925513e-01f, -3.49107653e-01f, 4.45592910e-01f, -4.09172885e-02f, -2.66750097e-01f, -3.93180490e-01f, 2.71323293e-01f, 7.28364885e-02f, -7.14764893e-02f, 6.03250444e-01f, 1.46575436e-01f, -1.17554672e-01f, 1.57597989e-01f, -1.54420137e-01f, -2.33802050e-02f, 8.52737278e-02f, -5.47951609e-02f, -2.09595859e-01f, -5.02013676e-02f, 2.62710929e-01f, 4.70384769e-02f, 8.04454368e-03f, 2.44694538e-02f, -6.85546100e-02f, -8.44558179e-02f, -1.55674160e-01f, 2.82991817e-03f, 4.37474728e-01f, 1.28179356e-01f, -3.32651511e-02f, 1.09668754e-01f, -4.46177125e-01f, -5.92591166e-02f, 2.64603198e-02f, 4.05738950e-01f, 1.34709716e-01f, 4.96057644e-02f, -1.85361460e-01f, -3.45948458e-01f, 8.60835686e-02f, 8.35218504e-02f, -3.31119716e-01f, -4.82396036e-02f, -1.98017433e-01f, -4.18742448e-02f, -1.55998424e-01f, 1.11040480e-01f, -1.32802099e-01f, 1.55670986e-01f, 6.27190024e-02f, 8.21689218e-02f, 2.32280269e-01f},
  {-1.12386160e-01f, 4.01354954e-02f, 1.72632948e-01f, 2.36605424e-02f, 2.43820786e-01f, 8.20877682e-03f, 3.66564165e-03f, 6.66135699e-02f, -1.20492913e-01f, 3.03460043e-02f, -5.23588173e-02f, -3.01939761e-03f, 2.29616016e-01f, -1.10508278e-01f, -1.75754149e-02f, -6.37170114e-03f, -1.76405348e-02f, 1.55216521e-02f, -1.63187891e-01f, 1.53554037e-01f, 4.57116179e-02f, 6.36485219e-02f, -9.64014418e-03f, 2.89971624e-02f, 1.92766003e-02f, 2.32229382e-02f, -4.05770689e-02f, 6.02641702e-03f, -7.05743432e-02f, -2.26391405e-02f, 8.67119133e-02f, 4.36422154e-02f, 8.13060030e-02f, -1.43123910e-01f, 1.68108433e-01f, -2.07020193e-01f, 2.02015758e-01f, -1.61711387e-02f, -1.77099630e-01f, 1.05822638e-01f, 1.28069893e-02f, -2.91322712e-02f, 3.08311991e-02f, 1.22194134e-01f, -1.87911876e-02f, -8.70461836e-02f, 3.20057161e-02f, 2.29299273e-02f, -2.28289589e-02f, 5.91275515e-04f, -2.16146391e-02f, -4.44979407e-02f, -2.56219804e-02f, -6.61954656e-02f, -3.25708911e-02f, -5.80479875e-02f, 4.50636558e-02f, 3.28831077e-02f, -6.61882106e-04f, -3.03987358e-02f, -1.32294567e-02f, -8.23922306e-02f, -1.95674524e-02f, 7.78317228e-02f, 1.90512165e-02f, 8.82940833e-03f, 1.18270442e-02f, -3.11795194e-02f, 1.86914057e-01f, -4.90931161e-02f, -2.75886297e-01f, -1.79645587e-02f, -4.29615639e-02f, 5.96753731e-02f, -1.62203070e-02f, -5.79771772e-02f, -3.21383357e-01f, 1.02926351e-01f, 1.42779676e-02f, -8.54448043e-03f, 4.30969261e-02f, 1.47314314e-02f, -5.82705140e-02f, 1.03015214e-01f, -4.27254066e-02f, 2.95418967e-02f, -4.49389860e-04f, 1.26345888e-01f, 2.26569641e-02f, 9.06899944e-02f, -9.48059037e-02f, 2.79241474e-04f, -1.62364557e-01f, -2.02022251e-02f, 9.60898325e-02f, -8.10444281e-02f, 2.22207736e-02f, -1.15278047e-02f, -4.82783206e-02f, -1.27920602e-02f, -3.95054696e-03f, 7.94989839e-02f, 4.90857251e-02f, 2.54765376e-02f, -9.00294110e-02f, -4.25398536e-02f, -2.39473596e-01f, 3.82399410e-02f, -4.71707986e-04f, 3.26732695e-02f, -7.02329865e-03f, -5.63190319e-02f, -1.97254330e-01f, 1.01142999e-04f, -4.43575941e-02f, 9.64208022e-02f, 6.57854155e-02f, -1.15666889e-01f, -1.19558044e-01f, -1.99872330e-02f, -5.39458506e-02f, -4.00766730e-02f, -2.26034224e-01f, -6.18742369e-02f, -3.10123652e-01f, -2.27373838e-02f, 1.26027346e-01f, 1.43459901e-01f},
  {2.12046374e-02f, 4.04183567e-02f, -3.31401862e-02f, 5.04498258e-02f, 3.72220308e-01f, -1.17418684e-01f, 1.65091887e-01f, 6.78513423e-02f, 8.15010071e-02f, 3.74109372e-02f, 1.33100273e-02f, -2.03820281e-02f, 2.79685110e-01f, -7.75206238e-02f, 2.09609177e-02f, -2.94445530e-02f, -3.97173390e-02f, 2.37445515e-02f, -7.19399378e-02f, 9.31623578e-02f, -5.26063843e-03f, 4.44330499e-02f, 1.27428733e-02f, -2.19047721e-02f, -7.65127689e-03f, -1.72482192e-04f, 7.23065529e-03f, 9.27636772e-03f, -5.99111095e-02f, -2.96698380e-02f, -3.67777534e-02f, 3.58565003e-02f, 4.26228158e-02f, -1.12414397e-01f, 5.44355698e-02f, -6.31931946e-02f, 3.11467946e-01f, -2.75512934e-02f, -1.74153641e-01f, 1.49493471e-01f, 1.43235564e-01f, -3.98658328e-02f, -9.94346067e-02f, 3.01043633e-02f, -7.25052059e-02f, 5.86330667e-02f, 4.56443690e-02f, 1.03900693e-02f, 6.83662444e-02f, 1.12549275e-01f, -7.58472504e-03f, -1.10048512e-02f, -1.17905717e-02f, -7.93154091e-02f, 8.50755945e-02f, -4.14317511e-02f, 5.34709916e-02f, 8.30478445e-02f, -1.01750456e-01f, -4.71931063e-02f, 3.34424078e-02f, 7.89944604e-02f, -1.47804003e-02f, 6.40696809e-02f, 2.06455197e-02f, 6.42075390e-02f, 2.29202602e-02f, -1.99329741e-02f, 2.46670142e-01f, -2.12246522e-01f, -2.13456362e-01f, 1.80074188e-03f, -2.11435966e-02f, -1.16168335e-02f, -6.21502884e-02f, -1.38601139e-01f, -2.64787197e-01f, -4.11358364e-02f, -7.67317861e-02f, 9.66459326e-03f, 8.68444070e-02f, 6.88144490e-02f, -1.28414646e-01f, -2.40646843e-02f, -4.68897633e-03f, -4.40346263e-02f, 6.14522072e-03f, 3.64443570e-01f, 2.49450542e-02f, 1.07439034e-01f, -7.58584142e-02f, -1.44326687e-02f, -1.11143820e-01f, -5.51466539e-04f, 7.37994909e-02f, 7.13322163e-02f, -2.66917437e-01f, 4.11130348e-03f, -2.00298727e-02f, -1.31397145e-02f, 2.77821366e-02f, 8.37157220e-02f, -6.12117758e-04f, 6.24732375e-02f, 6.03834093e-02f, -1.23901129e-01f, -1.96508139e-01f, 5.25119677e-02f, 8.71965755e-03f, 1.13251060e-02f, 7.85744116e-02f, -2.25375015e-02f, 9.41629559e-02f, -8.10712501e-02f, 2.84101628e-02f, 1.07894093e-01f, -6.07641004e-02f, -1.90256201e-02f, -5.86031564e-02f, -8.07285607e-02f, -4.09425870e-02f, 9.24933925e-02f, -1.87216461e-01f, 4.44591530e-02f, -3.10090870e-01f, -4.32403833e-02f, -2.94480585e-02f, -7.25751463e-03f},
  {-1.74294278e-01f, -1.41875282e-01f, 3.82459746e-03f, 2.46516392e-02f, -7.77639449e-02f, -1.71740040e-01f, -1.26506269e-01f, -2.87651103e-02f, 1.18245490e-01f, 6.62733614e-02f, 1.36888564e-01f, -9.02648345e-02f, 1.52335033e-01f, 1.11268777e-02f, 2.98182592e-02f, -8.28883722e-02f, 1.58111900e-01f, 1.21714331e-01f, 5.02892956e-02f, 1.30356615e-02f, 2.66315192e-01f, 2.14748606e-01f, -9.62289721e-02f, 4.55035940e-02f, -2.68662553e-02f, -3.11755538e-02f, -7.00802878e-02f, -1.55519322e-01f, -1.13967627e-01f, 4.17053588e-02f, 1.98102724e-02f, -1.47818074e-01f, 2.85817347e-02f, -1.01060443e-01f, -1.68929160e-01f, 1.66286603e-01f, 3.88176553e-02f, -6.98172748e-02f, -2.46721003e-02f, 5.92847764e-02f, -9.82637107e-02f, -1.37049213e-01f, 1.88203543e-01f, 1.48766696e-01f, -1.16610058e-01f, 1.28096670e-01f, 1.82002679e-01f, 9.09801275e-02f, 1.77054122e-01f, 8.64239112e-02f, 1.25377193e-01f, -1.35055080e-01f, -1.16163529e-01f, -1.14757143e-01f, 5.29251657e-02f, 1.07044227e-01f, -1.27926663e-01f, 1.48569969e-02f, 1.19858325e-01f, -6.57433867e-02f, 4.38533425e-02f, -1.96387142e-01f, 3.27496380e-02f, -1.76457196e-01f, 1.26954302e-01f, 8.61134231e-02f, -8.42131004e-02f, 3.63311060e-02f, 2.11147904e-01f, 9.63877067e-02f, 4.42201868e-02f, -6.27362803e-02f, -5.75948693e-02f, -4.33816351e-02f, 1.88940808e-01f, 7.51144588e-02f, 7.63884261e-02f, -1.56028897e-01f, 2.27558427e-02f, -5.54247294e-03f, -6.73567578e-02f, 6.48057386e-02f, -8.68006647e-02f, -3.39665711e-02f, -2.23700777e-01f, -9.60787833e-02f, -1.81214865e-02f, 7.87747577e-02f, 9.95415822e-03f, 3.13573629e-02f, -4.68579382e-02f, -1.78478524e-01f, 1.00351065e-01f, -3.33056636e-02f, 2.56592572e-01f, 2.01416478e-01f, 1.38423696e-01f, 1.91008300e-02f, 5.00247106e-02f, 1.50942892e-01f, 4.84337807e-02f, -8.42671990e-02f, 5.74936010e-02f, -6.49919137e-02f, 1.52278766e-02f, 8.82093888e-03f, -4.66948524e-02f, 3.23676388e-03f, 1.30146295e-01f, -3.02481502e-02f, 8.15739185e-02f, -8.74408260e-02f, -1.53533980e-01f, 9.11657214e-02f, -2.86191404e-01f, 2.82631870e-02f, 9.30441841e-02f, 9.89389941e-02f, -8.11164558e-04f, -3.81430946e-02f, 1.96606666e-01f, 6.43264176e-03f, -1.07652910e-01f, 2.53733713e-02f, -1.08141452e-03f, 2.41978437e-01f, 3.15872848e-01f, 6.31900355e-02f},
  {-2.43850783e-01f, 1.31994352e-01f, 8.60655215e-04f, -5.93432635e-02f, 2.07999889e-02f, 6.03631884e-02f, 1.93532735e-01f, -2.08321095e-01f, -3.15457165e-01f, -7.26328418e-02f, 2.25748271e-02f, 1.94846421e-01f, 2.70433277e-01f, 3.51679116e-01f, -1.09428406e-01f, -3.33314925e-01f, -1.88760325e-01f, 3.04595642e-02f, 5.04886843e-02f, 1.19976617e-01f, -1.08109832e-01f, -1.67697072e-01f, 2.35543385e-01f, 2.95506537e-01f, 4.39705476e-02f, -2.07247496e-01f, 1.32872403e-01f, 2.18393002e-02f, -1.93571553e-01f, -2.59564519e-02f, -2.99932994e-02f, -1.79640148e-02f, 1.23523409e-02f, 1.51141122e-01f, -8.95485058e-02f, -1.00078404e-01f, -2.04608347e-02f, 2.44974509e-01f, -2.25063339e-01f, -3.74171048e-01f, -8.67096335e-03f, -5.66276200e-02f, -1.23705961e-01f, 1.99094743e-01f, -7.22969621e-02f, -1.56193167e-01f, -2.90168915e-02f, 4.62626293e-02f, 8.58120695e-02f, -1.30610108e-01f, 2.06770629e-01f, 1.19579636e-01f, 6.36696741e-02f, 7.78748244e-02f, 1.93797350e-01f, 1.02678789e-02f, -2.89126515e-01f, -4.08453122e-03f, -2.15436861e-01f, -1.30537704e-01f, 4.90062637e-03f, -1.54698566e-01f, 8.00568797e-03f, -1.92156345e-01f, -3.88018191e-01f, -1.35429174e-01f, -7.76573420e-02f, 7.99278691e-02f, 6.29959181e-02f, 2.20922783e-01f, 2.82951593e-01f, -3.95520255e-02f, 1.24826960e-01f, -1.44561142e-01f, -3.48757267e-01f, 1.06234364e-01f, 7.32217431e-02f, 9.59850401e-02f, 1.13880970e-01f, 6.52904883e-02f, -1.62853137e-01f, -4.62969929e-01f, 1.67637944e-01f, -4.55156080e-02f, -7.28819489e-01f, 5.81397787e-02f, -2.14105815e-01f, -1.78685725e-01f, -4.12122101e-01f, -1.32440716e-01f, -7.25841001e-02f, -4.36675280e-01f, -1.19195446e-01f, -1.07031859e-01f, -8.23723078e-02f, 6.43137023e-02f, 8.40709433e-02f, 9.46829095e-02f, -2.09174648e-01f, -2.14794129e-02f, -1.81259625e-02f, 8.55824426e-02f, -3.64851773e-01f, 2.55901068e-01f, 1.77589372e-01f, -2.44829237e-01f, -1.37918517e-02f, 3.83389592e-01f, 1.58434674e-01f, -1.82930827e-02f, 1.37257174e-01f, -3.45557034e-01f, -1.85976341e-01f, -5.83492890e-02f, -3.66903156e-01f, 3.97097580e-02f, 4.87876078e-03f, 5.58762252e-02f, -2.91556269e-02f, -4.92455155e-01f, 9.12631676e-02f, -5.67641817e-02f, 6.49457052e-02f, -3.49209458e-01f, 4.89575453e-02f, -1.05659902e-01f, -1.74226135e-01f, 3.07809114e-01f},
  {-1.27288133e-01f, 4.56407899e-03f, 3.56544480e-02f, 2.44797375e-02f, 1.74013942e-01f, -9.99130011e-02f, -6.19942555e-03f, -2.37522796e-02f, 6.66646566e-03f, 2.43118461e-02f, -1.35911807e-01f, -2.23278273e-02f, 1.15761332e-01f, -2.00380366e-02f, 5.24157919e-02f, -2.83369087e-02f, -1.03432380e-01f, 7.31695862e-03f, -9.05228555e-02f, 2.04215646e-01f, 3.56887057e-02f, -2.13736687e-02f, -3.03247198e-02f, 2.94881556e-02f, -1.14198746e-02f, 4.47623841e-02f, 3.92199233e-02f, 2.73763891e-02f, 4.80183540e-03f, 4.68225218e-02f, -2.14285124e-02f, 5.87633578e-03f, 2.91309282e-02f, -6.58682361e-02f, 1.14075169e-01f, -1.45710409e-01f, 1.92023307e-01f, 4.67316285e-02f, -1.34845555e-01f, 1.43432543e-01f, -1.08549140e-01f, -9.83510818e-03f, -5.05635850e-02f, 1.92071468e-01f, 1.26579389e-01f, 1.52435869e-01f, -1.25398692e-02f, -2.66800448e-02f, -4.04158868e-02f, 7.14423135e-02f, 1.53600853e-02f, -1.05743468e-01f, -2.06484664e-02f, -1.18710175e-01f, 5.28676882e-02f, 7.96785019e-03f, 2.91130655e-02f, 7.22493976e-02f, 1.33702129e-01f, 3.90920369e-03f, -1.30173519e-01f, 2.43711472e-02f, -2.00559255e-02f, -1.31688407e-02f, 6.50807992e-02f, 8.96709785e-02f, -4.26526763e-04f, -2.03822483e-03f, -2.20090412e-02f, 1.27244648e-02f, -4.71332818e-02f, -6.41313614e-03f, 6.40704185e-02f, 7.19252527e-02f, -4.30664718e-02f, -3.22326541e-01f, -3.11913937e-01f, 3.89824733e-02f, -1.38062043e-02f, 1.28719378e-02f, -1.39718726e-01f, 5.10494784e-02f, -1.04131840e-01f, 9.75973457e-02f, -5.58418743e-02f, -3.29060256e-02f, -3.33518684e-02f, 2.12355793e-01f, 2.23625940e-03f, -1.60376932e-02f, -1.16529800e-01f, -2.05974169e-02f, 6.85104504e-02f, -2.80160606e-02f, 2.81491041e-01f, -1.15124814e-01f, -1.02851190e-01f, -1.08765839e-02f, -1.55537110e-02f, 9.14436113e-03f, -1.36143818e-01f, 4.82608145e-03f, -8.94121826e-03f, 1.45214424e-01f, -1.18087351e-01f, -3.48097011e-02f, -9.74547341e-02f, 5.03988303e-02f, 7.90664833e-03f, -2.52374243e-02f, -6.25820532e-02f, 1.45084351e-01f, -1.59508497e-01f, -1.75490454e-01f, 1.68098102e-03f, 2.84580112e-01f, -1.17972538e-01f, -1.14026785e-01f, -1.89196691e-01f, -8.58995877e-03f, -3.75327356e-02f, -5.28305070e-03f, -2.08164752e-01f, 7.35593811e-02f, -2.68429309e-01f, -4.37651128e-02f, 4.69896421e-02f, -7.80244991e-02f},
  {-1.07508577e-01f, 1.37976304e-01f, -2.35914275e-01f, -5.56187034e-02f, 5.42418659e-02f, -8.84449407e-02f, -9.85883698e-02f, 1.85379788e-01f, -2.50689119e-01f, -9.75190327e-02f, -5.32334484e-02f, 4.53245342e-02f, 1.05325885e-01f, 8.14252645e-02f, -9.56024453e-02f, -2.09663197e-01f, 1.65920973e-01f, -8.45683515e-02f, -1.03945574e-02f, -3.61503512e-02f, 9.94564295e-02f, 9.95673090e-02f, 1.06611654e-01f, -1.91176862e-01f, 3.97994787e-01f, -1.86642066e-01f, 5.22637963e-02f, -1.63449928e-01f, 1.27645507e-02f, -2.14478485e-02f, -1.16480239e-01f, -5.61791584e-02f, -2.06458449e-01f, 4.26248834e-02f, -1.76650167e-01f, -1.64626405e-01f, -8.62062573e-02f, 1.01797365e-01f, 5.38693462e-03f, -2.28118822e-01f, -1.32448003e-01f, -1.42869681e-01f, -3.24273966e-02f, 4.62363623e-02f, 3.32127884e-02f, 5.82352169e-02f, 8.42415541e-02f, -2.56650418e-01f, 2.79166013e-01f, 1.74316853e-01f, 1.26258239e-01f, -4.96836230e-02f, 1.47438437e-01f, -7.16995820e-02f, 5.76739982e-02f, -1.35433629e-01f, -5.90441748e-02f, -3.30909006e-02f, -9.75890011e-02f, -7.39160627e-02f, 1.23984208e-02f, 1.24242395e-01f, -6.82819188e-02f, 1.31389210e-02f, 6.64778380e-03f, -1.21823829e-02f, -1.00788221e-01f, -1.12065315e-01f, 3.25946063e-01f, -3.09259832e-01f, 2.09263816e-01f, -1.57170221e-01f, -1.44505545e-01f, 1.20205417e-01f, 1.42829254e-01f, 1.79645061e-01f, -1.81389496e-01f, 7.16748461e-02f, -1.62679464e-01f, 1.59667265e-02f, -2.48541102e-01f, 2.14395687e-01f, -2.05012746e-02f, 2.00677156e-01f, -1.97693363e-01f, -1.33962944e-01f, -5.00031039e-02f, 1.00907117e-01f, -6.96585923e-02f, 2.96163231e-01f, 1.13260590e-01f, -4.49649781e-01f, -4.16486450e-02f, -5.79437464e-02f, -9.28171054e-02f, -1.21025547e-01f, -1.55187681e-01f, 6.86752945e-02f, 3.06038372e-02f, 2.71496534e-01f, 4.46155444e-02f, 2.10110366e-01f, -1.30256012e-01f, -2.87201017e-01f, -2.99656779e-01f, 1.02485128e-01f, 1.32569343e-01f, -2.39884064e-01f, 2.98104316e-01f, -2.73703635e-01f, 3.55375819e-02f, -2.26655170e-01f, 3.67468931e-02f, 2.90204939e-02f, -1.52425125e-01f, -1.91823304e-01f, 1.33946091e-01f, 1.87630579e-01f, 2.18645155e-01f, 8.21414888e-02f, 7.20504150e-02f, -4.61909361e-02f, -1.69245049e-01f, -1.03760675e-01f, -3.25012789e-03f, 2.76414156e-01f, 4.91860649e-03f, -1.28974423e-01f},
  {-3.87820564e-02f, 6.60832077e-02f, -7.87220895e-02f, -6.43695071e-02f, 5.15459538e-01f, -1.18952245e-01f, 8.89366399e-03f, -1.32552930e-03f, -1.38361156e-01f, 4.56301831e-02f, -3.99249420e-02f, 5.38323410e-02f, 3.46483707e-01f, 1.11577541e-01f, -1.83255449e-02f, -1.35070682e-01f, -6.55404255e-02f, 3.03293709e-02f, 1.29442355e-02f, 6.20836718e-03f, -4.68745492e-02f, 2.25725044e-02f, 3.43027487e-02f, 1.01356301e-02f, 2.29397286e-02f, -1.90734826e-02f, -1.77121628e-02f, 5.00114374e-02f, 1.49671426e-02f, 1.14913601e-02f, -1.12403072e-01f, -2.57122405e-02f, 6.94074556e-02f, -1.26536712e-01f, 1.65624991e-01f, -2.53770262e-01f, 3.83342892e-01f, -9.21677873e-02f, 4.81169252e-03f, 6.04048856e-02f, -4.89023030e-02f, -7.86933601e-02f, 1.23125827e-03f, 3.34294200e-01f, -1.04181971e-02f, 7.08754361e-02f, 3.15977000e-02f, 2.20081564e-02f, 2.82524433e-02f, -6.32552058e-02f, 1.10468976e-02f, -1.79255396e-01f, 4.60186042e-02f, -8.45957473e-02f, 2.55022608e-02f, 6.42056912e-02f, 9.36588086e-03f, 1.88877299e-01f, 1.56138062e-01f, -4.85749356e-02f, -6.51252866e-02f, -4.27770335e-03f, -1.45205352e-02f, 4.76666354e-02f, 9.64043103e-03f, 9.45349187e-02f, 8.14404152e-03f, -7.34753832e-02f, 1.00939795e-01f, -1.74985871e-01f, -2.19901800e-01f, 2.66924314e-02f, 1.56546235e-02f, -3.06722522e-02f, -2.54551787e-02f, -1.89566821e-01f, -5.45436084e-01f, 2.27386933e-02f, -1.06901564e-01f, 1.17584839e-02f, -4.11200430e-03f, 1.37424059e-02f, 3.17735560e-02f, -2.85015795e-02f, -1.47575485e-02f, -5.06391004e-02f, -1.24093173e-02f, 2.13806093e-01f, -1.20537102e-01f, -7.08199525e-03f, -1.49187505e-01f, 4.63931933e-02f, -1.40522674e-01f, 3.84136569e-03f, 2.85760850e-01f, -2.59493738e-01f, -4.11661007e-02f, -8.66638217e-03f, -1.15088671e-02f, -7.33547211e-02f, 2.23796025e-01f, 1.19644422e-02f, -1.09475655e-02f, 1.17486417e-01f, -4.72266674e-02f, 2.90142763e-02f, 1.15457386e-01f, -4.61390428e-02f, 4.47998475e-03f, -6.49135793e-03f, 1.77685186e-01f, -1.99502558e-02f, -8.20841044e-02f, -6.26576617e-02f, 3.89204770e-02f, 1.58861682e-01f, 8.94233882e-02f, -6.81980252e-02f, 1.02143427e-02f, -7.04597905e-02f, -6.59344792e-02f, 5.63300177e-02f, -2.62789726e-01f, -1.14334203e-01f, -1.20272204e-01f, -5.09053841e-02f, -2.32852623e-02f, -5.44148535e-02f},
  {5.74339889e-02f, 7.77352154e-02f, 1.97338000e-01f, -3.93991917e-01f, -8.92101377e-02f, 2.36482412e-01f, -7.42298067e-02f, -1.36862338e-01f, 6.18549809e-02f, 1.50948698e-02f, 2.49340013e-02f, 1.05311491e-01f, 5.82526661e-02f, -3.52016874e-02f, -2.95744985e-01f, 2.45385572e-01f, 2.27198318e-01f, 7.32805878e-02f, -2.26194412e-01f, -1.69710606e-01f, -9.26830396e-02f, -2.32963517e-01f, -2.50314206e-01f, -5.15445828e-01f, -7.48421028e-02f, 9.99885723e-02f, -3.43267284e-02f, 3.02855354e-02f, -1.42364502e-01f, -5.50759807e-02f, -7.79693872e-02f, -6.48417743e-03f, 1.93235174e-01f, -3.95241752e-03f, -6.05638400e-02f, -1.96906716e-01f, 2.29375005e-01f, 3.42375398e-01f, 7.93687534e-03f, 1.19250707e-01f, -1.66087031e-01f, -1.22505635e-01f, 3.10487822e-02f, 8.45700577e-02f, 2.57921368e-02f, -1.74442306e-02f, -3.12553674e-01f, -2.45243967e-01f, -2.57378668e-01f, -6.00592941e-02f, 1.18248887e-01f, -1.36048213e-01f, 5.75392768e-02f, -2.05355659e-01f, 4.14557368e-01f, -1.32955194e-01f, -6.15715146e-01f, -1.24923803e-01f, -3.32850739e-02f, 6.09388612e-02f, 2.30305031e-01f, -2.86324173e-01f, -1.00280270e-01f, -2.66920626e-01f, 1.38311818e-01f, 1.48294747e-01f, -3.15308571e-02f, -1.10744767e-01f, -2.44574435e-02f, 4.32058454e-01f, -1.88156605e-01f, -7.39013478e-02f, 1.81730777e-01f, 2.16121972e-03f, 1.73722655e-02f, 9.92157161e-02f, 3.54684927e-02f, -1.80367216e-01f, -3.85462493e-01f, 2.97522038e-01f, 8.61279294e-02f, 4.24280435e-01f, -4.04123843e-01f, 2.59281605e-01f, -9.56251100e-02f, 1.94539949e-01f, -5.09210974e-02f, -1.67928651e-01f, -1.35381103e-01f, -1.02096401e-01f, -1.26989648e-01f, -1.03232539e+00f, 1.41906649e-01f, -3.92840534e-01f, -7.11119676e-04f, 2.16315314e-01f, -6.31373301e-02f, -2.85324275e-01f, -4.84703742e-02f, 1.05361581e-01f, 1.31808117e-01f, -1.64991498e-01f, -2.69250363e-01f, 3.01435888e-01f, 1.68637723e-01f, 1.33383498e-01f, 3.29479396e-01f, -1.33027941e-01f, -1.05839586e-02f, -1.08475745e-01f, 1.92447424e-01f, -2.75191385e-02f, 2.40224287e-01f, -1.95485145e-01f, -1.58398282e-02f, 6.20930158e-02f, -6.63661063e-02f, 3.89422849e-02f, 1.04376208e-03f, 2.22349390e-01f, 3.09911650e-02f, 2.43833303e-01f, 2.23915160e-01f, 2.07701251e-01f, 1.94777861e-01f, 7.44967833e-02f, 2.29395688e-01f, -3.09975266e-01f},
  {3.25129367e-02f, -1.60284355e-01f, -1.81480616e-01f, -2.41150912e-02f, 1.98388532e-01f, 2.64005642e-02f, -2.10939404e-02f, 2.01715335e-01f, -2.35246688e-01f, -6.35171533e-02f, 2.11382598e-01f, 6.03319099e-03f, -4.55665216e-02f, 2.17485175e-01f, -6.17453977e-02f, -1.76774040e-01f, 3.35113168e-01f, -3.91550213e-01f, 4.47923318e-02f, 1.68603510e-01f, -1.30184904e-01f, -1.29923299e-01f, 1.76193133e-01f, 1.62099630e-01f, 2.43018195e-01f, -2.30826497e-01f, -1.77952927e-02f, 1.87359527e-01f, 1.41824767e-01f, -6.80484921e-02f, -7.79178143e-02f, -1.21609561e-01f, -7.83351436e-02f, 8.04791898e-02f, 4.35434096e-02f, -1.38369501e-01f, -2.10809886e-01f, -1.36051595e-01f, -2.39698607e-02f, 1.84901685e-01f, -2.47901842e-01f, 1.05582774e-01f, 1.58494666e-01f, 9.83069539e-02f, -1.97369725e-01f, -2.99055106e-03f, 4.56755236e-02f, 1.37857750e-01f, -2.02414498e-01f, -6.33860826e-02f, 1.64120525e-01f, -4.39700261e-02f, -2.46663153e-01f, -1.68602139e-01f, -1.61198780e-01f, -2.64465481e-01f, 2.36217976e-01f, 7.50398403e-03f, 1.25760645e-01f, -2.89143659e-02f, 1.96751417e-03f, 3.42174977e-01f, 2.35140711e-01f, -1.85222909e-01f, 2.24018782e-01f, 1.21335328e-01f, 2.37823185e-02f, 2.77086496e-01f, 7.16548115e-02f, -2.44289175e-01f, 3.07591632e-02f, 1.65720344e-01f, -3.79409343e-01f, 2.19853483e-02f, 2.19649971e-01f, 1.11002691e-01f, 5.14425524e-02f, -2.24262089e-01f, -2.41344824e-01f, 3.09107840e-01f, 4.17759158e-02f, 1.45464718e-01f, 2.48895451e-01f, 6.27014264e-02f, -1.07929677e-01f, -8.13112780e-02f, -6.93056434e-02f, -2.18101993e-01f, -3.94188255e-01f, 4.65646349e-02f, 3.45918715e-01f, 2.06017390e-01f, 1.15159638e-01f, -1.65574208e-01f, 4.22832593e-02f, -1.21988453e-01f, 4.22783315e-01f, 3.07490975e-01f, 2.35771999e-01f, 5.76671422e-01f, -2.22631067e-01f, 3.09793264e-01f, -3.43686759e-01f, 1.26708046e-01f, -2.39892051e-01f, 2.33181063e-02f, 5.75009771e-02f, -2.92316768e-02f, -3.00687514e-02f, 7.92511702e-02f, 2.73190200e-01f, -8.09611846e-03f, -1.98896825e-01f, -4.34758626e-02f, -5.12690485e-01f, -5.65344878e-02f, 9.19066137e-04f, -1.18268192e-01f, -1.26318023e-01f, -1.51912624e-03f, 9.29789841e-02f, 6.26916736e-02f, 1.61057830e-01f, 1.87791973e-01f, 3.44159827e-02f, -6.28313497e-02f, -2.53480971e-01f, 2.30890736e-02f},
  {2.97620535e-01f, -2.52260752e-02f, -7.60681868e-01f, 3.17028910e-02f, 2.26615638e-01f, 9.74364206e-02f, 1.34884179e-01f, 3.21926504e-01f, -1.84600994e-01f, 1.08557893e-02f, -7.44789019e-02f, 3.59820053e-02f, 2.84666773e-02f, -2.50817746e-01f, -3.55370156e-02f, 4.17711437e-01f, 8.40067118e-03f, 2.92378515e-02f, -1.73512623e-02f, 4.07988429e-02f, 7.24580884e-02f, -1.31194014e-02f, 1.68721482e-01f, -1.99984363e-03f, 4.55432311e-02f, 9.50784087e-02f, 6.94819093e-02f, 3.39432135e-02f, -2.96805315e-02f, 5.58488490e-03f, 3.46621312e-02f, -2.32452631e-01f, -1.41036049e-01f, -2.53049079e-02f, -1.27220199e-01f, 2.39339709e-01f, 1.82463706e-01f, 2.66524583e-01f, -1.03721492e-01f, -1.01866148e-01f, 3.76421325e-02f, 7.51310661e-02f, -2.13526830e-01f, -2.07867548e-02f, 6.20176792e-02f, 1.35846600e-01f, 8.61411169e-02f, 7.80845508e-02f, -5.23469001e-02f, 8.81922096e-02f, -3.64335403e-02f, -1.52261015e-02f, -4.02851626e-02f, -7.04678223e-02f, 6.40078485e-02f, -1.57381088e-01f, 2.26803012e-02f, -1.34934083e-01f, 1.74936969e-02f, 2.84845568e-02f, -1.25606179e-01f, -1.23469763e-01f, -2.13302486e-02f, -5.75441197e-02f, 2.62996703e-02f, -2.24854350e-02f, -2.18137656e-03f, 6.56499639e-02f, 5.02084941e-02f, -4.73100543e-02f, 2.73588866e-01f, -1.42646339e-02f, 1.67694449e-01f, -4.01664563e-02f, -5.92820672e-03f, -3.68625037e-02f, -2.58046716e-01f, -1.06122151e-01f, 6.53235093e-02f, -4.56493273e-02f, -6.41698390e-02f, -2.42882743e-01f, -1.51518747e-01f, 1.29181936e-01f, -5.76453954e-02f, 1.54631501e-02f, -3.37345488e-02f, 2.42460698e-01f, -3.09759043e-02f, 3.09768021e-01f, -9.15724412e-02f, -1.50998589e-02f, -2.07820714e-01f, -2.08838098e-02f, 1.08828619e-01f, -3.94353449e-01f, 1.60696566e-01f, -1.27498363e-03f, -3.59592326e-02f, 8.64099935e-02f, 3.91721934e-01f, 2.41717622e-01f, -9.35037271e-04f, -1.79033592e-01f, 6.06057227e-01f, -2.61038430e-02f, -3.85791779e-01f, 2.88590938e-01f, -2.93641537e-02f, -6.10115156e-02f, -2.18422055e-01f, 1.29590958e-01f, 7.02657029e-02f, 1.81184262e-01f, -3.58025059e-02f, -2.29597285e-01f, 7.49694407e-02f, 2.11631864e-01f, -6.28922999e-01f, -2.15697344e-02f, 7.10053137e-03f, -1.37234971e-01f, -2.33838931e-01f, -2.10426345e-01f, -1.17472336e-01f, -3.97292711e-02f, -2.30767354e-01f, 1.92634776e-01f},
  {-7.20578209e-02f, 8.26297626e-02f, 7.50586390e-02f, 6.00906229e-03f, 1.62985638e-01f, -1.23653002e-01f, 2.46031865e-01f, 1.56836554e-01f, -1.49656475e-01f, -6.52210135e-03f, -2.04821257e-03f, -2.63126884e-02f, 1.86081499e-01f, 2.03873459e-02f, -2.06578262e-02f, -2.80721076e-02f, -8.09212476e-02f, 1.38976397e-02f, -9.18434486e-02f, 1.85958564e-01f, 9.99342091e-03f, 1.20996661e-03f, -5.94460182e-02f, 4.01951931e-02f, 1.83228422e-02f, 7.14585632e-02f, -3.95226926e-02f, -7.43505824e-03f, 6.24431372e-02f, -4.51569557e-02f, 1.44663662e-01f, 1.65785085e-02f, -2.57365480e-02f, -5.65710962e-02f, 1.35766447e-01f, -1.45005420e-01f, 1.95391595e-01f, 5.36543317e-02f, -2.31403172e-01f, -9.02055278e-02f, 1.69451416e-01f, -3.29145268e-02f, -1.13735311e-01f, 6.07166588e-02f, -3.30137238e-02f, -9.75263864e-02f, 1.04826121e-02f, -2.35990016e-03f, 2.80272420e-02f, 1.03108130e-01f, 7.26337964e-03f, 3.41830850e-02f, 7.26180337e-03f, -3.80194783e-02f, 7.57121155e-03f, -1.34611328e-03f, 3.06123756e-02f, 4.15682644e-02f, -1.38711751e-01f, 2.85253357e-02f, -1.25764832e-01f, 5.02271019e-02f, -5.44878989e-02f, 9.92577747e-02f, 1.49832163e-02f, 8.20266008e-02f, -1.14999292e-02f, -6.41100854e-02f, 8.48006085e-02f, 9.12352651e-02f, -6.09243251e-02f, 1.14557194e-02f, -2.12261844e-02f, 5.00518130e-03f, 9.66188908e-02f, -2.12776199e-01f, -3.27345163e-01f, 7.16919154e-02f, 5.94843850e-02f, -1.79470126e-02f, -4.29222621e-02f, 3.14298421e-02f, -1.64345875e-01f, 5.74289728e-03f, -3.33496779e-02f, -2.94946618e-02f, -6.67331414e-03f, 3.16550165e-01f, 4.73270416e-02f, -1.25903100e-01f, 5.23323156e-02f, 2.05030991e-03f, -2.34563023e-01f, -2.92564882e-03f, 9.91046578e-02f, -1.67232439e-01f, -8.57143477e-03f, 5.56361303e-03f, -9.52946171e-02f, 6.94092065e-02f, -2.03632444e-01f, 1.10448062e-01f, -9.53748357e-04f, 2.50726379e-02f, -2.19104104e-02f, -1.29705474e-01f, -1.18130401e-01f, -1.69587731e-02f, -4.24766215e-03f, -3.43689360e-02f, -5.25377393e-02f, 9.11335871e-02f, -7.00125098e-02f, -8.40333849e-03f, -2.10986007e-02f, 6.92673475e-02f, 3.51559930e-02f, -1.35278046e-01f, -1.89731404e-01f, 6.17703460e-02f, -2.28194222e-02f, 3.97909470e-02f, -1.32643804e-01f, 1.84982002e-01f, -1.37103155e-01f, -3.04010380e-02f, 1.73305217e-02f, 6.34316588e-03f},
  {-5.80627806e-02f, -8.31558369e-03f, 2.80423701e-01f, -1.07581355e-01f, 4.05044347e-01f, 4.13880870e-02f, -4.86132987e-02f, -2.97789067e-01f, 1.71044394e-01f, 3.32214087e-02f, -2.32973471e-02f, 5.73360268e-03f, 2.84848839e-01f, -7.60983303e-02f, -4.62873206e-02f, 2.00161655e-02f, 1.03549678e-02f, 5.67428917e-02f, -3.81896645e-02f, -1.34484053e-01f, -2.70583294e-02f, -6.94291815e-02f, -2.96415109e-03f, 1.11103334e-01f, -1.70956254e-02f, 5.00559248e-02f, 1.86032299e-02f, 1.39216827e-02f, -2.60714125e-02f, 3.39832455e-02f, 7.41605759e-02f, -7.88971558e-02f, 1.83908045e-01f, 5.27702365e-03f, 2.18250364e-01f, 7.45810708e-03f, 3.98362935e-01f, 3.75426821e-02f, -1.27723813e-01f, 6.75958693e-02f, -1.65703475e-01f, 6.11615553e-02f, 2.58170795e-02f, -1.41823351e-01f, 2.72544146e-01f, 2.95345277e-01f, -6.21672720e-03f, -4.43431102e-02f, -1.09223977e-01f, -1.06679179e-01f, -5.37921935e-02f, -6.54632300e-02f, 1.27249453e-02f, 9.45186019e-02f, 1.27295509e-03f, -1.36686787e-02f, -3.91707420e-02f, 1.13228008e-01f, 1.19578719e-01f, -2.99655478e-02f, -3.65911089e-02f, -1.23752922e-01f, -2.90722307e-02f, -1.13871291e-01f, -3.11018191e-02f, -3.52897085e-02f, -3.05228010e-02f, 2.89183520e-02f, 3.28303069e-01f, -3.82588394e-02f, 2.50269063e-02f, 1.14747277e-02f, 3.96103971e-02f, -3.90729532e-02f, 2.70618945e-02f, -2.72482514e-01f, -2.41447866e-01f, -6.26302510e-02f, 5.76237291e-02f, -2.92635132e-02f, -1.52690172e-01f, 7.01351762e-02f, -2.34393347e-02f, 1.00920051e-01f, -3.98532562e-02f, -9.26042870e-02f, -3.81494313e-02f, 2.12181717e-01f, 8.90201554e-02f, 3.22730318e-02f, -1.72790736e-01f, 1.28605301e-02f, -2.63928145e-01f, 2.75861900e-02f, 2.55630940e-01f, 2.97229290e-02f, -2.85665751e-01f, -1.68328695e-02f, -4.54986170e-02f, 3.67957428e-02f, -1.06698990e-01f, 2.25411337e-02f, 1.18944317e-03f, 8.84848237e-02f, 1.71701282e-01f, -1.37700006e-01f, -4.06784177e-01f, 2.76007298e-02f, 5.47310375e-02f, 8.52481741e-03f, -6.62471876e-02f, 6.28555790e-02f, 2.44494423e-01f, -3.79749388e-02f, 1.24071888e-03f, -8.60800296e-02f, -1.27682850e-01f, -1.27858266e-01f, -9.62544307e-02f, 2.37523415e-03f, -1.68325529e-02f, 1.21821508e-01f, -4.00256962e-01f, 1.31182566e-01f, -3.40200782e-01f, 2.98087415e-03f, 2.16095820e-01f, -1.22162968e-01f},
  {-5.99892378e-01f, 4.52251881e-01f, 4.74508762e-01f, -7.27654517e-01f, 1.79457217e-02f, 5.76885529e-02f, -1.15875378e-01f, -2.93588281e-01f, -2.07972974e-01f, 4.77738082e-02f, -1.25622928e-01f, 7.59427994e-02f, 4.87873167e-01f, 5.98308742e-02f, 1.31898209e-01f, 2.67075092e-01f, 2.32933596e-01f, -4.70385373e-01f, 2.87696347e-02f, -4.05610166e-02f, 4.88773078e-01f, -7.84193650e-02f, -3.49586844e-01f, -8.08607221e-01f, 8.83866608e-01f, -6.96641564e-01f, -3.08264822e-01f, -1.47688873e-02f, -9.33567584e-02f, -2.98799664e-01f, -2.55806208e-01f, 5.55720985e-01f, 8.39494765e-02f, -3.12523395e-01f, -7.73222893e-02f, -1.74770474e-01f, -2.93211997e-01f, -4.20925796e-01f, -2.90379554e-01f, 1.16760500e-01f, 1.89127937e-01f, -5.18079460e-01f, 8.86018127e-02f, 3.83335859e-01f, 1.60728276e-01f, 2.31758356e-01f, 4.61208671e-01f, -8.22432637e-02f, 4.14762884e-01f, -9.97291040e-03f, 1.00865960e-01f, 3.98423448e-02f, -6.58830479e-02f, 9.85093117e-02f, -1.21901520e-01f, 4.01504524e-02f, -5.52838743e-01f, -1.04833126e-01f, -4.49533015e-01f, 2.95178890e-01f, 5.52733541e-01f, -1.19914122e-01f, -4.46820378e-01f, -7.96573281e-01f, 3.59095246e-01f, 2.35469833e-01f, 1.73803598e-01f, -6.51377797e-01f, 2.24074394e-01f, 1.89787567e-01f, 7.13016614e-02f, 2.66745180e-01f, -6.67341501e-02f, -1.66369379e-02f, 3.19079719e-02f, 1.12086058e-01f, -1.33051538e+00f, -2.61997908e-01f, -1.07843387e+00f, -1.87351033e-02f, -3.95837128e-01f, 3.72061044e-01f, -1.47154495e-01f, 8.32252949e-02f, -1.62835583e-01f, -6.58916235e-02f, 2.67202377e-01f, 5.52634120e-01f, 7.20890686e-02f, 3.14274848e-01f, 3.32980976e-02f, -1.77769676e-01f, -3.37822437e-01f, 3.90217938e-02f, 2.09514648e-01f, -2.60251641e-01f, -7.91747943e-02f, 1.56716928e-01f, -3.68942432e-02f, 4.91996884e-01f, 3.85990329e-02f, 1.56367123e-01f, -1.41582638e-01f, -2.44018927e-01f, -5.83240092e-01f, -9.86766536e-04f, 4.90672231e-01f, -1.10611188e+00f, 1.09880656e-01f, 1.90068465e-02f, 8.00142512e-02f, -4.14935857e-01f, 3.99711519e-01f, -3.10255945e-01f, -4.31009591e-01f, 1.44854859e-01f, 2.22694829e-01f, -2.27066293e-01f, -1.03432608e+00f, 7.10308373e-01f, 2.70664334e-01f, -4.57469910e-01f, -2.96884388e-01f, 2.04931542e-01f, -3.91483009e-01f, 4.59785350e-02f, 3.22515965e-01f, 5.71619496e-02f},
  {4.00228538e-02f, -3.51514015e-03f, -1.16321839e-01f, 1.56132028e-01f, -1.07521392e-01f, -1.50010660e-01f, -9.19565186e-02f, -7.29613453e-02f, -4.70392779e-02f, -1.52607709e-01f, -9.45462584e-02f, 2.08516464e-01f, -2.44715810e-02f, 4.56357300e-02f, -2.21916556e-01f, 2.83974230e-01f, -1.33063840e-02f, 1.54620349e-01f, -1.46546739e-03f, -2.98510808e-02f, -5.99995777e-02f, -9.10683721e-02f, -1.40638486e-01f, -1.24038778e-01f, -9.63335633e-02f, 6.15613908e-02f, 1.61217093e-01f, -3.26815918e-02f, -2.01694176e-01f, -4.98087928e-02f, -4.58880290e-02f, 7.09222257e-02f, -2.69078854e-02f, -1.89653739e-01f, -3.74040976e-02f, 9.89228860e-02f, 1.24001950e-01f, 6.11177012e-02f, -2.92855930e-02f, 1.87846363e-01f, -1.39668658e-01f, -9.00868792e-03f, 1.60989314e-01f, 2.22583875e-01f, 1.18730366e-01f, 9.96581092e-02f, 1.26006484e-01f, -2.96387732e-01f, 1.03186041e-01f, 1.74158454e-01f, -3.76440771e-02f, -9.35008675e-02f, -2.94238180e-01f, -1.08086854e-01f, -8.65702778e-02f, -6.33129552e-02f, -1.93101466e-01f, 9.47198868e-02f, 1.15920007e-02f, 1.52538881e-01f, 1.76476628e-01f, -5.22075444e-02f, -1.36439219e-01f, -8.27570707e-02f, 6.20201863e-02f, 1.49243847e-01f, 7.76982307e-02f, 7.98003525e-02f, 1.15765398e-02f, -2.25040987e-01f, 1.16521850e-01f, -9.37389582e-02f, 3.18905301e-02f, -2.74014547e-02f, 3.71723831e-01f, 1.10368431e-01f, -5.27362674e-02f, -1.27745988e-02f, -8.07458684e-02f, -2.29883492e-02f, -1.35902977e-02f, 2.18728498e-01f, -1.06889397e-01f, 4.93712574e-02f, -3.12450528e-01f, -1.00660592e-01f, 1.58294916e-01f, 1.77261904e-01f, -1.60395235e-01f, 8.40284675e-02f, -1.40584528e-01f, -5.62207252e-02f, 1.04831457e-01f, -1.59110487e-01f, 1.07620314e-01f, 2.27087200e-01f, -1.43376350e-01f, 2.65709567e-03f, -4.55443412e-02f, 2.24419653e-01f, -1.79017894e-02f, -1.71481699e-01f, -1.04802221e-01f, 1.16997197e-01f, -7.09945336e-02f, -4.84591387e-02f, 1.25784446e-02f, -6.69086426e-02f, 1.15967281e-01f, -1.54826060e-01f, 1.15003690e-01f, 1.59697775e-02f, 1.61103889e-01f, 3.15771729e-01f, -1.14760548e-01f, 5.50162457e-02f, -8.02945197e-02f, -2.26193480e-02f, 1.45725697e-01f, 1.34318650e-01f, 1.51753664e-01f, 7.58217350e-02f, -1.98316664e-01f, -1.03311345e-01f, -2.50767410e-01f, 2.22081155e-01f, 1.23056903e-01f, -1.46425888e-01f},
  {1.57834917e-01f, -3.91688831e-02f, -1.33068040e-01f, 1.33774236e-01f, -1.13822177e-01f, -8.25716257e-02f, 7.29804337e-02f, -8.00684616e-02f, -2.30804831e-02f, -7.87101239e-02f, -5.40273562e-02f, -1.64005920e-01f, 1.02893256e-01f, -1.55295301e-02f, -8.39283392e-02f, -3.71415876e-02f, 1.68761760e-01f, -1.11706331e-01f, 2.49216452e-01f, 1.30105808e-01f, -2.21179258e-02f, -3.97008583e-02f, -1.26028597e-01f, -1.39656991e-01f, -5.42910621e-02f, -1.32356152e-01f, -1.09857187e-01f, 1.84135050e-01f, -1.85665473e-01f, -5.99219985e-02f, -8.26020688e-02f, 1.06337406e-01f, 2.21589277e-03f, 6.94971979e-02f, -1.41560674e-01f, 8.58322084e-02f, 1.14576481e-02f, -1.00908324e-01f, -8.50126445e-02f, -5.20250797e-02f, 7.85648748e-02f, -1.85052633e-01f, 2.61745024e-02f, -5.15748337e-02f, 8.38254467e-02f, 2.08130050e-02f, -8.08367208e-02f, 4.82277758e-02f, 1.40128836e-01f, -4.66520078e-02f, -1.91712216e-01f, 4.33664806e-02f, 5.65323308e-02f, 6.24063751e-03f, -1.15494654e-01f, -1.41858190e-01f, -2.17345357e-01f, 7.13716969e-02f, -2.00487927e-01f, 1.33905843e-01f, -3.59449955e-03f, 1.76562965e-01f, 2.07419936e-02f, -5.33625185e-02f, 6.48874491e-02f, 1.24831513e-01f, 5.07373083e-03f, -5.86549100e-03f, -2.43290770e-03f, 1.02272674e-01f, -8.04230273e-02f, -1.02894612e-01f, 1.38112947e-01f, -8.61178190e-02f, 1.15823820e-01f, 9.31241959e-02f, 1.71893597e-01f, -4.99205722e-04f, -1.48458913e-01f, 1.18074808e-02f, -4.64140177e-02f, 9.67357978e-02f, 4.28675301e-02f, 8.72746017e-03f, -2.68639952e-01f, 4.51025255e-02f, 4.02223431e-02f, 6.71935501e-03f, -9.76981670e-02f, -1.58526469e-02f, -1.13816920e-03f, 7.60103539e-02f, 1.47202477e-01f, -6.00884110e-02f, 1.59284398e-02f, -4.79659485e-03f, -5.49527928e-02f, -1.29131721e-02f, 9.82052237e-02f, 6.25620084e-03f, 6.92143589e-02f, -1.54535100e-01f, -5.07932603e-02f, -5.58568425e-02f, 6.24370649e-02f, -2.90868916e-02f, -6.72594309e-02f, -1.10315666e-01f, 1.19194664e-01f, 5.67126321e-03f, 5.43130375e-02f, 5.47720827e-02f, -4.19938527e-02f, 1.15528524e-01f, -1.57491177e-01f, 9.37859938e-02f, -1.49152279e-02f, -9.47915949e-03f, -6.92511052e-02f, -8.38399753e-02f, -2.15379894e-03f, -5.70366206e-03f, -1.31658036e-02f, -5.96375205e-03f, 1.99068636e-02f, 3.33128333e-01f, 1.59710616e-01f, 4.65717092e-02f},
  {5.25405593e-02f, 2.61363797e-02f, -2.12440621e-02f, 6.89530373e-02f, 4.83502261e-02f, -1.11172952e-01f, -2.64048204e-02f, 9.64888409e-02f, 2.49363016e-02f, 1.30343940e-02f, -5.78507036e-02f, -7.16894167e-03f, 2.19995230e-01f, -8.76414310e-03f, 2.48544067e-02f, -8.88112560e-02f, -5.65751968e-03f, -3.61830741e-03f, -1.05204470e-01f, 1.60468727e-01f, -4.51500434e-03f, 4.15740395e-03f, -6.24575540e-02f, 1.77619345e-02f, -5.94362710e-03f, 4.51404788e-03f, -6.56123087e-02f, 3.97402421e-02f, 6.84156716e-02f, 1.86987389e-02f, 5.11767752e-02f, 1.20000057e-02f, 5.92814572e-02f, -3.59652452e-02f, -3.47715877e-02f, -2.31486578e-02f, 2.21428618e-01f, -3.51866428e-03f, -1.37089714e-01f, 1.53518960e-01f, -1.12478063e-02f, -7.97630697e-02f, -6.24728166e-02f, -8.61433218e-04f, -1.10494077e-01f, 1.26689658e-01f, 1.84139814e-02f, -3.72002609e-02f, -5.45688793e-02f, 5.51242894e-03f, 1.74179636e-02f, -1.03181161e-01f, 3.08019239e-02f, 3.28171775e-02f, 3.12903523e-02f, -2.77640633e-02f, 5.04265726e-02f, 4.55319136e-02f, 9.47554559e-02f, -2.73404140e-02f, 1.98964775e-01f, 2.96226167e-03f, 3.37494444e-03f, 5.99106699e-02f, -1.38236617e-03f, 1.05870254e-02f, 1.44647351e-02f, 5.20532951e-02f, -7.38161504e-02f, -7.43127093e-02f, -2.29264453e-01f, 1.37915965e-02f, -5.34553900e-02f, 1.59624834e-02f, 3.35062332e-02f, -3.03271055e-01f, -3.87657613e-01f, 2.00990111e-01f, 4.44817692e-02f, -1.34755275e-03f, -1.09763548e-01f, 6.45445064e-02f, -1.01767369e-01f, 1.21896654e-01f, -2.52221879e-02f, -5.44145294e-02f, -1.57314707e-02f, 1.96053773e-01f, -3.77844088e-02f, -7.85081312e-02f, -1.91818923e-02f, 1.52631430e-02f, -4.86566685e-03f, -1.15934182e-02f, -1.12842165e-01f, -4.97612506e-02f, 7.32148960e-02f, 5.82046853e-03f, 1.11608934e-02f, -1.22734616e-02f, 1.73920557e-01f, -2.85910722e-02f, 9.83609632e-03f, 1.50213493e-02f, -1.40428990e-01f, -1.97353393e-01f, -1.78383708e-01f, -2.94813551e-02f, 1.00783538e-02f, 9.65355779e-04f, 2.04077810e-02f, 1.04729801e-01f, -1.42949522e-01f, 1.22826315e-01f, -7.38575449e-03f, 2.99197584e-01f, 8.29138458e-02f, 7.77809992e-02f, -2.67193407e-01f, -4.46880888e-03f, -4.70323898e-02f, -8.89765099e-04f, -1.52198136e-01f, -1.71957880e-01f, -2.63869226e-01f, -7.59443790e-02f, -5.45578962e-03f, 4.56830412e-02f},
  {-5.10870619e-03f, -1.35491475e-01f, 9.82214697e-03f, -1.42359644e-01f, 1.41622692e-01f, 8.65722597e-02f, -9.95297059e-02f, -3.02015226e-02f, -1.09908998e-01f, -1.69465765e-02f, 1.99526735e-03f, 8.42508972e-02f, 1.31945387e-02f, -1.43587902e-01f, 1.34130167e-02f, -5.77754602e-02f, 1.12005278e-01f, 5.30989990e-02f, 1.18559897e-01f, 1.44375101e-01f, 2.18125448e-01f, -9.63657498e-02f, -2.23831609e-01f, -6.43251017e-02f, 9.34217777e-03f, 6.42634556e-02f, -1.12864032e-01f, -3.45772915e-02f, -3.45506929e-02f, -5.51189519e-02f, -1.06026039e-01f, 6.62015304e-02f, -4.12573069e-02f, -1.70322165e-01f, -3.58865894e-02f, 4.35382053e-02f, 1.40946999e-01f, -9.39654633e-02f, 6.83625862e-02f, -1.10188752e-01f, -1.25575542e-01f, -4.36006719e-03f, -2.49873791e-02f, -6.84841424e-02f, 1.37869582e-01f, 7.18312114e-02f, 6.34012802e-04f, -5.41798882e-02f, 4.93088849e-02f, -1.18487403e-01f, 1.18489943e-01f, -1.77117109e-01f, -8.30493271e-02f, -1.19679719e-02f, -2.33405009e-02f, 3.68131995e-02f, -3.69387008e-02f, -1.17339157e-01f, 1.14485122e-01f, 6.59968480e-02f, 9.40324366e-03f, 9.40795541e-02f, -7.36259148e-02f, 7.38975033e-02f, 1.61101907e-01f, 5.76453209e-02f, -2.38884818e-02f, -2.57176161e-02f, -4.97943312e-02f, 2.38978919e-02f, 7.40068927e-02f, 2.19806321e-02f, -1.01223111e-01f, 1.05174258e-01f, 7.84330666e-02f, -9.02748704e-02f, -1.25182956e-01f, -9.20211077e-02f, -1.30328968e-01f, -2.85763294e-02f, -2.15245202e-01f, 4.95428331e-02f, -4.23311777e-02f, 2.71704160e-02f, 6.47046417e-03f, 2.85222586e-02f, 1.80755898e-01f, -2.69679092e-02f, 1.17954329e-01f, -1.53456237e-02f, -4.34670299e-02f, 1.76348649e-02f, -1.20099671e-01f, -4.71304134e-02f, -1.52071059e-01f, 2.15620205e-01f, 2.58160606e-02f, 5.51171787e-02f, 1.82377040e-01f, -1.52997868e-02f, -2.17369974e-01f, 2.67787259e-02f, -2.40922421e-01f, 1.08102839e-02f, 8.57583433e-02f, -1.95382331e-02f, 6.83018416e-02f, -7.97645599e-02f, 3.97265069e-02f, -5.04830629e-02f, 1.52876183e-01f, 8.10587108e-02f, -5.00504114e-03f, 1.29958972e-01f, -7.42477104e-02f, 1.62971184e-01f, -2.30640009e-01f, 9.35142338e-02f, 1.56586230e-01f, -2.93274038e-02f, -7.74574727e-02f, 1.32442504e-01f, -5.39808869e-02f, 3.42967957e-02f, -1.34183958e-01f, -1.75644364e-02f, 1.53038636e-01f, -7.94943273e-02f},
  {-1.83260068e-01f, 3.09925675e-02f, -4.43458520e-02f, -1.49503760e-02f, 2.26438016e-01f, -2.05997862e-02f, -1.28847018e-01f, -1.78325251e-01f, -1.21400878e-02f, -1.00963525e-02f, 1.03330113e-01f, 7.08849588e-03f, 2.48854265e-01f, -2.64047593e-01f, 1.45051796e-02f, -2.26225387e-02f, -8.79295990e-02f, -9.38975997e-03f, -1.34983212e-01f, 9.79783237e-02f, -4.78532491e-03f, 6.81800907e-03f, -4.81123887e-02f, 3.17589082e-02f, 5.62263094e-03f, 2.33990587e-02f, 3.92257143e-03f, 1.67144295e-02f, -1.10957930e-02f, -2.31012818e-03f, 4.47414331e-02f, 5.10914102e-02f, 1.43219661e-02f, -1.00080669e-01f, 3.16730529e-01f, -1.13527507e-01f, 1.94336995e-01f, 2.70713866e-02f, -2.23798364e-01f, -1.05868459e-01f, -4.76489477e-02f, 2.00361460e-02f, -7.10827112e-02f, 5.59354797e-02f, 5.67443809e-03f, 3.18052284e-02f, -3.37732024e-02f, 8.33304375e-02f, 1.30599015e-03f, -1.12666681e-01f, -4.06382196e-02f, 2.15577576e-02f, 1.84342191e-02f, 1.08628698e-01f, 2.45671961e-02f, 7.07469732e-02f, 3.80096026e-02f, 6.01472370e-02f, -1.30916089e-02f, -8.10341723e-03f, -1.17483631e-01f, 1.77956909e-01f, -1.58779062e-02f, 8.75057355e-02f, -1.68272499e-02f, 6.98311776e-02f, 2.83647049e-02f, -1.76580250e-02f, 8.62305313e-02f, -9.28354785e-02f, -1.03603959e-01f, 2.66069099e-02f, -3.07333302e-02f, 3.92229371e-02f, 1.36905182e-02f, -2.83643246e-01f, -1.97129428e-01f, -1.77944021e-04f, -5.42302802e-03f, 2.06100126e-03f, 1.07210644e-01f, -6.93226233e-02f, -9.13158953e-02f, 1.15159191e-01f, 1.35885896e-02f, 2.36055125e-02f, -2.10085372e-03f, 1.65096164e-01f, 3.01045533e-02f, 7.93389902e-02f, 1.90580469e-02f, -2.58863587e-02f, -1.71072140e-01f, 7.01223314e-02f, 2.54521668e-01f, -1.93565972e-02f, -2.61732966e-01f, 1.35489078e-02f, -4.41101044e-02f, 1.83689129e-02f, -1.97507776e-02f, 8.74719694e-02f, -3.03467251e-02f, 1.33164465e-01f, 1.69552360e-02f, -1.66786149e-01f, -1.52616084e-01f, 7.63178896e-03f, 1.21537350e-01f, 2.53894669e-03f, 5.97743616e-02f, -8.73615071e-02f, -9.04712677e-02f, -5.96588813e-02f, 2.17087995e-02f, 1.67434648e-01f, 9.22560971e-03f, -1.32627621e-01f, -1.32575035e-01f, 8.56016427e-02f, 1.11488660e-03f, 1.60361961e-01f, -1.66823387e-01f, 3.26207042e-01f, -2.18238950e-01f, -9.32029262e-02f, 2.51091085e-02f, -1.90586057e-02f},
  {-1.35509046e-02f, 1.53175831e-01f, 1.27849400e-01f, 6.66637868e-02f, 1.83599740e-02f, 7.63991103e-02f, -1.04289493e-02f, 1.19996823e-01f, 6.61882609e-02f, -1.16304733e-01f, 3.24202776e-02f, 1.25514790e-01f, 2.05445483e-01f, -1.22936837e-01f, 5.23464605e-02f, -5.01004979e-02f, -2.50265072e-03f, -3.94006306e-03f, 4.68160361e-02f, -8.35318491e-03f, 1.72818050e-01f, -8.95889178e-02f, 7.95862228e-02f, 2.56663561e-02f, -1.31075829e-01f, 6.19391166e-02f, 5.02545089e-02f, 5.61047718e-02f, -1.50365442e-01f, -1.63256451e-01f, -3.47332656e-02f, -3.68740521e-02f, 3.27406339e-02f, -6.52387813e-02f, 1.09624028e-01f, 1.24743573e-01f, 7.06954673e-02f, 9.88073424e-02f, 9.46988761e-02f, -9.97123644e-02f, -1.20424174e-01f, -1.43118396e-01f, -7.17611313e-02f, 4.10244651e-02f, 5.06730415e-02f, -1.18999347e-01f, -6.62819296e-02f, -1.67625993e-01f, -6.49537519e-02f, -8.32878277e-02f, -3.49697396e-02f, -1.16041251e-01f, -1.67278089e-02f, -4.26011011e-02f, -1.39931485e-01f, -2.65208073e-02f, 9.28479284e-02f, -2.04221699e-02f, -2.79867835e-02f, -8.69250968e-02f, 2.03434937e-02f, -8.33354443e-02f, 4.41664346e-02f, 8.46632645e-02f, 3.69750299e-02f, 3.90343368e-02f, -5.68782203e-02f, -8.55568573e-02f, 1.58503398e-01f, -7.18728453e-03f, 1.56217635e-01f, -9.32884812e-02f, -1.30208537e-01f, -5.40383756e-02f, -1.59129445e-02f, 1.65386833e-02f, -1.00598462e-01f, -6.36507273e-02f, -2.17080802e-01f, 4.99398820e-02f, -2.53704041e-01f, 6.99425787e-02f, 9.02990997e-02f, -4.13440838e-02f, 6.68738708e-02f, -1.09186955e-01f, 6.79845661e-02f, -7.71647915e-02f, 2.91414279e-02f, 8.53074864e-02f, 2.91855074e-02f, -3.00333261e-01f, -7.98926800e-02f, -9.14502293e-02f, 8.25954415e-03f, 3.11485142e-01f, 2.90558450e-02f, -1.24517225e-01f, 1.88072085e-01f, 1.26731053e-01f, -5.62893376e-02f, -4.34631519e-02f, 8.48936215e-02f, 4.38386276e-02f, 7.21132103e-03f, -6.32009059e-02f, -1.88563336e-02f, -1.76958889e-01f, 3.57844234e-02f, 1.94230918e-02f, 5.71079589e-02f, -1.26923978e-01f, 4.47547659e-02f, 8.27919766e-02f, 3.26005532e-03f, -3.76392007e-02f, -2.98933368e-02f, -1.37710407e-01f, 9.09842476e-02f, -1.54208215e-02f, 1.03699721e-01f, 2.82988157e-02f, -1.30640820e-01f, -2.46643294e-02f, -2.15951994e-01f, 1.95283920e-01f, 3.04246377e-02f, 1.13664372e-02f},
  {5.93391471e-02f, 3.19033936e-02f, -6.37003500e-03f, 8.10839981e-02f, 3.15570623e-01f, -1.82980835e-01f, 6.17954023e-02f, 5.49515672e-02f, 2.61972770e-02f, -7.67895672e-03f, 1.42393008e-01f, 5.05519547e-02f, 2.79638380e-01f, -2.42092043e-01f, 4.24471088e-02f, -4.02261838e-02f, -1.71078593e-01f, -1.60295796e-02f, -2.44687442e-02f, -9.22710076e-03f, 6.13203235e-02f, 8.25608820e-02f, 2.03450229e-02f, 2.81906389e-02f, 7.96003267e-02f, -7.88924284e-03f, -5.09119034e-03f, 1.80797391e-02f, -4.62776683e-02f, 3.28584481e-03f, 1.73044465e-02f, 4.34526131e-02f, -2.13698205e-02f, -1.28486350e-01f, 4.84577604e-02f, -2.78199166e-01f, 2.88394958e-01f, 3.03155351e-02f, -5.80410585e-02f, 3.04396264e-02f, 5.82810082e-02f, 2.27944311e-02f, -8.37855563e-02f, 1.70002252e-01f, -1.11072846e-01f, 8.17215592e-02f, 3.64088975e-02f, 3.54261249e-02f, -8.18199595e-04f, -6.79669669e-03f, -1.45260170e-02f, -5.07281050e-02f, 7.98469584e-04f, 4.99935746e-02f, 6.59441948e-02f, 8.22098553e-02f, 5.98970391e-02f, 7.69996494e-02f, -3.06602996e-02f, -5.21654189e-02f, -1.88227426e-02f, -5.40828668e-02f, 1.68356020e-02f, 4.01842333e-02f, -5.29698171e-02f, -1.90656241e-02f, 4.72041108e-02f, -5.69779985e-02f, 1.09118342e-01f, -2.09488750e-01f, 3.53591703e-02f, 6.78536715e-03f, -1.28849968e-02f, 4.43023667e-02f, -5.68131208e-02f, -2.98299164e-01f, -4.29028928e-01f, 2.08536442e-03f, -9.79614407e-02f, -2.95911040e-02f, -2.71988455e-02f, -7.90159926e-02f, -3.38114202e-02f, 5.26968651e-02f, -1.64716598e-02f, -4.71587218e-02f, -1.65731236e-02f, 1.43025815e-01f, -3.85358967e-02f, 1.17683791e-01f, -1.84712216e-01f, 6.03261739e-02f, -3.82479429e-02f, 4.80653718e-02f, -2.60763038e-02f, -4.73791324e-02f, -8.48021433e-02f, 1.56076998e-02f, 2.24712621e-02f, -1.07647628e-02f, -7.33674020e-02f, 9.25197452e-02f, -1.61599219e-02f, 1.90798163e-01f, 5.30876741e-02f, -1.13368526e-01f, -7.53404647e-02f, 3.36088091e-02f, 1.16799928e-01f, 3.33465524e-02f, -1.76227838e-02f, -1.98780924e-01f, 2.32483838e-02f, -3.78565527e-02f, 5.14716767e-02f, 1.98996127e-01f, -1.78515576e-04f, -8.80779997e-02f, 1.44297585e-01f, 1.71313398e-02f, -4.05619368e-02f, 1.78091466e-01f, -4.78526056e-02f, 5.64064085e-02f, -4.81997877e-01f, -6.64216354e-02f, -2.98328744e-03f, 1.38293616e-02f},
  {-1.36152841e-02f, 2.21973918e-02f, -1.42389208e-01f, -3.27761821e-03f, 8.29092637e-02f, -7.23525286e-02f, 1.15576103e-01f, -9.40627828e-02f, -6.99711367e-02f, -2.15427056e-02f, 2.71945316e-02f, -3.56797385e-03f, 1.08466834e-01f, -1.61083519e-01f, 1.47097427e-02f, -4.21183445e-02f, -1.90744907e-01f, -1.21948710e-02f, -9.13661048e-02f, 9.89602581e-02f, 1.79026686e-02f, 1.57944839e-02f, -2.95451842e-02f, 6.40278030e-03f, -1.28275165e-02f, 5.45659177e-02f, -1.96479745e-02f, -5.00638643e-03f, -7.29722008e-02f, 3.19898780e-03f, 3.68602909e-02f, 5.02212234e-02f, 1.89937986e-02f, -1.71754763e-01f, 4.56133224e-02f, -1.69811383e-01f, 2.31924653e-01f, 5.84921576e-02f, -1.76483899e-01f, -5.49319535e-02f, -1.67502984e-01f, -9.56210215e-03f, -2.04327017e-01f, 9.64089707e-02f, -1.12024754e-01f, 8.95119086e-02f, 1.04239434e-02f, -1.77822635e-02f, 5.04429452e-02f, 3.73826772e-02f, 1.35750072e-02f, 9.98445135e-03f, 5.05466387e-02f, 3.76890488e-02f, 5.26287295e-02f, 2.16666106e-02f, 6.97174743e-02f, 6.71422482e-02f, -9.16666687e-02f, 2.84865219e-02f, -3.09157129e-02f, 1.91359296e-01f, -9.45296790e-03f, 1.00211818e-02f, -3.64372652e-04f, 6.45392239e-02f, 2.46035084e-02f, 4.26496193e-02f, 1.03563607e-01f, -4.45102304e-02f, -1.16505787e-01f, 6.95232255e-03f, 4.51513790e-02f, 4.67975773e-02f, -2.31388006e-02f, -1.88626945e-01f, -2.66157329e-01f, 1.04176551e-02f, -1.84626114e-02f, -1.00799212e-02f, -3.88099626e-02f, -9.49477404e-03f, -7.30644539e-02f, 2.70480793e-02f, -1.51793491e-02f, -1.25287473e-02f, -1.81777105e-02f, 1.83311492e-01f, 1.11634433e-01f, 1.11047715e-01f, 3.29135321e-02f, -1.02677103e-02f, -1.36141837e-01f, 6.27832208e-03f, -2.29599420e-02f, -1.11452028e-01f, 5.17772585e-02f, 1.86223944e-03f, 3.35197225e-02f, 1.84731875e-02f, 1.82124794e-01f, 9.84809324e-02f, -6.06692571e-04f, 4.99216765e-02f, 2.36266218e-02f, -2.08627746e-01f, -5.93419112e-02f, 1.93797164e-02f, 3.61087508e-02f, -1.91278048e-02f, 4.21339050e-02f, 8.97588804e-02f, 5.74900471e-02f, 2.05812812e-01f, -1.77359488e-02f, 2.33477950e-01f, 1.65535226e-01f, 2.23697955e-03f, -1.04925651e-02f, 4.54738513e-02f, -3.79221290e-02f, -8.77788290e-02f, -1.83884472e-01f, 1.64172918e-01f, -2.64929414e-01f, -1.57939605e-02f, 6.35665134e-02f, -5.33979349e-02f},
  {1.02844507e-01f, 1.07592501e-01f, -1.91803232e-01f, 2.22033113e-02f, 2.48706579e-01f, -1.60388499e-01f, 1.40906230e-03f, -6.44315109e-02f, -5.57344034e-02f, 4.29348648e-02f, 8.38769153e-02f, -1.07777324e-02f, 1.42703593e-01f, -8.49325359e-02f, 2.36298908e-02f, -5.98113202e-02f, -9.30202231e-02f, 1.58686470e-02f, -1.06191505e-02f, 4.71630245e-02f, 5.41262589e-02f, 4.76425365e-02f, -3.92577462e-02f, 9.15172417e-03f, 4.59147133e-02f, -2.07685046e-02f, -3.92844975e-02f, 2.89831012e-02f, -3.76580395e-02f, -5.37295686e-03f, 4.58259210e-02f, 4.44123931e-02f, 1.32075930e-02f, -2.87358016e-01f, 1.40052512e-01f, -3.11217993e-01f, 1.54857725e-01f, -2.51156613e-02f, -8.18565488e-02f, 2.02723458e-01f, -6.87781423e-02f, -1.49880992e-02f, 1.07670818e-02f, 3.41714799e-01f, -2.08348960e-01f, 4.16510738e-02f, 1.63992494e-02f, 4.90684174e-02f, -4.53265496e-02f, -2.52552573e-02f, -2.79664453e-02f, 8.57973471e-03f, 8.36995021e-02f, -3.16365212e-02f, 3.08857448e-02f, 6.52842969e-02f, 8.00288320e-02f, 3.73854414e-02f, 2.47376990e-02f, -3.87743413e-02f, 1.21305235e-01f, -4.39071245e-02f, 1.36166308e-02f, 7.74166882e-02f, -1.94731690e-02f, 1.98465344e-02f, 3.76025587e-02f, -3.78622152e-02f, 7.48977289e-02f, -1.07989199e-01f, -2.07582831e-01f, -1.81991197e-02f, -2.01115888e-02f, 8.63038450e-02f, 2.21642386e-02f, -3.93560648e-01f, -2.79080272e-01f, 2.40310729e-01f, -5.94926924e-02f, 3.57009694e-02f, -2.41790991e-02f, -4.16518636e-02f, -2.07520965e-02f, 4.42624837e-02f, -2.34744195e-02f, 2.70335544e-02f, 3.92348645e-03f, 6.14153519e-02f, 8.42991564e-03f, -8.18533450e-02f, -1.63692847e-01f, 1.08106183e-02f, -7.94204772e-02f, 2.58748177e-02f, 3.62043828e-01f, -6.80156425e-02f, -9.89289656e-02f, 8.34813248e-03f, 2.11014748e-02f, -7.28953555e-02f, 6.71796426e-02f, 5.87792732e-02f, -4.79538552e-03f, 9.72759649e-02f, -9.95781869e-02f, 1.75525770e-01f, -1.08572036e-01f, 2.73212674e-03f, 9.29702520e-02f, 2.77355523e-03f, 7.58417547e-02f, 3.68850045e-02f, -1.30962834e-01f, 5.59150148e-03f, 4.85142693e-02f, 3.45713884e-01f, -4.08816934e-02f, 1.04500994e-01f, 2.01960560e-02f, 1.52255073e-02f, -6.53424785e-02f, 7.77560025e-02f, -1.74494997e-01f, 4.98537645e-02f, -3.02970141e-01f, -6.18200265e-02f, 1.73207998e-01f, -3.08345575e-02f},
  {-1.02101173e-02f, -3.60068190e-03f, 1.95454881e-02f, 2.75689363e-01f, -8.92587705e-04f, -8.28438774e-02f, -8.73103291e-02f, -5.34007065e-02f, 1.13442764e-01f, 1.38673678e-01f, 9.49563645e-03f, 7.93923438e-02f, 8.33812132e-02f, -9.81746763e-02f, -2.11671442e-02f, 1.95391044e-01f, 4.21038903e-02f, -1.02910988e-01f, 4.44008224e-02f, 1.16819911e-01f, -1.88011385e-03f, 1.28293723e-01f, -3.15432876e-01f, -1.48761258e-01f, 1.57437012e-01f, -6.18032180e-02f, -9.60726589e-02f, 1.34046331e-01f, -9.27674845e-02f, -1.92438126e-01f, -1.20261937e-01f, -1.38774529e-01f, -1.66736424e-01f, 1.13083161e-01f, -9.25024375e-02f, -4.95483838e-02f, 8.66340995e-02f, 9.07159038e-03f, -8.81729275e-02f, 2.58846451e-02f, 1.03287905e-01f, -7.80510232e-02f, -3.44978715e-03f, -1.15472235e-01f, 1.35137647e-01f, 1.31761461e-01f, -1.56465217e-01f, -7.58312494e-02f, -8.59943330e-02f, 1.29702762e-01f, 2.85805035e-02f, -1.88772649e-01f, 3.53216082e-02f, -7.87084624e-02f, 1.58388272e-01f, 2.13054821e-01f, -1.21211939e-01f, 2.94060141e-01f, -1.69945434e-02f, -3.63038816e-02f, 1.04643866e-01f, 7.84375817e-02f, -1.98091224e-01f, -2.40075678e-01f, -2.31178626e-02f, 2.88115650e-01f, 6.15743212e-02f, -1.29737183e-01f, 6.04936406e-02f, 7.98285939e-03f, -7.67111182e-02f, -1.03477286e-02f, -6.28208593e-02f, -1.34542078e-01f, 4.76848483e-02f, -1.00213006e-01f, -3.68471211e-03f, -3.14586447e-03f, -3.07285994e-01f, -6.92569092e-02f, -2.01053813e-01f, -4.36586440e-02f, 3.99232507e-02f, -5.06452173e-02f, -5.43570593e-02f, -2.64636166e-02f, 2.05824330e-01f, 1.34704322e-01f, -4.02662531e-02f, 5.55055775e-02f, 1.88834444e-02f, -7.24310949e-02f, -5.54537401e-02f, -1.74528986e-01f, -7.53585622e-02f, -1.60358727e-01f, -2.14719027e-01f, 4.06592013e-03f, -1.95954423e-02f, -3.50697450e-02f, 1.92348249e-02f, -7.28155822e-02f, 5.68584464e-02f, 8.60545859e-02f, 4.10296321e-02f, -4.80832681e-02f, 7.42714899e-03f, -1.12693779e-01f, 2.78647214e-01f, -7.28212893e-02f, -3.53336111e-02f, 7.46512935e-02f, 1.48507464e-03f, -7.96011090e-02f, -6.52335733e-02f, 1.69891200e-03f, 1.47921219e-01f, 5.55792917e-03f, 5.50284386e-02f, 6.76041320e-02f, 1.22524826e-02f, 1.12217702e-01f, -2.18643442e-01f, -1.94902435e-01f, -9.51957181e-02f, 1.23152547e-01f, 2.01891378e-01f, -1.15217291e-01f},
  {4.78638299e-02f, -8.77733976e-02f, -3.48648876e-02f, 3.01238596e-01f, 3.52574661e-02f, 3.08334023e-01f, -2.26469897e-02f, -6.96572065e-02f, 4.31551300e-02f, -5.30151874e-02f, 1.66001450e-02f, -2.21665382e-01f, -9.85910073e-02f, 1.09715186e-01f, 1.64613858e-01f, 1.49062932e-01f, -1.92001581e-01f, 3.05215195e-02f, -7.23994570e-03f, -2.79061496e-01f, 7.58750290e-02f, 1.35054104e-02f, 7.09475055e-02f, 1.85088828e-01f, -2.35251412e-01f, -2.38955021e-01f, 1.33965790e-01f, -6.58081993e-02f, -2.86613610e-02f, 4.29444425e-02f, 1.41738176e-01f, -1.50112405e-01f, -1.31489426e-01f, 1.92966774e-01f, 3.99827696e-02f, 4.87037450e-02f, -1.25851296e-03f, -1.89796329e-01f, -2.57390678e-01f, -1.05231650e-01f, -3.35215852e-02f, 1.41051598e-02f, 2.33371183e-01f, 1.02557600e-01f, 2.05596432e-01f, 1.54646546e-01f, 2.65819319e-02f, 1.21179827e-01f, -1.08434193e-01f, 6.63691536e-02f, -2.89846867e-01f, 8.66072476e-02f, -3.56500819e-02f, -2.14581221e-01f, -2.38472760e-01f, 3.47446203e-02f, 1.11055918e-01f, -7.28652477e-02f, 8.15290436e-02f, 3.81942481e-01f, -1.68926179e-01f, 1.73220292e-01f, 4.93330583e-02f, -1.43431574e-01f, 3.84773225e-01f, 1.95122242e-01f, 2.64155073e-03f, -1.73375756e-01f, -1.63218662e-01f, 1.63407847e-01f, 2.48831704e-01f, -3.70452181e-02f, -9.79085490e-02f, 1.10361025e-01f, 2.45503008e-01f, 2.26756409e-02f, 1.05049662e-01f, -2.67416835e-02f, 1.42883152e-01f, -1.07733697e-01f, 2.56946385e-02f, -4.49383892e-02f, 1.11187413e-01f, -1.13957748e-01f, -1.67337582e-01f, -2.29502879e-02f, 1.66199610e-01f, -1.08955085e-01f, -2.55084753e-01f, -7.59677812e-02f, 3.51585835e-01f, -1.40236020e-01f, -2.67634094e-01f, -5.88410646e-02f, -2.97940560e-02f, 3.27267945e-01f, -1.56871721e-01f, -1.01186469e-01f, -1.23729616e-01f, 1.62889659e-01f, -2.15466470e-01f, -2.35370323e-02f, 3.31054151e-01f, 2.16088116e-01f, 4.02281046e-01f, -2.23099440e-01f, 9.64758247e-02f, 4.37839061e-01f, -9.07138512e-02f, 1.88230313e-02f, 3.41559947e-01f, -2.00439140e-01f, -5.06085008e-02f, -1.72175378e-01f, -5.39508045e-01f, 7.19252601e-02f, 4.81659807e-02f, -1.16582192e-01f, -3.12506139e-01f, -1.93590954e-01f, 1.86736025e-02f, -1.63614918e-02f, 4.57741873e-04f, -3.90725166e-01f, 2.01285064e-01f, 5.09878434e-02f, -7.71821216e-02f, -1.01027355e-01f},
  {-1.50473833e-01f, -3.81347840e-03f, -6.20658338e-01f, 1.64754223e-02f, 1.34706497e-01f, 3.68188508e-02f, -3.25482264e-02f, 2.08965451e-01f, 7.93157667e-02f, -3.70104946e-02f, 4.81059402e-03f, 6.62618056e-02f, 1.39180019e-01f, -2.83323884e-01f, -2.76053161e-03f, 1.53137922e-01f, -1.62881359e-01f, 7.82243721e-03f, -1.09162040e-01f, 7.96284005e-02f, 4.82434127e-03f, 1.38061764e-02f, 2.24184822e-02f, 9.02177170e-02f, 1.41453100e-02f, 2.84410287e-02f, 1.54732885e-02f, -2.61811912e-03f, -4.88411784e-02f, -3.24873603e-03f, -1.26266122e-01f, -9.82814282e-02f, -2.60744337e-03f, -2.80139185e-02f, 2.40748510e-01f, -9.10729170e-02f, 3.11029941e-01f, 1.20585188e-01f, -2.46981561e-01f, -1.65461630e-01f, -7.96790570e-02f, 9.25413892e-02f, -1.15854867e-01f, -7.79698566e-02f, -1.40301988e-01f, 3.56992692e-01f, -4.09998000e-02f, 6.35880753e-02f, -5.34498133e-02f, -7.20813349e-02f, -3.19548175e-02f, -7.70432279e-02f, -7.30729625e-02f, 2.43437886e-01f, 8.69799703e-02f, 3.31807472e-02f, 1.97675005e-02f, 2.00230539e-01f, -9.03364867e-02f, -7.02861547e-02f, -1.75271615e-01f, -5.78808077e-02f, -4.81313132e-02f, -1.79905053e-02f, -4.08140533e-02f, -9.82812494e-02f, 1.73679981e-02f, -1.22912310e-01f, 1.45278543e-01f, -9.00525376e-02f, 5.69433756e-02f, 3.10687791e-03f, 1.42864004e-01f, -9.30985734e-02f, -9.25320163e-02f, -3.74524534e-01f, -5.26304305e-01f, -1.65053204e-01f, -5.65901957e-02f, -5.62941730e-02f, 3.29699740e-02f, -7.54572302e-02f, -9.34424028e-02f, 1.42701522e-01f, 1.15425112e-02f, 2.81162560e-02f, -3.91135775e-02f, 1.67448655e-01f, -2.31285905e-03f, 4.96282011e-01f, -5.59214689e-02f, -1.94560573e-03f, -3.90037805e-01f, 6.58907965e-02f, 2.85319805e-01f, -2.40274087e-01f, -2.62459606e-01f, 1.03173973e-02f, -9.52615961e-03f, 8.73303264e-02f, -8.64032209e-02f, 3.14184576e-02f, -7.33494153e-03f, -1.91855133e-02f, 2.37889498e-01f, 1.83324516e-02f, 2.69072223e-02f, 1.89539939e-01f, 8.05351585e-02f, 7.22238496e-02f, 7.65489563e-02f, -2.98842732e-02f, 4.31120843e-02f, -1.36166438e-01f, -2.61242744e-02f, 3.86540055e-01f, -2.71344692e-01f, -1.16974339e-01f, -5.18055037e-02f, -8.99552926e-03f, 1.63791757e-02f, 1.17949307e-01f, -1.11884452e-01f, 2.49587238e-01f, -4.61962104e-01f, -8.33670795e-02f, 2.87498504e-01f, 3.59726511e-02f},
  {-6.66068867e-03f, 6.72065914e-02f, 5.19901551e-02f, 6.11326750e-03f, 4.80598986e-01f, -1.60842195e-01f, -3.38194557e-02f, 9.64674205e-02f, 3.01485285e-02f, 1.54311126e-02f, 1.86545968e-01f, 2.59148404e-02f, 3.12875301e-01f, -1.58354506e-01f, -1.77861620e-02f, -1.28827672e-02f, -1.38727948e-01f, 1.55435922e-02f, -2.31364649e-02f, -6.85739424e-03f, -1.19336806e-02f, 1.84859000e-02f, -1.12944329e-02f, 4.57771383e-02f, 1.32652437e-02f, 6.13950044e-02f, -1.50914360e-02f, -3.70806232e-02f, 3.87280583e-02f, -2.58473959e-02f, 2.14819796e-02f, 3.23918462e-02f, 8.87741670e-02f, -5.37279770e-02f, 2.10607886e-01f, -1.21219307e-01f, 3.15756530e-01f, -3.72149162e-02f, -4.86156158e-02f, 1.59443133e-02f, 1.66755766e-02f, -2.31021363e-02f, -1.54828653e-01f, 1.80491194e-01f, -3.56913283e-02f, 3.25039886e-02f, 5.61347604e-02f, -6.57185316e-02f, -3.36485803e-02f, 3.86725068e-02f, -1.79026313e-02f, -2.53968257e-02f, 3.20622162e-03f, 8.41702670e-02f, 1.27378125e-02f, -5.33108190e-02f, 1.14822099e-02f, 8.80230293e-02f, 5.29745407e-02f, -1.52986906e-02f, 1.07989550e-01f, 6.49422780e-02f, -1.40114957e-02f, -4.57684584e-02f, -4.48898897e-02f, -4.38936986e-03f, 8.13198625e-04f, 6.05137646e-02f, 6.86900094e-02f, -2.31608421e-01f, -9.70278978e-02f, -2.87860795e-03f, -1.04687763e-02f, -4.30235937e-02f, 3.03033669e-03f, -2.45625004e-01f, -3.93530518e-01f, 2.22748872e-02f, 5.66528663e-02f, -1.87013540e-02f, 3.12226787e-02f, 6.77936971e-02f, -7.73651376e-02f, 8.33370313e-02f, -6.64042728e-03f, -8.09594020e-02f, -1.67364608e-02f, 2.06912801e-01f, 1.04177393e-01f, 1.55305609e-01f, -1.02790207e-01f, 5.23750819e-02f, -2.25185230e-01f, 4.37294580e-02f, 1.75455853e-01f, -3.48843411e-02f, -1.90542594e-01f, 1.64549537e-02f, -5.54224625e-02f, 1.27876280e-02f, -1.39294147e-01f, 3.77935842e-02f, -6.58115884e-03f, -2.83666570e-02f, 2.14848202e-02f, -8.02759677e-02f, -1.11499988e-01f, 4.50586947e-03f, 4.85641249e-02f, 3.48415156e-03f, -9.57614481e-02f, -9.20922384e-02f, 2.64635645e-02f, 1.27867192e-01f, 7.27883866e-03f, 2.67667025e-01f, -5.13430201e-02f, -1.13567859e-01f, -4.13672701e-02f, 1.28061101e-02f, -4.12807502e-02f, 8.31577033e-02f, -1.49322495e-01f, 3.01663548e-01f, -4.11868036e-01f, -2.40779333e-02f, 7.40057305e-02f, 1.24800457e-02f},
  {8.64228010e-02f, -1.98279833e-03f, 3.48312594e-02f, 1.11473752e-02f, 4.94090766e-01f, -1.12320326e-01f, 8.64975080e-02f, 5.85759692e-02f, -2.31405143e-02f, 5.68239111e-03f, -8.38490054e-02f, 7.63189141e-03f, 1.68352336e-01f, -7.71330073e-02f, 4.67514545e-02f, -2.32172143e-02f, -6.79169744e-02f, -1.70111563e-02f, -1.90101653e-01f, 2.12453812e-01f, 1.19063621e-02f, 3.07300854e-02f, -8.76033306e-02f, 1.40357697e-02f, -3.10761500e-02f, 1.28598306e-02f, 2.88410410e-02f, 8.86478741e-03f, -6.64704815e-02f, 2.23677922e-02f, 3.92484814e-02f, 5.83147481e-02f, -8.67460761e-03f, -1.26697138e-01f, 1.18651800e-01f, -1.58595398e-01f, 2.25777924e-01f, -9.41946637e-03f, -1.87855273e-01f, 7.50399008e-02f, 1.06525041e-01f, -2.35820329e-03f, -3.23635563e-02f, 8.86716992e-02f, -2.46292744e-02f, 1.49533212e-01f, 2.18511038e-02f, 2.48679258e-02f, 4.27835509e-02f, 7.62373284e-02f, -2.59359106e-02f, -7.53255710e-02f, -2.75177080e-02f, -6.36208206e-02f, 9.22963992e-02f, -3.19904238e-02f, 1.22105861e-02f, 9.94111523e-02f, -3.03920079e-02f, -2.87753046e-02f, -7.17176795e-02f, -1.02361746e-01f, 7.70198833e-03f, 3.59257609e-02f, -8.23672977e-04f, -9.11100395e-03f, 4.19938229e-02f, -5.58714941e-02f, 1.78629801e-01f, -4.23905179e-02f, -2.02628702e-01f, 4.06621723e-03f, -4.61635413e-03f, -7.60119548e-03f, -9.06061530e-02f, -4.29039955e-01f, -2.15060994e-01f, 2.94433031e-02f, 7.10949244e-04f, 8.48156214e-03f, -1.06989503e-01f, -3.18970829e-02f, -1.07814722e-01f, 5.92306145e-02f, 5.66984527e-03f, 6.78692535e-02f, -3.46100740e-02f, 2.84203380e-01f, 7.61936530e-02f, -1.79359112e-02f, -6.36262968e-02f, -1.96477119e-02f, -1.30980849e-01f, 2.58294046e-02f, 2.49931857e-01f, -3.12145846e-03f, -1.78827152e-01f, 1.01318238e-02f, 2.77498271e-02f, 1.43530807e-02f, -3.64010632e-02f, 6.35949671e-02f, -1.67508330e-02f, 5.34267165e-02f, 3.77401225e-02f, 1.15470998e-02f, -1.34090319e-01f, 2.44360063e-02f, 8.64732489e-02f, 3.66326720e-02f, 3.32383364e-02f, -3.54922786e-02f, -9.50272158e-02f, -7.50565976e-02f, 1.47991171e-02f, 2.15700611e-01f, -1.89883694e-01f, -1.42158523e-01f, -1.38384789e-01f, -1.89197678e-02f, -2.34370697e-02f, 5.16659915e-02f, -1.28980920e-01f, 2.28856459e-01f, -2.38960490e-01f, -3.87321003e-02f, 2.99133435e-02f, 4.14059050e-02f},
  {-1.10372053e-02f, 6.03661276e-02f, -9.43663716e-02f, 5.27399741e-02f, 1.56495139e-01f, -1.11845925e-01f, 1.02622658e-01f, 1.51581466e-01f, -3.99989113e-02f, -9.03953984e-03f, -6.97292238e-02f, -3.93525921e-02f, 1.60865948e-01f, 3.00029572e-03f, 7.28006661e-02f, -5.96983917e-02f, -6.77746087e-02f, -2.65560541e-02f, -5.33095263e-02f, -2.43978873e-02f, -5.42487651e-02f, -7.80404778e-03f, -7.98761621e-02f, 1.24752913e-02f, 1.26180402e-03f, 6.71957955e-02f, -2.33134497e-02f, -9.66095179e-03f, -1.04221217e-02f, 1.42259337e-02f, 3.94004062e-02f, 1.07357197e-01f, 7.61250034e-02f, 3.07815932e-02f, -6.25049248e-02f, -1.53528731e-02f, 2.51282364e-01f, 1.22032231e-02f, -1.03193760e-01f, 1.48599029e-01f, 1.88264593e-01f, -5.61727285e-02f, -1.88585401e-01f, 6.49022162e-02f, -1.05444402e-01f, -4.66487370e-02f, 1.77056715e-02f, -1.95566453e-02f, 1.24270152e-02f, 1.08399630e-01f, -8.10083747e-03f, 3.09072714e-02f, 3.66253499e-03f, -4.56519313e-02f, 1.31153867e-01f, 6.93553090e-02f, 7.22519904e-02f, -2.09518373e-02f, -2.78261714e-02f, 1.39798243e-02f, -2.39234433e-01f, -8.94200429e-02f, -3.85201909e-03f, 2.07014401e-02f, -1.60516333e-02f, 3.10825445e-02f, 2.20478326e-02f, -1.05913850e-02f, 1.14320397e-01f, 4.00155932e-02f, -8.59185085e-02f, -5.47535438e-03f, -5.44386394e-02f, -9.15829930e-03f, 3.09058605e-03f, -1.52009651e-01f, -3.17295969e-01f, -5.02468608e-02f, 2.91163977e-02f, 1.29417041e-02f, -9.30519700e-02f, -9.76554528e-02f, -1.13590285e-01f, 6.34146901e-03f, 1.74757317e-02f, -4.47365735e-03f, 9.57060885e-03f, 2.74977028e-01f, -2.22266316e-02f, -2.11957529e-01f, -6.94778562e-02f, -2.58801077e-02f, -1.27039328e-01f, -1.82257295e-02f, 1.96344405e-01f, -5.78708760e-02f, 1.05053931e-01f, -2.21775491e-02f, 2.85527520e-02f, 2.02227267e-03f, 6.58057779e-02f, 5.24169467e-02f, 7.34044798e-03f, 1.55848768e-02f, -1.16675854e-01f, -1.30952850e-01f, -2.53052115e-01f, -1.11473575e-02f, 4.87561636e-02f, -1.82076823e-02f, 6.63348213e-02f, -4.15871665e-02f, 3.18961404e-02f, 3.13772261e-02f, 1.37928687e-02f, 2.60002941e-01f, 5.14440350e-02f, -1.53740376e-01f, -1.35013223e-01f, 5.66919558e-02f, -9.99706797e-03f, 1.75067246e-01f, -2.10061565e-01f, 5.32117262e-02f, -1.60474628e-01f, -5.02859317e-02f, 1.40532196e-01f, 6.12857714e-02f},
  {-3.21326926e-02f, 8.99606198e-03f, -1.22443445e-01f, -7.83171728e-02f, 2.40568832e-01f, -3.00722808e-01f, 1.26322418e-01f, 1.08947093e-02f, 1.76438197e-01f, 1.33321900e-02f, 5.03859334e-02f, -8.49450286e-03f, 1.25026122e-01f, -1.80502504e-01f, -4.17637117e-02f, -1.51948081e-02f, -3.11484444e-03f, -6.32633641e-03f, -1.21916331e-01f, 6.77144900e-02f, -2.64645331e-02f, 1.56063447e-02f, -3.65866534e-02f, 7.12239817e-02f, 2.29058918e-02f, -2.10926868e-02f, -1.02318879e-02f, 2.65016332e-02f, 2.09923834e-02f, 1.76269896e-02f, -1.40437379e-01f, 7.15115219e-02f, -3.66812162e-02f, -1.71296403e-01f, -7.39194406e-03f, -6.28480762e-02f, 2.24884197e-01f, 2.21383888e-02f, 4.64737341e-02f, 2.48345453e-02f, -1.38027981e-01f, -5.47449216e-02f, 7.27209821e-02f, 1.67966366e-01f, -2.23350212e-01f, 5.46372794e-02f, 2.51564812e-02f, -9.38124768e-03f, -2.54087653e-02f, 8.13098624e-02f, -1.33047523e-02f, -1.17879897e-01f, 4.68473658e-02f, -1.40467985e-02f, 4.51916158e-02f, 1.87817030e-02f, 2.66884696e-02f, 2.62786113e-02f, 1.59504153e-02f, -3.32287587e-02f, 9.55978110e-02f, 5.36716692e-02f, 1.19073521e-02f, 3.70742120e-02f, -3.15569565e-02f, 4.44108881e-02f, 1.52715920e-02f, 1.97908133e-02f, 9.78888869e-02f, 1.08180463e-01f, -5.50389029e-02f, 3.89010124e-02f, 1.55616952e-02f, 7.87761733e-02f, -3.13044265e-02f, -3.76411289e-01f, -3.05753469e-01f, 1.11056253e-01f, 3.26560773e-02f, 3.36135067e-02f, -4.66096848e-02f, -1.50499027e-02f, -9.30127054e-02f, 3.62997912e-02f, -1.88951064e-02f, -8.31092447e-02f, -2.30585318e-02f, 9.77512002e-02f, -1.07029893e-01f, -3.46609019e-02f, -1.54630259e-01f, 3.39707993e-02f, -1.57401592e-01f, 2.33504884e-02f, -7.21365660e-02f, -1.35769071e-02f, -8.16174522e-02f, -7.15995813e-03f, 3.89152467e-02f, -5.80100529e-02f, 1.62905827e-01f, -1.01822503e-02f, -1.32921143e-02f, 1.17887691e-01f, 9.71983466e-03f, -7.14482740e-02f, -1.27315879e-01f, 2.34496407e-02f, 5.83948940e-02f, 7.38342898e-03f, 8.22921172e-02f, 6.57884628e-02f, -7.93092027e-02f, 1.01429090e-01f, 7.19782487e-02f, 2.39003077e-02f, 1.05255812e-01f, -1.34046137e-01f, -5.55468053e-02f, -2.62850579e-02f, -4.41878550e-02f, -2.61081830e-02f, -2.12289512e-01f, 2.30156541e-01f, -2.70244479e-01f, -6.45518750e-02f, 2.11141050e-01f, 4.47910652e-02f},
  {-3.73113379e-02f, -7.04041868e-03f, -9.11056343e-03f, 3.74395549e-02f, -3.40118520e-02f, 6.72800466e-02f, 7.94279948e-02f, -1.27231181e-01f, 7.18008503e-02f, -3.04468106e-02f, -1.12731783e-02f, -4.07891721e-02f, 1.28801554e-01f, -5.66524863e-02f, 4.53032851e-02f, -3.19764018e-02f, -1.11168355e-01f, -5.36489300e-02f, -6.41693845e-02f, 2.00326428e-01f, 1.21972628e-03f, 3.60145681e-02f, -7.34296814e-02f, 5.67350499e-02f, -1.47604765e-02f, 7.94673935e-02f, 1.17430110e-02f, -1.18472483e-02f, -6.85086995e-02f, -1.87579878e-02f, 8.66515376e-03f, 2.83262189e-02f, 2.60070264e-02f, 2.74258684e-02f, 7.89750367e-02f, -1.83176264e-01f, 2.24019900e-01f, 8.97276681e-03f, -3.34392190e-01f, -8.96091089e-02f, 7.93005712e-03f, -1.99555140e-02f, -2.06776649e-01f, 1.20031983e-02f, -1.71475932e-02f, 4.28936072e-03f, -1.96277853e-02f, -1.39317457e-02f, -9.79061704e-03f, -1.10673957e-01f, -1.55627020e-02f, 1.06181614e-02f, -1.63377076e-02f, 1.16362169e-01f, 9.54065248e-02f, 5.96557558e-02f, 6.88838586e-02f, 4.76769404e-04f, -1.20412923e-01f, -3.15805641e-03f, -1.85555845e-01f, -9.68558639e-02f, 1.08754737e-02f, 9.44569055e-03f, -3.48968133e-02f, 1.83683354e-02f, 2.90534217e-02f, -3.79600525e-02f, -1.58847451e-01f, 2.22900435e-02f, -7.79419020e-02f, 3.08669340e-02f, 4.84480243e-03f, 6.84759617e-02f, -7.85133466e-02f, -4.79079843e-01f, -3.89484227e-01f, 7.24245235e-02f, 4.30004783e-02f, 5.23225637e-03f, 3.47240060e-03f, -9.20481514e-03f, -1.11430734e-01f, 4.58614938e-02f, -5.05639007e-03f, -7.44763911e-02f, -1.18713118e-02f, 2.48953581e-01f, -7.06596673e-03f, 7.07229450e-02f, 1.31253982e-02f, -3.54380496e-02f, -6.07246011e-02f, 3.69446054e-02f, 1.84603199e-01f, 2.08899733e-02f, -4.69385795e-02f, 4.02758121e-02f, 2.70233862e-02f, 6.05602711e-02f, -1.94365785e-01f, 7.44307935e-02f, -6.02081744e-03f, -5.13935946e-02f, -7.57928118e-02f, 2.11189073e-02f, -7.22542182e-02f, -2.25298642e-03f, 8.57036635e-02f, 1.88831631e-02f, -1.26248583e-01f, 1.39435247e-01f, -1.41604349e-01f, -5.38010895e-02f, -1.20858718e-02f, 2.35844031e-01f, -1.45746723e-01f, -3.70311774e-02f, -1.06341347e-01f, 8.58808681e-02f, -9.09633096e-03f, 1.10206805e-01f, -7.07758591e-02f, 1.15313932e-01f, -1.55883878e-01f, -6.25676066e-02f, 1.19209357e-01f, -2.65356638e-02f},
  {1.10834181e-01f, 4.19089198e-02f, -8.16026423e-03f, 1.22675369e-03f, 3.05811793e-01f, -1.97160676e-01f, 8.52934122e-02f, 2.10630335e-02f, -7.50435889e-02f, 3.89261842e-02f, -2.17230222e-03f, 1.41402462e-03f, 2.87147164e-01f, -9.55439135e-02f, 5.18702865e-02f, -2.20275167e-02f, -4.11455631e-02f, -1.00823892e-02f, -6.20197691e-03f, -7.10375533e-02f, 7.05707893e-02f, 1.36116315e-02f, -4.03860733e-02f, -2.35514939e-02f, 2.41229101e-03f, -8.78425594e-03f, -2.03942228e-02f, 2.23720670e-02f, 1.36102527e-01f, 1.73329283e-02f, -4.23557870e-02f, -1.53327286e-02f, 2.60666944e-02f, -4.91551384e-02f, 1.68171272e-01f, -3.41754377e-01f, 3.02345753e-01f, -1.88878924e-02f, -6.27286434e-02f, 6.63942918e-02f, -7.22831041e-02f, -2.00415030e-02f, 6.64770082e-02f, 2.54025489e-01f, 1.99335799e-01f, 1.61150247e-02f, 3.81668136e-02f, -3.01029552e-02f, 7.82209169e-03f, 2.87702866e-02f, -1.13633936e-02f, -9.22572538e-02f, 5.14632389e-02f, -1.05066881e-01f, 2.78473943e-02f, -4.67972234e-02f, 1.81536302e-02f, 1.32259592e-01f, -6.58376366e-02f, -3.01907398e-02f, -7.61758611e-02f, -2.90980954e-02f, 2.68291011e-02f, -1.02174990e-02f, 5.46699623e-03f, 6.54533331e-04f, 1.97485331e-02f, 2.44659614e-02f, 2.73427218e-01f, -1.36964843e-01f, -1.82020620e-01f, -2.40441528e-03f, -2.56405305e-02f, 3.48905241e-03f, -6.22463115e-02f, -2.21202284e-01f, -2.79570311e-01f, 2.05209985e-01f, -7.75483204e-03f, 8.03537696e-05f, -1.02843791e-01f, 1.25840837e-02f, -1.03414319e-01f, 2.38846149e-02f, -2.70691086e-02f, -4.37522084e-02f, -3.14986631e-02f, 4.31532949e-01f, -8.19748119e-02f, -2.93350359e-03f, -1.85223430e-01f, 3.01893819e-02f, -1.14312861e-02f, 4.32683295e-03f, 1.33122548e-01f, -9.46012512e-02f, -8.23337957e-02f, 2.24093650e-03f, 2.66716760e-02f, -5.20291366e-02f, -8.47998820e-03f, 4.91638109e-02f, -2.79597081e-02f, 8.50832611e-02f, 7.65205249e-02f, -7.66422674e-02f, -1.01918668e-01f, 1.56228999e-02f, 7.14436024e-02f, 4.53058444e-03f, 3.59845236e-02f, -2.21652370e-02f, -1.06759921e-01f, 8.96189176e-03f, 4.46609445e-02f, 4.15908955e-02f, -1.21756136e-01f, -1.84006221e-03f, -2.68864539e-02f, -3.23707126e-02f, -6.55853376e-02f, 2.61649311e-01f, -9.72718671e-02f, 1.64428875e-01f, -2.72226095e-01f, -2.69455519e-02f, 2.75013074e-02f, 2.32937047e-03f},
  {1.61193863e-01f, -4.70824167e-03f, -2.63430834e-01f, 1.79427817e-01f, 4.47016269e-01f, 3.90697271e-01f, 4.15662378e-02f, 1.37916222e-01f, 2.35634688e-02f, -6.32970966e-03f, 8.61519724e-02f, 9.84862540e-03f, -8.63327757e-02f, -1.14302404e-01f, 2.28711460e-02f, -4.65855926e-01f, 3.18707828e-03f, -1.62128836e-01f, 2.99715698e-02f, -3.57036106e-02f, 7.95646086e-02f, -1.02645405e-01f, -4.93518487e-02f, -8.76330808e-02f, -5.13156429e-02f, 7.22292066e-02f, -1.02353260e-01f, 7.45248515e-03f, 2.61031896e-01f, -4.12048623e-02f, -8.69482160e-02f, 3.15706395e-02f, 1.94494054e-01f, -2.82354802e-01f, -2.81162024e-01f, -1.32913604e-01f, -9.25768986e-02f, 1.84966430e-01f, 4.24889885e-02f, -3.18190664e-01f, -5.09725809e-02f, 1.31186277e-01f, -1.52972475e-01f, 5.38055897e-01f, -1.35519952e-01f, 1.34823978e-01f, 2.61505321e-03f, 4.80426848e-02f, -2.26682082e-01f, -1.01510338e-01f, 3.00941640e-03f, -1.03160672e-01f, 1.45565867e-01f, 2.35346943e-01f, 4.99976873e-02f, -1.53232872e-01f, -2.08352327e-01f, -1.18932195e-01f, 5.01006609e-03f, 1.35609796e-02f, -1.10553369e-01f, -5.30639961e-02f, -7.41111394e-03f, -4.69021918e-03f, -5.65340444e-02f, -3.75863433e-01f, 2.67617907e-02f, 3.54327820e-02f, 5.90816885e-02f, -5.09869516e-01f, 4.15015183e-02f, 6.23671860e-02f, -6.91340864e-02f, -1.32637527e-02f, -5.68934418e-02f, -2.76436239e-01f, -2.97494624e-02f, -1.33746073e-01f, 2.25498721e-01f, -9.38710496e-02f, 3.15519333e-01f, -6.64814264e-02f, 5.48423469e-01f, 1.12256989e-01f, 2.95654200e-02f, 1.10568263e-01f, 3.71234342e-02f, 2.67855376e-01f, -2.08489731e-01f, -8.68188292e-02f, -1.99187715e-02f, 7.27668032e-02f, -2.32217442e-02f, 7.07236230e-02f, 1.69730842e-01f, -4.16578315e-02f, -8.04823786e-02f, 2.53233574e-02f, 1.87789127e-02f, 7.03038946e-02f, 2.78823748e-02f, -1.97658792e-01f, -9.09961388e-02f, -1.11178808e-01f, 5.11493206e-01f, 1.85576692e-01f, -8.40832368e-02f, -7.65737832e-01f, 5.69239184e-02f, -1.15162996e-03f, -3.27082984e-02f, -4.28457320e-01f, 3.02138418e-01f, 4.56259131e-01f, -5.71588194e-03f, -1.60146579e-02f, 4.85394448e-01f, -8.73837247e-02f, -2.72523344e-01f, -2.73019783e-02f, -9.82738566e-04f, 1.22675270e-01f, 3.16909887e-02f, 2.10142627e-01f, -1.11690588e-01f, -1.10755585e-01f, -9.33197290e-02f, 8.66612345e-02f},
  {-5.83047867e-02f, -4.24983501e-02f, 8.05646088e-03f, 1.26401484e-01f, 8.70602205e-02f, 1.76115245e-01f, -2.26714592e-02f, 1.11427968e-02f, 1.00571318e-02f, 5.21672778e-02f, -5.96259236e-02f, 8.51797387e-02f, -7.56447762e-03f, 1.00184798e-01f, -5.00677265e-02f, 3.65134887e-02f, 1.50917932e-01f, 1.63243432e-02f, 1.63790375e-01f, -6.07039779e-02f, 7.65181705e-02f, -5.75146340e-02f, -1.38307199e-01f, 1.36149898e-02f, -1.37276361e-02f, -1.54223412e-01f, 1.08057611e-01f, 5.32391183e-02f, 2.83879992e-02f, -5.36245517e-02f, -4.51980196e-02f, -8.24910179e-02f, -8.33638851e-03f, -5.11610210e-02f, 2.76818965e-03f, -8.05691853e-02f, 4.66384366e-02f, 6.09503612e-02f, 4.90942374e-02f, -1.19274035e-01f, -2.50037611e-02f, -1.33969197e-02f, -4.90945540e-02f, 1.09549552e-01f, 4.62926812e-02f, -1.54166430e-01f, 5.41199371e-02f, -2.13521659e-01f, -2.39079371e-02f, -4.39923033e-02f, -6.71711890e-03f, -6.07409924e-02f, -1.36907279e-01f, 9.38269645e-02f, -7.07772449e-02f, 4.26751561e-02f, -4.66296002e-02f, -4.03377563e-02f, -1.24236912e-01f, -1.06468178e-01f, -5.70973754e-02f, 3.93157303e-02f, 3.47021073e-02f, -1.23290166e-01f, -7.75325745e-02f, 1.56761557e-01f, -5.48516251e-02f, 8.29066732e-04f, 1.32214883e-03f, 8.92056897e-02f, 8.91325027e-02f, 1.29900267e-02f, 1.21091001e-01f, -1.29187748e-01f, -7.35252872e-02f, 1.01312406e-01f, 3.45994905e-02f, -8.83475989e-02f, -1.17408819e-01f, -1.35212660e-01f, -1.25262961e-01f, 1.66234840e-03f, 1.06153346e-03f, -5.43525517e-02f, -3.99516076e-02f, 1.01313427e-01f, 1.60287067e-01f, 1.52972981e-01f, -1.52698904e-01f, 8.82370472e-02f, 1.96792617e-01f, -5.55034028e-03f, 1.32517040e-01f, -1.51490986e-01f, -1.42687097e-01f, 8.72797146e-02f, -8.37300569e-02f, 1.37464767e-02f, -5.37714995e-02f, 1.69189766e-01f, -6.38741031e-02f, 4.45324145e-02f, 8.29041079e-02f, -1.59053534e-01f, 3.10068578e-02f, -4.19082530e-02f, 1.62545204e-01f, -1.15320615e-01f, -3.71589102e-02f, 1.88735221e-02f, -8.67547095e-02f, 5.63425198e-02f, -1.01681724e-01f, -5.72531894e-02f, -8.15127343e-02f, 6.82508126e-02f, -3.99017334e-02f, -2.09939443e-02f, 7.98175707e-02f, -7.53743947e-02f, -2.17811074e-02f, 1.46652237e-01f, 8.63856897e-02f, 1.17049878e-02f, 5.46167791e-02f, -4.04387638e-02f, 5.39636984e-02f, 7.21300766e-02f},
  {-5.61240196e-01f, 1.68877050e-01f, 5.75972319e-01f, 3.07475150e-01f, -1.45593688e-01f, 3.32282007e-01f, 1.66800693e-01f, 7.10301280e-01f, -4.97068554e-01f, -3.23994231e-04f, -2.04040945e-01f, -1.35924488e-01f, 4.51184332e-01f, 5.44036515e-02f, -1.01840824e-01f, -8.90457779e-02f, -2.46951565e-01f, -1.67492162e-02f, -1.08342066e-01f, 4.76114862e-02f, -2.18027830e-01f, 4.48190700e-03f, -1.95730887e-02f, 5.70403039e-01f, -3.09080072e-02f, 1.11043267e-01f, -7.56836683e-02f, -1.27439201e-01f, -4.46649432e-01f, -3.94212194e-02f, -3.45226824e-01f, 3.14251721e-01f, 4.66760397e-01f, -1.64245471e-01f, -2.41791084e-01f, -4.80489049e-04f, 3.01428256e-03f, 3.16299468e-01f, 4.16266024e-01f, -9.93651748e-02f, 3.58230501e-01f, -3.73737365e-02f, -4.07164723e-01f, 2.76467174e-01f, 3.85105014e-01f, -3.80416572e-01f, -2.79109292e-02f, 2.45879337e-01f, -3.43139321e-01f, -2.38346055e-01f, -1.16958886e-01f, -4.30551499e-01f, 1.58781018e-02f, -2.90195256e-01f, 2.23774523e-01f, -1.90941662e-01f, -1.75892889e-01f, 1.55280963e-01f, 4.51083660e-01f, -4.09167074e-02f, 3.22452217e-01f, -3.83851439e-01f, -1.61501504e-02f, 6.52771890e-02f, 1.65580511e-02f, -3.11004490e-01f, -4.86023948e-02f, 3.42616916e-01f, -2.60098558e-02f, -6.01617873e-01f, 1.41665369e-01f, -6.11287989e-02f, 2.04019904e-01f, -5.07509746e-02f, -3.57089013e-01f, 2.80609697e-01f, -2.86740810e-01f, -1.67520463e-01f, 2.05182508e-01f, -1.37358988e-02f, -3.45747799e-01f, 2.76962761e-02f, 8.69828239e-02f, -9.44801793e-02f, -1.52756190e-02f, -4.17952575e-02f, 4.99170907e-02f, -3.50329101e-01f, -1.01542093e-01f, -7.89023519e-01f, -1.49265379e-01f, -1.32603541e-01f, 1.21884562e-01f, 6.71601221e-02f, 3.47794503e-01f, 3.71890157e-01f, -3.71889234e-01f, -2.00997144e-02f, 5.52420318e-03f, -3.40512365e-01f, 5.99566288e-02f, 1.18842512e-01f, 2.36954540e-01f, -4.88587826e-01f, -1.62650123e-01f, -8.01557489e-03f, 3.58913749e-01f, 5.00460744e-01f, -4.30917330e-02f, 2.83466280e-01f, -6.38715401e-02f, -2.38320902e-01f, 8.44975412e-02f, -2.29341979e-03f, 3.46000530e-02f, -4.16951567e-01f, 9.75796133e-02f, -6.00051284e-02f, 5.21988273e-01f, 1.07247122e-01f, -7.39692897e-02f, -1.91645429e-01f, -2.70306617e-01f, 2.79153232e-02f, -3.74112457e-01f, 2.74682939e-02f, 8.82921666e-02f, -1.09096386e-01f},
  {2.03930233e-02f, 6.77346811e-03f, 4.00798842e-02f, -5.96246496e-02f, 1.46641210e-01f, -2.30516732e-01f, 1.75862536e-01f, -1.35142550e-01f, -5.13639264e-02f, -3.72123979e-02f, -1.57947972e-01f, -1.50539890e-01f, 1.57447770e-01f, -2.60706842e-01f, -3.40152369e-03f, 2.89578736e-01f, -1.50141329e-01f, 3.31960805e-02f, 1.45048365e-01f, 4.21147794e-02f, 2.20046509e-02f, -6.75710440e-02f, 1.24638475e-01f, 1.49197981e-01f, 1.08390721e-02f, -2.58600593e-01f, -2.08991412e-02f, 1.02595249e-02f, 1.98217019e-01f, 8.04700479e-02f, 1.15581259e-01f, 4.85241450e-02f, -3.18253823e-02f, 1.68748125e-01f, 2.60083983e-03f, -1.11076869e-02f, 1.84212953e-01f, 6.23168834e-02f, -1.61404714e-01f, -2.33551618e-02f, 7.31387883e-02f, -2.60592569e-02f, 1.80833429e-01f, -8.91698152e-02f, -8.20225477e-02f, 3.29411663e-02f, 1.82864785e-01f, -1.24948122e-01f, -9.21228379e-02f, -2.09222026e-02f, -7.45291561e-02f, 2.02229917e-01f, -2.13663846e-01f, -1.03249624e-01f, -2.38159835e-01f, -8.94214436e-02f, -1.87671393e-01f, -6.11035936e-02f, 1.59602061e-01f, 3.93235773e-01f, -7.38392845e-02f, 1.84503987e-01f, -2.07395814e-02f, -1.32746309e-01f, 2.90000349e-01f, 2.03783274e-01f, -4.10210602e-02f, -5.37636764e-02f, 8.58875066e-02f, 6.04627095e-02f, 7.07112551e-02f, 4.06270549e-02f, 1.14636779e-01f, 1.96525753e-02f, 3.33303690e-01f, 6.07313551e-02f, 1.36890799e-01f, -1.51886912e-02f, 2.12907910e-01f, 2.23002769e-02f, 6.97391629e-02f, 2.24612519e-01f, -3.69544715e-01f, -1.85636193e-01f, -7.58857802e-02f, -9.52937678e-02f, -2.10683458e-02f, -5.63555434e-02f, 1.60777494e-01f, -2.09126085e-01f, 2.42971301e-01f, 1.81371570e-01f, 9.08654109e-02f, -1.82727009e-01f, -8.11077729e-02f, -4.82883230e-02f, 3.00225187e-02f, -4.41274196e-02f, -1.86182582e-03f, -2.37995118e-01f, -9.15957093e-02f, 3.55784595e-01f, 2.26145074e-01f, 3.27335805e-01f, -2.19356846e-02f, 2.03037206e-02f, 1.11794747e-01f, 2.18758285e-01f, -1.76735520e-01f, 2.56512854e-02f, 4.43898082e-01f, 3.76118161e-02f, 9.76880919e-03f, 6.47104234e-02f, -4.47064549e-01f, 8.30432251e-02f, 7.94191658e-02f, 5.75178005e-02f, -2.80423947e-02f, -3.61650288e-01f, 1.83876920e-02f, 4.18981574e-02f, 7.82893598e-02f, -3.06242734e-01f, 2.27742612e-01f, -1.04774930e-01f, 1.59922630e-01f, -1.35556638e-01f},
