/*
 * Auto-generated PRUNED model weights for LSTM-MLP SOC prediction (FP32 base)
 * Checkpoint: soh_pruned_hidden90.pt
 * DO NOT EDIT MANUALLY
 */

#ifndef MODEL_WEIGHTS_H
#define MODEL_WEIGHTS_H

/* Model configuration */
#define INPUT_SIZE 6
#define HIDDEN_SIZE 90
#define MLP_HIDDEN 128
#define NUM_LAYERS 1

/* LSTM input weights: [4*HIDDEN_SIZE=360, INPUT_SIZE=6] */
const float LSTM_WEIGHT_IH[2160] = {
    -1.49512517f, 0.22837168f, -0.62145740f, -0.13757232f, -1.32069159f, 0.47038192f, 0.62976158f, 2.23253798f,
    1.43430567f, -0.86236161f, 0.74932605f, 0.75780141f, -1.82730114f, -0.80145621f, -0.67211944f, -0.31143028f,
    -0.49634221f, -0.84847403f, 1.29206276f, 0.04414243f, -0.86139429f, 0.40104163f, -0.84955603f, -0.53060567f,
    -0.63599050f, -0.64488155f, 1.04400730f, 0.35449529f, 0.47085467f, 0.93909454f, 0.33865178f, -0.54444975f,
    -0.75487280f, 0.75240189f, 1.41459501f, -0.09911864f, 0.86617661f, -0.46789187f, 2.13872457f, -0.65108824f,
    1.78594542f, -0.72855920f, -1.29447436f, 0.28184289f, -0.56410038f, 1.18058574f, -1.18804526f, 2.37484908f,
    0.13403392f, 0.43876016f, -0.12651120f, 1.03832209f, 0.14838970f, 0.64139926f, 1.26904869f, 1.84363556f,
    -0.72161913f, -0.68433601f, 0.97048855f, 2.18555808f, 1.19981205f, -0.22599000f, -1.54309225f, 0.04676012f,
    0.72220290f, 1.74477232f, 1.28070247f, -1.67340434f, -1.87872744f, -1.73107886f, 1.58010507f, 0.05302031f,
    1.38536537f, -2.55900812f, -2.05548573f, -0.72197175f, 0.30758128f, -0.26551163f, 1.73918211f, 0.57450771f,
    0.01680549f, -0.94905925f, 1.33211017f, -0.59064305f, 0.38968366f, -0.38342917f, -1.08164108f, -0.42402720f,
    0.27893180f, 0.39623743f, -1.06377733f, -1.87797678f, -0.96767575f, -0.39487073f, -1.17654085f, -0.10437827f,
    -1.71891642f, 0.93133253f, 3.26659584f, 1.23635864f, -1.47036147f, 0.60498589f, 1.09341741f, 0.45320570f,
    0.71039659f, -1.70269561f, -0.95636863f, -2.80762410f, -0.15011847f, -1.25657916f, 2.51619506f, -2.92079735f,
    -0.37451446f, 0.05668971f, -2.31726265f, 0.18551938f, 2.08597136f, -0.86893195f, -1.70167124f, 0.48494947f,
    -0.30949032f, 0.75301832f, -1.37248158f, 1.22232580f, 0.00206690f, 0.16487522f, 0.21478875f, -0.36071393f,
    0.96414965f, 0.31181175f, -0.64884454f, -0.97141057f, 0.76221281f, -0.43799394f, 0.51367098f, 1.42865014f,
    -1.27833235f, -1.44860196f, -0.71384692f, -0.46123263f, -0.48593500f, 0.59148473f, -1.27902460f, -0.12113886f,
    2.71419907f, 0.75663817f, -0.21329883f, 1.03894556f, 2.04037523f, 0.64422971f, -0.38153473f, 1.71439791f,
    2.51713347f, 0.35254756f, -0.04963982f, -0.65086490f, -2.14697170f, 0.03476584f, 0.56289279f, 0.62743294f,
    0.74498206f, -0.50173217f, 1.12667716f, 0.33998203f, 1.47666705f, 1.20954025f, 1.22115135f, -0.79241782f,
    0.40094292f, -0.86796111f, -0.07819949f, 1.39366782f, -0.92907387f, -1.97945654f, 1.22804570f, -0.14981461f,
    -1.01140571f, 0.09741361f, 0.39757189f, 0.42163396f, 1.17714584f, -0.86096758f, -2.53560281f, -0.75836635f,
    1.06628394f, -0.54100710f, -0.23734474f, 0.82242948f, 0.59472901f, -0.17084536f, -1.09822428f, -0.40744916f,
    -0.30309549f, 0.55809486f, 2.57863617f, 0.24574582f, -0.85614324f, 3.63518810f, -2.13147449f, -2.36269379f,
    -0.90299714f, -0.31558049f, -1.59529245f, -0.89992744f, 2.45960903f, 0.23084480f, 0.02399689f, 0.28333607f,
    2.29812884f, -0.32999852f, -1.57829392f, -0.43833649f, 1.17570698f, 0.80843705f, 1.05201662f, -1.91796303f,
    1.05538654f, 0.05206728f, -0.48482892f, 1.96601439f, 1.19408381f, -0.19103351f, 0.61490947f, -0.38517085f,
    -0.51360404f, 1.55311108f, 0.21368907f, -1.51197255f, 0.31529498f, -0.91116285f, -1.17030323f, 0.04397098f,
    0.15061322f, -0.88673890f, 0.58747333f, -1.13553584f, -0.83933616f, -0.35507852f, -2.36348891f, 0.22183487f,
    -0.99566776f, 0.56805378f, 0.65027684f, -0.18681672f, -1.44973242f, 0.49855164f, 0.38812590f, -1.11997044f,
    -0.59770364f, -0.44542325f, 1.99067605f, 1.34757900f, 0.09692004f, -0.29361054f, -0.78656489f, 0.52967477f,
    -0.52975887f, -1.76307809f, 0.77187681f, -0.67369896f, -0.60349095f, 0.74921197f, 0.90284806f, -0.08188090f,
    -0.58034867f, -1.86255062f, -3.01532245f, 0.43392244f, -0.06939580f, 0.34189364f, -0.94484890f, -2.22745395f,
    -1.44637752f, -1.01338005f, -0.35338640f, 0.72738349f, -0.15887544f, -0.37822199f, 0.79321557f, 1.08843708f,
    0.48342344f, -0.92231739f, -1.11633396f, -0.41990626f, 3.67330694f, -1.35971260f, -0.96017355f, -0.15362705f,
    -0.03350826f, 0.71655637f, 0.48949128f, 1.74763441f, 0.56633675f, -0.21753643f, -0.47604108f, 0.59930646f,
    0.74742621f, 1.57847416f, -0.09762514f, 0.10915840f, -0.86744374f, 0.53339338f, -1.41513526f, 0.23445079f,
    -1.34954154f, 1.42716444f, -1.33123314f, -0.73194867f, -1.06375563f, 0.04952050f, 0.47831547f, -0.62409025f,
    -2.41739488f, 0.42031649f, 0.08062100f, 0.27527285f, -2.80555487f, 0.05903901f, 0.09073692f, 0.80592197f,
    -0.44120699f, -1.04777348f, -0.02865816f, -0.13856819f, 0.85403365f, -2.11179256f, -0.75999320f, 1.49887025f,
    -0.42892724f, -0.80752748f, 1.93775821f, 0.14921042f, -0.99196601f, -1.33742702f, -0.11483926f, 0.94949204f,
    0.12271944f, 1.05953634f, 1.65452874f, -1.08301401f, 0.80356711f, 0.28773195f, -0.91516167f, 0.91001838f,
    1.61607778f, -0.62397069f, -1.07491803f, -0.49849346f, 0.87836552f, -2.07132173f, -2.92800093f, -0.26294160f,
    -0.16827656f, -0.74555123f, 0.45091620f, -0.85234034f, -0.20025080f, -0.93646437f, 1.78612864f, -0.05451466f,
    0.00194392f, 2.34522796f, 0.84666079f, 0.29770032f, -0.40211982f, -0.75748330f, -1.13825965f, -0.08049575f,
    -1.17713988f, -0.54324818f, -3.53715301f, 1.44219601f, 1.65645671f, -0.52481276f, 1.06442070f, 0.48930588f,
    2.60509086f, -0.83446229f, -0.62035906f, -0.30250505f, -0.12773593f, -2.12677026f, 0.08716605f, 1.10192025f,
    0.52482933f, -0.28422686f, 0.06035612f, 0.13617592f, -0.11731685f, 0.14036590f, 0.73606336f, -0.39755794f,
    -0.80950314f, -1.39163888f, -0.12050956f, -0.53476274f, 1.37010729f, -0.01369799f, 0.36495602f, 0.53112626f,
    -0.39540568f, 0.56685841f, 0.71602362f, 0.37060240f, 2.26044440f, 0.94272053f, 0.13459711f, -0.15512589f,
    2.71569777f, -1.10019779f, 0.42523310f, 0.80412316f, 3.56852984f, -1.09153771f, 2.88940001f, -0.67091447f,
    -0.98318696f, 0.98623079f, 2.24739957f, -0.55249792f, 1.53530180f, 0.03444476f, -0.34533584f, -1.29545844f,
    0.90192378f, -1.06458127f, 0.57254517f, -1.46074462f, -0.64202666f, 0.43554151f, -0.56113917f, -1.83678710f,
    1.54430270f, -0.15782669f, 1.53166461f, -0.67995834f, 1.55909669f, -1.03210843f, 0.85636699f, 0.05975994f,
    2.77962971f, -0.25693843f, 1.17778885f, -2.48689914f, 1.51262188f, -0.31090519f, -0.12733623f, -1.96486688f,
    0.60167909f, -1.56899488f, -1.22233617f, 1.00579822f, 1.69554126f, 0.80405384f, -0.13705373f, -1.24011314f,
    -1.43826973f, -0.41283041f, -0.99533069f, -0.72240758f, -1.62434614f, -0.87381107f, -0.25303096f, -0.73539025f,
    -0.88195908f, -0.41330782f, 1.86318946f, 0.05205974f, 3.41936660f, 0.45111799f, -0.20502813f, 0.23110832f,
    0.81606090f, 0.44913653f, 0.79860204f, -1.30062473f, -3.05722642f, -2.47258496f, 0.99821061f, -0.91890836f,
    -0.90154999f, 1.27413607f, 3.12499595f, 0.73599643f, -1.10045481f, -1.03035510f, -1.00830543f, 2.16485238f,
    0.90326184f, 0.48650891f, -0.82434464f, 0.08557383f, -0.39795938f, 0.40117025f, 0.43086791f, 1.56258309f,
    2.85895014f, 0.29734701f, 1.38725376f, -1.75939095f, -2.33386421f, 0.24507822f, 0.26648229f, -0.36904007f,
    0.55341613f, -1.21496105f, -2.74290514f, 0.23847583f, 1.58092523f, 0.55757940f, -1.03872085f, 1.66232204f,
    3.33521867f, 0.70277607f, -2.81972241f, -0.14090829f, 0.02214995f, 0.64429361f, 1.44171810f, 1.11060035f,
    1.14406967f, 0.53722990f, 1.71842837f, 1.31534958f, 0.44229090f, -1.09362006f, 1.26928234f, -0.66086841f,
    1.00567949f, 1.16790450f, 1.13626266f, 0.25392249f, 0.35466757f, 0.45715398f, -0.70417678f, -0.30323887f,
    0.24574001f, -0.53928763f, -0.36047325f, -0.39769602f, -1.74933612f, 0.02250115f, -0.41801476f, 1.16652882f,
    -2.72412276f, -0.33847097f, 2.09894347f, 1.33743155f, -1.98989713f, 1.27577043f, 2.30618238f, 1.72312891f,
    -2.17314839f, 0.31834620f, 0.25093824f, -0.64041430f, -1.48197901f, -0.44599038f, 0.77413195f, -0.77734619f,
    -1.71596515f, 0.86872119f, -1.80107319f, -1.21936762f, 0.65131575f, 0.32324356f, -0.18538761f, 1.48884952f,
    1.98333895f, -0.00952813f, 0.53183156f, 1.07397199f, 0.59726012f, 1.10057282f, 1.48620677f, 0.90149915f,
    -2.67148113f, 1.05043304f, 1.85278845f, 0.43947542f, -2.98311019f, 0.05695299f, -0.39237270f, -0.01592051f,
    -0.81590009f, 1.43135607f, -0.69724053f, -0.56993783f, 0.23963535f, 0.61324167f, -0.33947462f, 0.36487871f,
    -0.62786442f, 1.20103407f, -0.94267428f, 0.88741797f, -0.89909536f, 0.54863602f, -1.03078544f, 1.03080177f,
    0.66851652f, -0.27488774f, 0.34701204f, 1.65827310f, 0.53852463f, -0.48638114f, 0.98628783f, 0.00158052f,
    -0.27765429f, -0.72567731f, 1.07346213f, -1.09416723f, 2.11519146f, -0.20520057f, -0.05749461f, 0.56564426f,
    0.92869687f, 0.60831398f, -1.68555915f, 0.35923603f, 0.59492767f, -1.25980473f, -2.13672662f, 1.10823429f,
    0.05535837f, 0.17700937f, -0.74661458f, -0.77790242f, -1.30864477f, 1.14182723f, -0.13044795f, -0.47696364f,
    -0.05582180f, -1.49457991f, -0.45334217f, -1.50591958f, -2.36954045f, -1.11087501f, 1.69631290f, 0.15216914f,
    -2.65640044f, 0.42801473f, 0.34198219f, 0.00702588f, -0.36244991f, -1.81438291f, -2.11612701f, -0.94164616f,
    -1.24486101f, 0.27532986f, 4.02196836f, -0.12034897f, -1.91885996f, -1.02163517f, -2.46501541f, -2.05546284f,
    -0.74562645f, -1.60355020f, -2.35911846f, -0.81854689f, -2.87634015f, -0.24168098f, -2.19088101f, -0.06266925f,
    -3.02063727f, -0.10086816f, 0.41058254f, -0.58077300f, 0.68171513f, -1.36030805f, 0.02149538f, -1.79373384f,
    0.02707485f, -0.13046373f, 0.31776652f, -0.88255483f, -2.27510262f, -0.44783574f, 0.22538990f, -1.27123749f,
    0.06229369f, 0.93620861f, -0.46150154f, -1.94137585f, 1.46497905f, -0.55722201f, -0.75668174f, 1.18523228f,
    1.75809038f, 0.24323604f, 0.11716071f, 0.26487634f, 0.40422499f, 1.84984660f, -0.13148420f, 0.59877694f,
    -0.33176830f, -0.82105845f, 2.35161638f, 0.17441572f, 2.04007983f, -0.81738770f, 1.38067532f, -0.28362873f,
    -0.25496891f, -0.10101833f, 1.41088629f, -0.18084252f, 0.16285142f, -0.80313879f, -0.15111639f, -0.51565468f,
    -2.60476089f, -1.24347043f, -0.27062353f, -0.53080237f, -0.38116676f, 1.17618406f, -1.40629804f, -0.87783164f,
    -0.64395016f, -0.09808954f, -0.61411184f, -1.23384881f, -1.02907574f, -1.07738960f, -1.92449594f, 1.21311092f,
    -0.15233219f, 1.41816032f, -3.83618546f, 0.20446423f, -0.58741134f, -2.54311061f, -0.34275958f, 0.10714404f,
    -1.75782096f, 1.81626225f, -4.37368059f, 0.25483131f, 0.64095092f, 0.04949409f, -5.08102608f, -0.92763513f,
    1.80329216f, 0.40900907f, 1.08572376f, 1.01042390f, 1.93119061f, 0.16801928f, -0.81035596f, 0.50349802f,
    1.39965451f, 1.86940706f, 1.02193701f, -1.29212499f, -0.32949629f, -1.19725502f, 0.19062851f, 1.25422490f,
    -0.29043353f, -0.59503311f, 3.52586389f, -1.54563129f, -1.28553140f, 0.65456581f, 3.23540378f, -0.93357521f,
    1.21121681f, -0.85951990f, -1.39545476f, 0.71742713f, 0.96501672f, -1.32407045f, 0.33978802f, -0.63518709f,
    0.10477948f, -2.08381724f, -1.22775328f, -0.02502705f, 0.38784429f, -1.89166629f, 0.70871961f, 1.22872293f,
    -0.82458466f, -0.30226845f, -0.82970351f, -0.10503900f, -0.64911604f, 0.01154506f, 0.89712816f, 1.97644305f,
    0.91827953f, 0.89985108f, -1.62694931f, 0.11879595f, -0.41123497f, -0.69532943f, -1.20303261f, 0.34679678f,
    -0.39326668f, 3.01464987f, -1.50810266f, -1.10462272f, -1.90435266f, -1.21677279f, -0.49443194f, -0.19622527f,
    -1.56660163f, -1.11534142f, -0.57144696f, -0.58433306f, -0.56343240f, -0.28831810f, 0.46430615f, 0.49089465f,
    -1.63297069f, -0.01656911f, 0.37402835f, 1.44272625f, -1.70287979f, 0.10873365f, -1.72996140f, -0.88867664f,
    2.66099930f, 0.22384104f, -2.37654877f, -0.65811503f, 1.27402306f, 1.26232147f, 1.27673090f, 1.41927361f,
    0.86212426f, -0.64322883f, -0.19333071f, -0.26380411f, 0.18445782f, 2.30401325f, -0.17133282f, -0.12819847f,
    1.84851599f, -0.14581512f, -0.67730165f, 0.06024140f, 1.52249730f, -0.76816279f, -1.89802516f, 0.51608467f,
    0.55291587f, 0.12917849f, -0.51487434f, -0.70828688f, -3.74754190f, -0.61195952f, -1.74317050f, 1.40970767f,
    -7.50839376f, 1.30573618f, -1.43966424f, 1.11872482f, 0.03693489f, -0.25292468f, -1.75099266f, -0.64419842f,
    -0.48127329f, -0.56652737f, -1.48325527f, -0.70603096f, -2.67273927f, -0.64349765f, 0.07621051f, 1.57757401f,
    -0.27572748f, -1.33298433f, -2.84077191f, 0.05427075f, -0.89068186f, 0.26449153f, 0.45905995f, 0.03122020f,
    -0.68102986f, 0.97765684f, -1.94977212f, -0.86553985f, -0.62040162f, 0.04136204f, -2.29632497f, -0.63225764f,
    1.81148493f, -1.12047815f, -1.72745955f, -0.15466340f, 0.59048605f, 0.51494068f, -1.82215309f, 0.09987386f,
    -0.47926292f, 1.03755987f, -0.81272113f, -0.17160356f, -0.77386981f, 0.33847615f, -2.46758437f, 0.71462208f,
    -1.32328141f, -0.63369775f, -2.40912533f, 0.19959477f, -0.23564267f, -0.16862020f, -5.02198935f, 0.78915840f,
    0.49054414f, 0.76991457f, 0.73047608f, 2.02878022f, 1.01723123f, -1.92897201f, 2.51505828f, -0.65647614f,
    -1.11754179f, -0.49626413f, 3.24966335f, 1.63256896f, -2.72565627f, -0.07924131f, -0.70233959f, -0.64706731f,
    -5.42503834f, 0.79435825f, -0.59116906f, 0.38067147f, 0.69874233f, 1.59517026f, -0.74091804f, -0.85182518f,
    2.52444005f, -1.54485130f, -0.56223083f, 0.21661851f, 0.84453773f, 0.19747286f, -0.84052950f, 0.93127012f,
    1.38085437f, 1.03674293f, -2.21446204f, 0.65666783f, 0.94117504f, -0.42277476f, -0.44081366f, 0.51378977f,
    1.76276731f, -1.74843550f, 0.89435780f, -1.52087450f, 0.69122505f, 0.33697018f, 0.59423667f, -2.43919683f,
    0.70425940f, -0.44359106f, -1.64645720f, 0.08113997f, 1.40429628f, -0.04198488f, -0.24807279f, -1.76570356f,
    -2.66445875f, 1.06418824f, -3.68918061f, -0.49310684f, 0.18503998f, 1.25055575f, 1.06562865f, 1.32472873f,
    -0.52993387f, 0.95295691f, 1.80878890f, 0.73259288f, -0.05876491f, 0.79080731f, 1.24632180f, -0.50811744f,
    -0.64559042f, 1.29806948f, 0.67851132f, -3.69631839f, -2.63640189f, -0.20103359f, -1.28182232f, 1.07000434f,
    2.23271775f, 1.06699109f, -0.22463405f, -0.57083440f, -2.60941458f, 0.15290846f, 0.29925370f, -0.04674341f,
    -3.17281771f, -1.24988842f, 1.12552917f, -0.18814661f, 0.02315662f, 1.80521202f, 1.66620231f, 0.63245529f,
    2.53609443f, 0.05816256f, -0.26034126f, 1.46045566f, 0.36569527f, 1.14585054f, -0.75336856f, 0.76608837f,
    -2.27191186f, -2.28786254f, -1.99634492f, -1.24442112f, -0.77731830f, -0.63241416f, -0.23144488f, -0.62140006f,
    -1.68519497f, -1.01515186f, 1.04135823f, -0.93171990f, -0.91273391f, 0.79609692f, 0.03122564f, -0.54573280f,
    0.03832188f, 0.02648812f, -0.42948198f, 0.74397659f, 1.93195570f, -0.76575077f, -0.71378416f, 0.28710818f,
    -0.70150042f, -0.63087356f, -2.95520926f, 0.47998697f, -1.24904537f, 1.91295552f, 0.86901617f, -0.18300936f,
    0.29610243f, 1.11340725f, -3.51199603f, 1.49319875f, 2.74293661f, -0.68637455f, -5.94075251f, 1.26261699f,
    0.89829344f, 0.55618662f, 0.70978105f, -0.91558582f, 1.86779726f, -1.72911417f, 0.54224318f, 0.26625472f,
    1.76272106f, -1.46668398f, -0.65756047f, 0.26657170f, -1.28691888f, 0.01226704f, -1.02386308f, -0.55547822f,
    -1.86223137f, 0.76717800f, 1.94958115f, 0.37271857f, 0.17100266f, 1.02689195f, 2.01502776f, -0.15204342f,
    0.67127001f, -0.97413397f, -1.78871322f, 0.42342409f, -0.96356857f, -1.64997387f, -0.88518822f, 1.05593967f,
    2.45632768f, 1.46254539f, 0.53359109f, -0.06968244f, 2.68325353f, -0.78325027f, -2.11096501f, 0.98579800f,
    -0.11574063f, 0.19410847f, -3.15594673f, 0.53927809f, 0.79695654f, -0.74273348f, 1.26812661f, -0.91458601f,
    0.70721799f, 0.44603723f, -0.25873640f, -0.07659549f, 0.97528756f, 0.42157602f, 0.35838032f, -1.40182281f,
    -1.76997459f, -0.98954725f, 0.27596125f, 0.00866338f, -0.93830967f, -0.49710968f, -0.85147250f, 0.68225127f,
    -0.29273048f, -0.24565871f, 0.51068431f, -0.49676812f, -0.68352312f, -0.75473374f, 0.53061736f, -0.30061224f,
    -0.31793946f, 0.28093070f, -0.24419461f, 0.51966101f, 1.58224928f, -0.71670163f, 0.39115781f, 0.66376120f,
    -1.16147017f, -0.34192291f, -0.14066567f, 0.01194046f, 1.33642995f, -0.45419380f, -1.50924432f, -0.23930787f,
    0.76638114f, 0.98896903f, 0.50213617f, -0.67501563f, -1.54819214f, 0.46576053f, -1.23963439f, 0.44678876f,
    -0.54453808f, 1.47761059f, 1.87461412f, -0.81379974f, -2.21393228f, 0.02228000f, -2.03190088f, 0.05603297f,
    -0.92151135f, 0.13217686f, -2.46628165f, 1.07672143f, 0.69951451f, 0.87044549f, 1.06110466f, 0.26194108f,
    -2.21569467f, 1.03594959f, -0.39336008f, 0.07247174f, -0.60160589f, -2.58563161f, -0.48374411f, 0.33289501f,
    0.66045147f, -0.16254118f, -2.73699689f, 0.59075761f, 1.39850152f, -0.09688003f, -0.25126705f, 1.76318562f,
    -0.68986213f, 0.99012911f, -1.17659700f, -0.55434060f, -0.77232015f, -1.06707144f, -2.41943479f, 0.74977344f,
    0.88556129f, 0.76299787f, 0.48205155f, 0.24059062f, 0.37765318f, -0.80896080f, -0.42791769f, 0.45600587f,
    -0.39596140f, -0.56984514f, -0.56452787f, 0.91280580f, -1.23601973f, 1.74067640f, -1.50000048f, -0.32596356f,
    -0.62627494f, 0.58078539f, -2.35617995f, 0.98849499f, -0.26303732f, 0.23924915f, -0.11532313f, 0.69711190f,
    -1.43103135f, -0.25607240f, 0.51064241f, 1.94739759f, 3.51348901f, 1.44683051f, 0.57280183f, 1.55478907f,
    -0.64165062f, -0.96036929f, -2.15636635f, 1.95034659f, 1.33923924f, 0.36000556f, 1.30726695f, -0.61625779f,
    -1.04931819f, -0.26847729f, -2.21966505f, -0.19724174f, -2.10976553f, 1.25658047f, 2.11540937f, -0.61699593f,
    0.30036667f, 0.39906892f, -0.91621375f, -0.55393070f, -0.44369102f, -0.84720033f, -2.53449726f, 0.82478470f,
    -1.81631529f, 0.61817533f, 1.05206513f, 0.55006999f, 0.92630661f, -1.21802497f, 0.16716865f, 0.37713936f,
    0.42493200f, -0.34937406f, 0.33341429f, -0.33493483f, 0.95716649f, -0.46981317f, 0.59383857f, 0.47373113f,
    1.18491995f, -1.63418698f, 0.27741858f, -0.24712239f, -0.81444007f, -0.53360653f, 0.72624910f, -0.54119325f,
    -1.40427721f, -1.41577876f, -2.05117726f, 1.52278805f, -0.13457040f, -0.85191041f, -0.63767380f, -0.57649994f,
    -2.71673703f, -0.07098053f, -0.68763906f, 0.62490505f, -3.24403167f, 0.52288800f, 1.33408415f, 0.12547365f,
    -1.63747430f, 0.69529963f, 0.01614390f, 0.29982540f, 0.23657212f, -0.42776334f, -1.15341783f, 0.87542611f,
    -1.26589358f, 0.09579527f, 0.24353202f, -3.22054029f, 1.25007153f, -0.84444332f, 0.17458397f, -1.05239654f,
    1.03589892f, -0.48059759f, -1.13007271f, -0.89263844f, 1.47513378f, -2.57919836f, 0.31592244f, 3.01763439f,
    -0.14139599f, -0.22154771f, -0.17743328f, -1.36727774f, -1.58536017f, 2.18226027f, 0.37350544f, -0.35696667f,
    -0.94152153f, -0.04308541f, -0.85452366f, 1.17260075f, -0.12790765f, 1.04463267f, 1.08081007f, -0.12252469f,
    -1.49549210f, 0.25881085f, 1.81862879f, 0.60132068f, -1.99441838f, 0.40803948f, 0.04432404f, 0.05812027f,
    -2.69550252f, -0.27849612f, 0.89912480f, -1.19389975f, 0.27103367f, 1.44670904f, -0.00617426f, -1.18185866f,
    -0.36664355f, 0.44100830f, -0.71377903f, -1.49375534f, 0.55200768f, 0.31188086f, 0.22360989f, 0.79459035f,
    1.47965479f, -0.31624028f, 0.09418416f, 0.87185800f, -2.34716344f, 1.14452755f, -0.34553334f, 0.15137875f,
    -0.90620714f, 0.57315099f, 0.61482859f, -1.94288945f, -1.13204241f, -0.39529762f, -0.05967939f, -0.32325506f,
    -0.31715813f, 0.54115063f, 1.09965384f, 0.62936723f, 1.68215239f, -0.06449329f, 0.31672892f, 0.21680488f,
    -1.19333768f, 0.56155407f, -2.48158836f, 0.23507343f, -1.11328912f, 0.68290192f, -0.67772830f, -1.19504178f,
    -0.59814006f, 1.02707326f, 0.87482041f, 1.06956196f, 1.03608537f, 0.09681904f, 1.86341858f, 1.24446285f,
    -2.37794113f, -1.14377213f, -1.14338458f, 1.19181347f, -0.47377774f, -0.94634455f, 0.34954721f, -0.61588258f,
    -0.27009147f, 0.54130667f, 2.94898987f, -0.37681299f, 0.99212140f, -0.29476810f, -0.38706866f, -0.93571603f,
    -0.64291376f, 0.89017576f, -1.86975324f, 0.15456411f, 1.14173388f, 0.31464347f, 0.92907542f, 0.27569327f,
    2.80730748f, -0.75275081f, 7.41270924f, -1.63780737f, -1.24835050f, 0.92056042f, 1.84976411f, -0.00468957f,
    0.38098508f, -0.09439419f, 1.38765132f, -0.96826148f, 0.43844670f, 0.99106294f, 2.05823278f, -0.03338752f,
    -2.19847322f, 0.37587768f, 0.35530517f, -0.62164992f, -1.68781745f, -0.69334179f, -0.77291119f, 0.83406502f,
    -0.29012296f, 0.67714459f, 4.67228031f, -1.86669695f, 0.28650889f, -0.54092300f, 0.46724710f, -0.56897885f,
    -1.09531844f, 0.51933622f, 2.47718287f, 0.21435428f, -0.52354097f, -0.22134055f, 0.62685019f, 0.26997259f,
    -0.04713487f, 2.13640785f, 2.20794225f, -0.15066579f, -0.35406807f, -0.18320608f, -0.03640646f, -1.12226927f,
    1.38914931f, -0.21548852f, -1.91234827f, 0.77711701f, -1.50641859f, 1.10604608f, -1.26185250f, -0.73075217f,
    0.48110771f, 1.21951437f, -1.94299912f, -0.05205358f, -1.89809310f, 0.42068177f, 0.06797330f, -0.94485897f,
    1.17121470f, 0.16204688f, 0.59195143f, 0.76935947f, 1.59613788f, -0.82684565f, 1.59947073f, 0.10401533f,
    1.12352216f, -0.31298396f, 0.67339754f, -0.43891847f, 1.80368388f, 0.24218839f, 0.24207748f, -0.02028511f,
    -0.11407962f, -0.60614318f, -1.64959300f, -0.08967618f, 2.19602275f, -0.19951592f, -0.57081312f, -0.97176713f,
    -0.77700353f, 0.16397154f, -0.47752839f, -0.12205373f, -0.77672702f, 0.18365276f, 2.06054568f, -1.13712096f,
    0.72304696f, 0.62396246f, -1.21183753f, -1.22243774f, 0.09244876f, 0.77804536f, 0.31015810f, -0.80978090f,
    -0.38085648f, -0.20202987f, 1.04826689f, -0.33687976f, 0.11489639f, -2.01863956f, -1.25420141f, 0.57338232f,
    0.61696053f, -1.39749002f, -0.27249205f, 0.05867307f, 0.04270495f, -0.01675076f, 0.30455127f, -0.67230415f,
    -0.68968695f, 1.03169477f, 2.47159100f, 1.05094182f, 0.46689850f, 0.18916978f, 0.57208401f, -0.32560521f,
    1.35181117f, 0.60876119f, 0.78110540f, -1.27164948f, 0.73739845f, 0.56774306f, 1.61633694f, 0.30935925f,
    2.40552521f, -0.39522547f, -0.07866118f, 1.49114740f, 1.32704604f, -1.27530408f, -1.20807302f, -0.11833016f,
    -0.77719533f, 1.52788055f, 0.95351338f, -0.98671025f, 0.93156719f, 1.04722333f, -0.21132670f, -0.71971262f,
    1.54592371f, 1.17343414f, -0.47953388f, -0.40992248f, 1.82692635f, -0.04365958f, -0.99043375f, 0.96660221f,
    0.11784820f, -0.22148848f, -1.34947300f, -1.16230154f, -0.06754214f, 0.08889742f, 0.74367023f, -0.00833384f,
    0.57667696f, 1.20197165f, 1.21531272f, -0.36956275f, -1.44689679f, -0.92293268f, -0.93631625f, 0.54149491f,
    1.23271906f, 0.12762438f, -0.38959715f, 0.51734489f, -2.64478755f, -0.73717761f, -0.86574715f, -0.55185360f,
    -0.08772755f, 0.45039633f, 0.00641620f, 0.06935232f, 2.03398180f, -0.56819928f, 0.44520825f, 0.59961379f,
    2.67192125f, -0.70273620f, -2.44040155f, -1.04072928f, -0.64885354f, -0.36211708f, -2.47726393f, 0.92028260f,
    0.90917265f, 1.03654647f, 0.60941398f, 0.26471534f, -1.89256132f, 0.47678483f, 0.87168634f, 1.38414466f,
    -1.25116062f, -1.14287877f, 0.13299935f, 1.39324689f, 0.01768641f, 2.70254230f, -0.28843400f, 0.35636178f,
    -1.31321311f, -0.55064291f, -1.35083330f, 0.01840825f, 0.58629394f, -0.95314872f, -0.25962248f, 0.38445991f,
    1.01708519f, 0.39875653f, -3.18364286f, -1.12968099f, 0.68970078f, -0.05321888f, 0.30136395f, -1.40345109f,
    1.12102234f, -0.70710939f, 0.57048851f, 0.94095045f, 0.64354771f, 0.05455168f, 1.53322935f, 1.76454031f,
    -0.33992288f, 1.00892758f, 0.32311359f, -0.93666518f, 0.84737867f, 0.72099167f, 0.58539450f, -0.34389216f,
    -1.13178837f, 0.44996950f, 0.31505919f, 0.91895646f, -0.36976746f, -1.10662282f, -0.60315639f, 2.14660692f,
    -1.23856127f, -0.71302211f, 0.28763488f, 1.03635919f, 0.85529310f, 0.45903879f, 1.07922912f, 0.86962587f,
    -0.88904643f, 0.09118389f, 0.10711874f, 0.52437752f, 0.44931322f, 0.58590603f, 0.71654004f, 0.22829789f,
    0.06072536f, -1.30804086f, 0.83843541f, 0.84765685f, 2.38498712f, -0.12931789f, -0.85140848f, 0.21940063f,
    1.79167116f, 0.30854365f, 0.55089146f, -0.38103139f, -0.30496675f, -0.34615594f, 2.77510357f, -0.76584047f,
    0.00727030f, 0.32370463f, -1.31542039f, -0.66390401f, -0.76023060f, 0.63161105f, 0.27044645f, -0.62482709f,
    -0.10430373f, 0.02549969f, 0.32656631f, -0.49146530f, -0.66668922f, -1.60902226f, 0.02834640f, 0.71703959f,
    -0.49404606f, 0.00323068f, 0.43460551f, -1.11371040f, 0.23865224f, -0.23895173f, -1.17802358f, -2.29330897f,
    0.09511995f, 1.09366405f, 3.88944221f, -1.20055521f, 0.22733673f, -0.44643822f, -1.22387815f, -0.66322380f,
    2.08666778f, -2.45683646f, -1.07713258f, -0.95376390f, -1.70865297f, 1.39186227f, 0.87312996f, -0.02168401f,
    -2.16471481f, 0.96765667f, 0.10533635f, -1.08173084f, 1.03435409f, 0.68539041f, -0.23061243f, -0.20934831f,
    -1.23099315f, -0.21722513f, -0.42974010f, 0.69914722f, -3.14656568f, -0.07851648f, 1.44383204f, 0.16884768f,
    0.00024960f, 0.50124300f, 2.09615445f, -0.05049634f, 0.94834703f, 0.09520119f, 0.23911721f, 0.39231840f,
    1.20943964f, 0.73584014f, -0.45601749f, 1.33859837f, 1.55595779f, 0.22044185f, 2.37028766f, -0.30252689f,
    -1.26615012f, 0.51049948f, -1.93830335f, -0.31813851f, 1.04508877f, -0.41794059f, 0.71400595f, 0.51914066f,
    0.30494264f, -0.71829736f, 1.91262400f, 0.84983987f, 0.98138988f, -0.77777374f, 0.44815221f, 0.34793043f,
    -1.25295901f, -0.93174255f, 0.57487541f, -1.82101142f, -0.96746755f, -0.04057603f, -2.48136783f, -1.79190755f,
    0.25165078f, 0.03131436f, -1.86964273f, 0.33472773f, 0.94267702f, 0.21518882f, 0.00843085f, 0.36611974f,
    -0.51326126f, 0.26938370f, -0.56427920f, 1.29032612f, -0.47151786f, -3.35338211f, 1.73483121f, -0.57530642f,
    0.01272580f, 0.14299354f, -0.17567471f, 0.33880183f, -0.08407287f, 0.67374206f, 0.17093079f, 0.59251928f,
    1.02009022f, -0.32114717f, -1.08611715f, -0.28472400f, 0.26332480f, 0.48371613f, -0.60084903f, 1.60666883f,
    3.53397322f, -1.15345132f, 1.85927081f, -0.72364867f, 0.99626631f, -0.16923681f, -0.51572782f, 0.69637406f,
    1.22914004f, 0.78133518f, -1.02347922f, -0.18370241f, -0.03726750f, 0.24427418f, 0.08898497f, -0.59021324f,
    1.22807574f, -1.33282459f, -0.96875370f, 0.64819986f, 0.74455410f, 0.11673679f, -1.06739938f, -0.65196061f,
    0.30190668f, 1.04689109f, -2.03415513f, -0.26418459f, -0.80355394f, -1.93616986f, -1.93241692f, 0.25310043f,
    -1.94506550f, -0.13567923f, -1.38584507f, 1.16551685f, 1.69496894f, -0.48603803f, 0.09453131f, 0.31691822f,
    0.13974127f, -0.00065969f, -0.63343918f, 0.98752481f, 0.01302142f, 0.01982591f, -0.41232350f, 0.68808073f,
    -0.49020860f, -1.34701347f, -0.18312588f, -0.66326272f, -0.12048840f, -0.08126707f, -0.48074433f, -0.37081555f,
    -0.13952973f, -0.11388688f, -1.32044303f, -0.67968065f, 0.61197543f, 1.60316205f, -0.69358742f, 1.21358693f,
    0.65135527f, -1.85059714f, -0.72603518f, -0.39930612f, 0.93114614f, -0.16256596f, 0.58657360f, 1.00430691f,
    1.56354654f, -1.13998604f, -0.27505216f, 0.52939767f, -0.46298829f, 0.22111748f, -0.26298773f, 1.34473717f,
    -0.47750700f, 0.80490375f, 0.48272097f, -0.02979562f, 0.44233197f, 1.27421331f, 1.20701671f, -0.19460110f,
    0.31354150f, -0.98714739f, -0.96052915f, 0.02936200f, 1.03995669f, 0.37659749f, -2.06377983f, 0.20534523f,
    -0.65744877f, 1.50781631f, -0.51114500f, -0.41617313f, -0.77788204f, -0.58322072f, 2.61651111f, 1.51621473f,
    0.12823530f, -1.87746859f, 1.83968103f, 0.33437663f, 0.12573852f, -1.19710720f, 0.30748332f, 0.30737874f,
    0.24648893f, -0.11905538f, -1.19891250f, 0.03531957f, -3.26469970f, 0.50791723f, 0.90749884f, 0.10612059f,
    0.48146504f, -0.16377017f, -1.19878554f, -0.16958316f, 0.49531260f, 1.41475415f, 1.71987593f, -0.23423845f,
    0.79684192f, 0.32397535f, -1.07869160f, 0.89993513f, 0.60961479f, 0.83853954f, -1.71024656f, 1.28080428f,
    0.66482162f, 0.58806413f, -0.25757280f, 0.40794557f, -0.53957015f, -0.79477865f, -0.17717551f, -0.60833395f,
    -0.64446479f, 1.63767493f, 0.92164314f, 1.24098337f, 0.91437870f, 0.78433502f, -0.16557792f, -0.04034959f,
    -0.15182345f, -1.11942482f, 1.49946868f, 1.13924170f, 1.99613893f, 0.79813486f, -0.68614149f, 0.75074077f,
    -0.91788155f, 0.04055465f, 1.47010922f, 1.05394423f, -0.42582896f, 0.48819366f, 0.84461850f, 0.04270361f,
    -1.24129248f, -0.70993513f, 1.99174273f, 1.84162903f, -0.01943478f, -0.06548014f, 0.67383230f, 1.54151642f,
    -0.32599011f, 0.60984266f, 0.75385737f, -1.11709511f, -1.29768658f, 0.38552022f, 0.55810130f, -0.29296494f,
    2.56203365f, -2.17102742f, -0.65275723f, -0.01121476f, 1.06106889f, -1.09995878f, 0.05395528f, -0.66916519f,
    -0.03877500f, -0.46237010f, 0.90902632f, 1.28823423f, 1.08749580f, -0.26216251f, 0.26345381f, 0.47216910f,
    1.60706210f, -0.37677464f, 0.41100088f, 0.56907499f, 0.33739710f, 0.50229651f, 0.78336143f, -0.69118118f,
    1.82725990f, 0.38355815f, 0.65968043f, 1.81234074f, 1.61512947f, -0.55473775f, 2.40870094f, -0.76547700f,
    -0.68408453f, 0.46325514f, -0.41578674f, -0.69471759f, -0.68656272f, 0.01604479f, -0.55701488f, 0.87420106f,
    -0.65393639f, 1.33721924f, 2.39491153f, -0.35104814f, 0.44089875f, -0.91435307f, 2.22382927f, -1.13331330f,
    1.55003464f, 0.29492617f, 0.51825225f, 1.15819132f, 0.53850865f, 0.38473433f, -1.09991491f, 0.18419728f,
    0.86761922f, 2.44479251f, -0.26242122f, -0.16419107f, -0.68007648f, 0.34174523f, 1.22288442f, 1.39308918f,
    -0.67255813f, -1.61750567f, -3.97134042f, -0.62099206f, -0.52872324f, 0.71502733f, -3.32066941f, 0.00733577f,
    1.02308011f, 0.50295264f, 0.30467558f, 1.11077237f, -2.72490573f, -0.01549360f, 0.40763190f, 0.29914004f,
    -2.06932378f, -1.93738520f, -0.13649103f, -0.70970666f, 0.45379075f, 0.99286544f, 1.72704613f, -0.20194569f,
    0.48695663f, -0.22220778f, 0.02008796f, 1.77706110f, 1.08320832f, 0.23223978f, 0.12602748f, -0.12082927f,
    -1.11018944f, 1.29304564f, 1.97282505f, -0.65667152f, 0.80275863f, -0.05964449f, 1.09585500f, -1.44318652f,
    0.28537524f, 0.66832203f, -2.75634074f, -0.87841004f, 0.34939551f, -0.68055773f, -1.91619432f, -0.45107830f,
    1.68938696f, 0.93849790f, -0.17417116f, 0.60350442f, -0.66121650f, 0.27478769f, -2.09689522f, 0.77578425f,
    -1.10973179f, 0.26206756f, 1.06937420f, 0.47363356f, 0.35097677f, -0.45954862f, -0.37833032f, 0.47847250f,
    1.97042632f, -1.08919024f, -0.08237463f, -0.99441111f, 0.68449342f, 1.15638447f, 1.78282690f, -1.16833675f,
    -1.48938489f, 1.67245340f, -0.92919362f, -1.00985837f, -1.11289716f, -0.18576781f, -0.48904499f, 0.86150646f
};

/* LSTM hidden weights: [4*HIDDEN_SIZE=360, HIDDEN_SIZE=90] */
const float LSTM_WEIGHT_HH[32400] = {
    -0.92954069f, 0.15075691f, -0.87753218f, 0.52192414f, -0.28487766f, -1.81691933f, -2.08191013f, 0.20143449f,
    -0.65156311f, -0.41459942f, 0.10891290f, 0.56767446f, 0.85275710f, -0.08309967f, -1.23422909f, -0.28095105f,
    0.81419939f, -0.89445043f, 0.06612150f, 0.02073322f, -0.34285128f, 0.40145022f, -0.01946205f, -0.46114773f,
    0.82771963f, -0.16585928f, 0.08301387f, -0.19751936f, -0.02036751f, 1.51049161f, 1.61945128f, 0.79581952f,
    -0.12988359f, -0.21631101f, -0.48716417f, -0.58387542f, -0.91342491f, 0.41323006f, 0.57893318f, -2.48048902f,
    -1.02460396f, -0.09501328f, 0.86786824f, 0.09121358f, 0.05535102f, -0.68613577f, 0.83068591f, -0.16629374f,
    -0.72535205f, 0.90325439f, -1.17914069f, -0.14812307f, 1.24544156f, -1.02982223f, -1.32720888f, -0.97739208f,
    -0.98668361f, -0.88092971f, -1.74883783f, -1.47227466f, -1.67666757f, 0.55778050f, 1.38006532f, -0.12095793f,
    0.00987876f, -1.14160359f, 1.67305112f, -0.10972430f, 1.05979931f, 0.07121115f, 2.24769330f, 1.02672195f,
    0.16543987f, -1.33964813f, 0.68038327f, -0.09703835f, 1.09426308f, 0.45222765f, -0.54106379f, -0.01944703f,
    0.81602961f, 0.18285538f, -0.29657024f, -0.20270011f, -1.23338020f, -1.88392389f, 0.55020857f, 2.09124088f,
    -0.17411695f, -1.04137254f, 1.29909921f, 0.77869260f, -0.61027622f, 0.68646097f, 0.06781644f, -1.46710336f,
    -1.44644046f, 0.65147752f, 0.35634708f, -0.61314374f, -0.99417472f, -0.93551552f, 1.52894688f, 0.45983925f,
    -0.33953997f, -0.88257760f, -1.46974742f, -1.49367750f, -1.02172482f, 0.31612170f, -0.12548164f, 1.03757310f,
    -1.50882757f, 1.70271432f, -2.34145689f, -0.94310796f, 1.19379270f, 0.13775016f, 1.34219587f, -0.77962035f,
    2.14287496f, 0.44740549f, -1.30438828f, 0.40891922f, -0.09837924f, 0.56822163f, -0.12028798f, 0.21068487f,
    1.48842061f, 0.59123462f, 0.90676194f, 0.10627336f, -0.71704513f, -1.08267128f, -0.21048355f, -0.41163024f,
    -0.17062657f, -0.12849157f, -0.02196886f, -0.41235906f, 1.50755167f, -0.43550414f, -1.89686394f, -0.02697204f,
    -1.80331349f, 0.39295685f, -0.13453314f, -1.69958317f, 0.25959128f, 0.91667932f, -0.31283686f, -0.69947636f,
    -0.44662774f, 0.21161675f, -1.10457718f, 1.05578697f, -1.66180575f, 0.68841428f, 1.23997307f, -0.92477179f,
    0.65804297f, 0.87512857f, -0.86410195f, 0.18564637f, 0.58580959f, -1.21371484f, -0.67467898f, 0.58960497f,
    0.90464121f, 1.21885252f, 0.61055028f, 0.57850569f, 1.07955623f, 0.32243669f, 0.08422705f, -0.59636223f,
    -1.64906442f, 1.56021249f, -0.39471918f, -2.08284068f, 0.72005731f, 1.04493475f, -0.00392087f, -1.11886477f,
    -0.53042394f, -1.63515866f, 0.08743080f, -0.33396068f, 1.44856203f, -0.66990805f, -0.49255070f, 0.50113755f,
    -1.16998971f, 2.02700400f, 1.01258230f, -1.53080249f, 1.04256654f, -1.63902414f, 1.11552775f, 0.18655112f,
    0.45093259f, 0.53319603f, 1.36398578f, -1.00168157f, -0.39074221f, -0.81899059f, -0.67574245f, 0.50437081f,
    1.76800823f, -0.73937052f, 0.75189781f, -0.66788322f, 0.77035922f, 0.71940762f, 0.62395537f, -1.14901471f,
    -1.22358310f, -0.58051753f, 1.82027829f, -0.28612539f, 0.65152168f, -1.18924093f, 0.51049989f, 1.10351515f,
    0.23666601f, -0.63732350f, -0.08771442f, -0.79071677f, 0.53073776f, -0.15793306f, -0.49141484f, -1.21576726f,
    0.50327772f, 0.54905361f, -1.40862250f, -0.38860762f, -0.20123044f, -1.84974241f, 0.13802665f, 0.58288091f,
    -0.48440167f, -1.14540493f, 1.24404800f, -0.28641680f, 0.42314291f, 1.01878142f, -1.90842927f, -0.71262836f,
    -0.22664122f, 0.53648037f, -0.22419913f, 0.74401629f, -0.32117316f, 0.95381713f, 0.32256582f, 0.47400925f,
    -1.66346312f, 0.80862540f, 0.99360961f, -0.99751437f, 1.35665822f, 1.45497596f, -0.89952213f, -0.80895233f,
    0.36044627f, -0.90281528f, 0.14423735f, 0.70415246f, -0.55764914f, 1.05056036f, -0.34658214f, -0.45665708f,
    0.97736824f, -1.11672211f, 0.30589959f, -0.30460235f, 0.52340406f, -0.00482051f, 1.48532438f, -0.69690984f,
    -1.03942537f, 0.46979198f, -0.62283021f, 0.94865125f, 0.58750552f, -0.63919520f, 0.42538428f, -0.23956978f,
    -0.41000393f, 0.18187565f, 0.56678647f, -0.61892551f, -0.41117156f, -0.42521936f, 0.48778039f, -1.10547566f,
    -1.25819814f, -1.23168063f, 1.09455252f, -0.33589774f, -0.99256051f, 1.64451003f, 0.03772325f, 0.75365460f,
    -0.60318518f, 0.40910253f, -0.60971022f, -1.50841784f, -0.23097812f, -1.35516572f, -0.37859052f, 0.17428136f,
    -0.27030486f, -0.65536392f, -0.37841165f, 0.50203007f, 0.31281698f, -0.87057489f, -0.45242441f, 0.00815560f,
    -0.90048522f, 0.73919064f, 0.47912988f, 0.25661311f, -0.18204942f, 0.89575022f, -0.55750316f, -0.08811557f,
    0.03756767f, 0.54281348f, -0.55487007f, -1.82434094f, 1.32684898f, 1.16823411f, -0.53178614f, -0.44058898f,
    0.40438405f, 0.19563797f, -0.53898793f, -1.28618932f, -1.06543851f, 0.15837885f, -0.74973100f, -1.21133780f,
    1.12744844f, -0.53448462f, -0.69276696f, -0.73563284f, -2.80453920f, -0.38867673f, 1.18782544f, -1.22069967f,
    -0.50634390f, -0.60035414f, -1.02609813f, -0.40087533f, 1.13057256f, 1.09260726f, -1.12601876f, -0.31331605f,
    -2.20742464f, 0.49683872f, -0.79774445f, 1.43493700f, -0.99569690f, -0.11504482f, -0.39027008f, -0.30993867f,
    1.07634985f, 0.93220681f, 0.96417803f, -0.96258706f, 0.20106284f, 1.25499558f, 0.72563088f, 0.43366092f,
    0.17538026f, -0.91595823f, 0.22453314f, -0.55065560f, 0.18382639f, -0.90306461f, -0.60152131f, 2.11702085f,
    -0.45846930f, -1.23839200f, 1.30047309f, -0.01965607f, 0.73065478f, 1.73903668f, -0.59977067f, -0.83404911f,
    -0.80215979f, -1.07753420f, 1.10824466f, 0.07142022f, -0.80363905f, -0.19297141f, -1.10297394f, 2.27016687f,
    -0.24582352f, 0.76230901f, -0.72608793f, -0.02573765f, 1.60157418f, 1.37990165f, -1.38798082f, -0.24941643f,
    -0.07997146f, -1.74551809f, 0.77973735f, 0.71074718f, 1.39085925f, -0.87991977f, -1.43579257f, 1.86684108f,
    -0.09660956f, -1.46342409f, 0.61095423f, 0.63499457f, -0.88575011f, -0.15923505f, 0.05314760f, -1.17732000f,
    -1.29079854f, -0.68852431f, -0.71998268f, -1.21536887f, -0.62436891f, 0.39956298f, -1.76672459f, -0.00164906f,
    -0.86212724f, -0.22552824f, -2.27559066f, -2.27807784f, -0.32735065f, 0.48998946f, 1.18624377f, 0.18199006f,
    -0.92776412f, -1.10262847f, -1.22488034f, -1.26625931f, -0.26263177f, -1.66769648f, -0.64316410f, 0.92935336f,
    -3.25153565f, -0.01365965f, -0.59215891f, 0.02330808f, -0.20978174f, 0.35275954f, 0.03374667f, -0.16835816f,
    -1.15653396f, -1.30482388f, -0.94224399f, -1.39765632f, 1.41216826f, -0.26082218f, -1.50229335f, -0.46258292f,
    0.15819962f, 0.23460214f, -0.17201573f, 0.50089186f, 0.47441974f, 0.52819729f, 0.27290833f, 0.12068232f,
    1.04960847f, 0.00431085f, -1.65652013f, -1.37607968f, 0.45087004f, -0.33890095f, -0.98658836f, -1.55599689f,
    -0.66115355f, 1.10675859f, 0.66544574f, -0.00761921f, -1.03122127f, 0.15790163f, -0.21691954f, -0.70879626f,
    -0.51932037f, 0.11068311f, 0.19041562f, 0.71894485f, 0.42212459f, 0.35772231f, -0.35916024f, 0.71924764f,
    0.58223188f, 1.12529981f, -0.07533140f, -0.91814935f, 0.73186439f, -1.05812740f, 0.21318457f, 1.01717973f,
    1.25555992f, 0.65930307f, 1.11274779f, -0.19805858f, -0.81570506f, -0.24234819f, -2.31836772f, 0.47334805f,
    0.32372546f, 1.81253016f, -0.65261465f, -1.15572965f, 0.29410225f, -0.86049056f, 0.55616641f, 0.16861017f,
    -1.70878959f, -0.13948287f, 0.57312208f, 0.28106076f, -0.06208759f, -0.37411493f, 1.11716151f, 0.76434129f,
    1.19157803f, -1.77112341f, 0.41437083f, 1.20607591f, 0.91268933f, -0.27081889f, -1.34947383f, 2.09322357f,
    -0.96797472f, 1.28875256f, -2.08811402f, 0.18455702f, -1.21217775f, -0.07636418f, 1.12315726f, -1.25287592f,
    -0.33865812f, -0.74092698f, -0.59352887f, -0.60884368f, -0.38402048f, 0.44915569f, -0.19413452f, -1.01807654f,
    1.17899787f, -1.57897091f, 0.28041926f, 0.37762111f, -1.16751730f, 0.15125148f, -1.48451245f, -0.21708477f,
    -1.35409212f, 0.28835437f, -2.21625781f, 1.39004230f, -0.25296724f, -1.37243426f, 1.84252703f, -0.29780778f,
    -0.75213146f, -1.22646284f, 0.78628457f, 0.01702461f, 0.24519376f, -1.05628455f, 0.06529015f, -0.50805312f,
    -0.93518311f, -2.14194798f, 1.05454028f, -1.03172934f, -1.08203363f, 0.11856294f, -0.75864619f, -0.27483571f,
    1.43162143f, 1.06988704f, -1.21102881f, 0.46979052f, 1.35518444f, -1.29117060f, 0.71970034f, 0.11807858f,
    -0.98398894f, -0.92147362f, -0.99912220f, 0.86762989f, -0.57405061f, -0.21430920f, 0.81478506f, 0.78998131f,
    0.36102107f, 0.91579759f, 0.92408830f, 1.37140918f, -0.45237455f, -0.13437837f, -1.12285781f, -0.47715339f,
    -0.30396986f, 0.21899264f, 0.54588318f, 1.25852907f, 1.32488894f, 0.25918636f, 0.21523239f, 1.69045866f,
    -1.40981066f, 0.75239784f, -0.20249940f, 0.90677583f, -0.86705238f, -1.41349769f, -0.59164792f, -0.29277521f,
    0.76818186f, -2.50515103f, -2.16075611f, 1.04948223f, -0.32903486f, -2.68230724f, -0.29661724f, -0.04359601f,
    -1.66958213f, 0.47864392f, 1.16163325f, 0.29387450f, -0.71542352f, 0.26593512f, 0.19643132f, -0.17354885f,
    1.08015585f, -0.89008081f, 1.15167391f, -0.45493725f, -0.70275086f, -1.25857353f, -1.63302827f, -0.34605113f,
    0.74637526f, 0.10998954f, -0.28483233f, 0.19428059f, 0.86728030f, -0.69897568f, 0.71469402f, -0.69820994f,
    -0.48160443f, -1.00707650f, -0.38021615f, -0.00358541f, -0.20221385f, -0.02634944f, -0.47836322f, 1.13972938f,
    0.34715748f, -0.63199168f, 0.42864528f, 1.92317069f, -0.67693138f, 0.89317566f, 0.65626234f, 0.77282643f,
    1.22143066f, 2.20740914f, -3.18908644f, -0.79442781f, -0.16610739f, -0.45903897f, -1.39351392f, 2.54120445f,
    1.77692366f, -0.24720179f, 1.45165825f, 0.12561163f, -0.27646363f, -0.85251647f, 1.13127100f, 0.92558217f,
    0.01493709f, -0.45671794f, -0.05153136f, -0.75432128f, -0.60326856f, -0.01545408f, -0.52084821f, 0.44870487f,
    -0.26868585f, -1.82303178f, -1.15702426f, -0.00681493f, -0.04354210f, 0.29587707f, -0.15826765f, -2.50454116f,
    -0.80019653f, -0.45958248f, 0.53279692f, 0.44903556f, -0.36674666f, 0.20339662f, -0.23514742f, -0.58365786f,
    -1.14209664f, -0.93620229f, 1.22995639f, 0.60462648f, 1.76431644f, -1.38940179f, 0.51091093f, -0.13460913f,
    0.06241748f, -1.63655090f, -0.71931303f, 0.36174119f, 1.66510725f, 1.13756037f, -1.17773914f, -0.48556751f,
    -1.68808126f, 1.27674890f, -1.18907595f, 0.42274019f, -0.06437636f, -0.16775194f, 0.20848279f, 0.82763350f,
    -0.43302307f, 1.48303425f, -2.23795819f, 0.17597581f, 2.07971406f, 2.12549424f, 0.17581381f, -0.54361039f,
    -0.65578747f, 0.15966070f, 0.14400505f, -0.26030302f, -0.35976735f, 0.43199787f, 1.29066145f, -0.87377739f,
    -1.22173727f, 0.24586445f, 1.52182758f, 1.08687437f, -1.28607738f, 1.40960860f, -0.26707733f, -2.68453908f,
    0.14882021f, -0.37375006f, 0.12430253f, 0.16707619f, -0.75617582f, -0.57266021f, 0.10246586f, -1.94909179f,
    -1.78077579f, -0.83586156f, 1.22969043f, -1.18837774f, 0.26899463f, 0.19286066f, 0.66279131f, 0.21716182f,
    -0.95550209f, -1.53831637f, 0.05742170f, 0.08503000f, -0.56432611f, -0.76885420f, -0.81847316f, 0.68525380f,
    0.09773881f, -0.47577909f, -0.84445643f, 0.81389707f, 1.56647849f, -0.44731113f, 0.35059968f, -0.44315326f,
    -0.35722271f, -1.51271808f, -2.56345534f, -2.16013455f, 1.08360577f, -0.83515716f, -0.52103299f, 0.54032582f,
    0.29202449f, 0.52056730f, -0.84355009f, -0.61649138f, 0.10039711f, 0.28301394f, -2.11701894f, 0.98038507f,
    1.68590832f, -0.02540890f, -0.32422075f, 0.46399561f, 0.67778158f, 0.71386492f, -0.67915684f, -0.89231408f,
    -0.92856359f, -0.15631221f, 0.06625675f, 1.03512764f, 0.00497948f, 0.53117555f, -1.22810447f, -0.83290440f,
    -0.21471582f, 0.51588035f, -0.87292236f, -0.24159966f, 1.21221566f, -0.73958290f, -0.09774510f, -2.17190576f,
    -0.76653945f, -1.36247861f, 1.47931063f, -0.68392307f, -1.08108914f, -2.24622440f, 0.77716333f, -0.91186428f,
    1.06988370f, 1.11018670f, 0.07496656f, -1.90434408f, -1.99451923f, -0.71807754f, -0.20494720f, -0.73590243f,
    -1.16685140f, 1.10169184f, 2.47464657f, 0.00035885f, -1.41658354f, 0.46298876f, -0.62140447f, -0.20766084f,
    1.42661381f, 0.70096391f, -0.14055246f, 1.37690568f, 0.08090165f, 0.32856324f, 0.85678893f, 0.50724155f,
    -1.38583910f, 0.83808631f, -0.42009613f, -0.35586473f, -0.99874085f, -1.22217596f, 0.24995735f, 1.17938948f,
    0.62867814f, 0.65939915f, -1.48861492f, -1.06658626f, 0.73567849f, -0.19539155f, 0.24450429f, 0.19083479f,
    -1.01626885f, 0.32080787f, 0.48820549f, 1.98420990f, 0.46979171f, 0.38941652f, -0.27596244f, -1.33853471f,
    0.33938903f, -1.39605165f, 1.76838684f, 0.16263014f, -0.08227510f, 0.48759201f, -0.23809044f, -0.88606566f,
    0.10446099f, -0.47971913f, -1.50986183f, 0.00338398f, -0.74118072f, -1.86450303f, -0.01361798f, 0.86383635f,
    0.09198184f, -0.76096213f, 0.89909500f, -0.36815798f, 0.35398105f, -0.03386942f, 0.37008613f, -1.21787119f,
    0.09260201f, 1.15660083f, 0.39547005f, -1.07490027f, -1.55409682f, -1.15205455f, 1.52408290f, -2.29965615f,
    -0.00011403f, -0.00969063f, 0.38503385f, 0.41351920f, 0.23192233f, 0.79164571f, -0.77311677f, 0.49996722f,
    0.57985127f, -0.77972215f, 0.45116985f, 2.09135985f, 0.23892437f, 0.66300076f, 0.30699518f, 0.91693282f,
    0.17696978f, -1.23521245f, -0.77162701f, -0.57018441f, -0.17511271f, 0.48757491f, 1.32611620f, 0.22737411f,
    0.51971924f, 0.36944801f, -0.01228115f, 1.06651175f, -1.83225739f, 1.73331356f, 0.61838895f, 0.74037397f,
    -1.53882468f, -0.73343062f, -0.11307752f, -2.50413561f, 0.11312794f, -0.84548259f, -0.51151097f, 2.23889422f,
    -2.59678507f, -0.27326718f, -1.24194145f, 1.04196572f, 0.99472195f, -0.17213531f, 0.72228670f, 0.84553003f,
    -0.22668299f, -0.24025778f, -0.81890625f, 1.19084442f, -0.93205041f, -1.00540018f, 2.48327565f, 0.27071396f,
    0.65707618f, -2.18458200f, -0.24960001f, 0.77992618f, -0.13118161f, -1.59357786f, -0.38411677f, -0.45318350f,
    -0.07984760f, -0.53104407f, 0.66215235f, -0.77756453f, -0.16253527f, 0.40862468f, 1.91680133f, -0.79889888f,
    -0.35022694f, 0.87091202f, 0.82010615f, 1.37654769f, 1.86923110f, 1.37165773f, 0.86054873f, -0.24824075f,
    0.12256207f, 0.91329312f, -1.40271950f, 1.15685809f, -1.66974366f, 0.83993733f, 0.34684631f, -1.09331787f,
    1.16326380f, -0.93808025f, 0.22927980f, -0.25284088f, 0.74362487f, -0.75285298f, 1.08632720f, -0.75897223f,
    0.10151949f, 0.18178080f, -1.37481642f, -0.66052288f, -0.91909212f, 2.34713745f, 1.97259963f, 1.01288188f,
    0.60936058f, 0.33713692f, 2.03226781f, 0.28501850f, -1.42060745f, 0.28728288f, 0.04840851f, 0.23107068f,
    -0.32829234f, -0.22866528f, 0.16158862f, 0.87578154f, 0.87140328f, 0.68431026f, 0.82334828f, -0.90954918f,
    0.24928911f, -1.13256145f, 0.10722387f, 0.75687611f, -0.01142788f, 0.84330028f, -1.03143561f, 0.43007946f,
    -0.54816341f, 1.17905486f, 0.81786990f, -0.85240251f, -1.22540128f, -0.23696178f, 0.03918586f, 0.42604113f,
    1.74946189f, -0.09505706f, -1.08278942f, 0.17459132f, -0.22996214f, 0.69046813f, -0.28613707f, -0.86944818f,
    0.33231336f, 1.64595056f, 0.61115980f, -0.80995446f, 1.31295013f, -1.39681911f, -1.31055510f, -0.16316853f,
    0.11975267f, -0.28328565f, -1.08498251f, 0.64616930f, 1.32634532f, -0.61715168f, 0.50607955f, 0.80363739f,
    1.66900921f, -0.38554564f, 0.77251458f, -1.43477249f, -0.36344707f, 0.45079041f, -0.93311387f, -0.95598835f,
    1.11361706f, 2.05726171f, 1.52182388f, 0.25661382f, 0.15705614f, 0.74116689f, 1.40477955f, -0.23326169f,
    0.18384880f, -0.25952488f, 1.21363258f, -0.74436533f, -1.49229050f, 0.66281474f, 0.43776703f, -1.52942955f,
    0.26522157f, 1.52562189f, -1.77390718f, -1.52196848f, -0.32322809f, 1.68708670f, 0.15698057f, -1.20499337f,
    -0.51648766f, 1.15285230f, -1.50666285f, 0.46937573f, -1.69410145f, 0.31121850f, -0.50364113f, -0.43780586f,
    0.62799102f, -0.06355148f, -0.03720763f, 1.79830587f, -0.30569351f, 0.36181399f, -0.55183536f, 0.17940563f,
    -1.04315114f, 0.19634016f, -0.92130619f, -0.34254640f, -1.58786964f, -1.78883994f, 0.17507443f, -1.33570826f,
    -0.96118265f, 0.02968160f, -0.56661534f, -1.01453972f, -0.66747487f, -0.49193212f, -0.24653190f, 0.70357013f,
    1.53154850f, -0.27711880f, -0.73620176f, -0.75882697f, 1.33848929f, -0.42090955f, 1.22537470f, -0.36971417f,
    0.57106358f, -0.60496527f, 1.18583751f, -0.80057734f, -0.86312973f, 0.52260733f, -0.70822448f, -1.75664592f,
    -0.38634190f, 0.80391586f, 0.79301405f, -1.32548952f, -0.93436426f, -1.10293853f, -0.75213313f, 1.10676980f,
    1.17627192f, 0.22706267f, -0.19227618f, 0.49812871f, 0.31616360f, 0.11286210f, 0.53542066f, 0.31221098f,
    -1.69224930f, -1.93812418f, -0.05189783f, 1.18210495f, 1.00979781f, 0.26111609f, 0.20127645f, -0.34498027f,
    0.33548534f, -1.52181339f, 2.21921062f, -0.25763142f, -0.54029441f, -0.65152186f, -0.52976227f, -0.87008625f,
    -1.16641724f, -2.56749129f, -1.15770054f, 0.22605714f, -0.83933800f, -0.38131225f, 2.26651669f, -0.03837051f,
    -0.59116054f, -0.40326047f, -1.98675287f, -0.33127078f, -0.55883873f, -0.01435886f, 0.56375587f, -1.12774408f,
    -0.78715914f, -0.20676249f, 0.63616222f, -0.72191858f, 0.15135336f, 1.19771075f, -0.72166967f, -0.51809877f,
    0.09628578f, -1.17569923f, -1.11259127f, 1.02865672f, 0.03238929f, -1.82528818f, 0.45600626f, 0.24957013f,
    -1.03817546f, 1.84642649f, -0.76598263f, -0.02481316f, -1.00643063f, -0.14587122f, 0.71986568f, -0.00076770f,
    -0.24909988f, 2.92306423f, 0.41019258f, 1.39400041f, 1.16052926f, 1.39541817f, 2.37814450f, 0.32345644f,
    -0.26911685f, 0.07515781f, 0.10607873f, -0.03824925f, 0.07478754f, -2.25385118f, -0.73729199f, 1.26646209f,
    -1.56139398f, -0.57910585f, 1.40380681f, 1.25397813f, -1.27535832f, 1.36289227f, -2.23853493f, -1.51377499f,
    0.45285910f, 0.77594990f, -0.37130627f, -0.76828843f, -0.46634117f, 0.43902826f, 0.99037403f, -0.02206291f,
    -1.89899075f, -0.31093284f, 0.42229873f, 0.29703569f, 0.84982878f, 1.25494230f, 0.64788938f, -1.51010251f,
    0.16786826f, 1.41729796f, -0.16516435f, -2.41254735f, 1.41368663f, -0.69094115f, 0.36417300f, 0.74308002f,
    0.22965370f, 0.01268009f, -0.03741087f, -0.56029761f, -0.40996554f, 1.04050493f, 0.70043594f, -0.17487134f,
    1.21121049f, 0.69633365f, -0.62653321f, 0.35859102f, 0.63427740f, 0.21228978f, 0.88348711f, -0.27406630f,
    -0.62089795f, -0.16776992f, 0.35821497f, 0.39671466f, 1.41484976f, 0.09178809f, 0.80564374f, -0.36351702f,
    0.51220405f, 0.51074457f, 1.52231300f, -1.10372603f, 0.45946270f, 0.39151403f, 1.97306108f, 0.81349176f,
    -0.14746271f, -0.52571386f, -0.62937301f, 1.41654122f, -2.01736808f, -1.84771931f, -0.28655457f, 1.11077726f,
    -1.13978589f, -2.66482425f, 1.23657227f, -0.77373010f, 1.14025474f, 0.42370155f, 1.34862506f, -1.68558598f,
    -0.74620920f, -0.04626324f, -0.90646935f, 1.83479941f, -0.21904622f, -0.81130570f, 0.21169743f, 0.19535048f,
    -0.12114014f, -0.79906356f, 0.30386800f, 2.08471179f, -0.12704399f, -0.28924960f, 1.39268577f, -0.28884730f,
    -1.80872107f, -2.56681252f, 0.88296574f, -0.12372532f, -0.02936713f, 0.51859653f, -0.60699987f, 0.24173000f,
    -0.23330320f, 0.73502457f, 1.31202233f, 1.41603160f, -1.11123168f, 1.65537977f, 1.43745553f, 0.28389639f,
    -3.30943680f, -1.06168807f, -0.28542969f, 0.15673999f, 0.35801163f, 1.02739596f, 0.21738069f, -0.86497939f,
    0.08440267f, -1.89668930f, -0.96403354f, -0.12421841f, 1.18224072f, -1.09750915f, -1.23258233f, 1.24892259f,
    0.01562811f, -0.48626727f, -0.21185832f, -1.39671588f, 0.21008062f, -0.46241695f, -0.52192718f, 0.33723867f,
    0.97491658f, -0.04766209f, 0.68091500f, 0.40896833f, -1.74175334f, 0.23726007f, -0.63010639f, -0.47693047f,
    0.13302235f, 0.75544083f, 1.75039947f, -0.20758760f, 0.17385095f, -1.45732725f, 0.90025866f, -0.10882487f,
    -1.07043028f, -0.22477245f, 0.03138635f, -0.46360189f, -1.28205204f, 1.13300967f, 2.48866916f, -0.67457342f,
    -0.62733519f, 0.23167560f, -0.63371837f, -0.68343294f, -0.42017749f, -0.96712106f, -0.21664935f, 0.93681735f,
    0.58175743f, -0.54120332f, -0.55595720f, -0.96063787f, -0.52391613f, -1.20323098f, -0.23290220f, -0.71305758f,
    0.33966187f, 0.61526483f, -0.07370240f, -1.03036642f, 0.82874435f, 0.34767586f, 0.19098036f, -0.13818713f,
    0.71515363f, 0.73006886f, -0.35731903f, 1.40555763f, 3.17077446f, -0.38768831f, -0.32807043f, 0.96906155f,
    -1.28547680f, 1.23834777f, -1.99158156f, 0.81455576f, -1.05991852f, -0.75308859f, -1.08414471f, -0.58738887f,
    0.62271196f, -0.79335141f, -0.19925900f, 0.38402143f, 0.29866818f, 0.35442784f, 1.23594940f, -1.17704892f,
    -1.79418147f, -0.37682894f, 1.04237068f, -2.62369156f, -0.41342381f, 0.00975823f, 0.99104756f, 1.03198314f,
    -0.31238890f, 0.42278379f, -0.30973184f, 0.06820614f, -0.05617769f, 0.44014463f, -0.77246928f, -0.72089350f,
    -1.13049662f, -0.19052906f, 0.61143553f, 0.55994302f, 1.07112265f, 0.29332364f, -1.84338331f, -0.12501472f,
    0.00404271f, -0.93335110f, 0.36425337f, -0.81047946f, 1.33907259f, -0.54363382f, 1.85781455f, 0.60528904f,
    2.33827043f, -0.05154097f, -0.12196736f, -1.97848117f, 0.78991157f, 0.68916082f, 0.73967773f, 1.07757664f,
    1.87528503f, -0.22632150f, 0.50571191f, 0.65457702f, 0.16679303f, 0.03423288f, 0.15082812f, 0.43505186f,
    -0.90607673f, 1.72529614f, 0.54350257f, -0.18649736f, -1.15972841f, 1.68731332f, -1.54564989f, 0.45424139f,
    -0.85627526f, 0.26123852f, 0.36833993f, -0.61622262f, 0.56952602f, 0.93907958f, -0.92607713f, -0.03616467f,
    0.74830782f, 1.11576784f, -0.44426128f, 0.76737320f, 0.26542151f, 0.56181949f, 0.10990731f, 0.24318153f,
    0.24360405f, 0.47230244f, 0.17097875f, -0.03804773f, -0.98456538f, -0.55666488f, -0.41300541f, -0.02544433f,
    -0.57642615f, 0.38965803f, -1.42064834f, -0.41183698f, -0.27764568f, -0.64214253f, 1.84116554f, -1.61300969f,
    1.82552278f, 0.78673726f, 0.16192667f, 0.27663928f, 0.24374580f, -0.48752692f, -1.10349870f, 0.62256551f,
    -0.33202562f, 0.57757872f, -0.29176682f, 2.30331612f, -0.41908666f, 3.21803761f, 0.07019751f, -0.53640467f,
    0.43146971f, 0.91950935f, 0.65652788f, -1.64668727f, 0.29769844f, 0.75078505f, -0.42139724f, -0.00575631f,
    -0.21314625f, -1.65824413f, -0.54299742f, -1.57060730f, -0.64605665f, -0.26352227f, 0.30570212f, 2.01259184f,
    0.03727100f, 0.01074826f, -1.55432868f, 0.00598567f, -1.05079782f, 0.75524634f, -0.48840895f, 1.46707809f,
    -1.15075600f, 0.62851250f, -0.04991126f, -0.62925255f, 2.48662210f, 1.82725906f, 0.23580644f, -0.44838035f,
    -1.56273770f, 0.37918618f, -0.06352690f, 0.70336914f, -0.84848589f, 2.06246543f, -1.39524198f, 0.97469294f,
    -0.17839138f, -0.82665771f, -0.75735456f, -0.85100597f, -0.16968226f, -0.00178841f, -0.36684054f, 0.15710050f,
    -0.25984916f, 0.16057919f, -0.37656984f, 0.28600752f, -0.00095028f, -0.85707456f, 0.42752495f, -0.08318041f,
    -0.69808465f, 1.82491159f, 0.04958196f, -1.32837999f, -0.20055331f, -0.55965275f, 0.69035405f, 1.20691800f,
    -0.30401811f, 2.71991086f, -0.21889932f, -1.13017797f, 0.72782308f, 1.24327898f, 0.45399952f, -1.23772120f,
    -1.75600278f, -0.07982660f, -1.38351905f, 0.09383947f, -1.57573545f, -0.32271844f, -0.80238295f, 2.33012152f,
    1.24614847f, 0.14981478f, -0.88917130f, 1.00822973f, 2.84873796f, 1.76070416f, -1.03507507f, 0.05049147f,
    -0.08377511f, -0.32633001f, -0.39354438f, -0.81789833f, 1.15504384f, -0.02814477f, -0.20783284f, 0.33983487f,
    -0.09438293f, -1.88864505f, 0.06165082f, -1.14011216f, -0.36594164f, 0.60579801f, -0.67770976f, -0.59912008f,
    -0.31831023f, 1.02525508f, 0.90406007f, 0.00494975f, -0.04477349f, -1.04816866f, 1.26899028f, 1.28564608f,
    -0.74443167f, 0.10169956f, 1.44948685f, 0.04283673f, 0.88704115f, 0.15243511f, -0.48086742f, -0.13948096f,
    1.94725776f, -0.04085804f, 2.56206369f, 1.28239274f, 0.22633013f, -0.79934633f, -0.06831895f, 0.36368719f,
    0.29961258f, -1.14394975f, 0.35090250f, 0.48317671f, 0.32460725f, -1.51395237f, 1.39770222f, -0.44473058f,
    -1.43627155f, -0.58615577f, 1.48970783f, 0.78766149f, 1.24031985f, -0.26549703f, 0.36757231f, -0.01382806f,
    -2.27902269f, 0.20277746f, -0.67559779f, 0.88455856f, 0.41539183f, 0.73410934f, -0.84099197f, -0.80557209f,
    0.79244208f, 2.41922832f, 0.47651884f, 0.73350066f, 0.13625678f, -0.13125756f, 0.30499583f, 2.13362861f,
    0.19070606f, -0.60965866f, -0.44922954f, 1.06833458f, -1.97787690f, -0.41184831f, -0.13534814f, -0.28115395f,
    0.50439054f, 1.32139206f, 0.00160104f, 1.51671064f, -0.18744552f, -0.88161302f, 2.14125633f, -1.45079863f,
    -0.88199049f, -0.15267138f, -0.73095775f, -0.05887524f, -0.83027023f, 1.34512973f, -0.76774639f, 1.55456424f,
    1.70590210f, -0.71826649f, 1.17565858f, -0.24238455f, 0.91060078f, 1.35551476f, 1.55325973f, 0.56720430f,
    1.07285416f, -0.53245157f, 1.13281834f, -0.06070705f, 0.79082370f, 0.52103335f, 1.20664573f, 0.49501190f,
    -0.50636393f, -0.03017958f, -0.92675257f, 1.58026898f, 0.43960544f, -0.86989278f, -1.58546114f, -0.91549307f,
    -1.15555716f, 0.80033678f, -1.64987183f, 0.94767439f, -1.04418457f, -0.13673587f, -0.75791907f, -0.59990549f,
    1.24855459f, 0.77972412f, -0.75117451f, -0.99151826f, -0.95556259f, 0.79513115f, 0.91061747f, -0.07151516f,
    -0.66056085f, 1.28545332f, 0.47397578f, 0.02750578f, 0.25860986f, -1.71879780f, 0.12771489f, -1.29241359f,
    0.93945539f, -0.54779321f, 0.52153045f, -0.14265548f, 0.59012032f, -0.42976046f, 0.68909216f, 0.41291252f,
    0.43798840f, -0.88237417f, 0.62040156f, 1.77190518f, -1.01428092f, -0.54221338f, -0.48813793f, -0.30730057f,
    1.86302960f, -1.28583491f, -0.29957536f, 0.25086981f, -0.25399980f, -1.91422892f, -0.20107472f, 0.00293368f,
    0.54387665f, 0.28930911f, 1.05880690f, -0.93103534f, -1.15144169f, -1.74509239f, 0.12271405f, -0.59553021f,
    -2.45140624f, -1.70524752f, 1.62160265f, -1.54204178f, 1.01860487f, -0.20618787f, 0.65119857f, 0.58111048f,
    -0.31630260f, -0.82601261f, -0.24649335f, -1.14747036f, -0.28663322f, 0.37674382f, -0.83891612f, -0.02433418f,
    -1.20329189f, 0.12100879f, -0.51872736f, -1.06827652f, 0.70510018f, 0.07218372f, -0.56962401f, 0.24270482f,
    0.63886940f, 0.34915766f, -0.89549828f, 0.61990732f, -0.98847413f, -0.58266354f, -0.99733043f, 1.06096518f,
    0.42337227f, 0.53804022f, -1.94050038f, 0.56709480f, -0.16946551f, 0.72320980f, 0.25214139f, 0.12160444f,
    -0.93127751f, -0.69657660f, 1.45803142f, 0.33312315f, -0.41232359f, 0.98646981f, -0.01843908f, 0.21846211f,
    -0.60920584f, -0.01633296f, 0.30367586f, -2.36017108f, -0.06209593f, -0.34342486f, 0.87834585f, -0.84959954f,
    -0.66979855f, -0.31958270f, -1.20900393f, 1.59446800f, -1.74448860f, 0.10151954f, 1.13487756f, 1.63845968f,
    -1.50350964f, -0.05671851f, -0.11277262f, -0.21908580f, -0.04287961f, 1.13192868f, 0.04138649f, -0.37994808f,
    -1.74273777f, -0.15377872f, -0.17611207f, 0.13492303f, 0.39649731f, 0.26517457f, -2.46494365f, -0.26407039f,
    0.85043615f, -1.17298913f, 0.74667239f, 0.57629883f, -0.50659901f, 0.20879719f, -0.06954221f, -1.59670115f,
    -0.64031202f, -0.56116307f, -0.08094574f, 0.36619383f, -0.14288759f, -2.51876903f, 1.87338030f, 0.44758457f,
    -1.28376079f, 0.92135322f, -1.52055109f, 0.16984566f, -2.16473985f, -0.05352995f, -1.43913853f, -1.28215539f,
    -0.86973673f, 0.83765274f, -0.84090728f, -0.28795186f, -1.13761008f, 1.38496745f, -0.86596364f, -1.72119248f,
    0.97984976f, -0.13660860f, 0.50337088f, -0.33307013f, -0.89206636f, -1.62539804f, 0.54965216f, 0.36004841f,
    -0.87988460f, 0.57092160f, -0.64219058f, 0.60097116f, -1.48012710f, -0.31213471f, -0.12446790f, -0.39783624f,
    2.18836951f, 1.77203953f, 0.32745957f, -0.28097188f, 1.16121876f, -0.93012005f, 1.73207629f, 0.19261707f,
    -0.40773511f, 0.30408910f, 0.40371960f, 1.57430577f, 0.65657556f, -0.96171665f, -0.05431268f, -0.06690384f,
    -0.41706246f, -0.19591878f, 0.70619881f, 1.13596284f, 1.09310222f, 0.30570212f, -0.54817641f, -0.42460129f,
    0.57398039f, -0.06195151f, -1.34898829f, 0.06457695f, -0.94347346f, -0.41901076f, 0.08777902f, -0.34123901f,
    1.27528751f, -1.83229935f, 0.22950476f, -1.28450167f, 0.48049325f, -0.54026443f, 0.15679151f, 1.39881480f,
    -0.91109943f, -0.19502968f, -0.45436817f, 0.40011048f, 0.06920827f, -0.47355112f, 0.02176872f, 0.08500151f,
    -0.56951928f, 0.76379168f, 0.34610137f, -0.92188877f, -0.15630828f, -1.62436521f, -1.26415944f, -1.39499390f,
    1.14706469f, 0.15228370f, 2.45990777f, 1.33518147f, 1.34271193f, -1.26135957f, -1.12171268f, -0.87450880f,
    -1.18390572f, -0.45863789f, -1.14775610f, 1.21013510f, 0.37862667f, -1.09031940f, -2.34341097f, 1.47645724f,
    0.61315894f, -0.79190189f, -0.89109993f, 0.33065414f, 0.45873708f, -0.81686151f, -0.94598055f, 0.00796087f,
    -0.43400905f, -0.77013159f, -0.09113195f, -0.67493880f, 0.90596187f, -0.92736751f, -0.47068503f, 0.51838076f,
    -0.30790123f, 1.23836112f, 1.00114918f, 1.70634198f, -0.58058333f, 1.01764345f, 0.44292748f, -0.72744513f,
    1.81629467f, 0.17532839f, 0.46791402f, 0.60928386f, -0.60038882f, 0.68440366f, 1.87160957f, 0.17758210f,
    0.10628551f, 1.71278596f, 1.14643383f, -0.46018857f, -0.54891390f, -0.05192453f, 0.99667013f, 1.25437105f,
    1.16172767f, -0.50434208f, 0.66467136f, 0.25978813f, 0.90165102f, -1.56396461f, 1.42428279f, -0.50621057f,
    -0.60596478f, 0.67312723f, 0.15569167f, 1.20090008f, 1.73465598f, -0.17348510f, 1.20395732f, -0.95992106f,
    -0.09845600f, 1.94946587f, -0.79374844f, -1.36787248f, -0.86945081f, -1.25713265f, 0.58957517f, 0.58354658f,
    0.10078000f, -1.42361224f, -1.03293371f, -2.54341102f, 0.06588081f, -2.00101256f, -1.52402353f, 0.51922607f,
    -0.28004920f, -0.12720354f, -0.07773626f, -0.64359492f, -0.30894691f, 0.08723859f, -1.09269679f, -0.35758767f,
    0.97563463f, 2.00842237f, 1.38300347f, 1.33091021f, 0.12072065f, 2.17889667f, -0.61498529f, -1.31614721f,
    -0.80587000f, 0.53217024f, -0.55449963f, -1.41919744f, 0.26125672f, 0.31894720f, 0.48122308f, 0.52419609f,
    0.60927385f, -0.96372420f, 0.17400864f, 0.08260300f, 0.61652380f, 0.56781971f, 0.21472657f, 0.41267112f,
    -0.33582786f, 0.03142192f, 0.76233834f, -0.55330771f, -0.58939570f, 0.35107556f, -1.24808025f, 0.25232333f,
    -0.50091714f, -0.34086967f, -0.04986203f, -0.26441506f, -0.15216231f, -0.09396551f, -1.25022018f, -0.68913001f,
    1.20559251f, -1.33121872f, -0.33370215f, -0.01606604f, 0.22383794f, -1.62758410f, -0.61833686f, 0.62276161f,
    -0.78516722f, 0.03441612f, -1.47946131f, 0.66235602f, 2.41966057f, 0.60396266f, -1.25255072f, -0.36899582f,
    0.09570847f, 0.20908459f, -1.08153844f, 0.95898867f, -0.35140586f, -0.12244264f, 0.49191460f, -0.51878178f,
    2.03596425f, 0.95140940f, -0.37924021f, -1.07160389f, 1.00286257f, -0.57361042f, 0.05414509f, 0.22660521f,
    0.89182055f, 0.92160231f, -1.46547365f, -0.47292700f, 0.06227709f, -0.53967685f, 0.05170035f, 0.18463390f,
    2.24817586f, 1.33773017f, -0.21374682f, -1.59203303f, 0.50118268f, -0.16757989f, -0.54169029f, 1.77367890f,
    -1.46049356f, 0.33773798f, 1.59018898f, -0.43920457f, -0.68959725f, 0.61130202f, 0.26152438f, -0.86315614f,
    0.50307769f, -1.60090327f, 0.28747338f, -0.65818471f, -0.44168127f, 2.09587908f, -0.03760129f, 0.95812422f,
    1.23980176f, -1.38710439f, 0.03426567f, 0.17652498f, -1.55916905f, 1.58630919f, 1.15963495f, 0.33124843f,
    -0.33550543f, 0.76619846f, -1.01918411f, 0.76255143f, 0.72082281f, 0.65592718f, 1.46741343f, -0.15244155f,
    -0.07321852f, 2.12894249f, -0.01433807f, 0.11212025f, -0.63662219f, -0.79395121f, -1.45218110f, -0.98304838f,
    -0.77110863f, 0.33576855f, 0.88799644f, -0.63437867f, 0.58684719f, -0.83461893f, 1.30791676f, 0.27273101f,
    0.03140341f, -1.10768950f, -0.13771209f, 0.02881538f, -0.26626956f, -0.12492999f, -0.60074806f, 0.60780597f,
    -0.81175196f, 0.88557428f, -1.92358434f, 1.13739717f, -0.55732059f, 1.63192284f, -0.13845056f, -0.32715756f,
    -0.26889029f, 0.65630633f, 2.01264477f, -0.19110961f, 0.89622116f, -0.12871566f, 1.93072689f, -0.82427835f,
    -1.16870916f, -0.45178527f, -1.15156555f, -0.46310139f, -0.41814551f, -0.83069271f, -1.67082846f, -1.57065213f,
    -0.05940964f, -0.57197100f, -1.03926861f, 0.80892569f, 0.48875007f, -0.30171359f, 1.76815879f, -0.13396429f,
    1.89575541f, 0.97078907f, 0.11068280f, -0.90194285f, -0.49419391f, -1.48471260f, 1.38982558f, -0.01307451f,
    -0.36398372f, -0.35530296f, 0.83203357f, -1.41413498f, -1.51791954f, 1.09641373f, 1.85142100f, -0.02582460f,
    0.28168368f, -0.61723846f, 0.28839722f, 0.50891179f, -0.24067506f, 1.54168642f, -1.39928734f, 1.99515772f,
    -1.39951980f, -0.04417921f, 0.11983272f, -0.10314915f, 1.53912020f, 0.13760442f, 0.84066564f, 1.79837763f,
    0.96847486f, 0.62405783f, -0.80364770f, -1.28230572f, -1.00637591f, -0.37787989f, 0.32028359f, -1.01105046f,
    -1.38360560f, -0.33461297f, -0.60580403f, 0.02089236f, 0.14997247f, 0.24017391f, 0.29079315f, 0.63179338f,
    0.99799156f, 0.56186306f, -1.08541238f, -0.48141062f, -1.52870762f, -0.80503899f, 0.86162269f, -1.12113559f,
    0.34641644f, 2.09837365f, -1.37426805f, 1.08014178f, -0.62780267f, 1.43642294f, -1.58206511f, 1.85842645f,
    -0.19045331f, 0.71084350f, 0.05791634f, 0.80892795f, 0.07077286f, 0.03923475f, 0.67815584f, -0.64155579f,
    -0.98733127f, 1.43849504f, 0.94887900f, -1.16103697f, -0.66475809f, -0.17315395f, -1.54127169f, 2.68886232f,
    -0.40819418f, -0.88791627f, 0.16079907f, -0.95054781f, 0.68423909f, 1.30225158f, 0.76693970f, 1.43956649f,
    2.01321888f, -0.59985751f, 0.43887702f, -0.97063971f, 0.19130366f, -1.19640911f, -0.04477324f, -0.07730466f,
    0.86749756f, 0.36925769f, 0.11239696f, 0.03477617f, -0.42390838f, -2.21323919f, -1.88381541f, -1.40834486f,
    -0.06312822f, 0.18235397f, 0.11075573f, -0.51128095f, 0.39159870f, 0.23942854f, 1.26694524f, 0.57166958f,
    0.41695446f, -0.13840932f, 1.07619965f, 0.95581931f, 0.19028610f, -0.37372616f, 0.95807523f, 0.69533175f,
    1.67732584f, -0.29127905f, -0.56274337f, 0.34906536f, -0.07859369f, 0.11605544f, -0.41575685f, 0.52246886f,
    -0.34713629f, 0.15928398f, -2.05237675f, -0.11705295f, -1.40969419f, -0.45848897f, -1.66486168f, -1.34991086f,
    -1.56260455f, 0.48983204f, -0.81632864f, 1.29140031f, 2.07695365f, 1.07943118f, -2.38258195f, 1.11744976f,
    -0.03398183f, -0.34720653f, 0.40572467f, 0.92322671f, -0.44058412f, -0.14881888f, 0.37782136f, 0.41219413f,
    1.09625292f, 1.30118132f, -1.16595066f, 0.03844719f, 0.62436718f, -0.03225400f, 0.47687748f, 0.88829458f,
    0.16371851f, -0.62067866f, -0.56503624f, -0.44964275f, 1.13922691f, -0.78496093f, 1.06743121f, 0.03953620f,
    0.87988323f, 0.29351899f, -0.25393331f, -1.09132767f, 0.74701202f, -0.25842160f, -0.02936883f, -0.65044332f,
    -0.66776878f, -2.55907464f, 0.07708240f, -0.26780438f, 3.01971650f, 0.56892496f, 0.04118447f, -1.16065192f,
    -2.17976093f, -1.01321304f, -1.66743612f, -0.21244811f, -1.20428288f, 0.50145251f, 0.03428041f, 2.85930800f,
    0.06254135f, 2.24168324f, -0.87397653f, 0.03854788f, -1.47694945f, 0.66488099f, -0.72318673f, -0.04310790f,
    -1.47811377f, -0.26842147f, 0.33316272f, -0.99249399f, 1.03293383f, 1.26334250f, 1.03858447f, -0.38867727f,
    -1.61711407f, 1.04859650f, -1.52435195f, 0.86059743f, 0.84340489f, 1.64007354f, -0.04033959f, 0.29658672f,
    -0.23314944f, 0.63716120f, 0.55123931f, 0.05019769f, -0.06902532f, 0.10428234f, 0.99723363f, -1.02084148f,
    1.35700715f, -0.14553322f, -0.83793390f, 0.11334076f, -0.09328026f, 0.30595952f, -1.22235060f, -0.50594628f,
    0.61295992f, 0.01492442f, -0.52532333f, -1.60703576f, 0.08181402f, 0.57606477f, -0.29804400f, -0.17810677f,
    -0.67744464f, -0.76539660f, -1.12873018f, -0.93881136f, -0.45197648f, 0.13564849f, -0.32386678f, 0.18363519f,
    -0.19046028f, -1.42080867f, -0.06750610f, -0.63253313f, 0.44565010f, 0.47489074f, 1.18706024f, -0.80804032f,
    -0.68627745f, 0.86741918f, -1.17045152f, -0.00196247f, -0.92663789f, 0.44498217f, -0.57320923f, -1.07323933f,
    -0.39419523f, 0.66270608f, 1.31386328f, 0.22977981f, -1.01061118f, -1.77815831f, 0.74286538f, 0.38731986f,
    -0.18172394f, 0.78648257f, 0.32475451f, 0.36573607f, -1.04609716f, -0.02423103f, -0.17740439f, -1.03043115f,
    0.23216327f, -1.16897643f, -0.09743822f, 0.07672690f, -0.05694493f, 1.19469714f, -0.46905205f, -0.06964737f,
    0.28872344f, -0.90291959f, -0.15024953f, -0.47298273f, 1.02848613f, 0.46393517f, -0.80844533f, -0.06828027f,
    -0.63057816f, -0.49540144f, 1.32160509f, 0.50509435f, 0.00197537f, 0.17368211f, -0.63455153f, 0.94143599f,
    -1.41554630f, 2.74350238f, -2.25883722f, -0.58443886f, -0.53693825f, -0.98184127f, 0.83028883f, -0.71742517f,
    -0.39771056f, -0.34648690f, -2.56029439f, -0.58498615f, -0.23333396f, 0.91986501f, 1.71290851f, 3.11490703f,
    1.17170823f, -0.42061874f, -0.14838190f, 0.02798674f, 0.91970927f, 1.20351601f, -0.82444459f, -0.09094036f,
    -0.43424082f, 0.25481465f, 0.16037573f, -0.81132990f, 0.38152343f, -0.94034696f, -0.66475260f, -1.59809220f,
    -0.29310375f, -1.34894061f, -1.11132455f, -0.47174478f, 0.47316167f, -0.73260254f, 0.23559946f, -0.09960062f,
    -1.20919526f, -0.63894510f, -0.43748879f, -0.51609552f, -0.91192555f, 0.45181808f, -1.56240582f, -0.37197423f,
    0.33068952f, -0.65148342f, 1.22352207f, -2.98255253f, 0.11083179f, -1.54185772f, 0.46300203f, 3.28828478f,
    0.65885389f, 0.03451365f, 0.62464803f, -0.27783364f, -1.37512934f, -0.89357513f, -0.21479158f, -0.04543210f,
    1.00107527f, 1.29198277f, 1.74199104f, -0.00654869f, -0.18434072f, -0.11194052f, -1.63228536f, -1.33461535f,
    1.06897819f, 0.29635975f, 0.27308759f, 0.68495154f, 0.15758497f, 2.01850104f, -1.01609170f, -1.21577036f,
    0.25663945f, 0.12553884f, -2.63947105f, -0.18167283f, -1.14641261f, 0.01378973f, -0.57318467f, -0.41852719f,
    -2.04381156f, 1.74365115f, -0.76765108f, -0.60997468f, -1.24689007f, -0.37352741f, -0.05742320f, 0.46628848f,
    0.05960350f, 1.78193033f, 0.05250143f, -0.38632557f, -0.35537663f, 0.01840420f, 0.40818319f, 0.00107818f,
    -0.19247741f, -0.14947015f, -1.02343464f, -0.56022066f, 0.11432695f, 0.52969414f, 0.28150108f, 0.80116683f,
    -0.89605910f, -0.95130390f, 0.82244438f, -0.39820421f, 2.14060187f, -0.76340610f, 2.51565504f, -0.41439021f,
    2.28090882f, -0.10432225f, 0.07584082f, -0.53252131f, -0.59497494f, -0.20469056f, -0.20936541f, 1.22707331f,
    -0.21675462f, -1.57559741f, -0.40345192f, -0.38824746f, 0.28113526f, -0.20463488f, 0.12858748f, -0.16252817f,
    -0.42813027f, -0.44382390f, -1.57146513f, -0.99611390f, -1.86059916f, 0.36663547f, -1.12210047f, -0.57372069f,
    0.30012861f, -0.12925056f, -0.36589411f, 0.89665610f, 0.42560479f, -0.78360170f, -1.60196590f, -1.10366583f,
    0.25331002f, -0.07248620f, -0.71330404f, 0.52159268f, 0.42078039f, 0.75520980f, 0.08101440f, -0.23652723f,
    0.22697605f, -0.56801200f, -0.72862655f, -0.20189424f, -1.82579219f, 1.10080588f, -0.85526657f, -1.09886014f,
    0.19517098f, -0.30197707f, -1.08868515f, 0.16221705f, -0.44032449f, 0.12848546f, -0.91939151f, 0.18936080f,
    0.61211616f, -0.34606147f, 0.81840795f, 0.92323256f, 1.43138540f, 0.48944026f, 1.04552209f, 1.58244610f,
    1.24226260f, 2.36449480f, 1.12887919f, -1.09241211f, 1.79851735f, 1.84143877f, 2.22236109f, -0.79690486f,
    0.31337631f, 0.83948815f, -0.35518745f, -0.57404691f, 0.63564724f, 1.68660772f, 0.90593600f, 1.11471260f,
    -0.99031055f, -0.24204324f, 0.01081521f, -0.55594939f, 1.71936369f, -0.63803983f, -0.28988060f, 0.01780055f,
    -1.52158558f, -1.44835389f, -0.30127150f, -1.05372727f, -0.26159513f, -1.10607636f, -0.87327343f, -0.15204874f,
    -1.48555362f, 1.96894395f, 0.29663455f, -1.75569606f, -0.81453502f, -0.80593479f, 0.14990549f, -0.76529509f,
    -0.21507744f, -0.97733122f, -1.25005937f, -0.25829238f, 0.69500220f, -0.17618003f, -0.44857314f, 0.26725775f,
    0.33015382f, 0.63578200f, -0.86490136f, 1.78721035f, -0.68373346f, -0.37719220f, 0.38706428f, -1.55669093f,
    0.47902536f, 0.98199183f, -0.20266725f, 0.68822014f, 0.10366791f, 1.01964080f, -0.92467290f, -1.44835889f,
    -0.80410498f, -0.95263749f, 0.49206662f, 0.56833482f, 1.23977137f, -0.83227867f, 2.01265311f, -0.44802865f,
    0.66368568f, 1.03147435f, -2.26699352f, -1.63318372f, -0.79765487f, 1.41254473f, 0.24323371f, 1.20256364f,
    1.26616514f, 0.86672503f, 1.09445012f, 0.18647468f, -0.67893678f, 1.20226741f, -0.84791327f, 0.53378600f,
    0.81039196f, -1.12067091f, 1.15725982f, -0.43875694f, 2.40539742f, 0.63033360f, -0.84770292f, -0.52179790f,
    -1.75071323f, 0.79692531f, 0.17877792f, 1.05078697f, 0.89288247f, 1.61202621f, 0.85241544f, -0.34004968f,
    -0.34463564f, 0.44268408f, 1.14062560f, 0.50596970f, -0.50768477f, 0.02141876f, -0.04312657f, -1.16259873f,
    1.65587378f, -1.06971526f, 0.29544219f, -1.22271514f, -0.73114640f, -1.55935085f, 0.82669526f, -0.94350439f,
    -0.51659274f, 1.21830893f, -1.07022226f, 0.21217132f, -0.12311301f, -0.27672589f, 0.84275317f, -0.45650199f,
    -1.94119310f, -0.16692899f, 0.91072726f, 2.16410303f, 0.78984010f, 0.18565287f, -1.30902112f, 0.10443465f,
    -1.47145462f, 1.37894428f, -1.18667793f, 0.98741525f, 1.18507361f, 0.81073892f, -1.02587914f, -0.25718850f,
    -0.14088233f, -0.05805080f, -0.21155924f, 1.12558246f, -1.03770614f, 0.55635554f, 0.16604885f, 0.72955245f,
    -0.56640255f, -0.24547720f, -2.03488469f, -0.90207422f, -0.24583088f, -0.56370991f, -1.91107464f, -0.34542134f,
    0.57193518f, -0.36245963f, 0.09099907f, -0.24406147f, -1.42370248f, 0.28318089f, -0.14129978f, 0.72250372f,
    2.02173066f, -0.40459359f, 0.28230777f, 1.59975135f, -2.69619775f, -0.42255211f, 1.33036888f, -0.00906272f,
    0.55947286f, 1.30679619f, -1.58667767f, 0.73544955f, 0.41596982f, 1.17778146f, -0.66056365f, -0.05419233f,
    1.09585762f, 0.54503161f, -0.94678527f, 0.66497499f, 1.30733550f, 0.82855463f, -0.10007848f, 0.48966756f,
    -0.92086512f, 1.53818429f, 2.02898908f, -0.78197348f, 1.24773180f, 0.01869749f, -0.03958735f, -1.38171279f,
    0.49502075f, -0.28715140f, 0.38265541f, 1.10051191f, -0.24790238f, 2.24449968f, -0.27604103f, 0.69546610f,
    0.69162709f, -0.57057852f, 1.54111290f, 2.11686659f, -1.26902926f, -0.60801095f, -1.60513854f, -0.18888167f,
    -0.73875904f, -0.45923030f, 1.08123958f, -0.46979687f, -1.00135410f, -0.54383242f, 0.79139912f, -1.36194360f,
    1.62535644f, 0.25679097f, 1.36466646f, -0.10691959f, -0.05203541f, -0.38321143f, 0.51507372f, -0.37113366f,
    0.28756100f, -0.79410553f, 0.83582902f, -0.57119876f, -0.74872005f, -0.13537176f, 0.74688005f, 0.15497634f,
    0.96081311f, 1.09767568f, -0.43251142f, -1.44762385f, 1.30053425f, 1.66048706f, -1.05120456f, -0.49312943f,
    0.18995020f, 0.78950888f, -0.28568920f, -0.73337144f, -0.19118384f, -0.27359527f, 0.51695573f, -0.51768374f,
    -0.73944902f, 1.18855715f, -1.08319569f, 0.16269182f, -0.49405631f, 0.17263813f, 1.32249296f, 0.15992132f,
    -0.11554363f, 0.04460166f, -0.96420407f, -0.63924098f, 0.78840977f, -2.57286167f, 0.09649303f, 0.38937470f,
    0.20797502f, 1.38314641f, -1.06128681f, 1.10197663f, -0.52824283f, -1.59113181f, -0.55502611f, 0.53651822f,
    1.68615615f, -1.02246737f, 0.48051462f, -0.09825583f, -0.07112409f, -0.19259621f, -0.90137196f, -0.57102984f,
    0.50271821f, -0.39823887f, -1.00791466f, 0.25621241f, 0.26571560f, 0.15158272f, 0.42376283f, -1.44215620f,
    1.01638603f, 0.70557612f, 0.96844882f, -0.36586702f, 1.67056608f, -0.08773704f, 1.73773217f, -0.74607301f,
    -0.90139717f, 1.32291293f, 0.08863579f, -1.64909184f, 0.44356352f, 0.63342929f, -0.38750815f, -1.89271057f,
    0.06293174f, -1.17875409f, -0.18972436f, -0.92115623f, 0.82434565f, -0.16095331f, -1.31121063f, -0.29349372f,
    -1.57554853f, 0.53378838f, 0.80915403f, -1.20364177f, 1.05379236f, 1.50498724f, -1.14971793f, -1.29702365f,
    0.05506430f, 0.45124906f, 0.79746723f, 1.66116977f, 0.29605249f, -0.17538288f, 1.09799719f, 0.48072243f,
    -0.66721821f, 1.53899813f, 1.49078035f, 1.26088285f, -1.43852723f, 0.52920014f, -0.30302563f, 0.01226273f,
    1.34966707f, -0.26185748f, -0.33807334f, 0.92352343f, -0.83149350f, 0.91594702f, -1.08851659f, 0.65922993f,
    0.18209739f, 1.06734169f, 0.94703710f, -0.51204020f, -0.25544178f, -0.27347025f, -0.68208295f, 0.17970903f,
    -0.53990388f, 0.64353293f, -1.20010531f, 0.45732823f, -1.35790837f, -1.57462144f, 1.62902308f, -0.36998001f,
    -0.09972715f, 1.29531538f, 0.28022686f, 0.11982949f, -0.73361444f, -0.93687350f, 1.27447772f, 1.36081231f,
    -0.75766116f, -1.37606680f, 0.34159717f, -0.21957611f, -0.52130204f, 0.92223018f, -1.06518090f, 0.51024401f,
    0.48284376f, 0.18133870f, 1.17482066f, -0.48511875f, 0.19216964f, 0.77496076f, 1.16621840f, -0.54946083f,
    -0.55978817f, -0.90530711f, -0.39219481f, 0.02481064f, -1.25785649f, -0.53867638f, 0.66703981f, 0.64392525f,
    -0.23737432f, 0.42198959f, -0.89434838f, 0.81699920f, 0.03764391f, -0.20880322f, -0.09242252f, 0.64409125f,
    -0.72998917f, -2.09185052f, 0.02386630f, -0.12725286f, 0.01409370f, 0.15487841f, 0.90092838f, -0.76640451f,
    0.46389669f, 0.07395989f, -0.39385679f, 0.71586257f, 0.33452642f, 1.41157794f, -1.37562621f, -0.44953582f,
    -0.13547745f, 1.19130218f, 0.80513889f, -1.04715574f, -0.31912342f, -1.35648763f, 1.54032481f, -0.78595078f,
    -1.01344979f, -0.37576699f, 0.39005318f, 1.01751268f, -0.36230800f, -0.01702521f, 1.35679042f, 0.30917087f,
    -2.00669909f, 0.20968038f, -1.28185904f, -0.59346461f, 0.13686484f, 0.31391060f, -0.05811816f, 1.82716036f,
    -0.25930625f, -0.54342782f, 0.10008094f, -0.68353546f, -0.31693482f, 0.29178476f, -1.09688187f, -0.14809388f,
    -1.78644657f, -0.02991747f, -1.12628412f, 1.23966599f, 1.85442805f, 0.96431142f, 0.52511370f, 1.32496274f,
    -1.64109886f, -0.21508762f, 0.64010400f, 0.36375001f, 1.24270415f, -1.06625390f, -2.56809044f, 1.90257883f,
    0.77304858f, 0.97751641f, 0.91949147f, -2.04704738f, -0.12496375f, -0.44085914f, -0.20168370f, -0.27395809f,
    -0.91451776f, 0.33025956f, -2.71643376f, 0.99055105f, 0.64162481f, 0.41250491f, 0.14750472f, 0.14106561f,
    0.36340463f, -0.14508311f, 0.92857540f, -2.04914236f, 1.55889273f, 0.74914640f, -0.60238904f, 0.79855466f,
    -0.11329778f, 1.65973175f, -1.46125209f, 0.28513733f, -1.42776263f, -0.09260294f, 1.08057261f, -1.04439676f,
    0.46563277f, -0.75705743f, 0.88025993f, 0.74796981f, -1.17496324f, 1.29648626f, 0.79218465f, -0.48568201f,
    0.86757654f, -1.06378591f, -1.41076016f, 0.91334045f, -1.37757826f, 0.25813904f, -1.55804038f, -0.19039163f,
    -0.61923957f, -0.63181573f, -0.16489823f, 0.85976934f, 0.01846075f, -2.19196677f, 0.87914598f, 0.39424798f,
    0.84543735f, 0.54292780f, 1.78187859f, 0.76172173f, 0.33283556f, 0.38136351f, 0.10326922f, -0.71062446f,
    0.75122690f, 0.10917024f, -2.75346065f, 0.16572556f, 0.00946839f, 1.04628932f, 0.49285370f, -1.66940629f,
    0.25318754f, -0.69246256f, 0.18670705f, -1.42313397f, 0.45828202f, 1.44247973f, -0.02495146f, -0.48325270f,
    -0.57496655f, 1.81818557f, -0.05658121f, -0.16787001f, 0.53039980f, -0.42219165f, 0.36152962f, 0.62358516f,
    0.54900491f, 0.19248109f, 0.89369875f, 1.03632438f, 0.17026469f, -3.18619895f, 0.62671983f, -0.29584494f,
    -0.54959846f, -0.18512569f, -1.93038893f, 0.21128100f, 0.65726757f, -0.55660361f, 0.51755899f, -0.07935593f,
    -0.13041745f, -1.05895162f, -0.28381976f, -0.79485852f, 0.98750174f, -1.31495297f, 0.41537660f, 0.28552631f,
    1.17934787f, 0.77130169f, 0.77600443f, 0.05179236f, -1.58958507f, -1.30782974f, -0.56295121f, 0.39216369f,
    0.01116794f, 1.84178293f, 1.55643022f, 0.33882722f, -1.54217863f, 0.18393539f, -1.15021002f, 1.05026507f,
    2.11063981f, -0.03914462f, 0.62989634f, 0.18256621f, 1.22468054f, 1.18343937f, 0.12948132f, -0.15408574f,
    -0.66462874f, 0.33017957f, -1.49617302f, -0.24742451f, 1.48404515f, -1.48478854f, -0.32122710f, -0.83650440f,
    0.61496568f, -1.37656522f, -0.22531170f, -0.85197234f, -0.20253517f, 0.53546536f, -0.58440638f, 0.58047217f,
    0.14727549f, 0.95979911f, 0.44024718f, 1.98002744f, 0.38981089f, -0.26675496f, 0.96700072f, 1.37229860f,
    0.60842806f, 1.04395151f, 0.83848840f, 0.14922528f, 0.25976437f, -0.22115424f, -1.62711072f, 0.45032096f,
    1.63197124f, 1.59663594f, -0.04436382f, 1.12028801f, 0.79107815f, 1.10578454f, -0.46219879f, -1.17752802f,
    -1.19258904f, -2.27671576f, 0.97349739f, -1.13972151f, -0.16515903f, 0.94834226f, -0.98008835f, 1.69868219f,
    0.21274112f, -0.01236567f, -0.42807922f, 0.12492599f, 0.38286519f, 1.44310713f, 1.29890108f, -1.05065060f,
    1.50742257f, 0.64985251f, 0.44291607f, 0.19819665f, -0.94529498f, 0.56993628f, 0.03963237f, -1.54485548f,
    0.50277436f, 0.51148945f, -1.16848540f, 1.56108057f, -0.82018900f, -0.53178489f, -0.01084265f, 1.88117683f,
    -0.94029862f, -1.69260955f, 0.49327862f, 2.26261663f, -0.65837181f, 1.24046230f, 0.26146036f, 0.57375062f,
    -0.86508685f, -1.02741051f, 0.10023427f, -0.36770043f, -0.23574094f, -0.19764723f, 1.31447935f, -1.42023468f,
    0.12178938f, 0.69697917f, 0.87276399f, 0.13765931f, 0.31620818f, -0.04340193f, 1.31672597f, -2.31737018f,
    -0.95911050f, 0.15071021f, 1.27010524f, -0.51192439f, 0.38613829f, 0.45789415f, 2.46711445f, 0.51562136f,
    -1.00103581f, 1.81331503f, -0.19942054f, 1.03903079f, -1.03748369f, -0.90347040f, -0.48400903f, 3.21132946f,
    -0.74704379f, -0.71260208f, -2.55471444f, -1.42710531f, -0.36670214f, 0.07803194f, -1.89436090f, 0.43793559f,
    1.74765325f, -2.85052037f, 0.57762259f, 0.88834143f, -0.78654516f, -0.93692344f, -0.10666670f, 0.49109229f,
    1.27927375f, 0.56566077f, -3.45053411f, -0.34759873f, -1.08825099f, 1.78875744f, 1.14972603f, -0.17198187f,
    1.67198658f, -1.15597928f, -1.86503470f, 0.33269852f, -1.35650575f, -0.26281744f, -1.96539867f, -0.47347337f,
    0.77189922f, -2.22285366f, -1.70587134f, -0.93158907f, -0.35117909f, 1.85814083f, -0.02311361f, -2.16454482f,
    0.51341206f, -0.90801406f, -0.69229394f, -0.73670101f, 1.43716168f, 0.67675990f, -0.24515702f, 1.02897239f,
    -1.89303684f, 0.64962018f, 0.02410632f, 0.47910845f, -0.24797358f, 0.73761517f, 1.13735366f, -0.28651178f,
    -0.46018842f, -0.47600439f, 0.31217608f, 0.18659528f, -0.65415204f, 0.92243993f, 0.37981069f, 0.11744218f,
    1.07390857f, -0.24834147f, -0.63886762f, 0.41704169f, -1.52684748f, 1.58699012f, -0.23275633f, -0.04983655f,
    0.39678988f, 1.19906664f, -1.29457605f, -0.26627421f, -0.26661524f, -1.00737178f, 0.60736614f, 0.39260697f,
    0.03520969f, 0.73353010f, -0.60510594f, 1.21836793f, -0.38708645f, -0.18576178f, 0.03591713f, 1.10645890f,
    0.41621706f, -0.41693920f, -0.31291264f, 0.25897869f, 2.03258228f, 1.27249515f, 0.19003667f, -0.17839181f,
    0.84717840f, -2.18813729f, -0.51917565f, 1.59795916f, 0.37885651f, 1.63140440f, -2.21537971f, -0.09901856f,
    0.87099814f, -0.57051414f, -0.00223768f, 1.34637141f, -1.29457474f, 0.24464148f, 1.36880362f, -1.16317856f,
    2.44651818f, 0.97088182f, 0.69808024f, -1.16613913f, -0.27326050f, -0.34551787f, -0.64594167f, -0.27983460f,
    -1.38893950f, 1.54177868f, -1.28009033f, -0.20216511f, 1.55237532f, -0.55949795f, 1.39947867f, 0.29094541f,
    -0.42501113f, -0.90570295f, -0.46182594f, 1.39354670f, 1.25544238f, 1.11360264f, -0.33219561f, 0.85611582f,
    0.29814282f, -0.67767608f, 0.68771678f, 0.92149115f, 0.89539456f, -2.26342368f, -0.29400435f, -0.79716510f,
    0.39070079f, -0.10471141f, 1.60531843f, 1.94992661f, 0.21052693f, 0.88090146f, 0.18487738f, 0.49172205f,
    -0.21031451f, 0.77811050f, 1.16297233f, -1.01340950f, -1.05134475f, 0.15657240f, 0.93222749f, -0.18306893f,
    -0.52505165f, 0.10332309f, 1.11735463f, 1.95941591f, 0.61747134f, 0.70110095f, 1.08090019f, -0.95174712f,
    0.30600107f, -0.02367190f, 0.39795738f, 0.21891837f, 1.15282512f, 0.51841068f, -0.17589329f, 0.69974917f,
    -0.02248546f, 0.34894162f, -0.82352072f, 1.08587205f, -1.66958833f, -0.20390022f, -0.23296587f, 1.24312782f,
    0.00987865f, 1.96746600f, -3.26722550f, 0.99365401f, -0.33138472f, -0.67679965f, -0.52313805f, -0.49235669f,
    -0.69031328f, -0.41767952f, 0.28897759f, -0.61545545f, 1.11790538f, 0.08347353f, -0.82360810f, -0.12777689f,
    -0.57488739f, -0.86585468f, -0.24419102f, 1.77083802f, 1.72473240f, -0.50189614f, 0.91557837f, -0.83915746f,
    0.10857316f, -0.80369973f, -0.67711419f, 0.94952178f, 1.39990234f, -0.88548565f, 0.14668845f, -0.74015576f,
    2.10255265f, 0.89843297f, 0.71002334f, 0.64218765f, -1.80758500f, 0.93919712f, 0.58111018f, 0.52394629f,
    0.97012758f, -0.20311525f, -0.01339066f, -1.05969489f, -0.59470630f, -0.33888951f, 1.42680895f, -0.71120840f,
    -0.67273408f, 0.71962553f, 1.24964702f, -0.16352493f, -1.32450533f, 1.50885272f, -0.94568932f, 0.47154459f,
    2.40035796f, -0.10318159f, -0.06555959f, -0.61010152f, -0.16188413f, -0.46839151f, 0.46727002f, 0.25368774f,
    -0.94028729f, -0.34393063f, -0.51161438f, 1.39503884f, -1.12176132f, 0.32730186f, 3.38051176f, 0.44862473f,
    -0.17777871f, -1.00449300f, 0.83821094f, 0.21748748f, 0.92706978f, -1.52244723f, -0.87015986f, 0.11645030f,
    0.39387214f, 0.00983570f, 0.42705351f, -0.21086602f, 0.80530542f, 0.64167804f, -0.27654731f, 1.09889472f,
    -0.17862998f, -0.45436352f, -0.01190915f, 0.94801974f, 0.38829550f, -0.08161470f, -0.07216796f, 0.01334035f,
    -1.12388468f, -1.54520214f, 0.48455247f, -0.65641856f, -0.77732170f, 1.64382207f, -0.00794357f, -0.19584160f,
    -0.85294282f, 1.43681097f, 1.31661880f, -0.29164898f, 1.29619789f, -0.07169995f, 1.07744765f, -0.55349749f,
    -0.51302129f, -0.56733030f, 0.58036560f, -1.05322289f, -0.43205610f, 0.58646554f, 0.25310507f, 0.45121536f,
    -0.49390116f, 0.57345104f, 0.62846428f, -1.48262763f, 0.79127359f, -0.54688853f, 1.29780388f, -0.84814101f,
    1.08894944f, -0.77552825f, 0.57387537f, 0.13781168f, 0.64118266f, 0.33930844f, -0.92083949f, -0.66665512f,
    0.17203127f, -0.02814848f, 0.72739172f, 0.09686732f, 1.06357610f, -0.07474440f, -0.01701109f, 0.39340174f,
    -2.06956244f, -0.10946513f, -0.42851079f, 2.07509279f, 0.73297000f, -0.99885982f, -0.04561350f, 1.88069391f,
    -1.13400996f, 0.79309630f, -1.02604342f, -0.65686846f, 0.57137263f, 0.86907965f, 0.68708044f, -0.23511523f,
    0.28203243f, 0.39151251f, 0.05180217f, -0.68584496f, 0.58928829f, -0.51476514f, -1.57423437f, 0.55028731f,
    -0.63399035f, -1.12759650f, 0.31365290f, 0.12964337f, 0.89644355f, 0.66498768f, 0.80868626f, -1.03154838f,
    1.42734957f, 0.65771806f, 0.56099641f, -0.52603173f, 0.94825584f, -0.77997023f, 0.75376004f, -0.01904654f,
    -1.98467672f, -0.74737334f, 1.76856518f, 0.18952551f, -0.53664744f, -0.61052495f, 1.31364214f, 2.30123568f,
    0.07094842f, -1.32340980f, -0.58066505f, 0.61287332f, -0.13871835f, -0.93742788f, -0.53422564f, 1.97680962f,
    0.19434333f, 0.33640996f, 1.03108370f, -1.20706737f, -0.73287320f, -0.02700681f, 0.43715492f, -0.16931334f,
    0.61703682f, 1.38918972f, -1.37362134f, -0.69430131f, 0.98378283f, -0.84417993f, 1.02194464f, -0.47201484f,
    -0.31207901f, -0.24853352f, -1.14694083f, -0.15006578f, -2.36186218f, -0.89255857f, 0.07153788f, -1.30130994f,
    0.38943064f, -1.04272819f, 1.26846063f, -0.55228120f, -0.30535275f, 1.78688264f, -1.71281350f, -1.29760373f,
    0.01001584f, -1.70509136f, -0.25406447f, 1.50667262f, -1.16287124f, 1.95647943f, 0.41078931f, -0.05179211f,
    -0.90042883f, -0.15872973f, 0.15073043f, -0.36100295f, 1.11649454f, -0.72938114f, -0.56203026f, -0.10631424f,
    -0.64715886f, -1.57558513f, 1.53620517f, 0.28957841f, -1.52196205f, 1.04840386f, 0.38577539f, -0.74187744f,
    -0.54960477f, 1.00945735f, -0.00737320f, -0.75493360f, 0.20389417f, 1.21764219f, -0.95224869f, 1.00064504f,
    0.06721580f, -0.77997196f, 0.60446727f, -0.93295729f, -0.69424856f, 0.99018484f, 0.55103493f, 1.23604643f,
    1.71429765f, -0.24353622f, -0.54696941f, -0.38462150f, -0.65257853f, 1.07602870f, 1.06686294f, 0.10781626f,
    -1.14485610f, 0.26458120f, -0.50371951f, -1.20901680f, 0.71872240f, 1.95116878f, -0.64302063f, -0.16210072f,
    1.90809524f, 0.98421490f, 0.92315108f, 0.29481614f, -0.24429740f, 0.22846100f, -0.90007079f, 1.20855010f,
    2.13071442f, 0.35700113f, 0.74356967f, -0.52980673f, 0.04191762f, -0.05640277f, 0.52557111f, -0.31848547f,
    0.90892518f, 0.06992102f, -0.05766090f, -0.58416224f, -0.65132022f, 1.97442794f, -0.75967658f, -1.86015391f,
    0.40739837f, -0.66694009f, 0.95974463f, -2.26400208f, 1.07324934f, -0.44313496f, -2.23523211f, -0.42917484f,
    -1.03251851f, -0.79187256f, 0.67553174f, -0.62506455f, -1.74077952f, 1.19094193f, -0.87498635f, 0.46432921f,
    0.34780699f, -0.25804079f, 0.00718608f, 0.91560817f, -0.64390111f, -1.28038037f, 2.00593495f, 0.05563176f,
    -1.04728925f, 0.50108784f, -0.94050646f, -1.61624503f, 1.90546799f, 1.73938465f, -1.05311322f, 0.68721068f,
    -0.94977057f, 1.02949107f, -1.44828284f, 0.34818953f, -0.63259625f, -0.74977195f, 1.06563878f, -0.29960588f,
    -0.17430954f, -0.52522075f, 0.55481899f, 0.00521463f, -0.62709659f, -1.79525328f, -1.64263391f, -0.37784189f,
    0.22504270f, 0.15884858f, -0.36709028f, -1.63574171f, -0.90017241f, 0.53700912f, -0.54598391f, 0.89531159f,
    -0.67589086f, 0.91224337f, -1.53758764f, 1.28164327f, -0.63280857f, -1.23134494f, 0.60069883f, 1.72061598f,
    0.04564889f, 1.33082366f, -0.72566396f, -0.25591052f, -1.70538497f, 1.11207962f, 0.71641070f, 1.86045372f,
    0.46583480f, 1.25409818f, 2.16812563f, 0.56456059f, 0.20536384f, -0.24888365f, -0.06807771f, 1.42636144f,
    -0.26451707f, -1.02386010f, 0.20735492f, 0.32946035f, -0.32449162f, -1.60102475f, -0.31064731f, 1.55437732f,
    -0.84060198f, 0.73276013f, 0.04862872f, 0.82824951f, 0.21315682f, 1.11444926f, 0.47089666f, -2.14559174f,
    1.80863631f, 1.34317732f, -2.14453173f, 0.35237941f, 1.76187670f, 0.05932191f, -0.65569001f, 0.30761394f,
    -0.04879029f, -0.76953304f, -0.88868743f, -0.62406683f, -0.73459953f, -1.31174040f, 1.51596236f, -1.80868077f,
    -2.70018244f, 0.33077624f, 0.27206627f, 0.41350254f, 1.07922256f, 0.42173052f, -2.06094527f, 0.37671268f,
    -1.03021932f, 1.34365082f, -0.29219812f, -0.01663752f, -0.65060514f, 2.43186212f, -0.31544504f, 0.39294773f,
    -1.84450531f, 0.38430545f, -1.13298452f, -0.48366514f, -0.78715783f, 1.21514463f, 0.23714803f, -0.00776919f,
    0.58635676f, 0.05074826f, 0.60442787f, 0.56662267f, -1.13046145f, -0.76788354f, -0.35690871f, 0.21891707f,
    -0.06895946f, -1.75309801f, 0.73893279f, -2.01396084f, 0.55139524f, 0.56150055f, -0.48962560f, -0.62339455f,
    0.16355895f, 2.09378958f, -0.29281908f, -0.40559617f, 0.47419497f, -0.63749659f, 0.05650710f, -0.12033550f,
    0.22570135f, -0.08000421f, 1.96599424f, -1.35095477f, 1.84125388f, 0.33911085f, 0.46242455f, 0.04706752f,
    -0.70367754f, 0.79172748f, -0.01556000f, -0.52794975f, 1.17437005f, -0.48645684f, 0.33340725f, -0.95104921f,
    -0.94400406f, -0.69553220f, -2.00549579f, -0.42690837f, -0.29791668f, 0.83869195f, 0.93309534f, -0.83191019f,
    0.23027293f, -0.50530887f, 0.34880829f, -0.06696054f, 0.04095630f, 0.34838346f, 0.56572330f, 0.44753721f,
    -1.43405366f, 0.09243681f, -0.55873203f, -0.43103826f, -0.88073134f, -0.32214001f, 0.66294158f, -0.81197715f,
    -0.32665104f, 0.32367986f, 0.22453915f, 1.86033177f, 0.15438394f, 1.07754683f, 1.28029227f, 0.89442801f,
    -0.18637605f, -2.29185581f, -0.92331213f, -0.71166503f, -1.08925676f, -0.83103126f, -0.96192992f, -0.39288306f,
    -0.18248709f, -0.82481700f, 2.17314124f, 0.62433136f, -0.31923771f, -0.70826483f, -0.74178320f, -1.72019482f,
    1.30865562f, -0.12034735f, -0.95485592f, -0.61917347f, -0.92174965f, -1.21266985f, 0.87245655f, -0.06887981f,
    0.26580679f, -1.49319839f, -1.24455929f, -0.50005162f, -0.08624686f, -0.89957392f, 1.54878724f, 1.03219330f,
    0.10198791f, -0.86518776f, 1.58784413f, -0.39826497f, -0.26465598f, -0.19575587f, -0.74525708f, 0.54825246f,
    -1.51197147f, -0.49649629f, 1.21159542f, -0.07752529f, -0.69456953f, 1.66474414f, 1.09098601f, -0.98441488f,
    1.19148457f, -0.47648099f, 0.38016075f, -0.99703145f, -2.63112664f, 0.19325234f, -2.08990693f, -1.44401205f,
    1.39760685f, 0.40031815f, -0.30284679f, -0.28826174f, -0.80637848f, -0.56652308f, -0.59806412f, -1.47358251f,
    0.43437129f, -0.77983582f, 1.43079484f, -1.41718304f, -0.53091186f, 1.89128184f, -0.31049079f, -0.56037676f,
    -0.67611170f, 0.40145826f, 0.21514480f, 0.83063942f, -0.09476165f, 1.75278521f, -0.44595417f, 0.08564403f,
    0.02032617f, -0.48498717f, -0.10195382f, 0.66269892f, -1.17472732f, -0.07718769f, 1.88687360f, -1.43007720f,
    0.04204429f, 0.38640827f, 0.33649439f, 0.59534615f, -1.34533441f, 1.10612798f, -1.18178546f, -2.00170708f,
    -0.43274987f, -1.57712626f, 0.95129311f, 0.03455613f, 0.93210077f, 0.31676796f, -1.45471787f, 0.25512397f,
    0.50806594f, 0.40884179f, 1.01463199f, -0.22975619f, -0.88952953f, 1.37354684f, 0.96271110f, -1.32257867f,
    0.04267020f, -0.07164953f, -0.09180135f, -0.31256384f, 0.47312549f, -0.33478716f, 0.68212378f, -2.06807423f,
    -0.33676967f, 1.18884349f, -0.43872231f, 1.18365049f, 0.72319937f, 0.87091398f, -0.00701911f, 2.44044852f,
    -0.68129253f, -1.18239164f, -1.17310262f, 0.05666778f, 1.29512644f, -0.70834750f, -1.42219269f, 1.19830179f,
    -0.34767425f, 1.59940577f, 0.75432086f, -0.61992019f, 1.07750261f, 0.47426349f, 0.91687119f, -0.12376202f,
    0.10345091f, 1.38359189f, -0.50345087f, 0.64728761f, 0.25350240f, -0.34154144f, -0.19117075f, 0.03702442f,
    0.94112682f, 0.18327343f, 0.77548891f, -0.09768729f, -0.06394358f, 0.13342378f, -1.10435164f, -0.68714976f,
    1.33538616f, 0.41706800f, 0.64787948f, -0.44679630f, -0.25479585f, -0.79830360f, 0.41090804f, 0.96686947f,
    0.65170145f, -0.36977571f, -0.11833876f, -0.19085701f, 0.35392794f, 0.12363971f, 0.21664797f, -0.00103814f,
    0.57862133f, 0.19351366f, 2.37507010f, 0.26721424f, 0.18153378f, 1.63011754f, -0.34262785f, -1.05349135f,
    0.26304924f, 1.10228825f, 0.54230255f, 0.00984001f, -0.01140999f, 0.53777999f, -0.25417539f, 0.48214674f,
    -0.68988085f, 0.71019208f, -0.98859394f, -0.26472345f, -0.54796922f, -2.34381270f, -0.13168025f, 0.90294516f,
    1.31423140f, -0.23965324f, -2.31131029f, -0.91825080f, 0.18087342f, -0.47114494f, -1.02356386f, 1.60989261f,
    -0.39619395f, -0.13043618f, -1.25935066f, -1.74772012f, 1.25132859f, 0.25004798f, -1.48618937f, -1.43668258f,
    -0.29172641f, 0.54298741f, 0.80309379f, -0.01235244f, -0.03068761f, 0.48036683f, -0.93348813f, -0.58240491f,
    1.25098145f, -1.92829156f, -0.44066882f, 1.19026601f, 1.45898139f, -0.78792858f, -0.63694310f, 0.20713922f,
    1.02802706f, -0.43248174f, 0.76637590f, 0.85246164f, 0.06360952f, 0.07462896f, 2.46277094f, 1.32419205f,
    0.05400282f, -0.59622055f, -1.30944943f, -0.42188302f, -2.80374146f, 0.10021949f, -1.03851533f, 0.96126795f,
    -0.27784860f, -1.93625653f, 1.08896375f, 0.03229484f, -0.78200209f, 1.78195751f, -0.97835129f, -0.04235690f,
    1.24179649f, 0.69949353f, -1.30224681f, -0.52022254f, -1.18858385f, 0.38541949f, 1.27699590f, 0.24416262f,
    0.51254654f, -0.54842108f, 0.20312501f, 0.69289488f, 0.93199575f, -0.18591802f, -0.11403803f, -0.55408216f,
    -0.58055878f, 0.43771702f, 0.04551921f, -3.37454104f, -0.59964830f, 1.07807744f, -2.07874775f, -0.63553631f,
    -1.05597258f, -0.86830014f, -0.27035379f, 0.14984430f, -0.71846849f, -0.69348848f, 0.41208258f, -0.18005145f,
    -0.19382282f, -0.95900208f, -0.90321934f, -1.01583827f, 0.93992722f, -0.45250556f, 0.06254859f, 1.00085855f,
    1.12548423f, -1.68769085f, -0.00736814f, 0.39339364f, -0.36743328f, -0.37918118f, -0.20496497f, -1.30939519f,
    0.38408020f, 1.11992502f, -0.17753208f, 1.48266816f, 0.64852661f, -1.15867949f, 0.29951030f, 0.62917721f,
    -1.04263186f, 1.06938708f, 0.59227091f, -0.97821140f, -0.62216228f, 1.12589252f, -1.73829794f, -1.61184764f,
    1.69878483f, 0.59610176f, -0.87329984f, 1.61246026f, -1.19148672f, -0.59198123f, -0.54325998f, 2.18375611f,
    -0.60430127f, 0.13337556f, -1.01024890f, 0.44313639f, 0.33313707f, 0.87303323f, 0.44649687f, 1.43523538f,
    0.82063192f, -2.40836668f, 0.90593678f, 0.43222466f, 0.69820344f, 0.07567268f, 0.54763210f, 0.85904056f,
    1.03727174f, 0.04979770f, 1.03041625f, 0.95052636f, -0.14508286f, -0.81759274f, 1.03375828f, -0.06595823f,
    0.98297000f, 1.29144061f, -0.83295411f, 1.49361742f, -0.18782535f, 0.94594121f, -0.00676971f, -0.71772581f,
    0.38742647f, 0.45163414f, 0.31090909f, -0.11150028f, 0.73520529f, -1.72572505f, 0.34072754f, 0.81515008f,
    0.28180528f, -1.04432666f, 0.02060077f, 1.82020223f, 1.15632772f, -0.64894158f, -1.14243841f, 0.57012957f,
    -2.61455703f, 0.83671081f, -0.90888453f, -2.13171601f, 0.53196436f, 0.38900489f, -1.76925266f, -0.24825896f,
    0.16461912f, -0.03486937f, -0.33599314f, 0.60223448f, 0.64676553f, -0.83504105f, -0.70703787f, -0.46143821f,
    1.69731903f, -0.59990388f, -1.53952014f, 0.75272954f, 0.28147024f, -0.17026101f, -0.89610255f, -0.13391623f,
    -0.25064799f, -0.68517363f, -0.51443559f, 0.39511231f, -0.07447691f, 0.73156601f, 0.86277348f, -1.45436478f,
    0.86547679f, -1.02610910f, -1.47207284f, -0.40708214f, -0.27044529f, 2.89654493f, 0.33021802f, -0.29023519f,
    0.15892495f, -0.14058100f, -0.90779644f, -1.83474863f, -0.06799532f, -0.73859203f, 0.32810631f, 0.70096415f,
    -0.62251592f, -0.19332682f, 3.05751038f, -0.00556013f, 1.24637532f, -0.48237863f, 2.12206984f, -0.25138038f,
    0.11168361f, 0.11279509f, -0.20476446f, -1.92030466f, -0.36513111f, 0.02235392f, 0.65149820f, -0.55660015f,
    1.68820918f, -1.26898849f, 0.07213509f, 0.14862028f, 1.61739099f, 0.31262058f, 1.14130998f, -0.17747812f,
    0.36341450f, 0.47295195f, 0.81649739f, 1.21699095f, -0.47151074f, 0.15053381f, -2.28909111f, -0.25215700f,
    -0.19124711f, 0.26373678f, -0.93552494f, 0.75365597f, 2.07788801f, -0.55121326f, -0.13099596f, 0.13781971f,
    1.88490903f, 0.49357003f, 1.09270835f, -0.60571468f, -0.23150270f, 0.52334130f, -1.73145175f, 0.53634995f,
    0.72527260f, 0.65738845f, -0.43242240f, 1.07005048f, -0.06713305f, 0.09546465f, 0.37519357f, -0.93820024f,
    0.95070529f, 1.68590999f, 0.04191278f, -1.45228970f, 0.09384127f, 0.26036549f, -1.74775720f, -0.33432832f,
    -0.41003677f, 1.78284597f, -1.41153681f, -0.81908888f, -0.01018177f, -1.16169083f, -2.16774225f, -0.29891163f,
    0.32303277f, -0.69267869f, -0.08864769f, 0.20923461f, 0.29657069f, -0.24177168f, 0.17689048f, 0.79885674f,
    -0.11840720f, 0.20877813f, 0.15866089f, -0.16692388f, -1.24533558f, 1.39517879f, 2.74073577f, 0.52398139f,
    -0.54865885f, -0.51934683f, 0.16258422f, -0.36350316f, 0.27546406f, 2.17052603f, 0.50195777f, -0.52759898f,
    -0.63831925f, 0.62338203f, 0.97837090f, 1.32528436f, 0.23951378f, 0.82113427f, 0.11805978f, 0.89974147f,
    0.11433540f, -2.24874258f, -0.03349263f, -0.87641442f, -0.66606987f, -0.08159824f, -1.22166574f, -0.89382458f,
    0.00903498f, 0.49139738f, 1.03344142f, -0.05727705f, 0.83315194f, 0.36470121f, 1.20822060f, 0.21695773f,
    0.27374622f, -0.80246848f, 1.20222735f, 0.87489760f, 1.09851909f, -1.07082164f, -0.19702685f, -0.99772894f,
    -0.45190972f, 1.61364222f, -0.21319328f, 1.36952794f, 0.65678537f, 0.19188368f, 0.59871423f, -0.05768875f,
    0.20773196f, 0.87083519f, 0.02456308f, -1.08979762f, 0.12300618f, 0.87892461f, 0.45748699f, 1.42890799f,
    1.27954483f, -0.28725937f, -1.34772038f, -2.00061059f, 0.59957963f, 0.57532018f, -0.69027543f, 0.05960577f,
    1.44825506f, -0.89071661f, -0.28090909f, 0.83316344f, 0.98271412f, -0.67796665f, 1.93405187f, -2.94061923f,
    -1.61534500f, -0.97781366f, -0.04407325f, -0.96495217f, 0.39728299f, 0.69831371f, 0.26507682f, -0.52512681f,
    -1.19251370f, 0.11665230f, 0.41822264f, -0.83505452f, -1.68200326f, 0.60210353f, -1.04454911f, 0.77936870f,
    0.48160017f, -1.27227938f, -0.79598415f, -0.22399072f, -0.48191530f, -2.09888196f, 0.13076115f, 1.97150028f,
    0.77359283f, 2.26989484f, -1.07248199f, -0.31573504f, -1.12756383f, -1.23984671f, 0.11067418f, 0.77349520f,
    -0.17256323f, -1.49253035f, 0.43729296f, -0.33552447f, 1.86464167f, 2.56880450f, -0.13653652f, 0.55015260f,
    -1.72140992f, 0.59774089f, -0.37653315f, -0.39397615f, -1.22250497f, -0.42587343f, -0.05649113f, -2.67121100f,
    -1.93154597f, 0.71843958f, -0.49685088f, -0.56508553f, -0.20471400f, -0.79716384f, -0.06332766f, 0.16040751f,
    -0.38012663f, 0.33271584f, 0.28411064f, 0.03031896f, 1.28950059f, -1.05701792f, 1.54465091f, -0.31529132f,
    0.79692990f, 0.33152565f, 0.67456025f, 1.53761244f, -1.08025253f, -1.37086904f, -2.20654249f, 0.15780333f,
    -1.30935228f, -0.36057103f, 0.98669547f, -0.53084618f, -1.16611290f, -0.09585337f, 0.77861118f, -0.36152357f,
    -0.40282995f, 0.53310251f, -0.32636437f, -1.53805232f, -0.64605409f, -1.91765308f, 0.58583879f, -0.72421461f,
    0.14247797f, 0.70056283f, -1.25387824f, -0.11897121f, 1.14761305f, -0.97923791f, 0.22928521f, 0.63467294f,
    -0.18689761f, -0.51514131f, 0.00248039f, -1.50027490f, -1.20960331f, -0.83289093f, 0.94318324f, -0.84036684f,
    -0.39398056f, 0.62175781f, 1.12421107f, 0.02553568f, 0.88228035f, -1.85001850f, 0.88493061f, -0.14280398f,
    -0.10414261f, -0.80717593f, 0.21429415f, -0.75482351f, -2.11730742f, 0.42003310f, 1.24149275f, -0.60890877f,
    -0.94168597f, -0.61251038f, 0.56625921f, -0.64375132f, 0.18267962f, 1.11348593f, -0.16172177f, 0.25875491f,
    0.28913924f, -0.39422643f, 0.09424988f, 0.03011225f, 0.79006910f, -0.55268472f, -1.30754912f, 0.51522213f,
    0.25083879f, -0.40499663f, -0.06882505f, 0.51052564f, -0.04419622f, -0.85183841f, -0.34729525f, -0.04162417f,
    -0.65824580f, 0.83458352f, -1.71239197f, 0.66887695f, -0.07147790f, -0.77980977f, 0.34527645f, 0.19487703f,
    0.12417796f, -1.90050745f, 1.58062673f, 1.33791971f, 0.77414632f, -0.15000604f, -0.18454361f, 0.76488292f,
