/*
 * Auto-generated Pruned SOH model weights
 * Checkpoint: soh_pruned_hidden90.pt
 * DO NOT EDIT MANUALLY
 */

#ifndef WEIGHTS_PRUNED_H
#define WEIGHTS_PRUNED_H

/* Model configuration */
#define INPUT_SIZE 6
#define PRUNED_HIDDEN_SIZE 90
#define PRUNED_MLP_HIDDEN 128
#define NUM_LAYERS 1

/* LSTM input weights: [4*H=360, In=6] */
const float PRUNED_LSTM_WEIGHT_IH[2160] = {
    -1.49102330f, 0.23361130f, -0.61704123f, -0.12888907f, -1.31656516f, 0.48159349f, 0.63000131f, 2.23510695f,
    1.43401396f, -0.87201077f, 0.75054538f, 0.75992167f, -1.83614731f, -0.78388679f, -0.65461546f, -0.30011815f,
    -0.50700641f, -0.84148276f, 1.29228508f, 0.04492758f, -0.85883147f, 0.39789942f, -0.84807688f, -0.53145891f,
    -0.64506245f, -0.64351195f, 1.04453933f, 0.36001119f, 0.46113357f, 0.93994367f, 0.34441578f, -0.52959812f,
    -0.74912643f, 0.74911469f, 1.42070043f, -0.08371788f, 0.86760902f, -0.47480816f, 2.13617229f, -0.66047227f,
    1.78664958f, -0.74104023f, -1.30440700f, 0.29049769f, -0.55453217f, 1.17912781f, -1.19873738f, 2.37364435f,
    0.13536142f, 0.43431133f, -0.12905723f, 1.03151822f, 0.15215389f, 0.62771749f, 1.26446223f, 1.84445989f,
    -0.71948940f, -0.67569387f, 0.96746361f, 2.18500495f, 1.20169795f, -0.22319764f, -1.53587317f, 0.04930453f,
    0.72249824f, 1.74978268f, 1.27170944f, -1.68342018f, -1.88491201f, -1.72765195f, 1.57235301f, 0.04001764f,
    1.38894713f, -2.55065918f, -2.04444385f, -0.71557111f, 0.31140864f, -0.27367425f, 1.73879063f, 0.56339443f,
    0.00748197f, -0.95249349f, 1.32972229f, -0.59607446f, 0.39754736f, -0.38211715f, -1.08506310f, -0.42836308f,
    0.28708363f, 0.39821211f, -1.05743217f, -1.88639557f, -0.97118306f, -0.41166067f, -1.17201090f, -0.11434749f,
    -1.72786319f, 0.92553854f, 3.26655579f, 1.24507916f, -1.47695911f, 0.60117662f, 1.08406866f, 0.44741291f,
    0.70318407f, -1.70736575f, -0.96446943f, -2.81439972f, -0.15489435f, -1.26429760f, 2.50908804f, -2.91779280f,
    -0.37765837f, 0.05954835f, -2.31126738f, 0.18358783f, 2.08770132f, -0.86694974f, -1.69448543f, 0.48797175f,
    -0.31274626f, 0.74955171f, -1.37929845f, 1.22070217f, -0.00120891f, 0.16941512f, 0.21040285f, -0.36033344f,
    0.96599787f, 0.32044789f, -0.65289241f, -0.98021913f, 0.76082146f, -0.44557613f, 0.50486273f, 1.41284013f,
    -1.28014076f, -1.45131910f, -0.70784277f, -0.46208134f, -0.48444325f, 0.57894081f, -1.27163923f, -0.12528864f,
    2.72056961f, 0.74856049f, -0.22097361f, 1.02995431f, 2.04488683f, 0.63855910f, -0.38552991f, 1.70764840f,
    2.51704907f, 0.35003546f, -0.05439081f, -0.65212655f, -2.13285732f, 0.02812042f, 0.55542660f, 0.62819660f,
    0.75697249f, -0.50186580f, 1.12384450f, 0.34374937f, 1.48196435f, 1.22069967f, 1.22116220f, -0.79280424f,
    0.40281990f, -0.87627608f, -0.08878879f, 1.39522600f, -0.92860061f, -1.97151208f, 1.21670675f, -0.14254397f,
    -1.00517428f, 0.10070639f, 0.38836387f, 0.42110151f, 1.16356039f, -0.86343729f, -2.53546834f, -0.75431830f,
    1.05423558f, -0.54257423f, -0.24198629f, 0.81246692f, 0.58871877f, -0.17128159f, -1.10166955f, -0.40829739f,
    -0.29063037f, 0.56012070f, 2.58391762f, 0.24338953f, -0.84157640f, 3.64391756f, -2.13785052f, -2.36157823f,
    -0.90046728f, -0.30336502f, -1.59973049f, -0.89765722f, 2.46472907f, 0.23007949f, 0.02745978f, 0.28057304f,
    2.30448461f, -0.33021381f, -1.58421028f, -0.45136538f, 1.16648483f, 0.80747348f, 1.04569089f, -1.92937887f,
    1.05416238f, 0.04809624f, -0.48841685f, 1.97490239f, 1.19069505f, -0.18898568f, 0.60953087f, -0.38063022f,
    -0.50996810f, 1.56047606f, 0.20734836f, -1.51475525f, 0.30874982f, -0.90853435f, -1.16918814f, 0.04243238f,
    0.14417283f, -0.88060552f, 0.58532929f, -1.14747596f, -0.84657007f, -0.34765810f, -2.36423492f, 0.21525770f,
    -0.99899232f, 0.55756062f, 0.64252460f, -0.18789978f, -1.45296586f, 0.49748185f, 0.38870543f, -1.12842703f,
    -0.60775155f, -0.45331404f, 1.99154532f, 1.34874392f, 0.09881347f, -0.29762810f, -0.78788918f, 0.52355486f,
    -0.52807778f, -1.76733077f, 0.78070563f, -0.66547525f, -0.59572119f, 0.73691887f, 0.91105884f, -0.07725636f,
    -0.58158737f, -1.86155784f, -3.02085233f, 0.43398970f, -0.07179429f, 0.35477611f, -0.95266932f, -2.23246789f,
    -1.44597936f, -1.01509345f, -0.36177960f, 0.72633231f, -0.17005152f, -0.38461381f, 0.78738213f, 1.09420407f,
    0.47335234f, -0.92728937f, -1.11650944f, -0.41598368f, 3.67868471f, -1.35525250f, -0.96223956f, -0.14559466f,
    -0.03324272f, 0.70870060f, 0.48329687f, 1.74635065f, 0.56776136f, -0.21836834f, -0.48322076f, 0.59309208f,
    0.73822713f, 1.58561957f, -0.10391065f, 0.11056034f, -0.87363714f, 0.53871995f, -1.40843654f, 0.23058458f,
    -1.35485089f, 1.41530085f, -1.32171214f, -0.72323817f, -1.05989838f, 0.05392929f, 0.48713163f, -0.61984998f,
    -2.41320539f, 0.42355570f, 0.07899582f, 0.27822244f, -2.80300355f, 0.06207133f, 0.08134576f, 0.81872463f,
    -0.42821535f, -1.04397607f, -0.03922114f, -0.13694397f, 0.84762639f, -2.10816383f, -0.75466585f, 1.49485683f,
    -0.43866569f, -0.81219882f, 1.94388604f, 0.13757481f, -1.00313413f, -1.34685242f, -0.11057011f, 0.94399494f,
    0.12972766f, 1.05822349f, 1.64700830f, -1.09110951f, 0.80951321f, 0.29533353f, -0.91511476f, 0.90698338f,
    1.61255085f, -0.62449837f, -1.07428956f, -0.49518704f, 0.88382888f, -2.06930852f, -2.92356324f, -0.25813282f,
    -0.16273959f, -0.75135416f, 0.45353934f, -0.85478139f, -0.20169248f, -0.93826705f, 1.78804278f, -0.04479800f,
    0.00194284f, 2.34633684f, 0.85060155f, 0.29982266f, -0.40543380f, -0.75948334f, -1.14552057f, -0.07163090f,
    -1.17115355f, -0.53553921f, -3.54473186f, 1.44752133f, 1.65679300f, -0.52590823f, 1.06438589f, 0.49505353f,
    2.60440230f, -0.83236897f, -0.61195761f, -0.30454338f, -0.13007928f, -2.11988831f, 0.09639571f, 1.11369908f,
    0.52181160f, -0.28343052f, 0.06062358f, 0.13294886f, -0.11857815f, 0.13816372f, 0.74777240f, -0.39461860f,
    -0.81602132f, -1.40414190f, -0.11014573f, -0.52260983f, 1.38162899f, -0.01873286f, 0.35890529f, 0.52267313f,
    -0.38290688f, 0.56264997f, 0.71537745f, 0.37279028f, 2.26169753f, 0.94336212f, 0.13410123f, -0.15515852f,
    2.70713806f, -1.10874212f, 0.41891813f, 0.80301297f, 3.56023288f, -1.09793782f, 2.89191842f, -0.66138697f,
    -0.97632265f, 0.99407417f, 2.25019908f, -0.54587603f, 1.53684115f, 0.03007829f, -0.35226291f, -1.29871893f,
    0.90409487f, -1.06541741f, 0.58411354f, -1.46416068f, -0.64662564f, 0.42612097f, -0.55296689f, -1.83830106f,
    1.54739940f, -0.15426365f, 1.53849351f, -0.67761612f, 1.56266689f, -1.03142810f, 0.85585314f, 0.07233072f,
    2.79454541f, -0.25823879f, 1.17680490f, -2.49287295f, 1.51885355f, -0.30674526f, -0.12187848f, -1.95274711f,
    0.60728693f, -1.57241058f, -1.21300066f, 0.99858648f, 1.68736291f, 0.80810529f, -0.12451247f, -1.24058461f,
    -1.44700503f, -0.41247332f, -0.99125105f, -0.72448248f, -1.63194573f, -0.87486476f, -0.25799993f, -0.74105179f,
    -0.89305586f, -0.41300493f, 1.85775578f, 0.04862691f, 3.41739440f, 0.44605216f, -0.20641296f, 0.23442864f,
    0.81619960f, 0.44830969f, 0.80099583f, -1.30102360f, -3.05354500f, -2.47175813f, 1.00331950f, -0.91853625f,
    -0.90807748f, 1.27314448f, 3.12228727f, 0.75068110f, -1.10635304f, -1.02037442f, -0.99805045f, 2.16264701f,
    0.89820057f, 0.48695722f, -0.81467456f, 0.09102732f, -0.39640999f, 0.39940581f, 0.42970634f, 1.57157111f,
    2.86169529f, 0.30388612f, 1.38337016f, -1.75435770f, -2.33580923f, 0.24501537f, 0.26305157f, -0.36572397f,
    0.55246365f, -1.21185243f, -2.74444366f, 0.24686305f, 1.58048654f, 0.56050360f, -1.03960097f, 1.66124046f,
    3.33343387f, 0.70394075f, -2.81996059f, -0.14205250f, 0.02104784f, 0.64083374f, 1.44706583f, 1.11365509f,
    1.14214253f, 0.53746098f, 1.72454464f, 1.31057537f, 0.44242999f, -1.09535956f, 1.27679336f, -0.65687042f,
    1.00626028f, 1.18077278f, 1.15211368f, 0.25784793f, 0.35663864f, 0.46182948f, -0.69924337f, -0.30741814f,
    0.24492258f, -0.54144764f, -0.35383081f, -0.40283674f, -1.74442053f, 0.02959178f, -0.41290852f, 1.17225575f,
    -2.72042394f, -0.33590704f, 2.09456468f, 1.33670664f, -1.99064493f, 1.26873207f, 2.30354786f, 1.71993291f,
    -2.16574693f, 0.32159847f, 0.25320554f, -0.64029807f, -1.47663009f, -0.44731012f, 0.78528547f, -0.78338826f,
    -1.71959877f, 0.86320496f, -1.78878486f, -1.22091067f, 0.64405477f, 0.31385612f, -0.19117129f, 1.49676085f,
    1.97681141f, -0.01136992f, 0.53142726f, 1.08070004f, 0.60415512f, 1.10017645f, 1.48509371f, 0.90749723f,
    -2.67115664f, 1.04173422f, 1.84810042f, 0.43866470f, -2.97924876f, 0.05002988f, -0.39993453f, -0.01655083f,
    -0.81786567f, 1.42778194f, -0.70418906f, -0.56086588f, 0.24696900f, 0.61015397f, -0.34260431f, 0.35873511f,
    -0.61904830f, 1.20152283f, -0.93943083f, 0.90162551f, -0.89305228f, 0.54945582f, -1.02895999f, 1.04535890f,
    0.66339350f, -0.27470517f, 0.35283622f, 1.66410899f, 0.53411692f, -0.49562824f, 0.97163302f, -0.00479585f,
    -0.28337583f, -0.72899234f, 1.06027114f, -1.09716368f, 2.11780024f, -0.20230137f, -0.05474228f, 0.56150025f,
    0.93192834f, 0.60315222f, -1.67735016f, 0.36060548f, 0.59331101f, -1.26032114f, -2.12987328f, 1.11212111f,
    0.05947890f, 0.17868496f, -0.75194108f, -0.78185982f, -1.30551791f, 1.13772082f, -0.12580056f, -0.48245040f,
    -0.06122853f, -1.49887705f, -0.45031586f, -1.50606358f, -2.37603760f, -1.11157215f, 1.69858563f, 0.15259953f,
    -2.66232419f, 0.42884001f, 0.34349981f, 0.00035060f, -0.37459940f, -1.82171559f, -2.11264777f, -0.95151705f,
    -1.24430478f, 0.27170971f, 4.01798677f, -0.12342612f, -1.91816533f, -1.01922464f, -2.45432830f, -2.06225443f,
    -0.75310832f, -1.59797704f, -2.34678292f, -0.81296158f, -2.88142848f, -0.23691958f, -2.18825364f, -0.05314080f,
    -3.02555108f, -0.09740845f, 0.41550171f, -0.57758182f, 0.68079144f, -1.35490799f, 0.02821454f, -1.78501618f,
    0.01119073f, -0.13029584f, 0.32431209f, -0.88013607f, -2.29082656f, -0.45992333f, 0.22655016f, -1.26916873f,
    0.06813774f, 0.93730623f, -0.45975274f, -1.94707131f, 1.47146571f, -0.56266171f, -0.76234418f, 1.17755115f,
    1.76391566f, 0.24007799f, 0.11909480f, 0.26485896f, 0.40955603f, 1.84391046f, -0.12966441f, 0.59917015f,
    -0.31585249f, -0.81894243f, 2.34592080f, 0.17197989f, 2.05150390f, -0.80760533f, 1.38983548f, -0.27227265f,
    -0.24842614f, -0.10500553f, 1.42080772f, -0.17152141f, 0.16259745f, -0.80908346f, -0.16448922f, -0.51020092f,
    -2.60304475f, -1.22693062f, -0.27871406f, -0.52870423f, -0.37570441f, 1.18236768f, -1.41180098f, -0.88278335f,
    -0.64044392f, -0.10144556f, -0.61433363f, -1.24068558f, -1.02371180f, -1.08021986f, -1.91803777f, 1.21358991f,
    -0.15499492f, 1.40619195f, -3.83095384f, 0.21461102f, -0.58145785f, -2.54073524f, -0.33914560f, 0.11008419f,
    -1.75055015f, 1.81500113f, -4.37920046f, 0.25540271f, 0.63467926f, 0.04784752f, -5.08263111f, -0.92296642f,
    1.81249547f, 0.41506898f, 1.09542215f, 1.01626027f, 1.94119346f, 0.17450626f, -0.80725759f, 0.49881294f,
    1.39313233f, 1.86942208f, 1.02664971f, -1.29640162f, -0.32515335f, -1.20985281f, 0.18294035f, 1.24673283f,
    -0.28528640f, -0.60227317f, 3.51690888f, -1.54381573f, -1.28508210f, 0.65311402f, 3.22713065f, -0.94046676f,
    1.20651543f, -0.84604102f, -1.38910234f, 0.71813077f, 0.96061736f, -1.31284332f, 0.32632485f, -0.62756151f,
    0.10799015f, -2.07515860f, -1.24277174f, -0.01604164f, 0.39241394f, -1.89680469f, 0.70567608f, 1.22338593f,
    -0.82084489f, -0.29728323f, -0.82485384f, -0.11015472f, -0.65569204f, 0.00816375f, 0.90235579f, 1.97975528f,
    0.91914237f, 0.89584303f, -1.63571680f, 0.11020753f, -0.40799516f, -0.69959939f, -1.19273782f, 0.35289136f,
    -0.39038312f, 3.00004172f, -1.50112188f, -1.10199010f, -1.90400791f, -1.21503472f, -0.49494538f, -0.20007659f,
    -1.57036579f, -1.11546659f, -0.57502609f, -0.58166528f, -0.56209975f, -0.28537130f, 0.45992747f, 0.49212429f,
    -1.62663281f, -0.02610924f, 0.37149647f, 1.43927622f, -1.69643438f, 0.10507555f, -1.71715653f, -0.88899982f,
    2.65679312f, 0.20932497f, -2.36372828f, -0.65440589f, 1.27793324f, 1.25195527f, 1.26945555f, 1.42504299f,
    0.86783093f, -0.64650732f, -0.19977176f, -0.27054745f, 0.17841931f, 2.30422878f, -0.17850678f, -0.13131773f,
    1.85787845f, -0.15190040f, -0.68983191f, 0.05672560f, 1.53147483f, -0.76399887f, -1.89847076f, 0.50993174f,
    0.54686171f, 0.13185477f, -0.51575089f, -0.71563178f, -3.74259043f, -0.60448277f, -1.73804712f, 1.41767681f,
    -7.50333261f, 1.30514014f, -1.43759322f, 1.12117600f, 0.03788027f, -0.25381508f, -1.74820447f, -0.63560450f,
    -0.47961855f, -0.55635607f, -1.47565460f, -0.71545357f, -2.67483282f, -0.64078015f, 0.07133754f, 1.57907617f,
    -0.27125695f, -1.33348811f, -2.84653330f, 0.04735484f, -0.89391178f, 0.26929018f, 0.45542076f, 0.03456436f,
    -0.68452287f, 0.97904879f, -1.96447086f, -0.85523206f, -0.60755211f, 0.03847810f, -2.31208754f, -0.62696290f,
    1.81341887f, -1.11830723f, -1.72046757f, -0.14493893f, 0.59310782f, 0.50746983f, -1.81558514f, 0.10522284f,
    -0.48168963f, 1.02999330f, -0.80499059f, -0.17131145f, -0.77566910f, 0.34047857f, -2.46447563f, 0.71811843f,
    -1.32735443f, -0.63280874f, -2.41438794f, 0.20267814f, -0.23048314f, -0.16236213f, -5.02658224f, 0.78993839f,
    0.49085185f, 0.76473683f, 0.72506207f, 2.02811646f, 1.01849246f, -1.93010366f, 2.50709629f, -0.65202767f,
    -1.11564279f, -0.48357636f, 3.24070096f, 1.64175713f, -2.71637940f, -0.08943278f, -0.71602869f, -0.65336329f,
    -5.41411018f, 0.80096060f, -0.58825308f, 0.37695193f, 0.69439042f, 1.58922696f, -0.73767740f, -0.85967267f,
    2.52113843f, -1.54475570f, -0.55782366f, 0.22173996f, 0.84280193f, 0.19163619f, -0.83928645f, 0.93587494f,
    1.38409984f, 1.03859580f, -2.21489048f, 0.65918475f, 0.94408751f, -0.42705354f, -0.44722804f, 0.51025319f,
    1.76667595f, -1.75000286f, 0.88034344f, -1.51413369f, 0.69821757f, 0.35335794f, 0.58065820f, -2.43810272f,
    0.69889122f, -0.45325181f, -1.64694381f, 0.07692580f, 1.40140021f, -0.04238932f, -0.24193372f, -1.76170075f,
    -2.66553187f, 1.05288386f, -3.68389821f, -0.49508113f, 0.17717767f, 1.25290465f, 1.07328176f, 1.32442415f,
    -0.54137230f, 0.94280428f, 1.80132294f, 0.73898131f, -0.05609661f, 0.79327285f, 1.23865247f, -0.49649617f,
    -0.64416945f, 1.29721308f, 0.67360312f, -3.69234633f, -2.63419938f, -0.19548917f, -1.28311121f, 1.06373465f,
    2.22982454f, 1.06486380f, -0.22644386f, -0.57100797f, -2.61199546f, 0.14390200f, 0.29335451f, -0.06409159f,
    -3.17378187f, -1.25778210f, 1.11107254f, -0.18231189f, 0.02799785f, 1.80926800f, 1.65189719f, 0.63271195f,
    2.53812933f, 0.05928246f, -0.26086953f, 1.47183621f, 0.36530069f, 1.15526354f, -0.75800353f, 0.76890892f,
    -2.26683426f, -2.29531860f, -2.00186205f, -1.24648082f, -0.78299904f, -0.62377882f, -0.22479078f, -0.61492252f,
    -1.69080138f, -1.00619614f, 1.04249120f, -0.94076610f, -0.91703397f, 0.79025519f, 0.03212927f, -0.55372959f,
    0.03922881f, 0.02660789f, -0.42598233f, 0.74919426f, 1.93180966f, -0.76668870f, -0.71901685f, 0.29685313f,
    -0.69916826f, -0.61927605f, -2.95935011f, 0.49188191f, -1.23841774f, 1.92119503f, 0.87920737f, -0.18382362f,
    0.30681193f, 1.11283469f, -3.50267553f, 1.49405336f, 2.73921180f, -0.68378627f, -5.93370867f, 1.27046335f,
    0.89440584f, 0.54833555f, 0.70560902f, -0.91713434f, 1.86432230f, -1.73365521f, 0.55833477f, 0.25696373f,
    1.75687742f, -1.46747434f, -0.64027089f, 0.26637876f, -1.28740251f, 0.02727613f, -1.01312029f, -0.54754442f,
    -1.86364543f, 0.78455293f, 1.95711076f, 0.37625042f, 0.17748900f, 1.02937257f, 2.02274132f, -0.15495357f,
    0.67413944f, -0.96319896f, -1.78144777f, 0.42673844f, -0.96119857f, -1.63995492f, -0.88877839f, 1.06261766f,
    2.45719314f, 1.45745111f, 0.53167194f, -0.06237077f, 2.67414784f, -0.78333050f, -2.10637236f, 0.99134117f,
    -0.12440763f, 0.18930690f, -3.15363741f, 0.52758992f, 0.78425276f, -0.74732834f, 1.27017891f, -0.92394304f,
    0.71744978f, 0.44625059f, -0.25339529f, -0.08278857f, 0.98524815f, 0.42521828f, 0.36082843f, -1.39338791f,
    -1.76877773f, -0.98909032f, 0.27749488f, 0.01547005f, -0.93427145f, -0.49358654f, -0.84819579f, 0.67885929f,
    -0.28950647f, -0.24921906f, 0.52199143f, -0.51438504f, -0.69950944f, -0.75166130f, 0.54344755f, -0.30336890f,
    -0.32468072f, 0.29076836f, -0.23605667f, 0.51753068f, 1.57681632f, -0.71057183f, 0.39572939f, 0.66095102f,
    -1.16197240f, -0.34488887f, -0.13154227f, 0.00678200f, 1.33817327f, -0.45261484f, -1.50979948f, -0.23746324f,
    0.76738650f, 0.99054420f, 0.49953306f, -0.66979021f, -1.54397404f, 0.46494684f, -1.24480665f, 0.45223758f,
    -0.54769212f, 1.47559285f, 1.87582326f, -0.80718356f, -2.21648359f, 0.02418697f, -2.03645992f, 0.05631417f,
    -0.92133290f, 0.12798417f, -2.47427440f, 1.07919681f, 0.69287455f, 0.86547148f, 1.05920279f, 0.27243575f,
    -2.22175241f, 1.03342009f, -0.39893934f, 0.08005988f, -0.59370530f, -2.57916665f, -0.49121734f, 0.34046948f,
    0.66739511f, -0.17130177f, -2.74192262f, 0.58164895f, 1.40531170f, -0.09399899f, -0.25776738f, 1.77388084f,
    -0.67478603f, 1.00174832f, -1.18431258f, -0.54376942f, -0.77175111f, -1.06186998f, -2.41339874f, 0.76021272f,
    0.88455945f, 0.76223016f, 0.49054840f, 0.23520160f, 0.37059402f, -0.80624056f, -0.42049053f, 0.45457670f,
    -0.38609275f, -0.56965017f, -0.56821382f, 0.90651852f, -1.22719753f, 1.74812138f, -1.50459588f, -0.32833159f,
    -0.62483239f, 0.58769923f, -2.36114383f, 0.97685450f, -0.26180899f, 0.24342896f, -0.10813484f, 0.69576311f,
    -1.42989445f, -0.25691059f, 0.50911736f, 1.94848990f, 3.51442695f, 1.43888438f, 0.57244503f, 1.56062639f,
    -0.64209092f, -0.96029311f, -2.15649104f, 1.94811857f, 1.33826530f, 0.36771044f, 1.31406999f, -0.61647236f,
    -1.05299282f, -0.26411584f, -2.21353674f, -0.19602703f, -2.11517763f, 1.25255859f, 2.10877752f, -0.62018704f,
    0.29469240f, 0.40040171f, -0.91296685f, -0.55871987f, -0.44928899f, -0.85242856f, -2.53288198f, 0.82336742f,
    -1.81317842f, 0.61344600f, 1.04531932f, 0.55421329f, 0.93173969f, -1.21868265f, 0.16375840f, 0.37373891f,
    0.42438170f, -0.34654084f, 0.32866022f, -0.33921820f, 0.95922244f, -0.46532658f, 0.59767425f, 0.46926326f,
    1.18473804f, -1.63468182f, 0.28154936f, -0.24416801f, -0.81424022f, -0.53533828f, 0.72962672f, -0.53617144f,
    -1.40238047f, -1.41933274f, -2.05233669f, 1.52343202f, -0.13247201f, -0.85039395f, -0.64437342f, -0.56661314f,
    -2.70721936f, -0.06779756f, -0.69503599f, 0.62246883f, -3.25072265f, 0.50882250f, 1.31583405f, 0.11006748f,
    -1.64568305f, 0.69251287f, 0.02390352f, 0.30189368f, 0.23750862f, -0.42912757f, -1.14436316f, 0.88004363f,
    -1.26986003f, 0.10233139f, 0.25137746f, -3.22622442f, 1.24605262f, -0.84840870f, 0.18207462f, -1.05204046f,
    1.03421009f, -0.47361687f, -1.12227929f, -0.88996309f, 1.47999191f, -2.57457709f, 0.31847826f, 3.01688242f,
    -0.13458478f, -0.21555053f, -0.17718589f, -1.37080812f, -1.59228444f, 2.18326092f, 0.37540409f, -0.35750446f,
    -0.95159483f, -0.04902844f, -0.85875607f, 1.17226553f, -0.13833514f, 1.03578854f, 1.08439696f, -0.11362090f,
    -1.49128485f, 0.26743609f, 1.82022321f, 0.60426384f, -1.99829221f, 0.40979791f, 0.05229596f, 0.06199918f,
    -2.70200944f, -0.28234923f, 0.88730854f, -1.18213725f, 0.28514442f, 1.45454431f, -0.01760173f, -1.17842877f,
    -0.36340258f, 0.43590516f, -0.71391082f, -1.50903022f, 0.55379480f, 0.29934815f, 0.22803886f, 0.79918921f,
    1.48556805f, -0.31680539f, 0.09911780f, 0.87665027f, -2.34589195f, 1.14161706f, -0.35210839f, 0.15095176f,
    -0.90853572f, 0.57532221f, 0.62249571f, -1.93856704f, -1.13297331f, -0.39314997f, -0.05126821f, -0.32241678f,
    -0.32130903f, 0.53646344f, 1.09069860f, 0.62506288f, 1.67773688f, -0.05992312f, 0.32506493f, 0.22662163f,
    -1.17780352f, 0.56444389f, -2.47369528f, 0.23573290f, -1.12471473f, 0.66996247f, -0.68760759f, -1.19048595f,
    -0.60844952f, 1.02486694f, 0.87124592f, 1.06795824f, 1.03643584f, 0.08755413f, 1.86074531f, 1.23301613f,
    -2.37309957f, -1.14791405f, -1.14793658f, 1.19256854f, -0.46893933f, -0.94777584f, 0.34712547f, -0.61590940f,
    -0.27135572f, 0.54922825f, 2.94670177f, -0.37515742f, 1.00562179f, -0.30777609f, -0.40072498f, -0.93769133f,
    -0.62942964f, 0.88925058f, -1.86192214f, 0.14333896f, 1.13430536f, 0.30394834f, 0.93745166f, 0.26446423f,
    2.79289651f, -0.74241364f, 7.42177629f, -1.62200665f, -1.26022601f, 0.92819160f, 1.86016786f, -0.00678954f,
    0.38128778f, -0.09372859f, 1.39863098f, -0.97297925f, 0.45208776f, 0.99112928f, 2.05045772f, -0.04380298f,
    -2.18619490f, 0.38796711f, 0.35962492f, -0.62627780f, -1.69038105f, -0.69715416f, -0.77087080f, 0.83363152f,
    -0.29379448f, 0.67690247f, 4.67170715f, -1.87042689f, 0.28204378f, -0.53869677f, 0.46549883f, -0.56580770f,
    -1.09470940f, 0.51217037f, 2.47502065f, 0.21856163f, -0.52815223f, -0.21272892f, 0.63909394f, 0.27543631f,
    -0.05501007f, 2.14162135f, 2.20038319f, -0.14599566f, -0.35322848f, -0.18309979f, -0.04363707f, -1.11737168f,
    1.38275480f, -0.20853658f, -1.90556264f, 0.78433204f, -1.51228619f, 1.10468948f, -1.25107408f, -0.73858601f,
    0.47111505f, 1.22073197f, -1.93248415f, -0.04335913f, -1.91215026f, 0.42390865f, 0.06980499f, -0.94114929f,
    1.15736020f, 0.16552834f, 0.60607421f, 0.77158391f, 1.59367657f, -0.83767080f, 1.61098647f, 0.11213861f,
    1.11970115f, -0.31241325f, 0.67791277f, -0.44468662f, 1.79918993f, 0.23639773f, 0.24520727f, -0.02223665f,
    -0.11216708f, -0.61237061f, -1.64748311f, -0.09893973f, 2.20297623f, -0.20389499f, -0.57847303f, -0.97031486f,
    -0.77061075f, 0.17562696f, -0.48682415f, -0.12599246f, -0.78076541f, 0.18202119f, 2.05090499f, -1.14325583f,
    0.72544181f, 0.62455547f, -1.21072900f, -1.22025275f, 0.09414730f, 0.78044075f, 0.30948251f, -0.80751574f,
    -0.37913939f, -0.19940743f, 1.04678917f, -0.33441719f, 0.12598225f, -2.01140714f, -1.25235629f, 0.57325059f,
    0.62935752f, -1.39199400f, -0.28023258f, 0.05235405f, 0.04106291f, -0.01565310f, 0.29929119f, -0.67659879f,
    -0.69103557f, 1.04407918f, 2.47345853f, 1.05232525f, 0.46497291f, 0.19289464f, 0.56882375f, -0.32535970f,
    1.35142541f, 0.60702384f, 0.77965891f, -1.27508330f, 0.74088138f, 0.57427359f, 1.62388277f, 0.30834764f,
    2.41003489f, -0.39280424f, -0.06945732f, 1.48369491f, 1.31725502f, -1.27643764f, -1.19783974f, -0.11360893f,
    -0.77554792f, 1.52565300f, 0.94912124f, -0.98635256f, 0.93330401f, 1.05869114f, -0.21434760f, -0.72028744f,
    1.54726493f, 1.18042374f, -0.48253465f, -0.40480840f, 1.82761669f, -0.04106019f, -0.98765028f, 0.97238970f,
    0.12056938f, -0.21694647f, -1.35459769f, -1.14293599f, -0.05045288f, 0.10165541f, 0.73863661f, 0.00321799f,
    0.58758575f, 1.18801904f, 1.20788240f, -0.37363163f, -1.43619359f, -0.93446696f, -0.94050419f, 0.55189902f,
    1.23629653f, 0.12891828f, -0.39424458f, 0.52069402f, -2.63519597f, -0.73866874f, -0.88034189f, -0.56397998f,
    -0.07942505f, 0.46432874f, 0.00191618f, 0.07582679f, 2.04695678f, -0.57016402f, 0.43932164f, 0.60315114f,
    2.67736006f, -0.68380380f, -2.43205810f, -1.03239357f, -0.64316899f, -0.34034386f, -2.47358418f, 0.92347944f,
    0.91134238f, 1.04249740f, 0.60848427f, 0.27282378f, -1.88769448f, 0.48530129f, 0.87490582f, 1.39527786f,
    -1.24836206f, -1.12809205f, 0.12923375f, 1.38843060f, 0.01672205f, 2.70607376f, -0.28845161f, 0.35258231f,
    -1.31527102f, -0.54388154f, -1.33785415f, 0.02686702f, 0.58590341f, -0.96376151f, -0.25107321f, 0.37613565f,
    1.01318979f, 0.39475957f, -3.17760777f, -1.13652539f, 0.69319940f, -0.04695043f, 0.30330828f, -1.39691842f,
    1.12372041f, -0.69523340f, 0.57010764f, 0.96056437f, 0.65946519f, 0.05959762f, 1.53229487f, 1.76430309f,
    -0.33559713f, 1.00553989f, 0.31954214f, -0.93739635f, 0.85052091f, 0.72317159f, 0.57752740f, -0.34219548f,
    -1.12981653f, 0.45471630f, 0.30774212f, 0.92493182f, -0.36881953f, -1.11258841f, -0.60656792f, 2.13551068f,
    -1.23855460f, -0.71832168f, 0.29044703f, 1.03319383f, 0.85415310f, 0.46426904f, 1.08461034f, 0.86587471f,
    -0.88142318f, 0.08394786f, 0.09884196f, 0.51762247f, 0.45538148f, 0.59044427f, 0.71697491f, 0.21676746f,
    0.04909104f, -1.30503190f, 0.84162945f, 0.84632939f, 2.38704753f, -0.12281169f, -0.84326166f, 0.23038867f,
    1.79256487f, 0.30639949f, 0.55239272f, -0.38253751f, -0.30543479f, -0.34329987f, 2.77722955f, -0.77590364f,
    0.01110412f, 0.31717983f, -1.31619871f, -0.67565036f, -0.75703710f, 0.62123388f, 0.27595630f, -0.63201642f,
    -0.10776336f, 0.01778726f, 0.32992330f, -0.49553746f, -0.65701103f, -1.61296606f, 0.02345157f, 0.71922189f,
    -0.48370990f, 0.00359686f, 0.43581790f, -1.12109458f, 0.22950661f, -0.24225688f, -1.17671549f, -2.29888535f,
    0.09361439f, 1.09650242f, 3.88647151f, -1.20781004f, 0.22614740f, -0.43662331f, -1.21395218f, -0.65311801f,
    2.09594750f, -2.46793509f, -1.06760097f, -0.94909430f, -1.70693529f, 1.38776052f, 0.86987478f, -0.02290370f,
    -2.16326070f, 0.96589661f, 0.09568677f, -1.07713783f, 1.03842866f, 0.69278860f, -0.23794046f, -0.20761363f,
    -1.23220658f, -0.21730839f, -0.43625006f, 0.69866401f, -3.14954972f, -0.07376102f, 1.45033848f, 0.16684525f,
    -0.00316838f, 0.50986463f, 2.10309839f, -0.04253751f, 0.94634366f, 0.09801077f, 0.24502459f, 0.38862425f,
    1.20606911f, 0.73034841f, -0.44126743f, 1.32533789f, 1.54202533f, 0.21593353f, 2.38540864f, -0.31106052f,
    -1.26729226f, 0.50505424f, -1.93372607f, -0.30883273f, 1.04388249f, -0.42458415f, 0.70053911f, 0.53647441f,
    0.32066068f, -0.70168036f, 1.90006948f, 0.86342376f, 0.96779829f, -0.77131557f, 0.45535544f, 0.35026330f,
    -1.26648629f, -0.92724031f, 0.58198577f, -1.80605793f, -0.95743215f, -0.03942379f, -2.47664762f, -1.78261209f,
    0.24303547f, 0.02979519f, -1.86711085f, 0.33995733f, 0.93480933f, 0.21946602f, 0.00593295f, 0.35631377f,
    -0.52296281f, 0.26834098f, -0.56892365f, 1.29387391f, -0.46748927f, -3.35838723f, 1.73042750f, -0.57169849f,
    0.01745440f, 0.13976152f, -0.17621823f, 0.34270853f, -0.08355940f, 0.68649465f, 0.16721635f, 0.59545225f,
    1.01724923f, -0.30205774f, -1.06229115f, -0.27510658f, 0.25935510f, 0.48690438f, -0.61010003f, 1.61349213f,
    3.54279613f, -1.15879130f, 1.85222912f, -0.72114849f, 0.99213427f, -0.17021413f, -0.52233797f, 0.69742399f,
    1.22574437f, 0.77661198f, -1.03599346f, -0.16719745f, -0.02772574f, 0.23940668f, 0.07602445f, -0.58106476f,
    1.22644305f, -1.32781231f, -0.95944464f, 0.65346551f, 0.74270457f, 0.12079539f, -1.07755232f, -0.64500797f,
    0.31466568f, 1.06070018f, -2.04440975f, -0.26779908f, -0.80205274f, -1.94561005f, -1.94602191f, 0.24471700f,
    -1.94405770f, -0.13044171f, -1.38126862f, 1.16738153f, 1.69779849f, -0.48926020f, 0.09967615f, 0.31612429f,
    0.14364840f, -0.01511248f, -0.64770603f, 0.98867893f, 0.01592666f, 0.02183546f, -0.41427487f, 0.69167697f,
    -0.48557281f, -1.34968936f, -0.18533310f, -0.66441530f, -0.12032401f, -0.08315009f, -0.48458377f, -0.37401435f,
    -0.13965371f, -0.11169211f, -1.32137167f, -0.67136508f, 0.61882454f, 1.61855459f, -0.69652390f, 1.21804619f,
    0.65522838f, -1.85616040f, -0.73499316f, -0.41350666f, 0.93426633f, -0.16240185f, 0.58653927f, 1.00949562f,
    1.56654668f, -1.13900673f, -0.27620035f, 0.53302157f, -0.46078664f, 0.21887887f, -0.26246282f, 1.33904088f,
    -0.47483766f, 0.80013585f, 0.48068550f, -0.02757744f, 0.45112428f, 1.29023397f, 1.20566571f, -0.19171523f,
    0.31521493f, -0.98089933f, -0.95037431f, 0.03123922f, 1.04301429f, 0.37181416f, -2.06018472f, 0.20656063f,
    -0.65886599f, 1.51039982f, -0.50852251f, -0.41738644f, -0.77426440f, -0.58461493f, 2.61544466f, 1.51340044f,
    0.13161464f, -1.87640607f, 1.84671259f, 0.33561009f, 0.12673797f, -1.19564867f, 0.31406063f, 0.30949020f,
    0.24588028f, -0.12345479f, -1.20090520f, 0.02871557f, -3.26597977f, 0.50835943f, 0.91089499f, 0.09044293f,
    0.46994185f, -0.17071916f, -1.19178641f, -0.17871189f, 0.50087547f, 1.41125262f, 1.71751010f, -0.23066081f,
    0.80214906f, 0.32436329f, -1.08831275f, 0.90137136f, 0.61539114f, 0.83597243f, -1.72014618f, 1.27954435f,
    0.66708112f, 0.59185851f, -0.25886637f, 0.41277373f, -0.53543699f, -0.77923977f, -0.18565576f, -0.59950173f,
    -0.63848662f, 1.64437032f, 0.91068679f, 1.23777175f, 0.91703105f, 0.78752112f, -0.16584711f, -0.04757467f,
    -0.15242551f, -1.11433446f, 1.50055599f, 1.14179635f, 1.99664032f, 0.80812955f, -0.68452454f, 0.75071561f,
    -0.91656357f, 0.04094238f, 1.47062027f, 1.05929470f, -0.42493424f, 0.49083519f, 0.83791751f, 0.05094751f,
    -1.23312819f, -0.70155936f, 1.98526931f, 1.84566033f, -0.01854420f, -0.07207375f, 0.66265959f, 1.53516567f,
    -0.32412553f, 0.61089975f, 0.76365769f, -1.10615695f, -1.29555666f, 0.37104341f, 0.56712860f, -0.28950378f,
    2.55466056f, -2.17396116f, -0.65102649f, 0.00252028f, 1.05457461f, -1.10937440f, 0.05116912f, -0.65908134f,
    -0.02956693f, -0.46169525f, 0.90556717f, 1.29526353f, 1.09184325f, -0.26899451f, 0.25607485f, 0.47377625f,
    1.61345136f, -0.37517416f, 0.42315793f, 0.55615807f, 0.32177359f, 0.49555197f, 0.79612309f, -0.68647587f,
    1.83545530f, 0.37912759f, 0.65326571f, 1.81321561f, 1.62190366f, -0.55293041f, 2.40741444f, -0.76334351f,
    -0.67890710f, 0.46742073f, -0.41735131f, -0.70092720f, -0.68911672f, 0.01550682f, -0.55703515f, 0.87348115f,
    -0.65709037f, 1.34288681f, 2.38910007f, -0.35641652f, 0.43621555f, -0.91575581f, 2.22361255f, -1.13761580f,
    1.55398631f, 0.29198092f, 0.51910561f, 1.15432584f, 0.54220623f, 0.38078988f, -1.09020436f, 0.19107080f,
    0.87390804f, 2.43540239f, -0.25179422f, -0.16704109f, -0.67384183f, 0.34000006f, 1.22680545f, 1.38375652f,
    -0.66790169f, -1.62822497f, -3.97678566f, -0.62553525f, -0.53100431f, 0.72652292f, -3.32501030f, 0.00855503f,
    1.01895487f, 0.50078833f, 0.30230659f, 1.11859369f, -2.72823119f, -0.01548441f, 0.41155264f, 0.30685657f,
    -2.05722666f, -1.93966043f, -0.13188837f, -0.71373177f, 0.45881683f, 0.98652917f, 1.72126174f, -0.19808348f,
    0.49611184f, -0.23257537f, 0.02368559f, 1.77732754f, 1.08418202f, 0.23708931f, 0.12827739f, -0.10998414f,
    -1.11268735f, 1.28895152f, 1.97284508f, -0.63937896f, 0.80193907f, -0.06478529f, 1.09852743f, -1.44252682f,
    0.28323612f, 0.66985446f, -2.75342131f, -0.87930769f, 0.34044713f, -0.67804402f, -1.92222035f, -0.44715956f,
    1.68105960f, 0.93909585f, -0.17408465f, 0.60350150f, -0.66941464f, 0.26513779f, -2.09890008f, 0.77848792f,
    -1.11157417f, 0.25881115f, 1.07248390f, 0.47127071f, 0.34882644f, -0.46699727f, -0.37312332f, 0.47116479f,
    1.96656084f, -1.09692407f, -0.07856523f, -0.99705184f, 0.66253519f, 1.17464757f, 1.79848373f, -1.16026509f,
    -1.50794280f, 1.67558312f, -0.93657899f, -1.00143373f, -1.11380517f, -0.18005845f, -0.49484897f, 0.87274486f
};

/* LSTM hidden weights: [4*H=360, H=90] */
const float PRUNED_LSTM_WEIGHT_HH[32400] = {
    -0.92071414f, 0.15454829f, -0.87807363f, 0.52337319f, -0.28934643f, -1.82532680f, -2.08277225f, 0.20344819f,
    -0.64977407f, -0.42330238f, 0.10662859f, 0.56332386f, 0.85257000f, -0.08610608f, -1.23255050f, -0.28476945f,
    0.81275856f, -0.88934809f, 0.05664330f, 0.01945932f, -0.34618503f, 0.39443544f, -0.02270195f, -0.45468608f,
    0.82836485f, -0.16603471f, 0.08347959f, -0.20068151f, -0.01605648f, 1.51016581f, 1.61388850f, 0.79505605f,
    -0.12010815f, -0.21437688f, -0.48777279f, -0.59232944f, -0.91354644f, 0.41368848f, 0.58304811f, -2.47823358f,
    -1.02260935f, -0.08772651f, 0.86527890f, 0.09791889f, 0.05399830f, -0.68171984f, 0.83728713f, -0.17173752f,
    -0.72122055f, 0.90147656f, -1.18720710f, -0.14494732f, 1.24899769f, -1.03280306f, -1.32659328f, -0.97930199f,
    -0.98872161f, -0.88006479f, -1.75032902f, -1.47127104f, -1.67825913f, 0.55959713f, 1.38430214f, -0.12368364f,
    0.00515591f, -1.14468336f, 1.67104626f, -0.11146933f, 1.05713320f, 0.06720944f, 2.24834204f, 1.02772391f,
    0.16174085f, -1.33775795f, 0.67771685f, -0.08900821f, 1.09727013f, 0.45126888f, -0.53710181f, -0.02629414f,
    0.81101733f, 0.18694881f, -0.29620510f, -0.20315050f, -1.22776401f, -1.88716495f, 0.54438388f, 2.09334803f,
    -0.17563520f, -1.04129624f, 1.30112386f, 0.77280641f, -0.62163329f, 0.68569481f, 0.08258787f, -1.45633149f,
    -1.44427419f, 0.65184063f, 0.34864092f, -0.61379635f, -0.99842912f, -0.94623441f, 1.52816164f, 0.45737699f,
    -0.34081385f, -0.87768084f, -1.46975422f, -1.49017406f, -1.02539647f, 0.31224769f, -0.13240524f, 1.03373981f,
    -1.51333225f, 1.69763017f, -2.34184480f, -0.94156283f, 1.18680060f, 0.13832724f, 1.34472144f, -0.77762204f,
    2.14319062f, 0.44266045f, -1.29515266f, 0.40527642f, -0.09782219f, 0.56383699f, -0.11602375f, 0.21206349f,
    1.48825681f, 0.58496577f, 0.91008234f, 0.10144847f, -0.72394598f, -1.07883465f, -0.21566953f, -0.41026405f,
    -0.18298548f, -0.11534473f, -0.03055860f, -0.40940207f, 1.51571679f, -0.43301386f, -1.89646184f, -0.02539312f,
    -1.80669904f, 0.39502376f, -0.13702399f, -1.70381904f, 0.27052930f, 0.91693997f, -0.31422198f, -0.70485967f,
    -0.44916651f, 0.21455765f, -1.10386527f, 1.05930793f, -1.66389608f, 0.68282115f, 1.24175715f, -0.92435330f,
    0.64582366f, 0.87667626f, -0.86574340f, 0.19341543f, 0.58409464f, -1.21602309f, -0.67555439f, 0.59094995f,
    0.89666283f, 1.22353852f, 0.61083943f, 0.57309055f, 1.08244038f, 0.32598382f, 0.08662163f, -0.60315073f,
    -1.64987898f, 1.55648041f, -0.39364424f, -2.08204865f, 0.71806586f, 1.04460979f, -0.00659800f, -1.11749625f,
    -0.53603321f, -1.63858247f, 0.08619770f, -0.33880541f, 1.43715668f, -0.66145426f, -0.49252820f, 0.51605076f,
    -1.16394484f, 2.03595424f, 1.01405799f, -1.52738285f, 1.03767848f, -1.63509321f, 1.10870063f, 0.18853405f,
    0.45847586f, 0.54357147f, 1.35367048f, -0.99677342f, -0.39836973f, -0.82257617f, -0.67035723f, 0.51210600f,
    1.77199686f, -0.74406236f, 0.74576622f, -0.66591460f, 0.77077550f, 0.72066724f, 0.63059258f, -1.15171194f,
    -1.22847724f, -0.58744794f, 1.82001686f, -0.27944049f, 0.65690726f, -1.19451737f, 0.52499968f, 1.10410523f,
    0.23387668f, -0.64047402f, -0.08357742f, -0.79635614f, 0.53407401f, -0.16301228f, -0.48947784f, -1.21052039f,
    0.50430465f, 0.54391146f, -1.41072428f, -0.38596478f, -0.19779459f, -1.84280849f, 0.14801376f, 0.57857823f,
    -0.48485556f, -1.14346707f, 1.23998785f, -0.29039988f, 0.43080100f, 1.01393354f, -1.90281188f, -0.71399075f,
    -0.23264000f, 0.53556556f, -0.21890990f, 0.73804879f, -0.32642251f, 0.94293767f, 0.31542170f, 0.46818560f,
    -1.66291285f, 0.80553877f, 0.99429005f, -0.98493326f, 1.36285686f, 1.45792055f, -0.90341133f, -0.80860847f,
    0.36068580f, -0.90865725f, 0.15208460f, 0.70712823f, -0.55364567f, 1.05477214f, -0.35274687f, -0.46209404f,
    0.97602719f, -1.11590707f, 0.30263829f, -0.29247808f, 0.52670270f, -0.01203818f, 1.48281753f, -0.69004428f,
    -1.04147053f, 0.46799514f, -0.62654954f, 0.94800282f, 0.59575194f, -0.63708395f, 0.42810902f, -0.24308515f,
    -0.41705936f, 0.18149522f, 0.57074213f, -0.61985761f, -0.41575506f, -0.42879742f, 0.48924839f, -1.10494363f,
    -1.26335049f, -1.23587048f, 1.09228027f, -0.33356386f, -0.98471457f, 1.65155447f, 0.04179591f, 0.75502330f,
    -0.60775381f, 0.41777593f, -0.61672157f, -1.50555658f, -0.22817577f, -1.35885739f, -0.37810299f, 0.17418171f,
    -0.27188522f, -0.66531873f, -0.38030672f, 0.50286996f, 0.30399910f, -0.88077515f, -0.45597425f, 0.02112976f,
    -0.89078170f, 0.74062014f, 0.48562890f, 0.25592622f, -0.17923127f, 0.89306641f, -0.55999726f, -0.08357444f,
    0.03225314f, 0.54369748f, -0.55106479f, -1.82918203f, 1.32667303f, 1.17216516f, -0.53515452f, -0.43081605f,
    0.40428564f, 0.19426441f, -0.53436327f, -1.28619659f, -1.06913292f, 0.16118628f, -0.75352377f, -1.20307517f,
    1.13080370f, -0.53879416f, -0.69830912f, -0.73351014f, -2.80202270f, -0.38743368f, 1.18497026f, -1.21782148f,
    -0.50383455f, -0.59819090f, -1.02558315f, -0.40395784f, 1.13070381f, 1.09213388f, -1.11316824f, -0.31751314f,
    -2.20912719f, 0.49539745f, -0.79636163f, 1.43835974f, -0.98754293f, -0.11683230f, -0.40136313f, -0.31397152f,
    1.08087814f, 0.94463795f, 0.96093518f, -0.95099264f, 0.21331361f, 1.26464522f, 0.71937412f, 0.44005632f,
    0.17220955f, -0.91906661f, 0.23273751f, -0.55139077f, 0.19856733f, -0.89176542f, -0.60377699f, 2.12980342f,
    -0.46910021f, -1.24939632f, 1.31100035f, -0.00964964f, 0.73333251f, 1.72804666f, -0.60852265f, -0.83086413f,
    -0.80069566f, -1.06679201f, 1.11815608f, 0.08135301f, -0.79573184f, -0.19828580f, -1.10904837f, 2.27519155f,
    -0.24242830f, 0.75626385f, -0.71872860f, -0.03088459f, 1.61116695f, 1.38153613f, -1.37285209f, -0.26146489f,
    -0.07787357f, -1.75362015f, 0.78523868f, 0.69949353f, 1.38789213f, -0.89562547f, -1.42946815f, 1.85897171f,
    -0.08749715f, -1.45955455f, 0.61733776f, 0.62349451f, -0.87792778f, -0.15320507f, 0.04160899f, -1.18277538f,
    -1.29225218f, -0.70006436f, -0.70981860f, -1.20617664f, -0.63607925f, 0.40944257f, -1.75474429f, -0.01147785f,
    -0.85487312f, -0.23051971f, -2.27317023f, -2.28455234f, -0.33133647f, 0.48655394f, 1.18867540f, 0.18576896f,
    -0.93664694f, -1.08716011f, -1.23540485f, -1.26978338f, -0.26231968f, -1.67029548f, -0.64936888f, 0.94103396f,
    -3.24055099f, -0.01087553f, -0.59724164f, 0.03405928f, -0.21039833f, 0.34793803f, 0.02828268f, -0.17451832f,
    -1.14828539f, -1.30686474f, -0.94152468f, -1.39639997f, 1.42170942f, -0.26034436f, -1.50446713f, -0.46763247f,
    0.16221438f, 0.22078530f, -0.16476500f, 0.49588433f, 0.48101410f, 0.51939809f, 0.26516616f, 0.12173741f,
    1.06402206f, 0.00127459f, -1.64997339f, -1.38327861f, 0.44696745f, -0.35254541f, -0.99665385f, -1.55362427f,
    -0.66004062f, 1.09778774f, 0.66017783f, -0.00821470f, -1.03549504f, 0.15318368f, -0.22932561f, -0.70812374f,
    -0.51111293f, 0.10925971f, 0.18943642f, 0.71673536f, 0.41868874f, 0.34894291f, -0.35536700f, 0.71848261f,
    0.57791162f, 1.12169564f, -0.07767562f, -0.91450948f, 0.74092758f, -1.05572736f, 0.21205355f, 1.01816988f,
    1.25287294f, 0.65752327f, 1.12116194f, -0.19831185f, -0.82667083f, -0.23725732f, -2.32035542f, 0.47456148f,
    0.32257760f, 1.81185985f, -0.65744317f, -1.17056417f, 0.29195678f, -0.86221075f, 0.56436962f, 0.17016746f,
    -1.70280433f, -0.13939098f, 0.57409829f, 0.27815843f, -0.06623939f, -0.36992303f, 1.11840928f, 0.76239258f,
    1.19202387f, -1.76546597f, 0.41116330f, 1.18725038f, 0.91679704f, -0.28162220f, -1.34849167f, 2.09981585f,
    -0.95809674f, 1.28715777f, -2.08533454f, 0.17987470f, -1.21628189f, -0.08534592f, 1.12935507f, -1.24945045f,
    -0.34620810f, -0.74089962f, -0.58570403f, -0.61704969f, -0.38062796f, 0.44927445f, -0.20003705f, -1.02521408f,
    1.17242563f, -1.58466196f, 0.29012021f, 0.36785549f, -1.16044521f, 0.16055146f, -1.48347151f, -0.21436815f,
    -1.36651230f, 0.29115075f, -2.21854115f, 1.38367593f, -0.24622336f, -1.36273217f, 1.83517694f, -0.30121925f,
    -0.75035757f, -1.21703708f, 0.79166943f, 0.00953897f, 0.24241276f, -1.06305754f, 0.05981084f, -0.50615138f,
    -0.93479890f, -2.13648105f, 1.05309105f, -1.02902305f, -1.07282126f, 0.11518425f, -0.75371683f, -0.27736756f,
    1.43569398f, 1.06439018f, -1.19920969f, 0.48008442f, 1.34427786f, -1.28385484f, 0.70762920f, 0.12287308f,
    -0.96993804f, -0.92259318f, -1.00970030f, 0.88076329f, -0.58070391f, -0.21699013f, 0.80345035f, 0.80025899f,
    0.36079639f, 0.91569018f, 0.92403543f, 1.37945008f, -0.45492133f, -0.12564072f, -1.12528121f, -0.47890201f,
    -0.30163777f, 0.21312475f, 0.53857839f, 1.26686108f, 1.32539201f, 0.25766826f, 0.22043113f, 1.68465662f,
    -1.42521632f, 0.76522100f, -0.19759093f, 0.90591234f, -0.86972016f, -1.41406620f, -0.58757472f, -0.28849536f,
    0.77206290f, -2.51560187f, -2.15344477f, 1.03888464f, -0.33396718f, -2.68511438f, -0.30057070f, -0.04062257f,
    -1.67013741f, 0.48814905f, 1.16394186f, 0.29576752f, -0.72347784f, 0.26587072f, 0.18810402f, -0.16806306f,
    1.06525624f, -0.87748402f, 1.15925050f, -0.44537473f, -0.70936906f, -1.25950515f, -1.62747955f, -0.33431500f,
    0.74606884f, 0.11190227f, -0.28257465f, 0.19529514f, 0.86297417f, -0.69402063f, 0.70701683f, -0.70843887f,
    -0.47524118f, -0.99574304f, -0.36578965f, -0.01181100f, -0.20848021f, -0.02658404f, -0.48193428f, 1.14362788f,
    0.35422489f, -0.62250727f, 0.43660539f, 1.92976570f, -0.68667030f, 0.90279049f, 0.65967691f, 0.77403271f,
    1.23069894f, 2.19853687f, -3.18065953f, -0.79708022f, -0.16380894f, -0.45044470f, -1.38738728f, 2.53429461f,
    1.77016258f, -0.25501588f, 1.45126081f, 0.11530045f, -0.26609173f, -0.86740094f, 1.13742316f, 0.93443209f,
    0.02542627f, -0.46453387f, -0.03918229f, -0.75698149f, -0.60158235f, -0.01618523f, -0.50527120f, 0.45544609f,
    -0.26121256f, -1.81217909f, -1.16451025f, 0.00266420f, -0.03829277f, 0.28774565f, -0.14860530f, -2.51143312f,
    -0.80852801f, -0.46465716f, 0.52716535f, 0.44455779f, -0.36976400f, 0.21256042f, -0.24089691f, -0.57003266f,
    -1.14991403f, -0.92997992f, 1.23130846f, 0.60141832f, 1.76456904f, -1.38486576f, 0.50586563f, -0.12516157f,
    0.06105513f, -1.62837422f, -0.71129167f, 0.36169055f, 1.66866708f, 1.14541698f, -1.18822694f, -0.47892550f,
    -1.68639374f, 1.28772771f, -1.18646264f, 0.42494610f, -0.05967982f, -0.16576777f, 0.20053074f, 0.82617348f,
    -0.43248349f, 1.47244132f, -2.23347807f, 0.17547518f, 2.08063459f, 2.13432264f, 0.17691879f, -0.53543019f,
    -0.65944296f, 0.14803271f, 0.13839324f, -0.25208125f, -0.35037956f, 0.42376018f, 1.28763366f, -0.87021685f,
    -1.22120690f, 0.25620672f, 1.52574193f, 1.09065914f, -1.27439046f, 1.41701150f, -0.26725253f, -2.67036700f,
    0.15272507f, -0.36856067f, 0.13463959f, 0.16316380f, -0.74863267f, -0.57262766f, 0.10025159f, -1.94631708f,
    -1.77893949f, -0.84772378f, 1.22930717f, -1.19503438f, 0.27371526f, 0.20401160f, 0.67131835f, 0.20567895f,
    -0.95436531f, -1.53281569f, 0.05390035f, 0.07321890f, -0.56145501f, -0.76696390f, -0.82695955f, 0.68156171f,
    0.09467715f, -0.48919708f, -0.84080613f, 0.82158023f, 1.56673729f, -0.44546264f, 0.34858638f, -0.44915950f,
    -0.34734944f, -1.50673938f, -2.56511259f, -2.16627645f, 1.08125341f, -0.83732557f, -0.52198350f, 0.54209173f,
    0.28374568f, 0.52082294f, -0.84240639f, -0.61637348f, 0.10152332f, 0.28252956f, -2.12090254f, 0.98913246f,
    1.69183731f, -0.01980145f, -0.31618869f, 0.46111658f, 0.68533194f, 0.71303588f, -0.67746818f, -0.88678414f,
    -0.93003106f, -0.16765648f, 0.07415038f, 1.04034507f, -0.00218092f, 0.53193223f, -1.23063326f, -0.84032774f,
    -0.21426447f, 0.51486498f, -0.87300599f, -0.24045432f, 1.20820034f, -0.74180239f, -0.09559515f, -2.16940355f,
    -0.76017779f, -1.36454117f, 1.48013723f, -0.68636113f, -1.08385062f, -2.23957896f, 0.79022408f, -0.91089952f,
    1.07890284f, 1.11756253f, 0.07768171f, -1.90551150f, -1.99828053f, -0.73113346f, -0.20178062f, -0.74126041f,
    -1.16014326f, 1.10860455f, 2.48096848f, 0.00270888f, -1.42098475f, 0.46668330f, -0.63241953f, -0.20656410f,
    1.42193079f, 0.70336312f, -0.13925637f, 1.38185036f, 0.07280056f, 0.32616013f, 0.86225742f, 0.50453132f,
    -1.39090776f, 0.84553063f, -0.41930389f, -0.36052015f, -1.00692976f, -1.22114646f, 0.24371593f, 1.18212485f,
    0.63583660f, 0.65151095f, -1.48393750f, -1.06217885f, 0.73275626f, -0.19840924f, 0.24956073f, 0.18342696f,
    -1.01486540f, 0.32513922f, 0.48162407f, 1.99248695f, 0.47663984f, 0.37910101f, -0.27572438f, -1.33405375f,
    0.33645847f, -1.39568651f, 1.77051330f, 0.16950317f, -0.08511093f, 0.49930122f, -0.24338649f, -0.87842596f,
    0.10494350f, -0.47767016f, -1.50452185f, 0.00394818f, -0.75215983f, -1.86210418f, -0.02375089f, 0.85908592f,
    0.10003877f, -0.76687461f, 0.89956379f, -0.37824869f, 0.34114388f, -0.02801291f, 0.37079418f, -1.21502495f,
    0.10485442f, 1.16044104f, 0.39322448f, -1.07086313f, -1.55644906f, -1.16667712f, 1.53124094f, -2.28841472f,
    -0.00166494f, -0.00540005f, 0.38361862f, 0.42423213f, 0.22456135f, 0.78497428f, -0.76781726f, 0.51006645f,
    0.58063531f, -0.79086775f, 0.43938205f, 2.09392428f, 0.24145547f, 0.66703308f, 0.31475645f, 0.92610383f,
    0.18454368f, -1.23511076f, -0.77949452f, -0.56524342f, -0.17734890f, 0.49586716f, 1.32440734f, 0.21371882f,
    0.52372724f, 0.37453058f, -0.01613076f, 1.05767989f, -1.83149838f, 1.72608137f, 0.62015373f, 0.73446953f,
    -1.54451752f, -0.74023759f, -0.10454589f, -2.51763201f, 0.11950294f, -0.84034240f, -0.50110310f, 2.23050666f,
    -2.57788634f, -0.27789927f, -1.24896705f, 1.03596830f, 1.00048196f, -0.18366636f, 0.73291898f, 0.85620975f,
    -0.23112762f, -0.22870003f, -0.81196040f, 1.17785585f, -0.91890270f, -1.01020145f, 2.48006201f, 0.27961758f,
    0.65923715f, -2.18907142f, -0.25299358f, 0.79008341f, -0.14386144f, -1.59524548f, -0.38712335f, -0.46548441f,
    -0.06883161f, -0.53333426f, 0.64800209f, -0.77620906f, -0.15623440f, 0.41557407f, 1.91356349f, -0.80852896f,
    -0.35914671f, 0.87155986f, 0.82490903f, 1.38749170f, 1.87177169f, 1.36968493f, 0.85099477f, -0.25207272f,
    0.12411810f, 0.91619563f, -1.40184379f, 1.16292751f, -1.67252386f, 0.83263415f, 0.35015446f, -1.09560573f,
    1.17344820f, -0.94428879f, 0.23609190f, -0.25977659f, 0.74662262f, -0.75584805f, 1.08454192f, -0.75610155f,
    0.09958238f, 0.18980432f, -1.37014055f, -0.65777171f, -0.91907442f, 2.35792184f, 1.97572792f, 1.00383759f,
    0.61697733f, 0.32669768f, 2.03101921f, 0.29225615f, -1.41569436f, 0.28404194f, 0.05745325f, 0.21584919f,
    -0.33378845f, -0.22279952f, 0.15564361f, 0.87887347f, 0.86538363f, 0.67563730f, 0.82094312f, -0.90708685f,
    0.24676126f, -1.13082564f, 0.10565117f, 0.74972165f, -0.01406536f, 0.85227782f, -1.03407669f, 0.41668320f,
    -0.54328644f, 1.17744315f, 0.81259567f, -0.85957807f, -1.22280777f, -0.24319732f, 0.03987202f, 0.43650973f,
    1.75674224f, -0.09935742f, -1.08356917f, 0.17444317f, -0.23606546f, 0.69295037f, -0.29490438f, -0.86087435f,
    0.33329520f, 1.65217590f, 0.61299950f, -0.80248994f, 1.30546701f, -1.39940977f, -1.30208671f, -0.16080400f,
    0.11586184f, -0.27501893f, -1.08512712f, 0.64370865f, 1.31442654f, -0.62201655f, 0.50603050f, 0.80278963f,
    1.66640854f, -0.37326077f, 0.78282028f, -1.43115854f, -0.37881914f, 0.44023183f, -0.92899573f, -0.95543814f,
    1.12971830f, 2.05679035f, 1.52305901f, 0.24916147f, 0.14253037f, 0.73017883f, 1.41301382f, -0.24087529f,
    0.19042516f, -0.26323649f, 1.19898677f, -0.74364430f, -1.50073898f, 0.64886278f, 0.43527418f, -1.53227007f,
    0.27967113f, 1.51387799f, -1.78474832f, -1.53794658f, -0.31084812f, 1.69983149f, 0.16986197f, -1.21464264f,
    -0.51973057f, 1.14380598f, -1.51767397f, 0.45591828f, -1.70691395f, 0.31913742f, -0.49074274f, -0.44901037f,
    0.63221169f, -0.06271310f, -0.03428025f, 1.80271435f, -0.30036697f, 0.35932073f, -0.54753661f, 0.18189654f,
    -1.03729498f, 0.19760187f, -0.91692895f, -0.33345333f, -1.58493924f, -1.78092062f, 0.16878553f, -1.31723130f,
    -0.95950854f, 0.02707364f, -0.57988507f, -1.00922716f, -0.66008514f, -0.49254590f, -0.22982125f, 0.70015836f,
    1.52297926f, -0.28333503f, -0.74878013f, -0.76799560f, 1.34650803f, -0.43023652f, 1.21265697f, -0.36347666f,
    0.55977750f, -0.59792036f, 1.19241273f, -0.81796151f, -0.86821461f, 0.52988499f, -0.69615954f, -1.76639068f,
    -0.38380653f, 0.81327206f, 0.79859716f, -1.32088923f, -0.93565494f, -1.10168982f, -0.74211818f, 1.10790050f,
    1.16512704f, 0.21565746f, -0.18975329f, 0.48970908f, 0.31360096f, 0.11181182f, 0.54986298f, 0.32717714f,
    -1.69386661f, -1.93457758f, -0.05679940f, 1.18414879f, 1.01245022f, 0.26080489f, 0.20255709f, -0.34552145f,
    0.32215613f, -1.52682972f, 2.21087909f, -0.25845370f, -0.54611987f, -0.64758617f, -0.53005356f, -0.87588996f,
    -1.16381192f, -2.57419086f, -1.16165197f, 0.22413948f, -0.83172822f, -0.37751627f, 2.26460886f, -0.03551069f,
    -0.58534008f, -0.39915821f, -1.97067058f, -0.33027044f, -0.55845439f, -0.02172990f, 0.56327540f, -1.13023651f,
    -0.78643513f, -0.20195036f, 0.64403087f, -0.72061795f, 0.14864187f, 1.20449650f, -0.72475076f, -0.51974690f,
    0.09643659f, -1.18179190f, -1.11005867f, 1.02988350f, 0.04372104f, -1.82470453f, 0.45536152f, 0.25315344f,
    -1.03850198f, 1.85276783f, -0.76325041f, -0.01491170f, -1.00912416f, -0.14442787f, 0.71257895f, 0.01006874f,
    -0.24943200f, 2.92251992f, 0.41289189f, 1.38999271f, 1.16464365f, 1.39436471f, 2.37639618f, 0.31447187f,
    -0.24906631f, 0.07489672f, 0.10059014f, -0.03750164f, 0.07535114f, -2.25287914f, -0.73775381f, 1.25780833f,
    -1.56516123f, -0.57683510f, 1.41066873f, 1.25953233f, -1.28121710f, 1.36131966f, -2.24087214f, -1.50769734f,
    0.45730489f, 0.78086293f, -0.36393446f, -0.77169853f, -0.48051515f, 0.44464731f, 0.99339509f, -0.03580125f,
    -1.89171290f, -0.31031215f, 0.41639596f, 0.29472977f, 0.85655797f, 1.25563729f, 0.65084440f, -1.51371038f,
    0.16271168f, 1.41228688f, -0.16905406f, -2.42040133f, 1.41501129f, -0.70099401f, 0.36437380f, 0.74246967f,
    0.23835462f, 0.01029348f, -0.03179162f, -0.55981255f, -0.40492618f, 1.03107393f, 0.69656324f, -0.17790334f,
    1.21472991f, 0.69950449f, -0.61986285f, 0.35432592f, 0.63477755f, 0.20863116f, 0.87790567f, -0.27130285f,
    -0.61744171f, -0.16085136f, 0.36403742f, 0.40281823f, 1.41856337f, 0.09754971f, 0.80941397f, -0.35936740f,
    0.51740056f, 0.50497437f, 1.51962674f, -1.09947288f, 0.46483621f, 0.38347977f, 1.96829450f, 0.82551962f,
    -0.16364957f, -0.52095866f, -0.63514459f, 1.42086661f, -2.02237225f, -1.84864604f, -0.28715742f, 1.10613501f,
    -1.14744365f, -2.66269994f, 1.24817026f, -0.77331525f, 1.13292062f, 0.41794366f, 1.34359527f, -1.68516326f,
    -0.74101990f, -0.05618032f, -0.91169739f, 1.83504307f, -0.21930812f, -0.80884594f, 0.21405584f, 0.19907992f,
    -0.11110517f, -0.80290735f, 0.30841014f, 2.07897782f, -0.11605410f, -0.29172391f, 1.39363754f, -0.28111029f,
    -1.81906223f, -2.56940913f, 0.88538760f, -0.11670231f, -0.02889020f, 0.51880008f, -0.60615343f, 0.24583939f,
    -0.23499945f, 0.73503989f, 1.30989325f, 1.41484272f, -1.10845613f, 1.65604317f, 1.43338907f, 0.27328971f,
    -3.30734944f, -1.07144547f, -0.29455999f, 0.14691608f, 0.35239366f, 1.02505231f, 0.22007906f, -0.87332547f,
    0.07077097f, -1.90717101f, -0.96866059f, -0.13542159f, 1.17281759f, -1.10649192f, -1.22217882f, 1.25611317f,
    0.00597163f, -0.49534288f, -0.20738873f, -1.38621187f, 0.22202127f, -0.47086129f, -0.52152282f, 0.32655868f,
    0.96378148f, -0.05942450f, 0.67983794f, 0.42335522f, -1.73063231f, 0.22746889f, -0.63678449f, -0.47504193f,
    0.12492380f, 0.76306146f, 1.74951446f, -0.21414888f, 0.17219834f, -1.44832814f, 0.89893097f, -0.10905844f,
    -1.06841469f, -0.21581292f, 0.02502843f, -0.46848136f, -1.28280437f, 1.14458418f, 2.48695374f, -0.66165441f,
    -0.62945181f, 0.24072655f, -0.62316889f, -0.68894958f, -0.42045099f, -0.96611601f, -0.21603268f, 0.94792962f,
    0.57548773f, -0.54933351f, -0.55318630f, -0.96831453f, -0.53235543f, -1.19286299f, -0.23485629f, -0.70605338f,
    0.34467468f, 0.62395841f, -0.08039790f, -1.01520252f, 0.83739442f, 0.34079826f, 0.20407364f, -0.14034684f,
    0.71976089f, 0.73865360f, -0.36604625f, 1.40183878f, 3.18133926f, -0.39780477f, -0.31843194f, 0.96610975f,
    -1.28526914f, 1.24346507f, -1.99142885f, 0.81629270f, -1.05443299f, -0.73632991f, -1.08734155f, -0.59485221f,
    0.63001931f, -0.79183537f, -0.19659555f, 0.37285918f, 0.30226019f, 0.34915176f, 1.23572302f, -1.17574537f,
    -1.79490709f, -0.37341490f, 1.04335880f, -2.61301279f, -0.41558743f, 0.01083233f, 0.99517888f, 1.03555357f,
    -0.31448266f, 0.42614973f, -0.30801350f, 0.07429685f, -0.05446728f, 0.43664914f, -0.77574068f, -0.72097909f,
    -1.13249493f, -0.19538967f, 0.62048972f, 0.56039029f, 1.08009434f, 0.29064143f, -1.83994091f, -0.12251442f,
    0.00484151f, -0.92886472f, 0.36358196f, -0.80698657f, 1.34351540f, -0.53716034f, 1.85935366f, 0.60737437f,
    2.33340454f, -0.05658984f, -0.12489106f, -1.97693563f, 0.79638517f, 0.68082422f, 0.74274808f, 1.07236016f,
    1.87356579f, -0.22655071f, 0.49844912f, 0.64835131f, 0.17049697f, 0.03776854f, 0.15041618f, 0.42691368f,
    -0.90438646f, 1.72591698f, 0.54673058f, -0.18621100f, -1.16836762f, 1.67658794f, -1.54275775f, 0.45100805f,
    -0.87559378f, 0.26828551f, 0.36690095f, -0.61796528f, 0.57454526f, 0.94529122f, -0.91828436f, -0.03276818f,
    0.74319929f, 1.13145983f, -0.45009455f, 0.75547236f, 0.27754647f, 0.56228578f, 0.11139000f, 0.24627300f,
    0.24163216f, 0.47633576f, 0.17786671f, -0.04024190f, -0.98287100f, -0.54666466f, -0.40330279f, -0.01724385f,
    -0.57576418f, 0.40905344f, -1.41996276f, -0.40823859f, -0.27424991f, -0.64210206f, 1.84656084f, -1.61397064f,
    1.82278955f, 0.79007405f, 0.15942867f, 0.28070125f, 0.25009793f, -0.48555970f, -1.10374892f, 0.62128586f,
    -0.32730815f, 0.57644814f, -0.29892892f, 2.30289435f, -0.41278920f, 3.22008133f, 0.06574743f, -0.53849053f,
    0.42922604f, 0.91650850f, 0.65929580f, -1.64090872f, 0.30067721f, 0.75839257f, -0.41682807f, -0.01371470f,
    -0.21552521f, -1.65173256f, -0.54034126f, -1.56711125f, -0.64438581f, -0.26802868f, 0.30944827f, 2.00900006f,
    0.04109248f, 0.00991617f, -1.55650914f, 0.00503231f, -1.05347574f, 0.74898624f, -0.48486075f, 1.47058439f,
    -1.15168321f, 0.62947822f, -0.04817226f, -0.62561727f, 2.48511386f, 1.82276726f, 0.24248087f, -0.44976342f,
    -1.57095242f, 0.37282184f, -0.06784669f, 0.69748002f, -0.84844315f, 2.06420541f, -1.39654887f, 0.97402352f,
    -0.17130993f, -0.82823873f, -0.75736809f, -0.85322154f, -0.17326057f, -0.00569462f, -0.36932781f, 0.14924678f,
    -0.26303577f, 0.16547792f, -0.37732863f, 0.28351769f, -0.00538573f, -0.86328572f, 0.43180865f, -0.07876475f,
    -0.69794947f, 1.83047783f, 0.05123816f, -1.32994962f, -0.19758499f, -0.55454606f, 0.68956423f, 1.20669472f,
    -0.30088469f, 2.72034121f, -0.22111300f, -1.13051856f, 0.73388523f, 1.24404335f, 0.46684042f, -1.24091148f,
    -1.75776231f, -0.08590994f, -1.39846659f, 0.08846378f, -1.58132362f, -0.32459313f, -0.79361153f, 2.32577682f,
    1.23817420f, 0.14109345f, -0.87440825f, 1.01150644f, 2.84963274f, 1.76278317f, -1.03416443f, 0.04681470f,
    -0.09337244f, -0.32638353f, -0.39300925f, -0.81591547f, 1.15147257f, -0.02952620f, -0.20951553f, 0.33869058f,
    -0.09666514f, -1.88874137f, 0.06717964f, -1.13466370f, -0.36957589f, 0.61267745f, -0.68750411f, -0.59660721f,
    -0.32687324f, 1.03904200f, 0.90439099f, 0.00498059f, -0.04472243f, -1.04963076f, 1.26047528f, 1.28951836f,
    -0.74988461f, 0.10521412f, 1.45489573f, 0.04749594f, 0.88836151f, 0.16695507f, -0.47656003f, -0.13947991f,
    1.94366336f, -0.03987889f, 2.57097197f, 1.28110230f, 0.23182151f, -0.79989374f, -0.07108238f, 0.35932097f,
    0.30285600f, -1.14269555f, 0.35007265f, 0.48351142f, 0.32477087f, -1.51016366f, 1.39636934f, -0.44096574f,
    -1.42675614f, -0.59137541f, 1.49425256f, 0.78470814f, 1.23420608f, -0.26299331f, 0.36714664f, -0.01336461f,
    -2.28105259f, 0.21285151f, -0.68010902f, 0.89271575f, 0.41718259f, 0.72931165f, -0.83006191f, -0.80593902f,
    0.80213988f, 2.41164637f, 0.47306272f, 0.73397982f, 0.13807407f, -0.13109614f, 0.30563396f, 2.13119888f,
    0.18661344f, -0.61115563f, -0.45522356f, 1.06411457f, -1.98019814f, -0.41609883f, -0.14108971f, -0.28754821f,
    0.50259447f, 1.31528163f, -0.00765106f, 1.51322901f, -0.18648131f, -0.88843340f, 2.14518619f, -1.44970059f,
    -0.89330935f, -0.15706395f, -0.72972733f, -0.05438115f, -0.82591814f, 1.34803891f, -0.76815832f, 1.55152595f,
    1.69976795f, -0.72510904f, 1.17505085f, -0.23499914f, 0.91379505f, 1.35873914f, 1.55272663f, 0.57141685f,
    1.07496607f, -0.52623570f, 1.12492156f, -0.05874868f, 0.78469312f, 0.52402353f, 1.20977664f, 0.50054246f,
    -0.50927007f, -0.01944859f, -0.92729700f, 1.58470309f, 0.43884945f, -0.86700612f, -1.59036183f, -0.91991204f,
    -1.16234112f, 0.80479568f, -1.65465748f, 0.95121688f, -1.03610635f, -0.12814797f, -0.76314408f, -0.59644955f,
    1.24356949f, 0.78036416f, -0.74465430f, -0.99452120f, -0.96206927f, 0.80058390f, 0.90993321f, -0.06775619f,
    -0.65765840f, 1.28334320f, 0.47901106f, 0.02880835f, 0.26428786f, -1.72489035f, 0.12771292f, -1.28948820f,
    0.94666231f, -0.53999144f, 0.52193117f, -0.13232522f, 0.59281754f, -0.43134513f, 0.69308448f, 0.40512836f,
    0.43143097f, -0.88612789f, 0.62031573f, 1.77302933f, -1.02498031f, -0.55752087f, -0.47950485f, -0.31751063f,
    1.86655200f, -1.27604055f, -0.30143881f, 0.26289758f, -0.25661740f, -1.90922642f, -0.19544870f, 0.00102364f,
    0.54952210f, 0.28326556f, 1.06704092f, -0.92700988f, -1.14733672f, -1.73569572f, 0.12195395f, -0.59671408f,
    -2.44924450f, -1.70535350f, 1.61685181f, -1.54218936f, 1.01718259f, -0.20152722f, 0.65169781f, 0.57586610f,
    -0.32211149f, -0.83030796f, -0.24474801f, -1.13840103f, -0.28706437f, 0.38152483f, -0.83998662f, -0.02803738f,
    -1.19655311f, 0.11181597f, -0.51451635f, -1.07973278f, 0.71186513f, 0.06278180f, -0.56273878f, 0.23862451f,
    0.63373715f, 0.35511300f, -0.89404559f, 0.61405301f, -0.98483443f, -0.58540624f, -1.00284481f, 1.06915164f,
    0.41635162f, 0.53095841f, -1.93728018f, 0.57070470f, -0.17195153f, 0.72088844f, 0.24334961f, 0.12781130f,
    -0.93697858f, -0.71420342f, 1.45642686f, 0.33533615f, -0.40818274f, 0.99708271f, -0.01936551f, 0.22270237f,
    -0.59766442f, -0.01883173f, 0.31052795f, -2.35461998f, -0.06726270f, -0.33957887f, 0.88904870f, -0.84691173f,
    -0.67943984f, -0.32813212f, -1.20372844f, 1.59179997f, -1.74959815f, 0.09449454f, 1.13414884f, 1.63313699f,
    -1.50565171f, -0.06662394f, -0.11346155f, -0.21480405f, -0.03859906f, 1.14009559f, 0.04097389f, -0.37979105f,
    -1.74203300f, -0.15738179f, -0.18116112f, 0.13694713f, 0.39458701f, 0.26698297f, -2.46387148f, -0.26125783f,
    0.85775954f, -1.17347956f, 0.75129104f, 0.58151537f, -0.51337194f, 0.21635337f, -0.06155580f, -1.59445918f,
    -0.64197981f, -0.56330240f, -0.08604327f, 0.36096919f, -0.14285783f, -2.51303625f, 1.87697411f, 0.44603556f,
    -1.28438354f, 0.91968799f, -1.51742053f, 0.16591927f, -2.16127872f, -0.05487203f, -1.44232118f, -1.27648187f,
    -0.87265241f, 0.83853954f, -0.83543092f, -0.29308090f, -1.13063884f, 1.38516104f, -0.86237657f, -1.72732413f,
    0.98138314f, -0.14219104f, 0.50337946f, -0.32958156f, -0.89219630f, -1.62781322f, 0.55220872f, 0.35959601f,
    -0.88408625f, 0.57352376f, -0.63697320f, 0.59286392f, -1.48300934f, -0.32025141f, -0.12218698f, -0.39561823f,
    2.18644524f, 1.76866364f, 0.31972045f, -0.27418378f, 1.17145622f, -0.93486410f, 1.72692645f, 0.19651458f,
    -0.41022837f, 0.30541351f, 0.39236319f, 1.57939303f, 0.65236187f, -0.96410495f, -0.05577419f, -0.05836811f,
    -0.42228773f, -0.19004083f, 0.70179629f, 1.13693619f, 1.08974278f, 0.29855868f, -0.53904700f, -0.42136252f,
    0.57107371f, -0.06135430f, -1.35862792f, 0.07077888f, -0.95532078f, -0.41515410f, 0.08126304f, -0.33878100f,
    1.26435411f, -1.82810700f, 0.23382309f, -1.28665626f, 0.48207390f, -0.55018163f, 0.16864368f, 1.39519942f,
    -0.91389000f, -0.20812875f, -0.45418406f, 0.39713174f, 0.07116278f, -0.47322839f, 0.02233348f, 0.08985952f,
    -0.57092583f, 0.75770754f, 0.33488899f, -0.91416526f, -0.15167327f, -1.61694741f, -1.26360095f, -1.39679539f,
    1.14164436f, 0.14862920f, 2.45249391f, 1.33215261f, 1.33869517f, -1.27014685f, -1.12945187f, -0.86982012f,
    -1.17261887f, -0.46128437f, -1.15291202f, 1.20734715f, 0.36773217f, -1.08902466f, -2.35339952f, 1.47444677f,
    0.61997426f, -0.78586179f, -0.88508129f, 0.32912073f, 0.46831664f, -0.82589173f, -0.94433141f, 0.01009503f,
    -0.44530776f, -0.77079761f, -0.09298570f, -0.66782802f, 0.90476573f, -0.92612994f, -0.47375932f, 0.51730746f,
    -0.29841369f, 1.24422431f, 0.99497503f, 1.70680797f, -0.57602769f, 1.01160133f, 0.43963784f, -0.73623544f,
    1.82275701f, 0.17522097f, 0.47083464f, 0.60608703f, -0.60372752f, 0.67949849f, 1.86985946f, 0.17634864f,
    0.09835678f, 1.71216595f, 1.14474690f, -0.45393512f, -0.55290973f, -0.05462620f, 0.98977757f, 1.24481845f,
    1.15939593f, -0.51041633f, 0.67618042f, 0.27182838f, 0.89967728f, -1.56423879f, 1.42016459f, -0.49783671f,
    -0.60742182f, 0.68152380f, 0.15617895f, 1.20745957f, 1.73013639f, -0.17799513f, 1.20616150f, -0.96226418f,
    -0.09252688f, 1.93513441f, -0.79673535f, -1.37487674f, -0.87667817f, -1.26354373f, 0.59804922f, 0.57940322f,
    0.09670776f, -1.42268562f, -1.04565632f, -2.55217409f, 0.07320502f, -1.99965680f, -1.51899731f, 0.51378369f,
    -0.28448611f, -0.13462281f, -0.07532749f, -0.64186651f, -0.30627188f, 0.07733373f, -1.09492540f, -0.36014894f,
    0.97050661f, 2.00131559f, 1.38959002f, 1.33939528f, 0.12673582f, 2.17464614f, -0.61432415f, -1.30567932f,
    -0.81068778f, 0.53064549f, -0.54933798f, -1.41727626f, 0.26087254f, 0.31900832f, 0.48163116f, 0.51957774f,
    0.60766238f, -0.96275872f, 0.18166843f, 0.09092698f, 0.61349905f, 0.57630563f, 0.21411744f, 0.41428569f,
    -0.34255016f, 0.03028145f, 0.76521528f, -0.55056131f, -0.58582872f, 0.35036483f, -1.26496983f, 0.24095082f,
    -0.50758666f, -0.34074900f, -0.04456336f, -0.27326086f, -0.15782325f, -0.09305076f, -1.25438130f, -0.67961735f,
    1.19925594f, -1.32756054f, -0.33720449f, -0.01124834f, 0.22170295f, -1.63430965f, -0.61114860f, 0.61192346f,
    -0.78372002f, 0.03752291f, -1.48493564f, 0.65969652f, 2.42870498f, 0.60661948f, -1.25644016f, -0.36881274f,
    0.09746230f, 0.20306435f, -1.07207453f, 0.95685107f, -0.35585102f, -0.11812947f, 0.49001223f, -0.51708865f,
    2.03821826f, 0.95372361f, -0.37276348f, -1.07845211f, 0.99876219f, -0.57803696f, 0.04663707f, 0.22909757f,
    0.88778692f, 0.91388696f, -1.47466743f, -0.47095734f, 0.05658425f, -0.54211456f, 0.04927405f, 0.17911340f,
    2.24475574f, 1.33591056f, -0.21912356f, -1.60012496f, 0.50529140f, -0.16141866f, -0.53692162f, 1.77715254f,
    -1.46319079f, 0.33701181f, 1.58392251f, -0.44099486f, -0.68890566f, 0.61376578f, 0.26270196f, -0.86818427f,
    0.50326163f, -1.60410953f, 0.28711793f, -0.65651822f, -0.44249877f, 2.10132146f, -0.03808527f, 0.95518690f,
    1.23789787f, -1.38600254f, 0.03179667f, 0.18386368f, -1.55888891f, 1.59246194f, 1.15859187f, 0.33354223f,
    -0.33509594f, 0.76838017f, -1.01939273f, 0.76197010f, 0.72365224f, 0.66081983f, 1.46933687f, -0.15011056f,
    -0.07303841f, 2.13100743f, -0.02039656f, 0.11291801f, -0.63439441f, -0.80016977f, -1.45586431f, -0.97553408f,
    -0.77144086f, 0.33538750f, 0.89437419f, -0.64162213f, 0.58648831f, -0.83529580f, 1.30255437f, 0.26140758f,
    0.03455464f, -1.10088336f, -0.13485821f, 0.03789222f, -0.26972833f, -0.12323719f, -0.60066700f, 0.61429238f,
    -0.81087917f, 0.87820518f, -1.92815924f, 1.13681257f, -0.55338115f, 1.63054109f, -0.13452682f, -0.32072002f,
    -0.26446727f, 0.66530955f, 2.01212311f, -0.19408518f, 0.90414917f, -0.12181127f, 1.92452312f, -0.82787007f,
    -1.17619610f, -0.45746616f, -1.15219116f, -0.46907148f, -0.41515809f, -0.82244873f, -1.67728412f, -1.58039129f,
    -0.05985562f, -0.58217561f, -1.03541839f, 0.81065774f, 0.48446277f, -0.30771223f, 1.75209785f, -0.12530598f,
    1.89924443f, 0.97188205f, 0.11289568f, -0.91063476f, -0.49865729f, -1.49491990f, 1.38447571f, -0.00989537f,
    -0.35654587f, -0.36581033f, 0.83240455f, -1.41366112f, -1.52205122f, 1.10738647f, 1.85531414f, -0.02832401f,
    0.27792251f, -0.60343093f, 0.29223981f, 0.51486999f, -0.23845531f, 1.54734504f, -1.39878428f, 1.99849486f,
    -1.40884507f, -0.04423837f, 0.11860694f, -0.10280018f, 1.54066420f, 0.14279628f, 0.83272129f, 1.80301893f,
    0.97317982f, 0.62822717f, -0.80191016f, -1.28051317f, -1.01018643f, -0.38936481f, 0.32457671f, -1.01357782f,
    -1.37480175f, -0.32921049f, -0.60891157f, 0.02060380f, 0.15869895f, 0.25216395f, 0.28699183f, 0.63282472f,
    0.99812132f, 0.55281991f, -1.08100903f, -0.48246098f, -1.52919555f, -0.79730040f, 0.85470545f, -1.12692225f,
    0.34446818f, 2.10028696f, -1.36729991f, 1.06951392f, -0.61680979f, 1.42831516f, -1.57120705f, 1.84800136f,
    -0.19066741f, 0.70610464f, 0.07191387f, 0.80688977f, 0.08203695f, 0.02695546f, 0.67766249f, -0.64081466f,
    -1.00065601f, 1.42885458f, 0.94438034f, -1.16379559f, -0.66319633f, -0.17283130f, -1.55745125f, 2.69407105f,
    -0.40705025f, -0.89758563f, 0.17523257f, -0.96249408f, 0.69670826f, 1.30737734f, 0.76629663f, 1.42391086f,
    2.01327491f, -0.58640188f, 0.45393920f, -0.97242337f, 0.20445274f, -1.20282924f, -0.06028048f, -0.08662991f,
    0.85684961f, 0.37305522f, 0.12723410f, 0.02975381f, -0.42188886f, -2.22174907f, -1.88869369f, -1.39269078f,
    -0.08045668f, 0.17097335f, 0.10195384f, -0.49789688f, 0.38650355f, 0.25064927f, 1.26707399f, 0.57824528f,
    0.42505133f, -0.13926409f, 1.06333411f, 0.96830463f, 0.17648126f, -0.37067932f, 0.94485778f, 0.70762372f,
    1.67055619f, -0.28690988f, -0.55431277f, 0.36276647f, -0.08529153f, 0.12565576f, -0.43094456f, 0.51049173f,
    -0.33867773f, 0.14683090f, -2.05407453f, -0.10466689f, -1.41611826f, -0.44893903f, -1.65214515f, -1.34617627f,
    -1.56887937f, 0.48318467f, -0.82084864f, 1.27955186f, 2.08543968f, 1.09141338f, -2.37535286f, 1.13395286f,
    -0.04663524f, -0.35126919f, 0.41450992f, 0.92264521f, -0.42071116f, -0.16196942f, 0.38440651f, 0.40671346f,
    1.09888148f, 1.29694092f, -1.16379023f, 0.03802449f, 0.62013322f, -0.01702088f, 0.47182974f, 0.89069784f,
    0.15951520f, -0.62057418f, -0.56518215f, -0.45999342f, 1.13491356f, -0.78512365f, 1.06440365f, 0.03805442f,
    0.88062787f, 0.29116091f, -0.26156747f, -1.08980191f, 0.74851161f, -0.25974435f, -0.03165564f, -0.64994389f,
    -0.67007524f, -2.56676745f, 0.07150573f, -0.26730868f, 3.02596164f, 0.57113713f, 0.04446688f, -1.15781856f,
    -2.17550731f, -1.01404417f, -1.67051852f, -0.20958093f, -1.20482528f, 0.50569397f, 0.03436718f, 2.86503410f,
    0.05852645f, 2.24416709f, -0.87978077f, 0.03934646f, -1.48208368f, 0.66717947f, -0.72695243f, -0.04421638f,
    -1.47341943f, -0.26172838f, 0.33055070f, -0.98949927f, 1.03689027f, 1.25764740f, 1.04330003f, -0.38535571f,
    -1.61312723f, 1.03967059f, -1.52239227f, 0.86426008f, 0.83841997f, 1.64527559f, -0.03730913f, 0.29593933f,
    -0.22957101f, 0.64134592f, 0.55281645f, 0.05477819f, -0.06508385f, 0.10156586f, 1.00426352f, -1.01892829f,
    1.34917951f, -0.14408530f, -0.83480525f, 0.10818026f, -0.08706673f, 0.29887673f, -1.22282481f, -0.50858009f,
    0.61648130f, 0.01138801f, -0.51551133f, -1.60858166f, 0.07796401f, 0.57209182f, -0.29452842f, -0.18146788f,
    -0.68666643f, -0.76892632f, -1.13226807f, -0.92971349f, -0.45406196f, 0.13182044f, -0.32812482f, 0.18370964f,
    -0.19002555f, -1.42419600f, -0.07732250f, -0.61520433f, 0.44290784f, 0.47256571f, 1.17716575f, -0.82325375f,
    -0.68600297f, 0.87391347f, -1.15784705f, -0.01157318f, -0.92364669f, 0.44314113f, -0.57307243f, -1.07711649f,
    -0.39275384f, 0.67026699f, 1.32042205f, 0.22835612f, -1.01530814f, -1.77673364f, 0.74382514f, 0.38723281f,
    -0.18875158f, 0.78557652f, 0.32477933f, 0.36800322f, -1.05291629f, -0.02373385f, -0.17132278f, -1.03801203f,
    0.23006234f, -1.17683744f, -0.10374800f, 0.08314148f, -0.06586883f, 1.19467807f, -0.47661668f, -0.07969368f,
    0.29069719f, -0.89709973f, -0.14296930f, -0.47147232f, 1.01649916f, 0.45110413f, -0.81276745f, -0.06601133f,
    -0.63094276f, -0.50049633f, 1.32057345f, 0.50891054f, -0.01094717f, 0.16404828f, -0.63230056f, 0.94438112f,
    -1.41206455f, 2.74643493f, -2.25937057f, -0.58954233f, -0.53265131f, -0.98045242f, 0.84351599f, -0.71520793f,
    -0.40425378f, -0.35228631f, -2.55587339f, -0.57179064f, -0.23324500f, 0.91244602f, 1.71827817f, 3.11176276f,
    1.17246413f, -0.41402540f, -0.15137525f, 0.02500867f, 0.91475552f, 1.20015132f, -0.83433372f, -0.08529890f,
    -0.43214309f, 0.24871542f, 0.15493447f, -0.80978179f, 0.38637501f, -0.93418574f, -0.67305744f, -1.59952784f,
    -0.28274664f, -1.34289217f, -1.10502982f, -0.47202051f, 0.46243015f, -0.73166519f, 0.22705674f, -0.09652231f,
    -1.20287490f, -0.64438915f, -0.42950547f, -0.51308143f, -0.90805495f, 0.44834018f, -1.55973792f, -0.37476778f,
    0.32612348f, -0.65603411f, 1.23228073f, -2.98213220f, 0.10637060f, -1.55068564f, 0.46234179f, 3.29652619f,
    0.66116583f, 0.02894027f, 0.62240237f, -0.28638777f, -1.36997628f, -0.89871228f, -0.21893908f, -0.04867369f,
    1.00278616f, 1.28490007f, 1.75168407f, -0.01194810f, -0.17532755f, -0.11021811f, -1.62308347f, -1.34476125f,
    1.07689142f, 0.29338422f, 0.27642426f, 0.69248253f, 0.15190814f, 2.01321912f, -1.01218271f, -1.22012758f,
    0.24977912f, 0.13274410f, -2.64180899f, -0.18952671f, -1.15480685f, 0.01614778f, -0.57775992f, -0.42048913f,
    -2.03870368f, 1.74893212f, -0.77221495f, -0.61326069f, -1.24552298f, -0.37915739f, -0.06328114f, 0.46126059f,
    0.05453815f, 1.78528833f, 0.04760399f, -0.39093900f, -0.35479134f, 0.01409118f, 0.40361324f, 0.00624312f,
    -0.20298234f, -0.14696082f, -1.02569211f, -0.55774403f, 0.10860046f, 0.52884078f, 0.27460882f, 0.79992872f,
    -0.89231265f, -0.95816320f, 0.81555670f, -0.39874324f, 2.12709188f, -0.75935364f, 2.52003503f, -0.41616142f,
    2.28153801f, -0.11595366f, 0.08749858f, -0.52753848f, -0.59148562f, -0.21477118f, -0.21726671f, 1.23149967f,
    -0.21871428f, -1.56883836f, -0.39559352f, -0.37964571f, 0.27866942f, -0.20533298f, 0.13753670f, -0.15327880f,
    -0.42128551f, -0.44379899f, -1.56740856f, -0.99970609f, -1.86520314f, 0.38344705f, -1.12908351f, -0.56480992f,
    0.29715940f, -0.12295554f, -0.37504807f, 0.89503026f, 0.42373347f, -0.78736132f, -1.60043049f, -1.09719300f,
    0.24579342f, -0.07348906f, -0.72328383f, 0.51352304f, 0.41763428f, 0.74450153f, 0.08727522f, -0.23660794f,
    0.23329429f, -0.56806791f, -0.72260803f, -0.19964132f, -1.83028340f, 1.10910654f, -0.85294998f, -1.09258413f,
    0.19543162f, -0.31712067f, -1.09391272f, 0.15909187f, -0.46106657f, 0.12255974f, -0.91701525f, 0.19831759f,
    0.60241699f, -0.34686375f, 0.81268173f, 0.92699325f, 1.43837404f, 0.50594234f, 1.05073690f, 1.57427728f,
    1.23561311f, 2.37197208f, 1.12873030f, -1.08690524f, 1.79685509f, 1.82397401f, 2.23642039f, -0.80230021f,
    0.31015536f, 0.84530848f, -0.35989168f, -0.56980872f, 0.61732894f, 1.69428933f, 0.90449834f, 1.11417949f,
    -0.97731006f, -0.24722230f, 0.00996171f, -0.56809938f, 1.71105945f, -0.63886666f, -0.28803843f, 0.00512511f,
    -1.51790738f, -1.44715381f, -0.30534583f, -1.04797721f, -0.26163453f, -1.11197507f, -0.86550033f, -0.14416492f,
    -1.48590171f, 1.97352958f, 0.30272627f, -1.75376356f, -0.81657851f, -0.80845034f, 0.15163353f, -0.75810039f,
    -0.20845024f, -0.97107190f, -1.25319004f, -0.25364754f, 0.69684833f, -0.17087553f, -0.45275712f, 0.26449636f,
    0.33754975f, 0.64077479f, -0.86471140f, 1.78139567f, -0.68753183f, -0.37794334f, 0.38288113f, -1.55158520f,
    0.48168978f, 0.98705280f, -0.19678672f, 0.68254066f, 0.09689096f, 1.02387071f, -0.93111169f, -1.44597983f,
    -0.80579424f, -0.95657158f, 0.49887118f, 0.56760556f, 1.23182988f, -0.83792812f, 2.01295114f, -0.44887680f,
    0.65255028f, 1.02524245f, -2.26439047f, -1.62449551f, -0.80190450f, 1.40949154f, 0.24703227f, 1.19406676f,
    1.26039398f, 0.86363053f, 1.09039724f, 0.18399374f, -0.68684876f, 1.20515895f, -0.85640186f, 0.52041107f,
    0.81440681f, -1.11528111f, 1.15944672f, -0.43127328f, 2.41380215f, 0.62680674f, -0.84915894f, -0.52353948f,
    -1.75037229f, 0.79361212f, 0.17856906f, 1.04361057f, 0.89576674f, 1.61527050f, 0.84688026f, -0.34025809f,
    -0.34880337f, 0.43660149f, 1.14215887f, 0.51010770f, -0.51557231f, 0.02815383f, -0.04531718f, -1.16470039f,
    1.65854847f, -1.06657052f, 0.29092839f, -1.22722542f, -0.72531289f, -1.56450963f, 0.81890494f, -0.94709158f,
    -0.52660108f, 1.21858335f, -1.06428349f, 0.21561444f, -0.11705746f, -0.27917483f, 0.83282709f, -0.45163855f,
    -1.95395422f, -0.17827454f, 0.90998989f, 2.14980149f, 0.77313924f, 0.17979094f, -1.30768192f, 0.11482453f,
    -1.47691417f, 1.36979270f, -1.17828488f, 0.99102086f, 1.18572283f, 0.80101836f, -1.02735162f, -0.24882667f,
    -0.14502224f, -0.05915027f, -0.22062446f, 1.13163960f, -1.03442252f, 0.55390012f, 0.17064193f, 0.72496516f,
    -0.57837355f, -0.24289818f, -2.04305768f, -0.89729786f, -0.25728011f, -0.55407262f, -1.92640471f, -0.34775794f,
    0.57925904f, -0.37142053f, 0.08774663f, -0.23552866f, -1.42962086f, 0.28327605f, -0.12615870f, 0.71141541f,
    2.02695394f, -0.39447045f, 0.29326263f, 1.59537113f, -2.69351387f, -0.42212191f, 1.32586503f, -0.01091290f,
    0.57481259f, 1.29726219f, -1.58258307f, 0.74289083f, 0.42150199f, 1.17029190f, -0.65597641f, -0.06516394f,
    1.10058784f, 0.54556173f, -0.95225739f, 0.67262644f, 1.32106972f, 0.81927317f, -0.09917594f, 0.48787704f,
    -0.90222520f, 1.53793907f, 2.03030825f, -0.77847517f, 1.23188949f, 0.02829122f, -0.04887674f, -1.37054265f,
    0.51582742f, -0.28745025f, 0.38144431f, 1.09829652f, -0.24991176f, 2.25043106f, -0.27581596f, 0.69540393f,
    0.68767393f, -0.57813811f, 1.53083265f, 2.11982679f, -1.27343869f, -0.60373878f, -1.60042286f, -0.18510716f,
    -0.73895788f, -0.45148957f, 1.07641208f, -0.47502023f, -0.99787068f, -0.54213977f, 0.80241889f, -1.35939527f,
    1.62158573f, 0.26310232f, 1.35888994f, -0.11105472f, -0.04823697f, -0.37412310f, 0.52523190f, -0.37438047f,
    0.28355697f, -0.78732008f, 0.83646744f, -0.58074719f, -0.74201167f, -0.11789893f, 0.75018454f, 0.14986248f,
    0.96076745f, 1.10295796f, -0.43031207f, -1.44567859f, 1.30855095f, 1.65612507f, -1.04404926f, -0.49804226f,
    0.19537041f, 0.79031569f, -0.29413450f, -0.73760277f, -0.18402451f, -0.27393934f, 0.51951385f, -0.52272069f,
    -0.73301685f, 1.17922151f, -1.07873487f, 0.17029417f, -0.49211177f, 0.16920918f, 1.32236969f, 0.16053189f,
    -0.11696894f, 0.04163242f, -0.95638424f, -0.63746095f, 0.79602677f, -2.57134962f, 0.09212378f, 0.39795107f,
    0.21890408f, 1.37909245f, -1.05738544f, 1.10184813f, -0.52846110f, -1.58955872f, -0.55025136f, 0.53141701f,
    1.68833578f, -1.02454770f, 0.48080105f, -0.08917825f, -0.07587817f, -0.19282477f, -0.91354424f, -0.56424356f,
    0.49254543f, -0.39458236f, -1.01227057f, 0.26047993f, 0.27428105f, 0.14677182f, 0.43214697f, -1.44951117f,
    1.01576579f, 0.70989096f, 0.96512073f, -0.36674914f, 1.66422606f, -0.09262605f, 1.74183679f, -0.74476683f,
    -0.90181690f, 1.32184231f, 0.08233464f, -1.63964593f, 0.43376812f, 0.63731456f, -0.38857645f, -1.89747989f,
    0.06064226f, -1.17017412f, -0.18771116f, -0.92108470f, 0.82019156f, -0.16041705f, -1.30799782f, -0.28016418f,
    -1.58116269f, 0.53389442f, 0.81031543f, -1.19091880f, 1.06105864f, 1.51450706f, -1.15550685f, -1.29667199f,
    0.06286952f, 0.44636399f, 0.79641443f, 1.65540302f, 0.29146647f, -0.16788080f, 1.09426284f, 0.47557911f,
    -0.67312330f, 1.54434943f, 1.48569763f, 1.26508820f, -1.44861078f, 0.52332151f, -0.30222613f, 0.01996455f,
    1.34437633f, -0.25973469f, -0.33045846f, 0.91821277f, -0.83570862f, 0.92282152f, -1.08754730f, 0.65772003f,
    0.18801485f, 1.07880509f, 0.93978590f, -0.51408178f, -0.24136077f, -0.27083915f, -0.67051864f, 0.18809474f,
    -0.53744805f, 0.64905471f, -1.19558942f, 0.45755768f, -1.35496199f, -1.58429873f, 1.63165283f, -0.36546013f,
    -0.09690364f, 1.28114200f, 0.27630618f, 0.11616455f, -0.73538876f, -0.93397939f, 1.27680480f, 1.36025906f,
    -0.75500107f, -1.37344027f, 0.33696246f, -0.21915439f, -0.51177567f, 0.92123067f, -1.05546558f, 0.50700438f,
    0.47495475f, 0.18268567f, 1.18730187f, -0.47951138f, 0.18652266f, 0.77086210f, 1.15895998f, -0.55466431f,
    -0.55944574f, -0.90883321f, -0.38942990f, 0.02347816f, -1.26027107f, -0.53729850f, 0.66686976f, 0.63962752f,
    -0.23500444f, 0.41128910f, -0.88584501f, 0.81991565f, 0.05062035f, -0.20984572f, -0.09709235f, 0.65030009f,
    -0.72439355f, -2.08800435f, 0.02003798f, -0.12604216f, 0.01472420f, 0.15728144f, 0.90542650f, -0.76200491f,
    0.46802858f, 0.06936468f, -0.38960248f, 0.71146899f, 0.33379018f, 1.41100609f, -1.37287378f, -0.46182272f,
    -0.13817640f, 1.19882977f, 0.80416197f, -1.03513503f, -0.32469329f, -1.36071885f, 1.53220296f, -0.78291023f,
    -1.00356841f, -0.36701259f, 0.39040348f, 1.01453900f, -0.35052273f, -0.02568403f, 1.35130203f, 0.31184953f,
    -2.00965810f, 0.20657279f, -1.29036224f, -0.59661430f, 0.13171797f, 0.30639511f, -0.05488250f, 1.83881497f,
    -0.25864202f, -0.55178636f, 0.10261157f, -0.69277769f, -0.31260845f, 0.29283771f, -1.10725152f, -0.14911440f,
    -1.78442645f, -0.03197400f, -1.11601722f, 1.23108196f, 1.85423350f, 0.96963912f, 0.53144020f, 1.33291018f,
    -1.65096033f, -0.22170612f, 0.64912719f, 0.37804094f, 1.23941314f, -1.06551492f, -2.55992508f, 1.90450680f,
    0.76503396f, 0.97200692f, 0.92230254f, -2.05040812f, -0.13372637f, -0.45573837f, -0.20774902f, -0.27381739f,
    -0.93150872f, 0.33898363f, -2.70039988f, 1.00691319f, 0.64356714f, 0.42022598f, 0.15276764f, 0.14682315f,
    0.35565460f, -0.14753130f, 0.94462204f, -2.04807448f, 1.57192492f, 0.77096421f, -0.59953004f, 0.79789335f,
    -0.11998784f, 1.67310202f, -1.46187985f, 0.29107526f, -1.44691455f, -0.09532641f, 1.07506192f, -1.03421962f,
    0.45816883f, -0.73914069f, 0.88824546f, 0.76286840f, -1.17405522f, 1.29409206f, 0.78309053f, -0.49132159f,
    0.86676896f, -1.07141149f, -1.39943683f, 0.89755720f, -1.37367260f, 0.24750258f, -1.56326091f, -0.20860393f,
    -0.63276476f, -0.62749410f, -0.15912934f, 0.85300291f, 0.02149613f, -2.19462872f, 0.87929058f, 0.37289259f,
    0.84599465f, 0.53699642f, 1.78217518f, 0.76479357f, 0.31716517f, 0.39348567f, 0.09017395f, -0.70353395f,
    0.75766248f, 0.09443466f, -2.74979424f, 0.16956840f, 0.01367508f, 1.05315733f, 0.50880653f, -1.66927660f,
    0.26689735f, -0.70819759f, 0.18534973f, -1.42781878f, 0.46064097f, 1.43968463f, -0.01228843f, -0.47099397f,
    -0.58448839f, 1.80961955f, -0.05042608f, -0.18690194f, 0.53517908f, -0.42180288f, 0.34474289f, 0.61519760f,
    0.54178458f, 0.18800211f, 0.89100969f, 1.03286624f, 0.17246163f, -3.18147182f, 0.62563580f, -0.29519135f,
    -0.54890788f, -0.18019873f, -1.93454635f, 0.21280439f, 0.65141904f, -0.54638964f, 0.51151693f, -0.07553338f,
    -0.12891898f, -1.06401563f, -0.28184980f, -0.79828793f, 0.99024498f, -1.31219196f, 0.41356108f, 0.28564334f,
    1.17281401f, 0.76390636f, 0.77475119f, 0.05939924f, -1.59698570f, -1.30865312f, -0.56764734f, 0.39599046f,
    0.01706341f, 1.84170735f, 1.55212450f, 0.33891061f, -1.53774178f, 0.18334332f, -1.14705122f, 1.05644655f,
    2.10988855f, -0.04114287f, 0.63181293f, 0.18114820f, 1.22989309f, 1.17509568f, 0.14002466f, -0.16143602f,
    -0.65548623f, 0.33684510f, -1.50481963f, -0.24698338f, 1.48209059f, -1.48427844f, -0.32056475f, -0.83520299f,
    0.61015385f, -1.36738634f, -0.22263521f, -0.85665840f, -0.20814763f, 0.53341699f, -0.58317971f, 0.57781392f,
    0.14288330f, 0.96487790f, 0.43646675f, 1.98326051f, 0.39215919f, -0.25857189f, 0.96013868f, 1.38312352f,
    0.60265458f, 1.05151665f, 0.84589523f, 0.15141644f, 0.26270711f, -0.22173831f, -1.63510036f, 0.45125461f,
    1.63803685f, 1.58973002f, -0.05067514f, 1.12522328f, 0.79247874f, 1.10491288f, -0.46209538f, -1.18191898f,
    -1.19616246f, -2.28049994f, 0.97212917f, -1.14650369f, -0.16591670f, 0.95107806f, -0.98459351f, 1.70201433f,
    0.22100252f, -0.00896213f, -0.43350053f, 0.12387738f, 0.37937030f, 1.44067466f, 1.29246914f, -1.04453731f,
    1.51517475f, 0.66020292f, 0.43777826f, 0.20992428f, -0.94583941f, 0.57851619f, 0.04333458f, -1.55064046f,
    0.50074595f, 0.50787926f, -1.16997874f, 1.56837296f, -0.82882363f, -0.53599250f, -0.00170235f, 1.89155364f,
    -0.93519640f, -1.70023954f, 0.48534673f, 2.26866055f, -0.64735597f, 1.24139762f, 0.27203184f, 0.56777060f,
    -0.86004782f, -1.02211034f, 0.09350508f, -0.36191067f, -0.23284246f, -0.19684105f, 1.30772245f, -1.40998077f,
    0.12849706f, 0.70010084f, 0.87661743f, 0.14043742f, 0.32293004f, -0.05044939f, 1.31888664f, -2.31338978f,
    -0.96191525f, 0.14353988f, 1.26489949f, -0.51656592f, 0.38633043f, 0.46184465f, 2.47982717f, 0.50900000f,
    -1.00037539f, 1.80113673f, -0.20200475f, 1.03261518f, -1.03255391f, -0.90359485f, -0.47282630f, 3.20123458f,
    -0.75570804f, -0.71698749f, -2.54424882f, -1.43515623f, -0.37172663f, 0.07236262f, -1.89795184f, 0.44259125f,
    1.74580657f, -2.85593319f, 0.56674290f, 0.88555378f, -0.77673978f, -0.92759413f, -0.11705665f, 0.49651915f,
    1.27656305f, 0.56931937f, -3.44965672f, -0.34210157f, -1.09205055f, 1.79585505f, 1.14292085f, -0.16577731f,
    1.67717600f, -1.15334439f, -1.86059237f, 0.34376892f, -1.35207808f, -0.26571405f, -1.95891953f, -0.47138798f,
    0.76837403f, -2.22022223f, -1.70966637f, -0.93622106f, -0.34947732f, 1.85130644f, -0.01691736f, -2.15891910f,
    0.51397800f, -0.90590596f, -0.69594294f, -0.73915678f, 1.42856348f, 0.67563617f, -0.24191794f, 1.03781426f,
    -1.89688087f, 0.65174115f, 0.01623510f, 0.48495165f, -0.24459240f, 0.73644656f, 1.13657880f, -0.29997852f,
    -0.45758978f, -0.47158158f, 0.31825796f, 0.19274114f, -0.65294564f, 0.91827112f, 0.37398076f, 0.11248209f,
    1.07531202f, -0.24988061f, -0.62481135f, 0.41786870f, -1.52501380f, 1.57858312f, -0.24738550f, -0.04310605f,
    0.39826217f, 1.19097877f, -1.28521085f, -0.26694459f, -0.26862672f, -1.00032353f, 0.60421485f, 0.38780597f,
    0.02573320f, 0.73577297f, -0.60213089f, 1.21121335f, -0.38090903f, -0.18591785f, 0.03323735f, 1.11414087f,
    0.41027460f, -0.41697672f, -0.31323308f, 0.25679746f, 2.03182101f, 1.27576339f, 0.18449154f, -0.18243693f,
    0.85038459f, -2.19265342f, -0.51805758f, 1.60646546f, 0.38627946f, 1.62808383f, -2.21766567f, -0.09745202f,
    0.86810887f, -0.57354844f, -0.00226530f, 1.35324919f, -1.29338121f, 0.24069296f, 1.36735535f, -1.15697432f,
    2.44777298f, 0.96535426f, 0.69067186f, -1.15868998f, -0.26208669f, -0.34884256f, -0.65342021f, -0.28135711f,
    -1.38807309f, 1.53888619f, -1.27383578f, -0.19947927f, 1.56127942f, -0.55252486f, 1.39064538f, 0.29589695f,
    -0.42786217f, -0.90445191f, -0.46093410f, 1.39416969f, 1.24957955f, 1.11033034f, -0.33180261f, 0.86178172f,
    0.28945819f, -0.68531346f, 0.69214207f, 0.93533027f, 0.89598542f, -2.27007818f, -0.29648250f, -0.78803760f,
    0.39557603f, -0.09731069f, 1.60764289f, 1.93786836f, 0.21495965f, 0.87581599f, 0.18565354f, 0.49802586f,
    -0.20325674f, 0.77773803f, 1.15453708f, -1.01020062f, -1.05798423f, 0.16197801f, 0.92494279f, -0.18573502f,
    -0.52300227f, 0.09452383f, 1.12966001f, 1.95487893f, 0.61512619f, 0.69955659f, 1.08963525f, -0.95201802f,
    0.31572232f, -0.01828533f, 0.40810546f, 0.20919432f, 1.15473771f, 0.52726287f, -0.17565750f, 0.69346482f,
    -0.00770718f, 0.34872192f, -0.81875634f, 1.09052837f, -1.67041647f, -0.21167375f, -0.22224692f, 1.23465705f,
    0.00198905f, 1.97779775f, -3.26016974f, 0.99591178f, -0.32067204f, -0.67972559f, -0.52605677f, -0.48397818f,
    -0.67990726f, -0.41455370f, 0.28035420f, -0.61066514f, 1.10831428f, 0.09618631f, -0.82084972f, -0.11544517f,
    -0.56916195f, -0.86503696f, -0.24560967f, 1.76628911f, 1.72888827f, -0.50661832f, 0.90345311f, -0.83159155f,
    0.11484775f, -0.80358416f, -0.68079203f, 0.94594765f, 1.39251995f, -0.88067776f, 0.13820609f, -0.74140245f,
    2.10496497f, 0.90383095f, 0.71147126f, 0.63947868f, -1.81987226f, 0.93903232f, 0.58100450f, 0.53075492f,
    0.96572310f, -0.21122882f, -0.00174884f, -1.05242801f, -0.59222686f, -0.34575567f, 1.42410409f, -0.70124769f,
    -0.66503274f, 0.71871871f, 1.24726582f, -0.16769651f, -1.32696748f, 1.50998843f, -0.94624442f, 0.47543564f,
    2.39665651f, -0.11033227f, -0.06236790f, -0.61189944f, -0.15417017f, -0.47051713f, 0.47287220f, 0.25222555f,
    -0.93700659f, -0.34657642f, -0.51930463f, 1.39720559f, -1.12498593f, 0.33176389f, 3.38046312f, 0.45085397f,
    -0.17774610f, -1.00493062f, 0.83429641f, 0.21594921f, 0.92655551f, -1.51378906f, -0.86854494f, 0.12221111f,
    0.39522898f, 0.01915623f, 0.43019846f, -0.20912020f, 0.81001818f, 0.63880008f, -0.27488756f, 1.10466039f,
    -0.18494309f, -0.44837219f, -0.01494060f, 0.93456739f, 0.39416116f, -0.07817078f, -0.07529473f, 0.01262785f,
    -1.11261034f, -1.55433142f, 0.48807165f, -0.65546608f, -0.77399063f, 1.64017308f, -0.01125043f, -0.20173228f,
    -0.85689086f, 1.42831993f, 1.31501341f, -0.29626468f, 1.29942763f, -0.07235216f, 1.08103800f, -0.55541325f,
    -0.51730663f, -0.56418324f, 0.57548666f, -1.05529094f, -0.43341506f, 0.58976388f, 0.24309626f, 0.45086810f,
    -0.49815977f, 0.57785189f, 0.62527168f, -1.48532176f, 0.78875166f, -0.53834754f, 1.29709196f, -0.85042912f,
    1.08445406f, -0.77505499f, 0.58307225f, 0.13739225f, 0.64092863f, 0.34804383f, -0.92614365f, -0.66715741f,
    0.18571928f, -0.02528844f, 0.73090780f, 0.09578625f, 1.06530249f, -0.07526903f, -0.02044555f, 0.38426775f,
    -2.06835580f, -0.11798297f, -0.43149766f, 2.06347036f, 0.72656143f, -0.99836367f, -0.04318130f, 1.88308644f,
    -1.13246036f, 0.79420304f, -1.02629912f, -0.65743661f, 0.57023960f, 0.86636317f, 0.68139166f, -0.23083249f,
    0.28059617f, 0.39186725f, 0.05032968f, -0.68659955f, 0.58948278f, -0.51714224f, -1.56794953f, 0.54940623f,
    -0.63273305f, -1.13039267f, 0.31060874f, 0.12979330f, 0.89560550f, 0.66923940f, 0.80697668f, -1.03432727f,
    1.42854738f, 0.65289682f, 0.56004864f, -0.52224660f, 0.93498367f, -0.78364402f, 0.75646627f, -0.01404610f,
    -1.98541772f, -0.74471229f, 1.76429081f, 0.18231995f, -0.53275329f, -0.61641604f, 1.31571496f, 2.30533218f,
    0.06775457f, -1.31936276f, -0.58826685f, 0.60819983f, -0.14098260f, -0.93435562f, -0.53132159f, 1.97212815f,
    0.19348916f, 0.33047044f, 1.01993966f, -1.22469437f, -0.72295809f, -0.03464347f, 0.44218355f, -0.17971514f,
    0.62321234f, 1.38019419f, -1.38280320f, -0.71100688f, 0.98843032f, -0.84356028f, 1.02442837f, -0.48212096f,
    -0.31550285f, -0.24902368f, -1.14447320f, -0.15921269f, -2.36453748f, -0.90001851f, 0.08316754f, -1.29075348f,
    0.37996042f, -1.05259144f, 1.26324987f, -0.54272991f, -0.30163428f, 1.77935064f, -1.71521926f, -1.30772936f,
    0.00058185f, -1.70406175f, -0.25729680f, 1.50067866f, -1.15694153f, 1.94463456f, 0.41966990f, -0.05164675f,
    -0.90740579f, -0.17248781f, 0.15074843f, -0.35482183f, 1.10730910f, -0.72085893f, -0.56805104f, -0.10231252f,
    -0.64098310f, -1.56503808f, 1.53592980f, 0.29619977f, -1.53717530f, 1.04726124f, 0.37636518f, -0.74847907f,
    -0.55493933f, 1.01820135f, -0.01071913f, -0.75443161f, 0.20162965f, 1.22517669f, -0.95446569f, 0.99365419f,
    0.05333538f, -0.77868760f, 0.61457652f, -0.92458254f, -0.70468140f, 1.00008357f, 0.55714619f, 1.23979580f,
    1.71761465f, -0.23925012f, -0.54576486f, -0.38590339f, -0.64916307f, 1.07620442f, 1.05900908f, 0.09463450f,
    -1.13601959f, 0.25683877f, -0.49370033f, -1.19989753f, 0.71707827f, 1.94100940f, -0.65256691f, -0.16853590f,
    1.91119719f, 0.98501104f, 0.92219239f, 0.28894782f, -0.24409525f, 0.23705195f, -0.89900476f, 1.20652223f,
    2.13043880f, 0.36464214f, 0.74699885f, -0.52013087f, 0.04567881f, -0.04780557f, 0.52908152f, -0.30730641f,
    0.90725827f, 0.06758657f, -0.04962392f, -0.57328671f, -0.65031999f, 1.98066521f, -0.76378667f, -1.85867679f,
    0.40396583f, -0.67019939f, 0.96409732f, -2.26672983f, 1.05838263f, -0.44766185f, -2.24009871f, -0.43329075f,
    -1.03400934f, -0.78680003f, 0.67922759f, -0.61568004f, -1.74151146f, 1.19222641f, -0.88080293f, 0.46755314f,
    0.34687796f, -0.25543743f, 0.01120261f, 0.91212255f, -0.63884622f, -1.28553689f, 2.01107860f, 0.05274196f,
    -1.03766084f, 0.50081521f, -0.93919319f, -1.62240398f, 1.90624321f, 1.74131417f, -1.05369711f, 0.67997712f,
    -0.94915634f, 1.02633452f, -1.44568622f, 0.34535208f, -0.63477278f, -0.74579281f, 1.06219614f, -0.29389232f,
    -0.17719708f, -0.53468537f, 0.55677456f, 0.00744942f, -0.63050151f, -1.79018855f, -1.63329005f, -0.38199276f,
    0.22605713f, 0.15091704f, -0.37289661f, -1.63773417f, -0.89948148f, 0.53318298f, -0.54168695f, 0.88839698f,
    -0.67569566f, 0.91161329f, -1.53626502f, 1.27428091f, -0.63786358f, -1.24122977f, 0.58689708f, 1.72334909f,
    0.04837148f, 1.32692385f, -0.71972907f, -0.25424209f, -1.70694292f, 1.11531281f, 0.72270203f, 1.85973024f,
    0.45783642f, 1.24939978f, 2.16165161f, 0.56264651f, 0.20595145f, -0.24186642f, -0.05847369f, 1.43509007f,
    -0.26964286f, -1.01753581f, 0.20425151f, 0.33032426f, -0.32235309f, -1.60871851f, -0.30530560f, 1.55180562f,
    -0.84528744f, 0.74084610f, 0.03864468f, 0.82306850f, 0.22218177f, 1.12278962f, 0.47659135f, -2.15587878f,
    1.80039263f, 1.35445166f, -2.14353061f, 0.35663933f, 1.76951897f, 0.05999512f, -0.65034848f, 0.31158417f,
    -0.05055285f, -0.76465029f, -0.88682783f, -0.62734890f, -0.73683071f, -1.31356227f, 1.51058638f, -1.80565226f,
    -2.69779611f, 0.33192006f, 0.27067459f, 0.40548798f, 1.07801449f, 0.41140619f, -2.05990720f, 0.36942509f,
    -1.02400136f, 1.33029807f, -0.28745091f, -0.01033464f, -0.64141589f, 2.42241240f, -0.31013003f, 0.39894140f,
    -1.85222578f, 0.37842509f, -1.12774730f, -0.47999346f, -0.78106260f, 1.22339785f, 0.22654600f, -0.00535245f,
    0.59548765f, 0.04165605f, 0.60133433f, 0.56844151f, -1.13869166f, -0.76702648f, -0.34528828f, 0.21273741f,
    -0.06869195f, -1.74176133f, 0.73370516f, -2.00817966f, 0.54364347f, 0.55994385f, -0.49125448f, -0.61844838f,
    0.16043115f, 2.10295391f, -0.29268250f, -0.40099725f, 0.47164187f, -0.63297999f, 0.06130914f, -0.11812472f,
    0.22727376f, -0.07627916f, 1.95630693f, -1.35045671f, 1.84496796f, 0.33631179f, 0.46936649f, 0.04073465f,
    -0.71107328f, 0.78759265f, -0.02250024f, -0.52986515f, 1.18321204f, -0.48715329f, 0.33380157f, -0.95161813f,
    -0.94669712f, -0.69937330f, -1.99978101f, -0.43482372f, -0.29049537f, 0.84014606f, 0.92343795f, -0.83950955f,
    0.23643462f, -0.49892569f, 0.35737073f, -0.06643931f, 0.03396916f, 0.34304309f, 0.55793726f, 0.44145438f,
    -1.42476535f, 0.09045526f, -0.55651945f, -0.43179220f, -0.88089657f, -0.31844494f, 0.65842056f, -0.80763644f,
    -0.32542309f, 0.31035739f, 0.22549438f, 1.86265767f, 0.16143115f, 1.07977057f, 1.28449512f, 0.89815795f,
    -0.18424825f, -2.29625440f, -0.92855304f, -0.70285743f, -1.10202897f, -0.82611108f, -0.96847749f, -0.38859683f,
    -0.18375280f, -0.82848549f, 2.17778754f, 0.63104969f, -0.32660231f, -0.70905417f, -0.74679774f, -1.72490001f,
    1.31065512f, -0.12818621f, -0.96409506f, -0.61094242f, -0.92213368f, -1.20475805f, 0.87607265f, -0.07300130f,
    0.26264605f, -1.48816049f, -1.24050999f, -0.50579673f, -0.08093070f, -0.89808774f, 1.55264044f, 1.03902340f,
    0.09278812f, -0.86344266f, 1.58863497f, -0.39926076f, -0.25827622f, -0.19912027f, -0.74186796f, 0.55000037f,
    -1.51360524f, -0.50356317f, 1.22548020f, -0.07617202f, -0.69558620f, 1.67283320f, 1.09371781f, -0.98329037f,
    1.17690957f, -0.47639284f, 0.38097808f, -0.99433655f, -2.62389255f, 0.19855170f, -2.09466648f, -1.43971908f,
    1.39691842f, 0.40322024f, -0.29845956f, -0.28727034f, -0.80635118f, -0.56585395f, -0.59886461f, -1.48224258f,
    0.44100881f, -0.77857643f, 1.42616439f, -1.41970181f, -0.53194439f, 1.90446329f, -0.31039837f, -0.56026179f,
    -0.67516112f, 0.40930650f, 0.21487549f, 0.83557755f, -0.09254242f, 1.76576352f, -0.44127589f, 0.09233642f,
    0.02606766f, -0.48353505f, -0.10417140f, 0.65684259f, -1.18748689f, -0.06752012f, 1.87551928f, -1.43096602f,
    0.04019072f, 0.38717008f, 0.33335027f, 0.60000813f, -1.34277022f, 1.10584593f, -1.18035340f, -1.99935985f,
    -0.42616260f, -1.58110690f, 0.95494086f, 0.03948998f, 0.93243033f, 0.31215012f, -1.44679570f, 0.25364548f,
    0.50751382f, 0.41632286f, 1.00818682f, -0.23039767f, -0.88809234f, 1.36780393f, 0.96150005f, -1.32057559f,
    0.04847582f, -0.07644339f, -0.08321962f, -0.32111421f, 0.47177857f, -0.32739368f, 0.67712605f, -2.06450224f,
    -0.34386092f, 1.18969083f, -0.44102135f, 1.17839897f, 0.72637689f, 0.87915552f, -0.00105414f, 2.44107747f,
    -0.66647321f, -1.17952585f, -1.16843247f, 0.05067955f, 1.30296504f, -0.70301330f, -1.42671371f, 1.20041072f,
    -0.36253971f, 1.60978079f, 0.75352257f, -0.61213440f, 1.08109546f, 0.48524061f, 0.91617000f, -0.10956065f,
    0.09821061f, 1.38367474f, -0.49229088f, 0.63086724f, 0.26578993f, -0.33153093f, -0.18244646f, 0.04026040f,
    0.93482667f, 0.18110943f, 0.78227377f, -0.09544896f, -0.06667187f, 0.12836888f, -1.10594022f, -0.67410016f,
    1.35541952f, 0.43904594f, 0.65366811f, -0.44302997f, -0.25051031f, -0.79441363f, 0.41222101f, 0.96108645f,
    0.65199304f, -0.37682983f, -0.11988244f, -0.18754002f, 0.34761378f, 0.11490010f, 0.21063709f, 0.00112546f,
    0.56887901f, 0.19280112f, 2.37251759f, 0.25317544f, 0.18548834f, 1.62392700f, -0.34372157f, -1.07067800f,
    0.26480117f, 1.10445452f, 0.54521239f, 0.00754603f, -0.01352623f, 0.54407197f, -0.26439044f, 0.48256189f,
    -0.69009274f, 0.69999838f, -0.98289913f, -0.26487893f, -0.55285597f, -2.33320856f, -0.12338156f, 0.90083373f,
    1.32303691f, -0.23942967f, -2.31663775f, -0.92081577f, 0.18008071f, -0.48001662f, -1.02848125f, 1.60795367f,
    -0.40897521f, -0.12853859f, -1.26326632f, -1.74964905f, 1.24652815f, 0.24737144f, -1.50073004f, -1.43046343f,
    -0.27857390f, 0.54447311f, 0.80588353f, -0.00304558f, -0.03065284f, 0.48830488f, -0.94628453f, -0.58453381f,
    1.25162196f, -1.92095995f, -0.43219709f, 1.18431115f, 1.46234751f, -0.79474086f, -0.64074367f, 0.20115787f,
    1.02789164f, -0.42911640f, 0.77539867f, 0.85321802f, 0.05198434f, 0.08255371f, 2.44991636f, 1.31596541f,
    0.05114599f, -0.59716213f, -1.30176103f, -0.43184718f, -2.80837822f, 0.09310854f, -1.03747380f, 0.96670431f,
    -0.27272716f, -1.94160950f, 1.08401513f, 0.02354603f, -0.78843004f, 1.77471399f, -0.97761905f, -0.04117371f,
    1.24379957f, 0.70176536f, -1.29606688f, -0.51559693f, -1.19368637f, 0.38698530f, 1.27505219f, 0.24067234f,
    0.51100320f, -0.54555833f, 0.20494652f, 0.68736935f, 0.93030697f, -0.17844179f, -0.11228825f, -0.54676855f,
    -0.58276689f, 0.45345077f, 0.04353383f, -3.36654305f, -0.60287768f, 1.08199620f, -2.07559657f, -0.63189453f,
    -1.04895580f, -0.86441445f, -0.27414542f, 0.15194486f, -0.72489178f, -0.69582075f, 0.41394642f, -0.18634580f,
    -0.20195845f, -0.95726651f, -0.89978176f, -1.00906801f, 0.94640273f, -0.45762575f, 0.06221065f, 1.00467956f,
    1.12548399f, -1.69363439f, 0.00185535f, 0.39422822f, -0.36138463f, -0.37043124f, -0.21305043f, -1.31587279f,
    0.39627802f, 1.12317955f, -0.17692494f, 1.47979915f, 0.66020352f, -1.16164386f, 0.30589634f, 0.63131326f,
    -1.04501736f, 1.06476736f, 0.60012776f, -0.96975076f, -0.62311554f, 1.12795722f, -1.74614692f, -1.61239338f,
    1.69514406f, 0.59437674f, -0.87987500f, 1.61936998f, -1.19184566f, -0.59884226f, -0.55000687f, 2.18329859f,
    -0.61189133f, 0.13529684f, -1.00732517f, 0.43238637f, 0.33299381f, 0.87437636f, 0.45040616f, 1.43219876f,
    0.82384956f, -2.39975739f, 0.91467959f, 0.43083075f, 0.70454520f, 0.07829884f, 0.54553103f, 0.85471231f,
    1.04829383f, 0.04208317f, 1.03156745f, 0.94849390f, -0.14704114f, -0.81228989f, 1.03991365f, -0.07097097f,
    0.98706698f, 1.28571784f, -0.83015019f, 1.49550319f, -0.18484209f, 0.94906002f, -0.00203089f, -0.71757782f,
    0.38583899f, 0.45966238f, 0.30619249f, -0.10581702f, 0.72733706f, -1.71957481f, 0.34405133f, 0.82200009f,
    0.28140554f, -1.04122245f, 0.02714228f, 1.82762742f, 1.15860832f, -0.64892584f, -1.14658773f, 0.57672226f,
    -2.61356187f, 0.84121960f, -0.91712677f, -2.12119985f, 0.53739423f, 0.39030841f, -1.76378441f, -0.24454232f,
    0.15707251f, -0.03569677f, -0.33117566f, 0.59519053f, 0.64146662f, -0.83607423f, -0.70562345f, -0.45022261f,
    1.69001997f, -0.60046625f, -1.53962195f, 0.75195026f, 0.28361452f, -0.17380507f, -0.89810693f, -0.12940370f,
    -0.25329959f, -0.68091393f, -0.51704633f, 0.40473726f, -0.08543535f, 0.72944129f, 0.86597645f, -1.44632363f,
    0.86450267f, -1.03549206f, -1.47493434f, -0.41561913f, -0.27306885f, 2.89351940f, 0.33407706f, -0.29552284f,
    0.14712806f, -0.14061275f, -0.90745944f, -1.83783674f, -0.06490711f, -0.73481035f, 0.33689430f, 0.68861794f,
    -0.62327009f, -0.20337027f, 3.06303954f, -0.00636303f, 1.25134170f, -0.48676690f, 2.12175822f, -0.25096932f,
    0.10446494f, 0.10508314f, -0.19880524f, -1.92030740f, -0.35544088f, 0.02689677f, 0.64879644f, -0.54927772f,
    1.69258487f, -1.27078855f, 0.07599743f, 0.14793833f, 1.61184120f, 0.30920675f, 1.15158498f, -0.18428455f,
    0.35527343f, 0.47164670f, 0.82185435f, 1.22388518f, -0.47631037f, 0.15728404f, -2.27698350f, -0.25506032f,
    -0.20047596f, 0.25879338f, -0.93193275f, 0.75060546f, 2.08670330f, -0.55033785f, -0.14435892f, 0.12757982f,
    1.87765491f, 0.49578989f, 1.10112357f, -0.61862451f, -0.24420634f, 0.52359068f, -1.73389387f, 0.54864341f,
    0.72626185f, 0.65252733f, -0.42531925f, 1.07562065f, -0.06366307f, 0.08231605f, 0.37562934f, -0.93872935f,
    0.95552528f, 1.68857968f, 0.03465526f, -1.44982100f, 0.09725685f, 0.27261728f, -1.74206030f, -0.33469504f,
    -0.41253862f, 1.78572726f, -1.40879369f, -0.82119763f, -0.01219904f, -1.15840781f, -2.16110682f, -0.30001116f,
    0.32455838f, -0.69267809f, -0.08989888f, 0.21996716f, 0.29291388f, -0.23501550f, 0.18084058f, 0.79570258f,
    -0.11535063f, 0.21641493f, 0.16027711f, -0.17177485f, -1.24167931f, 1.39980710f, 2.73780489f, 0.52035582f,
    -0.54503411f, -0.51800174f, 0.16072644f, -0.37196484f, 0.27005452f, 2.17236972f, 0.50536126f, -0.53442693f,
    -0.63891590f, 0.62106037f, 0.97728288f, 1.32098174f, 0.23762560f, 0.82555830f, 0.12199496f, 0.90019256f,
    0.12088932f, -2.25569677f, -0.02749358f, -0.88151628f, -0.66164178f, -0.08773147f, -1.22133517f, -0.90163171f,
    0.00785476f, 0.49521270f, 1.02834809f, -0.05888467f, 0.84053659f, 0.37484619f, 1.20579588f, 0.21835509f,
    0.27117759f, -0.80727065f, 1.19828820f, 0.87840968f, 1.09604537f, -1.07068038f, -0.19824146f, -0.99426341f,
    -0.45611104f, 1.61463690f, -0.21686679f, 1.36891735f, 0.65992737f, 0.19646126f, 0.59400260f, -0.05388195f,
    0.20957261f, 0.86393654f, 0.02695534f, -1.09071493f, 0.11824155f, 0.88432163f, 0.46259505f, 1.42579055f,
    1.27723813f, -0.28753969f, -1.34740067f, -2.00553846f, 0.59808451f, 0.57330883f, -0.68777031f, 0.05514237f,
    1.45106602f, -0.89533818f, -0.28120610f, 0.83500254f, 0.98411542f, -0.67966753f, 1.93727493f, -2.93987131f,
    -1.61981106f, -0.97981012f, -0.04970120f, -0.96885967f, 0.40243122f, 0.70294988f, 0.26861328f, -0.52025437f,
    -1.18023908f, 0.12162832f, 0.42143387f, -0.82665330f, -1.68297100f, 0.59446323f, -1.04299510f, 0.78309739f,
    0.48403615f, -1.27022409f, -0.79732400f, -0.22407690f, -0.48251337f, -2.09719205f, 0.12772082f, 1.96740007f,
    0.76740891f, 2.27589417f, -1.07319200f, -0.30478191f, -1.12557101f, -1.23038507f, 0.11365968f, 0.76792300f,
    -0.17485435f, -1.50495517f, 0.43418172f, -0.33578470f, 1.86369550f, 2.56820011f, -0.13855258f, 0.55330658f,
    -1.72061980f, 0.59316438f, -0.37972951f, -0.39546999f, -1.22638261f, -0.43112323f, -0.05256883f, -2.67276549f,
    -1.92517078f, 0.71264893f, -0.49543199f, -0.56809211f, -0.19647995f, -0.80337059f, -0.06161616f, 0.15039064f,
    -0.38315868f, 0.33008438f, 0.28628209f, 0.02866871f, 1.28760660f, -1.04891253f, 1.54233027f, -0.31355909f,
    0.78869581f, 0.32867324f, 0.67708629f, 1.53924537f, -1.08682752f, -1.37691212f, -2.19866061f, 0.15821578f,
    -1.31020117f, -0.35290939f, 0.98751491f, -0.53030950f, -1.16623008f, -0.10223001f, 0.78671557f, -0.35963222f,
    -0.39966375f, 0.53229904f, -0.32813767f, -1.53548944f, -0.64647239f, -1.92591798f, 0.58519626f, -0.72410309f,
    0.15467106f, 0.70201045f, -1.25737536f, -0.11001078f, 1.14657104f, -0.96866649f, 0.23192020f, 0.64355534f,
    -0.17844799f, -0.50473279f, -0.00692617f, -1.48968256f, -1.21503305f, -0.83386356f, 0.94704300f, -0.83162695f,
    -0.38600007f, 0.63208485f, 1.12893736f, 0.03187242f, 0.87285483f, -1.85788059f, 0.89598864f, -0.13453969f,
    -0.09893490f, -0.81655014f, 0.20723356f, -0.74300510f, -2.12073040f, 0.43132785f, 1.25026023f, -0.59728467f,
    -0.92660451f, -0.60414106f, 0.56674278f, -0.63589954f, 0.17648299f, 1.12070394f, -0.15459539f, 0.25061867f,
    0.29379043f, -0.39588845f, 0.08348041f, 0.02654675f, 0.78802383f, -0.55770993f, -1.30873799f, 0.50399417f,
    0.24782875f, -0.40175802f, -0.06246911f, 0.49929452f, -0.03591555f, -0.84325469f, -0.34125179f, -0.04932377f,
    -0.65840530f, 0.83971173f, -1.73374259f, 0.66774428f, -0.05912981f, -0.78300273f, 0.35386395f, 0.20491672f,
    0.11880315f, -1.89341211f, 1.58449745f, 1.32904708f, 0.78268504f, -0.15548210f, -0.18617505f, 0.76010501f,
    0.36329183f, -0.09276995f, 0.17800568f, -1.02082050f, -0.21807210f, -1.01567221f, -0.54087353f, 1.04652190f,
