#ifndef WEIGHTS_QUANTIZED_H
#define WEIGHTS_QUANTIZED_H

#define QUANT_HIDDEN_SIZE 128
#define QUANT_MLP_HIDDEN 128

static const float QUANT_LSTM_WEIGHT_IH[] = {
2.036969262e-01f, 2.602794057e-01f, -8.600536884e-01f, 1.437194979e+00f, 4.413433401e-01f, 2.376464139e-01f, 
-7.783162187e-01f, 6.606637671e-01f, 3.891581094e-01f, 1.149373951e+00f, -9.955207449e-02f, 1.013621122e+00f, 
-1.495125166e+00f, 2.236801429e-01f, -6.239498723e-01f, -1.412716692e-01f, -1.318535579e+00f, 4.709055640e-01f, 
6.328454256e-01f, 2.232538029e+00f, 1.441481247e+00f, -8.613729404e-01f, 7.558987028e-01f, 7.558987028e-01f, 
-6.298790199e-01f, 9.411133591e-01f, -1.407964868e-01f, -1.556171696e-01f, -1.630275110e-01f, -1.185654626e-01f, 
-1.827301146e+00f, -8.057390880e-01f, -6.762453060e-01f, -3.165403560e-01f, -4.891987320e-01f, -8.489036820e-01f, 
1.292062719e+00f, 4.069488880e-02f, -8.647663870e-01f, 3.967751658e-01f, -8.545926648e-01f, -5.290335544e-01f, 
-6.329808192e-01f, -6.412013494e-01f, 1.044007325e+00f, 3.534827952e-01f, 4.685702168e-01f, 9.371404337e-01f, 
3.341563050e-01f, -5.457886315e-01f, -7.574209580e-01f, 7.574209580e-01f, 1.414595025e+00f, -1.002468915e-01f, 
8.588579367e-01f, -4.715298476e-01f, 2.138724666e+00f, -6.567737163e-01f, 1.785077280e+00f, -7.241351231e-01f, 
-1.290272359e+00f, 2.804939910e-01f, -5.609879820e-01f, 1.178074762e+00f, -1.196774362e+00f, 2.374849124e+00f, 
1.308122277e-01f, 4.414912684e-01f, -1.226364635e-01f, 1.038322057e+00f, 1.471637561e-01f, 6.377096099e-01f, 
1.273474747e+00f, 1.841375647e+00f, -7.227829644e-01f, -6.883647280e-01f, 9.637106192e-01f, 2.185558011e+00f, 
1.195237746e+00f, -2.198138384e-01f, -1.538696869e+00f, 4.121509470e-02f, 7.281333397e-01f, 1.744772342e+00f, 
1.287002275e+00f, -1.671623645e+00f, -1.878727459e+00f, -1.730796163e+00f, 1.582864867e+00f, 5.917251840e-02f, 
1.390327264e+00f, -2.559008154e+00f, -2.055266391e+00f, -7.253881380e-01f, 3.022450575e-01f, -2.619457165e-01f, 
1.406008725e+00f, -6.186438390e-01f, -1.428504865e+00f, -5.961476994e-01f, -2.699536752e-01f, -1.428504865e+00f, 
1.739182171e+00f, 5.751626076e-01f, 1.369434780e-02f, -9.449099982e-01f, 1.328351737e+00f, -5.888569554e-01f, 
3.917755260e-01f, -3.832586667e-01f, -1.081641126e+00f, -4.258429630e-01f, 2.810563556e-01f, 4.002923852e-01f, 
-1.441106795e+00f, -1.032604082e+00f, -3.177243328e-01f, -3.404189280e-02f, 6.921851536e-01f, 4.538919040e-01f, 
-9.629605338e-01f, 4.082952663e-01f, 9.783679023e-01f, 6.625168472e-01f, 3.928878978e-01f, -4.237026349e-01f, 
-1.064679732e+00f, -1.877976749e+00f, -9.611692025e-01f, -3.992548995e-01f, -1.182977480e+00f, -1.035105295e-01f, 
5.223833062e-01f, 6.965110750e-01f, -3.095604778e-01f, -9.286814333e-01f, -1.228568146e+00f, 4.933620114e-01f, 
2.075203320e-02f, 6.225609960e-02f, -7.055691288e-01f, 4.772967636e-01f, 6.640650624e-01f, -2.635508216e+00f, 
-1.723322263e+00f, 9.259642008e-01f, 3.266595931e+00f, 1.234618934e+00f, -1.466109985e+00f, 6.173094672e-01f, 
1.083256578e+00f, 4.642528191e-01f, 7.074328672e-01f, -1.702260337e+00f, -9.506129153e-01f, -2.807624192e+00f, 
-1.609888266e-01f, -1.264912209e+00f, 2.506826014e+00f, -2.920797283e+00f, -3.679744608e-01f, 4.599680760e-02f, 
-5.128794899e-01f, -2.173218178e-01f, -1.103994834e+00f, -9.996803617e-01f, 1.564717088e-01f, 2.520933086e-01f, 
1.126955088e+00f, 0.000000000e+00f, -2.174825609e-01f, 2.510935021e+00f, 1.225810798e+00f, 3.954228380e-02f, 
2.831464482e-01f, -1.415732241e-01f, 2.568542780e+00f, 1.193260032e+00f, 2.123598362e+00f, -1.456181734e+00f, 
-2.317262663e+00f, 1.824616270e-01f, 2.080062548e+00f, -8.758158096e-01f, -1.696893131e+00f, 4.926463929e-01f, 
-3.134013006e-01f, 7.564858980e-01f, -1.372481558e+00f, 1.221184378e+00f, 0.000000000e+00f, 1.621041210e-01f, 
2.141692563e-01f, -3.594983945e-01f, 9.637616533e-01f, 3.136049824e-01f, -6.501566708e-01f, -9.714105553e-01f, 
7.642230782e-01f, -4.334399548e-01f, 5.132841570e-01f, 1.425789325e+00f, -1.277507235e+00f, -1.448601954e+00f, 
-7.150452387e-01f, -4.632687462e-01f, -4.834108656e-01f, 5.941925223e-01f, -1.279024582e+00f, -1.208527164e-01f, 
4.268813434e-01f, 1.778672264e-01f, 2.490141170e-01f, 4.357747047e-01f, 8.092958801e-01f, -1.129456888e+00f, 
2.714199029e+00f, 7.480076065e-01f, -2.137164590e-01f, 1.047210649e+00f, 2.030306361e+00f, 6.411493770e-01f, 
5.542479748e-01f, 3.352858119e-01f, 8.690060839e-01f, -3.626560823e-01f, -7.595250025e-01f, 7.116270294e-01f, 
-3.765790272e-01f, 1.704515597e+00f, 2.517133498e+00f, 3.567590784e-01f, -5.945984640e-02f, -6.540583104e-01f, 
-2.146971716e+00f, 3.381057820e-02f, 5.578745403e-01f, 6.254956967e-01f, 7.438327204e-01f, -5.071586730e-01f, 
1.127848071e+00f, 3.371916913e-01f, 1.476667062e+00f, 1.209239169e+00f, 1.220866468e+00f, -7.906563796e-01f, 
1.144552705e+00f, -2.343178765e-01f, -1.351833903e-01f, -7.209780816e-02f, 8.201125678e-01f, -6.308558214e-01f, 
5.684949017e-01f, -2.992078430e-02f, -4.847167057e-01f, -2.812553724e-01f, -7.599879212e-01f, 1.914930195e-01f, 
-6.858323520e-01f, -8.115682832e-01f, -1.143053920e-02f, 1.154484459e+00f, -7.315545088e-01f, 1.451678478e+00f, 
4.052430694e-01f, -8.728312264e-01f, -7.793135950e-02f, 1.387178199e+00f, -9.351763140e-01f, -1.979456531e+00f, 
1.228045713e+00f, -1.450447692e-01f, -1.015313384e+00f, 9.669651280e-02f, 3.964557025e-01f, 4.254646563e-01f, 
-2.485145544e-01f, -1.449668234e-01f, -9.526391252e-01f, 3.313527392e-01f, -2.692241006e-01f, 1.315056184e+00f, 
2.764076750e-01f, -1.189754775e+00f, -1.526251075e+00f, 2.043013250e-01f, 7.330812250e-01f, 2.643899500e-01f, 
-1.586566829e+00f, 1.457427669e+00f, 1.918638956e+00f, -6.456958025e-01f, -2.342953341e+00f, -7.379380600e-02f, 
1.177957225e+00f, -8.585111981e-01f, -2.535602841e+00f, -7.586843146e-01f, 1.058164965e+00f, -5.390651709e-01f, 
-2.334807542e-01f, 8.215063573e-01f, 5.966730385e-01f, -1.729487068e-01f, -1.098224288e+00f, -4.064294610e-01f, 
-7.234248017e-01f, -5.182744848e-01f, 5.722614103e-01f, -7.018300315e-01f, -5.182744848e-01f, -1.371267908e+00f, 
2.328870957e-01f, -5.589290297e-01f, -4.191967723e-01f, -8.450474615e-01f, 5.190055276e-01f, -5.589290297e-01f, 
6.724316262e-01f, -6.447974498e-02f, -1.169846802e+00f, -1.842278428e-02f, 6.355860577e-01f, 1.114578449e+00f, 
-3.148588168e-01f, 5.438470472e-01f, 2.576117592e+00f, 2.576117592e-01f, -8.587058640e-01f, 3.635188158e+00f, 
-2.139447051e+00f, -2.362693700e+00f, -9.115904826e-01f, -3.162660858e-01f, -1.599934316e+00f, -8.929865952e-01f, 
1.435563822e-01f, 3.896530374e-01f, -1.435563822e-01f, 4.921933104e-01f, -1.302261467e+00f, -1.240737303e+00f, 
-8.866287760e-03f, 3.147532155e-01f, -3.812503737e-01f, -4.433143880e-03f, -2.216571940e-01f, 5.630092728e-01f, 
2.459609013e+00f, 2.324040012e-01f, 1.936700010e-02f, 2.905050015e-01f, 2.304673012e+00f, -3.292390017e-01f, 
-1.254915204e-01f, 5.791916328e-02f, 1.225955623e+00f, -1.032891745e+00f, 7.432959288e-01f, 4.054341430e-01f, 
-1.585717434e+00f, -4.379600532e-01f, 1.177961522e+00f, 8.155118232e-01f, 1.057144956e+00f, -1.917962992e+00f, 
1.052669104e+00f, 4.644128400e-02f, -4.798932680e-01f, 1.966014356e+00f, 1.191992956e+00f, -1.857651360e-01f, 
6.114610450e-01f, -3.791058479e-01f, -5.136272778e-01f, 1.553111054e+00f, 2.078967553e-01f, -1.516423392e+00f, 
3.133095281e-01f, -9.122836259e-01f, -1.170303237e+00f, 4.607493060e-02f, 1.474397779e-01f, -8.846386675e-01f, 
5.955247872e-01f, -1.135219126e+00f, -8.374567320e-01f, -3.535928424e-01f, -2.363488999e+00f, 2.233217952e-01f, 
-6.050376222e-01f, -6.981203333e-01f, -1.182150431e+00f, -2.792481333e-02f, -1.582406089e-01f, 3.444060311e-01f, 
-9.931238007e-01f, 5.707608050e-01f, 6.506673177e-01f, -1.826434576e-01f, -1.449732445e+00f, 5.022695084e-01f, 
3.918653825e-01f, -1.112897686e+00f, -5.956353814e-01f, -4.388892284e-01f, 1.990676143e+00f, 1.348016916e+00f, 
9.717753360e-02f, -2.915326008e-01f, -7.913027736e-01f, 5.275351824e-01f, -5.275351824e-01f, -1.763078110e+00f, 
7.748853524e-01f, -6.753587934e-01f, -6.042683940e-01f, 7.464491926e-01f, 9.028480711e-01f, -8.530847916e-02f, 
-5.698247112e-01f, -1.851930311e+00f, -3.015322430e+00f, 4.273685334e-01f, -7.122808890e-02f, 3.323977482e-01f, 
-9.471064104e-01f, -2.227453965e+00f, -1.438198623e+00f, -1.017262441e+00f, -3.507801520e-01f, 7.190993116e-01f, 
-1.628370349e-01f, -3.770962914e-01f, 7.970444342e-01f, 1.088437023e+00f, 4.799407346e-01f, -9.255999881e-01f, 
-1.128023415e+00f, -4.338551595e-01f, 3.673307017e+00f, -1.359412833e+00f, -9.544813509e-01f, -1.446183865e-01f, 
-2.752180220e-02f, 7.155668572e-01f, 4.953924396e-01f, 1.747634440e+00f, 5.641969451e-01f, -2.201744176e-01f, 
-4.722993400e-01f, 5.965886400e-01f, 7.457358000e-01f, 1.578474110e+00f, -9.943144000e-02f, 1.118603700e-01f, 
-8.652886627e-01f, 5.281632097e-01f, -1.415926903e+00f, 2.359878171e-01f, -1.348501812e+00f, 1.427164418e+00f, 
-1.331233190e+00f, -7.337505770e-01f, -1.058697261e+00f, 5.241075550e-02f, 4.821789506e-01f, -6.289290660e-01f, 
-2.407917103e+00f, 4.197286694e-01f, 8.836393040e-02f, 2.650917912e-01f, -2.805554790e+00f, 6.627294780e-02f, 
9.075203819e-02f, 8.085181584e-01f, -4.372598204e-01f, -1.047773532e+00f, -2.475055587e-02f, -1.402531499e-01f, 
7.122213756e-01f, 6.217805660e-01f, 1.288781537e+00f, 1.435747852e+00f, 1.334001942e+00f, -2.374071252e-01f, 
-1.596998722e-01f, 1.896435982e-01f, -9.681804750e-01f, -1.267617735e+00f, 7.885181188e-01f, -1.996248402e-01f, 
-3.313132536e-01f, -1.753199300e+00f, -1.256229420e+00f, 5.521887560e-02f, -8.558925718e-01f, -9.525256041e-01f, 
-1.361880354e+00f, -3.370990975e-01f, 4.449708087e-01f, -9.034255813e-01f, -1.712463415e+00f, -1.119169004e+00f, 
1.323854660e+00f, -2.516417948e-01f, -1.389500345e+00f, -4.923426420e-01f, 1.291031817e+00f, -7.549253844e-01f, 
8.480426727e-01f, -2.111792538e+00f, -7.649012342e-01f, 1.496545893e+00f, -4.323354802e-01f, -8.147860973e-01f, 
3.512883276e-01f, -6.189365772e-01f, -1.070592998e+00f, 2.124457981e+00f, 5.520245148e-01f, 5.854805460e-01f, 
1.937758228e+00f, 1.525793880e-01f, -9.917660220e-01f, -1.342698614e+00f, -1.220635104e-01f, 9.459922056e-01f, 
1.172500677e-01f, 1.055250609e+00f, 1.654528733e+00f, -1.081306180e+00f, 8.077226886e-01f, 2.866112766e-01f, 
5.255685589e-01f, -8.139903291e-01f, -5.640247950e-01f, -4.294279689e-01f, -7.050309937e-02f, 5.383873043e-01f, 
-9.162015624e-01f, 9.162015624e-01f, 1.616077756e+00f, -6.235260633e-01f, -1.068901823e+00f, -4.962758463e-01f, 
8.760947500e-01f, -2.074961250e+00f, -2.928000875e+00f, -2.536063750e-01f, -1.613858750e-01f, -7.377640000e-01f, 
4.500481472e-01f, -8.579042806e-01f, -1.968960644e-01f, -9.422883082e-01f, 1.786128584e+00f, -5.625601840e-02f, 
0.000000000e+00f, 2.345228063e+00f, 8.494526842e-01f, 2.954618032e-01f, -4.062599794e-01f, -7.571208707e-01f, 
-1.141915530e+00f, -8.355479490e-02f, -1.169767129e+00f, -5.570319660e-01f, -3.537152984e+00f, 1.448283112e+00f, 
1.661514679e+00f, -5.333256994e-01f, 1.066651399e+00f, 4.923006456e-01f, 2.605090916e+00f, -8.410136029e-01f, 
-6.196102510e-01f, -3.014320140e-01f, -1.339697840e-01f, -2.126770321e+00f, 8.373111500e-02f, 1.105250718e+00f, 
5.248293225e-01f, -2.851434902e-01f, 6.198771525e-02f, 1.363729735e-01f, -1.157104018e-01f, 1.405054879e-01f, 
7.341717156e-01f, -3.944803248e-01f, -8.108762232e-01f, -1.391638924e+00f, -1.205356548e-01f, -5.369315532e-01f, 
1.370107255e+00f, -1.078824610e-02f, 3.668003674e-01f, 5.286240589e-01f, -3.991651057e-01f, 5.717770433e-01f, 
7.119509560e-01f, 3.737742519e-01f, 2.260444285e+00f, 9.433350167e-01f, 1.423901912e-01f, -1.601889651e-01f, 
2.725569981e+00f, -1.095847724e+00f, 4.214798940e-01f, 8.148611284e-01f, 3.568529769e+00f, -1.095847724e+00f, 
2.889399924e+00f, -6.597842345e-01f, -9.783007615e-01f, 9.783007615e-01f, 2.252366869e+00f, -5.460283320e-01f, 
1.535301832e+00f, 3.626697240e-02f, -3.505807332e-01f, -1.293522016e+00f, 9.066743100e-01f, -1.063831190e+00f, 
5.785156400e-01f, -1.460751991e+00f, -6.363672040e-01f, 4.338867300e-01f, -5.640527490e-01f, -1.836787157e+00f, 
1.546820402e+00f, -1.595925812e-01f, 1.534544050e+00f, -6.751993820e-01f, 1.559096755e+00f, -1.031213602e+00f, 
8.535870681e-01f, 6.566054370e-02f, 2.779629683e+00f, -2.626421748e-01f, 1.181889787e+00f, -2.495100661e+00f, 
1.516196445e+00f, -3.094278460e-01f, -1.237711384e-01f, -1.964866822e+00f, 6.033842997e-01f, -1.562610622e+00f, 
-1.228266120e+00f, 1.001303902e+00f, 1.695541275e+00f, 8.010431220e-01f, -1.335071870e-01f, -1.241616839e+00f, 
-1.432494190e+00f, -4.092840544e-01f, -9.976298826e-01f, -7.162470952e-01f, -1.624346091e+00f, -8.697286156e-01f, 
-2.494033059e-01f, -7.335391350e-01f, -8.802469620e-01f, -4.107819156e-01f, 1.863189403e+00f, 5.868313080e-02f, 
-6.634297800e-01f, -2.255661252e-01f, 6.634297800e-01f, 7.695785448e-01f, 1.685111641e+00f, 1.990289340e-01f, 
-9.585547664e-01f, -5.555260578e-01f, -1.198193458e-01f, 1.383368811e+00f, 0.000000000e+00f, -6.208820646e-01f, 
3.419366580e+00f, 4.577104871e-01f, -2.153931704e-01f, 2.423173167e-01f, 8.077243890e-01f, 4.577104871e-01f, 
7.943974170e-01f, -1.299923046e+00f, -3.057226423e+00f, -2.479482847e+00f, 9.869786090e-01f, -9.147606620e-01f, 
-9.104318790e-01f, 1.279525884e+00f, 3.124995909e+00f, 7.381880100e-01f, -1.107282015e+00f, -1.033463214e+00f, 
-1.005718773e+00f, 2.164852274e+00f, 9.034422877e-01f, 4.943363461e-01f, -8.182118832e-01f, 8.523040450e-02f, 
-4.052055402e-01f, 4.052055402e-01f, 4.277169591e-01f, 1.553287904e+00f, 2.858950200e+00f, 2.926484457e-01f, 
4.146771002e-01f, -1.268424071e+00f, -1.548940933e+00f, 9.635144387e-01f, -1.707493942e-01f, -8.903361269e-01f, 
1.378266233e+00f, -1.764180778e+00f, -2.333864154e+00f, 2.388994803e-01f, 2.756532465e-01f, -3.675376620e-01f, 
5.615396228e-01f, -1.209469957e+00f, -2.742905081e+00f, 2.375744558e-01f, 1.576630479e+00f, 5.615396228e-01f, 
-1.050462572e+00f, 1.654478551e+00f, 3.335218666e+00f, 7.090622361e-01f, -2.809987380e+00f, -1.313078215e-01f, 
-8.743411328e-01f, -1.366158020e-02f, -7.104021704e-01f, -5.328016278e-01f, 1.325173279e+00f, 1.735020685e+00f, 
2.270422140e-02f, 6.470703099e-01f, 1.441718059e+00f, 1.112506849e+00f, 1.146563181e+00f, 5.335492029e-01f, 
1.718428415e+00f, 1.312500443e+00f, 4.465207692e-01f, -1.096005524e+00f, 1.271907646e+00f, -6.630156876e-01f, 
1.002374678e+00f, 1.167904441e+00f, 1.140316147e+00f, 2.574907429e-01f, 3.586478204e-01f, 4.598048980e-01f, 
-7.041768060e-01f, -3.049584593e-01f, 2.439667674e-01f, -5.378358282e-01f, -3.604054519e-01f, -3.992183467e-01f, 
1.782397985e+00f, 1.403462980e-02f, 8.561124178e-01f, 7.017314900e-01f, 1.431532240e+00f, -9.824240860e-02f, 
-3.163162350e-02f, -3.690356075e-01f, -1.339072062e+00f, -3.795794820e-01f, -1.159826195e-01f, 8.435099600e-02f, 
4.193966601e-01f, -7.802728560e-02f, -1.111888820e+00f, 1.043614945e+00f, 1.238683159e+00f, 9.168206058e-01f, 
-1.758882427e+00f, 2.144978570e-02f, -4.075459283e-01f, 1.158288428e+00f, -2.724122784e+00f, -3.431965712e-01f, 
2.106434302e+00f, 1.343759814e+00f, -1.997480804e+00f, 1.271124148e+00f, 2.306182383e+00f, 1.725097058e+00f, 
-9.532891128e-01f, 7.358722976e-01f, -8.696672608e-01f, 6.522504456e-01f, -2.123995041e+00f, 2.843142968e-01f, 
-2.173148295e+00f, 3.251166741e-01f, 2.566710585e-01f, -6.331219443e-01f, -1.488692139e+00f, -4.448965014e-01f, 
7.799923505e-01f, -7.799923505e-01f, -1.715983171e+00f, 8.650824251e-01f, -1.801073246e+00f, -1.219624403e+00f, 
6.559073850e-01f, 3.279536925e-01f, -1.874021100e-01f, 1.483600038e+00f, 1.983338997e+00f, -1.561684250e-02f, 
5.266086975e-01f, 1.076622226e+00f, 5.968231905e-01f, 1.100027057e+00f, 1.486206768e+00f, 9.010859935e-01f, 
-2.677752407e+00f, 1.057007529e+00f, 1.855635440e+00f, 4.462920678e-01f, -2.983110137e+00f, 4.697811240e-02f, 
-3.944682105e-01f, -1.127052030e-02f, -8.114774616e-01f, 1.431356078e+00f, -6.987722586e-01f, -5.747965353e-01f, 
2.364240355e-01f, 6.147024923e-01f, -3.404506111e-01f, 3.688214954e-01f, -6.241594537e-01f, 1.201034100e+00f, 
-9.415197780e-01f, 8.847039293e-01f, -9.009370289e-01f, 5.519253871e-01f, -1.030801826e+00f, 1.030801826e+00f, 
6.659206782e-01f, -2.742026322e-01f, 3.525462414e-01f, 1.658273061e+00f, 5.353479962e-01f, -4.831189234e-01f, 
9.821658657e-01f, 0.000000000e+00f, -2.756956816e-01f, -7.237011642e-01f, 1.076936256e+00f, -1.094167236e+00f, 
2.115191375e+00f, -1.998606024e-01f, -4.996515060e-02f, 5.662717068e-01f, 9.326828112e-01f, 6.162368574e-01f, 
7.416298537e-01f, -1.147760488e-01f, -6.003670244e-01f, 1.121273707e+00f, -7.592877074e-01f, -8.917216098e-01f, 
-1.682461980e+00f, 3.533170158e-01f, 5.888616930e-01f, -1.261846485e+00f, -2.136726715e+00f, 1.110424907e+00f, 
5.152144950e-02f, 1.751729283e-01f, -7.419088728e-01f, -7.728217425e-01f, -1.308644817e+00f, 1.143776179e+00f, 
-5.958758136e-01f, -1.610132518e+00f, -1.597454309e+00f, -5.451629784e-01f, 1.026934913e+00f, -1.064969539e+00f, 
6.894327384e-01f, -1.066979238e+00f, -2.626410432e-01f, 1.001318977e+00f, 2.084713280e+00f, -1.017734042e+00f, 
-1.304339784e-01f, -4.743053760e-01f, -5.928817200e-02f, -1.494061934e+00f, -4.505901072e-01f, -1.505919569e+00f, 
-1.434772944e-01f, -6.536187856e-01f, -7.014445504e-01f, -6.376768640e-01f, -2.024624043e+00f, -1.402889101e+00f, 
3.052969316e-01f, -7.895610300e-01f, -1.336990011e+00f, 2.105496080e-02f, 8.421984320e-02f, -3.368793728e-01f, 
-2.363568828e+00f, -1.108576530e+00f, 1.694239602e+00f, 1.464157681e-01f, -2.656400364e+00f, 4.183307660e-01f, 
3.499107570e-01f, 0.000000000e+00f, -3.665731740e-01f, -1.816203453e+00f, -2.116126959e+00f, -9.497577690e-01f, 
-1.235092677e+00f, 2.850213870e-01f, 4.021968461e+00f, -1.266761720e-01f, -1.931811623e+00f, -1.013409376e+00f, 
-1.445462857e+00f, 2.959215298e-01f, 4.780270866e-01f, 3.755927109e-01f, -1.331646884e+00f, -9.446725759e-01f, 
1.285588728e-01f, 2.999707032e-01f, -5.713727680e-02f, 1.814108538e+00f, -9.999023440e-02f, -1.299873047e+00f, 
-1.145817846e+00f, 3.539925051e-01f, -8.756656706e-01f, 1.024715146e-01f, 2.794677672e-01f, 1.183080214e+00f, 
-2.465015492e+00f, -2.057414505e+00f, -7.375636904e-01f, -1.610994376e+00f, -2.367967638e+00f, -8.152019736e-01f, 
-2.877930090e+00f, -2.378454620e-01f, -2.188178250e+00f, -7.135363860e-02f, -3.020637367e+00f, -9.513818480e-02f, 
4.095927723e-01f, -5.790794367e-01f, 6.779466576e-01f, -1.355893315e+00f, 2.824777740e-02f, -1.793733865e+00f, 
3.582838920e-02f, -1.253993622e-01f, 3.224555028e-01f, -8.777955354e-01f, -2.275102714e+00f, -4.478548650e-01f, 
2.292963630e-01f, -1.268773209e+00f, 6.114569680e-02f, 9.324718762e-01f, -4.585927260e-01f, -1.941375873e+00f, 
0.000000000e+00f, 1.143601164e-01f, 1.200781222e+00f, 1.210311232e+00f, 1.906001940e-01f, 3.526103589e-01f, 
1.467382475e+00f, -5.537292360e-01f, -7.613776995e-01f, 1.190517857e+00f, 1.758090324e+00f, 2.491781562e-01f, 
9.725676688e-01f, -2.067663548e-01f, -4.594807884e-01f, 2.910044993e-01f, 5.896670118e-01f, 1.531602628e-01f, 
1.165257696e-01f, 2.621829816e-01f, 4.078401936e-01f, 1.849846592e+00f, -1.310914908e-01f, 5.971945692e-01f, 
-3.332999754e-01f, -8.147332732e-01f, 2.351616493e+00f, 1.666499877e-01f, 2.036833183e+00f, -8.147332732e-01f, 
1.377558272e+00f, -2.888428634e-01f, -2.555148407e-01f, -9.998406810e-02f, 1.410886294e+00f, -1.777494544e-01f, 
4.478038243e-02f, 3.582430594e-01f, 2.430935046e-01f, -2.750794921e-01f, -8.124440812e-01f, 1.023551598e-01f, 
5.522847650e-02f, 0.000000000e+00f, 1.215026483e-01f, 7.511072804e-01f, -1.402803303e+00f, 2.430052966e-01f, 
-1.447236432e+00f, -5.628141680e-01f, -9.648242880e-01f, -5.226131560e-01f, -2.552764262e+00f, -2.814070840e-01f, 
1.640794280e-01f, -7.998872115e-01f, -1.435694995e-01f, -5.127482125e-01f, -2.604760919e+00f, -1.251105638e+00f, 
-2.657571144e-01f, -5.315142288e-01f, -3.764892454e-01f, 1.173760589e+00f, -1.406298064e+00f, -8.747838349e-01f, 
9.543006605e-01f, -5.671786945e-01f, 3.241021111e-01f, -9.002836420e-03f, 9.723063334e-01f, -1.143360225e+00f, 
1.085212897e+00f, -1.331194488e+00f, -1.620584594e+00f, 4.340851590e-01f, 1.837627173e+00f, -5.787802120e-02f, 
6.972911022e-01f, -7.172137051e-01f, -2.988390438e-01f, 1.265085285e+00f, 4.681811686e-01f, -6.076393891e-01f, 
-6.412127542e-01f, -9.715344760e-02f, -6.120667199e-01f, -1.233848785e+00f, -1.029826545e+00f, -1.078403268e+00f, 
-1.933195827e+00f, 1.208247392e+00f, -1.510309240e-01f, 1.419690686e+00f, -3.836185470e+00f, 2.114432936e-01f, 
4.498122668e-01f, 3.911411016e-01f, 9.387386438e-01f, 4.400337393e-01f, 1.955705508e-01f, 1.241872998e+00f, 
8.186812695e-01f, -3.547618835e-01f, -1.155250236e+00f, -1.082478567e+00f, 1.082478567e+00f, -2.547008394e-01f, 
-1.417495030e+00f, -3.891162828e-01f, 9.172026666e-01f, 1.625950182e+00f, -1.000584727e+00f, -1.764920283e+00f, 
-5.807103057e-01f, -2.543110649e+00f, -3.404163861e-01f, 1.001224665e-01f, -1.762155410e+00f, 1.822228890e+00f, 
-4.360880644e+00f, 2.400484758e-01f, 6.401292688e-01f, 4.000807930e-02f, -5.081026071e+00f, -9.201858239e-01f, 
-8.410110320e-01f, 6.307582740e-02f, -4.415307918e-01f, -1.387668203e+00f, -2.670210027e+00f, -6.097329982e-01f, 
3.760625097e-01f, 4.735601974e-01f, -1.768886620e+00f, -7.103402961e-01f, 1.392824110e-02f, 1.058546324e+00f, 
1.809540799e+00f, 4.105680804e-01f, 1.079641989e+00f, 1.003610863e+00f, 1.931190600e+00f, 1.672684772e-01f, 
1.121272988e-01f, -1.427074712e-01f, -1.834810344e-01f, 1.294560632e+00f, 7.746977008e-01f, 4.892827584e-01f, 
-8.095857275e-01f, 5.004711770e-01f, 1.398375348e+00f, 1.869407044e+00f, 1.015662094e+00f, -1.295337164e+00f, 
-3.259009542e-01f, -1.194970165e+00f, 1.876399433e-01f, 1.254224884e+00f, -2.863978082e-01f, -5.925471894e-01f, 
3.525863827e+00f, -1.554711609e+00f, -1.277084536e+00f, 6.663049752e-01f, 3.248236754e+00f, -9.439320482e-01f, 
1.208661641e+00f, -8.570509818e-01f, -1.395454804e+00f, 7.142091515e-01f, 9.669293128e-01f, -1.329527805e+00f, 
3.445681995e-01f, -6.399123705e-01f, 9.844805700e-02f, -2.083817207e+00f, -1.230600713e+00f, -3.281601900e-02f, 
3.724230576e-01f, -1.117269173e+00f, -2.149896742e+00f, 2.200681704e-01f, 4.570646616e-01f, 9.141293232e-01f, 
3.872702548e-01f, -1.891666245e+00f, 7.149604704e-01f, 1.221390804e+00f, -8.192255390e-01f, -2.979001960e-01f, 
-8.248148108e-01f, -1.089378052e-01f, -6.536268312e-01f, 1.556254360e-02f, 9.026275288e-01f, 1.976443037e+00f, 
9.223649424e-01f, 8.967436940e-01f, -1.626949273e+00f, 1.152956178e-01f, -4.099399744e-01f, -6.917737068e-01f, 
-1.210607441e+00f, 3.560610120e-01f, -4.035358136e-01f, 3.014649902e+00f, -1.519193651e+00f, -1.115657838e+00f, 
-1.904352618e+00f, -1.214587103e+00f, -4.948317825e-01f, -1.949337325e-01f, -1.559469860e+00f, -1.109622785e+00f, 
-5.705299322e-01f, -5.843330757e-01f, -5.613278365e-01f, -2.898660139e-01f, 4.647058318e-01f, 4.923121189e-01f, 
-1.635837317e+00f, -1.340850260e-02f, 3.754380728e-01f, 1.448118281e+00f, -1.702879830e+00f, 1.072680208e-01f, 
-1.739078250e+00f, -8.800155000e-01f, 2.660999250e+00f, 2.304802500e-01f, -2.367660750e+00f, -6.495352500e-01f, 
1.273993651e+00f, 1.262818268e+00f, 1.273993651e+00f, 1.419273628e+00f, 8.605044833e-01f, -6.481722082e-01f, 
-1.995601949e-01f, -2.721275385e-01f, 1.814183590e-01f, 2.304013159e+00f, -1.632765231e-01f, -1.269928513e-01f, 
1.848515963e+00f, -1.455524380e-01f, -6.840964586e-01f, 5.822097520e-02f, 1.528300599e+00f, -7.714279214e-01f, 
-1.898025109e+00f, 5.230777860e-01f, 5.529679452e-01f, 1.345057164e-01f, -5.081327064e-01f, -7.024187412e-01f, 
-3.724636236e+00f, -5.912121010e-01f, -1.714515093e+00f, 1.418909042e+00f, -7.508393683e+00f, 1.300666622e+00f, 
-1.433883786e+00f, 1.116774872e+00f, 4.136203230e-02f, -2.481721938e-01f, -1.750992701e+00f, -6.480051727e-01f, 
-1.038725031e+00f, -3.271574900e-02f, -8.260726623e-01f, 1.635787450e-02f, -9.323988465e-01f, 7.115675408e-01f, 
-8.603869014e-01f, -4.522546533e-01f, -1.213366143e+00f, 1.875202221e-01f, -2.316426273e-01f, -1.400886365e+00f, 
-7.542913515e-01f, -4.732808480e-01f, -5.916010600e-02f, 2.810105035e-01f, -1.878333365e+00f, -9.761417490e-01f, 
-4.072379170e-01f, -3.393649308e-02f, 7.466028478e-01f, -1.077483655e+00f, -1.068999532e+00f, -5.090473962e-02f, 
-3.865117999e-01f, -5.059790834e-01f, -6.254463670e-01f, -2.810994908e-02f, 5.621989816e-02f, -8.924908833e-01f, 
-4.840393976e-01f, -5.682201624e-01f, -1.473163384e+00f, -7.155365008e-01f, -2.672739282e+00f, -6.524009272e-01f, 
-3.548960376e-01f, 3.105340329e-01f, 8.872400940e-02f, 1.877991532e+00f, -3.253213678e-01f, -4.879820517e-01f, 
6.710484630e-02f, 1.588148029e+00f, -2.684193852e-01f, -1.342096926e+00f, -2.840771827e+00f, 4.473656420e-02f, 
-8.929778786e-01f, 2.617348954e-01f, 4.618851096e-01f, 3.079234064e-02f, -6.774314941e-01f, 9.776568153e-01f, 
-5.241879931e-01f, -6.594623139e-01f, -3.550950921e-01f, 1.268196757e+00f, -2.147479843e+00f, 1.352743208e-01f, 
-1.952780195e+00f, -8.679023088e-01f, -6.147641354e-01f, 3.616259620e-02f, -2.296324859e+00f, -6.328454335e-01f, 
1.811484896e+00f, -1.126829187e+00f, -1.725902933e+00f, -1.569002666e-01f, 5.848100846e-01f, 5.134917816e-01f, 
-1.822153099e+00f, 1.004336354e-01f, -4.734728526e-01f, 1.033031678e+00f, -8.178167454e-01f, -1.721719464e-01f, 
-7.771918920e-01f, 3.303065541e-01f, -2.467584257e+00f, 7.189025001e-01f, -1.321226216e+00f, -6.411833109e-01f, 
-2.412136579e+00f, 1.977161130e-01f, -2.372593356e-01f, -1.581728904e-01f, -5.021989270e+00f, 7.908644520e-01f, 
4.952140973e-01f, 7.667831184e-01f, 7.348338218e-01f, 2.028780334e+00f, 1.022377491e+00f, -1.932932444e+00f, 
2.507614161e+00f, -6.652853896e-01f, -1.125867582e+00f, -4.861700924e-01f, 3.249663249e+00f, 1.637625574e+00f, 
-2.733877658e+00f, -8.543367680e-02f, -6.834694144e-01f, -6.407525760e-01f, -5.425038477e+00f, 8.116199296e-01f, 
-5.903385885e-01f, 3.768118650e-01f, 7.033821480e-01f, 1.595170229e+00f, -7.410633345e-01f, -8.541068940e-01f, 
2.524439998e+00f, -1.550443463e+00f, -5.565694484e-01f, 2.186522833e-01f, 8.348541726e-01f, 1.987748030e-01f, 
-8.369620464e-01f, 9.241455929e-01f, 1.377500035e+00f, 1.028765849e+00f, -2.214462081e+00f, 6.625949534e-01f, 
9.438438964e-01f, -4.164017190e-01f, -4.441618336e-01f, 5.135621201e-01f, 1.762767277e+00f, -1.748887220e+00f, 
9.026948921e-01f, -1.517295670e+00f, 6.914258748e-01f, 3.457129374e-01f, 5.953945033e-01f, -2.439196836e+00f, 
7.000684200e-01f, -4.407838200e-01f, -1.646457210e+00f, 7.778538000e-02f, 1.400136840e+00f, -3.889269000e-02f, 
-2.614379976e-01f, -1.771968650e+00f, -2.672477309e+00f, 1.074800657e+00f, -3.689180633e+00f, -4.938273288e-01f, 
1.877568264e-01f, 1.251712176e+00f, 1.063955350e+00f, 1.324728720e+00f, -5.319776748e-01f, 9.492150668e-01f, 
1.808788877e+00f, 7.263640371e-01f, -5.696972840e-02f, 7.975761976e-01f, 1.253334025e+00f, -5.127275556e-01f, 
-6.403071356e-01f, 1.309719141e+00f, 6.694120054e-01f, -3.696318465e+00f, -2.648543152e+00f, -2.037340886e-01f, 
-1.283373230e+00f, 1.072407767e+00f, 2.232717810e+00f, 1.072407767e+00f, -2.285459176e-01f, -5.625745664e-01f, 
-2.598213020e+00f, 1.498969050e-01f, 2.997938100e-01f, -4.996563500e-02f, -3.172817822e+00f, -1.249140875e+00f, 
1.122927172e+00f, -1.847854840e-01f, 2.842853600e-02f, 1.805212036e+00f, 1.663069356e+00f, 6.254277920e-01f, 
-7.863574569e-01f, 1.114835888e+00f, 1.005343078e+00f, -4.678329174e-01f, 1.264144266e+00f, -4.578790256e-01f, 
-1.872438379e-01f, 5.825363846e-01f, -6.189449087e-01f, -1.560365316e-02f, 6.605546504e-01f, 8.842070124e-02f, 
2.536094407e+00f, 5.990774190e-02f, -2.596002149e-01f, 1.457755053e+00f, 3.594464514e-01f, 1.138247096e+00f, 
-7.566159594e-01f, 7.746306251e-01f, -2.269847878e+00f, -2.287862544e+00f, -1.999627893e+00f, -1.243011933e+00f, 
-7.828858739e-01f, -6.369241008e-01f, -2.255772857e-01f, -6.236548487e-01f, -1.685195017e+00f, -1.021732412e+00f, 
1.041358253e+00f, -9.347625259e-01f, -9.101635121e-01f, 7.953681142e-01f, 3.279868512e-02f, -5.493779758e-01f, 
4.563674970e-02f, 3.042449980e-02f, -4.259429972e-01f, 7.454002451e-01f, 1.931955737e+00f, -7.606124950e-01f, 
1.237464924e+00f, 1.867871584e-01f, -4.669678960e-01f, 9.923067790e-01f, 1.482623070e+00f, 1.984613558e-01f, 
-7.213503026e-01f, 2.792323752e-01f, -6.980809380e-01f, -6.282728442e-01f, -2.955209304e+00f, 4.886566566e-01f, 
-1.250199311e+00f, 1.912955572e+00f, 8.736332534e-01f, -1.807517076e-01f, 3.012528460e-01f, 1.114635530e+00f, 
-3.508318492e+00f, 1.496882557e+00f, 2.759877214e+00f, -7.016636985e-01f, -5.940752647e+00f, 1.262994657e+00f, 
-1.660099271e+00f, -1.176448302e+00f, -1.490167849e+00f, -8.758004026e-01f, -7.189406290e-01f, 7.712272202e-01f, 
8.971309772e-01f, 5.588684776e-01f, 7.059391296e-01f, -9.118380424e-01f, 1.867797280e+00f, -1.735433694e+00f, 
5.413080309e-01f, 2.637141689e-01f, 1.762721024e+00f, -1.471247469e+00f, -6.523455757e-01f, 2.637141689e-01f, 
-1.290365032e+00f, 1.466323900e-02f, -1.026426730e+00f, -5.572030820e-01f, -1.862231353e+00f, 7.624884280e-01f, 
1.951562243e+00f, 3.649262731e-01f, 1.745299567e-01f, 1.031313380e+00f, 2.015027682e+00f, -1.586635970e-01f, 
-6.334223149e-01f, 5.245528545e-01f, 5.245528545e-01f, 4.453750652e-01f, -1.256947406e+00f, -6.235250912e-01f, 
2.667933190e-01f, 4.794546602e-01f, 4.910543697e-01f, -2.474604698e-01f, -3.131921570e-01f, 5.026540792e-02f, 
-5.874947676e-01f, 7.670070577e-01f, 1.599291312e+00f, 7.833263568e-01f, 7.506877586e-01f, 2.072550986e+00f, 
6.760490832e-01f, -9.718205571e-01f, -1.788713199e+00f, 4.225306770e-01f, -9.577362012e-01f, -1.647869640e+00f, 
-8.896935118e-01f, 1.063763981e+00f, 2.456327739e+00f, 1.469928411e+00f, 5.415525724e-01f, -7.736465320e-02f, 
1.493921333e+00f, -9.410528080e-01f, -7.175527661e-01f, 2.235000419e-01f, 1.435105532e+00f, -5.411053646e-01f, 
2.683253485e+00f, -7.817352674e-01f, -2.112798020e+00f, 9.930150694e-01f, -1.056399010e-01f, 1.901518218e-01f, 
-3.155946647e+00f, 5.466994192e-01f, 7.951991552e-01f, -7.454992080e-01f, 1.267348654e+00f, -9.194490232e-01f, 
7.065075020e-01f, 4.454069035e-01f, -2.611005986e-01f, -7.679429370e-02f, 9.752875300e-01f, 4.223686153e-01f, 
3.623569924e-01f, -1.407617547e+00f, -1.769974540e+00f, -9.895133254e-01f, 2.787361480e-01f, 1.393680740e-02f, 
-9.383096982e-01f, -4.950137778e-01f, -8.496505141e-01f, 6.797204113e-01f, -2.955306136e-01f, -2.438127562e-01f, 
5.110795255e-01f, -4.991939551e-01f, -6.834202957e-01f, -7.547337179e-01f, 5.289078810e-01f, -3.030820442e-01f, 
-3.239250560e-01f, 2.865490880e-01f, -2.491731200e-01f, 5.232635520e-01f, 1.582249312e+00f, -7.226020480e-01f, 
3.932536624e-01f, 6.676166827e-01f, -1.161470119e+00f, -3.383810584e-01f, -1.371815101e-01f, 9.145434010e-03f, 
1.330987157e+00f, -4.515849282e-01f, -1.509244365e+00f, -2.376762780e-01f, 7.605640896e-01f, 9.863565537e-01f, 
4.998100531e-01f, -6.704769005e-01f, -1.548192116e+00f, 4.632385858e-01f, -1.243429888e+00f, 4.510480967e-01f, 
-5.404086439e-01f, 1.481765637e+00f, 1.882713985e+00f, -8.193292343e-01f, -2.213932186e+00f, 1.743253690e-02f, 
-4.938709754e-01f, 1.041133408e+00f, -1.334786420e-01f, -6.406974816e-01f, -1.695178753e+00f, -8.542633088e-01f, 
-2.039051668e+00f, 5.825861910e-02f, -9.127183659e-01f, 1.359367779e-01f, -2.466281542e+00f, 1.068074683e+00f, 
6.978566200e-01f, 8.723207750e-01f, 1.064231345e+00f, 2.616962325e-01f, -2.215694769e+00f, 1.029338515e+00f, 
7.674906870e-03f, -3.069962748e-02f, -9.747131725e-01f, 6.370172702e-01f, 2.379221130e-01f, 3.223460885e-01f, 
-2.348843961e-02f, -9.943439435e-01f, -2.583728357e-01f, 7.751185071e-01f, 2.113959565e-01f, -6.498468292e-01f, 
-3.868267722e-01f, 8.143721520e-02f, -6.107791140e-01f, -2.585631583e+00f, -4.886232912e-01f, 3.257488608e-01f, 
6.060064832e-01f, -5.241137152e-01f, -2.080076307e+00f, -3.767067328e-01f, 1.703369574e+00f, -1.310284288e-01f, 
3.953590060e-02f, 2.293082235e-01f, 6.325744096e-02f, 2.293082235e-01f, -7.195533909e-01f, 1.004211875e+00f, 
6.680858484e-01f, -1.724092512e-01f, -2.736996863e+00f, 5.818812228e-01f, 1.400825166e+00f, -8.620462560e-02f, 
-2.499003234e-01f, 1.763185615e+00f, -6.941675650e-01f, 9.857179423e-01f, -1.180084860e+00f, -5.553340520e-01f, 
-7.810773511e-01f, -1.066837358e+00f, -2.419434722e+00f, 7.429760169e-01f, 8.763306866e-01f, 7.620266840e-01f, 
-1.778064402e+00f, -5.880212982e-01f, -4.060147059e-01f, 9.660349899e-01f, -1.400050710e-01f, -9.940360041e-01f, 
3.567183165e-01f, 1.677897267e+00f, 1.321178950e-02f, 2.642357900e-01f, 5.813187380e-01f, 7.662837910e-01f, 
-1.190197476e-01f, 2.644883280e-02f, -1.679500883e+00f, -6.479964036e-01f, -1.282768391e+00f, 1.110850978e+00f, 
4.841025230e-01f, 2.420512615e-01f, 3.758164324e-01f, -8.089607951e-01f, -4.267745927e-01f, 4.586234429e-01f, 
-3.974772828e-01f, -5.756567544e-01f, -5.619506412e-01f, 9.183095844e-01f, -1.233550188e+00f, 1.740676376e+00f, 
-1.502760406e+00f, -3.339467568e-01f, -6.307883184e-01f, 5.751305256e-01f, -2.356179895e+00f, 9.832876728e-01f, 
-2.591631674e-01f, 2.366272398e-01f, -1.126796380e-01f, 6.986137556e-01f, -1.431031403e+00f, -2.591631674e-01f, 
4.979748348e-01f, 1.936568802e+00f, 3.513489112e+00f, 1.438593967e+00f, 5.809706406e-01f, 1.549255042e+00f, 
-2.461409200e+00f, -3.682423212e-01f, -1.550493984e-01f, -1.240395187e+00f, -3.876234960e-02f, -3.294799716e-01f, 
-6.452119636e-01f, -9.678179454e-01f, -2.156366299e+00f, 1.952615153e+00f, 1.341361714e+00f, 3.565645062e-01f, 
-6.760644928e-01f, 2.852147079e-01f, 1.341565478e+00f, -8.978981545e-01f, 1.299311447e+00f, -8.133900929e-01f, 
1.310825858e+00f, -6.117187335e-01f, -1.048660686e+00f, -2.621651715e-01f, -2.219665119e+00f, -1.922544591e-01f, 
-2.115409485e+00f, 1.249257570e+00f, 2.115409485e+00f, -6.163004012e-01f, 2.998218168e-01f, 3.997624224e-01f, 
-9.180068522e-01f, -5.587867796e-01f, -4.390467554e-01f, -8.381801694e-01f, -2.534497179e+00f, 8.182234987e-01f, 
-1.201762378e+00f, -7.149725540e-01f, -1.931947114e+00f, 1.369096380e-01f, 7.606091000e-01f, 1.293035470e+00f, 
-2.144227906e+00f, 1.181857901e-01f, -5.571615819e-01f, -1.536415271e+00f, 1.215625270e+00f, 5.065105290e-02f, 
1.416619314e-01f, 6.567962274e-01f, 5.022559386e-01f, -1.635551390e+00f, 6.696745848e-01f, -5.666477256e-01f, 
-1.816315252e+00f, 6.149728807e-01f, 1.058325423e+00f, 5.434644062e-01f, 9.296101685e-01f, -1.215644066e+00f, 
1.672960585e-01f, 3.780890922e-01f, 4.249319886e-01f, -3.479758017e-01f, 3.345921170e-01f, -3.345921170e-01f, 
-7.804128020e-01f, -8.764636084e-01f, -2.761460684e-01f, 1.524806552e+00f, 2.881524192e-01f, -1.200635080e-01f, 
-8.398564941e-01f, 5.814391113e-01f, 2.734917301e+00f, 8.398564941e-01f, 3.876260742e-01f, 1.507434733e-01f, 
-1.452391262e+00f, -1.103817360e+00f, 1.475629523e+00f, 2.440017321e-01f, 6.158138953e-01f, -3.718121632e-01f, 
9.522034138e-01f, -4.761017069e-01f, 5.919102302e-01f, 4.761017069e-01f, 1.183820460e+00f, -1.634186940e+00f, 
2.757553029e-01f, -2.501036468e-01f, -8.144400805e-01f, -5.322718637e-01f, 7.246592843e-01f, -5.386847777e-01f, 
-2.140618299e+00f, 4.719473416e-01f, -4.719473416e-01f, -1.011315732e-01f, 2.865394574e-01f, 4.719473416e-01f, 
1.459323335e+00f, -5.837293340e-02f, 0.000000000e+00f, 1.751188002e-01f, 3.706681271e+00f, -6.129158007e-01f, 
1.362234953e+00f, -1.002756285e+00f, -8.324769156e-01f, 8.892367053e-01f, -2.402831097e+00f, -5.865178269e-01f, 
-1.405137148e+00f, -1.421288150e+00f, -2.051177216e+00f, 1.518194160e+00f, -1.292080136e-01f, -8.560030901e-01f, 
-6.417489060e-01f, -5.775740154e-01f, -2.716737035e+00f, -6.417489060e-02f, -6.845321664e-01f, 6.203572758e-01f, 
-1.317484680e-01f, 3.952454040e-02f, -1.317484680e-01f, 5.138190252e-01f, -1.673205544e+00f, 5.138190252e-01f, 
3.984388522e-01f, 2.056458592e-01f, 1.632314007e+00f, -3.855859860e-02f, 3.855859860e-01f, -2.570573240e-02f, 
-3.244031561e+00f, 5.108711120e-01f, 1.328264891e+00f, 1.277177780e-01f, -1.634787558e+00f, 6.896760012e-01f, 
-6.422191742e-01f, -5.657645106e-01f, 9.709742277e-01f, 2.293639908e-02f, -9.174559632e-02f, -1.758457263e-01f, 
1.816406100e-02f, 2.997070065e-01f, 2.361327930e-01f, -4.268554335e-01f, -1.153417874e+00f, 8.718749280e-01f, 
-1.267929280e+00f, 1.014343424e-01f, 2.535858560e-01f, -3.220540371e+00f, 1.242570694e+00f, -8.368333248e-01f, 
1.779642142e-01f, -1.049988864e+00f, 1.032192442e+00f, -4.805033783e-01f, -1.130072760e+00f, -8.898210710e-01f, 
1.473175794e+00f, -2.589938089e+00f, 3.088916987e-01f, 3.017634287e+00f, -1.425653994e-01f, -2.138480991e-01f, 
-1.718315110e-01f, -1.374652088e+00f, -1.580849901e+00f, 2.182260190e+00f, 3.780293242e-01f, -3.608461731e-01f, 
-1.770597386e+00f, 1.115336936e+00f, -5.716101797e-01f, -7.389107201e-01f, 8.922695488e-01f, 0.000000000e+00f, 
-9.417738601e-01f, -4.616538530e-02f, -8.586761666e-01f, 1.172600787e+00f, -1.292630788e-01f, 1.043337708e+00f, 
1.073993370e+00f, -1.288792044e-01f, -1.489270806e+00f, 2.577584088e-01f, 1.818628773e+00f, 6.014362872e-01f, 
-1.995096401e+00f, 4.032641662e-01f, 4.244885960e-02f, 6.367328940e-02f, -2.695502585e+00f, -2.759175874e-01f, 
8.999213663e-01f, -1.196098019e+00f, 2.733938328e-01f, 1.446709032e+00f, -1.139140970e-02f, -1.184706609e+00f, 
-3.646174585e-01f, 4.351885795e-01f, -7.174730635e-01f, -1.493755395e+00f, 5.528071145e-01f, 3.175700445e-01f, 
2.213656731e-01f, 7.922560932e-01f, 1.479654762e+00f, -3.145722723e-01f, 9.320659920e-02f, 8.738118675e-01f, 
-2.347163327e+00f, 1.145859262e+00f, -3.511504190e-01f, 1.478528080e-01f, -9.055984490e-01f, 5.729296310e-01f, 
6.119336920e-01f, -1.942889472e+00f, -1.132077330e+00f, -3.977568998e-01f, -6.119336920e-02f, -3.212651883e-01f, 
-3.178870752e-01f, 5.430570868e-01f, 1.099359468e+00f, 6.357741504e-01f, 1.682152440e+00f, -6.622647400e-02f, 
3.126410544e-01f, 2.149407249e-01f, -1.191944020e+00f, 5.666619111e-01f, -2.481588369e+00f, 2.344807908e-01f, 
-1.110353783e+00f, 6.869137809e-01f, -6.775040030e-01f, -1.195041783e+00f, -6.022257805e-01f, 1.025665782e+00f, 
8.803552560e-01f, 1.071098895e+00f, 1.041753720e+00f, 1.027081132e-01f, 1.863418625e+00f, 1.247169946e+00f, 
-2.377941155e+00f, -1.142160712e+00f, -1.142160712e+00f, 1.198332550e+00f, -4.680986525e-01f, -9.549212511e-01f, 
3.483058785e-01f, -6.269505813e-01f, -2.786447028e-01f, 5.340690137e-01f, 2.948989771e+00f, -3.715262704e-01f, 
1.021844045e+00f, -3.379326762e-01f, 2.413804830e-02f, -6.436812880e-02f, -6.114972236e-01f, 7.000034007e-01f, 
-1.633054659e+00f, 3.986196411e-01f, 1.298728508e+00f, -1.324445904e+00f, 1.363021999e+00f, -2.828913582e-01f, 
5.437063789e-01f, 8.845372432e-01f, 6.086265435e-01f, -1.030607614e+00f, -2.191055557e-01f, 8.845372432e-01f, 
-9.264069150e-01f, 1.358730142e-01f, -6.423087944e-01f, -1.852813830e-01f, 1.568715709e+00f, -1.235209220e-02f, 
3.912654637e-01f, 3.912654637e-01f, -2.211500447e-01f, 1.292877184e+00f, 2.160465821e+00f, 7.144847598e-01f, 
9.921213825e-01f, -2.968552168e-01f, -3.905989695e-01f, -9.374375268e-01f, -6.405823100e-01f, 8.905656505e-01f, 
1.217736976e-01f, -3.196559562e-01f, -1.004633005e+00f, 1.933157449e+00f, -6.697553368e-01f, 0.000000000e+00f, 
-1.869753245e+00f, 1.472246650e-01f, 1.148352387e+00f, 3.091717965e-01f, 9.275153895e-01f, 2.797268635e-01f, 
2.801653862e+00f, -7.587812544e-01f, 7.412709178e+00f, -1.634298086e+00f, -1.225723565e+00f, 9.338846208e-01f, 
7.282590216e-01f, 5.578154208e-01f, 1.967848846e+00f, 1.053651350e+00f, -1.317064188e+00f, -5.423205480e-01f, 
1.849764144e+00f, 0.000000000e+00f, 3.786918720e-01f, -8.739043200e-02f, 1.383681840e+00f, -9.612947520e-01f, 
4.327703275e-01f, 9.867163467e-01f, 2.059986759e+00f, -3.462162620e-02f, -2.198473264e+00f, 3.808378882e-01f, 
3.588273378e-01f, -6.246253658e-01f, -1.687817478e+00f, -6.910748728e-01f, -7.708142812e-01f, 8.372637882e-01f, 
-2.943168584e-01f, 6.622129314e-01f, 4.672280127e+00f, -1.876269972e+00f, 2.943168584e-01f, -5.518441095e-01f, 
4.681290240e-01f, -5.656559040e-01f, -1.092301056e+00f, 5.266451520e-01f, 2.477182752e+00f, 2.145591360e-01f, 
-5.214853790e-01f, -2.186874170e-01f, 6.224180330e-01f, 2.691537440e-01f, -5.046632700e-02f, 2.136407843e+00f, 
2.207942358e+00f, -1.564683561e-01f, -3.477074580e-01f, -1.912391019e-01f, -3.477074580e-02f, -1.130049239e+00f, 
1.385323111e+00f, -2.108100386e-01f, -1.912348207e+00f, 7.830087148e-01f, -1.505785990e+00f, 1.099223773e+00f, 
-1.254534867e+00f, -7.343618736e-01f, 4.742753767e-01f, 1.223936456e+00f, -1.942999124e+00f, -4.589761710e-02f, 
-1.898093118e+00f, 4.184772228e-01f, 7.472807550e-02f, -9.415737513e-01f, 1.165757978e+00f, 1.644017661e-01f, 
5.919301025e-01f, 7.682497075e-01f, 1.599470703e+00f, -8.312209950e-01f, 1.599470703e+00f, 1.007540600e-01f, 
1.121976589e+00f, -3.124491766e-01f, 6.675050591e-01f, -4.402692943e-01f, 1.803683883e+00f, 2.414380001e-01f, 
2.467895047e-01f, -2.597784260e-02f, -1.169002917e-01f, -6.104793011e-01f, -1.649593005e+00f, -9.092244910e-02f, 
2.196022773e+00f, -2.074982148e-01f, -5.706200907e-01f, -9.683250024e-01f, -7.781183055e-01f, 1.556236611e-01f, 
-4.705183271e-01f, -1.297981592e-01f, -7.787889552e-01f, 1.784724689e-01f, 2.060545777e+00f, -1.135733893e+00f, 
7.219120162e-01f, 6.256570807e-01f, -1.212812187e+00f, -1.222437681e+00f, 9.625493550e-02f, 7.796649775e-01f, 
3.136546535e-01f, -8.088988433e-01f, -3.796872122e-01f, -1.980976759e-01f, 1.048266868e+00f, -3.384168630e-01f, 
1.112636028e-01f, -2.018639651e+00f, -1.255689232e+00f, 5.722128144e-01f, 6.198972156e-01f, -1.398742435e+00f, 
-2.699804054e-01f, 5.823106784e-02f, 4.234986752e-02f, -1.588120032e-02f, 3.070365395e-01f, -6.723041469e-01f, 
-6.811471380e-01f, 1.031451380e+00f, 2.471591044e+00f, 1.050912727e+00f, 4.670723232e-01f, 1.946134680e-01f, 
5.747858604e-01f, -3.299696606e-01f, 1.351811190e+00f, 6.067184082e-01f, 7.770253298e-01f, -1.266657729e+00f, 
1.895873439e-01f, 4.460878680e-02f, -1.416328981e+00f, -1.226741637e+00f, -2.341961307e-01f, 8.587191459e-01f, 
-3.163418470e-01f, -3.558845779e-01f, 2.570277507e-01f, 1.255481705e+00f, -6.524550595e-01f, -1.186281926e-01f, 
7.387045965e-01f, 5.682343050e-01f, 1.609997198e+00f, 3.030582960e-01f, 2.405525224e+00f, -3.977640135e-01f, 
-8.218922460e-02f, 1.491147361e+00f, 1.326768911e+00f, -1.279803640e+00f, -1.209355733e+00f, -1.174131780e-01f, 
-7.819861335e-01f, 1.527880599e+00f, 9.504139161e-01f, -9.865055838e-01f, 9.263528043e-01f, 1.046658363e+00f, 
-2.069346641e-01f, -7.181850107e-01f, 1.545923667e+00f, 1.168572221e+00f, -4.747324647e-01f, -4.138693282e-01f, 
1.826926331e+00f, -4.315574010e-02f, -9.925820223e-01f, 9.638115289e-01f, 1.150819736e-01f, -2.157787005e-01f, 
1.573110684e+00f, -1.238669830e-02f, 2.229605694e-01f, -6.441083116e-01f, -7.555885963e-01f, -9.785491657e-01f, 
-1.349472942e+00f, -1.158209061e+00f, -6.375462720e-02f, 8.500616960e-02f, 7.438039840e-01f, -1.062577120e-02f, 
5.810372727e-01f, 1.207646096e+00f, 1.219038984e+00f, -3.645724064e-01f, -1.446896738e+00f, -9.228239037e-01f, 
-9.318191702e-01f, 5.435611826e-01f, 1.232719111e+00f, 1.261838460e-01f, -3.882579876e-01f, 5.144418336e-01f, 
-1.109739708e+00f, -4.095467970e-01f, 2.113789920e-01f, 7.926712200e-02f, 1.677820749e+00f, -1.228640391e+00f, 
-2.644787598e+00f, -7.288784720e-01f, -8.746541664e-01f, -5.414525792e-01f, -8.330039680e-02f, 4.581521824e-01f, 
0.000000000e+00f, 6.406241640e-02f, 2.033981721e+00f, -5.605461435e-01f, 4.484369148e-01f, 5.925773517e-01f, 
2.671921275e+00f, -6.942787566e-01f, -2.440495023e+00f, -1.030898760e+00f, -6.522012562e-01f, -3.576587534e-01f, 
-2.477263892e+00f, 9.167827003e-01f, 9.167827003e-01f, 1.033818790e+00f, 6.046864619e-01f, 2.730842086e-01f, 
6.697138409e-01f, -9.314410890e-01f, 2.309358072e-02f, 6.158288192e-02f, -2.925186891e-01f, -9.776282505e-01f, 
-8.049926404e-01f, -1.778472113e-01f, -1.188768202e+00f, 3.744151816e-01f, -1.048362508e+00f, 4.212170793e-01f, 
-1.271209422e+00f, 1.652572249e+00f, 1.816013460e-02f, 9.443269992e-01f, 3.087222882e-01f, 2.306337094e+00f, 
-1.892561379e+00f, 4.768658592e-01f, 8.643193698e-01f, 1.385891403e+00f, -1.251772880e+00f, -1.147458474e+00f, 
1.276791618e-01f, 1.383190920e+00f, 2.127986030e-02f, 2.702542258e+00f, -2.979180442e-01f, 3.617576251e-01f, 
-1.794765486e+00f, 1.300145076e+00f, 1.271881053e-01f, 5.652804680e-01f, -4.522243744e-01f, -7.348646084e-01f, 
-1.308287335e+00f, -5.530970848e-01f, -1.350833265e+00f, 2.127296480e-02f, 5.850065320e-01f, -9.572834160e-01f, 
-2.506805400e-01f, 3.760208100e-01f, 1.027790214e+00f, 4.010888640e-01f, -3.183642858e+00f, -1.128062430e+00f, 
6.851493582e-01f, -5.525398050e-02f, 2.983714947e-01f, -1.403451105e+00f, 1.116130406e+00f, -7.072509504e-01f, 
5.696547298e-01f, 9.447932104e-01f, 6.391248188e-01f, 5.557607120e-02f, 1.528341958e+00f, 1.764540261e+00f, 
-3.416054138e-01f, 1.008927618e+00f, 3.257167899e-01f, -9.374288101e-01f, 8.500413786e-01f, 7.229323874e-01f, 
5.881734903e-01f, -3.475570625e-01f, -1.131788383e+00f, 4.455859775e-01f, 3.119101842e-01f, 9.179071137e-01f, 
-3.718531718e-01f, -1.098657099e+00f, -6.084870084e-01f, 2.146606946e+00f, -1.233876434e+00f, -7.099015098e-01f, 
2.889274712e-01f, 1.036739750e+00f, 8.582845468e-01f, 4.588848072e-01f, 1.079229084e+00f, 8.667824136e-01f, 
-8.890464515e-01f, 9.100475488e-02f, 1.050054864e-01f, 5.250274320e-01f, 4.480234086e-01f, 5.880307238e-01f, 
7.209674150e-01f, 2.265897590e-01f, 6.179720700e-02f, -1.308040881e+00f, 8.342622945e-01f, 8.445618290e-01f, 
2.384987204e+00f, -1.314559876e-01f, -8.450742060e-01f, 2.253531216e-01f, 1.784045546e+00f, 3.004708288e-01f, 
1.618139220e+00f, 5.223914017e-01f, 6.115801776e-01f, -3.567551036e-01f, -5.351326554e-01f, -6.880276998e-01f, 
5.462802475e-01f, -3.714705683e-01f, -3.059169386e-01f, -3.496193584e-01f, 2.775103657e+00f, -7.647923465e-01f, 
1.035764070e-02f, 3.210868617e-01f, -1.315420369e+00f, -6.628890048e-01f, -7.561077711e-01f, 6.318160827e-01f, 
-5.624021960e-01f, -1.630966368e+00f, -1.785626972e+00f, -1.827807137e-01f, 9.701437881e-01f, 8.436032940e-01f, 
-2.321901194e-01f, 9.409810102e-01f, 1.552007640e+00f, -1.099847934e-01f, 8.309962168e-01f, -4.888213040e-02f, 
2.705944027e-01f, -6.248270752e-01f, -1.033178628e-01f, 2.459949115e-02f, 3.247132832e-01f, -4.919898230e-01f, 
-4.603215505e-01f, -3.814092847e-01f, -1.433572829e+00f, 1.841286202e-01f, -1.670309626e+00f, 4.997776834e-01f, 
1.007883757e+00f, 5.519363429e-01f, 1.415836706e+00f, 5.279391106e-01f, 3.047648502e+00f, -1.199861615e+00f, 
-6.714817192e-01f, -1.609022233e+00f, 2.533893280e-02f, 7.221595848e-01f, -4.941091896e-01f, 0.000000000e+00f, 
4.333812288e-01f, -1.119568174e+00f, 2.347481656e-01f, -2.347481656e-01f, -1.173740828e+00f, -2.293309002e+00f, 
9.187658880e-02f, 1.102519066e+00f, 3.889442259e+00f, -1.194395654e+00f, 2.143787072e-01f, -4.593829440e-01f, 
1.234586160e-01f, -4.526815920e-01f, -4.732580280e-01f, -1.306603686e+00f, 3.806640660e-01f, -1.183145070e+00f, 
-2.050454065e+00f, -3.390514596e-01f, -9.525731484e-01f, 1.372351146e+00f, -1.985872835e+00f, -1.775983836e-01f, 
-1.373890291e+00f, 1.455669475e+00f, 2.077191274e+00f, 5.233867776e-01f, 9.649943712e-01f, -3.434725728e-01f, 
-1.218745704e+00f, -6.577357766e-01f, 2.089278349e+00f, -2.456836577e+00f, -1.083329514e+00f, -9.479133251e-01f, 
-1.704499870e+00f, 1.397689893e+00f, 8.692949337e-01f, -1.704499870e-02f, -2.164714835e+00f, 9.715649259e-01f, 
1.022107937e-01f, -1.081730900e+00f, 1.030625503e+00f, 6.814052912e-01f, -2.299742858e-01f, -2.129391535e-01f, 
-1.238805430e+00f, -2.229849774e-01f, -4.211938462e-01f, 6.937310408e-01f, -3.146565792e+00f, -7.432832580e-02f, 
1.435948381e+00f, 1.650515380e-01f, 0.000000000e+00f, 4.951546140e-01f, 2.096154533e+00f, -4.951546140e-02f, 
2.292935820e-01f, -1.386680234e+00f, -6.442057780e-01f, -3.384810020e-01f, 1.026361748e+00f, -1.124630426e+00f, 
9.523146790e-01f, 9.523146790e-02f, 2.380786697e-01f, 3.904490184e-01f, 1.209439642e+00f, 7.332823028e-01f, 
-1.126234203e+00f, 1.908871530e-01f, -2.290645836e-01f, 1.622540800e+00f, -2.424266843e+00f, -5.535727437e-01f, 
-4.479283680e-01f, 1.343785104e+00f, 1.549085606e+00f, 2.239641840e-01f, 2.370287614e+00f, -2.986189120e-01f, 
-1.266765190e+00f, 5.036536296e-01f, -1.938303362e+00f, -3.205068552e-01f, 1.037831722e+00f, -4.120802424e-01f, 
7.078214946e-01f, 5.120410812e-01f, 3.012006360e-01f, -7.228815264e-01f, 1.912624039e+00f, 8.433617808e-01f, 
1.515391737e+00f, 2.028477128e-01f, 2.386443680e-01f, -7.159331040e-02f, 3.102376784e-01f, -1.169357403e+00f, 
1.554097374e+00f, -8.443521168e-01f, -9.911959632e-01f, 1.260409682e+00f, 2.447397440e-02f, -5.261904496e-01f, 
-1.572871162e+00f, -8.545520487e-01f, 4.582380551e-01f, -4.582380551e-01f, -1.486177476e+00f, 0.000000000e+00f, 
9.767160365e-01f, -7.793996655e-01f, 4.439618348e-01f, 3.453036493e-01f, -1.252958956e+00f, -9.273869437e-01f, 
5.666115671e-01f, -1.817064681e+00f, -9.769164950e-01f, -3.907665980e-02f, -2.481367897e+00f, -1.797526351e+00f, 
3.434755280e-02f, 1.373902112e-01f, 6.010821740e-02f, 1.090534801e+00f, -5.323870684e-01f, -9.617314784e-01f, 
1.194382271e+00f, -4.243200174e-01f, 1.021511153e+00f, -8.014933662e-01f, 1.995875637e+00f, -1.037226709e+00f, 
1.173735308e+00f, 1.099799226e+00f, 7.393608240e-01f, 2.125662369e-01f, 9.704110815e-01f, 9.426850506e-01f, 
2.502671422e-01f, 2.944319320e-02f, -1.869642768e+00f, 3.385967218e-01f, 9.421821824e-01f, 2.208239490e-01f, 
1.016004850e-02f, 3.657617460e-01f, -5.181624735e-01f, 2.743213095e-01f, -5.689627160e-01f, 1.290326159e+00f, 
-5.234804133e-01f, -1.166351096e+00f, -5.051126795e-01f, -5.142965464e-01f, -6.520545499e-01f, -7.530770858e-01f, 
9.826054745e-02f, -2.721061314e-01f, -2.569891241e-01f, -9.599299636e-01f, 4.308347081e-01f, 2.116381022e-01f, 
9.857128327e-01f, 8.702689874e-01f, -6.393812969e-01f, 4.795359727e-01f, 1.065635495e+00f, 1.127797565e+00f, 
-4.752825084e-01f, -3.353382143e+00f, 1.742702531e+00f, -5.809008436e-01f, 0.000000000e+00f, 1.320229190e-01f, 
-1.750668325e-01f, 3.395235539e-01f, -8.488088848e-02f, 6.737420523e-01f, 1.697617770e-01f, 5.941662194e-01f, 
-8.236081067e-01f, 8.427617836e-01f, 2.681514766e-01f, 4.405345687e-01f, -2.432516966e+00f, -6.895323684e-01f, 
4.342109328e-01f, 1.961990141e+00f, -6.593573424e-01f, -2.042399573e+00f, -4.342109328e-01f, 1.688598072e+00f, 
1.017700293e+00f, -3.249799254e-01f, -1.086117119e+00f, -2.822194089e-01f, 2.651152023e-01f, 4.874698881e-01f, 
-5.583369239e-01f, -1.367355732e-01f, 1.447118150e+00f, 7.292563904e-01f, 7.634402837e-01f, -8.432027014e-01f, 
-6.121843354e-01f, 1.613940521e+00f, 3.533973209e+00f, -1.140888989e+00f, 1.864379567e+00f, -7.234905782e-01f, 
9.968615906e-01f, -1.645305538e-01f, -5.129481971e-01f, 6.968352866e-01f, 1.229140019e+00f, 7.839396975e-01f, 
-1.023479237e+00f, -1.853545075e-01f, -4.029445815e-02f, 2.417667489e-01f, 8.864780793e-02f, -5.882990890e-01f, 
1.227877794e+00f, -1.332824614e+00f, -9.655107440e-01f, 6.506702840e-01f, 7.451224220e-01f, 1.154415020e-01f, 
-1.073136956e+00f, -6.566957495e-01f, 3.043224205e-01f, 1.041103018e+00f, -2.034155126e+00f, -2.562715120e-01f, 
6.178484035e-01f, 1.893406398e-01f, 9.068420115e-01f, 6.377789971e-01f, 1.265592697e+00f, 4.882995447e-01f, 
-7.964047936e-01f, -1.929750077e+00f, -1.929750077e+00f, 2.603631056e-01f, -1.945065554e+00f, -1.378392912e-01f, 
-1.388006048e+00f, 1.161120444e+00f, 1.694968924e+00f, -4.804636320e-01f, 9.342348400e-02f, 3.203090880e-01f, 
1.399641457e-01f, 0.000000000e+00f, -6.298386555e-01f, 9.875248055e-01f, 1.555157174e-02f, 2.332735761e-02f, 
-4.136498067e-01f, 6.894163445e-01f, -4.878946438e-01f, -1.347013473e+00f, -1.803088901e-01f, -6.682035339e-01f, 
-1.211324333e-01f, -7.949315934e-02f, -4.807443446e-01f, -3.709680769e-01f, -1.400593760e-01f, -1.135616562e-01f, 
-1.325448925e+00f, -6.816594474e-01f, 6.059195088e-01f, 1.603162034e+00f, -6.942827705e-01f, 1.211839018e+00f, 
6.557234085e-01f, -1.850597175e+00f, -7.285815650e-01f, -3.934340451e-01f, 9.325844032e-01f, -1.602879443e-01f, 
5.909467056e-01f, 1.009533955e+00f, 1.563546492e+00f, -1.144959242e+00f, -2.708505734e-01f, 5.293897571e-01f, 
-4.658932080e-01f, 2.223581220e-01f, -2.647120500e-01f, 1.344737214e+00f, -4.764816900e-01f, 8.047246320e-01f, 
4.815924144e-01f, -3.009952590e-02f, 4.414597132e-01f, 1.274213263e+00f, 1.203981036e+00f, -1.906303307e-01f, 
3.111681342e-01f, -9.908248483e-01f, -9.580703079e-01f, 3.275454044e-02f, 1.039956659e+00f, 3.766772151e-01f, 
-2.063779731e+00f, 2.112530433e-01f, -6.500093640e-01f, 1.511271771e+00f, -5.037572571e-01f, -4.225060866e-01f, 
-7.828930924e-01f, -5.768685944e-01f, 2.616511125e+00f, 1.524581285e+00f, 1.236146988e-01f, -1.874822932e+00f, 
1.839681068e+00f, 3.331705871e-01f, 1.303710993e-01f, -1.202311249e+00f, 3.041992317e-01f, 3.041992317e-01f, 
-1.285142152e+00f, -1.927713228e-01f, 2.570284304e-01f, 2.891569842e-01f, -4.080326333e+00f, -9.638566140e-01f, 
-1.462783420e-01f, 3.030051370e-01f, -1.326953531e+00f, 5.015257440e-01f, 3.761443080e-01f, -1.044845300e-01f, 
-1.127618720e+00f, -4.336995075e-01f, 7.228325125e-01f, -1.532404926e+00f, -3.671989163e+00f, -1.358925123e+00f, 
7.072274757e-01f, 1.020657834e+00f, 8.438509653e-01f, 3.937971171e-01f, 5.625673102e-02f, 8.117042619e-01f, 
7.489768454e-01f, 3.382476076e-01f, -8.335387473e-01f, -1.208027170e-02f, 1.534194506e+00f, 2.778462491e-01f, 
2.570629680e-01f, -1.285314840e-01f, -1.208195950e+00f, 2.570629680e-02f, -3.264699694e+00f, 5.141259360e-01f, 
-1.714769190e-01f, -7.716461355e-01f, -3.629594786e+00f, 2.857948650e-02f, -4.858512705e-01f, 1.543292271e+00f, 
9.061685798e-01f, 1.038318164e-01f, 4.814020580e-01f, -1.604673527e-01f, -1.198785517e+00f, -1.699066087e-01f, 
5.010662063e-01f, 1.408402310e+00f, 1.719875897e+00f, -2.302196083e-01f, 7.989974641e-01f, 3.250159176e-01f, 
3.182759584e-01f, -1.054289112e+00f, -9.946123700e-01f, 1.989224740e-01f, -2.526315420e+00f, -3.580604532e-01f, 
-1.077320648e+00f, 9.022560427e-01f, 6.059928645e-01f, 8.349235022e-01f, -1.710246529e+00f, 1.279318270e+00f, 
6.633585300e-01f, 5.882613380e-01f, -2.565820729e-01f, 4.067764571e-01f, -5.381965432e-01f, -7.947786162e-01f, 
-1.805310976e-01f, -6.060686848e-01f, -6.447539200e-01f, 1.637674957e+00f, 9.155505664e-01f, 1.237927526e+00f, 
9.166943136e-01f, 7.844787876e-01f, -1.674729996e-01f, -4.407184200e-02f, -1.498442628e-01f, -1.119424787e+00f, 
1.493174783e+00f, 1.131669310e+00f, 1.996138921e+00f, 8.015990943e-01f, -6.915756892e-01f, 7.544462064e-01f, 
-9.144774165e-01f, 4.630265400e-02f, 1.470109265e+00f, 1.053385379e+00f, -4.282995495e-01f, 4.861778670e-01f, 
8.468827506e-01f, 4.704904170e-02f, -1.238958098e+00f, -7.057356255e-01f, 1.991742765e+00f, 1.834912626e+00f, 
-2.427584860e-02f, -6.068962150e-02f, 6.797237608e-01f, 1.541516386e+00f, -3.277239561e-01f, 6.068962150e-01f, 
7.561323478e-01f, -1.113762512e+00f, -1.297686597e+00f, 3.882841786e-01f, 5.619902585e-01f, -2.963221363e-01f, 
2.562033713e+00f, -2.178737330e+00f, -6.455518016e-01f, -2.017349380e-02f, 1.069195171e+00f, -1.109542159e+00f, 
5.071788100e-02f, -6.694760292e-01f, -4.057430480e-02f, -4.666045052e-01f, 9.129218580e-01f, 1.288234177e+00f, 
1.088246804e+00f, -2.657346846e-01f, 2.657346846e-01f, 4.681992062e-01f, 1.607062140e+00f, -3.796209780e-01f, 
4.132694114e-01f, 5.674744156e-01f, 3.392510093e-01f, 4.996242138e-01f, 7.833614216e-01f, -6.908384190e-01f, 
1.827259871e+00f, 3.884725710e-01f, 6.618421580e-01f, 1.812871998e+00f, 1.611441776e+00f, -5.611270470e-01f, 
2.408700986e+00f, -7.586459800e-01f, -6.827813820e-01f, 4.551875880e-01f, -4.172552890e-01f, -7.017475315e-01f, 
-6.844035445e-01f, 2.105857060e-02f, -5.580521209e-01f, 8.739306799e-01f, -6.528156886e-01f, 1.337219233e+00f, 
2.394911441e+00f, -3.582938376e-01f, 4.337241192e-01f, -9.051633792e-01f, 2.225193307e+00f, -1.131454224e+00f, 
1.550034644e+00f, 2.929199328e-01f, 5.126098824e-01f, 1.159474734e+00f, 5.370198768e-01f, 3.905599104e-01f, 
-1.097269106e+00f, 1.925033520e-01f, 8.662650840e-01f, 2.444792570e+00f, -2.695046928e-01f, -1.732530168e-01f, 
-6.750220715e-01f, 3.438791685e-01f, 1.222681488e+00f, 1.388252940e+00f, -6.750220715e-01f, -1.617505718e+00f, 
-3.971340292e+00f, -6.254079200e-01f, -5.315967320e-01f, 7.192191080e-01f, -3.314661976e+00f, 0.000000000e+00f, 
-1.789186597e-01f, 5.530213118e-01f, 4.066333175e-01f, -1.512675941e+00f, 2.065697253e+00f, -6.506133080e-01f, 
-5.396936491e-01f, 5.467026575e-01f, 8.901440706e-01f, -3.574594299e-01f, 7.009008430e-01f, 2.733513288e-01f, 
1.029885648e+00f, 4.934868730e-01f, 3.003833140e-01f, 1.115709452e+00f, -2.724905777e+00f, -2.145595100e-02f, 
4.073472225e-01f, 2.932900002e-01f, -2.069323890e+00f, -1.938972779e+00f, -1.303511112e-01f, -7.169311116e-01f, 
4.487600205e-01f, 9.927115605e-01f, 1.727046140e+00f, -2.039818275e-01f, 4.895563860e-01f, -2.175806160e-01f, 
1.399260670e-02f, 1.777061051e+00f, 1.077430716e+00f, 2.378743139e-01f, 1.259334603e-01f, -1.259334603e-01f, 
-1.102917933e+00f, 1.289326598e+00f, 1.972825036e+00f, -6.524303268e-01f, 8.077708808e-01f, -6.213622160e-02f, 
-7.996569313e-01f, -4.281627664e-01f, -4.722383453e-01f, -5.477964805e-01f, -5.163139241e-01f, -3.463081198e-01f, 
1.085173525e+00f, -1.432429053e+00f, 2.821451165e-01f, 6.728075855e-01f, -2.756340753e+00f, -8.681388200e-01f, 
3.470273281e-01f, -6.789665115e-01f, -1.916194377e+00f, -4.526443410e-01f, 1.689872206e+00f, 9.354649714e-01f, 
-1.816208438e-01f, 6.109064746e-01f, -6.604394320e-01f, 2.806867586e-01f, -2.096895197e+00f, 7.760163326e-01f, 
-1.026797880e+00f, 5.902066556e-01f, -2.748907711e-01f, -7.276520412e-02f, -9.297776082e-01f, 3.153158845e-01f, 
-1.109731789e+00f, 2.621413674e-01f, 1.066041561e+00f, 4.718544613e-01f, 3.495218232e-01f, -4.631164157e-01f, 
-3.723640368e-01f, 4.809702142e-01f, 1.970426361e+00f, -1.086061774e+00f, -7.757584100e-02f, -9.929707648e-01f, 
6.878623332e-01f, 1.151116558e+00f, 1.782826864e+00f, -1.165154564e+00f, -1.488028721e+00f, 1.670522809e+00f, 
-9.288747818e-01f, -1.007741509e+00f, -1.112897144e+00f, -1.840223624e-01f, -4.907262998e-01f, 8.587710247e-01f, 
-1.175684130e+00f, 1.141770165e+00f, 5.652327550e-01f, -8.026305121e-01f, -1.435691198e+00f, 1.254816716e+00f, 
};

static const float QUANT_LSTM_WEIGHT_HH[] = {
-7.089113070e-02f, 8.979543222e-01f, 4.726075380e-02f, -4.962379149e-01f, -1.677756760e+00f, 1.276040353e+00f, 3.544556535e-01f, -3.780860304e-01f, -5.434986687e-01f, -1.417822614e-01f, -4.726075380e-02f, 1.535974498e+00f, 9.215846991e-01f, 3.001057866e+00f, -5.198682918e-01f, -8.979543222e-01f, -1.654126383e+00f, -8.979543222e-01f, -2.835645228e-01f, -6.616505532e-01f, -6.852809301e-01f, -1.063366961e+00f, 2.315776936e+00f, -8.270631915e-01f, 4.253467842e-01f, -3.544556535e-01f, 9.215846991e-01f, -1.016106207e+00f, 1.654126383e-01f, -2.599341459e-01f, -1.228779599e+00f, -1.157888468e+00f, -7.561720608e-01f, -1.205149222e+00f, -6.380201763e-01f, 3.544556535e-01f, 1.299670730e+00f, -1.323301106e+00f, 5.671290456e-01f, -1.441452991e+00f, -7.089113070e-01f, 1.394192237e+00f, -8.979543222e-01f, -4.253467842e-01f, 1.039736584e+00f, 1.630496006e+00f, 4.726075380e-02f, -2.363037690e-02f, -1.157888468e+00f, -6.380201763e-01f, -5.434986687e-01f, 4.726075380e-02f, -2.363037690e-02f, 7.561720608e-01f, -6.616505532e-01f, 6.616505532e-01f, -6.380201763e-01f, -4.489771611e-01f, -1.086997337e+00f, 1.181518845e-01f, -2.126733921e-01f, -1.890430152e-01f, 1.039736584e+00f, -5.671290456e-01f, 2.363037690e-02f, -5.907594225e-01f, 1.606865629e+00f, 4.489771611e-01f, -2.599341459e-01f, -9.688454529e-01f, -1.205149222e+00f, 3.308252766e-01f, 5.671290456e-01f, -1.157888468e+00f, 0.000000000e+00f, -2.363037690e-01f, 2.126733921e-01f, -1.181518845e-01f, -6.380201763e-01f, -2.363037690e-02f, 8.506935684e-01f, 4.726075380e-02f, -9.924758298e-01f, 4.253467842e-01f, 1.725017514e+00f, -4.726075380e-01f, 1.417822614e-01f, 1.181518845e-01f, -1.086997337e+00f, -3.544556535e-01f, -7.089113070e-02f, -7.561720608e-01f, -2.126733921e-01f, -4.253467842e-01f, -2.835645228e-01f, 5.907594225e-01f, 7.089113070e-01f, 1.157888468e+00f, -2.126733921e-01f, -7.089113070e-02f, 1.890430152e-01f, 6.380201763e-01f, -3.308252766e-01f, 1.252409976e+00f, 1.701387137e+00f, 6.616505532e-01f, 7.561720608e-01f, 1.630496006e+00f, 4.726075380e-01f, -9.452150760e-01f, -9.452150760e-01f, 4.017164073e-01f, 2.268516182e+00f, -1.465083368e+00f, -1.512344122e+00f, -1.134258091e+00f, 1.417822614e-01f, 4.253467842e-01f, 1.346931483e+00f, -1.016106207e+00f, 2.126733921e-01f, -9.452150760e-02f, 4.253467842e-01f, 4.726075380e-02f, -9.452150760e-02f, -7.325416839e-01f, 4.489771611e-01f, 3.308252766e-01f, 
-1.050262214e+00f, -3.446172891e-01f, -5.415414543e-01f, 1.099493256e+00f, 2.953862478e-01f, -7.876966608e-01f, -8.533380492e-01f, -7.876966608e-01f, -1.706676098e+00f, 3.610276362e-01f, -1.050262214e+00f, 6.400035369e-01f, -2.133345123e-01f, 3.117965949e-01f, -8.697483963e-01f, 7.056449253e-01f, 2.789759007e-01f, -4.430793717e-01f, 1.197955338e+00f, 9.846208260e-01f, 6.728242311e-01f, -8.041070079e-01f, 2.789759007e-01f, 1.148724297e-01f, 3.938483304e-01f, 1.476931239e+00f, 4.923104130e-02f, 8.205173550e-01f, -8.369277021e-01f, 3.282069420e-01f, -1.066672561e+00f, -1.083082909e+00f, -1.148724297e-01f, 4.266690246e-01f, 1.476931239e-01f, -9.025690905e-01f, 3.446172891e-01f, 1.214365685e+00f, 1.969241652e-01f, -3.282069420e-01f, -2.625655536e-01f, 6.400035369e-01f, -1.936420958e+00f, -1.657445057e+00f, 6.400035369e-01f, -9.353897847e-01f, 6.892345782e-01f, 1.280007074e+00f, 2.133345123e-01f, 2.953862478e-01f, -6.564138840e-02f, -1.247186380e+00f, -1.247186380e+00f, 1.345648462e+00f, 1.050262214e+00f, -2.133345123e-01f, 5.579518014e-01f, 2.461552065e-01f, -1.148724297e-01f, -6.892345782e-01f, -1.247186380e+00f, -1.739496793e+00f, 8.369277021e-01f, 1.755907140e+00f, 1.558982975e+00f, 4.923104130e-01f, -8.205173550e-02f, -9.189794376e-01f, 9.025690905e-01f, 7.876966608e-01f, -9.682104789e-01f, 5.251311072e-01f, -3.774379833e-01f, -1.476931239e+00f, 3.938483304e-01f, 1.641034710e-01f, -2.789759007e-01f, -1.362058809e+00f, 4.923104130e-01f, -8.205173550e-01f, 5.907724956e-01f, 1.641034710e-02f, 3.117965949e-01f, -1.214365685e+00f, 5.251311072e-01f, -1.362058809e+00f, 1.641034710e-01f, -3.938483304e-01f, 1.247186380e+00f, 1.115903603e+00f, 2.789759007e-01f, 1.148724297e-01f, -1.591803669e+00f, 5.907724956e-01f, -6.071828427e-01f, 4.102586775e-01f, -3.774379833e-01f, 9.353897847e-01f, 2.789759007e-01f, -1.969241652e-01f, -2.133345123e-01f, -8.205173550e-02f, 3.117965949e-01f, -1.362058809e+00f, -1.870779569e+00f, -6.728242311e-01f, -8.041070079e-01f, -1.181544991e+00f, -2.297448594e-01f, -2.297448594e-01f, 1.148724297e+00f, 7.384656195e-01f, -2.133345123e-01f, 1.476931239e+00f, 2.133345123e-01f, -1.641034710e-02f, 4.923104130e-01f, 1.969241652e-01f, -7.056449253e-01f, -3.282069420e-02f, -3.938483304e-01f, 3.117965949e-01f, 8.205173550e-02f, 1.887189917e+00f, -2.461552065e-01f, -1.165134644e+00f, 2.084114082e+00f, 6.071828427e-01f, 
-1.013261920e+00f, 4.255700064e-01f, -9.322009664e-01f, 1.418566688e-01f, 5.471614368e-01f, -8.714052512e-01f, 5.268961984e-01f, -2.837133376e-01f, -1.823871456e+00f, -2.087319555e+00f, 2.026523840e-01f, -6.484876288e-01f, -4.053047680e-01f, 1.013261920e-01f, 5.674266752e-01f, 8.511400128e-01f, -1.195649066e+00f, -8.106095360e-02f, -1.236179542e+00f, -5.876919136e-01f, -4.863657216e-01f, -2.837133376e-01f, 1.884667171e+00f, 6.484876288e-01f, 8.106095360e-01f, -8.916704896e-01f, 6.079571520e-02f, -3.445090528e-01f, -7.498138208e-01f, -1.621219072e-01f, 2.026523840e-02f, -3.445090528e-01f, 4.053047680e-01f, -2.026523840e-02f, -4.661004832e-01f, 6.484876288e-01f, 8.308747744e-01f, 1.702280026e+00f, -1.621219072e-01f, 8.106095360e-02f, -2.026523840e-01f, -1.823871456e-01f, 3.445090528e-01f, 4.053047680e-02f, -2.026523840e-02f, 1.519892880e+00f, -9.322009664e-01f, 3.445090528e-01f, -4.661004832e-01f, 1.621219072e+00f, 7.903442976e-01f, 6.484876288e-01f, 1.114588112e+00f, 3.242438144e-01f, -1.215914304e-01f, -2.229176224e-01f, -5.471614368e-01f, 1.621219072e+00f, -4.863657216e-01f, 2.330502416e+00f, -5.876919136e-01f, -9.119357280e-01f, 4.053047680e-01f, 5.876919136e-01f, -2.472359085e+00f, -2.573685277e+00f, -1.033527158e+00f, -1.013261920e-01f, 8.714052512e-01f, 1.013261920e-01f, 6.079571520e-02f, -6.890181056e-01f, 8.308747744e-01f, -1.621219072e-01f, -7.295485824e-01f, 9.119357280e-01f, -1.175383827e+00f, -1.418566688e-01f, 1.236179542e+00f, -1.033527158e+00f, -7.903442976e-01f, 2.431828608e-01f, -4.053047680e-02f, 1.438831926e+00f, 1.175383827e+00f, -1.317240496e+00f, -2.026523840e-01f, -9.727314432e-01f, -9.929966816e-01f, -6.484876288e-01f, -8.714052512e-01f, -1.742810502e+00f, -1.479362403e+00f, -1.682014787e+00f, 5.674266752e-01f, 1.378036211e+00f, -1.215914304e-01f, 0.000000000e+00f, -1.134853350e+00f, 1.682014787e+00f, -1.013261920e-01f, 1.053792397e+00f, 8.106095360e-02f, 2.249441462e+00f, 1.033527158e+00f, 1.621219072e-01f, -1.337505734e+00f, 6.890181056e-01f, -1.013261920e-01f, 1.094322874e+00f, 4.458352448e-01f, 1.398301450e+00f, -5.066309600e-01f, -5.471614368e-01f, -2.026523840e-02f, 8.106095360e-01f, 1.823871456e-01f, -3.039785760e-01f, 4.458352448e-01f, -2.026523840e-01f, -1.236179542e+00f, -1.884667171e+00f, -1.985993363e+00f, 5.471614368e-01f, 2.087319555e+00f, -1.823871456e-01f, -1.033527158e+00f, 2.229176224e-01f, 
-5.899733888e-01f, 9.955800936e-01f, 1.290566788e+00f, 7.743400728e-01f, 4.240433732e-01f, -6.084100572e-01f, 6.821567308e-01f, 7.374667360e-02f, -1.474933472e+00f, -1.438060135e+00f, 6.452833940e-01f, 3.502966996e-01f, -6.084100572e-01f, -9.955800936e-01f, -9.402700884e-01f, 1.530243477e+00f, -9.218334200e-01f, 4.609167100e-01f, -3.318600312e-01f, -5.162267152e-01f, 2.212400208e-01f, -8.849600832e-01f, 5.715367204e-01f, -9.771434252e-01f, -1.474933472e+00f, -1.493370140e+00f, -1.014016762e+00f, 3.687333680e-01f, 7.374667360e-02f, -1.124636772e+00f, 3.134233628e-01f, -1.290566788e-01f, 1.032453430e+00f, -1.511806809e+00f, 1.696173493e+00f, -4.240433732e-01f, -2.341456887e+00f, 4.977900468e-01f, -9.402700884e-01f, 1.198383446e+00f, 1.290566788e-01f, -1.659300156e+00f, -1.954286850e+00f, -5.162267152e-01f, 1.345876793e+00f, -7.743400728e-01f, -1.309003456e+00f, 4.793533784e-01f, 9.955800936e-01f, 2.138653534e+00f, 4.424800416e-01f, -1.143073441e+00f, 6.268467256e-01f, 4.424800416e-01f, -1.309003456e+00f, 4.056067048e-01f, -8.849600832e-01f, 8.480867464e-01f, -9.218334200e-02f, -1.290566788e-01f, 5.715367204e-01f, -1.290566788e-01f, 2.028033524e-01f, 1.493370140e+00f, 5.899733888e-01f, 2.396766892e-01f, 9.033967516e-01f, 1.106200104e-01f, -7.190300676e-01f, -1.087763436e+00f, -2.028033524e-01f, -4.056067048e-01f, -1.659300156e-01f, -1.290566788e-01f, -1.843666840e-02f, -4.056067048e-01f, 1.511806809e+00f, -4.424800416e-01f, -1.898976845e+00f, -1.843666840e-02f, -2.765500260e-01f, -1.087763436e+00f, 1.456496804e+00f, 2.765500260e-01f, -1.382750130e+00f, -1.806793503e+00f, -4.056067048e-01f, 3.871700364e-01f, -1.290566788e-01f, 2.396766892e-01f, -1.696173493e+00f, 2.581133576e-01f, 9.218334200e-01f, -3.134233628e-01f, -7.005933992e-01f, -4.424800416e-01f, 2.028033524e-01f, -1.106200104e+00f, 1.050890099e+00f, -1.659300156e+00f, 6.821567308e-01f, 1.235256783e+00f, -9.218334200e-01f, 6.637200624e-01f, 8.665234148e-01f, -8.665234148e-01f, 1.843666840e-01f, 5.899733888e-01f, -1.216820114e+00f, -6.821567308e-01f, 5.899733888e-01f, -1.216820114e+00f, -4.609167100e-01f, 9.033967516e-01f, 1.216820114e+00f, 6.084100572e-01f, 5.715367204e-01f, 1.087763436e+00f, 7.374667360e-01f, 3.134233628e-01f, 9.218334200e-02f, -5.899733888e-01f, -1.843666840e-02f, -1.640863488e+00f, 1.567116814e+00f, -3.871700364e-01f, -2.083343529e+00f, 3.687333680e-01f, 
7.928904399e-01f, -1.077517777e+00f, 1.626441928e-01f, -2.236357651e-01f, 7.522293917e-01f, -2.033052410e-02f, -6.505767712e-01f, 4.879325784e-01f, 2.236357651e-01f, 5.692546748e-01f, 2.642968133e-01f, 1.219831446e+00f, -7.725599158e-01f, -5.082631025e-01f, -8.132209640e-02f, 2.033052410e-02f, 6.912378194e-01f, 6.709072953e-01f, 1.199500922e+00f, 6.099157230e-01f, 1.138509350e+00f, -2.033052410e-02f, -1.036856729e+00f, 5.082631025e-01f, 1.240161970e+00f, 6.505767712e-01f, 4.879325784e-01f, 5.082631025e-01f, -1.077517777e+00f, -1.077517777e+00f, -1.423136687e-01f, 8.538820122e-01f, -1.057187253e+00f, -6.099157230e-01f, 2.439662892e-01f, -1.057187253e+00f, 1.728094549e+00f, -1.890738741e+00f, 6.099157230e-01f, 3.659494338e-01f, 4.066104820e-01f, -7.928904399e-01f, -7.725599158e-01f, 8.132209640e-02f, 5.489241507e-01f, -4.066104820e-02f, 4.676020543e-01f, 1.057187253e+00f, -1.606111404e+00f, 2.439662892e-01f, 6.099157230e-01f, -4.066104820e-01f, -8.335514881e-01f, 1.667102976e+00f, 6.709072953e-01f, 3.456189097e-01f, 2.175366079e+00f, -3.049578615e-01f, 2.236357651e-01f, 4.066104820e-02f, 8.335514881e-01f, -9.148735845e-01f, -1.036856729e+00f, 7.522293917e-01f, -9.352041086e-01f, 5.082631025e-01f, 5.692546748e-01f, -9.555346327e-01f, 8.945430604e-01f, -2.541315513e+00f, -7.115683435e-01f, 1.321484067e+00f, 5.489241507e-01f, 6.505767712e-01f, 5.895851989e-01f, -9.352041086e-01f, -6.912378194e-01f, -6.099157230e-01f, -3.659494338e-01f, 5.692546748e-01f, -2.581976561e+00f, -2.236357651e-01f, -1.138509350e+00f, -1.626441928e-01f, -1.362145115e+00f, -3.659494338e-01f, 1.097848301e+00f, -1.362145115e+00f, -1.524789308e+00f, -4.472715302e-01f, -3.456189097e-01f, -3.862799579e-01f, -1.626441928e-01f, -8.538820122e-01f, 1.179170398e+00f, 4.879325784e-01f, -2.033052410e-02f, 6.709072953e-01f, 1.585780880e+00f, -1.667102976e+00f, 3.862799579e-01f, -1.362145115e+00f, 8.132209640e-02f, -8.742125363e-01f, -6.505767712e-01f, 9.961956809e-01f, 3.252883856e-01f, -6.912378194e-01f, -1.768755597e+00f, 5.082631025e-01f, 1.423136687e-01f, -1.138509350e+00f, -6.099157230e-02f, 7.522293917e-01f, 8.742125363e-01f, -6.709072953e-01f, -7.115683435e-01f, 1.504458783e+00f, 2.033052410e-01f, 6.099157230e-01f, 6.709072953e-01f, 6.302462471e-01f, 9.352041086e-01f, -9.758651568e-01f, -1.321484067e+00f, -8.945430604e-01f, 2.439662892e-01f, -3.659494338e-01f, 
2.713312489e-01f, -2.394099255e-01f, 7.182297765e-01f, 1.037443011e+00f, -2.713312489e-01f, 0.000000000e+00f, -1.117246319e+00f, -5.267018361e-01f, -1.627987493e+00f, 7.980330850e-02f, -3.351738957e-01f, 1.452420215e+00f, -6.703477914e-01f, -4.947805127e-01f, 4.947805127e-01f, -1.165128304e+00f, 5.267018361e-01f, 2.027004036e+00f, 1.005521687e+00f, 6.224658063e-01f, 1.149167642e+00f, -1.532223523e+00f, 3.670952191e-01f, 1.101285657e+00f, 1.037443011e+00f, -1.643948155e+00f, 1.117246319e+00f, -6.384264680e-02f, 2.394099255e-01f, -1.627987493e+00f, 1.915279404e-01f, 4.468985276e-01f, 5.267018361e-01f, 1.356656244e+00f, -1.005521687e+00f, -2.553705872e-01f, -3.830558808e-01f, -1.276852936e-01f, -8.139937467e-01f, -6.703477914e-01f, 5.107411744e-01f, -1.213010289e+00f, -1.612026832e+00f, -4.468985276e-01f, 1.771633449e+00f, -7.341904382e-01f, 1.117246319e-01f, 7.980330850e-01f, 5.426624978e-01f, 7.501510999e-01f, -6.703477914e-01f, -1.340695583e+00f, 9.416790403e-01f, 1.771633449e+00f, 7.661117616e-01f, 7.182297765e-01f, -4.947805127e-01f, 3.192132340e-02f, 6.224658063e-01f, 3.990165425e-01f, -1.149167642e+00f, -1.228970951e+00f, -5.745838212e-01f, 1.819515434e+00f, -2.872919106e-01f, 4.947805127e-01f, 6.543871297e-01f, -1.197049627e+00f, 5.107411744e-01f, 1.101285657e+00f, 2.394099255e-01f, -6.384264680e-01f, -7.980330850e-02f, -7.980330850e-01f, 5.267018361e-01f, -1.596066170e-01f, -4.947805127e-01f, -1.213010289e+00f, 5.107411744e-01f, 5.426624978e-01f, 8.139937467e-01f, -1.707790802e+00f, -7.980330850e-02f, 1.021482349e+00f, 4.149772042e-01f, -1.404538230e+00f, 7.980330850e-01f, -3.830558808e-01f, -2.074886021e-01f, 7.182297765e-01f, -1.851436757e+00f, 1.436459553e-01f, 5.905444829e-01f, -4.788198510e-01f, -1.149167642e+00f, 1.244931613e+00f, -2.872919106e-01f, 4.309378659e-01f, 1.021482349e+00f, -1.915279404e+00f, -7.182297765e-01f, -2.234492638e-01f, 5.426624978e-01f, -2.234492638e-01f, 7.501510999e-01f, -3.192132340e-01f, 9.576397020e-01f, 3.192132340e-01f, 4.788198510e-01f, -1.659908817e+00f, 8.139937467e-01f, -5.745838212e-01f, -7.341904382e-01f, 9.895610254e-01f, -9.895610254e-01f, 1.356656244e+00f, 1.452420215e+00f, -8.937970552e-01f, -4.468985276e-01f, -8.139937467e-01f, 3.670952191e-01f, -9.097577169e-01f, -4.947805127e-01f, 1.436459553e-01f, 7.022691148e-01f, -5.586231595e-01f, 1.053403672e+00f, 7.501510999e-01f, 
-1.214564246e+00f, -2.649958356e-01f, -3.533277808e-01f, -4.637427123e-01f, -2.451211479e+00f, 9.716513972e-01f, -1.126232301e+00f, 3.091618082e-01f, -3.091618082e-01f, 5.299916712e-01f, 0.000000000e+00f, 1.479560082e+00f, -7.066555616e-01f, -1.037900356e+00f, 4.637427123e-01f, -6.183236164e-01f, -8.833194520e-01f, 9.495684109e-01f, 5.962406301e-01f, -1.567892027e+00f, -3.974937534e-01f, -6.404066027e-01f, 1.258730219e+00f, -3.754107671e-01f, 4.195767397e-01f, -2.429128493e-01f, -4.195767397e-01f, -1.479560082e+00f, -1.324979178e+00f, -4.416597260e-02f, 1.766638904e-01f, 5.741576438e-01f, -6.183236164e-01f, -4.195767397e-01f, -4.195767397e-01f, -1.987468767e-01f, 4.858256986e-01f, -1.501643068e+00f, -1.104149315e+00f, -1.258730219e+00f, -1.236647233e+00f, 1.015817370e+00f, 6.404066027e-01f, 9.937343835e-01f, 1.104149315e+00f, -3.312447945e-01f, 1.899136822e+00f, -3.312447945e-01f, 0.000000000e+00f, -9.937343835e-01f, 1.634140986e+00f, 3.312447945e-01f, -4.416597260e-02f, 5.962406301e-01f, 4.416597260e-02f, 7.508215342e-01f, -1.258730219e+00f, 5.079086849e-01f, -5.962406301e-01f, -5.741576438e-01f, 4.195767397e-01f, -6.183236164e-01f, -1.501643068e+00f, -2.208298630e-01f, -1.347062164e+00f, -1.324979178e-01f, -3.754107671e-01f, 1.766638904e-01f, -2.649958356e-01f, -6.624895890e-01f, -3.754107671e-01f, 5.079086849e-01f, 3.091618082e-01f, -8.612364657e-01f, -4.416597260e-01f, 0.000000000e+00f, -9.054024383e-01f, 7.287385479e-01f, 4.858256986e-01f, 2.649958356e-01f, -3.091618082e-01f, -2.208298630e-01f, -9.495684109e-01f, 5.741576438e-01f, 9.054024383e-01f, -1.766638904e-01f, 1.479560082e+00f, 9.054024383e-01f, -5.520746575e-01f, -2.208298630e-01f, -8.833194520e-02f, 4.416597260e-02f, 5.520746575e-01f, -5.520746575e-01f, -1.832887863e+00f, 1.324979178e+00f, 1.170398274e+00f, -5.299916712e-01f, -4.416597260e-01f, 3.974937534e-01f, 1.987468767e-01f, -5.299916712e-01f, -1.280813205e+00f, -1.059983342e+00f, 1.545809041e-01f, -7.508215342e-01f, -1.214564246e+00f, 1.126232301e+00f, -5.299916712e-01f, -6.845725753e-01f, -7.287385479e-01f, 3.091618082e-01f, 2.031634740e+00f, -2.804539260e+00f, -3.974937534e-01f, 1.192481260e+00f, -1.214564246e+00f, -5.079086849e-01f, 2.649958356e-01f, -5.962406301e-01f, -1.015817370e+00f, -3.974937534e-01f, -7.066555616e-01f, 1.126232301e+00f, 1.082066329e+00f, -1.126232301e+00f, -3.091618082e-01f, -4.858256986e-01f, 
-8.448871992e-01f, 1.228926835e+00f, -2.201827246e+00f, 4.864502056e-01f, -1.126516266e+00f, -7.936819144e-01f, 1.433747974e+00f, -9.985030536e-01f, -1.024105696e-01f, -3.840396360e-01f, -3.072317088e-01f, 1.075310981e+00f, 9.216951264e-01f, 9.729004112e-01f, -9.729004112e-01f, 2.048211392e-01f, 3.584369936e-01f, 1.254529478e+00f, 7.168739872e-01f, -1.433747974e+00f, -5.120528480e-01f, 4.352449208e-01f, 7.936819144e-01f, -1.305734762e+00f, 1.792184968e-01f, -9.216951264e-01f, 2.304237816e-01f, -1.280132120e+00f, 5.120528480e-02f, -1.536158544e-01f, -5.632581328e-01f, 1.792184968e-01f, -8.960924840e-01f, -5.888607752e-01f, 2.125019319e+00f, -3.584369936e-01f, -4.608475632e-01f, -2.048211392e-01f, -1.228926835e+00f, 1.305734762e+00f, -2.560264240e-02f, -5.120528480e-01f, 5.376554904e-01f, 5.888607752e-01f, 7.424766296e-01f, 1.740979683e+00f, -1.024105696e-01f, -2.560264240e-01f, -1.254529478e+00f, -5.888607752e-01f, -8.448871992e-01f, -3.840396360e-01f, -4.864502056e-01f, -8.704898416e-01f, -7.936819144e-01f, -1.075310981e+00f, 1.024105696e-01f, 7.680792720e-01f, 1.100913623e+00f, 7.680792720e-02f, 7.680792720e-02f, -7.936819144e-01f, -2.048211392e-01f, -1.100913623e+00f, 2.278635174e+00f, 7.680792720e-01f, -2.560264240e-01f, 7.680792720e-01f, -7.168739872e-01f, -2.560264240e-02f, 1.612966471e+00f, 1.382542690e+00f, -1.382542690e+00f, -2.560264240e-01f, -7.680792720e-02f, -1.740979683e+00f, 7.680792720e-01f, 7.168739872e-01f, 1.382542690e+00f, -8.704898416e-01f, 2.048211392e-01f, -7.936819144e-01f, 0.000000000e+00f, 7.680792720e-01f, 4.352449208e-01f, -1.433747974e+00f, -1.792184968e-01f, 1.868992895e+00f, -1.024105696e-01f, 1.382542690e+00f, -1.459350617e+00f, 6.144634176e-01f, 6.400660600e-01f, -8.960924840e-01f, -1.536158544e-01f, 5.120528480e-02f, -1.177721550e+00f, -1.280132120e+00f, -6.912713448e-01f, -7.168739872e-01f, -1.203324193e+00f, -6.144634176e-01f, 4.096422784e-01f, -1.766582326e+00f, 0.000000000e+00f, -8.704898416e-01f, -2.304237816e-01f, -2.278635174e+00f, -2.278635174e+00f, -3.328343512e-01f, 4.864502056e-01f, -3.584369936e-01f, 2.739482737e+00f, 1.177721550e+00f, 1.792184968e-01f, -9.216951264e-01f, -1.100913623e+00f, -1.228926835e+00f, 7.936819144e-01f, -1.254529478e+00f, -2.560264240e-01f, -1.664171756e+00f, -6.144634176e-01f, -6.400660600e-01f, 9.216951264e-01f, -3.251535585e+00f, -2.560264240e-02f, 2.816290664e-01f, 
-3.781219374e-01f, 1.333377358e+00f, -5.970346380e-01f, 1.990115460e-02f, 9.154531116e-01f, -2.189127006e-01f, 3.582207828e-01f, 3.980230920e-02f, -1.592092368e-01f, -1.154266967e+00f, -1.313476204e+00f, -9.353542662e-01f, -1.393080822e+00f, 1.412981977e+00f, -2.587150098e-01f, -1.492586595e+00f, -3.184184736e-01f, -4.577265558e-01f, 1.592092368e-01f, 2.268731624e+00f, 1.532388904e+00f, 2.388138552e-01f, -1.592092368e-01f, 2.786161644e-01f, -1.791103914e-01f, 4.975288650e-01f, 4.776277104e-01f, -1.432883131e+00f, 6.965404110e-01f, -7.363427202e-01f, 5.373311742e-01f, 2.786161644e-01f, 1.194069276e-01f, 1.054761194e+00f, 0.000000000e+00f, 7.363427202e-01f, -1.651795832e+00f, 7.363427202e-01f, -1.373179667e+00f, 4.577265558e-01f, -3.383196282e-01f, 6.368369472e-01f, 7.960461840e-01f, -1.373179667e+00f, -9.950577300e-01f, -1.552290059e+00f, -1.353278513e+00f, -4.179242466e-01f, 8.756508024e-01f, -6.567381018e-01f, 1.114464658e+00f, -2.348336243e+00f, -3.383196282e-01f, -9.950577300e-02f, 6.567381018e-01f, 0.000000000e+00f, 8.358484932e-01f, 8.955519570e-01f, -1.034860039e+00f, -2.587150098e-01f, 1.592092368e-01f, -2.189127006e-01f, -7.164415656e-01f, -5.174300196e-01f, 1.194069276e-01f, 4.776277104e-01f, 1.990115460e-01f, 7.164415656e-01f, 4.179242466e-01f, 3.582207828e-01f, -3.582207828e-01f, 7.164415656e-01f, 5.771334834e-01f, 1.134365812e+00f, -7.960461840e-02f, -9.154531116e-01f, 7.363427202e-01f, -1.054761194e+00f, 2.189127006e-01f, 1.014958885e+00f, 3.980230920e-01f, -3.184184736e-01f, 3.980230920e-02f, 5.771334834e-01f, -1.393080822e-01f, 1.253772740e+00f, -2.527446634e+00f, 6.567381018e-01f, 1.114464658e+00f, 3.582207828e-01f, -1.990115460e-01f, -8.159473386e-01f, -2.388138552e-01f, -2.308533934e+00f, 4.776277104e-01f, 3.184184736e-01f, 1.811005069e+00f, -6.567381018e-01f, -1.154266967e+00f, 2.985173190e-01f, -8.557496478e-01f, 5.572323288e-01f, 1.592092368e-01f, -1.711499296e+00f, -1.393080822e-01f, 5.771334834e-01f, 2.786161644e-01f, -5.970346380e-02f, -3.781219374e-01f, 1.114464658e+00f, 7.562438748e-01f, -2.467743170e+00f, -6.965404110e-01f, 1.194069276e+00f, -1.771202759e+00f, 4.179242466e-01f, 1.213970431e+00f, 9.154531116e-01f, 2.189127006e-01f, -2.786161644e-01f, -1.353278513e+00f, 2.089621233e+00f, -1.194069276e-01f, -9.751565754e-01f, 1.293575049e+00f, -2.089621233e+00f, 1.791103914e-01f, 1.791103914e-01f, 
5.702542992e-01f, 2.534463552e-01f, -1.203870187e+00f, -8.448211840e-02f, 2.534463552e-01f, 1.119388069e+00f, -1.246111246e+00f, -3.379284736e-01f, -7.392185360e-01f, -5.913748288e-01f, -6.124953584e-01f, -3.801695328e-01f, 4.435311216e-01f, -1.900847664e-01f, -1.013785421e+00f, 1.182749658e+00f, 5.280132400e-01f, -1.584039720e+00f, 2.745668848e-01f, -7.392185360e-01f, -1.013785421e+00f, 3.801695328e-01f, -6.124953584e-01f, -2.745668848e-01f, -1.161629128e+00f, 1.478437072e-01f, -1.478437072e+00f, -1.457316542e+00f, 5.280132400e-01f, 8.448211840e-02f, -2.112052960e-01f, -1.351713894e+00f, 2.956874144e-01f, -2.217655608e+00f, 1.393954954e+00f, -4.224105920e-02f, -2.534463552e-01f, 1.626280779e+00f, -1.372834424e+00f, 1.837486075e+00f, -2.956874144e-01f, 0.000000000e+00f, 1.119388069e+00f, 2.534463552e-01f, -7.603390656e-01f, -1.224990717e+00f, 4.012900624e-01f, 1.267231776e+00f, 6.336158880e-02f, 7.814595952e-01f, 2.112052960e-02f, -1.393954954e+00f, 6.336158880e-02f, -2.745668848e-01f, 2.534463552e-01f, -1.056026480e+00f, 1.900847664e-01f, 1.203870187e+00f, 6.336158880e-02f, -1.689642368e+00f, -5.068927104e-01f, -9.293033024e-01f, -2.133173490e+00f, 1.056026480e+00f, -1.034905950e+00f, 3.801695328e-01f, -1.077147010e+00f, 1.267231776e-01f, -7.603390656e-01f, -2.745668848e-01f, 1.436196013e+00f, 1.077147010e+00f, -1.203870187e+00f, 4.646516512e-01f, 1.351713894e+00f, -1.288352306e+00f, 7.180980064e-01f, 1.267231776e-01f, -9.926648912e-01f, -9.293033024e-01f, -6.758569472e-01f, 8.870622432e-01f, 3.801695328e-01f, 6.547364176e-01f, 1.689642368e-01f, -9.926648912e-01f, -2.048691371e+00f, 8.659417136e-01f, -5.702542992e-01f, -1.056026480e-01f, -2.112052960e-01f, 8.237006544e-01f, 7.814595952e-01f, 3.590490032e-01f, 9.081827728e-01f, 9.293033024e-01f, 1.372834424e+00f, -4.435311216e-01f, -1.267231776e-01f, -1.119388069e+00f, -4.857721808e-01f, -2.956874144e-01f, 2.112052960e-01f, 5.491337696e-01f, 1.267231776e+00f, 1.330593365e+00f, 2.534463552e-01f, 2.112052960e-01f, 1.689642368e+00f, -1.415075483e+00f, 7.603390656e-01f, -3.168079440e-01f, 1.182749658e+00f, -2.112052960e-01f, 9.081827728e-01f, -8.659417136e-01f, -1.415075483e+00f, -5.913748288e-01f, 6.547364176e-01f, -2.956874144e-01f, 7.603390656e-01f, -2.513343022e+00f, 5.491337696e-01f, -2.154294019e+00f, 1.056026480e+00f, -3.379284736e-01f, -2.682307259e+00f, -1.140508598e+00f, 
-1.104880357e+00f, 3.766637580e-01f, -3.013310064e-01f, -5.022183440e-02f, 3.264419236e-01f, -1.657320535e+00f, 4.771074268e-01f, 1.155102191e+00f, 3.013310064e-01f, -7.031056816e-01f, 2.762200892e-01f, 2.008873376e-01f, -1.757764204e-01f, 1.079769440e+00f, -8.788821020e-01f, 1.155102191e+00f, 1.255545860e-01f, -4.519965096e-01f, -7.031056816e-01f, 7.784384332e-01f, -2.259982548e-01f, -1.255545860e+00f, 1.004436688e-01f, 1.632209618e+00f, -1.632209618e+00f, -3.515528408e-01f, 7.533275160e-01f, 3.264419236e-01f, 4.771074268e-01f, -8.788821020e-01f, 1.004436688e-01f, -2.762200892e-01f, 2.008873376e-01f, 8.788821020e-01f, -7.031056816e-01f, -3.766637580e-01f, 7.031056816e-01f, 3.515528408e-01f, -7.031056816e-01f, -4.771074268e-01f, -1.004436688e+00f, 8.286602676e-01f, 3.766637580e-01f, -5.775510956e-01f, -3.766637580e-01f, 0.000000000e+00f, -3.515528408e-01f, 1.607098701e+00f, 2.511091720e-01f, -2.008873376e-01f, -2.511091720e-02f, 4.268855924e-01f, -9.291039364e-01f, -2.511091720e-02f, -4.771074268e-01f, 1.129991274e+00f, -4.268855924e-01f, -1.104880357e+00f, 3.515528408e-01f, 2.259982548e-01f, -6.277729300e-01f, 4.268855924e-01f, 1.933540624e+00f, -6.779947644e-01f, 9.039930192e-01f, 3.515528408e-01f, 6.528838472e-01f, 7.784384332e-01f, 1.230434943e+00f, 2.209760714e+00f, -3.189086484e+00f, -8.035493504e-01f, -1.757764204e-01f, -4.519965096e-01f, -1.381100446e+00f, 2.536202637e+00f, 1.782875121e+00f, -2.511091720e-01f, 1.456433198e+00f, 1.255545860e-01f, 1.155102191e+00f, 3.766637580e-01f, 1.255545860e-01f, -2.561313554e+00f, -3.515528408e-01f, -2.762200892e-01f, 2.511091720e-02f, -8.537711848e-01f, 1.129991274e+00f, 6.026620128e-01f, 9.291039364e-01f, 2.511091720e-02f, -4.519965096e-01f, -5.022183440e-02f, -7.533275160e-01f, -6.026620128e-01f, -2.511091720e-02f, -5.273292612e-01f, 4.519965096e-01f, -2.762200892e-01f, -1.833096956e+00f, -1.155102191e+00f, 0.000000000e+00f, -5.022183440e-02f, 3.013310064e-01f, -1.506655032e-01f, -2.511091720e+00f, -8.035493504e-01f, -4.519965096e-01f, 5.273292612e-01f, 4.519965096e-01f, -4.771074268e-01f, -3.766637580e-01f, -3.766637580e-01f, 2.008873376e-01f, -2.259982548e-01f, -5.775510956e-01f, -1.129991274e+00f, 1.029547605e+00f, -9.291039364e-01f, 1.230434943e+00f, 6.026620128e-01f, -1.381100446e+00f, 1.757764204e+00f, -1.381100446e+00f, 5.022183440e-01f, -1.255545860e-01f, -4.771074268e-01f, 
-3.804858666e-01f, 4.016239703e-01f, 6.341431110e-02f, -1.627633985e+00f, -2.325191407e-01f, -7.186955258e-01f, 3.593477629e-01f, 1.669910192e+00f, 1.141457600e+00f, -1.183733807e+00f, -4.861763851e-01f, -1.691048296e+00f, 1.268286222e+00f, -1.183733807e+00f, 4.227620740e-01f, -6.341431110e-02f, 3.170715555e-01f, -1.691048296e-01f, 2.113810370e-01f, 1.099181392e+00f, -1.479667259e-01f, 8.243860443e-01f, -1.479667259e+00f, 7.821098369e-01f, -4.227620740e-01f, 1.479667259e+00f, -2.240638992e+00f, -2.747953481e-01f, 2.008119852e+00f, -1.035767081e+00f, 1.691048296e-01f, 2.071534163e+00f, 2.134948474e+00f, 1.691048296e-01f, -5.495906962e-01f, 1.268286222e-01f, -6.552812147e-01f, 4.227620740e-01f, 1.691048296e-01f, 1.479667259e-01f, -2.536572444e-01f, -9.723527702e-01f, -1.606495881e+00f, 1.373976741e+00f, -3.593477629e-01f, 4.227620740e-01f, -5.707287999e-01f, 0.000000000e+00f, 1.902429333e-01f, 1.289424326e+00f, -8.666622517e-01f, 2.325191407e-01f, 4.439001777e-01f, -9.300765628e-01f, -1.226010015e+00f, 2.536572444e-01f, 4.227620740e-01f, -4.439001777e-01f, 1.521943466e+00f, -9.934908739e-01f, 1.078043289e+00f, -1.289424326e+00f, 1.416252948e+00f, -2.747953481e-01f, -2.684539170e+00f, 1.860153126e+00f, 1.479667259e-01f, -3.804858666e-01f, 1.268286222e-01f, 1.691048296e-01f, -7.609717332e-01f, -5.707287999e-01f, 1.056905185e-01f, -1.944705540e+00f, -1.775600711e+00f, -8.455241480e-01f, 1.226010015e+00f, -1.183733807e+00f, 2.747953481e-01f, 1.902429333e-01f, -9.089384591e-01f, -2.663401066e+00f, 1.078043289e+00f, -1.627633985e+00f, -8.032479406e-01f, 6.552812147e-01f, 9.300765628e-01f, 2.113810370e-01f, -9.512146665e-01f, -2.747953481e-01f, -1.543081570e+00f, 6.341431110e-02f, 8.455241480e-02f, -5.707287999e-01f, -7.609717332e-01f, -8.243860443e-01f, 6.764193184e-01f, 1.056905185e-01f, -4.861763851e-01f, -8.455241480e-01f, 8.243860443e-01f, 1.564219674e+00f, -4.439001777e-01f, 3.593477629e-01f, -4.439001777e-01f, -3.593477629e-01f, -1.521943466e+00f, -2.557710548e+00f, -2.156086577e+00f, 1.078043289e+00f, -8.455241480e-01f, -1.775600711e+00f, -9.089384591e-01f, -5.284525925e-01f, 5.495906962e-01f, 2.959334518e-01f, 5.284525925e-01f, -8.455241480e-01f, -6.341431110e-02f, -6.130050073e-01f, 1.056905185e-01f, 2.747953481e-01f, -9.512146665e-01f, -2.113810370e+00f, 9.723527702e-01f, 1.691048296e+00f, -2.113810370e-02f, 8.455241480e-01f, 
-2.123909319e+00f, 1.363978462e-01f, -3.312519122e-01f, 4.676497584e-01f, -1.656259561e+00f, 6.819892310e-01f, 7.209600442e-01f, -6.819892310e-01f, -8.963287036e-01f, -9.352995168e-01f, -1.558832528e-01f, 5.845621980e-02f, 1.032726550e+00f, 0.000000000e+00f, 5.261059782e-01f, -1.227580616e+00f, -4.676497584e-01f, -8.378724838e-01f, -2.143394726e-01f, -1.208095209e+00f, 5.261059782e-01f, 5.066205716e-01f, 9.352995168e-01f, 0.000000000e+00f, -8.768432970e-01f, -2.338248792e-01f, 1.208095209e+00f, 4.676497584e-01f, -1.286036836e+00f, -1.987511473e+00f, -7.404454508e-01f, -9.742703300e-02f, -2.162880133e+00f, -7.599308574e-01f, -1.363978462e+00f, -1.948540660e-01f, 1.480890902e+00f, 1.812142814e+00f, -6.819892310e-01f, -1.071697363e+00f, -2.240821759e+00f, 6.625038244e-01f, 1.773172001e+00f, 4.481643518e-01f, 7.794162640e-01f, -9.158141102e-01f, 1.422434682e+00f, -1.558832528e+00f, -8.378724838e-01f, 1.071697363e+00f, 1.110668176e+00f, -3.117665056e-01f, 7.794162640e-01f, 1.247066022e+00f, 7.794162640e-02f, -1.909569847e+00f, -2.338248792e+00f, 1.558832528e-01f, -1.987511473e+00f, -4.091935386e-01f, -7.209600442e-01f, -2.143394726e-01f, -7.404454508e-01f, -1.169124396e+00f, 1.110668176e+00f, -5.650767914e-01f, 2.474646638e+00f, 0.000000000e+00f, -1.422434682e+00f, 4.676497584e-01f, -6.235330112e-01f, -2.143394726e-01f, 1.422434682e+00f, 7.014746376e-01f, -1.363978462e-01f, 1.383463869e+00f, 7.794162640e-02f, 3.312519122e-01f, 8.573578904e-01f, 5.066205716e-01f, -1.266551429e+00f, -8.183870772e-01f, -2.026482286e+00f, 7.014746376e-01f, 1.948540660e+00f, -1.383463869e+00f, 2.727956924e-01f, 8.378724838e-01f, -4.286789452e-01f, -1.753686594e+00f, -3.507373188e-01f, -9.937557366e-01f, -1.227580616e+00f, 2.533102858e-01f, 1.188609803e+00f, 6.235330112e-01f, 6.625038244e-01f, -1.480890902e+00f, -1.071697363e+00f, 7.404454508e-01f, -1.948540660e-01f, 2.533102858e-01f, 1.948540660e-01f, -1.013241143e+00f, 3.117665056e-01f, 4.871351650e-01f, 1.987511473e+00f, 4.676497584e-01f, 3.897081320e-01f, -2.727956924e-01f, -1.344493055e+00f, 1.363978462e+00f, 1.110668176e+00f, 3.312519122e-01f, -1.402949275e+00f, 1.773172001e+00f, 1.558832528e-01f, -7.794162640e-02f, 4.091935386e-01f, 4.871351650e-01f, -2.338248792e-01f, -8.768432970e-01f, 5.845621980e-01f, 9.742703300e-02f, -4.871351650e-01f, -1.500376308e+00f, 0.000000000e+00f, -3.117665056e-01f, 
-1.145039039e+00f, -1.022356285e-01f, -7.360965252e-01f, -1.860688439e+00f, -1.533534428e+00f, -2.044712570e-02f, 8.587792794e-01f, 8.178850280e-02f, -7.565436509e-01f, 8.996735308e-01f, -3.680482626e-01f, 3.476011369e-01f, -4.089425140e-02f, 3.680482626e-01f, -1.226827542e+00f, 1.022356285e-01f, -3.067068855e-01f, 1.165486165e+00f, 3.884953883e-01f, -1.492640176e+00f, 4.089425140e-01f, -1.083697662e+00f, 1.410851673e+00f, -3.067068855e-01f, -1.553981553e+00f, -1.145039039e+00f, 1.533534428e+00f, 5.520723939e-01f, -2.044712570e-02f, 6.747551481e-01f, -2.290078078e+00f, 0.000000000e+00f, 0.000000000e+00f, 3.884953883e-01f, 4.089425140e-01f, 1.369957422e+00f, 2.249183827e-01f, -7.360965252e-01f, 7.974379023e-01f, -7.769907766e-01f, 4.907310168e-01f, -1.022356285e-01f, 1.533534428e+00f, -1.349510296e+00f, 5.725195196e-01f, -7.769907766e-01f, -7.360965252e-01f, -1.267721793e+00f, 4.293896397e-01f, 4.498367654e-01f, 2.085606821e+00f, -2.862597598e-01f, -1.962924067e+00f, 2.658126341e-01f, 2.453655084e-01f, 6.543080224e-01f, -3.067068855e-01f, -5.725195196e-01f, 3.067068855e-01f, -2.862597598e-01f, 9.201206565e-01f, 1.840241313e-01f, -1.226827542e+00f, -7.769907766e-01f, -5.725195196e-01f, 2.249183827e-01f, -1.840241313e-01f, 4.907310168e-01f, 1.329063171e+00f, 2.249183827e-01f, 5.111781425e-01f, 3.680482626e-01f, -2.044712570e-02f, 1.063250536e+00f, -1.840241313e+00f, 1.738005684e+00f, 6.134137710e-01f, 7.360965252e-01f, -1.533534428e+00f, -7.360965252e-01f, 3.476011369e-01f, -5.316252682e-01f, -1.451745925e+00f, 0.000000000e+00f, 1.042803411e+00f, -1.226827542e-01f, -9.201206565e-01f, -2.494549335e+00f, 1.226827542e-01f, -5.520723939e-01f, -8.383321537e-01f, -5.111781425e-01f, 2.228736701e+00f, -2.596784964e+00f, -2.658126341e-01f, -1.247274668e+00f, 1.042803411e+00f, 1.001909159e+00f, -1.635770056e-01f, 7.156493995e-01f, 8.383321537e-01f, -2.249183827e-01f, -2.453655084e-01f, -8.178850280e-01f, 1.185933291e+00f, -9.405677822e-01f, -1.001909159e+00f, 2.474102210e+00f, 2.658126341e-01f, 6.543080224e-01f, -2.187842450e+00f, 1.349510296e+00f, 6.747551481e-01f, -2.453655084e-01f, 7.769907766e-01f, -1.226827542e-01f, -1.594875805e+00f, -3.884953883e-01f, 1.185933291e+00f, -4.498367654e-01f, -8.178850280e-02f, -5.316252682e-01f, 6.952022738e-01f, 6.543080224e-01f, -7.769907766e-01f, -1.635770056e-01f, 4.089425140e-01f, 1.042803411e+00f, 
-5.729233380e-01f, -1.404586248e+00f, 1.922065392e+00f, -7.947001140e-01f, -1.127365278e+00f, -3.511465620e-01f, 8.686257060e-01f, 8.131815120e-01f, 1.367623452e+00f, 1.866621198e+00f, 1.367623452e+00f, 8.686257060e-01f, -2.402581740e-01f, 1.293697860e-01f, 9.055885020e-01f, -1.404586248e+00f, -5.544419400e-02f, 1.164328074e+00f, -1.663325820e+00f, -4.989977460e-01f, -4.805163480e-01f, 8.316629100e-01f, 5.729233380e-01f, -1.848139800e-01f, 3.511465620e-01f, -1.090402482e+00f, 1.164328074e+00f, 2.587395720e-01f, 3.696279600e-01f, 2.032953780e-01f, -9.425512980e-01f, 2.217767760e-01f, -2.587395720e-01f, 7.392559200e-01f, -7.577373180e-01f, 1.034958288e+00f, 1.090402482e+00f, -3.881093580e-01f, -7.577373180e-01f, 9.240699000e-02f, 1.848139800e-01f, 1.127365278e+00f, 1.423067646e+00f, -1.681807218e+00f, -1.367623452e+00f, -6.653303280e-01f, -1.811177004e+00f, 4.065907560e-01f, 3.141837660e-01f, -9.240699000e-01f, 2.347137546e+00f, 1.201290870e+00f, -2.587395720e-01f, -1.034958288e+00f, 1.977509586e+00f, 1.016476890e+00f, -1.330660656e+00f, -1.570918830e+00f, 6.098861340e-01f, -2.217767760e-01f, 3.326651640e-01f, 2.032953780e+00f, 2.772209700e-01f, -1.423067646e+00f, 2.957023680e-01f, -9.240699000e-02f, 5.544419400e-02f, 2.402581740e-01f, -3.326651640e-01f, -2.217767760e-01f, 1.663325820e-01f, 8.686257060e-01f, 8.686257060e-01f, 6.838117260e-01f, 8.316629100e-01f, -9.055885020e-01f, 2.402581740e-01f, -1.127365278e+00f, 1.108883880e-01f, 7.577373180e-01f, -1.848139800e-02f, -3.696279600e-01f, -1.145846676e+00f, -7.392559200e-02f, 2.772209700e-01f, -1.848139800e-02f, -6.283675320e-01f, 8.501443080e-01f, -1.034958288e+00f, -5.729233380e-01f, 4.250721540e-01f, -5.544419400e-01f, 1.182809472e+00f, 8.131815120e-01f, -8.501443080e-01f, -1.219772268e+00f, -2.402581740e-01f, 3.696279600e-02f, 4.250721540e-01f, 1.755732810e+00f, -9.240699000e-02f, -1.090402482e+00f, 1.663325820e-01f, -2.217767760e-01f, 6.838117260e-01f, -2.772209700e-01f, -8.686257060e-01f, 3.326651640e-01f, 1.644844422e+00f, 6.098861340e-01f, -8.131815120e-01f, -9.610326960e-01f, -1.090402482e+00f, 1.312179258e+00f, -1.404586248e+00f, -1.312179258e+00f, -1.663325820e-01f, 1.108883880e-01f, -3.141837660e-01f, -2.772209700e-01f, -1.090402482e+00f, 6.468489300e-01f, 2.772209700e-01f, 1.330660656e+00f, -6.098861340e-01f, 4.989977460e-01f, 7.947001140e-01f, 5.174791440e-01f, 
1.781880188e-01f, 2.105858404e-01f, 1.668487812e+00f, -3.887738592e-01f, 4.373705916e-01f, 7.775477184e-01f, -1.441703061e+00f, -3.563760376e-01f, 4.535695024e-01f, -9.395368264e-01f, -9.557357372e-01f, 1.117724845e+00f, 2.057261672e+00f, 1.522697615e+00f, 2.591825728e-01f, 1.619891080e-01f, 9.719346480e-02f, 7.451498968e-01f, 1.409305240e+00f, -1.133923756e+00f, 4.373705916e-01f, -2.267847512e-01f, -8.099455400e-02f, 1.231117221e+00f, 1.781880188e-01f, -2.591825728e-01f, 1.214918310e+00f, -1.700885634e+00f, -6.317575212e-01f, 2.753814836e-01f, -7.451498968e-01f, -1.490299794e+00f, 6.641553428e-01f, 4.373705916e-01f, -1.522697615e+00f, 8.099455400e-02f, 2.591825728e-01f, -3.077793052e-01f, 1.522697615e+00f, -1.781880188e+00f, -1.522697615e+00f, 1.555095437e+00f, -1.150122667e+00f, 2.429836620e-01f, -3.239782160e-01f, 1.684686723e+00f, -2.753814836e-01f, -6.965531644e-01f, 5.831607888e-01f, 1.619891080e-01f, -1.198719399e+00f, -8.747411832e-01f, -4.049727700e-01f, 9.395368264e-01f, -5.183651456e-01f, 1.150122667e+00f, -8.423433616e-01f, 1.004332470e+00f, -1.506498704e+00f, 4.859673240e-01f, 4.697684132e-01f, -1.700885634e+00f, 3.077793052e-01f, -5.021662348e-01f, -4.373705916e-01f, -1.781880188e-01f, 6.317575212e-01f, -6.479564320e-02f, -3.239782160e-02f, 1.798079099e+00f, -3.077793052e-01f, 3.563760376e-01f, -5.507629672e-01f, 1.781880188e-01f, -1.036730291e+00f, 1.943869296e-01f, -9.233379156e-01f, -3.401771268e-01f, -1.587493258e+00f, -1.781880188e+00f, 9.395368264e-01f, -1.409305240e+00f, 4.373705916e-01f, 1.133923756e+00f, 3.077793052e-01f, 1.781880188e-01f, 7.451498968e-01f, -1.328310686e+00f, -9.557357372e-01f, -1.652288902e+00f, 3.239782160e-02f, -5.669618780e-01f, -1.020531380e+00f, -6.641553428e-01f, -4.859673240e-01f, -2.429836620e-01f, 6.965531644e-01f, 1.538896526e+00f, -2.753814836e-01f, -7.289509860e-01f, -7.613488076e-01f, 1.344509596e+00f, -4.211716808e-01f, 1.231117221e+00f, -3.725749484e-01f, 5.669618780e-01f, -5.993596996e-01f, 1.182520488e+00f, -7.937466292e-01f, -8.585422724e-01f, 5.183651456e-01f, 5.831607888e-01f, -9.719346480e-02f, -7.127520752e-01f, -1.749482366e+00f, -3.887738592e-01f, 8.099455400e-01f, 7.937466292e-01f, 9.395368264e-01f, -1.328310686e+00f, -9.395368264e-01f, -1.101525934e+00f, -5.507629672e-01f, -7.451498968e-01f, 1.101525934e+00f, 1.182520488e+00f, 2.267847512e-01f, 8.423433616e-01f, 
3.460774198e-01f, -4.943963140e-02f, -4.943963140e-01f, -1.359589864e+00f, 7.415944710e-01f, -1.977585256e-01f, -4.202368669e-01f, -6.674350239e-01f, -1.384309679e+00f, 2.249503229e+00f, -6.921548396e-01f, -4.943963140e-02f, -2.224783413e-01f, -2.570860833e+00f, 1.087671891e+00f, 3.955170512e-01f, 2.966377884e-01f, -2.719179727e-01f, -2.719179727e-01f, -1.730387099e-01f, -6.427152082e-01f, 5.932755768e-01f, -9.887926280e-01f, -2.471981570e-01f, 6.921548396e-01f, -7.415944710e-02f, -2.719179727e-01f, -9.887926280e-02f, 1.532628573e+00f, 1.952865440e+00f, -5.932755768e-01f, -3.707972355e-01f, 8.651935495e-01f, 9.887926280e-02f, 1.903425809e+00f, -1.260710601e+00f, -9.887926280e-02f, 1.507908758e+00f, 2.224783413e-01f, 1.186551154e+00f, 1.211270969e+00f, -1.952865440e+00f, 3.213576041e-01f, -5.438359454e-01f, 0.000000000e+00f, -7.910341024e-01f, -8.899133652e-01f, -4.943963140e-01f, 3.707972355e-01f, -1.483188942e-01f, 2.224783413e-01f, -1.409029495e+00f, -6.427152082e-01f, -9.887926280e-02f, -3.707972355e-01f, -7.910341024e-01f, 1.235990785e-01f, -5.438359454e-01f, 1.112391706e+00f, -5.438359454e-01f, 3.139416594e+00f, 5.685557611e-01f, 7.415944710e-01f, -2.471981570e-01f, 1.334870048e+00f, 1.112391706e+00f, 5.685557611e-01f, -5.191161297e-01f, -2.471981570e-02f, -4.696764983e-01f, 1.730387099e-01f, 6.427152082e-01f, 5.932755768e-01f, -7.663142867e-01f, 1.235990785e+00f, -9.887926280e-02f, -5.685557611e-01f, -2.966377884e-01f, -2.249503229e+00f, 1.235990785e-01f, 1.730387099e-01f, -1.161831338e+00f, -5.685557611e-01f, 2.471981570e-02f, -1.483188942e-01f, 8.899133652e-01f, 1.161831338e+00f, 1.532628573e+00f, -1.384309679e+00f, -7.415944710e-02f, 2.719179727e-01f, 1.161831338e+00f, 5.191161297e-01f, -4.696764983e-01f, 7.663142867e-01f, -9.146331809e-01f, 9.393529966e-01f, 2.471981570e-02f, -2.224783413e-01f, -1.656227652e+00f, 3.213576041e-01f, -7.415944710e-02f, -1.977585256e-01f, 1.409029495e+00f, -6.427152082e-01f, 1.730387099e-01f, 9.887926280e-02f, 2.966377884e-01f, -2.471981570e-01f, -4.943963140e-01f, 3.707972355e-01f, -5.438359454e-01f, 6.921548396e-01f, 1.977585256e+00f, 1.013512444e+00f, -6.921548396e-01f, 9.887926280e-02f, 1.235990785e+00f, -6.179953925e-01f, 6.179953925e-01f, 1.878705993e+00f, -1.112391706e+00f, 4.202368669e-01f, -1.483188942e-01f, -1.631507836e+00f, 1.235990785e-01f, -9.146331809e-01f, -7.663142867e-01f, 
