/* MLP FP32 Weights for SOH head: ReLU -> Linear */
#ifndef MLP_WEIGHTS_FP32_SOH_H
#define MLP_WEIGHTS_FP32_SOH_H

#include <stdint.h>

#define MLP0_OUT_DIM 128
#define MLP0_IN_DIM 128
#define MLP1_OUT_DIM 1
#define MLP1_IN_DIM 128

static const float MLP0_WEIGHT[MLP0_OUT_DIM][MLP0_IN_DIM] = {
  {-5.30314326e-01f, -1.94693470e+00f, 1.56708837e+00f, 1.42969000e+00f, -8.82202089e-01f, -2.57687449e-01f, -2.11310014e-01f, 1.27420872e-01f, -1.55751920e+00f, 7.61561632e-01f, 3.76686305e-01f, -1.84669328e+00f, 4.77071643e-01f, -3.76513273e-01f, -4.08223808e-01f, -1.27780759e+00f, -1.03079605e+00f, -4.39339399e-01f, 1.40065157e+00f, 5.44053376e-01f, 1.29405463e+00f, -1.94053724e-02f, -7.25452483e-01f, 3.87333125e-01f, 5.73393285e-01f, 4.78942096e-01f, 1.80457044e+00f, -1.78166854e+00f, -2.14275575e+00f, 2.23346472e-01f, -1.76207080e-01f, 2.39458489e+00f, -1.86886728e-01f, 5.81069946e-01f, -1.72828662e+00f, -7.24863827e-01f, 9.28621948e-01f, -4.48904544e-01f, 1.92904640e-02f, -3.73577893e-01f, -8.63030851e-01f, 7.16463268e-01f, -1.38220382e+00f, 2.28480077e+00f, 1.98958766e+00f, -6.93907619e-01f, 9.06825662e-01f, 5.89676686e-02f, -9.52923298e-01f, 6.36838794e-01f, -9.92076457e-01f, -6.63021654e-02f, -1.62692177e+00f, 3.46931815e-01f, 1.44304478e+00f, -8.77280891e-01f, -5.68984687e-01f, 8.86628591e-03f, -2.58130932e+00f, 3.14016342e-01f, 5.60342252e-01f, -4.96961117e-01f, 1.81133783e+00f, 4.04925644e-01f, -4.30950075e-01f, -1.71675885e+00f, 7.17911303e-01f, -5.93060017e-01f, -4.52915251e-01f, -9.96388793e-02f, 3.91052634e-01f, 7.64791727e-01f, -1.12743843e+00f, -2.80956924e-01f, -3.00241530e-01f, -2.67960690e-02f, -5.37719369e-01f, -1.54405928e+00f, 9.83369112e-01f, 9.88011360e-01f, -1.12266695e+00f, -7.13073850e-01f, 1.23774552e+00f, -2.23078802e-01f, 1.57956684e+00f, 8.63565624e-01f, 1.31425166e+00f, -4.64118779e-01f, 4.15262073e-01f, 7.19151139e-01f, -4.53820592e-03f, -1.16708159e+00f, -4.33339715e-01f, 3.02066058e-01f, 5.63988507e-01f, 4.73781526e-02f, -1.35482609e+00f, -2.59498328e-01f, 7.49241769e-01f, -1.13181567e+00f, 8.59786272e-01f, 1.07958102e+00f, 9.66028512e-01f, -9.37952161e-01f, 1.50765985e-01f, 5.06370604e-01f, 3.38865638e-01f, -9.48798507e-02f, -1.43729019e+00f, -4.75473344e-01f, 1.97473609e+00f, -1.52822936e+00f, -9.69790816e-01f, -6.62851989e-01f, -3.39651316e-01f, 7.92297959e-01f, 3.98800611e-01f, -1.22870255e+00f, -2.50106335e-01f, 1.03684604e-01f, -2.69307637e+00f, -5.69225848e-01f, -1.20623052e+00f, -3.05375066e-02f, 5.78218400e-01f, 9.97713283e-02f, -7.13869631e-01f, -3.58404249e-01f},
  {-9.06255484e-01f, -1.52079761e+00f, 3.06021065e-01f, -6.94064438e-01f, 5.06202459e-01f, 7.32854366e-01f, -1.64371800e+00f, 7.64275253e-01f, -7.33288884e-01f, -9.68698561e-01f, -7.18884110e-01f, 3.51448566e-01f, -5.66986203e-01f, -1.67137122e+00f, 2.18602255e-01f, 3.05190712e-01f, -7.95755014e-02f, -1.37192702e+00f, 9.03431118e-01f, 3.95124674e-01f, 1.49716854e+00f, 4.45708603e-01f, -1.33173108e+00f, -1.77822113e-01f, -3.40837032e-01f, -1.10067570e+00f, 2.34253153e-01f, 7.43019283e-01f, -2.75072068e-01f, -7.69172668e-01f, 4.70049739e-01f, -1.01777506e+00f, 4.89144415e-01f, -2.93731242e-02f, -4.50119287e-01f, -6.91386104e-01f, -2.56670892e-01f, -9.10582006e-01f, -1.41117263e+00f, -2.72797048e-01f, -2.85693884e-01f, -1.56607020e+00f, -6.98850691e-01f, 2.67088890e-01f, 1.44341159e+00f, 2.50424631e-02f, 3.84317607e-01f, 1.38859713e+00f, 1.30408585e+00f, 2.39203304e-01f, -2.93728709e-01f, -8.43087614e-01f, 2.51170516e-01f, -1.75744021e+00f, 9.23280120e-01f, -1.56101108e-01f, 1.88972056e-02f, -7.17604578e-01f, -1.09706438e+00f, 1.03093815e+00f, -1.74629080e+00f, -1.44743395e+00f, 1.63309193e+00f, 3.46118212e-01f, 9.66013670e-01f, -6.77778363e-01f, 1.25484478e+00f, -7.40944684e-01f, -1.90876827e-01f, -7.94481814e-01f, -3.56901646e-01f, -1.20651019e+00f, 1.04757214e+00f, -4.48393345e-01f, 3.74921858e-01f, -1.11004579e+00f, -1.35514951e+00f, -1.29197168e+00f, 1.51587629e+00f, 6.25033617e-01f, 9.39210415e-01f, 5.79284847e-01f, -4.07558754e-02f, 6.31564915e-01f, 8.96999717e-01f, 1.02451026e+00f, -3.79098594e-01f, 4.33083028e-01f, 1.59136057e+00f, -2.16481108e-02f, -6.24398708e-01f, 7.67284483e-02f, -1.06266081e+00f, 2.57349670e-01f, 4.98727560e-01f, -6.30066156e-01f, -7.80332923e-01f, -2.63526887e-01f, -2.52604187e-01f, 2.98795313e-01f, -3.13962162e-01f, 7.33941197e-01f, 3.18402410e+00f, -4.48828310e-01f, -6.53102040e-01f, -1.07997394e+00f, 4.72071975e-01f, 1.20571208e+00f, -1.17877734e+00f, 7.61486769e-01f, 1.07874346e+00f, -6.52606845e-01f, -1.25081217e+00f, 6.47885740e-01f, -4.85917598e-01f, 5.05700767e-01f, 1.49707150e+00f, -1.37620628e+00f, 2.22614720e-01f, -1.23047298e-02f, -1.46736193e+00f, -1.75037578e-01f, -3.68584514e-01f, 1.02749729e+00f, 1.58830154e+00f, 9.94698882e-01f, 8.30231071e-01f, 2.54743278e-01f},
  {-7.18239069e-01f, 2.42078677e-01f, -1.23238242e+00f, 1.27555680e+00f, -2.21209347e-01f, -9.17379618e-01f, 2.08061647e+00f, -4.37411577e-01f, 6.72740400e-01f, 3.79684299e-01f, -1.26727402e+00f, 4.39854860e-01f, -2.68484443e-01f, 9.69122589e-01f, -1.04366708e+00f, 6.37967736e-02f, -3.39360654e-01f, 6.19670630e-01f, -2.01538992e+00f, 8.70069861e-02f, 8.86629641e-01f, 9.00019333e-02f, 9.62536111e-02f, 1.80064738e-02f, -5.06663978e-01f, 6.38296127e-01f, 4.11497235e-01f, 1.21212520e-01f, 9.47869301e-01f, -6.73638821e-01f, 2.36661404e-01f, 2.17335001e-01f, -6.83669373e-02f, -8.09600055e-01f, 6.82354510e-01f, 1.41311318e-01f, -4.79140192e-01f, -5.14803752e-02f, 8.93511593e-01f, -1.09517300e+00f, 1.36648610e-01f, 3.65325630e-01f, 7.02944696e-01f, 9.72650945e-01f, -1.60448402e-01f, -1.91915520e-02f, -2.10491347e+00f, -1.55736461e-01f, 2.38020614e-01f, -5.48318803e-01f, 1.14257455e+00f, 2.46132568e-01f, -1.40939200e+00f, 8.83993149e-01f, -3.25342804e-01f, 5.28998733e-01f, 6.48160994e-01f, 4.57637757e-01f, 2.92902350e-01f, -1.60829115e+00f, -3.74942601e-01f, 4.81740296e-01f, 3.29817265e-01f, -6.94491625e-01f, 2.93745339e-01f, 1.10591280e+00f, 6.13986216e-02f, -9.96419907e-01f, 1.29251015e+00f, 1.47044793e-01f, 9.65583146e-01f, 6.15364492e-01f, -4.43888962e-01f, 5.03411829e-01f, 1.09780692e-02f, -1.25948882e+00f, 4.02346700e-01f, -7.91236699e-01f, -4.15802062e-01f, 1.05199385e+00f, -3.56432915e+00f, 6.63639426e-01f, -4.24524486e-01f, -9.52600315e-02f, -9.01581585e-01f, 8.42050374e-01f, -8.66236329e-01f, 2.58197576e-01f, -4.61197883e-01f, 1.32502049e-01f, -1.40371053e-02f, 1.07940949e-01f, 1.38313556e+00f, 1.45879805e-01f, -4.10306036e-01f, -1.48305750e+00f, -2.16350943e-01f, -8.89153838e-01f, 3.59139681e-01f, -1.04037976e+00f, 4.95624065e-01f, -9.62931454e-01f, -1.32506981e-01f, -5.11694014e-01f, -3.55155259e-01f, -6.08974636e-01f, 1.07892084e+00f, -9.70295668e-01f, -1.47349834e+00f, 7.51902640e-01f, -7.26106584e-01f, -1.07380545e+00f, 9.41202462e-01f, -5.72291374e-01f, 4.09640104e-01f, -6.30928695e-01f, -3.11360061e-01f, -3.88670087e-01f, -9.47893798e-01f, -1.02316666e+00f, 7.53591359e-01f, 1.22857440e+00f, -8.37950647e-01f, -1.47448039e+00f, -2.00009376e-01f, -4.52464521e-01f, 1.14531778e-01f, -3.23194891e-01f},
  {1.62192726e+00f, 1.31952155e+00f, -1.30242753e+00f, 3.24181736e-01f, 7.39542663e-01f, -1.67705253e-01f, 1.04587778e-01f, 7.93159544e-01f, 1.65850723e+00f, 1.13912821e-01f, 9.72197831e-01f, -7.31872618e-01f, -1.70409572e+00f, -6.34780526e-02f, -1.82468379e+00f, -6.00059628e-01f, -1.46715963e+00f, 7.32550502e-01f, -2.05007696e+00f, 1.09656119e+00f, 1.25894129e-01f, 7.13083982e-01f, -3.76148254e-01f, -9.63320017e-01f, -1.24162602e+00f, -2.83701923e-02f, -4.11289096e-01f, -5.55710196e-01f, 1.77834654e+00f, -5.09254098e-01f, -7.65513420e-01f, -5.34334958e-01f, 9.55777764e-01f, 4.73940492e-01f, -7.11708426e-01f, 2.92351395e-01f, 2.59399742e-01f, 7.44557455e-02f, -1.88667011e+00f, -9.51108858e-02f, 3.56673986e-01f, -6.75316513e-01f, 2.30535632e-03f, 6.27990186e-01f, 4.18981284e-01f, -2.28910303e+00f, -1.15564132e+00f, 2.23569655e+00f, 3.62686068e-01f, 2.47823507e-01f, -6.99029922e-01f, -3.17274779e-01f, -1.87328041e+00f, -2.72725254e-01f, -2.98828989e-01f, 1.03147769e+00f, 3.36907625e-01f, 1.38024911e-01f, 2.01394963e+00f, 1.30818152e+00f, -4.07466926e-02f, 1.02369857e+00f, 5.54953039e-01f, -1.28258869e-01f, -1.34772003e-01f, -1.46377802e-01f, -9.95562792e-01f, 3.25015634e-01f, -4.35055703e-01f, -1.73882854e+00f, -5.37472218e-02f, 1.35121930e+00f, 5.23116350e-01f, 1.70732093e+00f, -9.97879744e-01f, -1.35145307e+00f, 7.91631341e-01f, -4.61635590e-01f, -1.77347124e+00f, 1.73848259e+00f, -6.42021894e-01f, 5.46918869e-01f, -1.08398473e+00f, 7.55107820e-01f, -6.99964404e-01f, 2.17113376e+00f, -1.15407538e+00f, -5.23938276e-02f, -8.47296238e-01f, -2.38189250e-01f, -1.21455789e+00f, 5.05134128e-02f, 1.89134443e+00f, -5.99184074e-02f, -9.98498797e-01f, -9.29660618e-01f, -7.12868750e-01f, 6.21480882e-01f, 1.68224597e+00f, -2.29574472e-01f, 1.73906103e-01f, 3.65232915e-01f, -2.27206659e+00f, -2.08005023e+00f, -2.25109816e+00f, -4.16584939e-01f, 1.76051044e+00f, -8.44400525e-01f, -2.36299205e+00f, 4.38232839e-01f, 3.15352827e-01f, 3.23655754e-01f, 1.05605161e+00f, 8.78276646e-01f, 4.17700380e-01f, 1.08645487e+00f, -8.61523986e-01f, -1.90640485e+00f, -3.14687900e-02f, -1.93603194e+00f, -5.72105348e-01f, -1.32241881e+00f, -1.08460152e+00f, 1.54825687e-01f, 5.21360099e-01f, 1.40579253e-01f, -1.73911393e-01f, -1.76454354e-02f},
  {5.50889134e-01f, -7.64063776e-01f, 1.34889051e-01f, -1.18990630e-01f, 8.46530855e-01f, 2.04559676e-02f, 3.33757132e-01f, 1.10168569e-01f, 1.76253259e+00f, 3.45238447e-01f, 7.62192070e-01f, 1.81325245e+00f, 7.96212852e-02f, 1.11751235e+00f, 4.93103385e-01f, -6.42422915e-01f, 2.86172070e-02f, 4.12725091e-01f, 3.23040754e-01f, -9.45293665e-01f, 3.69143814e-01f, 1.02983266e-01f, 1.27031100e+00f, -1.03252137e+00f, -1.90218771e+00f, -8.44104946e-01f, 8.75479817e-01f, -2.93383867e-01f, 6.51061058e-01f, 6.06147945e-01f, -5.47818005e-01f, -2.32628202e+00f, -8.41628730e-01f, 3.01137805e-01f, -6.10520303e-01f, 5.70017338e-01f, 1.36231196e+00f, -4.30251867e-01f, -8.26166332e-01f, -3.42278659e-01f, -5.06619573e-01f, 5.32784045e-01f, 6.58351600e-01f, 1.34646451e+00f, 6.77723229e-01f, -1.89043903e+00f, -5.10712445e-01f, 1.25938737e+00f, 3.85130435e-01f, -6.58745944e-01f, 9.08699632e-01f, -5.97942658e-02f, 2.64564544e-01f, 2.43817464e-01f, 1.64240599e-01f, -3.22937965e-01f, -3.50207001e-01f, 4.53976989e-01f, -1.03342199e+00f, -7.69800961e-01f, -6.43775582e-01f, -9.77416784e-02f, -4.21229511e-01f, -8.69876444e-01f, 5.26328027e-01f, 4.76485908e-01f, 9.36149731e-02f, 3.17483246e-02f, -1.66625768e-01f, -8.46364737e-01f, -2.01735330e+00f, -1.79725361e+00f, -8.28083456e-01f, -2.25684673e-01f, 2.61965543e-01f, 1.46455824e+00f, 3.79369855e-01f, -1.00541770e-01f, -5.73569059e-01f, 2.29407692e+00f, 8.88834178e-01f, 2.23006320e+00f, 2.87137300e-01f, 8.89848471e-02f, 5.21135293e-02f, 9.71014798e-01f, -1.19341135e+00f, 1.58754904e-02f, 1.76055863e-01f, 5.16020477e-01f, 1.40265191e+00f, -2.28459507e-01f, 5.48385322e-01f, -1.37691092e+00f, 6.56994998e-01f, -1.49530694e-01f, 4.92279651e-03f, 2.80852318e-01f, 3.58284771e-01f, -2.85123855e-01f, 9.18180227e-01f, 9.62235570e-01f, 7.65738562e-02f, -1.33560133e+00f, -1.25345767e+00f, 5.67096472e-01f, 7.21732378e-01f, -5.02130210e-01f, 5.21600068e-01f, 2.14951324e+00f, -8.78283083e-02f, 6.64806128e-01f, 1.91966105e+00f, -1.13797575e-01f, -6.21848583e-01f, 2.05603525e-01f, -7.80766249e-01f, -2.08970022e+00f, -5.04290164e-01f, 6.22291982e-01f, -9.23169971e-01f, -2.03012630e-01f, -8.91361773e-01f, -7.71157164e-03f, 4.98394549e-01f, -7.23177493e-01f, -4.11597997e-01f, -8.74941409e-01f},
  {1.09007668e+00f, -6.47147477e-01f, 1.31942138e-01f, 2.85830259e-01f, 3.65433514e-01f, -2.21203461e-01f, -2.16727257e-01f, 4.26670223e-01f, 4.10057306e-01f, 1.99737296e-01f, -9.48374212e-01f, -6.75846636e-01f, 2.59419292e-01f, -3.72862309e-01f, 7.90327907e-01f, 3.23511660e-01f, 3.38348076e-02f, 1.75160766e-01f, -1.40911984e+00f, -3.91068280e-01f, -2.74115831e-01f, -8.00179780e-01f, -3.44057083e-01f, -1.06980634e+00f, -6.08588636e-01f, -2.77522296e-01f, 5.44894561e-02f, 1.32597208e+00f, 6.23663008e-01f, 2.32243091e-01f, 1.25994384e+00f, -1.60975146e+00f, 2.41873249e-01f, -6.30512178e-01f, 7.08733201e-01f, -2.47898221e-01f, 9.84824240e-01f, -1.25011578e-01f, 2.86704689e-01f, -1.27697766e-01f, 1.83922663e-01f, 1.40425056e-01f, 7.60530412e-01f, 4.82572764e-01f, 1.91566303e-01f, -1.84153628e+00f, -4.42915738e-01f, 8.71970057e-01f, -8.59658659e-01f, 6.05099738e-01f, 1.43894076e+00f, -2.75917560e-01f, -6.09938622e-01f, 2.29840353e-01f, -9.60328937e-01f, 5.57469070e-01f, 1.40033913e+00f, -2.37392813e-01f, 5.93143582e-01f, -4.93135989e-01f, 4.47438627e-01f, -3.62570733e-01f, -3.27492326e-01f, 6.74672842e-01f, -1.05983782e+00f, 6.80829644e-01f, -1.58462957e-01f, 8.66435349e-01f, 8.09091449e-01f, 5.85021615e-01f, 3.40122014e-01f, 7.96623170e-01f, 8.34156424e-02f, 2.09850454e+00f, 4.06565726e-01f, 1.76029432e+00f, -1.37897313e+00f, 5.03047943e-01f, -6.12144589e-01f, 1.10965274e-01f, -9.95836437e-01f, 1.51706845e-01f, 7.07898021e-01f, -1.27130628e+00f, -1.04332232e+00f, 6.44234955e-01f, 4.28418398e-01f, -7.61638582e-02f, -9.50656310e-02f, -2.36250386e-02f, 6.24062955e-01f, -1.27838016e-01f, -4.33085531e-01f, 3.03485185e-01f, 1.05813267e-02f, -9.55853462e-01f, -1.96968257e-01f, -3.85609567e-01f, -1.05932522e+00f, 9.33197618e-01f, 2.70244628e-01f, -1.12826359e+00f, -5.11893690e-01f, -1.80498719e+00f, -7.38190830e-01f, 1.03557289e+00f, -4.38997805e-01f, 4.85537082e-01f, 9.84203577e-01f, 7.11666703e-01f, 1.20351031e-01f, 5.40020943e-01f, -6.03702903e-01f, 1.71731487e-01f, 8.38024080e-01f, -2.15203594e-03f, -7.23378956e-01f, 1.25698388e+00f, -1.02712184e-01f, -6.72659039e-01f, 2.84608215e-01f, -1.24770808e+00f, -6.56799853e-01f, -1.67469531e-02f, -1.48337141e-01f, -3.30395728e-01f, -6.61974326e-02f, 2.85099626e-01f},
  {-6.41580701e-01f, -1.32476056e+00f, -2.14560524e-01f, 2.31038451e-01f, 8.82275820e-01f, -1.23260295e+00f, -3.02566472e-03f, 6.28190756e-01f, 4.40469563e-01f, 5.57595313e-01f, 8.36256053e-03f, 1.62825912e-01f, -6.16512820e-03f, -2.06458375e-01f, 9.80594993e-01f, -4.65964200e-03f, -5.72692990e-01f, -1.81143749e+00f, -1.03127575e+00f, 9.89371717e-01f, 2.18307233e+00f, -3.89866173e-01f, 3.51867586e-01f, -7.55598545e-01f, 8.07986021e-01f, -7.03770757e-01f, -2.27475286e-01f, -3.34798902e-01f, 3.83005440e-01f, -7.18296528e-01f, 1.13603699e+00f, 4.76912469e-01f, 2.82148689e-01f, 6.73708439e-01f, -4.64755625e-01f, -2.96248734e-01f, -3.44423443e-01f, 5.07321298e-01f, 5.97757399e-01f, -4.33416992e-01f, -4.33297724e-01f, -1.40847102e-01f, -1.36943102e+00f, 5.37588656e-01f, 5.83507180e-01f, -2.18092036e+00f, 8.48760486e-01f, 1.50123274e+00f, 1.05450344e+00f, 1.02894247e+00f, -9.86449495e-02f, 1.07162094e+00f, 3.98916341e-02f, 1.54371738e+00f, 2.08707452e+00f, -6.69969857e-01f, 1.43805408e+00f, -2.27383280e+00f, -1.51438117e+00f, 3.28063220e-01f, -1.51814628e+00f, -6.82461023e-01f, 1.72416341e+00f, 8.94131660e-01f, -1.22782123e+00f, -1.42930597e-01f, -5.04653789e-02f, -9.01166916e-01f, 7.11384356e-01f, 2.85734475e-01f, -1.27700841e+00f, -2.00159764e+00f, -1.77442670e+00f, 4.54525113e-01f, 1.40265897e-01f, -1.06979191e+00f, 1.45356143e+00f, -1.44136298e+00f, -5.90718627e-01f, 1.67539740e+00f, -1.63013601e+00f, 1.88053340e-01f, -1.51140594e+00f, 6.63793445e-01f, -1.65540624e+00f, 3.55256468e-01f, -3.11788708e-01f, 4.41205263e-01f, -8.92409742e-01f, -4.64447707e-01f, -1.27625787e+00f, -8.79914224e-01f, 6.55030847e-01f, -1.48634180e-01f, -5.95655963e-02f, -9.00147319e-01f, 2.24627122e-01f, 1.24493837e+00f, 1.00702524e+00f, 1.02731431e+00f, 5.20710528e-01f, -3.98817658e-01f, -5.24312854e-01f, 8.18051279e-01f, -3.03180724e-01f, -1.52239233e-01f, 8.69005501e-01f, -5.42215824e-01f, -2.35630083e+00f, 1.19082010e+00f, 4.39916372e-01f, 1.34764993e+00f, 6.07241951e-02f, 3.85895133e-01f, -3.07580620e-01f, 3.83440673e-01f, 5.44842124e-01f, -2.83499050e+00f, -1.35192037e+00f, -3.04215193e-01f, -1.67436028e+00f, -3.92941296e-01f, -1.90325749e+00f, 2.97419000e-02f, 1.58686459e-01f, 7.75807619e-01f, -5.83999157e-01f, -1.28983051e-01f},
  {1.00948846e+00f, 3.85335207e-01f, 1.24137178e-01f, -3.07863742e-01f, 9.09661472e-01f, -1.92149067e+00f, 2.43123800e-01f, 1.00221658e+00f, 6.08918488e-01f, 1.03005469e+00f, -1.99558720e-01f, 9.32806373e-01f, 6.13122761e-01f, -5.42373121e-01f, 6.22913837e-01f, -8.69062841e-02f, -2.13577911e-01f, -6.82775736e-01f, 1.27264333e+00f, -1.61298588e-01f, 7.93300331e-01f, 4.71858412e-01f, -1.23036647e+00f, -5.80813050e-01f, -4.30236071e-01f, 7.27621615e-01f, -5.81627667e-01f, -4.79011722e-02f, -8.11312973e-01f, -6.91977262e-01f, -5.54597318e-01f, 4.19913113e-01f, 1.04847876e-02f, -1.27779222e+00f, -1.11931956e+00f, 1.45511854e+00f, 4.36496809e-02f, 1.01349473e+00f, -5.89551270e-01f, 1.33332565e-01f, -1.56991854e-01f, 5.12709320e-01f, 1.01715815e+00f, -6.44622624e-01f, 1.15865481e+00f, -1.52000284e+00f, -8.35705578e-01f, -6.20246172e-01f, 1.40358841e+00f, -5.06918967e-01f, 6.33503199e-01f, -1.52636194e+00f, -2.62275308e-01f, -5.79690874e-01f, -5.11277020e-02f, -2.09750667e-01f, -1.58452022e+00f, 6.72629118e-01f, -9.39837754e-01f, 8.11428130e-02f, -6.11709058e-01f, 3.49574238e-01f, 1.20918703e+00f, -5.35085440e-01f, -2.56527334e-01f, 2.49951422e-01f, 6.97420597e-01f, -9.29319799e-01f, 5.46489596e-01f, 5.59939325e-01f, -5.42837322e-01f, 6.28574789e-01f, -7.92047203e-01f, -9.46776420e-02f, 6.74174905e-01f, -1.11620831e+00f, 6.62672758e-01f, -4.63334680e-01f, 2.80157834e-01f, 1.38918376e+00f, -1.34591985e+00f, -2.56169707e-01f, -1.86260939e+00f, 1.41252980e-01f, -4.61130977e-01f, -2.43650734e-01f, -1.76464593e+00f, 8.86827826e-01f, 1.62339985e-01f, -7.40107477e-01f, -9.86286998e-02f, 5.64804435e-01f, 2.05687737e+00f, 1.16419435e+00f, 5.19971788e-01f, -1.46525574e+00f, -3.53273928e-01f, -8.12561691e-01f, 4.27179098e-01f, 1.18541157e+00f, 1.38984478e+00f, -3.03101718e-01f, 1.12329602e+00f, -1.46102917e+00f, -1.81070352e+00f, -6.84789121e-01f, -9.32511091e-01f, -2.98070721e-03f, -7.88899481e-01f, 6.89649284e-01f, -2.11348087e-01f, -7.41239637e-02f, -1.24660051e+00f, -5.29372573e-01f, 4.79493201e-01f, 6.97505251e-02f, 7.89929926e-01f, -1.64462745e+00f, 8.54603350e-01f, -1.85507846e+00f, 1.77643135e-01f, -2.19380498e-01f, -1.22251436e-01f, -1.23223674e+00f, 2.51819938e-01f, 6.78411126e-01f, 1.46015358e+00f, 7.74505734e-02f},
  {5.54521739e-01f, 2.98611552e-01f, -1.75207698e+00f, 1.93625247e+00f, 1.22713327e+00f, -9.76572216e-01f, -3.28493619e+00f, -9.06056464e-01f, 9.46547151e-01f, -9.21265930e-02f, 1.43430352e-01f, 1.31355953e+00f, 1.12104073e-01f, 6.08216822e-01f, 7.21754909e-01f, 7.63978124e-01f, -4.78601307e-01f, -5.94429135e-01f, 1.11757648e+00f, 4.84927297e-02f, 1.57896888e+00f, 2.06421328e+00f, -1.32640576e+00f, -3.40122879e-01f, -2.20529348e-01f, -2.03434467e+00f, 4.77105856e-01f, -7.55453765e-01f, -9.21277642e-01f, -1.78317523e+00f, -3.19203913e-01f, -6.15892112e-01f, 2.95717046e-02f, -9.75659668e-01f, -1.20857549e+00f, -2.45382581e-02f, -1.42026424e-01f, 9.66325879e-01f, -1.69312429e+00f, -4.31100249e-01f, -7.21572280e-01f, 2.80080169e-01f, -2.22736582e-01f, -5.91681182e-01f, 9.57875133e-01f, -1.71516883e+00f, -6.56483233e-01f, 3.52431327e-01f, 8.53263319e-01f, 1.32351577e-01f, 5.71840763e-01f, 4.90187049e-01f, -9.33443755e-02f, -1.03534482e-01f, 6.33329988e-01f, -2.35491265e-02f, -1.39052045e+00f, -2.81959385e-01f, -1.40462503e-01f, 4.64720666e-01f, -1.22329462e+00f, -7.81571925e-01f, 8.07238400e-01f, -3.62751603e-01f, 3.71751785e-01f, 2.54001409e-01f, 2.95427948e-01f, -1.24621785e+00f, -4.72647727e-01f, 3.78886431e-01f, -4.34559315e-01f, -1.19500923e+00f, 5.37303209e-01f, -3.52716267e-01f, -1.67164877e-02f, -8.26690435e-01f, 7.43621230e-01f, -7.41949856e-01f, -7.48416603e-01f, 3.56324553e-01f, 1.15733457e+00f, 1.45721602e+00f, -1.85141659e+00f, 3.62000257e-01f, 5.99934995e-01f, 6.42641127e-01f, -5.52157223e-01f, 7.40627050e-01f, 7.05143929e-01f, 1.13428734e-01f, -6.94210351e-01f, 8.89479399e-01f, 1.02262354e+00f, 1.21546543e+00f, -9.78535533e-01f, -1.69460416e-01f, 5.12185514e-01f, -5.69859669e-02f, 1.03920972e+00f, 5.05717814e-01f, -1.64770812e-01f, 1.53932798e+00f, -4.37997252e-01f, -2.94658017e+00f, -2.04510748e-01f, -3.41151237e-01f, 5.94209194e-01f, -1.68965566e+00f, -1.16613221e+00f, 1.88288176e+00f, 3.01602542e-01f, -3.73802245e-01f, -2.08368123e-01f, 7.87789881e-01f, -1.03088081e+00f, -4.40082192e-01f, 1.14260904e-01f, -2.28473139e+00f, 1.65393877e+00f, -1.61970508e+00f, -2.25378108e+00f, 3.00020486e-01f, -4.47569042e-01f, -6.20476425e-01f, 2.95493305e-01f, -5.73461533e-01f, 4.35935259e-01f, -3.46619099e-01f},
  {8.39095414e-01f, 1.48186409e+00f, -4.18016285e-01f, -3.39768708e-01f, 1.14217067e+00f, -8.09737265e-01f, -9.76818144e-01f, 1.39339805e+00f, 1.55572355e+00f, -1.55834660e-01f, 1.34218955e+00f, 1.57874680e+00f, 2.19959468e-01f, -8.60745966e-01f, -1.24757254e+00f, -2.59378701e-01f, -8.48977447e-01f, 1.45973897e+00f, 8.62804055e-01f, -2.35567823e-01f, 5.78683972e-01f, -4.02887166e-01f, 1.91363260e-01f, 1.06300926e+00f, 5.98703139e-03f, 1.99385941e-01f, -6.24973536e-01f, -5.60618341e-01f, 1.95983678e-01f, 1.09477840e-01f, 4.68406647e-01f, 6.95633233e-01f, -4.73061770e-01f, 2.30905518e-01f, -1.08224595e+00f, 5.25349751e-02f, 1.32122624e+00f, -7.87777066e-01f, 1.55180097e+00f, -2.28601313e+00f, 6.85659409e-01f, 1.15605295e+00f, 3.64649951e-01f, -6.44450963e-01f, -1.08663321e+00f, -1.51266026e+00f, -1.25068963e+00f, 2.46657610e-01f, -2.89623737e+00f, 1.00068486e+00f, 3.56087655e-01f, -2.83188850e-01f, -5.51641941e-01f, 4.01284814e-01f, 2.17557386e-01f, 5.84850371e-01f, -7.78669298e-01f, 7.05984294e-01f, -8.96285951e-01f, 2.10223109e-01f, -5.39096296e-01f, -4.71357316e-01f, 4.61166978e-01f, -8.76870453e-01f, -1.64778185e+00f, 1.62647593e+00f, -1.27092898e+00f, 2.10338473e+00f, 1.06778920e+00f, -1.97239872e-02f, 4.20095861e-01f, 8.32139730e-01f, -5.75583398e-01f, 2.66422331e-01f, 1.21474333e-01f, -5.94254911e-01f, 1.18629694e+00f, -4.74597067e-01f, -1.50098872e+00f, -4.57067668e-01f, -1.58070815e+00f, -7.45017588e-01f, -2.35278058e+00f, 5.33864200e-01f, 4.10362780e-01f, 3.02994275e+00f, 1.35739744e+00f, -1.65395498e+00f, -2.65259653e-01f, 2.78033793e-01f, -6.86044872e-01f, 1.22412252e+00f, 9.74631488e-01f, 1.04119706e+00f, 1.51551291e-01f, -3.71608064e-02f, -1.07008807e-01f, 1.81286645e+00f, 1.68823287e-01f, -1.29928017e+00f, -4.82682109e-01f, -5.44888556e-01f, 2.14506254e-01f, 1.81549311e-01f, -1.03739417e+00f, 1.79064274e+00f, -1.44693398e+00f, 1.69638082e-01f, 8.32320035e-01f, 1.14353156e+00f, -9.87977266e-01f, -1.35280704e+00f, 1.36288917e+00f, -1.17505383e+00f, 4.10547741e-02f, -5.32124102e-01f, 1.44992959e+00f, -2.64400572e-01f, -1.29375482e+00f, 1.37776315e-01f, 1.27577591e+00f, -1.28825843e+00f, -2.05376649e+00f, -1.86732803e-02f, -2.02802229e+00f, -4.68006283e-01f, 9.47804525e-02f, -5.31587340e-02f},
  {-1.25219691e+00f, 9.01205361e-01f, -1.93367042e-02f, 1.00134134e+00f, -7.64709175e-01f, -3.11003596e-01f, -6.15925610e-01f, -1.19672143e+00f, -1.48701596e+00f, -1.04936290e+00f, 1.40567243e+00f, 7.71052897e-01f, 8.16090703e-01f, -2.23593545e+00f, -3.49554300e-01f, 1.79767057e-01f, -5.17892897e-01f, 9.47190523e-01f, -1.29846586e-02f, -1.36771262e-01f, 1.97054195e+00f, 5.13981164e-01f, -9.46368098e-01f, 7.89304674e-01f, 1.33649662e-01f, 2.32222565e-02f, 4.39377688e-02f, -2.03642339e-01f, -1.27661610e+00f, -2.33979225e+00f, 5.25951087e-01f, 1.26578259e+00f, -1.22628117e+00f, -1.47156537e+00f, -3.00228596e+00f, -5.10081828e-01f, -8.20992649e-01f, -1.58240482e-01f, -1.65497303e-01f, -4.73213911e-01f, -1.36346877e-01f, 1.16906130e+00f, -1.14219272e+00f, 8.77239704e-01f, 1.49592006e+00f, 1.24634981e+00f, -6.53178170e-02f, -9.41658139e-01f, 1.36885262e+00f, -4.73816395e-01f, -1.12285614e+00f, 2.01080427e-01f, -6.39467001e-01f, -2.83041418e-01f, 1.88621330e+00f, 1.30459476e+00f, 3.27227265e-02f, -2.13269681e-01f, -4.96925116e-01f, 1.31476068e+00f, -2.27382660e+00f, -9.85930979e-01f, 2.56515670e+00f, -3.61900419e-01f, -1.50800228e+00f, -3.74492615e-01f, 2.03572750e-01f, -1.20944238e+00f, -8.19095790e-01f, -1.13337204e-01f, -1.11639988e+00f, -4.31985945e-01f, -9.76309955e-01f, -1.20729685e+00f, 9.02382910e-01f, -1.44012558e+00f, -1.93109787e+00f, -1.00419414e+00f, 6.50926948e-01f, 1.53024578e+00f, -1.75732946e+00f, -3.42007637e-01f, -2.46359468e+00f, 5.00760794e-01f, 3.32647800e-01f, 6.10502958e-01f, -1.54032096e-01f, 5.96223414e-01f, -3.68102431e-01f, 9.16365981e-01f, -1.83101118e+00f, -4.88542378e-01f, 5.15530467e-01f, 1.40547788e+00f, -1.44902229e+00f, -1.71405101e+00f, 8.56834292e-01f, 6.86372876e-01f, 1.98490655e+00f, 5.26688136e-02f, -3.16723883e-01f, -7.49230742e-01f, 2.16562796e+00f, -1.29876494e+00f, 4.64442112e-02f, -2.24129125e-01f, 2.81989425e-01f, 1.27926612e+00f, -4.86432254e-01f, 8.35303783e-01f, -5.53337097e-01f, -1.72194219e+00f, -1.00869954e+00f, 9.06920075e-01f, 4.90852624e-01f, 1.74559999e+00f, 6.46722674e-01f, -1.43343890e+00f, 1.09627581e+00f, -1.23800948e-01f, -1.26392782e+00f, 1.45379627e+00f, -1.57883048e+00f, -8.08907568e-01f, 7.09205866e-01f, -8.34415674e-01f, 1.41508698e-01f, -1.06491911e+00f},
  {3.72747958e-01f, 9.42603230e-01f, -4.95170504e-02f, -2.36621097e-01f, -1.06081688e+00f, -1.49572766e+00f, -1.77946496e+00f, 4.89716440e-01f, -4.66165096e-01f, -1.25025868e+00f, 3.36660528e+00f, 4.06635016e-01f, -1.47857225e+00f, -2.04238981e-01f, -6.91648185e-01f, -1.04725562e-01f, -3.20826292e-01f, 1.46441543e+00f, -3.14213187e-02f, -6.87469542e-01f, 8.05643320e-01f, -2.17656866e-01f, -5.59008479e-01f, 6.53800189e-01f, -1.60552159e-01f, -9.72552877e-03f, 1.20358169e-01f, -7.57558718e-02f, -8.19220304e-01f, -1.31459069e+00f, -8.07663023e-01f, 8.87819231e-01f, 2.17810720e-01f, -2.25373554e+00f, 5.24314418e-02f, -6.03555560e-01f, 1.17463100e+00f, -9.59250689e-01f, -1.64838386e+00f, 3.59396458e-01f, -1.68662995e-01f, 5.02963781e-01f, 1.26963305e+00f, 1.08841753e+00f, 2.23344993e-02f, -1.34602034e+00f, -4.18879658e-01f, -4.66528893e-01f, -1.65413901e-01f, -1.07663000e+00f, -2.79377133e-01f, -4.27630335e-01f, 5.71333826e-01f, -2.45132732e+00f, 6.93710387e-01f, 2.79072225e-01f, -1.89174628e+00f, -5.16758919e-01f, 5.34400463e-01f, 4.14820224e-01f, -8.46186757e-01f, 6.42520860e-02f, 1.20653903e+00f, -1.44392073e+00f, -4.76601034e-01f, -4.29697692e-01f, -5.94681680e-01f, 4.82998669e-01f, 8.66192818e-01f, -2.48460576e-01f, 6.79426670e-01f, -1.56629026e-01f, 4.15303856e-01f, 4.08410102e-01f, 4.97540861e-01f, -1.32222462e+00f, -1.54427779e+00f, -6.29381716e-01f, 5.20818293e-01f, 1.02340889e+00f, 9.50941443e-02f, -6.49363518e-01f, -2.12081671e+00f, 8.09853151e-02f, 9.54429984e-01f, 1.56690657e+00f, -2.73801982e-02f, 3.67578954e-01f, 1.07501423e+00f, -1.40187895e+00f, 2.95553386e-01f, -9.81090605e-01f, 7.92619348e-01f, 7.71155596e-01f, -5.66438854e-01f, 4.21396494e-02f, -1.08914733e+00f, 2.52808213e-01f, -7.10517645e-01f, 3.38463575e-01f, 1.12574196e+00f, -6.72238708e-01f, -4.10703838e-01f, -2.09219038e-01f, -1.50960898e+00f, 1.08516335e+00f, 3.48823518e-01f, 7.42544532e-01f, 1.34533024e+00f, 1.13069153e+00f, -6.13936782e-01f, -2.41014552e+00f, -3.67976755e-01f, -2.59974957e-01f, 1.54219949e+00f, 1.88339099e-01f, -1.49036574e+00f, 6.57294154e-01f, 1.40749216e+00f, -1.53892505e+00f, -8.95470560e-01f, 8.01396370e-01f, -7.54711747e-01f, -4.84350950e-01f, -5.58813512e-01f, -4.20656115e-01f, 8.14032018e-01f, -7.47378170e-01f},
  {8.25268686e-01f, -1.99873045e-01f, 4.69773151e-02f, -1.56181797e-01f, -5.88605046e-01f, 1.10951766e-01f, -7.25679815e-01f, 7.08809435e-01f, 9.95300055e-01f, 1.49045491e+00f, 1.83642972e+00f, -1.12591960e-01f, -4.61562812e-01f, 3.06047022e-01f, -9.81839657e-01f, -2.31197715e-01f, 8.60720202e-02f, 8.04138303e-01f, -7.92951405e-01f, -1.42749214e+00f, -2.21102387e-01f, -1.32892027e-01f, -2.94318855e-01f, 3.72158706e-01f, 3.81942838e-02f, -1.49608731e-01f, -1.19362354e+00f, 7.60114193e-01f, -1.20682403e-01f, 7.83921719e-01f, 4.77211505e-01f, -5.32419741e-01f, -5.20969450e-01f, -7.70484746e-01f, -7.70946681e-01f, 1.19822860e+00f, 1.64374542e+00f, -9.38050985e-01f, -8.54599953e-01f, -9.49134469e-01f, 1.03762731e-01f, 1.32751775e+00f, -3.94698054e-01f, 5.37991881e-01f, 5.05673559e-03f, -3.43452543e-01f, -4.88041729e-01f, -1.17973924e+00f, -5.49140275e-01f, -9.64971364e-01f, 5.14105141e-01f, 8.16851079e-01f, 9.79549944e-01f, 4.60918769e-02f, 8.58499289e-01f, 3.18425715e-01f, -1.21655893e+00f, 2.74355620e-01f, -7.00533628e-01f, 2.54073650e-01f, -1.19830060e+00f, 6.48563564e-01f, -1.62237629e-01f, -5.45792103e-01f, -1.95386961e-01f, 1.30901754e+00f, 1.28702688e+00f, 3.96490067e-01f, 1.40214920e+00f, 7.90479660e-01f, 1.28504002e+00f, -5.83607078e-01f, 1.97966229e-02f, -5.22728115e-02f, -6.43931925e-01f, -7.62359202e-01f, 7.81149864e-01f, -1.24184477e+00f, -4.24700409e-01f, 2.89808124e-01f, 6.45679981e-02f, -1.23631883e+00f, -1.06937933e+00f, -5.01500487e-01f, 7.48657823e-01f, 3.11522031e+00f, 5.01236618e-01f, -9.35513318e-01f, 9.47548628e-01f, -2.37423375e-01f, -9.20022964e-01f, -3.85659069e-01f, 8.46961796e-01f, -5.26108503e-01f, -3.26587528e-01f, 2.29390249e-01f, -1.56297195e+00f, 1.21173418e+00f, -7.50998735e-01f, -2.52979428e-01f, 1.06721735e+00f, -1.62499464e+00f, -1.08263457e+00f, -2.86033511e-01f, 3.50412041e-01f, 3.40931565e-02f, -2.85490841e-01f, 3.55201326e-02f, 1.15669429e+00f, 3.11262667e-01f, 2.79990047e-01f, -2.73248196e-01f, 2.38405928e-01f, -1.12380946e+00f, 4.35855895e-01f, -4.03979778e-01f, -3.61486733e-01f, 9.42173243e-01f, -3.71899754e-01f, -2.48981386e-01f, 1.08748898e-01f, -9.95846987e-01f, -2.24789605e-01f, 1.15563683e-01f, 1.37555480e-01f, 7.92469382e-01f, 5.02282202e-01f, -6.46997273e-01f},
  {-6.05680943e-01f, 1.33746583e-02f, 7.40308285e-01f, 1.13174510e+00f, 3.13680559e-01f, -4.74981189e-01f, -1.59484386e+00f, 1.88433617e-01f, -6.74292564e-01f, -7.52616882e-01f, 9.72589016e-01f, -5.63777804e-01f, -1.34337616e+00f, 1.23346400e+00f, 9.41763446e-02f, -1.42229021e+00f, 1.47993076e+00f, 8.40709388e-01f, 3.93432081e-01f, 7.37176597e-01f, 1.16234398e+00f, -1.48300767e+00f, 1.08350921e+00f, -3.84823620e-01f, -1.39655948e+00f, 1.46882609e-01f, -1.74181107e-02f, -6.62018299e-01f, -1.40903878e+00f, 2.97120959e-02f, 1.45305440e-01f, 7.82410145e-01f, -1.57678097e-01f, 8.13687205e-01f, -1.24354732e+00f, -7.30132878e-01f, 7.00776041e-01f, 4.33877349e-01f, 8.68004486e-02f, -2.29021773e-01f, -1.75093627e+00f, 1.79548696e-01f, 2.03496695e+00f, 1.45636308e+00f, -1.99170843e-01f, -1.37633577e-01f, -4.10462946e-01f, 5.07905960e-01f, -1.71882474e+00f, 2.12123528e-01f, -3.94259244e-02f, -1.46975744e+00f, 1.78374365e-01f, 2.59091437e-01f, 1.63929486e+00f, 2.83026963e-01f, 1.01850793e-01f, 1.08991313e+00f, -1.65077007e+00f, 1.53422892e+00f, -1.97450316e+00f, -2.58792907e-01f, -1.32107115e+00f, 5.42905629e-01f, -5.94245315e-01f, -9.34456825e-01f, 3.57719809e-01f, 2.05369055e-01f, -4.37748432e-01f, -9.89837945e-01f, -1.17130363e+00f, 8.60935673e-02f, 1.08073986e+00f, 1.26921713e+00f, 7.13976502e-01f, -4.53734398e-01f, 1.78147610e-02f, -6.19151413e-01f, 1.44564673e-01f, -1.06312537e+00f, 4.29146513e-02f, -1.40937030e+00f, -1.23323667e+00f, 1.68135095e+00f, -4.05353755e-02f, -9.12660420e-01f, 2.73549855e-01f, -4.34521466e-01f, 8.09964061e-01f, -2.08469462e+00f, -5.43738157e-02f, 1.51681387e+00f, 7.43336380e-01f, -1.83359414e-01f, 6.53047442e-01f, 6.32208139e-02f, 3.70051414e-01f, 2.35117984e+00f, -1.83581460e+00f, 1.22331846e+00f, -1.16559303e+00f, 5.11462152e-01f, 1.03514361e+00f, 1.40235698e+00f, -1.34007454e+00f, -3.77252787e-01f, 1.55063778e-01f, -1.24557912e+00f, -1.52687466e+00f, 6.79360628e-01f, 9.35275972e-01f, -7.09923208e-01f, -9.01250988e-02f, -3.81222427e-01f, -3.96540672e-01f, 2.59417742e-01f, 1.54378474e-01f, -2.42985860e-01f, 8.18142295e-01f, -3.25417459e-01f, -3.52205485e-01f, -2.04454795e-01f, -1.79844713e+00f, -5.40461659e-01f, -2.55778760e-01f, 5.52521646e-01f, 3.94929111e-01f, -4.15302873e-01f},
  {-3.38137120e-01f, -3.97553220e-02f, 4.28374887e-01f, 3.55475098e-01f, 3.28110307e-02f, -3.31484437e-01f, -9.09999609e-01f, 5.91578305e-01f, 4.36801195e-01f, 2.68309832e-01f, -3.45313162e-01f, 4.04028207e-01f, -3.81806135e-01f, 6.55226186e-02f, 3.69306624e-01f, 8.17575991e-01f, 2.00281575e-01f, 1.72533080e-01f, 1.14661425e-01f, 1.03924826e-01f, 4.52867925e-01f, 1.24939434e-01f, 5.12142956e-01f, 6.81601584e-01f, -3.38445038e-01f, 2.71081835e-01f, 3.05733860e-01f, -1.74677312e-01f, -2.98280597e-01f, 2.67284840e-01f, -3.07559580e-01f, 1.49705744e+00f, -2.12832928e-01f, 6.35860384e-01f, -7.24497512e-02f, 4.70838249e-01f, -1.75582126e-01f, 7.56683707e-01f, -4.17771369e-01f, 6.06334925e-01f, 3.89865518e-01f, -3.54384154e-01f, -3.52149844e-01f, -3.94846231e-01f, 4.88887370e-01f, -7.46438146e-01f, -1.33391663e-01f, 6.15815282e-01f, -9.92078334e-02f, -1.79444835e-01f, 3.90273184e-01f, -1.93206951e-01f, -7.73326755e-01f, -8.77047777e-01f, -7.24437684e-02f, 9.70964372e-01f, -1.51046932e-01f, -8.74749899e-01f, 2.97465213e-02f, -2.43848026e-01f, 3.68277699e-01f, 1.83808543e-02f, -6.11929119e-01f, 7.15434253e-01f, -2.18504414e-01f, -5.65464497e-01f, -7.49367952e-01f, 6.08044207e-01f, -5.13132274e-01f, 6.47472918e-01f, -3.50714892e-01f, -2.76278079e-01f, -3.57623734e-02f, 3.06396574e-01f, 4.80623871e-01f, -9.53269303e-01f, -7.44919538e-01f, -1.29022539e+00f, 1.34655046e+00f, 3.32334518e-01f, 4.44151044e-01f, -3.99950176e-01f, -8.33665505e-02f, -2.23035514e-01f, -7.03177333e-01f, -7.18167067e-01f, -1.43095866e-01f, 2.12341264e-01f, -4.94852429e-03f, -1.39380610e-02f, -4.97652777e-02f, -1.65774375e-02f, -5.83340168e-01f, 4.51687306e-01f, 7.93251395e-02f, -2.88591623e+00f, -4.84599292e-01f, 5.86827636e-01f, -4.36090350e-01f, -1.02870369e+00f, -7.15360940e-02f, -2.08707266e-02f, 5.32810092e-01f, -9.05310929e-01f, 7.38221928e-02f, -4.88295145e-02f, 6.32687509e-01f, 2.36508757e-01f, 7.97713250e-02f, 4.50297773e-01f, -2.34282419e-01f, -1.59810990e-01f, -1.10948756e-02f, -1.00026831e-01f, 1.55952036e-01f, -4.03708398e-01f, 5.82484722e-01f, 3.69446248e-01f, -1.85805365e-01f, -1.71033278e-01f, -3.76388878e-01f, -1.81087688e-01f, -1.19040859e+00f, -9.11688864e-01f, -1.61804453e-01f, 3.74688298e-01f, 5.74233115e-01f, 1.15965617e+00f},
  {2.52150357e-01f, -4.52246398e-01f, 3.40349078e-01f, -4.63814557e-01f, 6.87304974e-01f, 6.02216184e-01f, 8.08319390e-01f, -2.64667988e-01f, 1.11174190e+00f, -4.99949157e-01f, -3.65858853e-01f, 5.78310341e-02f, -8.85353982e-01f, 6.37526453e-01f, 4.61111188e-01f, 1.00194526e+00f, -9.37228918e-01f, -2.31064439e-01f, -1.59679925e+00f, 1.77170113e-01f, 9.29875746e-02f, 1.23472037e-02f, -2.54561484e-01f, -5.05916059e-01f, -7.14280307e-01f, 7.87481070e-01f, -4.93227512e-01f, -2.54600167e-01f, 8.01147282e-01f, 7.39412159e-02f, 2.12314859e-01f, -1.19464719e+00f, -6.30953372e-01f, -1.04293740e+00f, 2.19911054e-01f, 3.64112318e-01f, -3.30166459e-01f, 9.03353468e-03f, 4.23693776e-01f, 1.65599018e-01f, -1.68303195e-02f, -7.71208286e-01f, -6.33338168e-02f, 4.27465111e-01f, 1.63859129e-02f, -1.82609797e+00f, -7.75071919e-01f, -1.35270560e+00f, -1.30459696e-01f, -5.79269707e-01f, 1.49520826e+00f, -7.76125014e-01f, 6.53585970e-01f, -5.90617061e-01f, 4.53903154e-02f, 3.69902164e-01f, -1.20476651e+00f, -4.33866620e-01f, 1.75375894e-01f, -1.30217564e+00f, 6.56002164e-01f, 8.06081116e-01f, -2.15198696e-01f, 1.35752976e+00f, 4.06478271e-02f, 4.32632238e-01f, -9.41024795e-02f, 2.41935765e-03f, -5.10583669e-02f, -6.24566376e-01f, 9.59548056e-02f, -3.20242643e-02f, -6.88504338e-01f, 7.74836168e-02f, -1.91088304e-01f, -6.58426940e-01f, 1.63643479e-01f, -1.15604706e-01f, -3.85548592e-01f, 5.55859625e-01f, -1.27934229e+00f, -8.61407742e-02f, 3.57544005e-01f, 1.00256157e+00f, -6.40868187e-01f, 4.20683622e-01f, -3.75304022e-03f, -8.74825358e-01f, -2.32372904e+00f, -4.05597761e-02f, 8.20931971e-01f, 1.47589952e-01f, -3.38910788e-01f, 8.40866119e-02f, 7.74017632e-01f, -4.45341170e-02f, -1.45820916e+00f, -5.64308703e-01f, -3.75850499e-02f, -3.98935527e-01f, 2.48198971e-01f, -1.39285219e+00f, -4.18853223e-01f, -5.30225217e-01f, -8.05719972e-01f, -7.26578891e-01f, 5.75920284e-01f, -1.04321313e+00f, -8.74864101e-01f, -2.02555433e-01f, -1.58187628e+00f, 2.50815868e-01f, -1.03362557e-02f, 5.30457973e-01f, 4.02444661e-01f, 6.33145720e-02f, -2.23134056e-01f, 8.67602974e-02f, -8.79821062e-01f, -4.34585035e-01f, 1.48006216e-01f, 2.57675409e-01f, -7.34255850e-01f, -1.13577199e+00f, -1.64932057e-01f, -1.74032882e-01f, 1.38070360e-01f, -1.12871647e+00f},
  {-1.26875508e+00f, 4.64886725e-01f, -9.54253733e-01f, -1.55134749e+00f, -6.18995607e-01f, 7.16019511e-01f, 3.57908692e-04f, 1.32923841e+00f, 6.21326029e-01f, -2.56378114e-01f, -1.35696805e+00f, 3.04928392e-01f, 3.47181231e-01f, -3.72391969e-01f, 7.48913409e-03f, -2.19345069e+00f, 1.62799582e-01f, -1.21288919e+00f, 6.88897967e-02f, -1.89689636e-01f, 1.29574344e-01f, -2.64926851e-01f, -1.55118510e-01f, 1.93427771e-01f, 1.07595789e+00f, -8.61757636e-01f, -7.51291096e-01f, -1.02701235e+00f, 6.76191092e-01f, 1.64862499e-01f, 9.04189825e-01f, 9.25376177e-01f, -5.64714611e-01f, 4.54361886e-01f, -1.22994101e+00f, 8.50621313e-02f, 2.01006681e-01f, -1.47887897e+00f, -1.10698378e+00f, -8.01596761e-01f, -1.71632588e+00f, 1.03158379e+00f, -2.21073404e-01f, -5.02478182e-01f, -1.14012539e+00f, -8.48388553e-01f, -1.67062253e-01f, -3.20064157e-01f, -1.05463922e+00f, -1.46509910e+00f, -1.12646259e-02f, -1.30137193e+00f, -1.00758421e+00f, -1.00707754e-01f, 3.69876593e-01f, 1.59673348e-01f, -8.99751842e-01f, -2.09244442e+00f, -9.54062104e-01f, 4.35403079e-01f, -5.54999411e-01f, 1.73308909e-01f, 1.85753608e+00f, 1.02806878e+00f, 1.37018383e-01f, -7.60255337e-01f, 9.64684427e-01f, -5.06836057e-01f, 1.04530478e+00f, 1.07198584e+00f, -9.88194287e-01f, 9.71560955e-01f, -1.07845747e+00f, 5.28427102e-02f, -6.54715419e-01f, 5.90912938e-01f, -1.37555015e+00f, -1.07710695e+00f, -7.78636456e-01f, 7.09263504e-01f, -5.21953106e-02f, -1.41066003e+00f, -1.78050780e+00f, 4.64648247e-01f, 1.06368208e+00f, 2.17236236e-01f, 2.23648572e+00f, 8.79161298e-01f, -5.12271941e-01f, -1.24706888e+00f, -9.14426446e-01f, -3.72418284e-01f, -2.15603426e-01f, -1.30184025e-01f, 1.29662609e+00f, -1.31829655e+00f, 3.95414382e-01f, -4.86402273e-01f, -1.46208033e-01f, -5.58345735e-01f, 1.65479779e+00f, 5.75794220e-01f, 1.08064914e+00f, 1.58945251e+00f, 7.11442649e-01f, 1.24490213e+00f, 4.03762981e-02f, 8.56798410e-01f, -5.35646737e-01f, 2.68867433e-01f, 8.54449049e-02f, 8.52565885e-01f, -4.51574445e-01f, 3.98393273e-02f, 4.19808507e-01f, -2.01982141e-01f, 9.48084176e-01f, -5.35760939e-01f, 1.00957882e+00f, 9.58163321e-01f, -8.44598770e-01f, -1.55005980e+00f, -2.24000230e-01f, -1.11715710e+00f, 7.90828690e-02f, 1.19264023e-02f, -8.51740241e-02f, 1.79293260e-01f},
  {1.02621138e+00f, -2.11748719e+00f, 1.06641734e+00f, 6.93024397e-01f, 5.32078803e-01f, 1.32614315e+00f, -3.98762584e-01f, 1.74502909e+00f, 1.22165775e+00f, -8.95983279e-02f, -5.05961657e-01f, -8.50765646e-01f, 5.84320366e-01f, 7.79500082e-02f, 8.17628026e-01f, 4.28539813e-01f, 1.10027105e-01f, -2.55527169e-01f, 5.00970006e-01f, 3.28414857e-01f, 1.58874094e-01f, 1.27294913e-01f, 5.62078476e-01f, 4.37950909e-01f, -6.68779373e-01f, -7.15867579e-01f, -5.85606933e-01f, -2.10013294e+00f, -2.58883804e-01f, -2.81266987e-01f, 9.77019608e-01f, 4.28253829e-01f, 3.11192095e-01f, 6.91332579e-01f, -3.62650156e-01f, -5.63799620e-01f, 6.14516258e-01f, 1.61492676e-01f, 8.06405902e-01f, -1.85794806e+00f, 3.81154776e-01f, 1.61561525e+00f, 1.08378386e+00f, 5.63279927e-01f, 4.43176240e-01f, -1.37067914e+00f, -5.36445081e-01f, 1.00013101e+00f, -6.98453963e-01f, 3.87939602e-01f, 6.00598633e-01f, 3.80379528e-01f, -3.36493403e-01f, 7.77615249e-01f, 3.75087053e-01f, -2.95524448e-01f, -4.54341441e-01f, 4.75221246e-01f, -8.03721666e-01f, 7.78802276e-01f, 9.24826503e-01f, 1.57824844e-01f, -9.10611987e-01f, -2.42792383e-01f, -7.02080131e-01f, -4.12426353e-01f, -1.20925009e-01f, 7.61971116e-01f, 3.34893286e-01f, -8.43437791e-01f, -2.41482049e-01f, 8.05482626e-01f, 2.96973675e-01f, 1.25036263e+00f, -1.07528985e+00f, -1.07676136e+00f, 5.34284860e-02f, -1.35292137e+00f, 3.08897316e-01f, 7.69910991e-01f, 2.10395098e-01f, -2.02494979e+00f, -3.08214664e+00f, -2.98953447e-02f, -6.10045552e-01f, 2.15762925e+00f, 6.89185977e-01f, -1.56064618e+00f, -1.80275929e+00f, 1.01310635e+00f, -6.56754375e-01f, 2.50578802e-02f, -7.19434261e-01f, -3.71417493e-01f, -1.96045503e-01f, 5.29223800e-01f, -4.12893951e-01f, 1.94653988e+00f, 1.44627726e+00f, -1.28374350e+00f, -5.95909357e-01f, 7.90832877e-01f, 6.67349935e-01f, 9.98335242e-01f, -3.69484305e-01f, -3.08787614e-01f, -2.84302622e-01f, -1.67593074e+00f, -1.97089124e+00f, 2.46419692e+00f, 7.56750286e-01f, -6.96961820e-01f, 2.36279917e+00f, -2.48457289e+00f, 3.66829067e-01f, -2.36283809e-01f, -6.01278186e-01f, -1.48233563e-01f, -2.92135447e-01f, -2.56475005e-02f, 5.16165555e-01f, -1.67177156e-01f, -1.71562040e+00f, -1.62513316e+00f, -2.77219206e-01f, 1.44365454e+00f, -6.46224141e-01f, 4.50213999e-02f},
  {5.82359970e-01f, -1.03267658e+00f, -6.18860722e-01f, -1.21641135e+00f, 9.15904701e-01f, 7.27813840e-02f, -9.01079297e-01f, 1.72293317e+00f, -1.19919097e+00f, -3.74287635e-01f, -1.84653270e+00f, 2.07214937e-01f, 8.04021835e-01f, -3.20701301e-01f, -5.19768715e-01f, -1.63738167e+00f, 2.26424307e-01f, -1.08340073e+00f, 2.29735017e+00f, -5.65346003e-01f, 9.00674284e-01f, -7.12333024e-02f, -4.01085824e-01f, 4.73276883e-01f, 6.76791608e-01f, 1.30622149e-01f, -6.65779293e-01f, -7.27572441e-01f, -1.01049757e+00f, -3.55046332e-01f, 7.57855117e-01f, -1.41690165e-01f, -1.47683859e+00f, 1.98215938e+00f, -1.58563912e+00f, -3.55245769e-01f, -4.95068222e-01f, -4.39204663e-01f, -5.76398551e-01f, -7.45976388e-01f, -7.45504141e-01f, 1.42636466e+00f, -9.02110994e-01f, 2.90226080e-02f, 1.30041671e+00f, 4.05399382e-01f, -2.74982125e-01f, 1.19115961e+00f, -5.90938449e-01f, 7.35540092e-01f, 1.68056369e-01f, -1.13044930e+00f, -2.15624833e+00f, 1.65338373e+00f, -2.60347761e-02f, -8.54596496e-01f, 9.68274593e-01f, 1.30348003e+00f, -1.43039906e+00f, 2.22803995e-01f, -1.02241945e+00f, -1.24668014e+00f, 1.20965159e+00f, -4.33369845e-01f, -1.96593955e-01f, -5.56995273e-01f, -1.03144634e+00f, -6.24904394e-01f, -4.21053857e-01f, 1.09455824e+00f, -3.17588985e-01f, -8.64245415e-01f, -1.33589125e+00f, -1.40376225e-01f, -4.38661098e-01f, 6.92871749e-01f, 2.71308064e+00f, -7.69576728e-01f, -5.10396719e-01f, -8.62977922e-01f, 2.58533120e+00f, 2.63559557e-02f, 5.42971551e-01f, -1.14572234e-01f, -8.08706820e-01f, 1.49228430e+00f, 1.44086456e+00f, -1.85986602e+00f, 3.13750654e-01f, 4.19013679e-01f, -1.74797010e+00f, -3.04497153e-01f, 2.20509410e-01f, 6.74233079e-01f, 6.20038137e-02f, -5.99496007e-01f, -1.12157035e+00f, 1.79425418e-01f, 3.29191089e-01f, -1.54735422e+00f, 2.59523485e-02f, 2.15192199e+00f, 1.17319830e-01f, -8.04348052e-01f, -8.19904327e-01f, -1.64275646e-01f, 3.20486486e-01f, 8.91358912e-01f, -2.27636710e-01f, 8.79953027e-01f, 1.04702580e+00f, 1.25504684e+00f, -8.85410845e-01f, -9.55727041e-01f, -3.31896394e-01f, 7.78686345e-01f, 1.31214762e+00f, 1.14977024e-01f, 2.11462453e-01f, -3.50200295e-01f, 7.85391390e-01f, -1.89072251e+00f, 6.33268833e-01f, -2.23420784e-01f, -2.14046553e-01f, 2.02618337e+00f, -1.59392905e+00f, 1.10074788e-01f},
  {-6.74774647e-02f, -1.09668803e+00f, 1.66851372e-01f, 7.97252893e-01f, 2.48706549e-01f, -4.04551804e-01f, 6.25441611e-01f, -4.99456316e-01f, -5.20516112e-02f, -7.26080120e-01f, 3.42287898e-01f, -1.94420800e-01f, 2.50322342e-01f, 5.08554399e-01f, 9.40519646e-02f, 1.28461003e+00f, -2.15685442e-01f, -4.04903024e-01f, -7.33496904e-01f, 2.42999300e-01f, 7.31195688e-01f, 1.12430108e+00f, -1.57957554e+00f, -2.22404718e-01f, 1.97240800e-01f, -1.44676119e-01f, 6.34406924e-01f, -6.21962011e-01f, -5.61756492e-01f, 7.03504682e-02f, -3.30672622e-01f, -2.85058737e-01f, -8.72452378e-01f, -2.28112888e+00f, 1.27086908e-01f, 6.43967152e-01f, 4.59124804e-01f, 3.62579763e-01f, -1.96827030e+00f, 5.34185112e-01f, 5.50009668e-01f, 1.06085896e+00f, -3.23345959e-01f, 2.23452672e-02f, -4.47193474e-01f, 4.71146822e-01f, -3.73270571e-01f, -1.88639760e-01f, 2.84861326e-01f, -2.34599859e-01f, 5.46559155e-01f, 5.88445589e-02f, -7.33750284e-01f, -4.84095931e-01f, 1.76906675e-01f, 8.64279389e-01f, 4.82038319e-01f, 1.19152927e+00f, 5.67605257e-01f, -6.79671168e-01f, -7.44630754e-01f, 2.36423478e-01f, 3.98190349e-01f, -1.09990895e+00f, -5.84051132e-01f, -1.72648445e-01f, 6.96713030e-01f, -1.21132958e+00f, 5.74410617e-01f, 7.92465687e-01f, 7.55016804e-01f, -6.03274107e-01f, 7.91464567e-01f, 4.29600514e-02f, 8.92634034e-01f, -1.41936040e+00f, -1.36745608e+00f, -1.95328131e-01f, 1.20605588e+00f, 1.35406768e+00f, -8.20686162e-01f, 1.66179943e+00f, -1.90767682e+00f, 8.31191361e-01f, 5.68266630e-01f, -2.29386523e-01f, 7.69477487e-02f, 4.06474262e-01f, -4.06543203e-02f, 1.12641919e+00f, -1.50474298e+00f, -5.31124234e-01f, 1.09838212e+00f, 1.18707657e+00f, 1.89415380e-01f, 2.79764771e-01f, 1.82348788e-01f, -7.63324976e-01f, 1.39023915e-01f, 5.46583176e-01f, 1.00099182e+00f, 2.78808743e-01f, -3.52197111e-01f, -1.53150141e+00f, -1.30058920e+00f, -9.44418728e-01f, 1.00544035e-01f, 5.18381596e-01f, -1.06346464e+00f, 1.38700938e+00f, -5.06577671e-01f, 1.12265766e-01f, 8.95184651e-02f, -7.93311119e-01f, 8.85682702e-02f, -1.32454205e+00f, 8.53595957e-02f, -3.71249199e-01f, 6.03705168e-01f, -8.73337388e-01f, -9.80402946e-01f, 6.47829473e-02f, -6.20126188e-01f, -3.31818521e-01f, 1.22650337e+00f, 4.99454767e-01f, 8.15949976e-01f, -5.90766191e-01f},
  {-8.62845302e-01f, -3.95189017e-01f, 9.06177998e-01f, 1.12680912e+00f, -3.23782891e-01f, 2.40342483e-01f, -2.01186180e+00f, -2.56085038e-01f, -6.01393044e-01f, 6.35145530e-02f, 6.99093282e-01f, 8.27760577e-01f, -4.89769608e-01f, -1.54272926e+00f, 1.49902999e+00f, -3.55270892e-01f, 6.14800639e-02f, -1.50259897e-01f, 1.51635455e-02f, 4.81639430e-02f, 8.56036007e-01f, 1.09256625e-01f, -6.14732616e-02f, 1.76359177e-01f, 6.79800570e-01f, -1.47057474e-01f, 1.18368864e+00f, 6.37666762e-01f, -1.18878591e+00f, -1.12552893e+00f, 1.48984492e+00f, 1.86908290e-01f, -5.51438853e-02f, -2.90907510e-02f, -1.47551823e+00f, -1.26232326e+00f, 5.66211164e-01f, -1.39445412e+00f, -1.69671237e+00f, -1.58361480e-01f, -2.35959768e+00f, 5.19207418e-02f, 1.31213379e+00f, 2.08969951e+00f, 6.03569895e-02f, 1.94577128e-01f, 1.02306592e+00f, -1.76183379e+00f, -1.18982255e+00f, -4.56452891e-02f, -3.26182507e-02f, -1.07465141e-01f, 8.69490325e-01f, 1.49979270e+00f, 1.35329878e+00f, 9.89333570e-01f, -4.11556542e-01f, -8.17589641e-01f, -2.05279922e+00f, 2.86077950e-02f, -1.26649094e+00f, -2.23002195e-01f, -3.10221344e-01f, 1.71675682e+00f, -9.28646505e-01f, -1.59871721e+00f, 8.80992532e-01f, -1.44119799e-01f, 4.34319556e-01f, -9.62255538e-01f, -1.02856779e+00f, -2.33862221e-01f, -2.00387090e-01f, -1.27210784e+00f, -1.48119345e-01f, -5.28506756e-01f, -2.33282709e+00f, -1.15910292e+00f, 4.06211466e-01f, 7.78705239e-01f, 8.71811032e-01f, -2.20837593e-01f, 1.10722564e-01f, 6.36080325e-01f, 7.69553602e-01f, -1.23975670e+00f, 7.45760024e-01f, -6.41353190e-01f, 1.22276437e+00f, -6.19192660e-01f, -3.76616806e-01f, -1.26997483e+00f, 7.68251121e-01f, 3.89077634e-01f, -1.16031456e+00f, 2.28630096e-01f, 2.31371567e-01f, 4.05448586e-01f, 1.33951992e-01f, 1.28970474e-01f, -3.43487412e-01f, 1.41536283e+00f, 1.62386513e+00f, -1.15027809e+00f, -3.11965078e-01f, -6.14506364e-01f, -1.17872894e+00f, 5.53881943e-01f, 3.86499733e-01f, 2.57494777e-01f, 1.38979769e+00f, -9.03615534e-01f, -2.67865539e-01f, 1.09620050e-01f, -3.76212656e-01f, 4.32051629e-01f, 1.30601513e+00f, -3.18164736e-01f, 5.89177251e-01f, 1.77816629e+00f, -5.17854929e-01f, -1.28290102e-01f, 3.17567974e-01f, -1.63932666e-01f, 6.69721246e-01f, 7.16493785e-01f, 1.62714615e-01f, 4.88368832e-02f},
  {1.31844425e+00f, -1.23685133e+00f, -2.20091552e-01f, -5.35014510e-01f, 1.86523825e-01f, 7.59986639e-01f, -2.11119437e+00f, 2.62521148e-01f, 6.33678675e-01f, -2.25350380e-01f, -6.65749669e-01f, 7.08613634e-01f, 3.34640235e-01f, 1.02615058e-01f, -1.28890407e+00f, 5.79933703e-01f, -1.14366913e+00f, 6.86752319e-01f, -3.85793507e-01f, -3.41514498e-01f, -1.66653052e-01f, 6.14643507e-02f, -1.21427369e+00f, 1.26591623e+00f, -1.19788158e+00f, 1.66779518e-01f, 5.60636938e-01f, -8.40901136e-01f, -4.75680351e-01f, 6.73789382e-02f, -7.98254490e-01f, -1.46809232e+00f, -4.86366838e-01f, -1.49192607e+00f, 3.14558148e-01f, 9.85948324e-01f, 1.16108799e+00f, 1.67203736e+00f, -5.87265313e-01f, -1.69504881e+00f, -3.91063184e-01f, 1.67408913e-01f, 1.03474939e+00f, 2.01042438e+00f, 6.20162070e-01f, -6.66640997e-02f, -1.86159956e+00f, -2.40985230e-01f, -1.18663192e-01f, -1.31799078e+00f, -4.85024065e-01f, -5.22743940e-01f, 1.09106660e+00f, 3.19431841e-01f, 5.49480200e-01f, 5.19955575e-01f, -6.84591949e-01f, 2.15306926e+00f, -1.16350496e+00f, -8.73555303e-01f, -7.48559058e-01f, -1.02768803e+00f, -6.67836308e-01f, 1.35360742e+00f, -1.94526196e+00f, 6.54882252e-01f, 3.83371055e-01f, -1.70231640e-01f, 1.32698345e+00f, 4.48095590e-01f, -4.59877193e-01f, 5.51152885e-01f, -1.65093452e-01f, 6.40768886e-01f, -9.96257365e-01f, -4.20770645e-01f, 6.29352570e-01f, -7.61171818e-01f, -9.63649333e-01f, 9.58980381e-01f, -1.30572724e+00f, -4.18798774e-02f, -1.52357006e+00f, -5.05255302e-04f, 5.08570910e-01f, 1.52948225e+00f, -4.17077094e-02f, -1.13332534e+00f, -1.31781149e+00f, -6.56089326e-03f, 1.59261417e+00f, 1.80411309e-01f, -1.46108675e+00f, -6.12550080e-01f, -9.42015886e-01f, -9.13475752e-01f, -1.15363848e+00f, 3.27323198e-01f, 3.02781880e-01f, -3.56915116e-01f, 7.70272613e-02f, -1.77060470e-01f, -9.27361846e-01f, -5.48767447e-01f, 4.59217340e-01f, -5.16369224e-01f, -1.00101069e-01f, -1.25867176e+00f, -1.52314091e+00f, 1.09899712e+00f, -8.15597996e-02f, -8.55704844e-01f, -9.29351375e-02f, -8.02237332e-01f, 6.09531760e-01f, -1.14386626e-01f, -1.48123491e+00f, -1.18128419e+00f, -1.70144534e+00f, -7.80912399e-01f, -3.21059316e-01f, 8.83441210e-01f, -6.09135807e-01f, -1.52713671e-01f, -9.95280221e-02f, -4.79546815e-01f, -1.46025109e+00f, -6.53306365e-01f},
  {8.60449672e-01f, -5.08866906e-01f, -1.13019884e+00f, 2.64876151e+00f, -1.46786499e+00f, -4.42118406e-01f, -1.00740862e+00f, -1.84385622e+00f, 8.35747540e-01f, 2.20170274e-01f, 1.09766579e+00f, 9.00854707e-01f, 2.20712423e-01f, -4.96027619e-02f, 6.47390664e-01f, 3.56071949e-01f, 1.87342893e-02f, 1.54152191e+00f, -9.95845079e-01f, -5.16351044e-01f, 2.07675195e+00f, 5.23798704e-01f, 1.33459687e-01f, -4.61366862e-01f, 4.82203633e-01f, -3.41566801e-02f, 5.71185708e-01f, 1.11991060e+00f, 9.62360203e-01f, -1.21004951e+00f, 1.33700311e+00f, -1.44412386e+00f, -1.51546228e+00f, -1.46234810e+00f, -2.52644849e+00f, -2.34808698e-01f, 8.62983882e-01f, -2.38010064e-01f, -1.16545236e+00f, 3.67718697e-01f, -5.33839762e-01f, -1.46102741e-01f, -8.21221888e-01f, 1.61342919e+00f, -3.82728219e-01f, -1.92956400e+00f, -2.17310160e-01f, -1.50693610e-01f, -5.82834065e-01f, -1.34039417e-01f, 1.12322760e+00f, 1.87115681e+00f, -9.05077755e-01f, 7.35086799e-01f, 5.52843869e-01f, -4.86712605e-01f, 9.94623661e-01f, -8.33113864e-02f, -6.60103500e-01f, 2.77053744e-01f, -7.40931749e-01f, 3.87146831e-01f, 2.14253736e+00f, 6.35037482e-01f, -5.81593335e-01f, -5.80959439e-01f, 1.06130672e+00f, -1.69509470e+00f, -9.34594721e-02f, -1.28580737e+00f, -1.18759191e+00f, -4.70738769e-01f, -9.33170855e-01f, -1.08802140e+00f, 1.73314905e+00f, -1.88427699e+00f, -2.35574150e+00f, -1.34844625e+00f, 1.96121886e-01f, 2.45458531e+00f, -6.42032027e-02f, 4.33851361e-01f, 7.42072225e-01f, 6.00840867e-01f, -1.35930270e-01f, 1.14686680e+00f, 3.03295672e-01f, 2.36956969e-01f, 9.05577242e-01f, 1.42419606e-01f, -7.59093463e-01f, -5.12262344e-01f, 1.49890316e+00f, 1.85152757e+00f, -2.06323528e+00f, -8.65157366e-01f, -2.74329097e-03f, 7.09436119e-01f, 6.48896337e-01f, 1.14620554e+00f, 3.03829491e-01f, -1.18185079e+00f, 8.52335572e-01f, -2.28119659e+00f, -2.29656768e+00f, 2.99671322e-01f, 3.72936696e-01f, 7.64675796e-01f, -4.63908732e-01f, 1.02145195e+00f, 9.79359567e-01f, -2.00757670e+00f, -1.12461114e+00f, -1.09925461e+00f, 4.73759472e-01f, -6.65765032e-02f, 7.29352057e-01f, -2.18324113e+00f, 1.40614057e+00f, -1.59309375e+00f, -2.87159264e-01f, 3.25494200e-01f, 7.97385201e-02f, 4.09260958e-01f, 2.40470707e-01f, -5.01876235e-01f, 2.09992957e+00f, 2.24940792e-01f},
  {-1.68780476e-01f, -4.67102855e-01f, 1.35997915e+00f, -1.02252400e+00f, -2.02746439e+00f, 4.15983163e-02f, 4.36708719e-01f, 4.86013860e-01f, -1.22123730e+00f, -7.40181386e-01f, 9.55727875e-01f, -8.37684333e-01f, -1.68486908e-02f, -9.15170491e-01f, -6.63496479e-02f, -4.59997118e-01f, -3.10249031e-01f, 1.19682622e+00f, 4.87273484e-01f, 1.18675864e+00f, 1.56166387e+00f, -5.02131343e-01f, 4.02205199e-01f, -9.79751825e-01f, 3.36486787e-01f, 8.39347541e-01f, 5.18012106e-01f, -5.67376971e-01f, -5.26096284e-01f, -1.20279992e+00f, 6.41581178e-01f, 1.20077467e+00f, 7.41495267e-02f, 1.19718945e+00f, -6.92735374e-01f, -4.31785345e-01f, 2.25837886e-01f, -8.78013968e-01f, -8.27397346e-01f, -8.43656719e-01f, -7.70461798e-01f, 2.30945975e-01f, 1.93577647e+00f, 1.45873630e+00f, -3.42789263e-01f, -1.96904242e+00f, -6.95518404e-02f, -3.58885050e-01f, -1.78661251e+00f, 4.28366035e-01f, -4.95635837e-01f, 4.54363912e-01f, -1.33482897e+00f, -2.94533581e-01f, 2.08358550e+00f, -7.49503553e-01f, -8.04033160e-01f, -7.13551819e-01f, -3.37590039e-01f, -4.96313691e-01f, -5.43811440e-01f, -8.31848383e-01f, 1.27426103e-01f, 5.55514216e-01f, -1.52626944e+00f, -2.62792319e-01f, -4.58359957e-01f, 6.98381841e-01f, 7.28909373e-02f, -8.52518678e-02f, 9.95288014e-01f, 3.71975482e-01f, -7.91522920e-01f, 2.20291074e-02f, -3.39087009e-01f, 2.04637432e+00f, -1.29859507e+00f, -1.47362328e+00f, 4.09680247e-01f, 4.99095887e-01f, -9.20558497e-02f, -7.06184983e-01f, -1.34734368e+00f, 9.35413718e-01f, 3.10732692e-01f, -4.12686557e-01f, 1.66460097e+00f, -3.93268675e-01f, -5.43468535e-01f, -2.04346800e+00f, -1.24983656e+00f, -6.70340657e-01f, -5.81112802e-02f, -3.47250879e-01f, -7.96925008e-01f, 5.24535656e-01f, -3.33642885e-02f, 1.89225519e+00f, 8.57314229e-01f, 1.00760520e+00f, 1.13049543e+00f, 1.07097256e+00f, 7.36474842e-02f, 9.68223214e-01f, 1.18353379e+00f, 2.16909528e+00f, -5.12717783e-01f, 4.15218830e-01f, -2.04297519e+00f, 1.66942787e+00f, 7.29120195e-01f, -1.96185994e+00f, -1.38079906e+00f, -5.69630384e-01f, -9.21951711e-01f, 1.09010413e-01f, 6.91516772e-02f, 1.63820963e-02f, -6.56469584e-01f, -7.97110915e-01f, -7.73008585e-01f, 1.75964549e-01f, -8.71130466e-01f, -4.71781522e-01f, -6.33882284e-01f, 8.39380026e-01f, 4.35982138e-01f, 8.50393176e-01f},
  {1.83913618e-01f, -9.16543007e-01f, 8.11559737e-01f, 8.46454680e-01f, 8.40827003e-02f, -9.47057962e-01f, -2.47691822e+00f, -1.58536717e-01f, 3.87472421e-01f, -3.63967508e-01f, 9.71513748e-01f, 1.86389610e-01f, -1.63210523e+00f, 1.06667924e+00f, -1.35507345e-01f, 3.02805305e-01f, 9.25680459e-01f, -3.79127979e-01f, -4.04188573e-01f, -1.64514318e-01f, 8.02917480e-01f, 1.10788679e+00f, -2.48331577e-02f, -1.45825219e+00f, -8.86444211e-01f, -7.46106923e-01f, -2.37651601e-01f, -6.66236579e-01f, -8.06015551e-01f, -4.47424769e-01f, 2.11712033e-01f, 4.01691973e-01f, -4.00157869e-01f, -1.11190116e+00f, -1.45931387e+00f, -7.32030943e-02f, 7.55638003e-01f, -5.51013708e-01f, -2.55882049e+00f, 8.12222064e-01f, 1.47630322e+00f, 5.78823984e-01f, 1.61397290e+00f, 1.29977095e+00f, 7.73038417e-02f, -9.91816163e-01f, -3.97100300e-03f, -5.46999991e-01f, 5.48822284e-01f, -2.66884685e-01f, 1.05672240e+00f, -8.75448227e-01f, 6.67988300e-01f, -1.97535944e+00f, 1.04428077e+00f, -1.80921996e+00f, 6.09935522e-01f, -8.03632319e-01f, 1.48861930e-01f, -4.42479908e-01f, -1.62960976e-01f, -3.21206063e-01f, -4.41581249e-01f, 5.60516834e-01f, -6.02018595e-01f, 9.76875067e-01f, -9.42689002e-01f, 3.47516030e-01f, 1.05960381e+00f, -1.37513018e+00f, -4.10249501e-01f, 5.78154743e-01f, 1.01189770e-01f, -2.13194460e-01f, 3.16251010e-01f, 6.68617338e-02f, -5.55462658e-01f, 9.51708108e-02f, 3.07073385e-01f, 1.06976199e+00f, -1.28454018e+00f, -3.89699310e-01f, 4.60613444e-02f, 6.63117051e-01f, -1.08613527e+00f, -9.51764226e-01f, -9.01388884e-01f, -1.76847959e+00f, -4.47972715e-01f, 5.80744088e-01f, -8.12785685e-01f, -7.23886490e-01f, 1.64697200e-01f, 1.52882576e-01f, -6.04342759e-01f, 3.97650059e-03f, -6.25514835e-02f, 4.78116572e-01f, 1.38451254e+00f, 5.44449806e-01f, 5.52408934e-01f, 1.22548831e+00f, -1.38434052e+00f, -2.08096337e+00f, -1.17296243e+00f, -3.33579987e-01f, 4.20268506e-01f, -1.62958249e-01f, -1.48064041e+00f, 8.25661242e-01f, -6.06501997e-01f, 3.24220121e-01f, -4.53205794e-01f, -2.13319182e-01f, 4.04836625e-01f, -8.22463214e-01f, -2.00751948e+00f, -9.39107776e-01f, -4.77457196e-01f, -8.31129432e-01f, -2.93930709e-01f, -8.43994141e-01f, -9.60176349e-01f, 2.41513580e-01f, 2.08008662e-01f, -1.03772378e+00f, 5.33964396e-01f, -8.95605624e-01f},
  {3.76771063e-01f, -2.43628359e+00f, 2.13437945e-01f, -3.33158709e-02f, 4.19526160e-01f, -6.31390035e-01f, 1.33163083e+00f, -1.08270265e-01f, 2.06615210e+00f, 1.28662336e+00f, 6.42035902e-01f, 1.23674357e+00f, -1.76930106e+00f, 9.55191493e-01f, 5.93177557e-01f, -8.36606383e-01f, -6.28823757e-01f, -4.00875837e-01f, -4.02711153e-01f, -9.34684992e-01f, -1.19943053e-01f, -4.82209831e-01f, 3.63387525e-01f, -1.17873645e+00f, -1.52837598e+00f, -7.48695195e-01f, -5.45393080e-02f, 7.46007860e-01f, 4.98475790e-01f, 1.32746351e+00f, 2.34364986e-01f, -2.22905827e+00f, -1.14308178e+00f, 4.26393360e-01f, -3.93806159e-01f, 7.38268018e-01f, 6.63002193e-01f, 1.46686518e+00f, 1.86636657e-01f, -5.86957693e-01f, 5.66145837e-01f, 1.62614331e-01f, 1.54478192e+00f, 1.07105756e+00f, -1.30205914e-01f, -3.21120429e+00f, -1.03868902e+00f, -1.66382402e-01f, 1.61211044e-01f, -1.64346611e+00f, 1.40052378e+00f, 1.42313695e+00f, -2.13625640e-01f, -8.75214994e-01f, -7.51340866e-01f, -8.16647589e-01f, 1.20008886e+00f, -5.33383727e-01f, -6.76468134e-01f, -1.30044067e+00f, 1.16835041e-02f, 9.30825621e-02f, -2.12272692e+00f, 6.20871842e-01f, -1.38527477e+00f, 4.39344913e-01f, -2.15780735e+00f, 2.52141714e+00f, 1.22658098e+00f, -4.85854477e-01f, -4.64000612e-01f, -1.43254471e+00f, 3.21056426e-01f, 9.52348053e-01f, -1.08020198e+00f, -1.70919502e+00f, -2.68383861e-01f, -1.12248445e+00f, -1.52244306e+00f, 1.21801186e+00f, -1.70352310e-01f, -3.69083524e-01f, 5.94425917e-01f, -9.62175786e-01f, -4.52960342e-01f, 1.48695862e+00f, -1.18185163e+00f, -3.16038203e+00f, -6.64393783e-01f, -1.00684315e-01f, 2.05524847e-01f, 2.32702047e-02f, 5.84063947e-01f, 8.69385064e-01f, 3.67845237e-01f, -5.85010648e-01f, -6.05391085e-01f, -5.46180271e-02f, -4.35994938e-02f, -1.37549591e+00f, -1.01395226e+00f, 4.70876962e-01f, 8.25570971e-02f, 8.59565496e-01f, -5.83099313e-02f, 5.98795414e-01f, -1.83906925e+00f, -1.84585571e+00f, -1.56311786e+00f, 1.55771387e+00f, -7.28107572e-01f, 9.74996239e-02f, 4.06706512e-01f, -6.62653208e-01f, 4.08318520e-01f, 7.15577245e-01f, -3.55220556e-01f, -4.40574497e-01f, -7.29303062e-01f, 4.57292885e-01f, 8.13844085e-01f, -3.23231928e-02f, -1.03935730e+00f, 3.32354307e-01f, -1.12048045e-01f, -1.98105667e-02f, -4.29700494e-01f, -1.30519897e-01f},
  {-7.28053987e-01f, -3.95897269e-01f, 2.77769804e-01f, 2.41267875e-01f, -7.70971596e-01f, -5.03517389e-02f, -2.13909268e+00f, 6.18082047e-01f, -2.30961263e-01f, -8.39807272e-01f, 1.66892147e+00f, -1.28286019e-01f, -1.88586831e-01f, 1.93255991e-01f, -1.22057185e-01f, -1.12740946e+00f, -2.22808525e-01f, 8.68536174e-01f, 9.72890198e-01f, -1.78588748e-01f, 5.61775863e-01f, -6.13148630e-01f, 3.82365227e-01f, -5.75926840e-01f, 6.03713989e-01f, -4.88207452e-02f, 7.15029761e-02f, -3.73101503e-01f, -3.81732397e-02f, 1.29021466e-01f, -3.21663827e-01f, 4.20194685e-01f, 1.55515444e+00f, -1.46197426e+00f, -9.87276971e-01f, -7.82069504e-01f, 5.01517236e-01f, -6.17081583e-01f, -1.17966914e+00f, -1.59411585e+00f, 1.71740085e-01f, -2.75214761e-01f, -6.59066677e-01f, -5.58207154e-01f, 2.78140977e-02f, 1.20282300e-01f, 6.00098193e-01f, -1.49020863e+00f, -4.27827060e-01f, -1.51749539e+00f, 2.63558507e-01f, -2.67704904e-01f, 5.96758366e-01f, 2.72797018e-01f, 5.38759589e-01f, -2.95006126e-01f, 3.86199176e-01f, 1.63176343e-01f, -1.23371863e+00f, -3.43086183e-01f, -6.52206600e-01f, -4.35282998e-02f, 5.81981719e-01f, -6.09900653e-01f, -2.07011431e-01f, 9.61699411e-02f, 6.34408593e-01f, 5.52308187e-03f, 5.31097233e-01f, -5.87070704e-01f, -1.62600931e-02f, -7.00072825e-01f, -9.08833265e-01f, -7.73992836e-01f, -2.57332504e-01f, 1.99509904e-01f, -4.13775951e-01f, -2.15950131e-01f, 8.77195597e-01f, 8.59485626e-01f, 9.77566659e-01f, -1.06076372e+00f, -2.16630530e+00f, 1.11273217e+00f, 1.86737347e+00f, -2.78009504e-01f, 3.67766947e-01f, -9.13727190e-03f, 2.94295162e-01f, -4.64951128e-01f, -3.18602055e-01f, -6.74204707e-01f, 2.74966627e-01f, -3.78052622e-01f, -2.43465081e-02f, -6.85395896e-01f, -1.06069364e-01f, 2.11246416e-01f, 2.72348523e-01f, 1.47245139e-01f, 4.19959813e-01f, 1.83011025e-01f, 1.09725863e-01f, 4.45500970e-01f, -3.26263279e-01f, 7.04968035e-01f, 1.56681892e-02f, 1.40103742e-01f, 4.18364972e-01f, -3.19106221e-01f, -6.87654316e-02f, -5.42667985e-01f, 1.03934276e+00f, 5.14414728e-01f, 7.49328956e-02f, 5.76359749e-01f, 1.85558259e+00f, -1.09378874e-01f, 1.09731281e+00f, 1.84403658e-01f, -3.71918887e-01f, 1.24994659e+00f, -3.85426074e-01f, -2.96889812e-01f, 5.20407736e-01f, 3.01633626e-01f, -4.88904566e-01f, -1.48137462e+00f},
  {-8.45010057e-02f, -2.17207313e+00f, 6.24562740e-01f, 6.59235299e-01f, 7.89251447e-01f, 5.50186217e-01f, 1.07898191e-01f, 9.47712183e-01f, 1.04678833e+00f, 9.98152733e-01f, -7.18101203e-01f, -7.32457638e-03f, -1.38864172e+00f, 1.21671140e+00f, -1.62411034e-01f, -1.32742321e+00f, -1.52496696e-01f, -6.43596113e-01f, -5.55575371e-01f, -7.26943493e-01f, 5.77799022e-01f, -1.61780827e-02f, 9.62780416e-01f, 1.43882975e-01f, -1.49924517e+00f, -2.46234223e-01f, 7.00678408e-01f, -7.70970464e-01f, 7.04398692e-01f, 4.13338482e-01f, 1.07770836e+00f, -2.04107356e+00f, -4.34116006e-01f, 1.18123746e+00f, -6.31756246e-01f, 4.63931590e-01f, 1.45342374e+00f, -2.22831011e-01f, -5.51840942e-03f, -3.65025192e-01f, 6.65684819e-01f, 9.35177028e-01f, 9.76453781e-01f, 1.15492439e+00f, -4.71574605e-01f, -1.19805884e+00f, -8.91995192e-01f, 1.11189544e+00f, -1.70224488e+00f, 4.77426320e-01f, 5.22809744e-01f, 1.01044452e+00f, 5.40347219e-01f, -6.88502789e-01f, -2.80539602e-01f, -1.48989661e-02f, 9.14001286e-01f, 8.10698941e-02f, -5.55911005e-01f, -7.48545825e-02f, -3.35855335e-01f, -1.75245017e-01f, -1.48941755e-01f, 9.77887213e-01f, -2.89437741e-01f, 2.44288698e-01f, -1.72546148e-01f, 5.83654821e-01f, 9.30852830e-01f, 4.48864996e-02f, 4.24520046e-01f, -2.27311235e-02f, 3.44831645e-01f, 9.08127800e-02f, -6.20652914e-01f, 1.17204499e+00f, 9.56275702e-01f, -1.38870442e+00f, -6.83039380e-03f, 1.76131773e+00f, -7.52987802e-01f, 4.38616365e-01f, -7.88264453e-01f, -9.11017731e-02f, -8.42454791e-01f, 2.98641652e-01f, 4.66797799e-01f, -2.68352926e-01f, -1.74588692e+00f, 9.06604648e-01f, 1.08654690e+00f, 1.87162995e-01f, 1.88600317e-01f, 3.14519852e-01f, 1.66887426e+00f, -1.50529575e+00f, -3.92055571e-01f, 2.63180792e-01f, 4.34753060e-01f, 8.13669503e-01f, 8.89068544e-01f, 1.55439526e-01f, 1.46596640e-01f, -3.50875080e-01f, 5.19175688e-03f, -2.06575766e-01f, 2.73929179e-01f, -1.62243247e+00f, -2.02425790e+00f, 1.77603054e+00f, 6.95256889e-01f, -1.60087585e-01f, 5.51906407e-01f, -7.47795880e-01f, 5.76185226e-01f, -4.22689080e-01f, -6.74637437e-01f, -9.32344079e-01f, -1.71551079e-01f, 1.02562070e+00f, 1.80663958e-01f, 2.89841652e-01f, 2.51172423e-01f, -3.65717292e-01f, -7.64434814e-01f, 2.57817268e-01f, 9.97197106e-02f, 2.94159174e-01f},
  {-1.05159082e-01f, 2.87410229e-01f, 4.70523804e-01f, -3.36089939e-01f, 5.55167019e-01f, -8.00785542e-01f, 2.08477378e-01f, 8.01062107e-01f, 2.20412707e+00f, -4.99187887e-01f, 3.73686016e-01f, -3.24439436e-01f, 3.07085812e-01f, -7.07208514e-01f, 9.79023933e-01f, 7.57233560e-01f, -5.46057343e-01f, -6.73792720e-01f, -7.28079140e-01f, 6.60474837e-01f, 8.41984212e-01f, 1.55572021e+00f, -2.04291439e+00f, -4.83931184e-01f, -2.21493411e+00f, -1.10172951e+00f, 8.49372625e-01f, 1.36363460e-03f, 9.57312733e-02f, 1.46604434e-01f, -8.67477298e-01f, -8.46969336e-02f, 5.61346374e-02f, -1.73520398e+00f, -1.85378003e+00f, 3.75651777e-01f, 4.09025997e-01f, 6.25879049e-01f, -1.48214042e+00f, -5.99928759e-03f, 8.21651816e-01f, 2.74283081e-01f, 2.80168325e-01f, 3.22400749e-01f, 1.48927534e+00f, -1.68010867e+00f, 4.00757164e-01f, 4.63396490e-01f, -1.01466421e-02f, -1.27260998e-01f, 8.42372119e-01f, -3.46987158e-01f, 3.09632033e-01f, -1.47559857e+00f, 7.16457903e-01f, -2.52249569e-01f, -7.06424236e-01f, 1.55883864e-01f, -9.78366435e-01f, -5.92104733e-01f, 5.15934646e-01f, 5.38963258e-01f, 2.26019755e-01f, -1.85482287e+00f, -1.15658998e-01f, -1.86646491e-01f, -1.03000969e-01f, 5.03957033e-01f, 2.32175305e-01f, -1.53320503e+00f, -8.24223638e-01f, -3.52582455e-01f, -2.05614820e-01f, 8.30220699e-01f, -3.30909073e-01f, -1.21878064e+00f, -2.84323037e-01f, -3.53104025e-01f, -4.59958076e-01f, 1.04887104e+00f, 7.01110661e-01f, -1.52861282e-01f, 2.82820523e-01f, 6.64794505e-01f, -3.29427496e-02f, 1.36692405e+00f, -2.41029114e-01f, -5.89273274e-01f, 3.93083721e-01f, 2.10660338e+00f, -9.44225430e-01f, 4.70358044e-01f, 7.32059240e-01f, 4.44235116e-01f, -2.42055893e-01f, -4.86829549e-01f, -1.92968202e+00f, 3.25826049e-01f, 1.40424430e+00f, -1.10669911e+00f, 1.29679596e+00f, -9.93867069e-02f, -1.80397496e-01f, -9.78154898e-01f, -1.26796293e+00f, -7.87327528e-01f, 7.35651433e-01f, -3.79157215e-01f, -1.30649471e+00f, 1.65364432e+00f, 7.70941734e-01f, -4.43561316e-01f, -1.19854081e+00f, 6.62791789e-01f, -9.84613419e-01f, 3.88313144e-01f, 2.59820670e-01f, 2.07989022e-01f, 3.64276767e-01f, -1.94668388e+00f, -1.20724106e+00f, -1.22505426e+00f, -9.27507281e-02f, -1.76052308e+00f, 4.35917914e-01f, 2.01472759e-01f, 2.60663748e-01f, 1.49768427e-01f},
  {8.01672637e-01f, -1.34609461e+00f, 3.71643543e-01f, -6.57296240e-01f, -8.77157152e-02f, -2.20394492e-01f, -1.48929632e+00f, 6.98541284e-01f, -4.83585864e-01f, 1.06298156e-01f, 1.03395402e+00f, 1.82196889e-02f, -4.83899027e-01f, -1.16657579e+00f, -2.74297539e-02f, 5.35528660e-01f, 7.09584296e-01f, -1.75246328e-01f, 8.82305443e-01f, -8.28031182e-01f, -1.03648233e+00f, 3.36147457e-01f, 8.12505543e-01f, -2.11304858e-01f, -1.53806782e+00f, 1.51947236e+00f, 1.02597475e+00f, -3.76614392e-01f, 9.88215089e-01f, 9.40660357e-01f, -4.29909080e-02f, -5.63214533e-02f, 9.73852992e-01f, 1.42125160e-01f, 8.18283439e-01f, -3.43511075e-01f, 4.41477865e-01f, 8.83809090e-01f, 3.66550624e-01f, -2.55124688e-01f, 7.02774167e-01f, 2.86345363e-01f, 5.69737196e-01f, 2.10426712e+00f, 5.32933116e-01f, -1.29843092e+00f, -2.49410033e+00f, -4.81339097e-01f, 2.12635964e-01f, 9.04812887e-02f, 1.95296705e-01f, 5.10561824e-01f, -1.59849420e-01f, -1.82830238e+00f, -9.31360666e-03f, 2.79944956e-01f, 4.40523386e-01f, 1.14434853e-01f, -8.37491751e-01f, 2.06856206e-01f, 4.87357885e-01f, -2.55500991e-02f, -1.53524625e+00f, 7.00561464e-01f, -7.11443901e-01f, -7.75161326e-01f, -9.59996104e-01f, 1.68139767e-02f, 6.23711526e-01f, -6.11689568e-01f, 4.19071347e-01f, 4.22998667e-02f, -4.38904941e-01f, -9.03794318e-02f, 2.05031201e-01f, 1.00067250e-01f, -9.14444208e-01f, -7.31421530e-01f, -1.37285769e+00f, 1.16093457e+00f, 3.42797264e-02f, -2.01357767e-01f, 7.00362027e-02f, 3.44261885e-01f, 4.53806847e-01f, -4.67716843e-01f, 5.01460254e-01f, -7.81759679e-01f, -4.73130226e-01f, 5.24010181e-01f, 4.09320503e-01f, 9.87567723e-01f, 1.08482063e+00f, 1.58706978e-01f, 8.78180191e-02f, -1.47455111e-01f, -9.42435622e-01f, -1.73177153e-01f, 7.29939103e-01f, -6.39240682e-01f, 8.93763781e-01f, 7.38794208e-01f, 6.49462819e-01f, 1.04486966e+00f, -1.18841445e-02f, 9.75985527e-01f, 7.71263361e-01f, -1.69449949e+00f, -1.41683370e-01f, 1.31671071e+00f, 2.20328003e-01f, -9.35646772e-01f, -2.98406988e-01f, -3.54527712e-01f, 4.89322454e-01f, -7.94649601e-01f, -1.19003379e+00f, 1.24868453e+00f, -9.61346507e-01f, 8.26324895e-02f, 9.49956477e-01f, 9.58760202e-01f, -1.05523266e-01f, -5.76087058e-01f, 4.84639883e-01f, -5.61775625e-01f, 1.90637696e+00f, -3.71063977e-01f},
  {-5.33354819e-01f, 7.02577949e-01f, -1.25635147e+00f, 9.32417750e-01f, 1.29181063e+00f, -3.05098772e-01f, -2.92164564e-01f, 4.72595066e-01f, -6.13479972e-01f, -1.18724227e+00f, -2.76431823e+00f, 7.98821747e-01f, -3.63143504e-01f, 7.52268314e-01f, -1.21986210e+00f, 2.78938711e-01f, -1.33911538e+00f, -4.72939253e-01f, 5.37801445e-01f, 1.87087357e-01f, 6.53491318e-01f, 2.13390493e+00f, -1.81839728e+00f, 2.94431955e-01f, -6.27374530e-01f, -1.64251661e+00f, 2.58112669e-01f, -3.26729625e-01f, 7.31754899e-01f, -4.58066821e-01f, -1.03463177e-02f, -9.62599874e-01f, 2.86993265e-01f, -2.26330515e-02f, -2.18457842e+00f, 5.46046257e-01f, -1.02328074e+00f, -1.43451726e+00f, -4.24424380e-01f, -4.51632112e-01f, -1.64903712e+00f, 1.54101920e+00f, 7.82485008e-01f, -3.72059315e-01f, 1.66444397e+00f, -4.43416357e-01f, -8.45218182e-01f, 9.93094146e-01f, 9.46997166e-01f, -8.58450949e-01f, -9.71003413e-01f, -2.17128992e-01f, -1.32724679e+00f, 7.96005547e-01f, 1.37352705e+00f, -7.79464304e-01f, -7.91776896e-01f, 1.84743810e+00f, -1.92267501e+00f, 3.02327238e-02f, -1.38645828e+00f, -1.80251360e+00f, 5.40258765e-01f, -3.97691071e-01f, 4.41467673e-01f, -1.49217331e+00f, 1.52603224e-01f, -4.39112812e-01f, 1.53150838e-02f, 8.76234770e-01f, 2.02171177e-01f, -1.94978565e-01f, 2.14999005e-01f, -3.02808076e-01f, -1.17348567e-01f, 1.15773475e+00f, 1.33445468e-02f, -1.58846033e+00f, 4.98825490e-01f, 1.87187582e-01f, -1.49610722e+00f, 4.39333707e-01f, 4.97844607e-01f, 9.26777542e-01f, 1.90809131e+00f, 2.92584968e+00f, -1.96210280e-01f, -7.56651938e-01f, 1.04435587e+00f, 1.16638601e+00f, -2.01294374e+00f, -8.57503951e-01f, -3.53129089e-01f, -5.82483709e-01f, -6.15818799e-01f, 9.45457816e-01f, -2.20470309e-01f, 4.61487085e-01f, 3.51144344e-01f, -1.14900589e+00f, 1.25846431e-01f, -3.66825849e-01f, 1.35275435e+00f, -1.62236845e+00f, -6.24518752e-01f, 1.22695386e+00f, 9.83059049e-01f, -6.42099082e-01f, -8.74962807e-01f, -6.21539474e-01f, -1.09137140e-01f, 1.07478631e+00f, 8.43921959e-01f, -1.83355033e-01f, -9.12502170e-01f, 5.45133770e-01f, 3.81007612e-01f, -1.13805366e+00f, 1.71424162e+00f, -2.28921747e+00f, -1.05059886e+00f, -5.32888293e-01f, -1.75380874e+00f, 1.25477529e+00f, -2.48958454e-01f, 3.92584413e-01f, -3.52759808e-01f, 6.81330323e-01f},
  {-2.62186557e-01f, -1.28489172e+00f, 3.97614598e-01f, -4.85535502e-01f, 7.63429523e-01f, 5.27078986e-01f, -9.24729854e-02f, -8.77719894e-02f, -2.33931169e-01f, 1.07176408e-01f, -9.22893226e-01f, 7.60146499e-01f, 1.84568688e-01f, 6.10229969e-01f, 6.49012387e-01f, -9.05975640e-01f, -6.23567104e-01f, -1.72138786e+00f, -1.84289575e-01f, -4.27767575e-01f, 2.86769629e-01f, 6.25022709e-01f, -1.40903711e+00f, -1.44939840e+00f, -3.54513824e-01f, 7.33549595e-01f, 3.83157074e-01f, -5.56506097e-01f, -2.81893909e-01f, 2.80717760e-02f, 5.85329354e-01f, -3.96515608e-01f, -3.71182352e-01f, -9.46877897e-01f, -7.09729373e-01f, -1.82758284e+00f, -7.26157904e-01f, 5.78129530e-01f, 9.60430920e-01f, -8.26990545e-01f, 4.33567524e-01f, 4.95269299e-01f, 1.93235487e-01f, 2.75667340e-01f, 1.04698348e+00f, -1.36551893e+00f, -6.13752127e-01f, 1.18213430e-01f, -1.76962447e+00f, 1.27996039e+00f, 8.48612547e-01f, -5.45799315e-01f, -9.66955900e-01f, 6.27186179e-01f, -7.05721915e-01f, 1.24012244e+00f, 1.52515864e+00f, 4.78649735e-02f, 1.98803693e-01f, 3.57557274e-02f, 5.72935283e-01f, -5.05032897e-01f, -8.39015245e-01f, -2.33569592e-01f, -3.56438667e-01f, 8.74345839e-01f, -1.09727144e+00f, 1.07464993e+00f, 9.70525853e-03f, 4.34113711e-01f, 2.55177349e-01f, -2.14995652e-01f, -2.34883499e+00f, 5.53294778e-01f, -1.58623941e-02f, 2.27608487e-01f, -4.68675226e-01f, -6.31927609e-01f, -6.64681196e-01f, 3.78910184e-01f, 2.96476054e+00f, -1.75507426e-01f, -4.14800763e-01f, -1.10405073e-01f, 3.23047906e-01f, 1.75793886e+00f, 3.44355047e-01f, -9.84718561e-01f, -5.81177115e-01f, 1.77070057e+00f, -1.04076374e+00f, 8.25882852e-01f, 1.72419202e+00f, 8.22395265e-01f, 4.59960043e-01f, -3.14461738e-01f, 8.98471996e-02f, 3.36820304e-01f, 8.19671750e-01f, -1.39565957e+00f, 4.22063082e-01f, 4.99207705e-01f, 8.45811903e-01f, -2.98391670e-01f, -1.23170741e-01f, 9.82628822e-01f, 1.09113097e-01f, -4.65057760e-01f, 1.25288558e+00f, 1.25412154e+00f, 6.22119486e-01f, 2.33447149e-01f, -8.79588068e-01f, 2.62369722e-01f, 9.03763324e-02f, -1.53699470e+00f, 6.15925908e-01f, -1.89579576e-01f, -4.57296222e-01f, 3.87636036e-01f, -1.51079223e-01f, 3.82757783e-01f, 4.05586287e-02f, -8.61822367e-02f, 3.79557014e-01f, 6.79002941e-01f, 2.02817515e-01f, -4.64978874e-01f},
  {6.61409974e-01f, 2.42098212e-01f, -8.07474032e-02f, -3.38397294e-01f, 8.56061280e-01f, 8.09831917e-01f, -1.83231509e+00f, 8.37786913e-01f, -1.07774091e+00f, -3.77262056e-01f, -1.22241938e+00f, -2.24725619e-01f, 8.96147966e-01f, -1.40193701e+00f, 8.79994154e-01f, -1.09214091e+00f, 2.03186780e-01f, -4.69786942e-01f, 5.89283705e-01f, 1.44604957e+00f, 1.58197224e+00f, -2.68826962e-01f, 9.44271147e-01f, -6.58955514e-01f, -1.38365543e+00f, -1.18943147e-01f, 7.08439350e-01f, 1.15886614e-01f, -8.57123077e-01f, -1.27854300e+00f, -3.75289321e-01f, -1.28160164e-01f, 2.73367107e-01f, 4.27285314e-01f, -5.14685810e-01f, 1.29266167e+00f, -1.98178470e+00f, -2.26803403e-02f, -1.03353000e+00f, -5.94612956e-01f, -6.05439842e-01f, 8.39583218e-01f, 3.15787101e+00f, 6.55862570e-01f, 1.31562638e+00f, -1.69041085e+00f, -1.89967573e-01f, 6.70674384e-01f, -2.86034256e-01f, -5.23878969e-02f, 1.38162881e-01f, 4.39522088e-01f, -1.81292856e+00f, 2.30848975e-02f, -1.03085011e-01f, 1.08771667e-01f, -7.50445247e-01f, -4.39750999e-01f, -1.03717482e+00f, 7.12467372e-01f, -1.14679563e+00f, -6.50716364e-01f, 1.00444162e+00f, 3.75495553e-01f, 5.56141078e-01f, -7.68700242e-01f, 2.48317331e-01f, -5.00767469e-01f, -9.38808858e-01f, 6.06195152e-01f, 3.20820779e-01f, -5.61718345e-02f, -3.29607069e-01f, 8.38434696e-01f, 1.32131249e-01f, 1.34784150e+00f, -4.14552450e-01f, -4.06025529e-01f, -4.26231861e-01f, 9.61678326e-01f, -3.76822144e-01f, -2.55750328e-01f, -1.49336493e+00f, 1.00115049e+00f, 9.31979179e-01f, -5.36845744e-01f, -1.50994539e-01f, 1.10256962e-01f, 1.34414148e+00f, 1.04134500e+00f, -8.53607655e-01f, 9.25226510e-01f, -6.48513854e-01f, -2.98655450e-01f, 7.97551811e-01f, -3.39903176e-01f, 8.90411258e-01f, 7.75851384e-02f, 6.27136350e-01f, 1.33341801e+00f, 2.13220328e-01f, 7.19787598e-01f, -2.25090399e-01f, -2.16753912e+00f, -1.13382435e+00f, 9.33373906e-03f, 6.27756059e-01f, 5.89968085e-01f, -8.67674351e-02f, 1.71092141e+00f, -5.47732115e-01f, -1.02588868e+00f, -1.08145559e+00f, -1.73783565e+00f, 2.37573385e-01f, -9.70380127e-01f, 9.25421044e-02f, -1.46645844e+00f, -4.76707608e-01f, -8.84282112e-01f, -4.36621785e-01f, -1.56556439e+00f, -1.04270828e+00f, -9.52831358e-02f, -1.22154510e+00f, 8.57549667e-01f, 8.63929391e-01f, 4.80680108e-01f},
  {-7.30196238e-01f, -6.74105346e-01f, 3.22877467e-01f, -6.11284912e-01f, 1.09757178e-01f, 6.54167712e-01f, -1.37414753e+00f, -1.15822896e-01f, 6.45814717e-01f, -1.14072025e+00f, -9.60537195e-01f, -1.30598950e+00f, -7.00801313e-01f, 1.66539323e+00f, 4.43162441e-01f, -8.72785151e-01f, -6.01222217e-01f, -2.46949151e-01f, 1.03018343e+00f, -1.10098970e+00f, 2.05072597e-01f, 2.20403187e-02f, 6.30201042e-01f, -1.80747128e+00f, -9.05857801e-01f, 5.49274564e-01f, -1.69294819e-01f, 2.47922763e-01f, 2.47509122e-01f, -4.93840963e-01f, -2.10945919e-01f, -7.63566375e-01f, 7.94227898e-01f, 2.28581607e-01f, -4.45898890e-01f, -3.78887862e-01f, 1.77005994e+00f, -9.22877252e-01f, -1.45944402e-01f, 4.43592459e-01f, -1.20643884e-01f, -5.53637385e-01f, 4.92451489e-01f, -1.28321946e+00f, 3.10561508e-01f, 4.57384348e-01f, 7.96607521e-04f, -9.19866502e-01f, 1.44174427e-01f, 1.32571232e+00f, -8.08946848e-01f, -1.06975365e+00f, -2.52106816e-01f, -6.85717285e-01f, 1.06828201e+00f, 3.97928894e-01f, -1.41310766e-01f, -5.16952515e-01f, 6.22726232e-03f, -2.67157167e-01f, -2.61469424e-01f, -9.82065260e-01f, -7.99235851e-02f, 4.65641230e-01f, -1.03888117e-01f, -1.53940499e+00f, 2.37991080e-01f, 6.97202027e-01f, -4.84678112e-02f, -1.42544046e-01f, 1.67817473e-02f, -1.56514955e+00f, -5.57478726e-01f, 7.19776630e-01f, 1.06717385e-01f, 3.26269895e-01f, -4.76550192e-01f, 1.32092208e-01f, -8.25673282e-01f, 1.01646990e-01f, -1.06675410e+00f, 1.01615727e+00f, 5.23146570e-01f, -2.77913839e-01f, 1.08282208e+00f, 3.25953215e-01f, 1.91091523e-01f, 7.14043319e-01f, -3.96915704e-01f, -1.99569851e-01f, -4.42741632e-01f, -2.80369192e-01f, -9.48105752e-01f, 8.14888477e-01f, 2.42756128e-01f, 6.39157593e-01f, 4.73484337e-01f, 5.62148571e-01f, 1.16676815e-01f, 9.92404521e-01f, 5.42208493e-01f, -9.26863924e-02f, 1.33839071e+00f, -1.74668163e-01f, -7.73780227e-01f, 1.78103689e-02f, 1.73362160e+00f, 1.10537291e+00f, -4.56946492e-01f, 1.10895202e-01f, 2.44207606e-01f, 4.08171415e-01f, 9.66242969e-01f, -4.40661430e-01f, -7.99562633e-01f, 9.96813849e-02f, -8.64876807e-01f, 1.51108301e+00f, 5.08081634e-03f, 1.00039589e+00f, -6.60152555e-01f, -4.46930677e-01f, 9.92852002e-02f, 7.41880894e-01f, 1.09745339e-01f, -4.39913124e-01f, -6.82857990e-01f, -4.91715431e-01f},
  {-2.94750929e-01f, -1.97891200e+00f, 6.20107353e-01f, 1.11135769e+00f, -1.96211636e-01f, -8.48171771e-01f, -1.37120533e+00f, 1.34150338e+00f, 7.02406883e-01f, 1.70563474e-01f, 3.25880504e+00f, 8.94819126e-02f, -5.07144332e-01f, -2.78054953e+00f, 3.38389099e-01f, -1.12346876e+00f, -2.00449422e-01f, 1.17005503e+00f, -1.94710121e-01f, 2.78839618e-01f, 9.96449649e-01f, 1.03591688e-01f, 2.35410273e-01f, -2.75534570e-01f, -8.49199116e-01f, 3.40521127e-01f, 4.96361226e-01f, 7.77323902e-01f, -7.64015410e-03f, -2.40121290e-01f, -4.26057935e-01f, 7.14796245e-01f, -1.28530765e+00f, -2.10405543e-01f, -6.42570317e-01f, 7.08429813e-01f, 1.04193556e+00f, -5.90968490e-01f, 3.28321099e-01f, 1.36697903e-01f, 2.21981019e-01f, 1.65884042e+00f, -2.33084887e-01f, 1.39480269e+00f, 1.15391231e+00f, -2.57562017e+00f, 4.32501227e-01f, -7.86474168e-01f, -1.91467836e-01f, 5.59214771e-01f, 2.21721575e-01f, 1.01940465e+00f, 9.70082104e-01f, -2.77752042e+00f, 3.65837902e-01f, -3.92329663e-01f, 2.96348240e-02f, -1.75941467e+00f, -2.11285329e+00f, 1.22616351e+00f, -9.22315121e-01f, 1.34741235e+00f, -4.80731577e-01f, 1.58813775e+00f, -1.58104742e+00f, 1.24393606e+00f, 5.00040889e-01f, 1.01608288e+00f, 1.35431230e+00f, -6.82401955e-01f, -1.35181725e+00f, -4.13868248e-01f, -1.18555284e+00f, -7.15252936e-01f, 1.26227224e+00f, 6.09195471e-01f, -1.03277993e+00f, -8.79247725e-01f, 4.84798178e-02f, 4.51702267e-01f, -5.59726954e-01f, 7.00378895e-01f, -9.09574568e-01f, 8.19303393e-01f, -9.31525648e-01f, 1.02115117e-01f, 9.66735259e-02f, -4.35501384e-03f, 7.53294006e-02f, -3.95849526e-01f, -5.34681566e-02f, -1.08764708e+00f, 1.63402870e-01f, 9.58203852e-01f, -8.04675400e-01f, -1.36014891e+00f, -2.01703131e-01f, 1.26854575e+00f, 3.16545635e-01f, 5.28344691e-01f, 1.45141363e+00f, -7.41039455e-01f, 9.71541345e-01f, -6.93094671e-01f, -7.71209776e-01f, -5.39575331e-02f, 5.88500947e-02f, 1.03614426e+00f, -6.17376685e-01f, 1.00708199e+00f, 2.17809245e-01f, -1.78802729e+00f, -7.20822990e-01f, -3.96691673e-02f, 8.77846360e-01f, 2.07337067e-01f, -6.87951982e-01f, -8.12738985e-02f, -5.18884659e-01f, -1.01460791e+00f, -1.83962971e-01f, 2.22280407e+00f, -1.05462581e-01f, -5.51666141e-01f, 2.75019675e-01f, -1.07682121e+00f, 1.76020408e+00f, -4.49767172e-01f},
  {-1.38113284e+00f, -1.21417272e+00f, 4.65668947e-01f, 9.72613871e-01f, 7.49413967e-01f, -5.93141466e-02f, -3.66985583e+00f, -1.23646688e+00f, -1.30741906e+00f, -3.47810924e-01f, 1.59335780e+00f, 6.08269870e-01f, -5.78408301e-01f, -1.45139682e+00f, 1.18492417e-01f, 6.74188793e-01f, -5.09609342e-01f, -2.79006451e-01f, 1.20838511e+00f, 3.59656632e-01f, 6.17557526e-01f, -1.39291957e-01f, -8.51347864e-01f, 6.37717187e-01f, 3.01340938e-01f, 8.96631837e-01f, 5.54565489e-01f, 1.79230019e-01f, -1.25342357e+00f, -3.48413169e-01f, -2.52436310e-01f, 7.84042656e-01f, -8.07368517e-01f, -1.51450324e+00f, -9.91216958e-01f, 3.24931532e-01f, -2.84266025e-01f, -7.91031063e-01f, -1.51857424e+00f, 1.66928887e-01f, -1.69489145e+00f, -3.96150410e-01f, 6.51845485e-02f, 1.83398402e+00f, -4.94975001e-02f, -5.39864540e-01f, 5.99961519e-01f, 5.17954588e-01f, 3.06138277e-01f, 1.56276703e-01f, -7.25737989e-01f, -6.21583283e-01f, 1.15692127e+00f, -2.01857877e+00f, 1.45449722e+00f, -2.74863780e-01f, -1.63656938e+00f, 4.41301763e-01f, -2.36161494e+00f, 9.23096836e-01f, -1.82500565e+00f, -4.52018470e-01f, 1.01709485e+00f, 9.85130787e-01f, -8.64716947e-01f, -1.31818223e+00f, 1.46688902e+00f, -1.38207912e+00f, -1.10488363e-01f, -2.91540414e-01f, -1.24336362e+00f, -8.43147993e-01f, 1.15985043e-01f, -3.85870904e-01f, 5.05419791e-01f, -4.26103681e-01f, -1.99864948e+00f, -1.14149261e+00f, 6.93762541e-01f, 5.70512533e-01f, -1.08907092e+00f, -1.32720459e+00f, -4.35082614e-01f, 1.26386118e+00f, 1.91211724e+00f, -7.41714006e-03f, 3.97848129e-01f, -2.57391095e-01f, 1.45517135e+00f, -3.23184133e-01f, 6.52939007e-02f, -1.07537663e+00f, 2.55386205e-03f, 1.28319621e+00f, -1.23078775e+00f, -2.54286021e-01f, -5.92588544e-01f, 1.05963659e+00f, 1.30421829e+00f, 1.23437893e+00f, 8.73938799e-01f, 4.92635727e-01f, 2.59116125e+00f, -1.05941975e+00f, -9.06749487e-01f, -1.94958642e-01f, 6.69431150e-01f, 7.58494616e-01f, -1.08281779e+00f, 9.30645764e-01f, 6.46996737e-01f, -1.08514392e+00f, -4.59952801e-01f, 2.63689578e-01f, -2.87551939e-01f, 4.42019880e-01f, 9.26322281e-01f, -8.32408547e-01f, 1.69705975e+00f, 5.79395533e-01f, -1.20028150e+00f, 9.23617244e-01f, 1.69817686e-01f, 1.41999447e+00f, 5.40306754e-02f, -4.93503995e-02f, 2.83814400e-01f, -1.03272986e+00f},
  {2.46761039e-01f, 2.43900880e-01f, 2.46566877e-01f, -8.68896127e-01f, -3.40819061e-01f, 2.86101580e-01f, -1.56384993e+00f, 1.67525172e-01f, -3.47863644e-01f, -6.50758505e-01f, -1.91540211e-01f, 6.83380246e-01f, -5.42588353e-01f, 5.26036084e-01f, 9.03890789e-01f, 7.55283713e-01f, 4.60569590e-01f, -1.71449825e-01f, -1.52507770e+00f, 4.50550616e-01f, 1.60785019e-02f, 1.11563611e+00f, -1.64920700e+00f, -5.70627153e-01f, -3.97995204e-01f, 2.23349705e-01f, 4.29009616e-01f, 9.94843066e-01f, 1.39003789e+00f, 9.15139914e-01f, 9.44169581e-01f, 3.10843736e-01f, 2.94094145e-01f, -1.89308095e+00f, 1.52374104e-01f, 5.08807957e-01f, -1.74061850e-01f, 3.19950849e-01f, -3.44252348e-01f, -2.18417525e-01f, 2.59956551e+00f, -1.42390668e+00f, 2.19121289e+00f, -4.86584127e-01f, -1.14532852e+00f, -4.01102495e+00f, -1.61088026e+00f, 8.92973363e-01f, -3.35303575e-01f, -3.81394237e-01f, 4.46188152e-01f, -5.03566086e-01f, -1.47747010e-01f, -1.06097257e+00f, 9.27540600e-01f, -2.94478536e-01f, -2.47929573e-01f, 2.91339427e-01f, 6.65292799e-01f, -3.46622765e-01f, 5.71119078e-02f, 1.36541080e+00f, 1.87026635e-01f, -3.88430744e-01f, -3.23523223e-01f, 3.23124558e-01f, 5.63215017e-01f, -3.56586784e-01f, 1.42556953e+00f, -7.26165056e-01f, -2.65855968e-01f, 6.22313380e-01f, -9.62581217e-01f, -6.33497164e-02f, 1.23437631e+00f, 9.35916752e-02f, -7.65993744e-02f, 1.24664806e-01f, -8.44756722e-01f, 1.36909020e+00f, -5.28368235e-01f, -1.38328707e+00f, -9.39039767e-01f, -5.23126721e-01f, -1.17824280e+00f, -5.83272099e-01f, -2.01024294e+00f, -5.49422562e-01f, -9.68694508e-01f, -6.27353251e-01f, -5.14048897e-02f, 3.50286156e-01f, 6.64253771e-01f, -1.19825327e+00f, 7.63225555e-01f, -6.93180323e-01f, -1.02587330e+00f, 1.53455108e-01f, -1.04342437e+00f, -8.92720997e-01f, 2.00753593e+00f, -8.73356760e-01f, 5.01006961e-01f, -1.37053108e+00f, -1.02806807e+00f, -1.00052333e+00f, -1.91035330e-01f, 6.07281327e-01f, 3.51688772e-01f, 4.07827795e-01f, -1.00769484e+00f, -1.14148736e+00f, 1.61856443e-01f, -3.74048471e-01f, -9.19014037e-01f, -1.27148139e+00f, -4.68650520e-01f, -6.16802156e-01f, 5.58502913e-01f, 6.19573332e-02f, 2.37033322e-01f, -7.45567381e-02f, -1.99552655e+00f, -1.29386890e+00f, 2.56556183e-01f, 9.79917943e-02f, -4.41673994e-01f, -8.77664268e-01f},
  {1.66965514e-01f, -1.91722441e+00f, 8.48367289e-02f, 1.05885386e+00f, -2.96258003e-01f, -7.11641431e-01f, -1.33056617e+00f, -9.87944782e-01f, 3.89585271e-02f, -6.67731687e-02f, 4.13148254e-01f, -2.43265480e-01f, -9.68841612e-01f, -5.63710153e-01f, 3.92960966e-01f, 1.02501369e+00f, -8.89250338e-01f, -1.22440733e-01f, -1.02705228e+00f, -4.88404557e-02f, 3.51808935e-01f, 6.80943906e-01f, -4.07806009e-01f, -9.11838412e-01f, -4.84199345e-01f, -4.25985791e-02f, 1.41908336e+00f, 1.35589167e-01f, 6.15783155e-01f, 5.25138676e-02f, 1.30503714e+00f, -6.75716460e-01f, -1.22151136e+00f, -6.37562156e-01f, -5.99551916e-01f, 6.28890395e-01f, 5.63366652e-01f, 3.57563883e-01f, -2.22623730e+00f, 1.26654589e+00f, 3.61749753e-02f, -2.10425049e-01f, 6.68227911e-01f, 8.07229996e-01f, 4.75102037e-01f, -1.92911863e+00f, -5.57277858e-01f, 1.68168283e+00f, 4.64556396e-01f, 2.29612038e-01f, -9.53036129e-01f, 1.10843074e+00f, 5.06957352e-01f, -7.93189049e-01f, 6.01257443e-01f, 9.10563618e-02f, 2.07643822e-01f, -1.25538206e+00f, -2.66787320e-01f, 1.38205862e+00f, -6.22505009e-01f, 1.22759366e+00f, 9.03035700e-01f, -8.14122856e-01f, -5.74823737e-01f, 2.88404137e-01f, 6.31192327e-02f, -6.70272112e-01f, 1.00113797e+00f, -1.44277191e+00f, -1.11568525e-01f, 2.82238662e-01f, -4.07814644e-02f, 2.13417232e-01f, 1.15383637e+00f, -1.07327330e+00f, -1.15310121e+00f, -9.27851140e-01f, 6.43929124e-01f, 1.91228759e+00f, -8.90765965e-01f, 1.51831102e+00f, -1.57136595e+00f, 1.76089966e+00f, -7.15883553e-01f, 1.17170215e+00f, -6.96028650e-01f, 2.37626031e-01f, 5.81435025e-01f, 6.76055104e-02f, -1.09032273e+00f, 3.88541132e-01f, 2.20414972e+00f, 8.22647452e-01f, 9.70113929e-03f, -2.15597820e+00f, -2.13985935e-01f, 5.05199373e-01f, 3.78922045e-01f, 1.62109768e+00f, 1.43226433e+00f, -2.61625778e-02f, 6.06513143e-01f, -1.12275290e+00f, -1.73142183e+00f, -6.59388542e-01f, 6.70651734e-01f, 4.52557914e-02f, -8.15048575e-01f, 1.46425271e+00f, -1.21286012e-01f, -2.96511829e-01f, -1.96709260e-02f, 1.33949518e+00f, 1.74532801e-01f, 4.24267232e-01f, 1.36746138e-01f, -1.82525611e+00f, 9.67240155e-01f, -5.49764514e-01f, -1.50133753e+00f, 1.04459381e+00f, -1.48503208e+00f, -3.05888772e-01f, 8.78411651e-01f, 1.43034682e-01f, 1.30308378e+00f, -2.46620312e-01f},
  {7.71191495e-04f, 3.50639522e-01f, -6.71419919e-01f, 1.61734796e+00f, 4.68745053e-01f, -7.01158196e-02f, -4.67097044e-01f, 3.96880001e-01f, -1.15631342e+00f, -1.17793307e-01f, 4.68099445e-01f, 8.38764250e-01f, -5.38665295e-01f, -9.51150775e-01f, -7.41383731e-01f, 6.15478992e-01f, 5.37877977e-01f, 4.51438427e-01f, 1.95407784e+00f, 5.05937397e-01f, 1.00516903e+00f, -8.34103405e-01f, 1.05641389e+00f, -7.42018282e-01f, -1.32288599e+00f, -1.28440392e+00f, 1.32353055e+00f, 1.73704982e-01f, 2.34140649e-01f, -1.46011084e-01f, -6.66914225e-01f, -2.90610671e-01f, 9.58785415e-02f, -2.66273636e-02f, -3.00239712e-01f, 8.28882009e-02f, -1.86475444e+00f, -8.99629176e-01f, -5.47884166e-01f, -2.50211775e-01f, -2.27441549e+00f, -7.19414651e-01f, 2.20009938e-01f, 1.04153681e+00f, 3.32881600e-01f, -6.74402416e-01f, -8.39411139e-01f, 2.64555454e-01f, 9.30400670e-01f, 1.02096772e+00f, -8.86578739e-01f, 4.46827680e-01f, 2.93018490e-01f, -1.92439389e+00f, 5.15814960e-01f, 1.14838564e+00f, -5.68906903e-01f, -8.29538345e-01f, -1.79250157e+00f, 1.62321436e+00f, -7.55817294e-01f, -5.48415124e-01f, 8.00123572e-01f, -3.85078967e-01f, -2.26709004e-02f, -1.11529267e+00f, 6.29320681e-01f, -1.39414477e+00f, -7.75656924e-02f, -9.88293886e-01f, 7.82626793e-02f, 1.33612168e+00f, -6.88193738e-01f, -2.73967326e-01f, -1.45707026e-01f, -1.02034402e+00f, -1.97111821e+00f, -1.36274219e+00f, 6.23699486e-01f, 1.36558282e+00f, 3.16837847e-01f, -2.67402434e+00f, 6.76402390e-01f, 1.07482517e+00f, 2.33680829e-01f, 1.88236308e+00f, 1.39616832e-01f, 6.62045255e-02f, 1.06008756e+00f, 8.19548905e-01f, 9.49368119e-01f, -9.77805734e-01f, 2.66205687e-02f, -1.71116833e-02f, -6.92801774e-01f, -9.16833878e-01f, -2.29860783e-01f, 2.78431743e-01f, 2.88134098e+00f, -3.71162236e-01f, 2.99681544e-01f, 1.57983172e+00f, 5.81468940e-01f, -1.66604364e+00f, 1.17922866e+00f, 1.08876336e+00f, 8.48221555e-02f, 6.53291583e-01f, -1.23997581e+00f, 1.17020440e+00f, 1.07466626e+00f, -1.22517538e+00f, 3.21523309e-01f, -8.71402502e-01f, -2.50666350e-01f, -3.07232261e-01f, 4.37374204e-01f, -1.57873154e+00f, -3.06454390e-01f, -6.72742605e-01f, -5.07002115e-01f, 7.10463058e-03f, -1.44751263e+00f, -3.81992310e-02f, -5.85171469e-02f, -4.29245114e-01f, -1.43657207e-01f, -5.51694930e-01f},
  {-7.41781175e-01f, -5.72141767e-01f, -3.76380980e-02f, -5.09647846e-01f, 7.69873500e-01f, 9.67481494e-01f, -4.93727970e+00f, -7.00361729e-01f, 8.82141829e-01f, -8.43363225e-01f, -9.65231597e-01f, -3.64524499e-02f, 1.07577586e+00f, 7.71175683e-01f, 7.85907283e-02f, -6.63776278e-01f, 2.70436615e-01f, 5.77608109e-01f, 7.84057081e-01f, -6.27736971e-02f, 2.04244837e-01f, -1.58996224e-01f, 5.85276783e-01f, 1.11661673e+00f, -3.32200006e-02f, -8.14198077e-01f, 4.30580169e-01f, -4.89786059e-01f, -2.50873286e-02f, -1.81971598e+00f, -2.97436506e-01f, -7.70143926e-01f, -5.96598685e-01f, 2.80926764e-01f, -7.85237730e-01f, -3.20705771e-01f, 6.31466359e-02f, 2.72791237e-01f, 5.80513477e-01f, -1.72246993e+00f, -1.89517832e+00f, 1.27168167e+00f, -2.62549371e-01f, 1.39224553e+00f, 1.59777319e+00f, -2.71051264e+00f, -4.21698928e-01f, 5.09631574e-01f, -7.77428225e-02f, 3.51446867e-02f, -1.05738139e+00f, -1.09680498e+00f, -8.55157554e-01f, 6.55866921e-01f, 2.21314043e-01f, 7.14042127e-01f, -4.62226063e-01f, 3.41047913e-01f, -1.33707464e+00f, 1.48219153e-01f, -1.29301381e+00f, -3.42925549e-01f, 6.23407066e-01f, 5.89550853e-01f, -7.02708542e-01f, -1.27047539e+00f, 1.16319871e+00f, 3.22125964e-02f, -3.68099809e-01f, 3.61762553e-01f, -1.88824499e+00f, -8.78244877e-01f, 3.39072943e-01f, 1.22496344e-01f, -9.26754534e-01f, -6.77647233e-01f, -9.41522121e-01f, -7.24075198e-01f, -7.02961862e-01f, -7.36391544e-01f, 9.81646955e-01f, -2.95011926e+00f, -9.01137114e-01f, 5.49451113e-01f, 8.06056499e-01f, -2.19032571e-01f, 1.27208316e+00f, -7.34204412e-01f, 1.72154236e+00f, 8.24061811e-01f, -3.24696124e-01f, 2.43777186e-01f, -6.25815451e-01f, 6.90308869e-01f, -1.89860940e+00f, 7.60471404e-01f, -1.07113218e+00f, 5.11274457e-01f, 2.17261362e+00f, -3.94635648e-01f, 9.15539917e-03f, 1.12286484e+00f, 1.85943499e-01f, -7.13063896e-01f, -9.81512964e-01f, 9.01189983e-01f, 4.49457854e-01f, -1.02264917e+00f, -2.25178599e-01f, 1.28653973e-01f, 1.07985210e+00f, -1.24476421e+00f, -9.36880529e-01f, -5.16747832e-01f, -1.54501402e+00f, 6.24181151e-01f, -2.39920497e-01f, 1.79418787e-01f, 1.23134881e-01f, -1.61707199e+00f, -5.02627552e-01f, 1.28769521e-02f, -6.78077579e-01f, -2.44685203e-01f, -6.75562084e-01f, 1.04137862e+00f, -3.34534883e-01f, 7.46992305e-02f},
  {1.04906416e+00f, -8.45645964e-01f, -7.56498992e-01f, 1.15067124e+00f, 9.07157838e-01f, 2.61392266e-01f, -1.58379972e-01f, 5.77657044e-01f, 8.56568813e-02f, 1.63678080e-01f, 2.53572881e-01f, 4.59673136e-01f, 6.32279694e-01f, -7.43857741e-01f, -5.31220362e-02f, 1.44124776e-02f, 1.75241753e-01f, -1.36970371e-01f, 3.91436040e-01f, 2.88019534e-02f, 4.96615052e-01f, 1.73338130e-01f, 1.19573247e+00f, -1.58033562e+00f, -6.16416514e-01f, 3.20804596e-01f, 2.84104347e-01f, -7.94473812e-02f, -3.86162490e-01f, -3.10080588e-01f, 2.33836696e-01f, -3.98810595e-01f, -1.38337278e+00f, 1.20709741e+00f, -2.64054090e-01f, 1.95278838e-01f, 2.46480957e-01f, -1.26827255e-01f, -3.98081690e-01f, 1.00976324e+00f, 6.49416268e-01f, 3.43478888e-01f, 1.19092083e+00f, -1.84171394e-01f, 8.03763643e-02f, -2.36345127e-01f, -6.37345433e-01f, 2.43060023e-01f, 1.32530749e-01f, -6.48457929e-03f, -1.74674630e-01f, 7.27405310e-01f, -9.23920274e-01f, -2.20771956e+00f, -4.01022434e-01f, -4.77822214e-01f, 1.64530146e+00f, -1.33350325e+00f, 2.56667942e-01f, -1.28375575e-01f, -7.64007330e-01f, 1.00101195e-01f, -3.68502736e-01f, 1.08485329e+00f, 1.40603077e+00f, 1.59832865e-01f, -1.08516860e+00f, -3.53648543e-01f, 1.54549539e-01f, 6.36043787e-01f, 1.03463471e-01f, 7.77468443e-01f, -6.16723970e-02f, -3.66930455e-01f, 6.43605888e-01f, -1.39394552e-01f, -2.78550446e-01f, -8.33033204e-01f, -8.82628918e-01f, 1.20456624e+00f, 7.27304220e-01f, 1.80067733e-01f, -1.74636078e+00f, 8.19963932e-01f, 4.17241603e-01f, -1.36316255e-01f, 2.29234318e-03f, -2.88450390e-01f, -7.15597928e-01f, 3.24640386e-02f, -1.07876825e+00f, -7.56932378e-01f, -5.80857284e-02f, 3.41134638e-01f, 1.24695458e-01f, -1.08744359e+00f, -3.00574511e-01f, 3.47784877e-01f, 4.03850049e-01f, 6.39691889e-01f, 1.00476611e+00f, -1.48362052e+00f, -5.64101040e-01f, -1.78660643e+00f, -1.85112298e+00f, -1.27576900e+00f, -4.37853575e-01f, -1.86727479e-01f, -1.22099996e+00f, 4.25058901e-01f, -1.87997654e-01f, -1.71398055e-02f, 3.41209322e-02f, -1.10614252e+00f, 2.59032458e-01f, -1.13350224e+00f, 8.41952637e-02f, 1.94237784e-01f, -3.26040030e-01f, -1.64199674e+00f, -1.14811182e+00f, -1.25963724e+00f, -4.41286266e-01f, -3.65648091e-01f, -5.17548025e-01f, 2.24819034e-01f, 1.02020010e-01f, -1.27103698e+00f},
  {-1.66131958e-01f, -5.09536922e-01f, -9.82528508e-01f, 1.17904186e+00f, 2.10984930e-01f, 1.22274590e+00f, 3.03416193e-01f, 3.23484726e-02f, -2.39992887e-01f, 9.33734536e-01f, -7.33444571e-01f, -3.87229137e-02f, 6.91263676e-01f, -6.91913247e-01f, -4.85931069e-01f, 1.52805305e+00f, -4.90820348e-01f, -2.20746268e-02f, -6.94422007e-01f, -4.60835904e-01f, 1.28949940e+00f, -1.16147831e-01f, -1.05089331e+00f, -1.40361261e+00f, -6.55887842e-01f, 3.00350517e-01f, 1.99766004e+00f, -3.54142040e-02f, 8.16418886e-01f, -2.90455133e-01f, 1.11364365e+00f, -4.41427469e-01f, 2.91772813e-01f, 6.13720715e-01f, 2.44449511e-01f, 7.08032012e-01f, 7.17187762e-01f, 3.25167805e-01f, 1.05155277e+00f, -4.30653811e-01f, 7.55032659e-01f, 2.22822115e-01f, 1.36551261e-01f, 2.43238688e-01f, 2.73061693e-02f, -7.65826166e-01f, -7.54583538e-01f, -6.00507967e-02f, -2.67096221e-01f, 1.07637608e+00f, 1.43083513e+00f, 4.93220329e-01f, -9.13885087e-02f, -2.90759176e-01f, -1.00481912e-01f, -1.67629838e-01f, 1.64745843e+00f, 4.16825503e-01f, -7.12832883e-02f, -1.38509142e+00f, 2.03387663e-01f, 3.46114546e-01f, 2.99433380e-01f, 9.53646123e-01f, -2.30198056e-01f, -8.91350135e-02f, -3.08932289e-02f, 1.02745555e-01f, 1.00552166e+00f, -1.51230490e+00f, -1.21788919e+00f, -6.84378207e-01f, -1.32317865e+00f, 5.65953553e-01f, 2.59833246e-01f, -1.50516033e+00f, -2.58958310e-01f, -4.97162282e-01f, -5.34660637e-01f, 9.72570658e-01f, 4.45685923e-01f, -7.14661330e-02f, 7.30471611e-01f, 2.93618262e-01f, -1.32988632e+00f, 8.47088158e-01f, 1.29911736e-01f, 4.08371955e-01f, 1.99697793e-01f, 5.13298810e-01f, 2.86794424e-01f, 2.35607326e-01f, 5.34497857e-01f, 9.40202653e-01f, 9.07600224e-02f, -2.40495396e+00f, 2.13494182e-01f, 6.49037659e-01f, 1.43130600e+00f, 1.02426469e+00f, -8.30800295e-01f, 4.12018746e-02f, 5.97762048e-01f, -1.13023925e+00f, -2.34397709e-01f, -2.97657579e-01f, -1.46408230e-01f, -4.33795452e-01f, -1.42706513e+00f, 2.53530502e+00f, 6.94106996e-01f, -6.35540307e-01f, 7.08646417e-01f, 9.25147712e-01f, 5.11919618e-01f, -1.55221736e+00f, -1.01604390e+00f, -5.41149557e-01f, 3.96014266e-02f, -1.05281997e+00f, -2.45189592e-01f, 8.81809413e-01f, -3.14977080e-01f, 6.95924640e-01f, 1.48239684e+00f, 3.49787712e-01f, 1.29966748e+00f, -3.78853887e-01f},
  {-1.27258658e+00f, -1.17718315e+00f, 2.50341415e-01f, 2.33329803e-01f, 8.65766108e-02f, -1.05995047e+00f, -2.35353231e+00f, 7.67750502e-01f, -2.19664717e+00f, -1.55678380e+00f, -6.18428767e-01f, 2.66402781e-01f, 6.95535541e-01f, -1.58690798e+00f, -1.37680185e+00f, 9.14379358e-01f, -8.32827151e-01f, 6.97977960e-01f, 1.01143610e+00f, 5.69282234e-01f, 3.76369983e-01f, 7.66330063e-01f, -4.15075600e-01f, -1.61147332e+00f, -1.71517178e-01f, 4.94036973e-01f, 1.34439814e+00f, -3.42434734e-01f, -8.08388352e-01f, -1.70667887e+00f, 4.86286990e-02f, 1.72713387e+00f, 1.45294476e+00f, -2.21558623e-02f, -1.27788794e+00f, 6.97514176e-01f, -1.85216919e-01f, -5.22903502e-01f, -1.21668792e+00f, -4.74720776e-01f, -4.65501785e-01f, 2.07993880e-01f, -2.59798914e-01f, -2.63730645e-01f, 1.07529199e+00f, 1.90169975e-01f, -3.00204158e-01f, -7.43287563e-01f, -6.85412735e-02f, -4.30877179e-01f, -1.05300796e+00f, 3.27387154e-01f, -3.91656548e-01f, -6.30320728e-01f, 1.23545098e+00f, -8.83173823e-01f, 1.07604504e+00f, 3.10274273e-01f, -5.21131933e-01f, 1.69863284e-01f, -3.85938942e-01f, -2.01499939e+00f, 1.32423186e+00f, 1.00367033e+00f, -6.75689995e-01f, -9.26527441e-01f, 2.01845288e+00f, -1.13968325e+00f, 2.75518112e-02f, -4.39427376e-01f, 1.14721581e-01f, -6.62057757e-01f, -5.51977456e-02f, -6.26877397e-02f, -1.12530932e-01f, 1.54770911e+00f, -1.26098001e+00f, -1.34626019e+00f, 1.41243851e+00f, 9.65779901e-01f, -2.16882634e+00f, -9.62375641e-01f, -2.15416694e+00f, 2.28110814e+00f, -2.11929217e-01f, -1.56237900e+00f, 1.06184885e-01f, 5.49215615e-01f, -7.00031757e-01f, -1.09172195e-01f, -7.65331164e-02f, -8.81762207e-01f, -3.05424333e-01f, -7.92479336e-01f, 7.81185150e-01f, -8.07959378e-01f, 6.69231415e-01f, 2.53717244e-01f, 1.80561852e+00f, 2.50385189e+00f, 1.48887837e+00f, -1.26182660e-01f, 9.21552539e-01f, 3.95117253e-01f, -4.09837157e-01f, 9.93311584e-01f, 2.07387179e-01f, 1.18198061e+00f, -1.96219671e+00f, 6.73038423e-01f, -7.44255662e-01f, -1.83938885e+00f, -9.64115441e-01f, 7.00384676e-01f, 1.19325340e+00f, 5.79772949e-01f, 1.54405248e+00f, -1.30310285e+00f, 2.02368155e-01f, 5.79992235e-01f, -1.40911889e+00f, 2.95099169e-01f, 6.67744577e-02f, 8.13564479e-01f, 2.03859115e+00f, 1.06330678e-01f, 1.03495908e+00f, -1.58756793e-01f},
  {-3.84318233e-01f, -7.15643227e-01f, 6.00647748e-01f, 1.19372761e+00f, 1.41885340e-01f, -3.88275236e-01f, -2.24433160e+00f, 1.26082718e+00f, 5.35526693e-01f, -7.13611441e-03f, 8.34325016e-01f, 1.80583581e-01f, 2.29833931e-01f, 3.56988668e-01f, 7.24739373e-01f, -2.26518854e-01f, 7.94770122e-01f, -5.10650694e-01f, 5.22201777e-01f, 4.16377336e-01f, 2.95673817e-01f, 4.12018336e-02f, -4.13572714e-02f, -1.30316222e+00f, -5.08773208e-01f, 1.32892871e+00f, -4.13501263e-01f, -6.91855729e-01f, -2.17431828e-01f, 3.78432512e-01f, 6.96597397e-01f, -4.04132903e-01f, 8.98166955e-01f, -3.57067674e-01f, -4.89423752e-01f, -4.97861892e-01f, 6.98413968e-01f, -7.16890812e-01f, -5.33638477e-01f, 8.79250705e-01f, 3.86646032e-01f, 4.21340913e-01f, 6.05258703e-01f, 9.96026516e-01f, -8.45762119e-02f, -1.54177272e+00f, -6.62752867e-01f, -1.16792452e+00f, -5.42234659e-01f, 4.36269604e-02f, 3.24531168e-01f, -2.36339927e-01f, -4.80371505e-01f, -2.11289978e+00f, 4.15470958e-01f, -9.79323328e-01f, 1.02498806e+00f, -1.69461742e-01f, -3.95987898e-01f, -2.99236894e-01f, 6.48662686e-01f, 3.70032012e-01f, -3.87771614e-02f, 3.05842489e-01f, -9.07437503e-02f, 1.99711591e-01f, -7.75242031e-01f, -2.22750366e-01f, 5.05082726e-01f, -5.00418365e-01f, -2.93639541e-01f, 8.30284774e-01f, 2.95737207e-01f, 5.01186907e-01f, -3.76973838e-01f, -1.32920301e+00f, -5.59365809e-01f, -3.44686180e-01f, -1.21994305e+00f, 1.94132328e+00f, -7.80736983e-01f, 1.02040267e+00f, 4.02117193e-01f, -3.93616259e-01f, 5.14200032e-01f, -1.14187706e+00f, -5.91251731e-01f, -5.73518336e-01f, 7.06328928e-01f, -4.80073392e-01f, -1.12205416e-01f, -9.28552270e-01f, 1.00365484e+00f, 9.30568159e-01f, -3.28366369e-01f, -8.32892060e-01f, 3.81753035e-03f, 3.28269154e-02f, 4.27346319e-01f, 1.00279856e+00f, 7.49764979e-01f, -3.28985363e-01f, -2.82756537e-01f, -1.28433585e+00f, -1.50042725e+00f, 6.13880992e-01f, 1.55297831e-01f, -2.87454426e-01f, -1.49501845e-01f, 2.59477210e+00f, -5.15890598e-01f, -2.70033091e-01f, 2.17495456e-01f, 1.71253830e-02f, 7.24552453e-01f, 4.20281738e-01f, -8.56571674e-01f, 1.09584793e-01f, 6.89612687e-01f, 1.44994631e-01f, -8.32427084e-01f, 4.60058719e-01f, -6.77817285e-01f, 7.85386503e-01f, -8.75591516e-01f, 2.35800534e-01f, 1.47665918e+00f, -8.41310382e-01f},
