/*
 * Auto-generated model weights for LSTM-MLP SOC prediction
 * Model: 1.5.0.0_soc_epoch0001_rmse0.02897.pt
 * DO NOT EDIT MANUALLY
 */

#ifndef MODEL_WEIGHTS_H
#define MODEL_WEIGHTS_H

/* Model configuration */
#define INPUT_SIZE 6
#define HIDDEN_SIZE 64
#define MLP_HIDDEN 64
#define NUM_LAYERS 1

/* Feature names (for reference) */
const char* FEATURE_NAMES[] = {
    "Voltage[V]",
    "Current[A]",
    "Temperature[°C]",
    "Q_c",
    "dU_dt[V/s]",
    "dI_dt[A/s]",
};

/* ========== LSTM Layer 0 Weights ========== */

/* LSTM input weights: [4*HIDDEN_SIZE=256, INPUT_SIZE=6] */
const float LSTM_WEIGHT_IH[1536] = {
    -0.15345807f, -0.16214484f, -0.03326321f, -0.01639032f, 0.36433610f, -1.02236140f, 0.25948930f, -0.01053085f,
    -0.19888888f, 0.07192998f, -0.45656449f, 0.39006037f, 0.24313955f, 0.03171711f, 0.06191384f, 0.05613669f,
    -0.37772864f, 0.57113683f, -0.25747713f, -0.02668774f, -0.10706779f, -0.18618497f, -0.21135513f, -0.68434817f,
    0.11309101f, -0.06497281f, 0.01283227f, -0.14023265f, 1.44893682f, 0.22621429f, -0.39203495f, 0.09331206f,
    -0.10212554f, 0.13942805f, -0.62414140f, 0.69865435f, -0.15938358f, -0.12576951f, 0.09228534f, -0.01230576f,
    -0.48346862f, 0.08038098f, -0.07420950f, -0.12581277f, -0.01780383f, -0.07523246f, 0.87271559f, 0.55078119f,
    0.09941217f, 0.10157468f, -0.07103592f, -0.07609311f, 1.02899921f, 0.06676897f, -0.30120289f, 0.02082043f,
    -0.10526451f, -0.16404016f, -1.12413990f, 0.50103951f, 0.02537264f, 0.23196232f, 0.01334840f, 0.26026168f,
    0.37118065f, 0.14619432f, -0.18115813f, -0.27810159f, -0.04093625f, -0.03017562f, 0.14578165f, 0.37818596f,
    0.26644748f, 0.11821432f, 0.01052962f, -0.03661129f, -0.76965147f, 0.38995680f, 0.22371139f, 0.14784077f,
    0.06434195f, 0.08260217f, 0.03056511f, 0.80416101f, 0.02518950f, 0.38194293f, 0.01850878f, 0.02729920f,
    -0.41528109f, -0.10239231f, 0.04913147f, 0.06846651f, 0.01841138f, -0.04028798f, 0.91411257f, -0.29322645f,
    -0.10245673f, 0.06043316f, -0.08017490f, -0.06128667f, 0.26428363f, 0.96026903f, -0.07419881f, 0.09990670f,
    -0.27749041f, 0.30567759f, 0.19031477f, -0.52951437f, 0.22644049f, 0.24043204f, 0.03793070f, -0.09754004f,
    0.12406912f, 0.35529101f, -0.21011296f, -0.27762729f, -0.11964796f, -0.15644425f, 0.92938429f, -0.66272426f,
    -0.17147076f, 0.01328292f, -0.13841026f, 0.03482106f, -0.89658552f, 0.22940159f, 0.08730890f, -0.01818097f,
    0.05203485f, 0.03145160f, -0.70326680f, 0.87514681f, 0.14161302f, 0.00407689f, -0.06742639f, -0.10022549f,
    0.54455024f, -0.98912424f, 0.04293580f, -0.08474972f, 0.09523974f, 0.04236166f, 1.66656673f, 1.14932239f,
    0.01631307f, 0.41844308f, 0.06115083f, -0.17424272f, -0.31908005f, 0.06679618f, 0.17668426f, -0.03207148f,
    0.37487826f, -0.11851012f, 1.18431544f, -0.50079787f, -0.19161011f, 0.15942220f, -0.02307834f, 0.07877060f,
    -1.40256023f, 0.79210693f, -0.04304618f, -0.03920539f, -0.15044439f, 0.15384239f, -1.60273492f, 0.47114897f,
    -0.05675029f, -0.29544312f, 0.16512470f, 0.00424362f, 0.60529083f, -1.65741825f, 0.24859777f, 0.33844909f,
    -0.04213256f, -0.11308303f, -0.06710593f, -1.06625688f, 0.14008798f, 0.07660003f, -0.07558598f, -0.16827247f,
    0.06376641f, -0.51431561f, 0.20339289f, -0.19772589f, -0.05082824f, 0.04445268f, 0.64662522f, -0.23890620f,
    -0.04414810f, -0.22534697f, -0.06234231f, 0.06768368f, 1.06320441f, -0.37296474f, -0.14963822f, 0.14590701f,
    0.06463663f, 0.18094143f, 0.35720325f, -0.06382872f, 0.03951181f, 0.09412859f, 0.21110649f, 0.10341158f,
    0.69702899f, 0.28204620f, -0.07046893f, -0.12508252f, -0.00027907f, 0.17320056f, -0.53226233f, 0.12824942f,
    -0.09672172f, 0.00001960f, -0.30729455f, 0.21136007f, 0.78026772f, 1.80249405f, 0.00341429f, 0.02096000f,
    0.14015587f, -0.00092235f, 0.56382424f, -0.24140398f, 0.15424626f, 0.22618259f, -0.13663359f, 0.02189719f,
    -2.15252638f, 0.58621228f, 0.21720429f, -0.18534450f, 0.14947449f, -0.01824994f, -0.10412563f, -0.07167965f,
    0.20195307f, 0.31359497f, 0.04434603f, 0.07181227f, 0.58294719f, -0.69899678f, -0.13262163f, -0.21801430f,
    0.03941488f, -0.06870220f, 1.52599514f, -1.25961840f, 0.13005716f, 0.12891531f, -0.10224596f, -0.06504639f,
    0.54862595f, -0.50033188f, 0.05158613f, 0.30649292f, -0.06088937f, 0.09512494f, -0.24998353f, -0.54492664f,
    0.02160534f, 0.44723883f, 0.05651200f, 0.07090667f, -0.15937805f, -0.12756303f, -0.02396832f, -0.06513373f,
    -0.09755291f, -0.04811410f, 0.14695847f, -0.45632342f, -0.02949165f, -0.15862136f, -0.12372231f, 0.00544708f,
    0.14496681f, -0.26689070f, 0.11277184f, 0.15199058f, -0.16777940f, 0.05754867f, 0.03071932f, -0.20030217f,
    -0.08974860f, 0.32673776f, -0.13750759f, 0.13357759f, -0.07875119f, 0.73634547f, -0.12253229f, -0.38489589f,
    0.13249660f, 0.06732515f, 1.11928344f, -0.99497515f, -0.16887017f, -0.15716338f, 0.01404863f, -0.05579430f,
    -0.25792608f, 0.38735625f, -0.11423393f, -0.08911763f, -0.19362380f, 0.02142934f, 1.82334006f, -1.01567590f,
    -0.00351560f, -0.10017458f, 0.03437531f, 0.07770342f, 0.72620595f, 1.07697928f, 0.04914318f, 0.08879441f,
    -0.17636947f, 0.00546829f, 0.10708384f, -0.27264294f, -0.16746011f, -0.05694500f, 0.17998986f, 0.07258657f,
    -0.61171526f, -0.10455286f, 0.21836187f, 0.01457504f, 0.30269939f, -0.00675184f, 0.14067608f, -0.14761724f,
    0.01232001f, -0.19782615f, 0.02759573f, -0.13182302f, 0.70110291f, -0.47291821f, 0.01111950f, 0.43428165f,
    -0.06169695f, 0.02287314f, 0.25233021f, 0.48871797f, 0.17304774f, 0.21414593f, -0.20078108f, -0.04322083f,
    0.21288349f, -0.79384404f, 0.05190400f, -0.21809986f, 0.14256927f, -0.35498375f, -0.53637868f, 0.17848888f,
    0.29303816f, -0.04554488f, -0.19500454f, 0.09037566f, 0.47993651f, 0.08971296f, 0.01349195f, 0.10501584f,
    -0.06752205f, 0.29855248f, 0.19376925f, -1.52320790f, 0.06268395f, 0.02322147f, 0.18742001f, -0.12465152f,
    1.55064404f, -1.14399314f, 0.13266321f, -0.08300145f, 0.00968822f, 0.10476205f, 0.36256662f, -1.30658734f,
    -0.21349695f, 0.02437970f, 0.06999020f, -0.06813121f, 0.26360434f, -0.79099011f, 0.21729708f, -0.33920577f,
    -0.26569277f, -0.03442076f, -0.41065717f, 0.50064051f, 0.21968623f, 0.02678848f, 0.14839143f, 0.01124346f,
    -0.24580355f, 0.47731194f, -0.23751834f, -0.21849902f, -0.08876505f, -0.09316812f, -0.24797894f, -0.06994184f,
    -0.00931661f, -0.16738249f, 0.13811649f, -0.02502203f, 1.55565453f, 1.58881032f, -0.34137681f, -0.18935557f,
    -0.15701590f, 0.08556613f, -0.51400018f, -0.48396426f, -0.18234868f, 0.09445608f, 0.13702968f, -0.25737739f,
    -0.34977144f, -0.40711379f, -0.23602572f, -0.15127945f, 0.03471375f, -0.13138010f, 1.15848017f, 0.54926223f,
    -0.03800099f, -0.10338227f, 0.09566998f, -0.23853469f, 0.98740059f, 0.65517342f, -0.41541597f, 0.15742923f,
    -0.03128213f, -0.20139430f, -0.91665083f, 0.43812126f, -0.14066809f, -0.00107972f, 0.02436553f, 0.31628063f,
    1.06510532f, 0.00643751f, 0.08106185f, -0.04012610f, -0.04630096f, 0.05002420f, 0.06191700f, 0.36308262f,
    0.15433779f, 0.03566749f, 0.02273137f, -0.10483385f, -0.25100443f, 0.12156496f, 0.27973986f, 0.05232442f,
    -0.08830327f, 0.07172866f, 0.05345725f, 0.67862785f, -0.08275317f, 0.33513334f, 0.11426796f, 0.26989779f,
    -0.23928484f, -0.58599573f, 0.14896235f, -0.26526672f, -0.27192512f, 0.18172166f, 0.77472067f, 0.33167648f,
    0.05567833f, -0.01876381f, 0.18349221f, 0.01200630f, 0.51112717f, 1.23120284f, -0.05086260f, 0.12721495f,
    0.41730356f, -0.27765542f, 0.67024338f, -0.45963514f, 0.10496239f, 0.39813781f, 0.15834773f, -0.01475310f,
    -0.04678682f, 0.35167602f, -0.11975636f, -0.29369980f, -0.03892520f, -0.09467699f, 1.23856580f, -0.46449861f,
    -0.01960937f, 0.04449474f, 0.09861213f, -0.18450207f, -0.65007281f, -0.01887830f, -0.07539439f, 0.15559113f,
    0.05088901f, 0.04570043f, -0.58693892f, 0.52134830f, 0.26403624f, -0.21564086f, 0.10028134f, 0.03601767f,
    0.59701431f, -1.58637261f, -0.19494438f, -0.21752699f, -0.07344779f, -0.16747825f, 1.95421946f, 0.59996730f,
    0.00111962f, 0.13321848f, -0.00329457f, -0.30831584f, -0.51533455f, -0.05438421f, 0.02389842f, 0.00328202f,
    0.21715854f, -0.09357076f, 2.08527088f, -0.22566557f, 0.03700922f, 0.22112589f, -0.21087074f, 0.07046966f,
    -1.12926185f, 0.57029504f, 0.05440290f, -0.20927320f, -0.13925062f, 0.02438761f, -2.14167809f, 0.35860687f,
    -0.20331144f, -0.13148741f, 0.23533395f, 0.09675654f, 0.65157956f, -0.14344789f, 0.35358101f, 0.14287110f,
    -0.08063556f, 0.17979406f, -0.65082836f, -1.33835506f, -0.09084485f, -0.23770349f, 0.12329533f, 0.08867694f,
    0.55072421f, 1.24990904f, 0.22532226f, -0.06396821f, 0.11279621f, -0.13770922f, 0.64769375f, -0.53488082f,
    -0.02420432f, -0.11400715f, 0.28735057f, 0.04204980f, 1.11629462f, -0.46838146f, -0.25644967f, -0.15232903f,
    0.07669641f, 0.02782891f, 0.35668221f, 0.11218184f, 0.10015666f, 0.11652810f, -0.12960127f, 0.07074085f,
    0.82568622f, -0.34563431f, -0.07208395f, 0.07320516f, 0.21814705f, -0.10092806f, -0.46675330f, -0.04557362f,
    -0.05708935f, -0.02051506f, -0.12904185f, 0.22015689f, 0.44046792f, 2.66766620f, 0.16548058f, -0.16736840f,
    -0.12799878f, -0.00469709f, 0.77235401f, -0.01080768f, -0.02312317f, 0.33593652f, 0.00572513f, -0.18798436f,
    -2.46001387f, 0.45753589f, 0.25819537f, -0.13755916f, -0.12509444f, 0.06122911f, 0.25636479f, -0.08581185f,
    0.24104172f, 0.28917861f, -0.10151459f, 0.01484722f, 0.45353264f, -0.66955960f, 0.17666218f, -0.31022102f,
    -0.11893836f, -0.01674732f, 1.76222265f, 0.13839412f, 0.02012474f, -0.08531868f, 0.04100160f, -0.15540622f,
    0.13264993f, 1.17859471f, 0.15415607f, 0.44606534f, 0.02240391f, 0.09501128f, -0.34557581f, -0.87022567f,
    0.25540233f, 0.64255553f, 0.00637423f, 0.29620776f, -0.19066897f, -1.73523426f, 0.11441017f, -0.07743063f,
    -0.17065938f, 0.15450959f, 0.50035119f, 0.83382839f, 0.06667662f, -0.12681583f, 0.02731886f, 0.15672146f,
    0.43892798f, 0.00347234f, -0.01027233f, -0.02544216f, 0.34355715f, -0.11561321f, 0.68568605f, -0.21920116f,
    -0.08611265f, 0.38070625f, -0.08430149f, -0.22280227f, 0.05824399f, 0.07378902f, -0.11477251f, -0.41665560f,
    0.16574556f, -0.14383103f, 1.52787614f, -0.03263447f, -0.14660291f, 0.07822070f, 0.05155822f, 0.01104371f,
    -0.17248274f, 0.40724072f, -0.09356277f, -0.15884195f, -0.08017392f, -0.09181997f, 1.68588364f, 0.14084154f,
    0.00356243f, 0.10795345f, -0.29596531f, 0.04837893f, 0.75411409f, 0.52059954f, -0.22319490f, -0.29860187f,
    -0.30214226f, -0.02790890f, 0.29093155f, 0.05769739f, -0.12278683f, 0.09702285f, -0.02843964f, 0.10944256f,
    -0.56102151f, -0.17421688f, 0.06023119f, -0.17350374f, 0.02918766f, 0.30327937f, 0.28369853f, -1.50831914f,
    0.07345536f, -0.09874320f, 0.15166070f, -0.04124473f, 0.64015526f, -1.27143216f, -0.20993507f, 0.26720041f,
    -0.04240669f, 0.04949879f, 0.30655858f, 0.08243608f, 0.12293660f, 0.32551241f, -0.17743653f, 0.16536222f,
    -0.09195942f, -1.30458987f, -0.19906442f, 0.06673933f, -0.09873489f, -0.44425142f, -0.35463133f, 0.11215324f,
    0.26372060f, -0.13629873f, -0.18005818f, -0.09973405f, 0.23642424f, 0.34355143f, -0.03381008f, 0.06933580f,
    -0.06455482f, 0.35678738f, 0.77744240f, -1.68517137f, -0.05722650f, -0.05731772f, 0.32557923f, -0.29216906f,
    1.30825460f, 0.00986494f, 0.05567801f, -0.25029126f, -0.15450853f, -0.05373622f, 0.12604558f, -2.13142014f,
    0.14706902f, 0.18149725f, -0.03984796f, 0.11158738f, 1.41358292f, -0.19401559f, 0.19888048f, -0.03545604f,
    0.05394848f, -0.24505126f, -1.42246580f, 0.13808301f, 0.03282517f, 0.11727110f, -0.20313655f, 0.15905292f,
    0.91178781f, -1.39006603f, 0.12630679f, 0.01099467f, -0.29559904f, -0.02550078f, -0.34052908f, 0.22113575f,
    0.04807981f, -0.38576156f, -0.04675031f, -0.15370215f, 1.49406517f, -0.69935429f, 0.28060523f, -0.02404401f,
    0.04691771f, 0.02341077f, 2.13151503f, 1.07255137f, -0.23806259f, -0.03365205f, -0.01077885f, 0.12603772f,
    -1.13178670f, -0.04753404f, 0.13094275f, -0.22201882f, -0.08553632f, -0.08098711f, 2.77634335f, 0.05654378f,
    -0.18169321f, 0.26527393f, -0.06672334f, 0.11654879f, -2.06872177f, 0.15551934f, -0.18975052f, 0.07592755f,
    0.05776802f, -0.20822105f, -1.18412101f, -0.26201648f, 0.04042076f, -0.34345719f, 0.01763282f, -0.02298089f,
    -1.32167673f, 0.51474369f, 0.07543884f, -0.12261622f, 0.00524489f, 0.10863966f, 2.42827559f, 0.13344689f,
    -0.45532236f, 0.04877952f, -0.11528715f, 0.05356476f, -1.44963920f, -0.74522883f, 0.23309514f, -0.11417602f,
    -0.14907032f, -0.18201700f, 1.31148243f, 0.33888975f, 0.17645030f, -0.35609692f, -0.06553921f, -0.16986775f,
    1.19087172f, 0.38242754f, 0.00620771f, 0.17763254f, 0.08220392f, -0.12428868f, -2.48230290f, 0.14457057f,
    -0.36999315f, 0.16372286f, -0.06622415f, 0.11043679f, -0.70836109f, -0.57193530f, 0.07894079f, -0.05080730f,
    0.01518170f, -0.07599093f, -1.02093613f, 0.70208424f, 0.27131194f, 0.07418940f, 0.00607893f, 0.06028042f,
    -0.72310627f, 0.95597422f, 0.16501722f, -0.16090684f, -0.01976979f, -0.14685039f, 2.44410610f, -0.07125227f,
    0.29470879f, -0.06709281f, 0.03544006f, 0.03291549f, 1.77756357f, 0.38551772f, 0.26762161f, 0.20641381f,
    0.14237848f, 0.02873182f, -0.41122842f, 0.21778059f, -0.12561418f, 0.12146368f, -0.17430356f, 0.05853823f,
    -0.82344580f, 0.91418928f, 0.15733883f, -0.27697861f, -0.03497642f, -0.07752141f, 2.24011350f, 0.41269454f,
    -0.06452269f, 0.09640028f, -0.03064375f, 0.15366136f, 1.45871043f, 0.08781218f, 0.17938489f, -0.20467672f,
    0.01887743f, -0.20449363f, 0.97467136f, -0.11646749f, 0.14495651f, -0.01495897f, -0.01109960f, 0.21577057f,
    1.24555123f, 0.76087445f, -0.03714111f, -0.01064152f, -0.14856024f, -0.23396358f, -0.01451087f, -0.97822893f,
    -0.00195796f, -0.46085808f, 0.00569714f, 0.07642855f, 1.26500559f, -2.21287847f, 0.07013516f, -0.22175941f,
    -0.00930131f, -0.24440090f, -0.44307622f, -0.30233243f, 0.19411694f, -0.37034097f, -0.04079965f, 0.04244622f,
    2.21186543f, -2.36406088f, -0.31580263f, 0.13646406f, -0.12292301f, 0.00829228f, -1.08522761f, 0.38327089f,
    0.13004538f, 0.31650102f, 0.01113620f, -0.06023887f, -0.55735129f, 1.42588580f, 0.10363448f, 0.10582253f,
    -0.11195131f, -0.04318419f, 0.60494697f, -0.04286574f, -0.20474248f, 0.24480848f, 0.14009857f, 0.10105890f,
    0.31339204f, -1.18852162f, 0.14141130f, 0.09912737f, -0.11810516f, -0.14569837f, -0.57464170f, -0.54352611f,
    -0.16490336f, -0.49641031f, -0.17183149f, 0.07799356f, 2.95989323f, -0.77600831f, -0.24462965f, 0.03988931f,
    -0.06929445f, -0.02268389f, -1.08411431f, 0.24494793f, -0.48374015f, 0.34287333f, -0.03503624f, -0.07959498f,
    -1.17332232f, 0.03384780f, 0.35476142f, -0.18908174f, 0.00379062f, -0.19203533f, 1.23316526f, -0.02796167f,
    0.10387967f, 0.20120589f, 0.10285330f, 0.13882288f, -0.69024730f, -0.11985868f, 0.16986588f, 0.29559085f,
    -0.03949551f, -0.10702231f, -3.20886493f, 1.03214741f, 0.33886364f, 0.00545901f, -0.22475480f, -0.01790674f,
    -1.22102940f, 1.48747742f, 0.01751983f, -0.24176283f, -0.06266610f, 0.03050653f, 0.76494730f, 0.62089550f,
    0.08578920f, -0.37091172f, -0.14054739f, -0.08177073f, 0.41503245f, 0.97386658f, -0.15447181f, 0.06640621f,
    0.04653239f, -0.08713428f, -2.46568012f, 1.05013371f, -0.24161401f, 0.06346304f, -0.18421961f, -0.08431607f,
    0.06611302f, -0.63566786f, -0.16412097f, -0.24740185f, -0.04843320f, 0.06550682f, 0.48249856f, -1.13046992f,
    0.00446554f, -0.08713661f, 0.06850470f, 0.14503570f, -0.79733753f, -0.15278590f, -0.13309883f, -0.44819963f,
    0.11889201f, 0.05310087f, 2.52092886f, -0.63704211f, -0.00950402f, -0.19521487f, 0.04611048f, -0.07445225f,
    0.66118753f, -0.09212270f, -0.21075943f, 0.29057431f, -0.12852445f, -0.00847539f, -2.50808716f, 0.39726976f,
    0.10824641f, -0.19198339f, -0.04471195f, 0.08525929f, 3.50779557f, 0.67804873f, 0.04337585f, 0.18611982f,
    0.05631193f, 0.17640820f, -0.67661667f, 0.13570122f, 0.32375529f, 0.12049171f, -0.03855955f, -0.03837488f,
    1.21540797f, 0.31979281f, 0.03308742f, 0.05774548f, -0.00009762f, -0.36762169f, -1.10691786f, 1.37784743f,
    -0.18833257f, 0.01207274f, -0.00210265f, -0.02033851f, -1.12864411f, 0.40033185f, 0.06878527f, 0.14588703f,
    -0.05944281f, -0.05584887f, 1.97854233f, 0.43682152f, -0.01249754f, -0.19423720f, -0.06784718f, -0.04874455f,
    1.17124462f, -0.14792950f, 0.05627798f, 0.15109529f, 0.04066056f, -0.29224515f, 0.94568717f, -0.10140278f,
    -0.17447813f, 0.23518202f, 0.07626078f, -0.05107918f, -2.12732553f, -0.06983542f, 0.23365206f, -0.19252728f,
    -0.06046696f, -0.20030297f, 0.02171228f, -0.12937197f, -0.03674923f, -0.30812442f, -0.04481985f, 0.04520497f,
    1.49496329f, -0.55605429f, 0.25964397f, -0.12127652f, -0.01256670f, 0.18370241f, 1.62935281f, -1.04970264f,
    -0.32919145f, 0.14690202f, 0.16282530f, 0.10242618f, 0.56003451f, -0.75017816f, 0.19187963f, -0.30880430f,
    -0.25914866f, 0.07235144f, -0.56220424f, 0.25771645f, 0.04235672f, 0.14451453f, 0.09333642f, -0.17584506f,
    0.04466663f, 1.41310954f, 0.09741104f, 0.08214770f, -0.18890634f, -0.02291457f, -0.21352363f, -0.93992394f,
    -0.01745283f, -0.04783102f, -0.03896353f, 0.02856907f, 1.47562563f, 0.90652227f, -0.35184765f, 0.06410265f,
    -0.00382842f, -0.03735157f, -0.37593830f, -0.02135132f, -0.02813546f, 0.22047004f, -0.20800017f, 0.06007464f,
    -0.38574037f, 0.33413619f, -0.18202184f, -0.24033061f, 0.06814834f, -0.10133278f, 0.53560627f, 0.57248962f,
    0.32693782f, -0.09616353f, -0.00655199f, -0.20962504f, 1.07145965f, 0.40722382f, -0.17944318f, 0.32817087f,
    0.00997424f, 0.02816720f, -1.03173947f, 0.24196182f, -0.20387705f, 0.02700054f, 0.01987649f, 0.32650539f,
    0.62719160f, 0.07602362f, -0.23313208f, 0.05238663f, 0.11164659f, 0.20347276f, 0.27287084f, 0.09050962f,
    -0.00933424f, -0.09352393f, -0.11662398f, -0.14057882f, -0.47220567f, 0.22059251f, -0.00553073f, 0.21669650f,
    0.05235752f, -0.09235957f, -0.09423807f, 0.56634635f, -0.26945296f, 0.38564980f, 0.05478830f, 0.26082575f,
    0.06432708f, -0.35576725f, -0.14398314f, -0.10264428f, -0.22187802f, 0.12669925f, 0.25193039f, -0.30825943f,
    -0.13515539f, 0.15026559f, 0.01375966f, -0.18620215f, 0.52105224f, 1.30606091f, -0.31433526f, 0.04322984f,
    0.10191240f, 0.01254369f, 0.82368910f, -0.11505956f, -0.01208715f, 0.38046485f, 0.03405853f, 0.06052675f,
    0.02519114f, 1.05427384f, -0.18966894f, -0.27652046f, 0.10742790f, -0.18540169f, 0.81690091f, -0.52371800f,
    -0.25519896f, 0.26674357f, 0.24010552f, 0.05125901f, -0.92821163f, 0.20797038f, 0.03417709f, 0.31648898f,
    -0.07558223f, -0.06940158f, -0.82580596f, 0.53395116f, 0.26458421f, -0.27134886f, -0.04396392f, -0.19529910f,
    0.09211478f, -1.70611203f, -0.09381427f, -0.10534596f, -0.00199832f, -0.15875228f, 2.00493217f, 0.59233212f,
    -0.18605070f, 0.17220138f, 0.17281060f, -0.04289211f, -0.26290387f, 0.01167327f, 0.30133376f, -0.21501660f,
    0.15961652f, 0.12085883f, 1.11996686f, -0.12952922f, -0.00795083f, 0.16192192f, -0.02740712f, -0.01155819f,
    -0.91054040f, 0.85327500f, 0.09147604f, -0.04638316f, -0.24749036f, 0.18710969f, -1.63290286f, 0.33828297f,
    0.18138221f, -0.11349290f, 0.11397914f, 0.10198849f, 0.86051780f, -0.77004993f, 0.11814220f, 0.22486997f,
    -0.06458317f, 0.19679330f, -0.27845865f, -1.59742427f, 0.30151266f, -0.12651929f, 0.02983901f, -0.00111765f,
    0.62265968f, 0.06004635f, 0.09660329f, -0.33004841f, -0.11834540f, -0.18018444f, 0.39730272f, -0.40307647f,
    0.04780837f, -0.02868437f, -0.09639499f, -0.13033058f, 1.13096690f, -0.50564200f, -0.03059608f, -0.02119104f,
    -0.12911060f, 0.16134395f, 0.03717877f, 0.07951788f, 0.07956278f, 0.09542292f, 0.05694233f, 0.17413127f,
    0.67891812f, 0.15782212f, 0.00249358f, 0.09594738f, 0.02071866f, -0.12434317f, -0.25394049f, 0.02312885f,
    0.13315219f, 0.21267608f, -0.04113238f, 0.28120193f, 0.97805941f, 2.50503135f, 0.05916810f, -0.06976262f,
    -0.00658068f, -0.08767084f, 0.74663043f, -0.06290311f, -0.26644725f, 0.08375655f, 0.01642536f, -0.21301110f,
    -1.46223557f, 0.29771081f, 0.18373607f, -0.00500249f, 0.06769789f, 0.00633572f, -0.15100391f, 0.18252036f,
    0.25464803f, 0.25941083f, 0.16236521f, 0.15006830f, 0.56266350f, -0.57945156f, 0.12537035f, -0.00790292f,
    -0.13465630f, -0.12002716f, 1.66239846f, -0.73586720f, -0.11365477f, 0.14280918f, 0.08734438f, 0.00295668f,
    0.32402462f, 0.52042061f, 0.17455505f, 0.35317975f, -0.07188825f, 0.03159977f, -0.11498531f, -0.68214118f,
    -0.03614698f, 0.55770445f, 0.03209243f, 0.08244603f, 0.07899554f, -1.01671112f, -0.02318020f, 0.10153982f,
    -0.11271402f, 0.10191410f, 0.28490096f, 0.02991480f, 0.24245623f, -0.14174785f, -0.02992272f, 0.13016230f,
    -0.56956768f, 0.36960068f, -0.26737502f, -0.04436463f, 0.01073022f, 0.10740175f, 0.75059974f, -0.11298037f,
    -0.01933669f, 0.26521492f, 0.06540599f, -0.06406005f, -0.01967585f, 0.15450412f, 0.21472096f, -0.00757654f,
    -0.07950234f, -0.03430226f, 0.28919333f, -0.25274014f, -0.09255319f, 0.03848414f, -0.16286027f, 0.05116937f,
    -0.11114525f, 0.29765263f, 0.11394645f, -0.00248408f, -0.04213254f, -0.08601476f, 1.40027440f, -0.09057856f,
    -0.04831506f, -0.15369661f, -0.11801454f, -0.11628989f, 0.20850220f, 0.07726345f, -0.21262476f, -0.09689389f,
    -0.26768991f, 0.02194984f, 0.29781869f, -0.21208003f, -0.11375315f, -0.00440335f, 0.10955904f, -0.06127873f,
    -0.52104652f, -0.21122238f, 0.18888533f, -0.00609959f, 0.12152717f, 0.13701873f, 0.40186793f, -0.47347927f,
    0.21013826f, -0.11301339f, -0.18672849f, 0.03179532f, 0.65697742f, -0.71598506f, -0.11418983f, 0.28113344f,
    -0.02553633f, -0.02046749f, 0.40111262f, 0.10126121f, 0.27329421f, 0.39178911f, -0.14848551f, 0.17581502f,
    -0.16436018f, -0.95980912f, -0.04760648f, -0.14465083f, 0.16699445f, -0.35710862f, -0.26439071f, -0.18719500f,
    0.29106998f, -0.04899820f, 0.06613374f, 0.07693519f, 0.16080563f, 0.38477036f, 0.14049377f, 0.07645471f,
    -0.03445260f, 0.30064875f, 0.64472604f, -0.81649131f, -0.05882360f, -0.01550754f, 0.13332641f, -0.11418112f,
    1.63120151f, -0.57236820f, 0.09402335f, -0.09454708f, 0.07056858f, 0.16950808f, 0.03801443f, -1.49394202f
};

/* LSTM hidden weights: [4*HIDDEN_SIZE=256, HIDDEN_SIZE=64] */
const float LSTM_WEIGHT_HH[16384] = {
    -0.18380781f, 0.07970551f, 0.01837231f, -0.08661088f, 0.01147927f, -0.03074098f, 0.12183835f, -0.07381429f,
    -0.15236217f, -0.08002527f, -0.08734331f, -0.03294066f, 0.04384143f, -0.12334977f, -0.05946296f, -0.11136616f,
    0.12564845f, 0.13429977f, -0.10834897f, -0.06341511f, -0.11830810f, -0.12248633f, -0.07425903f, -0.04356870f,
    0.07937762f, -0.01583626f, -0.12953430f, 0.00653566f, 0.09984605f, -0.16037896f, 0.11661406f, 0.17354997f,
    0.07397804f, 0.12690546f, -0.08163847f, 0.04548365f, 0.18812646f, 0.12191110f, 0.10995214f, -0.17931487f,
    0.06987567f, -0.02040741f, 0.11537053f, 0.19630329f, -0.09847440f, -0.04779053f, 0.14446044f, -0.18034589f,
    0.08236185f, -0.04636443f, 0.14641786f, 0.07882723f, -0.01245037f, -0.12046965f, -0.05651093f, 0.15317450f,
    0.08555632f, -0.06591386f, 0.12450994f, 0.16380565f, -0.03064505f, -0.11778759f, -0.21007465f, -0.07961068f,
    0.14594731f, 0.08137985f, -0.02714279f, -0.16506863f, 0.05112080f, 0.20617348f, -0.01222052f, -0.06103927f,
    -0.01827168f, -0.18080211f, 0.10210858f, -0.06537120f, 0.18933955f, 0.01041720f, 0.15202488f, -0.03851859f,
    -0.22951002f, 0.19044997f, 0.11356937f, -0.02592609f, 0.15370101f, -0.11802389f, 0.00993730f, 0.02203515f,
    -0.05190475f, 0.16445032f, 0.05290937f, 0.10940221f, -0.01731191f, 0.22363040f, 0.11890567f, -0.03234873f,
    -0.24158439f, -0.04094112f, 0.07419673f, 0.03437904f, -0.00717177f, 0.08721654f, -0.09457039f, 0.05658839f,
    -0.03754559f, 0.00115433f, 0.20330404f, 0.17103976f, 0.05882330f, 0.04045226f, -0.01495471f, 0.09068479f,
    0.01266937f, -0.05764087f, 0.07398733f, 0.04519139f, -0.07411938f, -0.03150909f, 0.15094317f, -0.06764778f,
    0.04581395f, 0.10936726f, 0.01154807f, -0.13341016f, -0.07292604f, 0.10880375f, -0.00699227f, 0.06864829f,
    -0.01250033f, 0.11973552f, -0.11532536f, -0.07444574f, -0.11928029f, 0.11955559f, -0.12462366f, -0.08085499f,
    -0.06467836f, -0.19515365f, 0.13048436f, 0.26119798f, -0.30919147f, 0.06294677f, -0.07634741f, 0.11711799f,
    -0.20471977f, -0.05153476f, 0.08420423f, 0.16009058f, 0.18368357f, 0.04615019f, 0.14876661f, -0.06979294f,
    0.11475678f, 0.16213684f, 0.15546627f, -0.22615422f, 0.18398948f, -0.10100964f, 0.19026898f, -0.11081162f,
    0.02328879f, -0.24158932f, 0.02176105f, -0.11625434f, -0.02408380f, -0.24472211f, -0.11005869f, -0.07351378f,
    0.06586583f, 0.07445427f, 0.17774729f, -0.05829600f, 0.04912153f, 0.10615032f, -0.12215292f, 0.12971456f,
    0.02869282f, 0.10098277f, 0.04500123f, 0.07162751f, 0.22781795f, 0.00695535f, -0.03788620f, -0.18510564f,
    -0.14523333f, -0.06985027f, 0.00378607f, -0.08868562f, 0.00243712f, -0.16763853f, 0.10302752f, 0.26983911f,
    0.03447019f, 0.20372643f, -0.21111321f, -0.10055698f, -0.04953459f, -0.09894334f, -0.06517673f, 0.07559109f,
    0.01117064f, -0.03100719f, 0.04526094f, 0.20121139f, -0.11551102f, 0.15901981f, -0.07252769f, -0.16424699f,
    -0.00507288f, 0.19337146f, 0.09167138f, 0.09596570f, 0.09625136f, -0.16445419f, -0.03860606f, 0.22526845f,
    0.06167213f, 0.07333234f, 0.00648602f, 0.27474770f, -0.10650068f, 0.05003629f, 0.33856225f, -0.14045365f,
    0.13250516f, -0.03386010f, -0.00129893f, 0.07370350f, 0.21807706f, 0.02893676f, -0.11370327f, 0.21885248f,
    -0.06459870f, -0.09791404f, 0.06092712f, 0.05865223f, 0.00924029f, -0.14382108f, -0.02546909f, 0.07135770f,
    0.05060124f, 0.23172961f, 0.06909886f, -0.34006116f, 0.13050662f, -0.23076504f, 0.03579875f, 0.02210405f,
    -0.06933366f, 0.14488210f, -0.05524655f, -0.11962444f, 0.02162450f, -0.05851428f, -0.12238587f, 0.11884005f,
    -0.13218097f, -0.10993613f, -0.06189593f, 0.11177039f, 0.04523680f, -0.12742285f, 0.15907787f, 0.07649933f,
    0.07007147f, -0.02226337f, -0.16746587f, 0.01703022f, 0.09673525f, -0.03751668f, -0.09054317f, 0.01463261f,
    -0.03952473f, -0.10841265f, -0.06377066f, -0.14665656f, 0.03141006f, 0.16719133f, 0.11570030f, 0.08245213f,
    -0.08725722f, 0.07301264f, -0.01197762f, -0.01993464f, -0.08284508f, 0.21065703f, -0.04116692f, -0.07921997f,
    -0.06765361f, 0.08503558f, 0.00532752f, -0.15732430f, 0.03628609f, -0.00586822f, -0.13337904f, -0.06284419f,
    -0.13596413f, -0.14135738f, 0.03317914f, 0.06819485f, 0.00614989f, 0.01557861f, 0.08700189f, 0.03781018f,
    -0.08028881f, -0.00282118f, 0.04230709f, 0.17306641f, 0.03442938f, -0.03171908f, -0.02962309f, 0.01816814f,
    0.06093341f, 0.04101485f, 0.22216243f, -0.06710395f, -0.02427406f, 0.10609408f, 0.01108275f, -0.03324463f,
    -0.11067646f, -0.14051759f, 0.19165790f, 0.06912908f, 0.02743658f, -0.02446592f, 0.08964011f, -0.10102476f,
    0.20462434f, -0.09193813f, 0.03837661f, 0.01929273f, 0.17369890f, 0.01822473f, -0.04162754f, 0.05250277f,
    0.08870974f, -0.20102692f, -0.01924305f, -0.14590989f, -0.13563886f, 0.05911486f, 0.06806407f, -0.10698397f,
    0.12587625f, -0.05433082f, 0.06539922f, -0.02241416f, 0.09892047f, 0.03403861f, 0.00199015f, 0.04474965f,
    0.12931326f, -0.11839177f, 0.07518545f, -0.10299466f, 0.29429910f, -0.06006938f, -0.00260075f, -0.04882731f,
    0.13001426f, 0.04462589f, -0.20201802f, 0.17022955f, 0.06649553f, -0.00006213f, 0.03249186f, 0.16676667f,
    -0.03588465f, 0.05319041f, 0.01709297f, 0.14785947f, -0.01099905f, 0.20333275f, -0.11926711f, -0.04990319f,
    0.15082720f, 0.08038208f, -0.09539126f, -0.00476695f, 0.11619710f, -0.01499773f, 0.07873548f, -0.00048388f,
    -0.24365287f, -0.07705365f, -0.07830440f, -0.04005775f, -0.14136012f, -0.24802613f, 0.23329686f, -0.29081473f,
    -0.01439403f, 0.02853565f, 0.22140054f, -0.03543997f, -0.04076209f, -0.28326917f, -0.15063091f, 0.17904969f,
    -0.01987345f, 0.06772806f, -0.11614372f, -0.20593247f, -0.14028518f, -0.11466066f, 0.05505661f, -0.17844069f,
    0.04632343f, -0.05275489f, -0.00338256f, -0.05158121f, -0.00626675f, -0.10470389f, -0.10682013f, -0.03448205f,
    -0.11459331f, -0.26257080f, -0.07780691f, -0.18554272f, 0.09647515f, 0.05014239f, -0.08002781f, -0.28927362f,
    0.22102275f, -0.13437501f, -0.11760126f, -0.10039205f, -0.07381834f, 0.27138960f, -0.10736243f, 0.03176060f,
    0.02759530f, -0.04435298f, -0.04175555f, 0.02952748f, -0.08264415f, -0.06390055f, -0.17893969f, 0.06107660f,
    0.06266128f, -0.25899827f, 0.10105673f, -0.04923319f, 0.08611471f, -0.06741130f, 0.01678151f, -0.03329277f,
    -0.07948247f, -0.21896119f, 0.01921897f, 0.07167774f, -0.01965464f, -0.04185306f, 0.06788525f, 0.01758784f,
    0.01404155f, -0.03098165f, 0.18859692f, 0.10038656f, -0.06735933f, 0.07918806f, -0.01302502f, -0.10815014f,
    -0.01596777f, 0.01894612f, 0.00812181f, 0.15458618f, 0.01743856f, 0.00989737f, 0.07759836f, 0.18297690f,
    0.01270353f, 0.07765483f, 0.01297823f, 0.05518858f, 0.00622094f, -0.07401399f, 0.15828781f, -0.04168512f,
    -0.04348565f, -0.08985559f, -0.01219219f, -0.14482966f, -0.03756093f, 0.04195528f, -0.15979998f, 0.14902262f,
    0.07705888f, -0.00080557f, -0.05103165f, -0.04709052f, -0.09881187f, -0.00925493f, -0.20006414f, 0.07100931f,
    -0.16052300f, 0.12915826f, 0.05862474f, 0.17539702f, 0.14472844f, -0.10789182f, -0.12628306f, -0.00244418f,
    -0.17582747f, 0.01332972f, 0.04392435f, 0.09640931f, -0.03552222f, 0.17812650f, 0.12189832f, 0.06664957f,
    -0.19302237f, 0.14670900f, -0.07710907f, -0.06117583f, -0.08969281f, -0.06482784f, -0.02412674f, 0.20500383f,
    0.01500268f, -0.03723815f, -0.02412403f, -0.16833530f, -0.25934866f, 0.07355189f, 0.02993649f, 0.05388642f,
    -0.20074101f, 0.13899411f, -0.04334528f, -0.01071189f, 0.07733500f, 0.10259722f, 0.13458902f, 0.26764229f,
    0.05019253f, 0.02568871f, 0.13172396f, 0.05041440f, -0.05667021f, 0.22587886f, 0.01175334f, -0.16354498f,
    0.16639569f, -0.12617218f, -0.20210156f, 0.04208277f, 0.03576472f, -0.01220768f, -0.01177641f, 0.12445405f,
    -0.06971964f, 0.10189822f, 0.00474453f, 0.02654055f, 0.01334987f, -0.01309471f, -0.17444357f, -0.04585956f,
    -0.04119196f, 0.17204022f, 0.04506142f, -0.01464724f, 0.18460292f, -0.01405267f, 0.05487042f, 0.01187026f,
    0.09631728f, 0.17627177f, -0.03581594f, -0.10878761f, 0.04930252f, -0.01508971f, -0.18558151f, -0.02204352f,
    -0.03572607f, 0.10021824f, -0.17845537f, -0.00495598f, 0.12475712f, -0.06189826f, 0.21990897f, -0.04701467f,
    -0.06026286f, 0.13112788f, -0.12101869f, -0.13399683f, 0.08320644f, 0.02247507f, -0.05106169f, -0.12491914f,
    0.14668551f, 0.05900206f, 0.14575554f, 0.03938422f, 0.09608904f, -0.08020417f, 0.14697227f, -0.04043319f,
    0.11873143f, -0.21873282f, 0.05097550f, -0.18926625f, 0.08270824f, 0.10188754f, 0.11487132f, -0.01963511f,
    -0.00607358f, -0.17390317f, -0.01746328f, -0.15226643f, 0.19739519f, 0.15686706f, 0.08459551f, 0.01167560f,
    0.12812901f, -0.03840981f, 0.11624777f, -0.12102903f, 0.13198625f, 0.06273309f, -0.00086391f, 0.01313501f,
    0.05292407f, 0.22212639f, 0.09916143f, 0.04913055f, 0.07430913f, -0.16193309f, -0.22186747f, 0.17808835f,
    -0.00850979f, -0.01921757f, -0.03105959f, 0.11060555f, 0.09429410f, 0.01948071f, -0.04945144f, 0.04851906f,
    -0.02331281f, -0.01316207f, -0.06032329f, 0.07933956f, 0.00664930f, 0.08071680f, 0.18460374f, -0.18714057f,
    0.02938073f, -0.16833434f, -0.14604014f, -0.03535587f, -0.07637727f, -0.12382153f, 0.04981475f, 0.09778078f,
    -0.00287733f, -0.16114610f, -0.09132915f, -0.08954215f, -0.00941832f, 0.26236412f, 0.04298260f, -0.08387268f,
    0.12450881f, -0.05514921f, 0.09807427f, -0.14019760f, -0.11808771f, -0.11866188f, -0.16289964f, 0.25244036f,
    0.07989863f, 0.14114812f, 0.23226425f, -0.04620993f, 0.02965855f, 0.03024466f, -0.11487219f, -0.01211592f,
    0.06640448f, 0.10802490f, 0.09849131f, -0.13136764f, -0.12390189f, 0.06588762f, 0.07353470f, -0.02542936f,
    -0.04661447f, -0.06635369f, 0.11692376f, 0.22116409f, -0.03641653f, 0.17304508f, 0.04396476f, -0.16487521f,
    0.09339643f, -0.02615897f, -0.07777565f, -0.12608330f, 0.06690660f, -0.02876931f, 0.07440493f, 0.07906720f,
    -0.11170339f, 0.09407525f, -0.17418896f, -0.01316983f, 0.18492185f, -0.21064670f, 0.15835094f, 0.05446791f,
    -0.13647912f, -0.03085298f, 0.10670895f, 0.12310357f, 0.07181840f, -0.09351429f, 0.04939829f, 0.23005010f,
    0.09257138f, 0.22465041f, 0.03500078f, 0.05502696f, -0.22948486f, -0.00385982f, -0.11538612f, -0.17772764f,
    -0.08525041f, -0.08113706f, -0.21253228f, 0.04541661f, 0.25089389f, 0.01224070f, 0.05502510f, 0.00909485f,
    -0.03828733f, -0.00922510f, 0.01473905f, -0.02575010f, 0.02489596f, 0.12805472f, 0.10997324f, -0.10568422f,
    0.01459182f, -0.00867213f, -0.20981325f, 0.10453922f, 0.15406172f, -0.06115796f, 0.17465892f, 0.21469484f,
    0.12295021f, 0.20430820f, 0.07755583f, 0.02495639f, 0.10464546f, -0.04358757f, -0.04131835f, -0.12885842f,
    -0.15520675f, -0.02432792f, 0.13499641f, -0.06815498f, -0.05986908f, 0.05954413f, 0.11005332f, 0.09442978f,
    -0.09150803f, 0.03127537f, -0.12876999f, -0.09031133f, -0.19156088f, 0.14518969f, -0.14733782f, -0.14648464f,
    -0.00289693f, -0.13017094f, -0.34791833f, -0.00397175f, 0.01108800f, 0.02370398f, -0.05214175f, 0.36209080f,
    -0.12157590f, 0.15602563f, 0.02522665f, 0.19607569f, 0.07872041f, -0.04157491f, -0.05685694f, 0.00955286f,
    -0.07994423f, 0.01305773f, 0.17222098f, 0.08164644f, -0.03639545f, 0.24953425f, 0.01760174f, -0.00019011f,
    0.05142854f, 0.09907385f, -0.10373357f, 0.14204589f, -0.22043939f, -0.21670076f, 0.14167884f, 0.10806391f,
    -0.01379300f, 0.05367079f, 0.10288014f, -0.07526089f, 0.11436929f, 0.14742993f, -0.13208976f, -0.15425014f,
    0.12999503f, -0.06827796f, 0.03392470f, 0.05283526f, 0.04892158f, 0.20513742f, -0.06757640f, 0.12366202f,
    -0.04229563f, -0.09190124f, -0.24307452f, -0.08199290f, 0.05488262f, -0.07025950f, -0.15297361f, -0.12424993f,
    -0.15146255f, -0.18107036f, -0.22262049f, 0.04728271f, -0.18590055f, 0.07766040f, 0.13182974f, 0.02258402f,
    -0.05558578f, 0.08271274f, 0.05679682f, -0.07072532f, -0.25977871f, 0.09723402f, 0.04238355f, 0.25850585f,
    -0.08492013f, 0.12243553f, 0.14882617f, 0.04032543f, 0.05011086f, 0.10692677f, 0.06490985f, -0.24516919f,
    0.03472259f, -0.03916526f, -0.18096693f, -0.04825703f, -0.26896143f, 0.04541239f, -0.33367825f, 0.09903347f,
    0.04549420f, -0.09251411f, -0.05238254f, -0.16538779f, -0.10748886f, 0.01066567f, -0.08440176f, 0.06483661f,
    0.07208528f, -0.01545087f, -0.06625394f, -0.20253469f, -0.06571093f, 0.11106059f, -0.20820725f, 0.00615895f,
    -0.00056900f, -0.06223279f, 0.09876070f, -0.11493859f, 0.10828643f, 0.20537663f, 0.01270890f, 0.12349886f,
    -0.08580815f, -0.20560576f, 0.04566826f, -0.05755401f, -0.07832745f, 0.19135582f, 0.12874331f, -0.06359206f,
    -0.04548579f, 0.11221024f, 0.02032432f, -0.22054632f, -0.05153557f, -0.08807424f, -0.03043363f, 0.12366561f,
    -0.18434623f, 0.04797632f, -0.04249693f, -0.13095498f, 0.15565425f, 0.02049536f, -0.11063820f, -0.07676522f,
    -0.00345698f, 0.11730754f, 0.01202617f, 0.14693277f, -0.05808223f, 0.14387299f, 0.14039457f, 0.01369708f,
    0.23030809f, -0.18538068f, 0.16817851f, 0.07372322f, -0.12958673f, -0.22186004f, -0.00210494f, -0.08439017f,
    0.05415354f, -0.01428264f, -0.11960149f, 0.06141535f, -0.09831829f, 0.13196667f, 0.28094450f, 0.03526382f,
    0.08234064f, -0.00078744f, -0.09272686f, -0.04197937f, -0.15179443f, 0.04305254f, -0.08057530f, 0.11728019f,
    0.00437712f, -0.01575147f, 0.13764763f, 0.25014296f, -0.08338118f, -0.03247351f, 0.05860703f, -0.04827524f,
    0.08412301f, -0.04888988f, 0.11920369f, -0.04895572f, -0.02983294f, -0.15888497f, 0.03499128f, 0.09279075f,
    -0.00022947f, 0.00057864f, 0.05285940f, -0.11352743f, 0.00089406f, 0.13161106f, -0.10466551f, 0.05009827f,
    0.15910809f, -0.02117702f, -0.01637821f, -0.01181872f, 0.13898630f, 0.06340537f, 0.00953826f, -0.09459012f,
    0.13674709f, 0.01445824f, -0.11402225f, 0.02737084f, -0.15089528f, 0.14714448f, 0.11454177f, 0.09625220f,
    0.04907076f, 0.00091205f, 0.10105692f, 0.01098474f, -0.06968950f, 0.03255439f, 0.00945651f, 0.06344640f,
    0.14684731f, 0.28429270f, -0.06363998f, -0.08279555f, 0.11315332f, -0.05444241f, 0.02869852f, -0.14095250f,
    -0.01422445f, -0.12677056f, -0.05574006f, -0.02548141f, -0.00830180f, -0.06861991f, 0.04074085f, -0.11556609f,
    -0.00742717f, 0.15840895f, 0.00825090f, 0.01725394f, 0.03605193f, 0.00589754f, -0.02852055f, -0.17490336f,
    0.11228810f, -0.00670606f, 0.05202797f, 0.11263902f, -0.05101646f, -0.18501170f, -0.13109417f, 0.10857073f,
    0.14688846f, 0.08121976f, 0.03331794f, -0.13419607f, 0.03689575f, 0.15249002f, 0.03166312f, 0.03391185f,
    0.06808770f, -0.06690548f, -0.03385256f, 0.07150675f, -0.11130986f, -0.13630992f, 0.01207110f, 0.25646463f,
    -0.06987270f, 0.02011741f, 0.11277266f, 0.14310455f, 0.15190056f, 0.04511262f, 0.16719078f, -0.13198058f,
    0.08386756f, -0.11026429f, 0.06183354f, 0.17749541f, -0.13224818f, 0.19093648f, -0.11191045f, -0.11700874f,
    0.05440116f, -0.06539112f, -0.10826711f, 0.10423193f, 0.00732188f, -0.11098395f, -0.04922417f, -0.11648461f,
    -0.10200541f, 0.16010624f, -0.11609769f, 0.02280414f, -0.03389370f, -0.02096871f, -0.16271707f, -0.16382639f,
    -0.05799124f, -0.01099705f, -0.02056755f, -0.07537805f, -0.09941260f, -0.04384516f, 0.06778574f, 0.25658518f,
    0.12015508f, 0.05013990f, 0.10548051f, -0.03832533f, 0.14334418f, 0.01522259f, -0.05426511f, -0.10370429f,
    0.07487095f, -0.20978038f, 0.35174400f, 0.20160106f, -0.34964633f, 0.13294736f, 0.11173963f, 0.05879587f,
    0.32194793f, -0.27279970f, -0.07730005f, 0.12654632f, 0.53344321f, 0.16104116f, 0.26496026f, 0.02974410f,
    0.44381231f, -0.17725091f, 0.08942220f, -0.16679192f, -0.08131152f, -0.26098001f, -0.13226572f, -0.02792910f,
    -0.32098642f, -0.27252346f, -0.11458244f, 0.00021424f, -0.28610450f, -0.37068063f, -0.06776594f, 0.43720835f,
    0.37860304f, 0.14282596f, 0.08344706f, 0.11293213f, 0.42914084f, 0.25900561f, -0.20038161f, -0.32720789f,
    -0.04513658f, 0.02541763f, 0.17632864f, -0.08068931f, -0.00677105f, -0.31591123f, 0.19285232f, -0.32055390f,
    -0.01713012f, -0.09190110f, -0.18887591f, 0.28149074f, -0.12114646f, 0.01896369f, 0.11101446f, -0.52107555f,
    0.54739654f, -0.20513326f, 0.32744783f, -0.32546625f, 0.10983820f, -0.23436019f, -0.23499937f, -0.31193352f,
    -0.00455417f, -0.08558618f, -0.15331265f, -0.17226329f, -0.09012920f, 0.18525332f, -0.02965528f, -0.14840247f,
    -0.00676169f, 0.00396175f, -0.18363349f, -0.04776457f, -0.08543378f, 0.11725243f, -0.23820259f, 0.02087438f,
    0.09881783f, 0.00292533f, 0.14652325f, 0.05916702f, -0.02747634f, 0.28497902f, 0.10514898f, -0.13100189f,
    0.13954180f, 0.08807541f, 0.04057788f, 0.04515404f, -0.25712252f, -0.13614087f, -0.11237787f, 0.14396837f,
    0.17400578f, -0.12410241f, -0.10754911f, 0.00921797f, -0.19296058f, 0.18033241f, -0.03286849f, 0.09144875f,
    0.13091017f, 0.11069893f, 0.01486812f, -0.01421838f, -0.24424089f, 0.13103607f, -0.21568277f, -0.05988645f,
    0.19964829f, -0.28139770f, 0.11843319f, 0.09173073f, 0.00818344f, -0.09047083f, 0.10759647f, 0.24865253f,
    0.16068520f, -0.04823526f, -0.10328789f, -0.03447910f, 0.17118342f, 0.03704669f, -0.10829589f, -0.26322934f,
    0.03800919f, -0.09891059f, -0.11351039f, -0.06370858f, 0.21734442f, -0.23139940f, 0.24338897f, 0.09352931f,
    -0.13526429f, -0.06163624f, -0.11517116f, 0.01592624f, -0.03315152f, 0.07085622f, 0.15891831f, 0.03078138f,
    0.11376907f, 0.17878206f, 0.02661522f, -0.13532981f, -0.14655171f, 0.04039719f, -0.10066580f, -0.01084360f,
    -0.07023487f, 0.03292161f, -0.13796857f, -0.01748529f, -0.00822495f, 0.21726847f, 0.04844940f, 0.00747173f,
    0.02646529f, -0.00627254f, -0.09920812f, -0.10922040f, 0.04888851f, 0.02695335f, -0.20144419f, 0.03757619f,
    0.20942841f, -0.15483569f, -0.03775298f, 0.06849393f, 0.01340543f, -0.08028592f, -0.03215800f, 0.16515714f,
    -0.04700495f, 0.02694576f, 0.10661447f, -0.01028285f, -0.13476461f, 0.06138646f, -0.16595863f, 0.16248333f,
    -0.04869737f, -0.17505957f, 0.11350185f, -0.05466618f, 0.03374875f, 0.20026611f, 0.20905842f, -0.05371467f,
    0.12454949f, 0.07668851f, -0.07509279f, -0.14745690f, 0.02894202f, -0.04836069f, 0.07183905f, 0.03513262f,
    -0.03161532f, -0.02862015f, -0.27724254f, 0.09537907f, -0.12728199f, 0.01426882f, 0.09862943f, 0.03653120f,
    -0.01386167f, 0.03537221f, -0.07600780f, -0.00924114f, -0.09605743f, -0.18143436f, 0.01794357f, 0.07392012f,
    0.21237923f, -0.05005527f, -0.09671573f, -0.11275696f, 0.12677866f, -0.05492019f, -0.03691115f, -0.04010854f,
    -0.09606358f, 0.04323150f, -0.18843678f, -0.15681325f, -0.25281531f, -0.04948419f, 0.21274829f, 0.09312937f,
    0.04057868f, 0.15432513f, 0.01879989f, -0.04356996f, -0.08041347f, 0.15021533f, -0.23407257f, 0.02127753f,
    0.11458656f, 0.17551765f, -0.00381570f, 0.18067071f, 0.10406138f, -0.07336866f, 0.11525527f, 0.27099457f,
    0.07621044f, 0.01700373f, -0.07107005f, 0.04115628f, -0.06496255f, -0.00657775f, -0.01490956f, -0.01990833f,
    -0.08734469f, 0.01851917f, 0.02282523f, -0.00232997f, -0.16525929f, -0.02435803f, 0.23994206f, -0.04715932f,
    -0.08781509f, 0.01007234f, 0.18218672f, -0.09610017f, 0.03491047f, -0.01022514f, -0.05280636f, 0.21027815f,
    0.02372058f, 0.26746321f, -0.11479210f, -0.19664839f, 0.01449203f, 0.03944602f, -0.12148859f, -0.19787207f,
    0.04637469f, -0.00796883f, 0.02113793f, -0.01669545f, -0.18611848f, -0.02796842f, 0.07194146f, 0.15412743f,
    0.01295588f, -0.07033845f, 0.02590073f, -0.15561785f, 0.00209469f, 0.16533294f, 0.02863912f, -0.10399542f,
    0.08919454f, 0.16525140f, -0.03506937f, 0.02119310f, 0.01449978f, 0.18055879f, -0.04410244f, 0.15104963f,
    0.18301687f, 0.06530282f, 0.19306833f, 0.16428737f, 0.12113503f, 0.15396263f, 0.06359173f, 0.18752746f,
    -0.06650724f, -0.25255811f, 0.01924012f, 0.02377776f, 0.10967678f, 0.01716106f, -0.05373345f, -0.20052670f,
    -0.02093720f, 0.12183291f, -0.08607766f, -0.07840967f, -0.04026566f, 0.05835921f, 0.10465244f, 0.03391781f,
    -0.02901462f, -0.17917164f, 0.03233946f, 0.05578748f, -0.12931629f, 0.08994266f, 0.09724232f, -0.21006100f,
    -0.10715257f, 0.01857510f, -0.00880260f, 0.10674063f, -0.05089207f, 0.12297724f, -0.01005395f, -0.06129328f,
    0.00879352f, -0.10320335f, 0.07409117f, 0.01528347f, 0.10347334f, 0.03943804f, 0.28136331f, 0.10253495f,
    0.02973364f, -0.03087763f, -0.13698111f, -0.01337398f, -0.05864751f, 0.00244042f, -0.32091543f, 0.17267120f,
    0.03886102f, -0.05187260f, 0.23390757f, -0.20939407f, -0.04728717f, -0.02689472f, -0.01815954f, 0.16575366f,
    -0.05408722f, -0.15217578f, 0.05157419f, 0.20331727f, -0.06155864f, -0.15687299f, -0.12287746f, -0.13013676f,
    0.04857775f, -0.07438277f, -0.00324021f, -0.06807838f, -0.06305208f, -0.02674674f, 0.03886180f, -0.01865178f,
    -0.19970667f, 0.09755109f, 0.01833372f, 0.15679225f, 0.04333121f, -0.22168928f, 0.14535882f, -0.03286465f,
    -0.08994476f, -0.00234144f, 0.00098448f, -0.09334053f, 0.04974611f, -0.08114931f, 0.08760033f, -0.12482587f,
    0.01923957f, -0.00655410f, -0.02209874f, -0.05156127f, 0.02877594f, -0.11874423f, -0.08703282f, -0.02408714f,
    0.10861865f, -0.12201495f, 0.05188798f, 0.02929160f, -0.01729275f, -0.00363271f, 0.06893864f, 0.12440717f,
    -0.04141163f, -0.04883905f, 0.14885317f, -0.01367736f, 0.12892377f, 0.02611197f, 0.04483110f, 0.02993868f,
    -0.01612748f, -0.20507130f, 0.02908000f, 0.07754990f, 0.10401592f, -0.16761692f, 0.13527085f, 0.04760933f,
    -0.09747574f, 0.14823647f, -0.08312701f, 0.20810701f, -0.01177241f, 0.02897484f, 0.01003868f, 0.02499620f,
    -0.04629369f, -0.00650024f, 0.24346358f, -0.07464455f, 0.07926692f, -0.01494631f, 0.06130987f, -0.00871503f,
    -0.00880580f, 0.11745665f, -0.04794277f, -0.20756708f, -0.04670880f, 0.22081093f, -0.24670427f, 0.09506328f,
    -0.16959293f, -0.02673021f, 0.01869934f, -0.21069254f, 0.04572964f, -0.06558002f, -0.10767316f, -0.02872962f,
    0.17315538f, 0.06148044f, -0.22124332f, 0.04952008f, 0.03268838f, 0.09316601f, 0.20648834f, 0.18409383f,
    -0.12111935f, 0.13959162f, 0.10388995f, 0.00780986f, -0.07062964f, 0.06374868f, 0.09271559f, -0.03148598f,
    0.04177472f, 0.02902363f, -0.02880149f, 0.00287710f, -0.10705850f, -0.13233307f, 0.18989931f, -0.08772688f,
    0.19126369f, 0.15955591f, 0.04471289f, -0.06255014f, -0.29182512f, 0.09674231f, -0.03936237f, -0.05485429f,
    -0.14049225f, 0.03761275f, -0.00032093f, 0.14403553f, 0.02879862f, 0.12045428f, 0.11511753f, 0.17682783f,
    -0.15258247f, 0.07216889f, -0.14058501f, 0.00119478f, 0.23522358f, -0.09164914f, 0.00667062f, -0.10323390f,
    -0.01192020f, 0.02807019f, -0.23247591f, -0.17013305f, -0.03025908f, 0.16141893f, 0.07303194f, 0.04750396f,
    -0.12805668f, -0.01291643f, 0.03048231f, 0.18016444f, -0.04343499f, -0.16223733f, -0.18995562f, -0.05842883f,
    -0.04177593f, -0.04574383f, -0.08650284f, -0.08557324f, -0.01278579f, 0.05759634f, -0.02671363f, 0.03376822f,
    -0.01991824f, 0.22667187f, -0.00757162f, -0.09575301f, -0.12419465f, 0.01832273f, 0.21061890f, -0.25030196f,
    0.02624016f, 0.08007197f, 0.11930355f, -0.09714305f, 0.02445361f, 0.11266560f, -0.07755907f, 0.02270385f,
    0.08133758f, 0.06571317f, -0.23018752f, -0.13027310f, -0.21414182f, 0.00674328f, -0.18484069f, 0.17606129f,
    -0.06006636f, 0.20216870f, -0.01674316f, -0.17401573f, -0.10528891f, 0.03413451f, 0.11050083f, -0.01913312f,
    0.08186052f, -0.01189872f, -0.06847714f, 0.09559166f, -0.11527506f, 0.01978368f, -0.10806148f, 0.09454547f,
    -0.02854720f, 0.11765355f, 0.11519915f, -0.00162101f, -0.01744610f, -0.04796884f, 0.06458354f, 0.02754579f,
    0.07663572f, -0.05240443f, 0.04699024f, 0.00823851f, -0.05155188f, 0.07270314f, 0.00064842f, 0.00830232f,
    -0.01125567f, 0.00672973f, -0.05205811f, 0.01082478f, 0.11852691f, -0.09076566f, 0.15616761f, -0.05514842f,
    0.05484699f, -0.06588609f, -0.11769167f, 0.01024354f, -0.02365239f, 0.02311779f, 0.19365494f, 0.22697482f,
    -0.13499077f, -0.02035995f, -0.00411354f, -0.09028458f, -0.03445955f, -0.02721892f, -0.11518851f, 0.01696843f,
    0.08484372f, 0.10031881f, 0.04738352f, 0.04428033f, -0.24597387f, -0.06444792f, 0.05578191f, 0.14106183f,
    0.01100754f, 0.00776896f, 0.00934244f, 0.24090745f, 0.22065558f, 0.12533507f, 0.06296743f, -0.09846944f,
    0.06898779f, 0.05615140f, 0.12022450f, 0.01600728f, 0.03393672f, -0.02988922f, 0.10180306f, 0.16024393f,
    0.26398176f, -0.08575132f, 0.14521344f, -0.01206662f, -0.01309481f, -0.04909346f, 0.14068469f, 0.17861623f,
    0.11266737f, -0.03735361f, 0.04221942f, -0.02709068f, -0.03319307f, -0.02141199f, 0.09085622f, -0.03420416f,
    -0.11441431f, -0.06166284f, -0.07912405f, 0.16574417f, -0.06983839f, -0.14460091f, -0.21537712f, 0.18053102f,
    -0.15662728f, 0.02197366f, -0.10715114f, -0.11933801f, 0.06437198f, -0.01363362f, 0.16603343f, 0.19654749f,
    -0.04058402f, -0.02186697f, 0.01622092f, -0.04748701f, 0.00136073f, -0.06809600f, -0.01102944f, 0.03772559f,
    0.11053447f, -0.03055419f, 0.18064423f, 0.18844537f, 0.24237916f, -0.00380832f, 0.08745115f, 0.07395578f,
    -0.00967540f, 0.12012077f, -0.16731951f, 0.16589478f, 0.10271346f, 0.03898457f, 0.00723499f, -0.10978545f,
    -0.13060240f, -0.05012130f, -0.04972217f, -0.10032575f, -0.34063575f, 0.06581933f, 0.02819284f, 0.00858565f,
    -0.08408137f, -0.16969806f, 0.06350712f, -0.17951395f, -0.05726290f, -0.06254408f, 0.19563617f, -0.12351528f,
    0.11910521f, -0.04420742f, -0.00556664f, 0.03799998f, 0.11327390f, -0.18184036f, -0.02429963f, -0.04326157f,
    0.13454886f, -0.12541153f, -0.15892696f, -0.03905056f, 0.05179202f, 0.04988280f, 0.02202861f, 0.03240076f,
    -0.07136668f, -0.03193365f, -0.05860811f, -0.20871976f, 0.12028253f, 0.01519326f, 0.01810601f, -0.01710346f,
    -0.07808536f, 0.00659781f, 0.00027635f, -0.02311481f, -0.10642300f, -0.04487516f, 0.04036942f, -0.04090450f,
    -0.06526633f, -0.04454282f, -0.15093149f, -0.02723303f, 0.03016809f, -0.03911764f, -0.02644774f, 0.12286445f,
    0.12878001f, 0.01096684f, 0.15928777f, -0.14191279f, -0.04996375f, -0.03454341f, -0.19531126f, -0.19162259f,
    0.01299688f, 0.01159903f, -0.16093127f, -0.07422945f, -0.09168822f, 0.02550022f, -0.01784626f, -0.00077022f,
    0.07730205f, 0.20216282f, 0.08167402f, 0.00400544f, -0.00246749f, 0.02350222f, -0.06237281f, 0.12961188f,
    0.00645155f, -0.16093943f, -0.12775140f, -0.10026079f, -0.13354039f, 0.00594718f, 0.00729065f, -0.12211042f,
    -0.05510454f, 0.00036939f, 0.24084303f, 0.15088485f, 0.20715383f, -0.00156890f, -0.05230896f, 0.08294010f,
    0.06564446f, 0.05891977f, 0.13920169f, -0.00527290f, 0.08699311f, 0.06022420f, 0.02104160f, -0.00398646f,
    -0.11362877f, -0.06312952f, 0.02777592f, -0.02574496f, 0.20574306f, 0.09685711f, -0.03247873f, 0.09117442f,
    0.02434386f, -0.06048035f, 0.26142582f, 0.03053389f, 0.12896705f, -0.10789257f, -0.02508386f, -0.15690586f,
    -0.00714176f, 0.02749052f, 0.06027271f, 0.07862394f, -0.00627029f, -0.19815508f, 0.12925832f, 0.11393581f,
    -0.09788327f, -0.09983997f, 0.15057956f, 0.09308813f, -0.29153973f, -0.01587287f, -0.12992831f, -0.01897541f,
    0.03169213f, -0.02467918f, -0.15090568f, -0.15090054f, 0.07595714f, 0.15760976f, 0.06696483f, 0.20618311f,
    -0.04954555f, 0.07327289f, -0.02591980f, 0.03794374f, -0.16235518f, 0.00166571f, 0.16095780f, -0.05614256f,
    -0.00925220f, 0.14712153f, 0.27350453f, 0.06137757f, 0.08234669f, 0.11369659f, -0.00416967f, -0.03803425f,
    0.10074634f, 0.09164746f, 0.13631354f, -0.06000940f, 0.01060673f, 0.09504391f, 0.13347439f, -0.10699628f,
    0.20577493f, 0.00222795f, 0.01029025f, 0.02873790f, -0.11082013f, -0.09490604f, -0.07490281f, -0.02131951f,
    -0.15851757f, -0.00619606f, -0.01510259f, 0.11729974f, 0.13745910f, 0.07295340f, -0.17463748f, -0.06299065f,
    0.13943280f, -0.06674657f, -0.14050314f, 0.08018707f, 0.11176167f, 0.01640705f, -0.10990168f, -0.00400222f,
    0.06081558f, -0.08342026f, 0.05926234f, 0.09610803f, -0.15165246f, 0.00518620f, -0.12206572f, 0.10160809f,
    -0.01711990f, 0.07039981f, -0.16782236f, 0.02102740f, 0.10745624f, -0.17651585f, 0.06316027f, -0.19424215f,
    -0.03459525f, 0.00887755f, 0.15480636f, -0.18838966f, -0.01496744f, -0.19430743f, -0.15626647f, -0.04792744f,
    0.08793575f, 0.29901445f, -0.00844321f, -0.17623605f, 0.00758860f, -0.02971147f, -0.10779309f, -0.27326190f,
    0.06344971f, 0.01666787f, 0.01672781f, 0.06120561f, -0.02411848f, -0.03657645f, 0.03102478f, -0.10105169f,
    0.03883269f, -0.17778753f, 0.02295722f, -0.15091500f, -0.05632732f, 0.08373422f, -0.09078239f, -0.11605348f,
    0.10245349f, 0.02347104f, -0.14610089f, -0.05046745f, -0.01119787f, 0.16771306f, -0.16647175f, -0.16399597f,
    -0.01838609f, 0.12269081f, 0.12779668f, 0.19573799f, -0.07675152f, 0.06796069f, -0.15351845f, 0.17379636f,
    -0.00532653f, 0.02465165f, 0.07348397f, 0.04090358f, 0.03915047f, 0.23579198f, 0.05279987f, 0.08031707f,
    -0.13801821f, -0.14701721f, -0.23777828f, -0.16416007f, 0.04414059f, 0.00296920f, -0.10692901f, 0.26155975f,
    -0.06634737f, 0.00878978f, 0.20728961f, 0.23100555f, -0.05535994f, 0.01303132f, 0.17467912f, -0.17429999f,
    -0.20265143f, 0.12042134f, -0.22674470f, 0.00613084f, 0.07078112f, 0.04761503f, 0.09525678f, -0.00771236f,
    0.25108406f, 0.09809859f, 0.00394444f, -0.07487151f, 0.30709130f, 0.16915092f, 0.23219267f, -0.32691905f,
    -0.00329216f, -0.27929795f, -0.23870333f, -0.12307341f, 0.02581567f, -0.13150243f, -0.11937813f, 0.14375474f,
    -0.04266488f, -0.13391918f, 0.07851832f, 0.17659430f, 0.10452395f, 0.10397081f, -0.28264460f, 0.17308326f,
    -0.13508479f, 0.10843904f, 0.22095747f, 0.04309456f, 0.22843879f, -0.03033914f, -0.27776635f, -0.04810546f,
    -0.14419872f, -0.12715758f, 0.08157092f, -0.19450788f, -0.14937949f, 0.01870061f, 0.15590152f, -0.04934659f,
    -0.10008432f, 0.02340160f, -0.09525070f, 0.00290444f, -0.13503055f, 0.14985080f, -0.13415304f, 0.13632075f,
    0.06048907f, 0.06340837f, -0.06802459f, -0.00165263f, -0.01869208f, 0.04596483f, -0.30366394f, 0.04581155f,
    -0.02116892f, 0.23894191f, -0.31996071f, -0.03135373f, 0.09021907f, 0.16892280f, 0.10083799f, -0.02951740f,
    0.25578937f, -0.08122026f, 0.02898447f, -0.12066854f, -0.00402710f, -0.03988810f, 0.20985563f, -0.09265290f,
    -0.05487010f, -0.12240303f, 0.10146633f, -0.12770660f, -0.05343102f, -0.13274352f, -0.01975521f, -0.14773265f,
    0.20562835f, 0.01116490f, -0.08512624f, -0.16141723f, -0.08268641f, 0.16465074f, -0.25181550f, 0.16497609f,
    0.03683163f, -0.11640322f, 0.10227884f, 0.15786119f, -0.04134269f, 0.04874889f, 0.09796863f, 0.01206113f,
    0.07741298f, 0.07280123f, -0.07714435f, 0.00020245f, 0.00775409f, 0.00296513f, -0.01902571f, -0.08113474f,
    -0.17048381f, -0.05769280f, -0.18888964f, -0.19749534f, 0.12172126f, 0.00792066f, 0.01331154f, -0.14307804f,
    -0.11312873f, 0.11486775f, -0.14865766f, -0.14915721f, -0.08932690f, -0.24931975f, -0.10193203f, 0.17906363f,
    -0.00203003f, 0.13761173f, -0.12161937f, -0.11517659f, -0.07182108f, 0.04557734f, -0.07077771f, 0.00992219f,
    0.08036999f, 0.02868835f, -0.10180925f, -0.18057126f, 0.01137376f, 0.03704347f, -0.07583362f, -0.15266484f,
    0.09850806f, -0.11962529f, 0.00503100f, -0.18560207f, -0.07034370f, -0.16397128f, 0.07944594f, -0.10675101f,
    -0.01931086f, -0.00550969f, -0.00673356f, -0.02057303f, -0.11925221f, -0.03054472f, -0.08465736f, 0.17766997f,
    0.23687260f, 0.20092954f, 0.12738331f, 0.06519999f, -0.01377959f, 0.03300754f, -0.08302685f, 0.03509174f,
    -0.00467034f, -0.09324772f, -0.23704252f, -0.02212149f, 0.06748525f, -0.06496266f, 0.07697788f, -0.03656593f,
    0.06886775f, -0.11346550f, 0.06307036f, -0.02638848f, -0.10470606f, -0.17663938f, 0.01065931f, -0.05927525f,
    -0.15464014f, 0.07056532f, 0.08736370f, -0.13565652f, 0.11666396f, -0.06962803f, -0.22332786f, -0.17290215f,
    0.10399814f, 0.27007458f, -0.15848246f, -0.03210589f, -0.20748520f, 0.09335712f, -0.08230551f, -0.28537619f,
    0.16009116f, -0.11562994f, -0.00266586f, 0.07779730f, -0.17908145f, -0.12468600f, -0.19964537f, 0.16721186f,
    0.30334640f, -0.20250751f, -0.32846415f, 0.08185212f, 0.03075159f, 0.25906801f, 0.07492805f, -0.08915215f,
    0.23857661f, 0.08260112f, 0.00222387f, -0.07205527f, -0.10125404f, 0.10456663f, -0.22831701f, -0.17425531f,
    0.04458076f, -0.03028347f, 0.15742733f, 0.26615310f, 0.05082973f, 0.08620036f, -0.27854505f, 0.10755539f,
    0.20271999f, 0.03355783f, -0.05602380f, -0.05911108f, 0.28780866f, -0.08920211f, -0.33005744f, 0.04114924f,
    0.15420254f, 0.11469479f, 0.14830323f, -0.02466988f, 0.06606489f, 0.29134056f, 0.06528080f, 0.14131619f,
    -0.01867030f, -0.18281418f, -0.17802159f, -0.09828382f, -0.04665903f, -0.08932135f, -0.09368684f, -0.11998452f,
    -0.19601625f, 0.17168607f, 0.00505915f, 0.05242344f, 0.16808902f, 0.04369141f, 0.22100070f, -0.05686611f,
    -0.00686168f, -0.03781081f, 0.12843835f, -0.09230465f, -0.01136670f, 0.12994058f, 0.13914075f, 0.10931663f,
    0.00649448f, -0.05703310f, -0.06412470f, -0.05793569f, 0.03159519f, -0.16347766f, -0.13938673f, -0.02330509f,
    -0.13209412f, -0.02115474f, 0.13655721f, 0.19484755f, 0.09224800f, 0.06259994f, -0.12897825f, -0.04145202f,
    0.00056293f, 0.10726056f, -0.04715148f, 0.00127006f, 0.14538930f, -0.06718715f, 0.08714902f, -0.02838800f,
    0.03836386f, 0.14408712f, 0.06827749f, -0.02564905f, -0.02438303f, 0.05882834f, 0.07238142f, 0.01889344f,
    -0.00579413f, -0.04408578f, -0.09516340f, -0.17623989f, 0.01506863f, -0.16503569f, 0.06690911f, -0.05236702f,
    -0.01786817f, 0.11699881f, -0.07091857f, -0.14296265f, 0.04442920f, -0.08567784f, -0.02857411f, 0.04610006f,
    0.05755283f, -0.16936010f, 0.06304844f, -0.09190213f, 0.12842542f, -0.01937070f, 0.14275822f, -0.03624636f,
    0.02195330f, -0.03065818f, 0.09007896f, 0.08009500f, -0.08674212f, 0.00894262f, -0.05129398f, 0.01502247f,
    -0.20108102f, -0.11913320f, 0.05879973f, -0.05051773f, -0.10268112f, 0.09887061f, 0.08085362f, -0.08651701f,
    0.23798138f, -0.00073619f, -0.08237657f, -0.05400006f, -0.02330364f, 0.15030973f, -0.14177196f, -0.00625915f,
    -0.07198846f, -0.02190518f, -0.09155707f, 0.10888225f, -0.04550087f, 0.17444356f, 0.06902006f, 0.10647934f,
    -0.14182118f, -0.09498095f, -0.17098616f, -0.05048315f, 0.13230257f, 0.11109169f, -0.01882155f, 0.09707937f,
    -0.02027010f, 0.15493485f, -0.14073251f, -0.14214724f, 0.00428628f, -0.00599780f, 0.10088290f, -0.04744032f,
    -0.15527013f, 0.18805335f, 0.06835674f, -0.06369271f, -0.07461379f, 0.10855121f, 0.08083175f, 0.16518407f,
    -0.06289506f, 0.10274989f, -0.08476377f, -0.03302256f, 0.06562943f, -0.03976246f, 0.00548191f, 0.02625630f,
    -0.02625007f, 0.07404040f, -0.09510345f, -0.08987998f, 0.05237056f, 0.12482991f, 0.11512684f, -0.07470796f,
    -0.03423040f, 0.08312713f, -0.00394581f, -0.00157776f, 0.09031293f, 0.07929759f, 0.22385241f, 0.05647647f,
    0.20115602f, 0.15937720f, 0.05688162f, -0.09044532f, 0.06561049f, 0.06784396f, -0.07391665f, -0.09202985f,
    -0.01070994f, 0.09075389f, 0.21371645f, 0.02502972f, -0.10605588f, -0.01676640f, 0.00147637f, 0.05034012f,
    -0.00274240f, -0.09721394f, -0.20748547f, 0.07821662f, 0.04723369f, -0.04891336f, 0.08042353f, 0.06590033f,
    0.20850274f, -0.03144507f, -0.17286056f, -0.25743422f, 0.01344802f, 0.07823785f, 0.05423814f, -0.04182913f,
    -0.08327043f, -0.03827789f, 0.02973392f, 0.10496014f, -0.11463752f, -0.00297933f, -0.11216109f, -0.12201805f,
    0.00085246f, 0.12325206f, 0.00045001f, 0.00035602f, 0.21115105f, 0.11670648f, -0.27321547f, -0.20128947f,
    -0.05278270f, 0.00710602f, 0.05610528f, -0.12633339f, 0.00105400f, -0.10456267f, 0.18570711f, 0.10279030f,
    -0.05560630f, 0.09158227f, 0.15380137f, -0.03828865f, -0.09042238f, -0.07618408f, -0.25860173f, 0.14781444f,
    0.08799841f, -0.15467623f, 0.16116391f, -0.22815086f, -0.05516799f, 0.05918519f, -0.17791009f, 0.19706480f,
    0.14015916f, 0.19786696f, -0.01302840f, -0.06053462f, 0.13700047f, 0.03232059f, -0.02967730f, 0.01629936f,
    -0.17446403f, -0.00119340f, -0.13700382f, -0.19326632f, -0.11741820f, -0.13415797f, 0.03426648f, 0.05437188f,
    0.09474483f, -0.13769789f, -0.04123510f, 0.10085993f, -0.07436013f, 0.14952637f, 0.20520975f, -0.13735269f,
    0.08170354f, -0.09980142f, -0.13524298f, 0.02462023f, -0.12841503f, 0.01413877f, -0.09005869f, 0.05002289f,
    -0.08152405f, -0.14641267f, -0.04645593f, -0.04845577f, 0.12656534f, 0.24156751f, 0.03687255f, -0.08916537f,
    -0.02273609f, -0.10978227f, 0.09431104f, -0.16797797f, -0.17456596f, -0.06578100f, -0.02136059f, -0.08684485f,
    0.20878364f, 0.15925376f, -0.14492825f, -0.14797691f, -0.11843675f, -0.06752081f, -0.10624357f, 0.01286098f,
    0.07963141f, 0.06813212f, 0.06322216f, -0.23185515f, -0.03800198f, 0.07040188f, -0.10661702f, -0.02050124f,
    0.14469878f, 0.00917912f, -0.08033492f, 0.05102713f, 0.03941001f, 0.15862527f, 0.09245124f, 0.04512817f,
    0.10223614f, -0.09673031f, -0.15733422f, -0.00937964f, 0.09485404f, 0.12824352f, -0.24928905f, -0.12910636f,
    0.07094750f, -0.23971152f, 0.04815553f, -0.11311090f, -0.06152217f, -0.12169615f, 0.07043472f, -0.02407181f,
    -0.11088482f, -0.29418254f, 0.10616826f, 0.20459582f, -0.07451086f, -0.01480514f, 0.05588039f, -0.02645707f,
    0.17316274f, 0.09634877f, 0.15930879f, -0.17778085f, -0.14770702f, 0.07145543f, 0.21540344f, 0.20811336f,
    0.10213428f, -0.12619486f, -0.18499036f, -0.06227388f, 0.15103313f, 0.00524678f, 0.18414851f, 0.08232304f,
    -0.05869680f, -0.14586601f, -0.06892560f, -0.00248357f, 0.03400685f, 0.08297610f, -0.33780923f, -0.12910083f,
    0.18582003f, -0.07123726f, 0.04551538f, 0.01315930f, -0.03029523f, -0.15056349f, -0.11710624f, -0.02347949f,
    -0.12831739f, -0.03126449f, 0.22980712f, -0.08404504f, 0.17219631f, 0.19298385f, -0.14837606f, 0.06322797f,
    0.09734867f, -0.16263978f, 0.05233045f, 0.12592198f, 0.16574873f, 0.07948912f, -0.01249725f, 0.11767536f,
    0.17062446f, 0.03271857f, -0.16941804f, 0.02068919f, 0.12468813f, 0.03073385f, -0.26923200f, -0.03517027f,
    -0.05952001f, -0.09111971f, -0.12016257f, 0.03100383f, -0.17013910f, 0.03446093f, 0.04082882f, 0.13943540f,
    -0.02000472f, -0.19073360f, 0.12329365f, 0.20079499f, 0.10365587f, 0.02744358f, 0.09244861f, 0.13915733f,
    0.04365066f, -0.06738918f, 0.00591599f, -0.01763234f, 0.11602646f, -0.06688660f, -0.00702161f, -0.00937316f,
    -0.09775858f, 0.04907458f, 0.00126285f, 0.04988842f, 0.01600707f, 0.00150552f, -0.16983360f, 0.05979264f,
    -0.16168667f, 0.06095744f, 0.10384745f, -0.06206526f, 0.15055284f, 0.07715618f, -0.20605786f, 0.05620543f,
    0.12716243f, -0.02158772f, -0.06538098f, 0.00885987f, -0.06542464f, 0.15794070f, 0.00603240f, -0.05779850f,
    0.13388444f, 0.04380541f, 0.05587766f, 0.00857309f, -0.03034449f, 0.02176436f, 0.19045749f, -0.17596544f,
    0.15709668f, -0.06834679f, 0.00667216f, -0.09622572f, -0.02295471f, 0.14666985f, 0.13267179f, -0.02076895f,
    0.08331437f, -0.01295964f, -0.09029707f, 0.06466433f, -0.12849747f, 0.07784067f, -0.12110806f, 0.12183627f,
    0.12756307f, -0.20971112f, 0.00215248f, 0.12717888f, 0.04295876f, 0.19940050f, -0.02331112f, 0.11198474f,
    0.05546944f, 0.06247667f, -0.07030533f, 0.07125521f, -0.11546883f, 0.07134499f, 0.03345954f, 0.15921667f,
    -0.00654034f, 0.02586103f, 0.11484081f, -0.01939101f, 0.02403490f, 0.09993570f, -0.11136246f, 0.13229959f,
    0.03679994f, -0.06524310f, -0.12288675f, -0.11038554f, -0.09788762f, -0.02174490f, -0.02565524f, 0.07242212f,
    0.04491957f, -0.26505882f, -0.03198833f, 0.23426002f, 0.01447464f, 0.02680508f, 0.20189552f, 0.06823031f,
    0.03281381f, -0.10862482f, -0.02955994f, -0.16804075f, -0.00406994f, -0.02667886f, -0.12087011f, 0.13971746f,
    0.18374410f, -0.16316602f, 0.14003116f, -0.22827446f, -0.18461561f, 0.08968972f, 0.12750475f, -0.14044750f,
    -0.00228660f, 0.03533194f, -0.15013200f, -0.03874076f, 0.03243129f, -0.01209438f, 0.09802407f, 0.19177653f,
    0.02330374f, -0.17350455f, 0.10144573f, 0.05668455f, -0.00873294f, 0.09543298f, 0.10048321f, -0.07652029f,
    0.00226993f, 0.00230263f, -0.04590714f, 0.10701084f, -0.21190743f, -0.13903244f, -0.24472803f, 0.02023531f,
    0.03400723f, 0.12803392f, 0.05376363f, -0.07654668f, -0.13298388f, -0.02932579f, 0.08144372f, 0.08841799f,
    0.07880455f, -0.02701284f, -0.05058698f, -0.02490938f, -0.09875458f, -0.09783231f, -0.08030760f, -0.12571983f,
    0.03162610f, -0.14013413f, 0.01304739f, -0.06986363f, -0.02847296f, 0.12304673f, 0.03851528f, 0.15125868f,
    -0.06100015f, 0.07175078f, 0.04162597f, 0.10595021f, 0.08627213f, -0.04802397f, -0.10360584f, 0.16449963f,
    0.23379086f, 0.13527334f, 0.00412231f, -0.05893752f, -0.04260835f, 0.14401157f, -0.03824798f, -0.08985320f,
    -0.06118609f, 0.05095408f, -0.07980765f, 0.01710613f, 0.00943851f, -0.00307375f, -0.11789103f, -0.15392631f,
    0.12129521f, 0.03579256f, 0.11729290f, 0.02110084f, 0.05992861f, -0.01894412f, 0.14826129f, 0.17725128f,
    0.07315221f, -0.12535721f, -0.11786900f, 0.09070946f, 0.12289289f, 0.18050544f, -0.10179929f, 0.12062932f,
    -0.07386725f, -0.02341291f, 0.05486840f, 0.04699280f, -0.06564690f, -0.05739922f, 0.04899447f, 0.00006371f,
    -0.11031819f, -0.09906966f, -0.05345671f, 0.00148566f, 0.05153309f, 0.02987158f, -0.00468899f, 0.00461382f,
    -0.00040445f, -0.02794949f, 0.02988233f, 0.17895006f, 0.16736357f, -0.02380939f, 0.17669408f, 0.04040718f,
    -0.10799906f, 0.16246317f, -0.05519377f, -0.12753552f, 0.11813068f, 0.03128212f, 0.09883048f, -0.13861269f,
    -0.10246202f, 0.12618104f, -0.02569088f, -0.10910604f, 0.29229271f, 0.13718320f, 0.09761790f, 0.18562593f,
    -0.18667468f, 0.02707667f, 0.05766168f, 0.20188724f, 0.06095147f, 0.23311999f, 0.14750129f, -0.25579607f,
    -0.22716905f, -0.03517538f, -0.03471525f, 0.23456113f, 0.12952673f, -0.12820792f, -0.29423574f, 0.23886889f,
    0.08306157f, 0.12592922f, 0.03113230f, -0.09503394f, 0.06346163f, -0.13972504f, 0.32343534f, -0.04858136f,
    -0.03995147f, -0.01709635f, 0.07247999f, -0.04629787f, 0.13044442f, -0.17848434f, -0.01691322f, 0.07910784f,
    -0.18108933f, -0.13669762f, 0.10527907f, -0.02120702f, 0.15900154f, -0.23510489f, 0.04221936f, 0.07461502f,
    0.21044375f, 0.04999220f, 0.17030369f, -0.18470830f, 0.21857312f, -0.09069011f, 0.10930552f, -0.31790003f,
    -0.26343822f, -0.00387862f, 0.10612434f, -0.17703813f, -0.19186170f, -0.11049692f, 0.13059478f, 0.38152286f,
    0.32889831f, 0.00718008f, 0.22912347f, 0.16785608f, -0.11792760f, 0.33218396f, 0.23459247f, 0.19205117f,
    0.21286063f, -0.10684460f, -0.03458159f, 0.21920562f, 0.20742145f, 0.10852247f, 0.15052411f, -0.03746901f,
    0.06042930f, -0.27097794f, 0.20408377f, 0.22870593f, 0.13349652f, -0.06433638f, -0.21105269f, -0.15031330f,
    -0.19787338f, -0.27283648f, 0.24092367f, -0.10815760f, -0.10131626f, -0.37752482f, 0.16395614f, 0.07224175f,
    0.19182287f, 0.25561407f, 0.32491332f, 0.23459136f, 0.19743542f, 0.16899957f, -0.46011871f, 0.22978394f,
    -0.07026441f, -0.07584262f, 0.28832814f, -0.03401733f, 0.19610789f, -0.31079483f, 0.06844891f, -0.15335536f,
    -0.08704060f, -0.23855178f, -0.20613576f, 0.07941575f, 0.16423155f, 0.02158916f, 0.05554772f, -0.26155609f,
    0.19268700f, 0.01756063f, 0.29754499f, -0.26267383f, -0.18487047f, 0.05513692f, -0.07880368f, -0.09690271f,
    0.18888463f, -0.20720801f, -0.00014600f, -0.13473260f, -0.19222592f, -0.27075741f, 0.21917167f, 0.06587844f,
    0.01387346f, 0.02809877f, -0.08614817f, -0.09382975f, 0.25902274f, -0.07533889f, -0.10247010f, -0.00468846f,
    0.33550575f, -0.02691790f, -0.11252696f, -0.15552396f, -0.33961624f, 0.00757432f, 0.24591705f, 0.00883131f,
    -0.02155184f, 0.03916016f, -0.01069301f, 0.13877538f, -0.09544996f, -0.03279154f, -0.00699465f, 0.08252034f,
    0.07465236f, -0.01017885f, 0.07248913f, -0.11534442f, 0.11085283f, 0.27068317f, 0.12150922f, -0.20670305f,
    0.22628361f, -0.02496215f, -0.17050146f, -0.24470904f, -0.11678728f, 0.13285571f, 0.15851158f, -0.09310289f,
    -0.16056588f, 0.04863417f, 0.10310040f, 0.22558334f, -0.04407661f, -0.08990811f, -0.13846500f, 0.04891429f,
    0.01511789f, 0.14539579f, -0.14811984f, 0.06694037f, 0.32036287f, -0.12740627f, 0.16501620f, 0.01229179f,
    0.04047711f, -0.10232136f, 0.07503192f, 0.09807306f, -0.04577757f, 0.07056598f, 0.07550695f, -0.05602069f,
    0.00616720f, 0.03778480f, 0.03874602f, 0.07232361f, -0.03026399f, -0.00063512f, -0.09351029f, -0.11570661f,
    -0.08479135f, -0.05137770f, 0.01612253f, 0.05094423f, -0.05184096f, 0.16219682f, 0.04497358f, 0.07848259f,
    -0.12358492f, 0.01768287f, -0.10987210f, -0.18246967f, 0.02775634f, 0.09906033f, 0.00776783f, 0.14041565f,
    0.03936718f, -0.04921035f, -0.05286788f, 0.09536750f, 0.07884338f, 0.02466393f, -0.21458872f, -0.12143173f,
    0.18296847f, 0.12955655f, 0.04238856f, 0.04553268f, 0.15617584f, 0.18517728f, -0.11993285f, -0.07040241f,
    -0.01870038f, -0.03844025f, 0.20392510f, 0.00526320f, 0.02559421f, 0.00122593f, -0.27424440f, -0.02221323f,
    0.02791823f, -0.25814861f, -0.07079346f, 0.04947376f, 0.20822696f, 0.11272116f, 0.12272298f, -0.18203534f,
    -0.24829850f, 0.02362411f, -0.17243066f, 0.04784747f, -0.03996168f, -0.25420338f, 0.06255906f, -0.14208248f,
    -0.07574420f, 0.07274055f, 0.15612927f, -0.03929802f, -0.15062965f, -0.03422055f, 0.01735117f, 0.10442197f,
    0.04956896f, 0.05401833f, -0.19123921f, -0.05456071f, 0.08436038f, -0.06326753f, 0.12956199f, -0.19060178f,
    0.08684738f, 0.13256110f, 0.00776308f, 0.00176554f, -0.03224160f, 0.16746180f, 0.15984382f, -0.06533994f,
    0.18838625f, -0.26862487f, -0.08315688f, -0.12501347f, -0.09035096f, -0.03886163f, 0.02537927f, -0.03076254f,
    0.07905877f, -0.07028971f, 0.09723901f, 0.01503400f, -0.11892812f, 0.27884993f, -0.12783220f, -0.00895530f,
    0.09577328f, 0.03079648f, 0.14099979f, 0.20673947f, -0.05759383f, -0.09884952f, -0.23502235f, 0.03989735f,
    0.08352669f, -0.13079603f, 0.01904299f, 0.04040590f, -0.08054022f, 0.10070229f, -0.07385795f, -0.18448792f,
    0.00404745f, -0.12688915f, -0.04417412f, -0.04414414f, 0.19058485f, -0.17400581f, 0.20330502f, 0.05842708f,
    -0.17786394f, -0.20137829f, 0.02731336f, -0.02030755f, 0.08789312f, 0.04738808f, 0.11498392f, 0.00268449f,
    0.06673292f, 0.09423447f, 0.10437287f, 0.04814743f, -0.29002321f, -0.26148954f, -0.14909118f, 0.14464509f,
    -0.11043341f, 0.13557504f, -0.02430680f, -0.04582954f, 0.01814425f, 0.11224318f, -0.04507061f, -0.00331395f,
    -0.09686659f, 0.02029487f, -0.10169906f, -0.12946749f, 0.01353923f, 0.11535235f, -0.13338003f, 0.12156277f,
    -0.10127692f, -0.05684607f, -0.00345908f, 0.00786448f, 0.18127005f, 0.10461189f, -0.06592526f, 0.11814612f,
    -0.01821902f, -0.13163979f, 0.01781395f, -0.01628943f, -0.04947193f, -0.06967381f, -0.07429521f, 0.08174545f,
    -0.00402273f, -0.18046871f, 0.11811820f, -0.10675798f, 0.03386615f, 0.29049134f, 0.20350446f, -0.08075892f,
    -0.04526089f, -0.01892627f, -0.18120478f, 0.01397508f, -0.09573839f, -0.02916293f, -0.07371619f, -0.01512856f,
    -0.11303802f, -0.04102798f, -0.21182047f, -0.13439448f, -0.14399087f, 0.03152511f, 0.00098929f, -0.12502444f,
    0.02544156f, 0.07875127f, -0.08990205f, 0.05557475f, 0.03733038f, 0.00336065f, 0.23424836f, 0.04880014f,
    0.07102201f, 0.04160710f, -0.03172713f, -0.04377981f, -0.04122325f, -0.06546466f, 0.05767876f, 0.10521790f,
    0.05651264f, 0.01456293f, -0.08136297f, -0.05821600f, -0.08081145f, 0.02795077f, -0.07262341f, 0.08079105f,
    -0.05845346f, 0.00084869f, 0.05156023f, 0.11999949f, -0.25836307f, 0.08867940f, 0.11871375f, -0.09251966f,
    -0.10386863f, 0.09296753f, 0.08496267f, 0.20678501f, 0.13540494f, 0.00488075f, 0.14584008f, 0.07948679f,
    0.03899903f, 0.03210812f, -0.01768532f, -0.07676028f, -0.04243048f, 0.02401054f, -0.10155516f, 0.12617271f,
    0.04665542f, -0.21291646f, -0.13135426f, -0.08027402f, 0.14441271f, -0.14953488f, -0.04790255f, -0.19755520f,
    -0.06787758f, 0.04556564f, 0.06194563f, -0.02467164f, -0.07848291f, 0.14124165f, -0.05098092f, -0.09642804f,
    0.15914707f, 0.06010704f, 0.01509709f, -0.11455747f, -0.06029941f, -0.08882704f, 0.16153191f, -0.01530989f,
    0.05697172f, 0.02198647f, 0.06944392f, -0.11178671f, -0.02091738f, 0.00896138f, -0.03602207f, 0.22627796f,
    -0.15048972f, 0.09610736f, 0.12873693f, -0.03207229f, 0.12011776f, 0.04198286f, 0.01231867f, -0.19307601f,
    0.08954684f, 0.05189297f, 0.04471584f, 0.06422585f, 0.06893791f, -0.19580837f, 0.10197432f, -0.02166893f,
    -0.13559563f, -0.14348751f, 0.09338396f, -0.07881779f, 0.01288417f, -0.10961661f, -0.00653830f, 0.16711585f,
    0.03725526f, -0.11424586f, -0.02915126f, -0.07908826f, 0.09913395f, 0.06219297f, -0.08531328f, -0.09142833f,
    -0.20112188f, 0.05242319f, 0.01915507f, -0.11024170f, 0.02205482f, 0.01991489f, 0.19396909f, 0.03786730f,
    -0.10423481f, 0.22692759f, 0.17034657f, -0.16809806f, -0.09565020f, -0.18204467f, -0.18515113f, -0.13213091f,
    0.01348756f, -0.10197185f, 0.10587853f, -0.13228671f, -0.03039450f, 0.03000238f, -0.01292369f, -0.08525995f,
    0.01815423f, 0.04083788f, -0.13636771f, 0.04567685f, 0.01367911f, 0.08718832f, -0.19684699f, 0.13075662f,
    0.12184371f, -0.21427532f, 0.17488782f, -0.08176877f, 0.11598112f, -0.01828568f, 0.16833332f, -0.20508046f,
    -0.03497567f, -0.08971858f, -0.03916182f, 0.13844404f, -0.18980196f, 0.17603305f, 0.03794191f, 0.07042448f,
    0.10821236f, 0.08179805f, -0.09595390f, 0.15980783f, -0.00554508f, -0.04245476f, -0.11568511f, -0.11425364f,
    0.04937011f, 0.03141031f, 0.08824573f, -0.13927643f, -0.07699733f, -0.11396097f, 0.22618075f, -0.05310083f,
    -0.09552546f, -0.05135401f, -0.17963229f, -0.09265150f, 0.04460045f, -0.02477403f, 0.07979640f, -0.23683356f,
    -0.09070499f, -0.09716752f, 0.12661937f, -0.06466048f, -0.18728830f, -0.16181591f, -0.12438872f, -0.12627222f,
    0.09319428f, 0.04365125f, -0.03211929f, -0.06622530f, 0.00709989f, 0.29936790f, 0.06426551f, -0.10809651f,
    -0.03227403f, 0.09315997f, 0.01516560f, -0.12893815f, 0.12220623f, -0.25861767f, 0.00998097f, -0.00617493f,
    0.02966142f, 0.03571712f, -0.14873743f, -0.00892103f, -0.08054552f, -0.05386952f, -0.04280329f, -0.13566926f,
    0.13913552f, 0.08981465f, -0.00781562f, -0.13508931f, 0.00843627f, -0.00382132f, 0.00495208f, -0.08941299f,
    0.06809514f, 0.02625014f, 0.24968161f, 0.05918141f, -0.07435824f, 0.04353363f, -0.13004325f, 0.02365011f,
    -0.11671931f, -0.20486103f, -0.03822216f, 0.12320142f, 0.08777270f, -0.12803379f, 0.04111658f, 0.03867041f,
    0.04298738f, 0.16302365f, -0.00019515f, 0.04033686f, -0.00562576f, -0.17371462f, 0.07922315f, -0.03867744f,
    -0.06872047f, 0.03474292f, -0.15408275f, -0.13649374f, -0.03531524f, -0.10657148f, -0.19432637f, 0.01308547f,
    -0.00711363f, 0.09339067f, 0.13822056f, 0.00604369f, 0.04498120f, 0.17012295f, 0.08807540f, -0.18173854f,
    -0.12461102f, 0.00021742f, -0.09524360f, -0.11654913f, -0.00790876f, -0.01268484f, 0.09474702f, -0.12980242f,
    -0.03701504f, -0.05107789f, 0.04700943f, 0.09026364f, -0.28865531f, -0.01667627f, -0.05117371f, -0.04198869f,
    0.09133326f, -0.02477762f, 0.04805068f, -0.12400275f, -0.37395450f, 0.08516365f, 0.01574769f, 0.08393489f,
    0.05246689f, -0.00995505f, 0.14093871f, 0.10658056f, -0.09876192f, -0.17451718f, -0.07008226f, 0.09726112f,
    0.01698133f, -0.09364828f, -0.30740884f, 0.25309268f, -0.01155044f, -0.05629518f, -0.07447171f, 0.03023773f,
    0.11077135f, -0.04377343f, 0.14325090f, -0.17259449f, 0.02474381f, 0.10315928f, -0.02298826f, 0.15705468f,
    0.04913242f, -0.06654517f, 0.05044524f, 0.12497532f, -0.09354463f, -0.04679336f, 0.04924519f, 0.12363153f,
    0.09671778f, -0.00440457f, -0.07336459f, 0.10918387f, 0.10473964f, 0.16629963f, 0.12903625f, 0.13499916f,
    -0.04181768f, 0.13025796f, -0.01454247f, 0.12475897f, -0.10115933f, 0.07319867f, -0.18636560f, 0.15875007f,
    0.00862951f, 0.02634474f, -0.10520358f, 0.14631332f, -0.01569876f, 0.00843190f, 0.14576960f, 0.13082451f,
    0.00134139f, -0.01434542f, 0.13529480f, 0.10398327f, -0.12118093f, 0.08411640f, 0.13652563f, -0.22373089f,
    -0.11910273f, 0.01048297f, 0.01840270f, 0.32929263f, 0.04456388f, 0.04339190f, -0.00342171f, -0.00147062f,
    0.06370772f, -0.08297910f, 0.10277881f, 0.00935407f, 0.10709156f, 0.17927806f, -0.11563160f, -0.00370117f,
    0.19352093f, -0.09312183f, -0.07899021f, -0.12009216f, -0.11386283f, -0.13843459f, 0.28102008f, -0.07666235f,
    0.11679756f, 0.11684879f, 0.05296701f, -0.06334764f, 0.03723849f, 0.03569095f, -0.00841683f, 0.14165106f,
    0.03084761f, -0.05288166f, 0.03889758f, 0.06955647f, 0.02047695f, 0.15017757f, 0.05956000f, 0.09926275f,
    -0.05274304f, -0.11927924f, -0.14205082f, -0.06278694f, -0.01641275f, 0.00698450f, 0.09321105f, 0.03311334f,
    -0.11129982f, -0.05124169f, 0.11440566f, -0.17323518f, -0.06916606f, 0.05692554f, -0.00261595f, 0.12483182f,
    0.12134300f, -0.11966809f, -0.10704142f, -0.14709778f, -0.00493705f, 0.09279422f, -0.22806147f, 0.08413956f,
    0.08127813f, -0.12483697f, 0.04330355f, 0.01892565f, -0.00672713f, 0.08040246f, 0.00807987f, 0.04737157f,
    -0.09248354f, 0.03591679f, -0.09308196f, -0.16161321f, -0.05045436f, 0.04245667f, 0.19299446f, 0.09273608f,
    -0.00097500f, -0.09283675f, 0.00759257f, -0.05640907f, -0.03218151f, -0.00294462f, 0.25369158f, 0.06295241f,
    -0.03908692f, 0.00642081f, -0.10479824f, 0.03098747f, 0.04492054f, 0.06917527f, -0.01935479f, -0.15056677f,
    0.07079639f, 0.15462461f, 0.07198673f, 0.03764199f, 0.03142954f, 0.05306466f, 0.12253164f, -0.05294051f,
    0.03161595f, -0.07003003f, -0.19369073f, -0.04125253f, 0.00171042f, -0.02482403f, -0.12572607f, 0.22561850f,
    0.08103997f, 0.01972696f, 0.03880525f, 0.06237410f, -0.07955219f, 0.19387898f, 0.09278730f, -0.02713433f,
    -0.04043309f, 0.13361649f, 0.01992061f, -0.02472942f, -0.00605738f, 0.17604959f, 0.03167330f, -0.13309444f,
    -0.04686217f, -0.12676539f, 0.01788001f, 0.17316023f, -0.01755390f, -0.17092246f, -0.12060164f, -0.15780503f,
    0.01609764f, -0.00536892f, -0.04974949f, 0.28029266f, 0.01063493f, 0.09413648f, 0.11580387f, 0.02222211f,
    0.06785569f, 0.12755674f, 0.06299584f, -0.12653765f, -0.00945811f, 0.02790902f, 0.09174205f, 0.19710104f,
    -0.12486620f, -0.03655588f, -0.11935084f, 0.15609840f, -0.02578563f, 0.02920307f, 0.04759912f, 0.05760295f,
    -0.06001711f, -0.18265598f, 0.11718807f, 0.06081348f, 0.27711773f, -0.04415732f, -0.00078245f, 0.10378453f,
    -0.10732919f, 0.09123383f, -0.00343970f, -0.00442499f, -0.05298664f, 0.02838961f, 0.23576218f, -0.10775074f,
    0.09990883f, 0.09954745f, -0.12653926f, -0.06535713f, -0.08438671f, 0.01955002f, -0.29136938f, 0.26169834f,
    -0.11534493f, 0.02393529f, 0.08208235f, -0.00575311f, 0.15960613f, -0.03551442f, -0.14738202f, 0.04288464f,
    0.09502351f, -0.11078469f, -0.13102354f, -0.02844258f, -0.02697877f, 0.09138408f, 0.02789496f, 0.07335276f,
    -0.03386112f, 0.04565761f, -0.02507301f, 0.02892718f, -0.13635115f, 0.04410261f, -0.01878296f, 0.01241952f,
    -0.14674447f, -0.00954007f, -0.06488346f, -0.04440858f, 0.09188609f, -0.19415252f, 0.12780850f, -0.10371303f,
    0.08607122f, 0.09212392f, -0.05905180f, -0.06675635f, -0.03383894f, 0.03639128f, -0.04020193f, 0.03509563f,
    -0.03350094f, -0.00060631f, -0.11755266f, 0.06517503f, 0.01060700f, -0.08566696f, -0.16545509f, -0.14882472f,
    -0.01887318f, -0.11946537f, -0.11842003f, -0.05555138f, -0.06017937f, -0.23511134f, 0.09847474f, 0.04140325f,
    -0.01169597f, 0.01939571f, 0.10665088f, 0.03623249f, -0.00398189f, -0.06716262f, -0.04515962f, -0.02136254f,
    0.11216184f, 0.10732269f, -0.12317084f, 0.02656542f, -0.07409795f, -0.16773701f, -0.02865530f, 0.11458724f,
    0.09644151f, 0.07344358f, -0.03251339f, -0.02099270f, -0.07280394f, 0.21268618f, -0.10262296f, -0.08983219f,
    0.11856195f, 0.02345385f, -0.17604640f, -0.03065994f, -0.04849923f, -0.23497306f, -0.15190923f, 0.23807241f,
    0.11847634f, 0.14258601f, -0.23708233f, -0.04307798f, -0.02332618f, 0.21311237f, 0.03934852f, 0.07761734f,
    -0.27899119f, -0.02210497f, 0.06281931f, 0.02678524f, -0.23093361f, -0.21507247f, -0.00829072f, -0.28824395f,
    -0.04274902f, 0.07130527f, 0.05459267f, 0.15980412f, 0.06737736f, 0.02814301f, -0.20192999f, 0.08253880f,
    0.00327590f, 0.02475107f, 0.01795577f, 0.05170019f, 0.12742291f, -0.12604533f, -0.03978701f, -0.17802873f,
    0.05697582f, -0.14172883f, -0.12361038f, -0.06305871f, -0.14072417f, -0.10631705f, 0.05241446f, -0.01267648f,
    0.04654763f, -0.10646293f, 0.19727680f, -0.05064130f, -0.03815912f, 0.18372862f, -0.40551332f, -0.03847047f,
    0.08875021f, 0.20226295f, -0.12443248f, -0.19477747f, 0.06896164f, 0.02874140f, -0.07381231f, -0.07087345f,
    -0.12740609f, -0.00143088f, 0.02459646f, -0.06609577f, -0.20282573f, -0.03554468f, -0.02135677f, 0.08143687f,
    -0.13993450f, 0.09550730f, -0.16260143f, -0.07760878f, -0.03992339f, -0.00838704f, 0.30242360f, 0.11995683f,
    -0.16306295f, -0.07479975f, -0.08258659f, -0.00551314f, 0.10189840f, -0.23226559f, -0.19204560f, -0.05589921f,
    -0.01819243f, -0.07744862f, 0.15722156f, -0.01617938f, 0.08003270f, 0.05706434f, 0.00991649f, -0.01302460f,
    0.03495683f, 0.05345782f, 0.11388972f, 0.04182116f, 0.00535229f, -0.15690556f, 0.04675554f, -0.12252591f,
    -0.05306310f, 0.05912574f, -0.02521994f, -0.11478770f, -0.07722815f, -0.00699830f, -0.18037966f, 0.12038341f,
    0.19339067f, 0.05041952f, -0.07235056f, -0.07234722f, -0.21579157f, -0.10653038f, 0.00032146f, 0.04717087f,
    0.02324111f, 0.07045185f, -0.06670649f, 0.20681632f, -0.06513859f, -0.01640741f, -0.19860640f, -0.00428552f,
    -0.01382384f, -0.06306838f, -0.10152958f, 0.07469357f, -0.01082901f, -0.20099729f, -0.01615035f, 0.12907106f,
    -0.15365799f, 0.09924645f, -0.08146629f, 0.10187393f, -0.09558540f, -0.06041129f, 0.01154699f, -0.21256669f,
    -0.19328861f, -0.01057421f, -0.09846058f, -0.12323866f, -0.03850188f, -0.08412050f, -0.14126883f, 0.03823788f,
    0.08503450f, 0.05785293f, -0.16388470f, -0.00766320f, -0.02229738f, -0.02419709f, -0.04757674f, -0.10219917f,
    -0.10081410f, -0.10705244f, 0.01767078f, -0.11616386f, -0.05836999f, 0.08340312f, -0.06422847f, 0.17127378f,
    0.15195566f, 0.02778298f, -0.17211381f, -0.15032813f, 0.23861551f, 0.19527557f, 0.21299072f, -0.21653892f,
    -0.03476645f, -0.07115488f, 0.12659404f, -0.02356581f, -0.11860648f, 0.07627641f, -0.01087688f, -0.15056796f,
    0.14487411f, 0.00349082f, 0.09293534f, 0.05462000f, 0.04110764f, 0.10100009f, -0.24579044f, 0.01267401f,
    -0.08730631f, 0.06103313f, -0.22568381f, 0.13190016f, -0.02747520f, -0.19108103f, -0.23851642f, -0.01733259f,
    -0.07850549f, -0.05747858f, -0.22383817f, -0.03606527f, -0.02525454f, -0.00093034f, 0.11808652f, -0.03386098f,
    -0.17198065f, 0.06165052f, -0.00095845f, -0.10211581f, 0.05156170f, 0.19933529f, -0.07685868f, 0.05361464f,
    -0.12304085f, 0.33434960f, 0.05297248f, 0.05528240f, 0.20381939f, -0.09113207f, -0.18628258f, 0.03561715f,
    -0.09815793f, 0.12238687f, 0.01268403f, 0.14568786f, 0.18498336f, 0.23866341f, 0.01200188f, -0.08710475f,
    -0.34977770f, -0.04407212f, -0.10500094f, -0.02024561f, 0.23177257f, 0.09288519f, -0.07515050f, 0.12991229f,
    0.04173891f, 0.03682228f, 0.13885261f, -0.01997152f, 0.16245818f, -0.00869032f, 0.08009357f, 0.21560089f,
    0.01103559f, 0.05565055f, 0.13434267f, -0.05963409f, 0.01508135f, 0.04028070f, 0.04198284f, -0.11239386f,
    0.01456443f, 0.03010675f, 0.09488947f, -0.08523162f, -0.23092990f, 0.06047607f, 0.07564371f, -0.01503802f,
    0.10006706f, -0.04123082f, -0.00595362f, -0.19885667f, -0.12365237f, 0.14325483f, -0.04666676f, 0.13811049f,
    -0.11171260f, 0.02770797f, 0.13337651f, 0.19197330f, -0.34294054f, -0.03839634f, -0.13946855f, 0.14837499f,
    -0.24106838f, -0.18711914f, 0.11702546f, 0.28378552f, 0.22530283f, 0.05001965f, -0.18965213f, 0.06204609f,
    0.11398423f, 0.17573425f, 0.22998914f, -0.28185469f, -0.04087476f, -0.04454714f, -0.02364208f, -0.19523789f,
    0.11028625f, -0.15632179f, -0.05602549f, -0.01312363f, 0.00661610f, -0.24498317f, -0.12038831f, 0.09903027f,
    -0.02865942f, -0.16833907f, -0.03218245f, -0.12613155f, -0.15305300f, 0.06192314f, -0.39056930f, 0.13192518f,
    0.09301648f, -0.03123021f, 0.11391018f, -0.03037402f, 0.07024798f, 0.16274780f, -0.08527326f, -0.23588617f,
    -0.19092257f, 0.11594474f, -0.24141954f, -0.12540992f, -0.10470866f, -0.25742921f, 0.01911368f, 0.13140449f,
    -0.00838679f, 0.14390601f, -0.10309076f, -0.02637460f, 0.14932306f, 0.11293143f, -0.10722997f, 0.12736897f,
    -0.09754794f, 0.13575281f, -0.11873392f, -0.00299116f, -0.19280162f, 0.12029625f, 0.13750821f, -0.24072534f,
    -0.09416779f, 0.18158536f, 0.01380275f, 0.25385931f, 0.18384992f, -0.21571690f, 0.00524885f, 0.37698096f,
    0.19655170f, 0.27000955f, 0.00319052f, -0.05236458f, 0.14403500f, -0.11629502f, 0.52682620f, -0.13774602f,
    0.07085424f, -0.08216127f, -0.22295076f, 0.06589840f, 0.34213191f, 0.25266469f, -0.02610113f, 0.16281556f,
    -0.06463119f, -0.32567748f, 0.09705187f, -0.08327010f, -0.17434384f, -0.23954867f, -0.28647447f, 0.17795524f,
    0.17772959f, 0.28630999f, 0.08451185f, -0.08074527f, 0.15075064f, -0.04863647f, 0.04204439f, 0.07034363f,
    -0.06376365f, 0.19707438f, -0.27607861f, -0.15073211f, 0.03027442f, -0.28615081f, -0.02325492f, 0.27831677f,
    -0.14381151f, 0.03095350f, 0.04726260f, -0.05237466f, 0.02315234f, -0.06917730f, 0.09026147f, 0.05815799f,
    0.04324673f, -0.03580391f, -0.11012734f, -0.04896658f, -0.05276607f, 0.03566390f, -0.04946732f, 0.08325843f,
    -0.18617745f, 0.13554399f, -0.14345193f, -0.04541625f, 0.13651247f, 0.17295749f, -0.17040680f, -0.03381042f,
    0.03231481f, 0.00373547f, 0.02866864f, 0.08286805f, 0.15443282f, 0.03562868f, 0.03796034f, -0.22524096f,
    -0.22825721f, 0.09165913f, 0.15424436f, -0.03895333f, -0.03752012f, -0.09885792f, -0.00917788f, 0.04362403f,
    0.01805167f, -0.00739056f, -0.03691536f, 0.13349047f, 0.13021448f, -0.01086512f, -0.03893817f, -0.06263421f,
    0.06132577f, 0.01154728f, -0.09960868f, -0.07836389f, -0.07037585f, -0.00350310f, 0.11669639f, 0.06000249f,
    -0.05820795f, -0.10232454f, -0.00213930f, 0.07581457f, -0.08681774f, 0.06405313f, -0.06359555f, 0.08217753f,
    -0.09677660f, -0.24151151f, 0.10204411f, -0.01074484f, -0.11072263f, -0.16333334f, 0.01151169f, -0.09611370f,
    0.14115036f, -0.04703757f, -0.06713150f, 0.11655836f, 0.20722745f, -0.12260704f, -0.09953000f, -0.12306335f,
    0.20783782f, -0.10988949f, -0.10244776f, -0.02997172f, -0.22210541f, -0.19525757f, 0.11769500f, -0.10353623f,
    -0.12659578f, -0.04404955f, -0.01357902f, 0.03092027f, -0.00575739f, -0.05697355f, 0.08218989f, 0.34773248f,
    -0.08696069f, 0.07750221f, 0.09786902f, -0.01990204f, 0.28004667f, -0.01131823f, 0.03348325f, -0.08527589f,
    -0.04744426f, -0.19745715f, -0.12666349f, -0.07578126f, -0.05116958f, -0.16516210f, -0.07778900f, 0.24074437f,
    0.10723779f, -0.03688207f, 0.17879249f, 0.05996677f, 0.09858056f, 0.19379047f, -0.11865010f, -0.15206751f,
    0.14746384f, -0.03437351f, -0.04459786f, 0.03276807f, -0.02734133f, -0.24490038f, -0.09426524f, -0.22887698f,
    -0.27101842f, -0.14093278f, 0.02061638f, -0.05444838f, -0.47777760f, -0.28653115f, 0.16993956f, -0.44602221f,
    0.11506626f, 0.38219720f, 0.04836296f, -0.23424317f, 0.07213344f, -0.13806656f, -0.24140617f, 0.21695921f,
    0.19467326f, 0.21239504f, -0.16814505f, -0.33901674f, -0.18320109f, 0.16741292f, 0.00397182f, -0.46317026f,
    -0.23322915f, -0.34439918f, -0.35829958f, -0.22529036f, -0.34574863f, 0.18306619f, -0.16752759f, 0.27409935f,
    0.08250175f, -0.22827145f, -0.23902526f, -0.30503851f, -0.19294564f, 0.35637552f, 0.06338373f, -0.15539858f,
    0.54332429f, 0.10213950f, -0.03562371f, -0.36422515f, -0.29638401f, 0.24648747f, -0.06556765f, -0.05382911f,
    -0.02110902f, -0.15321210f, 0.29935947f, 0.35500365f, -0.33882877f, 0.09958728f, -0.08689498f, 0.21824817f,
    0.17488283f, -0.40676832f, -0.28941956f, 0.25085381f, 0.39970869f, -0.25882754f, -0.26536235f, -0.28930902f,
    -0.01358062f, -0.08983557f, -0.00601961f, 0.05800733f, 0.02169371f, 0.02335676f, 0.09541194f, 0.07651652f,
    -0.11437808f, 0.20917569f, 0.24704571f, 0.08832257f, 0.21329533f, -0.11324020f, -0.00005704f, -0.23745000f,
    0.13105434f, -0.12552904f, -0.06657041f, 0.12625785f, -0.18702175f, -0.10377926f, 0.10146554f, 0.11808345f,
    -0.09955505f, -0.16345192f, -0.22088075f, 0.02582697f, 0.20170154f, 0.00656062f, -0.03315003f, 0.02737108f,
    -0.03901724f, -0.06109911f, 0.12520789f, -0.04778490f, 0.11700508f, 0.00798816f, 0.05378785f, 0.02955298f,
    0.02713151f, -0.03502585f, -0.09046503f, -0.05014896f, -0.06640273f, -0.02368681f, -0.16190872f, 0.03350285f,
    -0.05954643f, 0.05196898f, 0.22673164f, -0.07564590f, -0.01665488f, -0.00271711f, -0.00893870f, -0.09294911f,
    -0.19934268f, -0.16972759f, 0.13657869f, 0.15283376f, -0.13404636f, 0.06243745f, 0.00653015f, 0.05580849f,
    -0.04851589f, -0.07844753f, -0.23466618f, -0.21828234f, 0.14296496f, -0.14441487f, -0.21645507f, 0.23312466f,
    -0.19251747f, 0.14473155f, 0.09672535f, -0.14696929f, -0.22532694f, 0.04135330f, -0.13653411f, 0.04708168f,
    -0.30129179f, 0.08092689f, -0.17824979f, 0.25488240f, 0.11801407f, 0.10561584f, -0.02340762f, 0.18056834f,
    0.02878677f, 0.17594975f, -0.01302292f, 0.20261936f, -0.02745927f, 0.19364521f, -0.06968313f, 0.05339498f,
    -0.05209084f, 0.04279419f, -0.07250442f, -0.22419140f, 0.11617602f, 0.02657547f, 0.05954694f, 0.07527930f,
    -0.08829705f, 0.06566506f, 0.01413307f, -0.16082600f, -0.14975587f, 0.06170473f, -0.25056729f, -0.01263247f,
    0.11179754f, 0.22838959f, 0.06516530f, -0.00383997f, 0.00791503f, -0.16786821f, -0.04064322f, 0.29736331f,
    0.01960800f, 0.06209615f, 0.06940485f, 0.15075128f, 0.08836935f, 0.09509452f, -0.07571210f, -0.14678188f,
    0.01161023f, 0.03248123f, 0.04528646f, -0.09450252f, 0.09027837f, -0.19536625f, 0.21346417f, -0.22328961f,
    0.02788147f, 0.02409772f, -0.17957383f, -0.21766873f, -0.06947330f, -0.23928601f, -0.12721339f, -0.14171830f,
    0.22310112f, 0.25325778f, 0.02120251f, -0.20997530f, -0.16962723f, 0.10137455f, 0.08975828f, -0.24480155f,
    -0.07953852f, -0.14098163f, -0.22710241f, -0.00230647f, -0.10623038f, -0.12086427f, -0.01708921f, 0.00119956f,
    -0.15947591f, -0.00473212f, 0.08162004f, -0.29664931f, 0.16565381f, 0.08367461f, 0.11221132f, -0.20658225f,
    0.23280501f, 0.07105763f, -0.09578770f, -0.15670986f, -0.10185383f, -0.01334847f, -0.08973307f, 0.09876271f,
    -0.17082669f, 0.14249370f, 0.19193415f, 0.07245125f, 0.12595880f, -0.11802255f, -0.05468451f, 0.01598041f,
    -0.11689729f, -0.03721888f, -0.04696815f, 0.06684610f, -0.00776499f, -0.20242852f, -0.08092578f, -0.04745910f,
    0.17865358f, -0.30980381f, -0.03192796f, -0.03841637f, -0.14309373f, 0.16431546f, -0.00074898f, -0.14476676f,
    0.02383129f, -0.27808461f, -0.28525925f, 0.01635521f, 0.02332867f, -0.14310060f, -0.07937331f, -0.22962749f,
    0.08920058f, -0.04353172f, 0.00871155f, 0.04823990f, -0.11634595f, 0.10814650f, 0.07441290f, -0.13995117f,
    -0.05366747f, -0.08032536f, 0.07132377f, -0.30828422f, -0.12148634f, -0.19674975f, -0.02483329f, 0.18986712f,
    -0.07589899f, 0.21649083f, 0.06212779f, -0.10450303f, 0.07698917f, 0.02053858f, -0.17912619f, 0.07246414f,
    0.27400610f, 0.01238403f, -0.02426251f, -0.24564058f, -0.20157982f, -0.00156369f, 0.04087825f, 0.21809831f,
    -0.02685882f, -0.09714921f, 0.10921637f, 0.26877832f, 0.21289875f, 0.17206620f, -0.07068074f, -0.26446384f,
    -0.01880531f, -0.06400613f, -0.07054234f, -0.05593309f, 0.03223796f, -0.25817516f, -0.01533372f, -0.05929436f,
    -0.00822971f, 0.12833065f, -0.10250676f, -0.00215532f, 0.15663667f, 0.01936047f, -0.03862805f, 0.02726203f,
    -0.05302433f, 0.21561988f, 0.16313699f, 0.08153127f, -0.03423008f, -0.18549353f, -0.16238172f, 0.09838393f,
    -0.14423013f, 0.24114728f, -0.26753193f, 0.19028579f, -0.03056358f, -0.08617312f, -0.09009861f, -0.02896388f,
    0.06681354f, 0.01056093f, -0.08434485f, -0.06806900f, 0.24503163f, 0.27362975f, 0.04716438f, -0.14800265f,
    -0.19284676f, -0.14500597f, 0.12943798f, 0.00999978f, 0.14484140f, -0.08110075f, 0.17337048f, 0.16161542f,
    -0.07528681f, -0.09338795f, -0.02858118f, 0.12526122f, 0.09832767f, -0.07431194f, -0.00455145f, 0.01805445f,
    -0.04932373f, 0.06332134f, -0.02576082f, 0.18822032f, 0.15868942f, -0.01642259f, -0.08612155f, 0.06052013f,
    -0.21146767f, -0.22490899f, 0.11311193f, -0.12492418f, -0.19259140f, 0.02144192f, -0.00819979f, 0.21640672f,
    -0.04478792f, 0.13835402f, 0.07006796f, -0.17142130f, 0.01675393f, 0.10654090f, -0.07477620f, -0.05447017f,
    -0.16858369f, 0.09169344f, -0.14372312f, -0.17290938f, -0.10695196f, 0.06843957f, 0.06694810f, 0.24252376f,
    -0.16188930f, -0.02134239f, -0.16926521f, -0.03591871f, 0.23532453f, 0.16145325f, 0.09665550f, -0.15690574f,
    0.02943356f, -0.03547567f, -0.04710051f, 0.10308772f, -0.19680156f, 0.25979307f, 0.06338133f, -0.01638591f,
    0.16812862f, 0.02542049f, -0.07801002f, -0.05641878f, 0.08829557f, -0.05933358f, -0.02496332f, -0.03622613f,
    -0.04677010f, 0.11912289f, 0.17487985f, -0.07162728f, 0.02268226f, 0.01062261f, -0.02802602f, -0.01721800f,
    0.16133615f, 0.04438384f, 0.15577160f, 0.15463962f, -0.13770369f, 0.04515443f, -0.06702305f, 0.16597171f,
    -0.12215459f, 0.02548273f, -0.12047954f, 0.08784662f, 0.06045841f, 0.01077013f, -0.11507419f, -0.05606577f,
    -0.04103447f, 0.00676337f, -0.16229892f, -0.00589179f, 0.05204726f, 0.17579505f, 0.26115879f, -0.05078366f,
    0.13757840f, -0.04659953f, -0.11742926f, -0.26116917f, -0.24671383f, 0.11033981f, -0.08006755f, 0.12767725f,
    -0.15226096f, 0.00862690f, -0.22018586f, -0.16113769f, 0.24856687f, -0.03629810f, -0.09472098f, -0.18523625f,
    -0.03380520f, -0.09540126f, -0.03387384f, -0.05183063f, -0.02517348f, 0.17079416f, -0.06372508f, -0.03242509f,
    -0.09936426f, 0.05823853f, -0.17697455f, -0.21394834f, 0.00613578f, -0.04386112f, 0.12708458f, 0.04662426f,
    0.12443130f, 0.09995812f, 0.01985287f, -0.18666713f, 0.04431862f, -0.07437012f, -0.18890430f, 0.06577578f,
    -0.12088538f, 0.06385458f, 0.15771362f, -0.04388918f, 0.02815498f, 0.03076496f, 0.15228827f, 0.06363475f,
    -0.14214504f, 0.08319762f, 0.02031926f, 0.15626679f, -0.02600641f, 0.03764700f, 0.00617331f, -0.03090671f,
    -0.06982014f, -0.08615758f, -0.05744189f, -0.21553396f, -0.05983128f, 0.06633099f, 0.08765010f, 0.09995387f,
    0.05778331f, -0.00708081f, -0.14498718f, -0.11978205f, 0.13460563f, 0.06162059f, -0.20694944f, 0.12903410f,
    0.02799737f, 0.22443786f, -0.15459956f, 0.04994103f, -0.08662858f, 0.05185583f, 0.20394535f, -0.05355765f,
    0.16062684f, -0.13267982f, 0.09006404f, -0.02059094f, -0.05636521f, -0.13821422f, 0.09067862f, -0.02181445f,
    -0.16560912f, -0.06963010f, 0.03573883f, -0.11651599f, -0.10480800f, -0.01713871f, 0.17694592f, -0.07495333f,
    0.05119806f, 0.02828601f, -0.14603981f, -0.14834392f, 0.09574743f, 0.16176024f, -0.16908778f, 0.04375297f,
    -0.07166425f, 0.07514715f, -0.05583413f, 0.08134479f, 0.14601985f, -0.15882798f, -0.12521861f, 0.03952414f,
    0.01047667f, 0.05866143f, 0.08291836f, 0.03573212f, -0.14358012f, -0.16509931f, 0.04930450f, 0.13659470f,
    0.01866486f, -0.18535551f, 0.03432181f, -0.21359016f, 0.01627034f, 0.15009454f, 0.07442337f, 0.27244425f,
    -0.05221247f, 0.07896262f, -0.09864619f, -0.10440695f, 0.08534469f, 0.05141634f, 0.25360253f, -0.05247844f,
    0.03165554f, -0.00229444f, -0.07841231f, 0.05988629f, -0.09652355f, -0.04498891f, -0.11880407f, 0.22098134f,
    -0.09831396f, 0.13213301f, -0.00546721f, -0.16984367f, 0.13477188f, 0.09536632f, 0.16779949f, -0.00344627f,
    -0.04761359f, 0.24508886f, 0.12642999f, -0.19567138f, -0.05146069f, -0.05448390f, 0.17644791f, 0.01205524f,
    -0.03932042f, -0.08131184f, -0.15089923f, 0.10434890f, -0.01909851f, -0.23010442f, 0.22434692f, 0.04960975f,
    0.03773660f, 0.21455409f, 0.00073302f, 0.07593468f, 0.03196558f, 0.14300449f, 0.03994343f, -0.24741638f,
    0.03774601f, 0.09123517f, -0.11073928f, 0.17456023f, -0.15661818f, -0.27956215f, -0.07842951f, 0.13580412f,
    0.08436999f, -0.02753541f, -0.20323601f, -0.02526733f, 0.11916340f, 0.20141478f, -0.08801481f, -0.06475803f,
    -0.13065238f, 0.14527056f, -0.04763199f, -0.05781044f, -0.14424284f, -0.17291093f, -0.09201302f, 0.00167989f,
    -0.03987610f, 0.13162106f, 0.14239083f, 0.01897974f, 0.22553934f, 0.13917114f, -0.01463757f, -0.19322376f,
    0.15039468f, 0.13544981f, 0.15988708f, 0.13914303f, -0.12932929f, 0.00525123f, -0.12312005f, -0.02124867f,
    -0.02224572f, -0.05353258f, 0.00676949f, 0.06141255f, -0.12026357f, -0.05803328f, -0.06635471f, -0.01427405f,
    -0.10434939f, 0.18129487f, -0.07409448f, 0.07800117f, 0.05449095f, 0.00263083f, -0.06923120f, -0.27143675f,
    0.10388374f, 0.00852816f, 0.08374034f, 0.06395075f, 0.03006357f, -0.05126067f, -0.00185034f, 0.08508363f,
    0.14877692f, -0.06572098f, -0.05566350f, 0.01822635f, -0.00609703f, 0.22626667f, 0.10896794f, -0.09444301f,
    -0.34468859f, 0.13612114f, -0.67176771f, -0.50982141f, 0.04579373f, 0.13335505f, -0.17658956f, 0.16489726f,
    -0.70184559f, 0.34096602f, -0.05450484f, -0.42777029f, -0.24530649f, -0.41825020f, -0.41560236f, 0.00251835f,
    -0.31415245f, 0.21717660f, -0.38675526f, 0.14391646f, 0.14932837f, 0.38701737f, -0.17238480f, 0.01011411f,
    0.49463239f, 0.27134103f, 0.08432835f, -0.19180980f, 0.27894768f, 0.19949292f, -0.06564651f, -0.43839896f,
    -0.42638713f, -0.54970014f, -0.32872266f, -0.48311022f, -0.47009870f, -0.07889307f, 0.70276809f, 0.25477961f,
    0.17012018f, -0.12795863f, -0.39915460f, -0.11040704f, -0.18453211f, 0.37238204f, -0.53774029f, -0.00898216f,
    0.39829355f, 0.60077411f, 0.36347198f, 0.07774348f, 0.38003224f, -0.17433010f, -0.15494652f, 0.24798913f,
    -0.12839019f, 0.28527850f, -0.19600749f, 0.34154809f, -0.52189249f, -0.10922484f, 0.39370602f, 0.22539978f,
    0.10446518f, 0.05514587f, -0.09578586f, -0.09084446f, -0.26960281f, 0.09336136f, -0.27808747f, -0.13503617f,
    -0.15289620f, -0.01519155f, -0.04014111f, -0.20296626f, -0.25726539f, -0.10657150f, -0.07210896f, -0.09026421f,
    0.10281619f, 0.06634227f, -0.02280895f, -0.01041599f, 0.01982945f, 0.08849388f, 0.07058416f, -0.20799439f,
    0.26261714f, 0.04624331f, 0.16166207f, -0.05161193f, -0.07958903f, -0.07292297f, -0.04333353f, 0.09635539f,
    0.17123017f, -0.08648657f, -0.11998640f, 0.04722172f, -0.18987279f, -0.02836412f, -0.09116308f, -0.02463481f,
    0.12515166f, 0.28452104f, 0.21046545f, -0.22451699f, -0.14788359f, 0.13704106f, -0.20038214f, -0.16227999f,
    0.34565699f, -0.22634928f, -0.01159123f, -0.08428308f, 0.07821218f, -0.05333992f, 0.22030033f, -0.04239812f,
    0.06904485f, 0.20152523f, -0.04290590f, 0.09066895f, 0.19530192f, 0.02439204f, -0.01245769f, -0.00323991f,
    -0.07730970f, -0.05156455f, -0.11610022f, -0.00564374f, 0.16449419f, -0.06267456f, 0.01988519f, -0.14839861f,
    0.00934588f, -0.03224540f, 0.08739315f, -0.08998966f, 0.07220134f, -0.05796062f, -0.01845771f, -0.02082474f,
    0.04335038f, 0.10663763f, 0.05930840f, -0.09334783f, -0.16626003f, 0.03103731f, 0.09008095f, -0.16487797f,
    -0.11473947f, 0.07712300f, -0.00183264f, 0.08100978f, -0.00426530f, 0.04037663f, 0.05506412f, -0.13083325f,
    -0.21615648f, 0.01758568f, -0.00930276f, -0.20583731f, 0.06938126f, 0.03082122f, 0.01399435f, 0.08093155f,
    0.20793498f, 0.01671226f, -0.04670953f, 0.12844238f, -0.10354636f, -0.09845051f, -0.08610766f, 0.18186790f,
    -0.04557098f, 0.00390310f, 0.00886758f, 0.00527194f, 0.00245297f, 0.07241835f, -0.04394295f, 0.07242605f,
    -0.13732454f, 0.00052900f, -0.04899368f, -0.03569515f, 0.08463550f, 0.13587277f, -0.01659852f, 0.00220534f,
    0.08519465f, 0.02499167f, -0.08204127f, -0.14413762f, 0.13909869f, 0.05843785f, -0.08562995f, 0.00133899f,
    -0.05119467f, -0.07327318f, -0.33117080f, 0.02268247f, -0.12605485f, -0.19689518f, 0.07077438f, 0.06586518f,
    -0.19855510f, 0.00228238f, -0.09818062f, 0.19773740f, -0.00393058f, -0.11823658f, 0.13536623f, -0.12754899f,
    0.08680325f, 0.10465936f, 0.07817876f, -0.16494241f, 0.14549874f, -0.05497420f, 0.08772175f, -0.11636011f,
    -0.08970796f, -0.13970914f, 0.02687055f, 0.02730019f, -0.17990968f, 0.11213987f, 0.00438754f, 0.04712778f,
    0.13887458f, 0.12206262f, -0.01880903f, -0.14895135f, -0.11773323f, 0.31135717f, -0.10381957f, -0.13697372f,
    0.09392576f, 0.08228683f, -0.13542202f, 0.13383189f, -0.11224053f, 0.04283873f, 0.05976024f, 0.08038328f,
    0.03755914f, -0.07340860f, 0.03800846f, -0.15744112f, -0.17107561f, 0.01162868f, 0.16346027f, -0.03931979f,
    -0.18892722f, -0.01042518f, 0.06688631f, -0.09548428f, -0.23868607f, -0.05036362f, 0.22946800f, -0.06143459f,
    -0.10745434f, 0.06889405f, 0.22121954f, -0.10376552f, -0.03192224f, -0.11432935f, -0.09189696f, 0.26325181f,
    0.00814513f, 0.28756303f, -0.03093659f, -0.04259644f, -0.28398588f, 0.06446536f, 0.12436984f, -0.20462342f,
    -0.27826819f, -0.05062126f, -0.14843942f, -0.05387961f, -0.11912488f, 0.16803251f, -0.01864917f, 0.11557940f,
    0.04457155f, -0.11347039f, -0.24777615f, -0.11120573f, -0.05560950f, 0.11279779f, 0.12300740f, -0.03907373f,
    0.00894761f, 0.11297048f, 0.01181042f, -0.08911202f, 0.06192058f, 0.24734308f, 0.09811413f, 0.08903965f,
    -0.03047516f, 0.23015594f, 0.22700667f, 0.30371544f, -0.18235189f, 0.07509627f, -0.26126245f, 0.04671351f,
    0.09920189f, -0.25766784f, -0.13735297f, 0.05168892f, 0.15462148f, -0.04476348f, -0.13830413f, -0.25735420f,
    0.18530449f, -0.05485946f, -0.08901878f, 0.10756162f, 0.12378971f, 0.17925529f, -0.15542890f, 0.23538713f,
    0.05890288f, -0.19345136f, -0.07544845f, 0.15778670f, -0.05770221f, 0.04105214f, -0.00895420f, -0.30228722f,
    0.04401188f, 0.03175281f, 0.18671763f, 0.13188407f, -0.01900419f, 0.09710582f, -0.08685857f, 0.16021889f,
    0.15378994f, -0.04187912f, -0.01453778f, -0.05418265f, 0.07340364f, -0.02200601f, 0.20164713f, -0.05812540f,
    0.01435150f, 0.22786719f, -0.04783728f, -0.07998043f, 0.11348829f, -0.04115156f, -0.08179604f, 0.22363801f,
    0.08391103f, 0.02773295f, 0.22445028f, -0.00631615f, 0.04043717f, -0.11437458f, -0.23199345f, 0.06131651f,
