/*
 * EXAKTE LSTM Gewichte aus trainiertem PyTorch Modell
 * Modell: BMS_SOC_LSTM_stateful_1.2.4.31
 * Arduino Hidden Size: 8 (reduziert von 32)
 * Intelligente Neuron-Selektion basierend auf MLP-Wichtigkeit
 */

#ifndef LSTM_WEIGHTS_EXACT_H
#define LSTM_WEIGHTS_EXACT_H

// Arduino LSTM Konfiguration
#define ARDUINO_HIDDEN_SIZE 8
#define INPUT_SIZE 4
#define MLP_HIDDEN_SIZE 32


// LSTM INPUT Gate - Input zu Hidden Gewichte [8][4]
const float lstm_input_ih_weights[8][4] = {
  {-0.096114f, 0.656760f, -0.405281f, 0.710917f},
  {-0.697760f, 0.251968f, -0.166732f, -0.423832f},
  {-0.778611f, -1.400712f, -0.053618f, 0.600730f},
  {0.653292f, -0.240949f, 0.117993f, 0.242574f},
  {0.341294f, -0.350752f, 0.238330f, -0.231676f},
  {0.534578f, -0.886613f, 0.144025f, 0.638154f},
  {-0.583494f, 0.604095f, 0.073054f, 0.151240f},
  {0.827412f, 1.580425f, -0.057330f, -0.240488f},
};

// LSTM INPUT Gate - Hidden zu Hidden Gewichte [8][8]
const float lstm_input_hh_weights[8][8] = {
  {-0.325160f, 0.007847f, 0.136776f, 0.424440f, 0.292417f, -0.157886f, 0.272178f, -0.193569f},
  {-0.808686f, 0.026561f, -0.053107f, 0.136680f, 0.067020f, -0.217733f, 0.050716f, -0.448687f},
  {-0.820221f, -0.042507f, -0.458577f, -0.049896f, 0.123033f, 0.269997f, -0.236723f, 0.214136f},
  {-0.776293f, -0.215190f, 0.905568f, -0.122749f, 0.219372f, -0.665377f, -0.411083f, -0.557358f},
  {-1.169930f, -0.538708f, 0.969777f, 0.468664f, 0.275611f, -0.240039f, -0.029610f, 0.139678f},
  {-0.971281f, 0.734399f, 0.452515f, 0.184096f, 0.544677f, 0.341851f, -0.460406f, -0.318411f},
  {0.261301f, 0.258568f, -0.033589f, 0.258982f, 0.192443f, 0.208516f, 0.194853f, 0.102626f},
  {-0.388367f, 0.137508f, -0.012721f, -0.458510f, -0.047361f, 0.017262f, 0.016120f, 0.076560f},
};

// LSTM INPUT Gate - Bias [8]
const float lstm_input_bias[8] = {
  -0.504993f, -0.758045f, -1.761410f, -1.480853f, -1.253063f, -2.965261f, -0.469247f, -0.347140f
};

// LSTM FORGET Gate - Input zu Hidden Gewichte [8][4]
const float lstm_forget_ih_weights[8][4] = {
  {-0.228705f, 0.281961f, -0.367398f, 0.798097f},
  {-0.489349f, 0.655693f, 0.327013f, -0.316594f},
  {-0.481252f, -1.746921f, 0.004363f, 0.850059f},
  {0.340750f, -0.355450f, 0.028617f, 0.120293f},
  {0.033876f, -0.425741f, 0.045296f, -0.221110f},
  {0.612573f, -1.139056f, 0.145207f, 0.724742f},
  {-0.077047f, 0.377226f, -0.033888f, 0.685576f},
  {-0.483207f, 0.521584f, -0.110379f, -0.791942f},
};

// LSTM FORGET Gate - Hidden zu Hidden Gewichte [8][8]
const float lstm_forget_hh_weights[8][8] = {
  {-0.425617f, -0.151694f, 0.507203f, 0.343212f, -0.090540f, -0.078911f, 0.177539f, -0.087678f},
  {-0.732621f, -0.337539f, -0.263062f, -0.202320f, 0.111377f, -0.119770f, 0.048982f, -0.335323f},
  {-0.370656f, -0.028608f, -0.899497f, -0.251567f, -0.117180f, 0.656550f, -0.570625f, -0.098672f},
  {-0.677656f, -0.184413f, 0.967403f, 0.108206f, -0.179984f, -0.399956f, -0.610565f, -0.577252f},
  {-1.034010f, -0.514033f, 0.467375f, -0.141513f, 0.058569f, -0.122477f, 0.009504f, 0.053407f},
  {-0.812927f, 0.365788f, 0.082782f, 0.213816f, 0.729814f, 0.554622f, -0.729563f, -0.202921f},
  {-0.121120f, 0.513046f, -0.569358f, 0.029378f, 0.022242f, 0.373264f, -0.172792f, -0.005547f},
  {0.131811f, -0.388507f, -0.285022f, -0.209401f, 0.334793f, 0.116438f, -0.060036f, 0.741677f},
};

// LSTM FORGET Gate - Bias [8]
const float lstm_forget_bias[8] = {
  -0.466177f, -0.704854f, -0.526834f, -1.326114f, -0.872872f, -1.792429f, -0.969838f, 0.337767f
};

// LSTM CANDIDATE Gate - Input zu Hidden Gewichte [8][4]
const float lstm_candidate_ih_weights[8][4] = {
  {-0.178320f, 0.534946f, -0.023685f, 0.607638f},
  {0.796750f, -0.304202f, 0.013504f, 0.245682f},
  {0.577747f, 0.199975f, 0.000852f, -0.242430f},
  {-0.234953f, -0.765382f, -0.064289f, 0.129094f},
  {0.371590f, -0.453663f, -0.042766f, 0.028807f},
  {0.502570f, 0.303497f, -0.114722f, 0.111987f},
  {-0.264275f, 0.639714f, -0.150689f, -0.847219f},
  {-0.711829f, -0.069149f, 0.038088f, 0.046934f},
};

// LSTM CANDIDATE Gate - Hidden zu Hidden Gewichte [8][8]
const float lstm_candidate_hh_weights[8][8] = {
  {-0.229569f, -0.206089f, 0.214188f, 0.316402f, 0.489088f, -0.021468f, 0.101609f, 0.064942f},
  {-0.055051f, -0.387589f, -0.780982f, 0.384720f, 0.277721f, -0.091454f, -0.368644f, 0.303316f},
  {-0.733445f, 0.102436f, 0.358551f, 0.505081f, -0.458765f, -0.335620f, 0.191459f, -0.224937f},
  {0.058810f, -0.564265f, 0.525208f, -0.306520f, 0.465646f, 0.387346f, 0.016322f, 0.443255f},
  {-0.831803f, -0.953015f, 0.574058f, 0.034528f, -0.397540f, 0.536785f, 0.511722f, 0.753500f},
  {0.544878f, 0.004451f, 0.346299f, -0.377881f, -0.465384f, -0.392339f, 0.153271f, 0.128780f},
  {-0.242762f, 0.929772f, -0.184437f, -0.096165f, -0.299196f, -0.130739f, -0.578067f, -0.857536f},
  {-0.188910f, -0.769897f, 0.111623f, 0.005344f, -0.341834f, -0.090084f, 0.549371f, 0.189201f},
};

// LSTM CANDIDATE Gate - Bias [8]
const float lstm_candidate_bias[8] = {
  0.660637f, 0.266067f, -0.387680f, 0.418813f, 0.191211f, -0.552149f, -0.083864f, -0.068023f
};

// LSTM OUTPUT Gate - Input zu Hidden Gewichte [8][4]
const float lstm_output_ih_weights[8][4] = {
  {-0.477941f, 0.021717f, 0.153612f, 0.686939f},
  {-0.285632f, 0.234731f, 0.573183f, -0.337544f},
  {0.313726f, 0.183182f, -0.304163f, 0.997897f},
  {0.511052f, -0.084808f, 0.178492f, 0.067768f},
  {0.139225f, -0.268896f, 0.178438f, -0.004745f},
  {0.512802f, -0.643712f, 0.019919f, 0.689732f},
  {-1.150554f, -0.205291f, 0.331902f, -0.012678f},
  {-1.644616f, -0.021607f, 0.275470f, -0.221922f},
};

// LSTM OUTPUT Gate - Hidden zu Hidden Gewichte [8][8]
const float lstm_output_hh_weights[8][8] = {
  {-0.145902f, -0.436149f, 0.148739f, 0.756507f, 0.035953f, -0.327472f, 0.006827f, -0.153210f},
  {-0.649098f, 0.014095f, -0.287962f, -0.253110f, 0.173944f, 0.151722f, -0.199697f, -0.205575f},
  {-0.329970f, -0.008395f, -0.509580f, 0.011040f, -0.625555f, 0.278263f, -0.374446f, -0.077595f},
  {-0.687023f, 0.073930f, 1.133222f, 0.094562f, 0.038099f, -0.451481f, -0.323365f, -0.429170f},
  {-0.938779f, -0.345447f, 0.586250f, 0.163998f, 0.318878f, 0.269354f, -0.295641f, -0.042877f},
  {-0.791809f, 0.648889f, 0.507036f, 0.306024f, 0.650159f, 0.307640f, -0.531046f, -0.169262f},
  {0.372952f, 0.421673f, -0.716724f, 0.574538f, 0.135947f, 0.550719f, -0.415336f, 0.221765f},
  {-0.105575f, -0.021930f, -0.064057f, 0.350719f, -0.196747f, -0.327019f, -0.081076f, 0.356443f},
};

// LSTM OUTPUT Gate - Bias [8]
const float lstm_output_bias[8] = {
  -0.535582f, -0.380440f, -1.453809f, -1.591710f, -1.203156f, -2.754028f, -0.465122f, -0.004543f
};

// MLP MLP0 Gewichte [32][8]
const float mlp0_weights[32][8] = {
  {-0.255850f, -0.365111f, 0.878129f, 0.380165f, 0.147718f, 0.209201f, 0.383940f, 0.419392f},
  {0.065537f, 0.010046f, 0.204579f, -0.411827f, -0.391293f, -0.088019f, 0.136406f, -0.118814f},
  {-0.203845f, 0.195529f, -0.306143f, -0.116455f, -0.013207f, 0.215801f, -0.355613f, -0.123977f},
  {-0.249387f, -0.057636f, -0.296783f, -0.458704f, -0.611592f, 0.093576f, 0.074699f, -0.453628f},
  {-0.249511f, 0.252111f, 0.499794f, 0.014380f, -0.410895f, -0.108632f, 0.018010f, -0.072820f},
  {0.059893f, 0.000157f, 0.253566f, 0.484776f, 0.139854f, -0.381280f, -0.063094f, 0.001245f},
  {-0.233280f, -0.111377f, 0.691958f, -0.371801f, 0.401040f, 0.119910f, 0.432846f, 0.659249f},
  {-0.202719f, 0.052920f, 0.426389f, 0.278901f, -0.386839f, -0.223624f, -0.191307f, -0.163242f},
  {-0.664456f, -0.293306f, 0.981085f, -0.494119f, -0.482639f, 0.086425f, 0.182254f, 0.381552f},
  {-0.240580f, -0.393713f, 0.078319f, 0.070983f, 0.561357f, 0.319016f, 0.100340f, 0.414249f},
  {0.172474f, 0.348726f, 0.124827f, 0.176365f, -0.052432f, 0.115349f, 0.078638f, -0.177586f},
  {0.183751f, 0.071039f, 0.021700f, -0.097756f, -0.299170f, -0.316279f, 0.192475f, -0.116938f},
  {-0.220628f, 0.101702f, 0.591351f, -0.382635f, -0.132343f, 0.198143f, -0.034229f, -0.079050f},
  {0.371756f, 0.153757f, 0.006761f, -0.197496f, -0.399005f, -0.378458f, -0.150942f, 0.003495f},
  {-0.522956f, 0.269463f, 0.217301f, -0.036458f, -0.473696f, -0.251220f, 0.206406f, -0.089733f},
  {0.272458f, 0.158690f, -0.560115f, -0.271764f, -0.526854f, 0.583982f, -0.022836f, -0.003663f},
  {-0.994697f, -0.161207f, 0.383336f, 0.233623f, 0.106594f, 0.066998f, 0.211699f, 0.037662f},
  {-0.096169f, 0.208589f, 1.379808f, -0.062391f, 0.620500f, 0.458385f, 0.164390f, -0.094646f},
  {-0.053897f, 0.706475f, 0.259592f, 0.031685f, -0.253797f, -0.105979f, -0.439152f, -0.314082f},
  {-0.210445f, -0.103000f, 1.144327f, -0.102160f, 0.417553f, 0.044702f, 0.317150f, 0.579353f},
  {-0.720376f, -0.166457f, 0.216450f, 0.508068f, 0.122854f, 0.119162f, 0.084316f, 0.255728f},
  {0.102422f, 0.208444f, -0.535707f, -0.648140f, -0.275619f, 0.465820f, -0.728614f, -0.138348f},
  {-0.035657f, -0.504567f, 0.522610f, 0.067077f, 0.245489f, 0.249609f, 0.013736f, 0.441288f},
  {-0.169820f, 0.112815f, 0.571107f, -0.200317f, 0.060788f, -0.136972f, -0.023885f, -0.023649f},
  {0.096786f, 0.167980f, -0.000250f, 0.070764f, 0.188390f, 0.252930f, -0.323294f, -0.054212f},
  {-0.560813f, -0.077851f, -0.423625f, -0.134725f, -0.356597f, -0.047082f, -0.339281f, -0.255955f},
  {-0.819489f, -0.518338f, 0.378637f, -0.337700f, 0.089765f, 0.255285f, 0.058286f, 0.109994f},
  {0.132781f, 0.200435f, 0.574371f, 0.027828f, 0.035978f, -0.422250f, -0.293657f, 0.158881f},
  {0.071393f, -0.234361f, 0.078222f, -0.090719f, -0.327297f, -0.024231f, -0.324088f, -0.244188f},
  {-0.167348f, 0.100988f, 0.063086f, 0.110573f, -0.017460f, 0.399716f, -0.005581f, -0.150373f},
  {-0.047220f, -0.183035f, 0.275390f, -0.047877f, 0.051249f, -0.160866f, -0.184497f, -0.027146f},
  {-0.034330f, 0.636080f, 0.119329f, -0.247075f, -0.400691f, 0.437766f, -0.494931f, -0.209651f},
};

// MLP MLP0 Bias [32]
const float mlp0_bias[32] = {
  -0.044985f, -0.235715f, -0.142207f, -0.385655f, -0.309601f, -0.350098f, -0.114278f, -0.337414f, -0.571960f, -0.128498f, -0.059743f, -0.230815f, -0.325184f, -0.193740f, -0.224389f, -0.069453f, -0.111936f, -0.199859f, -0.029489f, -0.097013f, -0.333044f, 0.296065f, -0.143215f, -0.143374f, -0.188903f, -0.299834f, -0.235406f, -0.064308f, -0.435865f, -0.333335f, -0.429564f, 0.091528f
};

// MLP MLP3 Gewichte [32][32]
const float mlp3_weights[32][32] = {
  {-0.356407f, -0.478098f, 0.000136f, 0.396565f, -0.119676f, -0.571359f, -1.988923f, -0.402759f, -0.408138f, -2.216774f, 0.519230f, 0.148664f, 0.149257f, 0.272148f, -0.479245f, 0.499407f, -0.784145f, -0.474568f, 0.081312f, -0.349507f, -0.820263f, -1.681349f, -3.112818f, -0.083692f, 0.371183f, 0.104108f, -0.410113f, 0.426714f, -0.085513f, -0.216776f, 0.106395f, 0.356424f},
  {-0.568541f, -0.246965f, 0.172011f, 0.052175f, 0.181449f, -0.707844f, -2.863928f, 0.028702f, -0.008644f, -1.655610f, 0.798272f, 0.432892f, -0.268800f, 0.529925f, 0.457727f, 0.736270f, -0.526936f, -0.854326f, 0.578809f, -0.709572f, -0.279683f, -0.199082f, -1.152993f, 0.199378f, 0.213943f, 0.053045f, -0.867693f, 0.126744f, 0.052583f, -0.130469f, -0.007902f, -1.453924f},
  {0.218814f, -0.252212f, -0.249475f, -0.066532f, -0.007584f, -0.136602f, 0.220204f, -0.020387f, 0.294584f, 0.140326f, -0.472002f, -1.606084f, 0.123495f, -1.611197f, -0.689477f, -0.527823f, -0.034523f, 0.043973f, -0.495678f, 0.046806f, 0.064334f, -0.580428f, 0.009623f, -0.298417f, -0.114892f, -0.617150f, -0.095643f, 0.111078f, 0.082060f, 0.029459f, -0.309534f, -1.005323f},
  {0.008029f, 0.128547f, -0.516816f, 0.542915f, 0.270222f, -0.106734f, 0.158215f, -0.172644f, -0.011190f, 0.223814f, -1.439550f, -2.977844f, -0.261791f, -0.197576f, -1.039144f, -1.488029f, -0.225583f, -0.604031f, -1.906326f, 0.277084f, 0.106716f, -1.228029f, 0.274238f, -0.147168f, -0.951752f, -0.043336f, 0.207552f, -1.389834f, 0.045567f, -0.076571f, 0.130203f, -1.350892f},
  {0.260611f, 0.175614f, -0.421579f, 0.063240f, -0.135590f, 0.075249f, 0.013471f, -0.373156f, -0.199220f, 0.166145f, 0.051542f, -0.889986f, -0.278054f, -1.387283f, 0.315365f, -0.832541f, 0.268340f, -0.016283f, -0.601272f, 0.149761f, -0.166514f, -0.195719f, 0.209177f, -0.089867f, -0.024801f, -0.635530f, 0.176378f, 0.556423f, -0.485141f, 0.259112f, -0.530386f, -0.390866f},
  {-0.125077f, -0.212914f, 0.126046f, 0.075378f, -0.077335f, -1.355960f, -0.682179f, -0.211870f, -0.150265f, -0.379324f, 0.198124f, -0.103772f, 0.092764f, 0.362932f, -0.040356f, 0.200207f, -0.849801f, -0.244602f, 0.290151f, -0.221292f, -0.526448f, -2.348056f, -1.453304f, 0.461524f, 0.075861f, 0.066892f, -0.519496f, 0.207951f, -0.116924f, 0.277057f, 0.003794f, 0.373964f},
  {0.313848f, -0.239283f, -0.460124f, -0.165409f, -0.329979f, -0.215389f, 0.612072f, 0.221205f, -0.225462f, 0.182351f, -0.224114f, -1.194228f, 0.358434f, 0.212249f, -1.676972f, -0.259892f, 0.320721f, -0.274705f, -0.965749f, -0.143377f, -0.517429f, -1.627928f, -0.377237f, -0.310099f, -0.762584f, -0.419495f, 0.062118f, -0.202668f, -0.431680f, -0.030670f, 0.097598f, -0.369178f},
  {-0.933810f, -0.027594f, 0.163862f, 0.109421f, -0.134823f, -0.493634f, -1.079567f, -0.124142f, -0.357456f, -0.888543f, -0.100797f, 0.157664f, -0.126475f, 0.307301f, -0.230560f, -0.049536f, -0.411062f, -0.403625f, 0.149002f, -2.128038f, -0.787087f, 0.284771f, -0.555819f, -0.127738f, -0.050279f, -0.006166f, -0.470548f, -0.347840f, 0.244598f, 0.016829f, 0.109551f, 0.309224f},
  {-0.539876f, -0.226076f, -0.111178f, 0.230842f, 0.110333f, 0.037052f, 0.128272f, 0.133381f, 0.128059f, -0.740525f, -0.947607f, -0.271408f, 0.067005f, -0.338910f, -0.081955f, -0.840211f, 0.475319f, -0.003132f, -1.433260f, 0.113954f, -0.044028f, -0.261673f, 0.689882f, -0.120486f, 0.340913f, -0.260079f, 0.245066f, -0.039257f, -0.155200f, 0.220036f, 0.082153f, -0.779678f},
  {-0.743486f, -0.093655f, -0.064382f, 0.413441f, 0.130006f, -0.447455f, -0.578205f, -0.332679f, 0.085825f, -0.660916f, -0.061797f, -0.312466f, -0.248691f, -0.108527f, -0.141989f, 0.106471f, -0.653501f, -0.216439f, -0.179387f, -0.784091f, -0.923711f, 0.555220f, -0.587618f, 0.069146f, -0.128662f, -0.095180f, -0.886190f, -0.303796f, 0.067533f, -0.095365f, -0.013799f, -0.105218f},
  {-0.385901f, 0.020046f, -0.206692f, 0.248732f, -0.146451f, -0.593169f, -0.965441f, -0.108334f, -0.279605f, -0.890548f, 0.276219f, 0.190686f, 0.138806f, 0.259651f, -0.357288f, -0.152634f, -0.661718f, -0.291358f, 0.319775f, -0.792526f, -0.467553f, 0.307085f, -0.713124f, 0.087913f, -0.292702f, 0.160593f, -0.618489f, -0.106337f, 0.082435f, -0.246000f, -0.109606f, 0.194333f},
  {0.363937f, 0.662528f, -0.169180f, 0.411497f, -0.287916f, -0.189675f, -0.812783f, 0.262933f, 0.232634f, 0.382067f, -0.826099f, -1.317378f, 0.194161f, -0.376180f, -0.993462f, -1.038177f, 0.426091f, -0.014621f, -0.563401f, 0.144962f, -0.124254f, -0.293652f, -0.049316f, -0.270860f, 0.747996f, -0.732925f, 0.022172f, -0.001450f, -0.546591f, 0.027964f, -0.370624f, -0.666606f},
  {0.091419f, -0.327973f, -0.075518f, -0.358788f, -0.644160f, -0.005685f, 0.277462f, -0.456653f, 0.190003f, 0.056910f, -0.414924f, -1.529905f, -0.029864f, -1.276038f, -1.317876f, -0.527438f, 0.333836f, -0.232453f, -0.487430f, 0.344914f, -0.289875f, -0.545498f, 0.018672f, -0.528632f, -1.066864f, -0.443332f, 0.284399f, 0.018501f, -0.342504f, -0.261787f, -0.002117f, -0.981353f},
  {0.021985f, -0.043460f, -0.392800f, -0.127658f, 0.395207f, -0.189740f, 0.276491f, -0.085035f, 0.307321f, 0.389877f, -1.139102f, -1.902193f, 0.240096f, -0.411575f, -0.975193f, -0.736732f, 0.122371f, -0.239934f, -1.575328f, 0.437896f, -0.412013f, -0.603932f, -0.111638f, -0.197832f, -0.256973f, 0.097487f, 0.393143f, 0.368321f, 0.021564f, 0.100299f, 0.159320f, -2.274127f},
  {-0.638972f, -0.190868f, 0.172334f, 0.144484f, -0.266014f, -0.268158f, -0.657220f, 0.373399f, 0.101305f, -1.064696f, 0.156297f, 0.252804f, 0.040410f, 0.103758f, -0.169708f, 0.278522f, -0.380702f, 0.132020f, -0.000159f, -0.423056f, -0.099747f, 0.246520f, -0.639356f, 0.056174f, 0.249861f, 0.327177f, -0.393205f, -0.082964f, -0.052576f, -0.086263f, -0.236605f, 0.295896f},
  {-0.160696f, -0.007005f, 0.310027f, 0.495099f, 0.116577f, -0.357336f, -0.784581f, -0.144179f, -0.126208f, -0.721263f, 0.241665f, 0.049349f, 0.204113f, -0.026963f, -0.419490f, -0.191838f, -0.669312f, -0.104412f, 0.181937f, -0.453639f, -0.227631f, 0.299171f, -1.096841f, -0.114553f, 0.014799f, -0.135850f, -0.485985f, -0.143014f, -0.035450f, -0.169103f, 0.066190f, 0.299183f},
  {-0.205315f, -0.078325f, 0.458659f, 0.495435f, 0.146282f, -0.591940f, -0.901401f, -0.121501f, -0.224231f, -0.636068f, -0.046595f, 0.086649f, 0.318426f, 0.023473f, -0.255862f, 0.278206f, -0.521030f, -0.038722f, 0.441559f, -0.446808f, -0.378187f, 0.311556f, -1.645577f, 0.326762f, -0.148352f, 0.077907f, 0.102353f, -0.192755f, 0.140751f, 0.130357f, -0.024792f, 0.105314f},
  {0.009401f, -0.151909f, 0.094267f, 0.155165f, 0.139577f, -0.185565f, -0.951211f, 0.369828f, -0.460505f, -1.010155f, -0.190271f, -0.002184f, -0.394294f, 0.003833f, -0.288406f, 0.046210f, -0.565283f, 0.029662f, -0.264619f, 0.275667f, -0.243582f, 0.415580f, -0.976020f, 0.185052f, 0.000824f, -0.196836f, -0.847520f, 0.066357f, 0.047816f, 0.175095f, -0.015646f, 0.350974f},
  {0.204391f, -0.321449f, -0.479742f, 0.370923f, -0.112595f, -0.042269f, 0.298879f, 0.110896f, 0.359024f, 0.224977f, -1.345870f, -0.793928f, 0.094021f, -0.505348f, -0.712650f, -0.735282f, 0.191727f, -0.464839f, -0.775923f, 0.165170f, 0.040786f, -0.747419f, -0.048155f, -0.072729f, 0.443987f, -0.336455f, -0.014425f, -0.926827f, -0.415921f, 0.125090f, 0.145044f, -1.977872f},
  {-0.042418f, -0.559526f, -0.064633f, 0.141808f, 0.065116f, -0.347278f, -1.091626f, 0.048208f, -0.282825f, -0.382279f, 0.046931f, 0.244465f, -0.051570f, -0.163189f, -0.535037f, -0.075148f, -0.789297f, -0.023920f, -0.016382f, -0.092290f, -0.094325f, 0.332728f, -0.742694f, 0.021812f, -0.171019f, -0.043293f, -0.715961f, -0.210323f, -0.148642f, -0.184340f, 0.035669f, 0.382578f},
  {-0.017819f, 0.289802f, 0.063373f, 0.558885f, 0.390791f, -0.296941f, 0.216029f, 0.229372f, -0.117161f, 0.110277f, -0.400457f, -2.556253f, -0.031335f, -0.642816f, -1.153015f, -0.840374f, 0.205522f, 0.246383f, -0.927771f, 0.219007f, 0.027789f, -0.667775f, 0.325533f, -0.201248f, -0.822646f, -0.360832f, -0.087756f, 0.278716f, -0.262878f, 0.219475f, -0.226465f, -1.321264f},
  {0.554862f, 0.356850f, -0.392872f, -0.171833f, -0.189204f, 0.097969f, -0.049695f, 0.568158f, 0.295109f, -0.046963f, -0.643212f, -0.588642f, 0.086996f, -0.601184f, -1.225731f, -0.807013f, -0.078211f, -0.051532f, -1.608065f, -0.701153f, -0.044132f, -0.221295f, 0.558741f, -0.093429f, 0.333928f, 0.140912f, -0.001827f, 0.634780f, -0.208186f, -0.333532f, -0.153342f, -1.670860f},
  {-0.118715f, 0.117158f, -0.151800f, -0.523127f, -1.042408f, 0.022684f, 0.179919f, -0.284660f, -0.141833f, 0.034750f, -1.086472f, -2.083306f, 0.372432f, -0.973240f, -1.976541f, -1.506342f, -0.054114f, -0.040774f, -1.307853f, 0.355261f, 0.095818f, -0.676664f, 0.091403f, -0.593355f, 0.409343f, -0.435755f, -0.173412f, -1.713161f, 0.079469f, -0.379464f, -0.230313f, -2.512132f},
  {0.209354f, -0.170940f, -0.306624f, -2.007130f, -1.013165f, 0.423984f, 0.050091f, -0.226418f, -0.175777f, 0.261963f, -1.619862f, -3.657395f, 0.343113f, -1.025280f, -3.103825f, -1.575041f, -0.037870f, 0.139372f, -1.487205f, 0.228261f, -0.411472f, -1.119730f, 0.126684f, -0.154737f, -0.546745f, -0.086511f, -0.165351f, -0.175668f, 0.080443f, -0.026411f, -0.043003f, -3.984071f},
  {0.514567f, 0.136474f, -0.404419f, 0.022672f, 0.113199f, 0.197756f, 0.366510f, 0.214868f, 0.069281f, 0.057404f, -0.587792f, -1.493681f, -0.105752f, -0.681262f, -1.320318f, -1.080052f, 0.519967f, -0.220719f, -0.774924f, -0.331214f, 0.053361f, -0.050333f, -0.738098f, -0.179261f, 0.642044f, -0.304134f, 0.062312f, -0.014178f, -0.011897f, 0.066550f, -0.276879f, -1.026910f},
  {-0.494911f, 0.107688f, 0.016680f, -0.292507f, -0.959091f, 0.192460f, 0.210881f, -0.279661f, 0.057245f, 0.311225f, -2.052854f, -1.415157f, 0.534265f, -1.119029f, -0.455852f, -1.151826f, 0.058315f, 0.238667f, -1.178184f, -0.109319f, 0.128053f, -1.747346f, 0.024898f, 0.100071f, -0.678149f, -0.326276f, -0.069430f, -0.257474f, 0.125812f, 0.049123f, 0.128097f, -1.581454f},
  {-0.043901f, -0.001709f, -0.006631f, 0.505982f, 0.201072f, -0.410152f, -0.418211f, -0.157380f, -0.293361f, -0.566000f, 0.008843f, -0.531208f, -0.208861f, -0.485872f, -0.380785f, 0.153039f, -0.170723f, -0.594529f, -0.579503f, -0.318650f, -0.633473f, 0.532463f, -0.405220f, 0.047665f, 0.438388f, -0.037568f, -0.602670f, 0.167986f, 0.405670f, -0.166090f, 0.021903f, 0.083315f},
  {-0.003621f, -0.116807f, -0.248604f, -0.007959f, -0.176381f, -0.544407f, -0.548793f, -0.208401f, -0.470651f, -0.457114f, -0.446889f, -0.107691f, -0.519152f, -0.240897f, -0.464835f, -0.362965f, -0.140445f, 0.099720f, -0.290288f, 0.216557f, -0.558805f, 0.604361f, -0.464556f, -0.170498f, -0.567163f, 0.008642f, -0.475503f, 0.163405f, 0.262057f, 0.292227f, -0.314882f, 0.053331f},
  {-0.312642f, 0.031977f, 0.152523f, 0.487034f, 0.118400f, -0.460903f, -1.406123f, -0.019469f, -0.019453f, -0.943655f, 0.033247f, 0.225578f, 0.158855f, 0.403589f, 0.011096f, 0.198807f, -0.507918f, -0.290152f, 0.393552f, -0.560171f, -0.574919f, 0.152669f, -1.926571f, -0.144095f, 0.167363f, 0.149334f, -0.233779f, 0.199315f, 0.162065f, 0.213216f, 0.079798f, 0.152175f},
  {-0.157450f, -0.128775f, 0.067227f, 0.064769f, -0.119348f, -0.322583f, -0.930588f, -0.161550f, -0.182324f, -1.150260f, 0.252544f, 0.038675f, 0.179705f, 0.149366f, -0.462380f, 0.082877f, -0.331339f, 0.042072f, 0.179020f, -0.457570f, -0.669451f, 0.366678f, -0.486817f, 0.105416f, -0.002713f, -0.099239f, -0.814101f, -0.023419f, 0.129595f, 0.118175f, -0.110120f, 0.106819f},
  {-0.355366f, -0.050967f, -0.217159f, 0.223485f, 0.207071f, 0.087521f, -0.298789f, -0.052706f, 0.089813f, 0.399978f, -0.306519f, 0.130052f, -0.064521f, -0.740850f, -0.080223f, -0.715611f, 0.177825f, -0.178656f, -1.517702f, 0.308117f, -0.181212f, -0.431769f, 0.518950f, -0.431019f, -1.192968f, -0.438875f, 0.219474f, 0.391055f, -0.235617f, 0.187751f, 0.032144f, -1.089030f},
  {0.344127f, 0.115212f, -0.359769f, -0.135195f, -0.135950f, 0.014790f, 0.238154f, -0.442965f, 0.054269f, -0.088850f, -0.070400f, -1.264803f, 0.090533f, -1.410140f, 0.147098f, -0.677612f, 0.065169f, 0.139059f, -0.812347f, 0.078883f, 0.053877f, -0.265467f, 0.113971f, -0.415491f, -0.436779f, -0.748764f, -0.171107f, 0.213080f, -0.254607f, 0.305492f, -0.258944f, -0.630440f},
};

// MLP MLP3 Bias [32]
const float mlp3_bias[32] = {
  0.193977f, 0.068015f, 0.249246f, 0.027040f, 0.217613f, 0.176715f, -0.019319f, -0.004138f, 0.006050f, -0.115241f, -0.009065f, -0.005075f, 0.156830f, 0.085613f, -0.022142f, 0.002160f, 0.053810f, -0.065506f, 0.104734f, -0.048146f, 0.147429f, 0.052995f, 0.135678f, 0.152399f, -0.038049f, 0.038765f, -0.111302f, -0.114936f, 0.119321f, -0.025129f, 0.120940f, 0.245116f
};

// MLP MLP6 Gewichte [1][32]
const float mlp6_weights[1][32] = {
  {0.515886f, 0.638005f, -0.140773f, -0.086496f, -0.130799f, 0.567426f, -0.175399f, 0.138417f, -0.522559f, 0.184087f, 0.142639f, -0.419470f, -0.136958f, -0.131003f, 0.138165f, 0.131364f, 0.126272f, 0.138812f, -0.110514f, 0.144073f, -0.138107f, -0.251259f, -0.068027f, -0.135493f, -0.416297f, -0.186363f, 0.165201f, 0.205292f, 0.143303f, 0.137247f, -0.155415f, -0.129740f},
};

// MLP MLP6 Bias [1]
const float mlp6_bias[1] = {
  0.331477f
};

// Modell-Informationen
#define TOTAL_PARAMETERS 1793
#define MEMORY_USAGE_KB 7.00
#define MEMORY_USAGE_PERCENT 21.9

#endif // LSTM_WEIGHTS_EXACT_H
