/* MLP FP32 Weights for head: ReLU -> Sigmoid */
#ifndef MLP_WEIGHTS_FP32_H
#define MLP_WEIGHTS_FP32_H

#include <stdint.h>

#define MLP0_OUT_DIM 64
#define MLP0_IN_DIM 64
#define MLP1_OUT_DIM 1
#define MLP1_IN_DIM 64

static const float MLP0_WEIGHT[MLP0_OUT_DIM][MLP0_IN_DIM] = {
  {8.25166181e-02f, 1.85362160e-01f, 7.05150291e-02f, 1.96044482e-02f, -8.62786844e-02f, 2.10461877e-02f, -1.62945971e-01f, 1.26975864e-01f, 2.46472195e-01f, -1.77351058e-01f, -5.10841087e-02f, 1.51138706e-02f, 1.50073860e-02f, 7.28880195e-03f, 1.93809807e-01f, -2.86010895e-02f, 4.63395603e-02f, -1.51725516e-01f, 1.49136275e-01f, 1.24113791e-01f, 2.25421544e-02f, 2.00690374e-01f, -3.12242806e-01f, 1.99114755e-01f, -2.66315788e-01f, -3.08227539e-01f, 3.26815039e-01f, -2.45552436e-02f, 8.29127505e-02f, -1.58441648e-01f, 2.78997958e-01f, -3.66282761e-01f, -8.61621946e-02f, 1.14920020e-01f, -1.79430068e-01f, 2.66424846e-02f, -3.52246203e-02f, -2.24532440e-01f, -1.09965757e-01f, 1.01321734e-01f, 5.93237281e-02f, -3.06607820e-02f, 2.85275886e-03f, 2.04773337e-01f, 1.20416872e-01f, 2.75959056e-02f, 7.79386535e-02f, -1.11530475e-01f, 1.10023461e-01f, 2.75662303e-01f, 2.28870019e-01f, 1.22404695e-01f, -3.81474942e-02f, 1.31222054e-01f, 1.47531703e-01f, -1.63908422e-01f, 2.39962786e-01f, -3.99329692e-01f, -1.27677485e-01f, 1.10976249e-01f, -1.40161663e-01f, -2.18122244e-01f, -7.68610612e-02f, 1.05625793e-01f},
  {1.60540789e-01f, -2.55836248e-01f, 1.10697918e-01f, 3.54642421e-02f, -5.84656894e-02f, -5.55226728e-02f, 4.08871807e-02f, -4.64300774e-02f, 2.12264732e-01f, -2.97710836e-01f, 1.01805022e-02f, 1.41881099e-02f, -1.58031672e-01f, 4.48486693e-02f, -1.55049324e-01f, -1.60235122e-01f, 2.88683683e-01f, -3.52276973e-02f, -3.64114940e-02f, 1.60534814e-01f, 3.38330209e-01f, 1.66052103e-01f, 4.46961336e-02f, 1.01009578e-01f, 3.23768318e-01f, 2.62649171e-02f, 3.00734431e-01f, -2.30462864e-01f, -1.92788448e-02f, -2.50028968e-01f, 2.59433966e-02f, -1.92965195e-01f, -8.71832818e-02f, 2.23113187e-02f, -1.44499063e-01f, -2.08681539e-01f, -4.31517605e-03f, -1.63580164e-01f, -2.54620045e-01f, -1.91696793e-01f, 7.18723759e-02f, -1.97247222e-01f, 5.40781543e-02f, 2.76132494e-01f, -1.04951106e-01f, -1.76810429e-01f, -1.68081835e-01f, 7.40378574e-02f, 1.29659116e-01f, -3.06382943e-02f, -9.65287164e-02f, 5.55528626e-02f, 2.64998525e-01f, 1.97147369e-01f, -4.33965251e-02f, -3.29854161e-01f, -1.68960750e-01f, 9.32377726e-02f, 1.14736535e-01f, -3.84735882e-01f, -1.63986161e-01f, -7.38518015e-02f, 8.49497989e-02f, 5.97600229e-02f},
  {-1.80035323e-01f, 1.46983108e-02f, -2.11614743e-02f, -1.50243670e-01f, 1.28733099e-01f, -8.31073299e-02f, 5.93346264e-03f, 1.59932539e-01f, -8.74121487e-02f, 9.80555639e-02f, 2.43529722e-01f, -9.23784599e-02f, 1.40711978e-01f, 1.25223607e-01f, 2.40828171e-01f, 3.93124700e-01f, 6.96019679e-02f, 3.21996152e-01f, -1.00691363e-01f, 2.41866350e-01f, -2.75233179e-01f, -1.75354630e-01f, 5.93794882e-02f, -8.03681742e-03f, -9.75714326e-02f, 1.51015371e-01f, 1.47250891e-01f, 3.88341621e-02f, 1.81439430e-01f, -1.10251509e-01f, -6.35945573e-02f, 5.51273152e-02f, 5.77870309e-02f, -2.63671637e-01f, -5.20327277e-02f, 2.77925655e-02f, -1.08842686e-01f, -2.61184406e-02f, 3.88062090e-01f, -9.44513753e-02f, 3.38509232e-02f, 4.82180789e-02f, 3.64415422e-02f, 1.73402995e-01f, -2.01037377e-01f, 2.06259396e-02f, 1.66104391e-01f, 1.70035213e-01f, -2.77482331e-01f, -5.56429401e-02f, 5.59536368e-02f, 2.66321093e-01f, -2.76027977e-01f, -1.35970905e-01f, -1.45040408e-01f, 4.61899519e-01f, 2.84463763e-01f, 2.04183951e-01f, -1.70259029e-02f, 2.65507400e-01f, -1.75309950e-03f, 1.70502186e-01f, 1.70314908e-02f, -3.21739703e-01f},
  {1.86569050e-01f, -1.23553216e-01f, 3.01387459e-01f, -3.90395932e-02f, -1.33829385e-01f, -3.58821042e-02f, 9.67831239e-02f, -5.35149761e-02f, -9.75869372e-02f, 1.71457723e-01f, 9.54251736e-02f, 3.94154340e-02f, 2.42477864e-01f, 2.68978298e-01f, -4.28850174e-01f, 3.23463500e-01f, 2.22980872e-01f, 2.19468474e-01f, 1.22118473e-01f, -8.44543204e-02f, -1.77625477e-01f, -1.51832812e-02f, -3.78516793e-01f, -1.19832434e-01f, -3.33540320e-01f, -1.65526643e-01f, -4.10222039e-02f, 2.54782110e-01f, 8.72158036e-02f, 3.11145149e-02f, -2.59787892e-03f, -3.95968631e-02f, 1.62505023e-02f, -2.22967401e-01f, -3.60529751e-01f, 2.05070704e-01f, 1.70661032e-01f, -4.55524288e-02f, 2.00654283e-01f, 2.82117307e-01f, -4.83656451e-02f, -1.32251069e-01f, 3.15151036e-01f, -2.97301322e-01f, 2.63454467e-01f, 1.02985777e-01f, -3.49119678e-02f, -7.74045438e-02f, 1.42700776e-01f, 2.34811798e-01f, -3.96757247e-03f, -5.20399101e-02f, -1.59049302e-01f, -1.92176715e-01f, 6.33391663e-02f, 1.82303473e-01f, 1.71621129e-01f, -7.35293329e-02f, -6.88375458e-02f, -6.36647269e-02f, -1.07936122e-01f, -3.80121991e-02f, 2.44670168e-01f, -6.14056438e-02f},
  {-8.27062596e-03f, -2.24516809e-01f, 1.25817508e-01f, -2.12473243e-01f, 1.55002121e-02f, 2.32230928e-02f, 2.97877461e-01f, 1.18386149e-02f, 4.36628610e-01f, 1.40930535e-02f, -2.28513092e-01f, -8.96139070e-03f, -8.53223503e-02f, 5.04481867e-02f, 1.08828403e-01f, -3.54999393e-01f, -1.58751249e-01f, -1.55104831e-01f, 1.25490293e-01f, 3.59944068e-02f, 6.79573044e-02f, 1.66471247e-02f, -1.12695307e-01f, 1.47195589e-02f, 1.50712021e-02f, 1.20397009e-01f, 9.51301605e-02f, -1.86521143e-01f, -7.02940822e-02f, -5.36350869e-02f, 1.58834886e-02f, 1.71493694e-01f, -1.36789024e-01f, 4.79594171e-02f, 2.80312628e-01f, 8.40984583e-02f, -8.88424693e-04f, -2.62416869e-01f, -1.04196861e-01f, 2.73177683e-01f, 8.58870000e-02f, -1.03291333e-01f, 2.51153052e-01f, 1.16663307e-01f, 7.97465444e-02f, -3.25130224e-02f, -1.12033963e-01f, -8.41666013e-02f, 1.69952616e-01f, 5.22796325e-02f, 9.54500809e-02f, -1.42893136e-01f, 7.07886517e-02f, 1.39587700e-01f, 3.22077088e-02f, -2.10107595e-01f, -4.35983315e-02f, -2.57822454e-01f, 1.73464447e-01f, -3.42862040e-01f, -1.61169246e-01f, -2.14689627e-01f, -5.41438498e-02f, 1.42160580e-01f},
  {-1.14608426e-02f, -1.68951511e-01f, -1.08265437e-01f, -7.26826340e-02f, -1.74596176e-01f, -8.87786150e-02f, 1.07258419e-02f, 8.57093856e-02f, 1.12895407e-01f, -3.46193224e-01f, -9.18343887e-02f, -1.67389974e-01f, -1.15996294e-01f, 9.90007743e-02f, -3.00569266e-01f, -1.12398826e-01f, -1.43861979e-01f, -1.23706855e-01f, -1.06439196e-01f, 8.66008177e-02f, 6.70144558e-02f, -2.06140563e-01f, -8.71668290e-03f, -2.26572782e-01f, 8.76188055e-02f, 1.11197859e-01f, 2.07543433e-01f, -9.31147113e-02f, 1.20994188e-01f, -3.30133066e-02f, 5.65355830e-02f, 1.75334096e-01f, 1.93150360e-02f, -8.97697732e-02f, -5.06620444e-02f, -8.71953145e-02f, -6.75956979e-02f, -1.86290950e-01f, 2.45415270e-02f, 1.16086245e-01f, -6.26256764e-02f, 5.45358621e-02f, 5.23539409e-02f, 8.72461870e-02f, -2.10606158e-02f, 5.44582084e-02f, 1.40949696e-01f, 8.68561268e-02f, 1.84333280e-01f, -7.69841447e-02f, 1.88928414e-02f, -1.90841779e-01f, 4.38579656e-02f, -1.44239455e-01f, 1.33387357e-01f, -3.94552916e-01f, 8.72832909e-02f, -2.31232494e-02f, -3.09991576e-02f, -3.80265057e-01f, -1.25324488e-01f, -2.01879516e-01f, 5.63604943e-02f, -1.31306341e-02f},
  {8.18492025e-02f, -7.82098770e-02f, 1.34182483e-01f, 3.34571265e-02f, 1.80017009e-01f, 1.53968036e-01f, 1.31668299e-01f, 1.84380508e-03f, 2.96573520e-01f, -1.10096350e-01f, 3.51437889e-02f, 1.71697438e-01f, -9.71455425e-02f, 1.81999981e-01f, 3.07738543e-01f, 7.19176307e-02f, 1.14427581e-01f, 9.48278699e-03f, -8.32965896e-02f, -1.81081489e-01f, 6.90280646e-02f, 1.16453171e-01f, -1.10762894e-01f, 7.55038410e-02f, 5.20584248e-02f, -1.04214691e-01f, -1.17117371e-02f, -2.61265755e-01f, 1.13442704e-01f, 1.51182532e-01f, 1.78383842e-01f, 9.93443467e-03f, -5.88073991e-02f, 1.42858937e-01f, 6.00110590e-02f, -1.72476436e-03f, 8.81376094e-04f, -1.57787770e-01f, -3.86246681e-01f, 1.74780563e-01f, -1.00582615e-01f, -2.24447161e-01f, 2.58090377e-01f, 1.21505588e-01f, -9.93401483e-02f, -7.04835653e-02f, -4.60036285e-02f, -9.02782679e-02f, 1.80442065e-01f, 6.83844015e-02f, 1.02902643e-01f, -8.83730426e-02f, 2.86156554e-02f, -5.20021655e-03f, -8.74700919e-02f, 2.51222793e-02f, -1.47878587e-01f, -1.80410042e-01f, -1.61465891e-02f, 1.70051455e-02f, -2.10546758e-02f, -4.88754325e-02f, -1.99391246e-02f, 1.76899403e-01f},
  {-1.17437027e-01f, 4.31286186e-01f, 9.10776574e-03f, -1.62868500e-01f, 2.37905234e-01f, -7.27451146e-02f, 8.10125377e-03f, -9.34164897e-02f, -9.95479748e-02f, 7.21172839e-02f, 8.77068117e-02f, -1.96488231e-01f, -5.53381257e-02f, -5.81936166e-02f, 1.84534475e-01f, 2.05931161e-02f, 3.73245031e-02f, 9.54296514e-02f, 5.12791090e-02f, 8.85917097e-02f, -8.03599358e-02f, 6.92029595e-02f, -2.55125672e-01f, 1.71951860e-01f, -2.62351990e-01f, 2.16612622e-01f, -2.74043083e-01f, 1.59772605e-01f, 1.02192320e-01f, 3.69356096e-01f, -1.11964308e-01f, 1.64655656e-01f, 6.45291805e-02f, 2.95242816e-01f, 1.54132172e-01f, 1.75007552e-01f, 9.14046988e-02f, 2.98970550e-01f, 4.95606750e-01f, 7.40300119e-02f, 1.71438847e-02f, 9.39516351e-02f, 7.35043064e-02f, 2.02090442e-01f, -1.80110618e-01f, 1.17504358e-01f, -8.91899318e-02f, -1.44281209e-01f, -1.74014702e-01f, 1.31321236e-01f, 2.12381214e-01f, 1.24196529e-01f, -2.50937581e-01f, -1.12670176e-01f, -2.85945330e-02f, 2.25000456e-01f, 1.53722405e-01f, -3.47461849e-01f, 6.45315200e-02f, 4.52299595e-01f, -4.20041904e-02f, 5.18198907e-01f, -4.78717722e-02f, -3.48882884e-01f},
  {3.62149812e-02f, -2.62767263e-02f, 7.66646042e-02f, 1.45988232e-02f, -1.25984088e-01f, 1.78191915e-01f, 2.57263064e-01f, -2.29246572e-01f, 1.78786460e-02f, -1.83953121e-01f, -8.26806650e-02f, 2.65899926e-01f, 2.85806581e-02f, -6.43265098e-02f, -2.79253840e-01f, -1.48405880e-01f, -1.74259230e-01f, -3.71595733e-02f, 5.78682125e-02f, 1.37265459e-01f, 3.32349390e-01f, 2.89037704e-01f, 6.83414266e-02f, -5.90590127e-02f, 6.02853559e-02f, 1.53005853e-01f, 1.55396864e-01f, 5.29921055e-02f, -1.09337419e-01f, -3.14673424e-01f, 2.18628481e-01f, 2.33225431e-02f, -2.98149884e-01f, -1.54052507e-02f, -1.19779810e-01f, -6.55037118e-03f, 2.98369844e-02f, -1.29060254e-01f, -2.14548081e-01f, -1.45023465e-01f, 2.93328166e-01f, -1.63309187e-01f, 2.78645664e-01f, -1.15056127e-01f, 8.65448341e-02f, 1.75607562e-01f, 1.23859392e-02f, 1.74584568e-01f, -6.99411333e-02f, 3.16954777e-02f, 7.30039626e-02f, -4.00470011e-02f, 9.55591127e-02f, 1.11144893e-01f, -1.89625975e-02f, -3.01295221e-01f, 1.37935787e-01f, -1.32787982e-02f, -1.72027960e-01f, -3.25514168e-01f, -1.37294725e-01f, -3.46118838e-01f, -5.80966324e-02f, 1.67023316e-01f},
  {1.91521227e-01f, -2.44311187e-02f, 2.87342668e-01f, -9.49418917e-03f, 8.22102129e-02f, 3.49288315e-01f, 3.18931431e-01f, 4.23141241e-01f, -1.71989594e-02f, -6.56394139e-02f, 3.02798897e-02f, -8.68593976e-02f, -3.57955657e-02f, -2.81119514e-02f, 4.25603800e-03f, 1.62802443e-01f, -2.52489597e-01f, -3.68143385e-03f, 4.75122221e-02f, 5.96365221e-02f, -4.95388433e-02f, 9.03925523e-02f, -1.20126396e-01f, 1.41250193e-02f, 7.31153414e-03f, 1.31177545e-01f, 3.41716647e-01f, -2.20089674e-01f, 2.27915701e-02f, -4.84203408e-03f, 1.09992586e-01f, 4.56072837e-02f, 7.41070732e-02f, 1.82849336e-02f, -6.53010560e-03f, 1.75368056e-01f, -1.85515508e-01f, 1.13157891e-01f, -3.31307888e-01f, 8.26899111e-02f, -1.04142632e-02f, -2.80960146e-02f, 1.07943274e-01f, -1.20669767e-01f, 1.19945824e-01f, -4.04382385e-02f, 2.25116253e-01f, 2.17271894e-01f, -1.08766928e-01f, 2.79551744e-01f, 2.31662437e-01f, 4.18495089e-02f, -2.35385913e-02f, -5.94178028e-02f, 9.01906192e-02f, 8.13533142e-02f, -1.65975779e-01f, -5.34086227e-02f, 2.35402614e-01f, -2.28044182e-01f, -4.18938436e-02f, 1.30605558e-02f, -1.05752781e-01f, -2.97954232e-02f},
  {1.55552968e-01f, -2.84861565e-01f, -6.55051647e-03f, -1.75414801e-01f, -8.47667754e-02f, -3.42405513e-02f, 2.37230971e-01f, 5.55115901e-02f, 3.52030307e-01f, 4.48608678e-03f, 2.87868995e-02f, 9.91648212e-02f, -4.58855145e-02f, 2.52235591e-01f, 1.50250703e-01f, -1.92523688e-01f, 4.16154116e-02f, 1.45166874e-01f, -1.34504929e-01f, 5.98474741e-02f, 1.50155216e-01f, 1.11519776e-01f, -1.76658034e-01f, -9.59409401e-03f, 2.65604466e-01f, -3.92987505e-02f, 2.08964571e-01f, -2.09685117e-01f, 1.20089296e-02f, 3.92446555e-02f, 7.65902102e-02f, 1.37755871e-01f, 1.80635378e-01f, 3.70688960e-02f, -1.18580505e-01f, -1.71155870e-01f, -1.61346450e-01f, 2.12461725e-01f, -5.23441851e-01f, 1.83498651e-01f, -9.76011008e-02f, -4.03055288e-02f, -6.26398623e-02f, 9.21082124e-02f, 8.08847249e-02f, -6.92648143e-02f, -6.08930625e-02f, -2.60483008e-02f, 3.01562011e-01f, 1.70739576e-01f, 2.70248264e-01f, -9.03675556e-02f, 2.45149627e-01f, -8.32338165e-03f, 6.37063012e-02f, -7.56703094e-02f, -1.01551786e-02f, 5.62805831e-02f, -2.21327588e-01f, -3.79655927e-01f, -9.53600463e-03f, 3.93420178e-03f, 1.15882091e-01f, 1.52329654e-01f},
  {1.18514761e-01f, -8.11906997e-03f, 4.01427820e-02f, -6.84250444e-02f, -8.83725584e-02f, -7.91413561e-02f, 1.21849895e-01f, -4.70895320e-02f, 3.52986217e-01f, -2.02750280e-01f, 1.70019977e-02f, -6.93467706e-02f, -2.10229769e-01f, 2.15795547e-01f, 2.11469799e-01f, -8.26829597e-02f, 1.02739297e-01f, -2.17935666e-01f, 6.63548782e-02f, -3.14419307e-02f, 2.30555445e-01f, -1.27078220e-01f, -2.80562639e-01f, 1.54806972e-01f, -1.41700640e-01f, -1.50307581e-01f, -1.79199371e-02f, -1.89651459e-01f, 1.71830654e-01f, -2.26308510e-01f, 2.23026708e-01f, -4.11035167e-03f, -1.40541166e-01f, 1.27973825e-01f, 8.19446594e-02f, 2.82590389e-02f, 1.44808754e-01f, -1.22122720e-01f, -1.48486808e-01f, 1.67291358e-01f, 1.58197265e-02f, 8.35957229e-02f, 7.95530826e-02f, 4.38696817e-02f, -9.47925597e-02f, -4.96827103e-02f, -7.35541731e-02f, -7.10586607e-02f, -8.80205818e-03f, -6.70957798e-03f, 6.45214021e-02f, -1.03640437e-01f, 2.15206400e-01f, 1.44472405e-01f, 3.76912095e-02f, -3.05051021e-02f, -1.95072964e-02f, -1.73144341e-01f, 1.14428192e-01f, -4.33864035e-02f, 1.65759385e-01f, -2.05825418e-02f, -3.10637094e-02f, -3.10101397e-02f},
  {2.86566377e-01f, -1.13097750e-01f, 5.15570827e-02f, -1.40318319e-01f, -5.57020493e-02f, 3.56817663e-01f, 1.19725792e-02f, 2.34956622e-01f, -6.93154559e-02f, 5.00256382e-02f, -2.73716569e-01f, 1.65013194e-01f, 3.78895551e-02f, -1.43890753e-01f, -2.65592605e-01f, -1.21489294e-01f, 4.96248975e-02f, -1.24882914e-01f, -5.47642112e-02f, 4.44271490e-02f, 2.92707056e-01f, -1.05046295e-01f, 1.74645975e-01f, -1.40776634e-01f, 1.05270520e-02f, 8.70625377e-02f, 1.43582761e-01f, -3.68946850e-01f, 1.74225077e-01f, -9.68940482e-02f, 1.65624365e-01f, -2.48082168e-02f, -1.74309146e-02f, 2.81919986e-02f, -1.33463487e-01f, -2.27260977e-01f, 1.71299919e-01f, -4.80792858e-02f, -3.61685127e-01f, -1.05328262e-01f, 6.41757622e-02f, 1.14578074e-02f, 1.81296557e-01f, 2.82743014e-03f, -7.35828578e-02f, 1.47408351e-01f, 8.76298696e-02f, 1.17178395e-01f, 2.44754270e-01f, 2.35595386e-02f, -7.73418546e-02f, -3.04593649e-02f, 9.74336863e-02f, 1.36289939e-01f, 2.35148013e-01f, -2.31112078e-01f, 1.37661204e-01f, 6.50596991e-02f, -1.13999071e-02f, -4.27533358e-01f, 1.43054510e-02f, -4.62985247e-01f, 2.28943452e-02f, 1.39315099e-01f},
  {1.10202074e-01f, -2.47461662e-01f, 2.19469741e-01f, -1.09110311e-01f, -1.63581133e-01f, 1.30562454e-01f, 2.14748472e-01f, 2.63629824e-01f, 1.25890628e-01f, 1.36508672e-02f, -1.18352450e-01f, -8.41461644e-02f, 7.35446513e-02f, 1.95297562e-02f, -1.27397746e-01f, -5.81273176e-02f, -8.56090114e-02f, 1.50036607e-02f, -8.75186473e-02f, 4.77066748e-02f, 1.75886169e-01f, -5.88961430e-02f, -2.31480703e-01f, 1.92770347e-01f, 2.78777480e-02f, -1.74358860e-01f, 2.63036758e-01f, 2.44225308e-01f, -9.05260742e-02f, -4.48027104e-02f, 1.76125646e-01f, -1.06284477e-01f, 6.91522053e-03f, 1.27414139e-02f, -4.19919705e-03f, -1.95562497e-01f, 7.58480281e-02f, 1.50598928e-01f, -8.18018764e-02f, 2.95511000e-02f, 4.28779125e-02f, -1.21065021e-01f, 1.75369009e-02f, 1.01755209e-01f, 1.34627163e-01f, -1.56318799e-01f, -2.18951970e-01f, -1.44379482e-01f, -1.94554180e-01f, -1.16276462e-02f, -1.28243178e-01f, -1.43227890e-01f, -5.31811342e-02f, -3.01154293e-02f, -1.42017394e-01f, 1.47128165e-01f, 2.83930004e-01f, 5.72458096e-02f, -4.70295083e-03f, -1.04157738e-01f, 1.80398703e-01f, 2.39685960e-02f, -1.43699437e-01f, 2.25081533e-01f},
  {-8.37237015e-03f, 1.56554088e-01f, -1.13005921e-01f, -8.02871585e-02f, -1.90975517e-02f, -6.21776059e-02f, 9.34054032e-02f, -1.69590220e-01f, -5.42678684e-02f, 1.65753573e-01f, 1.81911349e-01f, -3.23778428e-02f, 1.75083261e-02f, 2.41368011e-01f, 1.40218467e-01f, 3.21515560e-01f, -6.94820611e-03f, 1.73668578e-01f, 5.44064492e-02f, 1.30193844e-01f, -2.59121925e-01f, 4.22710739e-02f, 1.22139929e-03f, -2.33062916e-02f, 2.19113994e-02f, 1.87291596e-02f, -2.52130032e-01f, 6.25016838e-02f, -6.21420667e-02f, 1.16665147e-01f, 1.87367693e-01f, 4.43826206e-02f, -8.83211344e-02f, -2.11941704e-01f, -1.11753447e-02f, 3.76449269e-03f, -1.23184927e-01f, 2.25861184e-02f, 5.50059557e-01f, 1.18082106e-01f, -2.03062057e-01f, -3.25427502e-02f, -1.87423453e-02f, 1.99713349e-01f, -2.50722915e-01f, -1.27665371e-01f, 6.32641390e-02f, -1.36941090e-01f, -7.45097101e-02f, 1.42346323e-01f, -1.57138199e-01f, -6.04303926e-02f, -1.06379256e-01f, -7.53128603e-02f, -1.09318718e-01f, 2.34473929e-01f, 3.43012482e-01f, -7.42196217e-02f, 1.35795861e-01f, 2.24080548e-01f, -1.31706789e-01f, 1.37505859e-01f, 1.52441617e-02f, -2.58258998e-01f},
  {2.80205220e-01f, -1.14284597e-01f, -7.44870976e-02f, -7.90091529e-02f, -5.47314137e-02f, 2.18475908e-01f, 1.74930647e-01f, 9.45810750e-02f, 4.90635186e-02f, -1.17262714e-01f, 1.04685448e-01f, 1.16397165e-01f, 1.18132113e-02f, 1.06172472e-01f, -1.45173699e-01f, 1.98964700e-02f, -1.76743254e-01f, -2.23115176e-01f, -2.74949968e-01f, -1.99387804e-01f, 2.05223352e-01f, 1.92081317e-01f, -1.38910294e-01f, 1.00301489e-01f, 1.10503130e-01f, 1.82300545e-02f, 4.61216480e-01f, -1.79334059e-01f, -1.20787598e-01f, -1.05071485e-01f, 1.47505850e-01f, -6.22454509e-02f, -1.27706826e-02f, -1.26739159e-01f, 3.42446677e-02f, 3.56350397e-03f, -1.00081645e-01f, 7.74883013e-03f, 7.63859749e-02f, -1.69063345e-01f, 9.48851928e-04f, -1.22831084e-01f, 5.31389713e-02f, 8.59620795e-02f, 1.11792371e-01f, -7.00578243e-02f, 7.46078044e-02f, 3.61964032e-02f, 2.51294196e-01f, -6.81997836e-02f, 1.67827997e-02f, 1.25411879e-02f, -1.47634923e-01f, -3.89877334e-02f, 1.91005066e-01f, -3.45283270e-01f, -1.80544540e-01f, -6.27097785e-02f, -2.04445831e-02f, -1.51814759e-01f, -1.94015786e-01f, -1.43693492e-01f, 1.26329809e-01f, -1.25146396e-02f},
  {1.29384041e-01f, 8.21735933e-02f, 8.00930783e-02f, 1.59099579e-01f, -6.21057749e-02f, -7.99063891e-02f, -4.84144352e-02f, 8.79961923e-02f, -6.37759715e-02f, 2.21925080e-01f, -4.22036648e-02f, -8.90904367e-02f, -7.15686977e-02f, 9.57222879e-02f, 2.92408448e-02f, 1.68378189e-01f, -1.68249100e-01f, 3.18757981e-01f, 9.41540152e-02f, -1.56533346e-01f, -3.22989151e-02f, -2.81680346e-01f, 1.79502871e-02f, -8.92116427e-02f, -1.63228229e-01f, 5.76490499e-02f, -8.07656199e-02f, 6.78885877e-02f, 1.77214503e-01f, 2.17558250e-01f, 3.46230306e-02f, 6.54699579e-02f, -2.45889532e-03f, 2.04150602e-02f, 1.91252396e-01f, 3.37615274e-02f, 2.04851985e-01f, 4.55299877e-02f, -2.30392329e-02f, 1.73393279e-01f, 1.36006728e-01f, 2.48727590e-01f, -6.15196228e-02f, 4.81992885e-02f, 4.48234111e-01f, 4.08480577e-02f, -2.81806365e-02f, -1.08025186e-01f, -2.64537007e-01f, 3.92591208e-02f, -1.15798183e-01f, -1.62752550e-02f, -2.78422296e-01f, -2.95198220e-03f, 5.08234426e-02f, 6.34133995e-01f, -3.87986712e-02f, -3.23182106e-01f, 1.75828144e-01f, 2.26496428e-01f, -1.32827729e-01f, -3.05516087e-02f, 1.05639219e-01f, -2.77531166e-02f},
  {-2.54327501e-03f, 2.24063158e-01f, 6.67039901e-02f, 2.74678189e-02f, 6.94311783e-02f, 1.85014680e-01f, 1.38748139e-01f, 5.56282289e-02f, 3.88365015e-02f, -2.21367851e-01f, -9.63806957e-02f, 1.98060960e-01f, -1.39692709e-01f, 5.74794225e-02f, -8.46611112e-02f, 1.07309125e-01f, 2.64693111e-01f, -1.49219811e-01f, 1.68023273e-01f, -8.65486041e-02f, 3.34242880e-02f, -1.11398563e-01f, -1.43691942e-01f, -9.08626392e-02f, -1.45934775e-01f, 3.46529298e-02f, 8.31610188e-02f, -8.18574056e-02f, 7.47959837e-02f, -1.50458321e-01f, -6.77643791e-02f, 1.43773509e-02f, -1.29655555e-01f, -6.53650553e-04f, 1.36438712e-01f, 4.64500720e-03f, 8.99721636e-04f, -9.92572829e-02f, -2.20229924e-01f, -1.31012231e-01f, 1.58588767e-01f, -1.70632660e-01f, 2.27541581e-01f, -2.53402512e-03f, -6.04410544e-02f, 1.40920486e-02f, 1.06786732e-02f, 1.98932454e-01f, 2.07690552e-01f, 2.07019951e-02f, -1.05847709e-01f, 2.80521926e-04f, 1.23832554e-01f, -1.21189088e-01f, 2.24327922e-01f, -2.01602995e-01f, 1.07453436e-01f, -9.07716677e-02f, -3.86386015e-03f, -3.27281281e-02f, -1.51835635e-01f, -9.56148282e-02f, -8.91749635e-02f, 2.07135692e-01f},
  {1.24830544e-01f, 5.96287288e-02f, 4.39838041e-03f, -3.63113210e-02f, -2.37133890e-01f, 2.95156181e-01f, 1.46952316e-01f, -7.18974620e-02f, 1.56948343e-01f, -1.28723428e-01f, 1.19974308e-01f, 2.63242483e-01f, -2.71348506e-01f, -7.53529146e-02f, -1.49591699e-01f, -2.15736583e-01f, 7.27493390e-02f, -1.90916136e-01f, -2.11298734e-01f, 4.06321324e-02f, 2.95860946e-01f, -8.33229795e-02f, 5.92057891e-02f, 1.03253774e-01f, 9.46867466e-02f, 7.86479935e-02f, 3.81988317e-01f, -9.07062292e-02f, 7.22184852e-02f, -2.78199017e-01f, 2.03573942e-01f, -3.44185159e-02f, -2.53984239e-02f, 1.13088772e-01f, -2.49518991e-01f, 1.16010115e-01f, -3.67645510e-02f, -1.16728194e-01f, -3.18130314e-01f, 1.46310553e-01f, -2.18198355e-03f, -1.71858415e-01f, 9.24153775e-02f, -1.44195408e-01f, 1.24053642e-01f, -1.48220763e-01f, -2.03116000e-01f, -6.26767380e-03f, 3.48810315e-01f, 5.06052561e-02f, 8.85737315e-03f, -8.94190520e-02f, 3.34976286e-01f, 2.86991954e-01f, 3.32083330e-02f, -3.36951405e-01f, 6.87796548e-02f, -1.15560032e-01f, -5.15560396e-02f, -1.14459604e-01f, 1.37395397e-01f, -7.82475248e-02f, 1.93147622e-02f, 8.62499475e-02f},
  {-1.94946319e-01f, -9.31746066e-02f, 1.19187459e-01f, 1.32208273e-01f, 1.78042073e-02f, 6.42085820e-02f, -7.48283416e-02f, 1.03336647e-01f, -6.87487200e-02f, 1.47584811e-01f, -8.39552507e-02f, -3.21729705e-02f, 2.34963074e-01f, 1.45730423e-02f, -1.85769603e-01f, 6.37666658e-02f, 2.26088211e-01f, 6.40820041e-02f, 8.36847872e-02f, 1.58244342e-01f, -3.00802052e-01f, -2.58204430e-01f, -1.65058494e-01f, -8.20830241e-02f, -1.31114751e-01f, 3.34918015e-02f, -1.66082174e-01f, 1.09681129e-01f, -9.56331789e-02f, 7.88361114e-03f, 3.25699776e-01f, -2.00218391e-02f, 1.52080059e-01f, -1.56706363e-01f, 1.12151794e-01f, -1.15519337e-01f, -3.09401691e-01f, -8.20275843e-02f, 3.53134751e-01f, -2.11654991e-01f, -3.46861959e-01f, -7.77419582e-02f, 1.43163398e-01f, 1.95262045e-01f, 9.87962931e-02f, -5.02168760e-02f, -1.93891488e-02f, -2.93396324e-01f, -1.91296577e-01f, -4.17049835e-03f, -7.99233466e-02f, 2.08087862e-01f, 1.68932021e-01f, -2.77514100e-01f, -2.99352258e-01f, -1.02178276e-01f, -1.53386861e-01f, -1.65851131e-01f, 2.66357422e-01f, 9.58507210e-02f, 1.06688961e-01f, 8.32046419e-02f, -1.40680941e-02f, -2.28344128e-01f},
  {1.34088457e-01f, -1.42777100e-01f, 1.61856636e-01f, -1.98659524e-01f, 1.91352502e-01f, -3.50899436e-02f, -1.63239971e-01f, 3.06908339e-02f, 1.38588235e-01f, 1.33461460e-01f, -1.13991862e-02f, 9.78513882e-02f, 2.35848680e-01f, 2.38986135e-01f, -1.73311740e-01f, -2.43065238e-01f, -8.45372677e-02f, 2.42228433e-02f, -6.13074489e-02f, -9.01687443e-02f, 1.24904327e-01f, -1.81007445e-01f, 1.15729697e-01f, 6.82482496e-02f, 9.76549275e-03f, -2.36554146e-02f, -9.79837626e-02f, -1.82439476e-01f, -1.43365666e-01f, 2.65837237e-02f, 5.94795756e-02f, -1.02704078e-01f, 1.27275273e-01f, -4.92152013e-02f, 4.12568711e-02f, -1.73766062e-01f, -1.92172006e-01f, 3.09503108e-01f, -9.80815887e-02f, 1.78868741e-01f, 2.11860035e-02f, 1.38305306e-01f, 9.35231224e-02f, 1.62383705e-01f, -5.69979958e-02f, -1.49102047e-01f, -1.46468386e-01f, -5.12104575e-03f, -2.08958909e-01f, -2.54959166e-01f, 2.07030788e-01f, -2.14065850e-01f, -2.00892687e-02f, -8.98248926e-02f, -1.49356753e-01f, -2.84902483e-01f, -1.72020227e-01f, -8.78547877e-03f, 1.49377629e-01f, -3.24299067e-01f, -2.54777316e-02f, 5.91642857e-02f, -1.84394047e-01f, 1.86671019e-01f},
  {1.03651024e-02f, -1.89095169e-01f, 9.41797718e-02f, -1.65088043e-01f, -2.71115959e-01f, 1.73758224e-01f, 1.84903964e-01f, -5.87725937e-02f, 1.16004109e-01f, -1.41404301e-01f, 1.90421388e-01f, -1.63026620e-02f, 1.00265563e-01f, 2.11161971e-01f, 1.83811672e-02f, -2.55025685e-01f, 4.03632969e-03f, -2.11124182e-01f, -1.88161150e-01f, -1.74654543e-03f, 1.23263881e-01f, -1.54067010e-01f, 1.99695483e-01f, -1.02053456e-01f, 1.91672191e-01f, 1.08266450e-01f, 1.31794214e-02f, -1.65131599e-01f, 8.45849514e-03f, -2.43328601e-01f, -5.75993285e-02f, -1.61325000e-02f, -9.15782005e-02f, -3.52691114e-03f, -2.28398159e-01f, -1.03417464e-01f, -1.45916104e-01f, -5.66950440e-02f, 1.13587923e-01f, -9.66922790e-02f, 1.08587861e-01f, -1.73454776e-01f, 1.62144184e-01f, -2.59356685e-02f, 1.58101916e-01f, 1.33734122e-01f, 3.36507102e-03f, 1.17660545e-01f, 1.63492993e-01f, -1.53248772e-01f, 3.75124104e-02f, -1.08656563e-01f, 3.02518681e-02f, -1.76022172e-01f, 5.87052181e-02f, -3.68124992e-01f, -8.54438394e-02f, -7.42972717e-02f, -7.90444389e-02f, -3.33032668e-01f, 1.13125471e-02f, -7.45594874e-02f, 1.05117716e-01f, -2.05280166e-03f},
  {1.44825473e-01f, 1.04859807e-01f, 1.61586300e-01f, 9.09195282e-03f, 2.95816436e-02f, 2.20790565e-01f, 1.32205054e-01f, 3.05262953e-01f, -8.28772113e-02f, -1.17297366e-01f, -1.18304543e-01f, -3.29180025e-02f, -7.49907568e-02f, 1.45025134e-01f, -4.49592285e-02f, 9.88338441e-02f, 8.00536424e-02f, -1.97064012e-01f, -3.89312534e-03f, 2.07788989e-01f, 1.41679980e-02f, 1.51790634e-01f, 1.75590351e-01f, -1.31894261e-01f, -3.16063762e-01f, -1.51154071e-01f, 2.95839131e-01f, -5.17499372e-02f, 1.90921396e-01f, -1.72070175e-01f, 8.94042701e-02f, -2.34213054e-01f, 6.60539269e-02f, -6.26942739e-02f, 1.32558167e-01f, -7.58997723e-02f, 1.14289550e-02f, -3.09018850e-01f, -2.72522211e-01f, -3.05097606e-02f, 1.82513908e-01f, -1.14530861e-01f, 1.09644830e-01f, -1.83503494e-01f, 3.85753997e-02f, 2.71634702e-02f, 3.71944830e-02f, -1.14951255e-02f, 3.73450488e-01f, 1.51221409e-01f, 2.65275910e-02f, 4.62424718e-02f, -1.31271899e-01f, -4.34108414e-02f, 1.41570285e-01f, -1.33444414e-01f, -2.13699967e-01f, -1.01242244e-01f, 1.66591197e-01f, -1.56492844e-01f, -1.16754167e-01f, -2.04554856e-01f, 7.53671750e-02f, 1.94306642e-01f},
  {9.00254846e-02f, 2.25191876e-01f, -1.89317659e-01f, -2.41291448e-01f, -3.67510132e-03f, 8.43667537e-02f, -2.18627695e-02f, -1.60472140e-01f, 9.71982256e-02f, 1.68001860e-01f, -8.93592387e-02f, -2.27926344e-01f, -2.37850659e-02f, -8.78637880e-02f, 3.86851653e-02f, 1.82085618e-01f, -1.07920863e-01f, 1.21118210e-01f, 8.90386552e-02f, 5.71044832e-02f, 9.37387645e-02f, 4.18628566e-02f, -6.29434288e-02f, -1.32870944e-02f, 1.63782611e-01f, -4.05926816e-02f, -2.00030953e-01f, 1.55857757e-01f, -1.26705259e-01f, 2.69981503e-01f, -1.28024883e-04f, 1.93937972e-01f, -2.55022850e-02f, -1.56466767e-01f, 1.44292638e-01f, 6.91000000e-02f, 1.39000952e-01f, 1.96468905e-01f, 4.59057182e-01f, 5.51454835e-02f, 2.85366140e-02f, -4.35281172e-02f, -1.79304585e-01f, 3.23497593e-01f, 1.15948312e-01f, 5.44424392e-02f, 3.34549159e-01f, 2.21945569e-02f, -1.54978946e-01f, 2.82905489e-01f, -1.73249230e-01f, 5.02819754e-02f, -2.80638516e-01f, -4.97580282e-02f, -3.21647525e-02f, 4.04508144e-01f, 2.52418816e-01f, 4.56742719e-02f, 1.66103348e-01f, 1.72640726e-01f, -1.22271158e-01f, 3.61452403e-04f, -2.17373995e-03f, 2.63911616e-02f},
  {-4.68962900e-02f, -1.47086635e-01f, -2.87545528e-02f, -6.16446249e-02f, -2.69468203e-02f, 2.14770287e-01f, -1.20253421e-01f, -7.07894787e-02f, 1.42341316e-01f, -1.91773683e-01f, 1.18820436e-01f, 3.78799699e-02f, 8.73819832e-03f, 7.02308398e-03f, -1.76131114e-01f, -2.31604889e-01f, -9.10456181e-02f, -1.88491449e-01f, -1.65662140e-01f, 1.45640194e-01f, 2.03627750e-01f, -1.70566946e-01f, -9.24928635e-02f, 1.47747874e-01f, 3.32590640e-01f, 8.74464065e-02f, 3.49621952e-01f, -3.05213422e-01f, -1.52418345e-01f, -2.77918577e-02f, 1.20920435e-01f, 1.98321771e-02f, 8.49924907e-02f, 5.54171065e-03f, 7.65106454e-02f, -1.19521111e-01f, 3.28110009e-02f, 1.39172792e-01f, -1.78883106e-01f, 1.60061032e-01f, 3.32749747e-02f, -3.85775939e-02f, 1.24079585e-01f, 1.99886382e-01f, 4.21143882e-02f, 1.30653024e-01f, -2.29444890e-03f, 1.11358337e-01f, 9.47910994e-02f, 4.85506207e-02f, -1.13618765e-02f, -1.73529208e-01f, 2.65261233e-01f, 8.74248669e-02f, -3.92111540e-02f, -1.89849302e-01f, -8.51798430e-02f, 1.31539002e-01f, 5.77345490e-02f, -3.74864429e-01f, -3.10534379e-03f, -3.13054435e-02f, -2.06941012e-02f, 6.57776222e-02f},
  {4.59716395e-02f, -3.77303325e-02f, 1.14852473e-01f, 1.40114874e-01f, -5.13799377e-02f, 3.12358201e-01f, -1.34421498e-01f, -1.51575580e-01f, -7.38615617e-02f, -2.25262761e-01f, 2.00560585e-01f, 8.71653557e-02f, -5.20703122e-02f, -2.45903842e-02f, -1.02953732e-01f, -1.55847147e-01f, 1.14973165e-01f, -7.34788179e-02f, 5.58201112e-02f, 1.16211120e-02f, 2.11015195e-02f, -7.33594745e-02f, 5.78554347e-03f, 5.93744852e-02f, 1.33555681e-01f, 1.77571908e-01f, 2.75323629e-01f, -2.10149020e-01f, -2.75661238e-02f, 1.32521586e-02f, 1.18752569e-02f, 1.49587423e-01f, -1.41885504e-01f, 4.76940759e-02f, -4.08091433e-02f, 9.92773846e-02f, 4.64465059e-02f, -3.95325534e-02f, -4.51654680e-02f, -4.14175354e-02f, 1.51243657e-01f, -1.94380537e-01f, 1.36589453e-01f, 1.14543445e-01f, -1.90519571e-01f, 1.81849539e-01f, 6.59130588e-02f, 1.65288784e-02f, 1.71139359e-01f, 1.42542601e-01f, 5.21345995e-02f, 1.64135993e-01f, 2.48057738e-01f, 2.55050868e-01f, 5.18914536e-02f, -2.30740488e-01f, 6.67819455e-02f, -3.12986076e-02f, -2.25869253e-01f, -3.60229701e-01f, -2.04678416e-01f, -1.51222512e-01f, 6.23984225e-02f, 3.95776182e-02f},
  {-2.86415648e-02f, 4.04128999e-01f, -2.57372886e-01f, -3.42208967e-02f, -5.31288907e-02f, -1.51285470e-01f, 6.42292621e-03f, -8.57894048e-02f, -2.74776295e-03f, 1.47546411e-01f, 1.66824192e-01f, -1.13676116e-02f, -5.10406634e-03f, -6.32219836e-02f, -9.01482925e-02f, 2.06608117e-01f, 9.73741263e-02f, 7.07465708e-02f, -1.12983584e-01f, 1.61697626e-01f, -2.78237402e-01f, -1.20858081e-01f, -1.30729452e-01f, 1.31478563e-01f, -2.02973813e-01f, 1.27324998e-01f, -1.76004961e-01f, 2.22271517e-01f, 2.24888176e-01f, -1.44152511e-02f, -3.80898528e-02f, 1.43992901e-01f, 3.32807481e-01f, 2.18784716e-02f, -5.40202372e-02f, -4.44484428e-02f, -2.23765090e-01f, -7.27765039e-02f, 8.98649991e-02f, 1.47829317e-02f, -1.10780820e-01f, 1.45959586e-01f, -2.02281460e-01f, -4.34004962e-02f, 7.46579841e-02f, -1.24732256e-01f, 9.19146836e-02f, -9.38775986e-02f, -1.97846130e-01f, 1.31354677e-02f, -1.89466551e-01f, 1.64516106e-01f, -2.20461249e-01f, -3.46441865e-01f, -1.18457638e-01f, 2.68842131e-01f, 1.28418162e-01f, -4.23571207e-02f, -2.13017073e-02f, 3.99660677e-01f, 5.65618612e-02f, 4.02443767e-01f, -1.35596454e-01f, -1.71553358e-01f},
  {3.33143771e-01f, 3.25096957e-02f, -1.25572950e-01f, -2.69936323e-01f, 1.75305292e-01f, 1.91752315e-01f, 2.61757731e-01f, -3.77549410e-01f, -6.59091920e-02f, -5.78052998e-02f, -5.60290515e-02f, -1.07476056e-01f, -1.83558315e-01f, 1.74629495e-01f, 8.46099332e-02f, 6.71001613e-01f, -1.39144093e-01f, 2.65552644e-02f, 4.11137678e-02f, -2.10003525e-01f, 2.62015581e-01f, 1.76756755e-01f, 7.27005079e-02f, -2.22900867e-01f, -3.63959819e-01f, -2.29374781e-01f, -8.15042779e-02f, 7.99082369e-02f, 2.05894649e-01f, 1.26389325e-01f, 2.41313696e-01f, 2.09495679e-01f, 1.09277368e-01f, 4.64467984e-03f, 1.61785871e-01f, 2.18602538e-01f, -1.46917045e-01f, -1.38687640e-01f, -3.32160085e-01f, 9.24155340e-02f, -5.73187053e-01f, 1.50653690e-01f, -1.33049414e-01f, 9.53012705e-02f, 6.37734383e-02f, 3.09166253e-01f, -2.34738261e-01f, 7.13707134e-02f, -1.14536732e-01f, -2.18423948e-01f, -2.09035411e-01f, -5.95289730e-02f, 3.82007025e-02f, 9.02076587e-02f, 7.63093680e-02f, 2.19855666e-01f, -1.76280364e-02f, -2.53688425e-01f, 2.30100185e-01f, 2.75706351e-02f, -2.54699945e-01f, 2.11443484e-01f, -1.78388506e-01f, -3.33805978e-01f},
  {1.31761488e-02f, -3.65315676e-01f, -1.06674589e-01f, -2.76055187e-01f, -1.82696149e-01f, 2.61233985e-01f, 5.93745783e-02f, -1.16706803e-01f, 2.29856610e-01f, -2.62344718e-01f, -9.97892115e-03f, -3.30354134e-03f, -3.82454209e-02f, -1.72429439e-02f, -1.20309241e-01f, -2.43170023e-01f, 3.59912291e-02f, -4.97353300e-02f, -6.03422225e-02f, -1.11897059e-01f, 2.85641283e-01f, 1.32408246e-01f, 5.43624833e-02f, -9.07486975e-02f, 2.22333193e-01f, 1.67318225e-01f, 2.02060893e-01f, -8.23201612e-03f, 6.64842352e-02f, -2.67245293e-01f, 2.95801431e-01f, 6.45372495e-02f, -6.47279173e-02f, -1.11608215e-01f, -8.09309110e-02f, 1.00603230e-01f, 2.43722871e-01f, 1.49440141e-02f, -3.13237607e-01f, -1.01710232e-02f, 5.83910272e-02f, -2.45377749e-01f, 3.34904119e-02f, -2.20305949e-01f, 9.19589922e-02f, 1.72402754e-01f, -6.36737868e-02f, -3.72184739e-02f, 3.96695197e-01f, -1.21706761e-01f, 1.88894197e-01f, 5.01762442e-02f, 1.01184905e-01f, 3.07924282e-02f, 6.19030409e-02f, -7.80400932e-02f, 8.30392987e-02f, 2.24696263e-03f, -3.15919481e-02f, -3.61549139e-01f, -1.38590068e-01f, -1.64760545e-01f, -3.18470336e-02f, 3.25089693e-01f},
  {2.17929497e-01f, 1.40159041e-01f, 5.66333979e-02f, 1.34952933e-01f, 9.37617496e-02f, -1.59711335e-02f, -1.83962613e-01f, -8.18194300e-02f, -7.46175423e-02f, -1.96001679e-01f, 2.78566629e-01f, 2.38494486e-01f, -6.82580918e-02f, -6.34109676e-02f, -1.36454061e-01f, -2.03212976e-01f, 9.34961364e-02f, -2.72329956e-01f, -1.03060603e-02f, -7.91231245e-02f, 3.33111465e-01f, -1.23887613e-01f, 4.04980741e-02f, -1.96855500e-01f, 7.83333704e-02f, 1.56714383e-03f, 4.17286277e-01f, -3.11563790e-01f, -8.82220715e-02f, -6.12495355e-02f, -7.51962215e-02f, 3.65401991e-02f, -1.26227632e-01f, 4.95520830e-02f, -1.73195973e-02f, 5.61482944e-02f, 8.92884731e-02f, 9.75884672e-04f, -1.61452591e-01f, 7.15233535e-02f, 1.99380168e-03f, 6.98477179e-02f, 2.90736044e-03f, -6.50814548e-02f, 7.90394668e-04f, -1.43579185e-01f, 6.96171448e-02f, 6.62359148e-02f, 1.30010352e-01f, 1.51269078e-01f, -3.51084650e-01f, 1.53786004e-01f, 1.60735801e-01f, -9.48564857e-02f, 1.29226828e-03f, -1.12418599e-01f, -2.28104338e-01f, 1.76975235e-01f, -2.18463957e-01f, -3.10225543e-02f, -1.37742668e-01f, -1.24859601e-01f, 1.53755307e-01f, 6.78608343e-02f},
  {2.63298720e-01f, 3.40038259e-03f, 1.25650331e-01f, 1.49860829e-01f, 2.76605859e-02f, 2.42207032e-02f, 7.55764470e-02f, -8.21189210e-02f, 6.60394579e-02f, 1.05465785e-01f, 2.53320560e-02f, -5.81036396e-02f, -1.73132226e-01f, 1.83332965e-01f, 1.58655733e-01f, -1.26204118e-01f, -1.19807079e-01f, -1.04953244e-01f, -8.63845870e-02f, -4.12681885e-03f, 1.74886778e-01f, 5.20420149e-02f, -1.96453318e-01f, 5.06559648e-02f, 2.87269671e-02f, -1.35237724e-01f, 2.06683040e-01f, 1.03961453e-02f, 3.12960535e-01f, -3.73990797e-02f, -2.72218697e-02f, 1.26055628e-01f, -1.43639401e-01f, 3.05500388e-01f, -3.31902839e-02f, -2.79950351e-02f, -6.29772469e-02f, -9.38109756e-02f, 8.57686400e-02f, -1.66261867e-01f, 6.26281649e-02f, 3.19384858e-02f, -2.02818826e-01f, 8.28615054e-02f, 9.61749256e-02f, 2.05557019e-01f, -4.38962691e-02f, -8.23923200e-02f, -1.56009898e-01f, -9.93246436e-02f, -1.69691578e-01f, 1.30110726e-01f, -1.53889671e-01f, 7.38987178e-02f, -8.33570212e-02f, -1.84063122e-01f, -2.64699429e-01f, -2.48828337e-01f, -3.16963601e-03f, -2.94009358e-01f, -2.86776740e-02f, -1.34010479e-01f, 1.89213067e-01f, 2.05253720e-01f},
  {-5.41738085e-02f, 3.62287536e-02f, -3.45528498e-02f, -2.38217413e-01f, -7.19527379e-02f, -6.93547577e-02f, -3.03650677e-01f, 6.63937628e-02f, 4.74600755e-02f, 1.11580595e-01f, 9.68216453e-04f, -1.17471568e-01f, 4.84825820e-02f, -1.41182214e-01f, 1.36062145e-01f, 1.67643771e-01f, -8.65795240e-02f, 1.65902436e-01f, 1.83766663e-01f, 1.15882218e-01f, -1.97606176e-01f, -6.73464760e-02f, -8.10441375e-02f, 1.44239292e-02f, -2.96997637e-01f, 3.60135287e-02f, 8.25598910e-02f, 1.18000120e-01f, -1.73444912e-01f, 1.40893221e-01f, 5.42498417e-02f, 6.46053702e-02f, 1.19721986e-01f, -1.48935288e-01f, 3.15108806e-01f, -1.42114997e-01f, 6.98189437e-02f, -2.80104224e-02f, 2.64817059e-01f, 2.43076921e-01f, 1.21060446e-01f, 7.28010088e-02f, 1.63313046e-01f, 4.38953899e-02f, 5.44443901e-04f, -4.46370430e-02f, 1.67547405e-01f, 1.13604562e-02f, -1.04704924e-01f, 1.18987970e-01f, 1.57283962e-01f, 2.23135293e-01f, -2.31350720e-01f, 7.15046376e-02f, -7.74774849e-02f, 3.90195549e-01f, -1.36487946e-01f, 1.18605033e-01f, 8.44044704e-03f, 2.58279115e-01f, -4.55676541e-02f, 3.81250083e-01f, 3.76455188e-02f, -2.06540003e-01f},
  {2.76874036e-01f, -2.18736276e-01f, 1.46837845e-01f, 6.28115088e-02f, 5.41432761e-02f, 7.91292563e-02f, 4.42574210e-02f, -1.60548482e-02f, 1.08910687e-02f, -6.37593120e-02f, 1.42557800e-01f, 1.96009371e-02f, -7.40633206e-03f, 5.72094768e-02f, -7.97267482e-02f, -1.39335468e-01f, 1.45813808e-01f, -1.00214131e-01f, -1.23850733e-01f, 1.13890164e-01f, 2.21077919e-01f, -1.09139562e-03f, -1.31599367e-01f, 1.05016576e-02f, 3.37665565e-02f, 1.20430470e-01f, 3.91325414e-01f, -2.95858115e-01f, 1.79607481e-01f, -1.10029668e-01f, 1.10230021e-01f, -1.68193698e-01f, -4.66493480e-02f, 1.57580629e-01f, -2.97824722e-02f, -3.93948052e-03f, 2.46912226e-01f, 1.46011412e-01f, -5.03180802e-01f, 9.64118838e-02f, 1.62650123e-01f, -5.93692670e-03f, 2.53182471e-01f, -6.20483346e-02f, 1.31297251e-02f, 1.83861498e-02f, -7.40993768e-02f, 1.15996026e-01f, 2.65509963e-01f, 3.88445668e-02f, 1.21204159e-03f, 1.83620065e-01f, 2.53636718e-01f, 7.01735467e-02f, 2.34188996e-02f, -4.23179530e-02f, 8.64433870e-02f, 1.37160048e-01f, -2.48110101e-01f, -3.43310654e-01f, -1.02057040e-01f, 1.23307303e-01f, 1.69900730e-01f, 1.74784377e-01f},
  {2.16241479e-01f, 2.29822434e-02f, 2.19225567e-02f, -2.94406898e-02f, 1.80213302e-01f, -5.34763606e-03f, -3.68638821e-02f, -6.89084828e-03f, 3.40536714e-01f, -3.10251564e-02f, -1.99096560e-01f, 3.79662775e-02f, 9.95524451e-02f, 1.70618802e-01f, 2.24519178e-01f, -2.40240291e-01f, 3.89970141e-03f, -1.11181326e-01f, -1.64574273e-02f, -9.63305756e-02f, 9.48897600e-02f, -9.78600830e-02f, -2.32283488e-01f, 1.75049286e-02f, -2.58992702e-01f, -1.98891222e-01f, -5.36823645e-02f, -2.89706737e-01f, 3.18416804e-01f, 2.24786941e-02f, 1.37181535e-01f, -6.84955344e-02f, 1.74605355e-01f, 1.25344262e-01f, -1.03253596e-01f, -2.32302725e-01f, -9.42009967e-03f, -7.49195889e-02f, -2.71862149e-01f, -2.28129905e-02f, -2.30092302e-01f, -9.80740711e-02f, 4.75952402e-02f, 4.70147841e-02f, -4.83868364e-03f, -1.65354848e-01f, -2.11901471e-01f, 1.94505583e-02f, -4.38893307e-03f, 1.15563441e-02f, 4.24622856e-02f, -6.10920265e-02f, 1.96305618e-01f, -1.22459747e-01f, 2.06187181e-02f, -7.53417984e-02f, 1.04065582e-01f, -2.86741912e-01f, -8.77427310e-03f, -1.99110791e-01f, 3.39482315e-02f, 6.43111765e-02f, -4.14631777e-02f, -2.54148208e-02f},
  {2.81656504e-01f, 1.97670422e-02f, 4.16139394e-01f, -1.98374856e-02f, 1.52654767e-01f, -3.53006721e-02f, -1.53157562e-01f, -1.04331948e-01f, -4.58881520e-02f, -8.97417665e-02f, 1.17373429e-01f, 6.32054955e-02f, -7.52167404e-02f, 1.48265541e-01f, 6.53121946e-03f, 3.35345007e-02f, 7.90834129e-02f, -2.14193001e-01f, 7.37765953e-02f, -1.18956022e-01f, -2.69389063e-01f, -7.44541287e-02f, 5.59288077e-02f, -9.27787721e-02f, 4.04327270e-03f, -3.05595756e-01f, -2.05318108e-01f, -8.85399431e-02f, 1.78365141e-01f, -1.55297428e-01f, -1.93722025e-01f, 2.40784839e-01f, 7.13048801e-02f, -5.04552620e-03f, 2.37366349e-01f, -4.53648306e-02f, 8.53035823e-02f, -2.19819099e-01f, 4.58619148e-02f, -1.94577485e-01f, -5.23249060e-02f, 6.70475960e-02f, 6.30807653e-02f, -1.68911487e-01f, 3.16827595e-01f, -9.83026400e-02f, -7.74160028e-02f, 2.09467754e-01f, 1.78424064e-02f, -2.36771956e-01f, -1.62088394e-01f, -2.31271327e-01f, 1.24833174e-01f, -1.93894491e-01f, 4.57084700e-02f, -9.34230760e-02f, 1.65959299e-01f, 5.87604344e-02f, 4.24823225e-01f, -2.71134734e-01f, 3.96447748e-01f, 1.11553244e-01f, -5.52260578e-02f, -3.69185090e-01f},
  {6.60945028e-02f, 3.06111097e-01f, 1.85345206e-03f, 1.86735675e-01f, -5.09757549e-02f, 2.54082549e-02f, -8.33054185e-02f, 1.05831057e-01f, 5.22098988e-02f, 5.90902939e-02f, 8.64778683e-02f, 3.75600457e-02f, -1.71364069e-01f, -3.34547600e-03f, -2.01233715e-01f, 4.16467220e-01f, 1.01083584e-01f, 9.33203027e-02f, 2.47715414e-01f, -8.54102746e-02f, 8.51267055e-02f, 1.25645593e-01f, 2.06554502e-01f, -1.27618492e-01f, -3.50476563e-01f, -8.41998011e-02f, -2.46989906e-01f, 2.24330559e-01f, 3.30343097e-02f, 2.79315710e-01f, -4.40517776e-02f, -1.30317435e-01f, 1.37322769e-01f, 8.32704827e-02f, 1.50949523e-01f, 1.30455226e-01f, -2.59976119e-01f, -7.27432817e-02f, 2.99527973e-01f, 1.65814579e-01f, 4.61835153e-02f, -1.08528383e-01f, -1.76935997e-02f, 1.51987702e-01f, -1.15811229e-01f, -7.88814351e-02f, 1.33084849e-01f, 3.80071551e-02f, -3.18367004e-01f, 1.47651061e-01f, 8.26967731e-02f, 1.82132095e-01f, -6.56763315e-02f, -1.09643981e-01f, 2.74826102e-02f, 1.54495791e-01f, 8.29716958e-03f, -2.58809119e-01f, 1.73969388e-01f, 2.37645656e-01f, -1.43599615e-01f, 3.32034737e-01f, 1.25034064e-01f, 3.15884216e-04f},
  {1.90386727e-01f, 3.06697965e-01f, 1.63583513e-02f, 1.28657520e-01f, 1.45573691e-01f, 2.00502470e-01f, -5.33895381e-02f, 9.29131061e-02f, -5.71016520e-02f, 2.18357056e-01f, 4.90462501e-03f, -1.43306389e-01f, -6.97258338e-02f, 3.48239876e-02f, 4.17610645e-01f, 6.32250071e-01f, 3.29340398e-02f, -1.72792703e-01f, 2.89685756e-01f, -1.94816645e-02f, 1.23567255e-02f, -1.64965034e-01f, 2.67141819e-01f, 3.11937183e-01f, -3.12334061e-01f, 2.81016111e-01f, 4.64601070e-02f, 1.67653933e-01f, 6.75768256e-02f, 7.60330027e-03f, 1.28210798e-01f, 5.04348949e-02f, 1.00398429e-01f, 1.87536553e-01f, 1.40666530e-01f, 2.42935389e-01f, -2.72404492e-01f, -9.69291776e-02f, -9.43031535e-02f, -1.59667525e-02f, -1.18307345e-01f, 2.35917225e-01f, 2.87156612e-01f, -1.30152270e-01f, 4.57831025e-02f, 5.71583062e-02f, 1.74983907e-02f, 1.07469313e-01f, -9.64588076e-02f, 3.54470573e-02f, 1.97831109e-01f, -2.57139623e-01f, -1.07182972e-01f, -1.45665731e-03f, -4.27444279e-03f, 8.20757076e-02f, -2.17796788e-01f, -2.18174547e-01f, -3.77366804e-02f, -1.06823109e-02f, -4.20899875e-03f, 5.23407400e-01f, 2.33033784e-02f, -9.74250585e-02f},
  {-2.37703875e-01f, -2.31935177e-02f, -6.26170263e-02f, 5.01160100e-02f, -1.12500697e-01f, -2.65744328e-02f, -1.38894126e-01f, 4.40058112e-02f, -3.04626673e-02f, 1.05040908e-01f, 4.60386798e-02f, -8.41226205e-02f, 6.31374121e-02f, 2.76180208e-01f, 2.16514710e-02f, 2.10454762e-01f, -1.52056217e-01f, 1.19713299e-01f, 4.37982008e-02f, -1.13634251e-01f, -1.64240822e-01f, -6.23889789e-02f, -2.84602851e-01f, -1.35166690e-01f, 2.20965240e-02f, 8.03052261e-02f, 7.18354073e-04f, 8.61380920e-02f, 1.98480517e-01f, 2.13996068e-01f, 1.72450125e-01f, 9.35696736e-02f, -9.34676304e-02f, -6.01009130e-02f, -3.04937288e-02f, -7.16490969e-02f, 3.64812985e-02f, 6.01222403e-02f, 1.59799322e-01f, 1.96684316e-01f, -7.84276053e-02f, 7.56367892e-02f, 8.69316906e-02f, 3.46639693e-01f, 4.07140940e-01f, -8.27357769e-02f, 1.26636595e-01f, -1.88307866e-01f, -1.18079461e-01f, 2.22945094e-01f, 2.29155123e-01f, 2.57344484e-01f, -3.30174565e-01f, -1.12375051e-01f, -1.46159589e-01f, 2.06665397e-01f, 6.77089719e-03f, -2.09885567e-01f, 3.07744682e-01f, 2.09302649e-01f, -1.32240772e-01f, 1.44269273e-01f, 1.09306097e-01f, -3.13014150e-01f},
  {7.65251145e-02f, -3.66920710e-01f, -2.43966877e-02f, -4.59538624e-02f, -4.43378314e-02f, -3.78890634e-02f, 2.18395561e-01f, -9.43326671e-03f, 2.50357300e-01f, -1.94941789e-01f, -1.37239635e-01f, -4.46860641e-02f, -1.64700285e-01f, 8.11536685e-02f, -6.70408979e-02f, -2.09227785e-01f, 1.95554402e-02f, -1.31158456e-01f, 2.58392822e-02f, -3.00154686e-02f, 1.18114345e-01f, -7.94908479e-02f, 1.57789558e-01f, 9.93568599e-02f, 7.92188197e-02f, 1.63439959e-01f, 2.53641248e-01f, -1.42932415e-01f, 2.22486742e-02f, 1.53242856e-01f, 1.72103360e-01f, -1.41611934e-01f, -4.99858987e-03f, -1.55730262e-01f, 2.84628905e-02f, -2.73462366e-02f, 4.64152247e-02f, -1.42295986e-01f, -1.25701621e-01f, 1.09270476e-01f, 1.94284260e-01f, -1.17588051e-01f, 3.33330929e-01f, -3.89545187e-02f, 1.10406671e-02f, 6.65605143e-02f, 9.18391813e-03f, -7.87728056e-02f, 2.76111245e-01f, 1.24965243e-01f, 3.38356495e-02f, 1.75717264e-01f, 9.67732295e-02f, 2.24151611e-01f, 5.99752963e-02f, -3.57552558e-01f, -1.05535232e-01f, -1.33665398e-01f, -1.52682349e-01f, -3.86153340e-01f, -7.48632029e-02f, 4.63519953e-02f, -7.46388212e-02f, 1.08812034e-01f},
  {-1.77365676e-01f, 3.31018627e-01f, 3.34342942e-02f, 5.32818772e-02f, -1.18403323e-01f, -1.37396514e-01f, -1.85300857e-01f, 1.59283876e-01f, -1.16709150e-01f, -4.68215346e-02f, -6.79954467e-03f, -1.08967714e-01f, 1.60057053e-01f, 1.49736479e-01f, -6.85265362e-02f, 4.04601455e-01f, 4.07635234e-02f, 8.85056332e-02f, -1.47378102e-01f, 1.50683690e-02f, -1.53552771e-01f, -1.22548617e-01f, 1.88901931e-01f, -7.47878626e-02f, -1.56399403e-02f, 1.12655245e-01f, 8.15513507e-02f, 2.32565179e-02f, -1.12696826e-01f, 1.42153397e-01f, 2.11184070e-01f, 2.53103599e-02f, -5.58048487e-02f, 1.67968532e-03f, 7.64389038e-02f, 6.81714863e-02f, 1.35393202e-01f, 1.75819248e-01f, 3.42926085e-01f, -1.55861482e-01f, -1.18408635e-01f, -9.80927125e-02f, -2.29277492e-01f, -1.05897345e-01f, 5.57919964e-02f, 3.17750536e-02f, -2.57571097e-02f, -1.61365662e-02f, 1.17559992e-01f, 2.42927760e-01f, -1.10915489e-01f, 2.08542258e-01f, -1.17328092e-01f, -2.46505067e-01f, -3.63179557e-02f, 7.02308863e-02f, 1.52958721e-01f, -2.65753597e-01f, 1.71067283e-01f, 9.91989523e-02f, 2.45175034e-01f, -7.08056688e-02f, 6.61195517e-02f, 6.02380279e-03f},
  {-1.52506709e-01f, -1.93351712e-02f, 1.30972177e-01f, 1.25863799e-03f, 4.17235382e-02f, 1.44364476e-01f, -1.97818190e-01f, 2.18295380e-01f, -7.76824951e-02f, 1.82616964e-01f, -2.07152009e-01f, 5.95451891e-02f, 1.26549050e-01f, -1.13748245e-01f, 6.89137867e-03f, 1.68745086e-01f, 2.22308785e-01f, 1.86028600e-01f, -1.99056223e-01f, 7.33163878e-02f, -3.42505068e-01f, -3.01283628e-01f, 4.98927347e-02f, -5.30412532e-02f, -1.87407672e-01f, -1.15476198e-01f, -7.73626789e-02f, -3.13506126e-02f, -1.38092726e-01f, -5.52482083e-02f, -1.73597932e-01f, -1.22220211e-01f, -1.93519425e-03f, -2.97949333e-02f, 1.36362076e-01f, -5.51958978e-02f, 1.17594108e-01f, -1.78349733e-01f, 3.96741331e-01f, -7.26363212e-02f, -1.30900398e-01f, 2.66836196e-01f, 1.06284721e-02f, 7.48722181e-02f, -5.09064384e-02f, -1.14232078e-01f, 1.28832489e-01f, 8.23806450e-02f, -1.25081107e-01f, 1.42100289e-01f, 2.00585887e-01f, 9.26201791e-02f, 7.80937746e-02f, -2.46244520e-01f, 1.41337449e-02f, 4.18922871e-01f, 1.12630196e-01f, -1.20870069e-01f, 1.08715348e-01f, 4.02247638e-01f, 1.92151919e-01f, 1.70427367e-01f, 3.58969867e-02f, -4.10181358e-02f},
  {-4.95993495e-02f, -2.35669136e-01f, 1.41900390e-01f, -8.12627673e-02f, -4.18927185e-02f, 2.87268665e-02f, 9.48481411e-02f, 5.63240051e-02f, 2.33634785e-01f, -2.23181054e-01f, 1.17443934e-01f, 5.40107861e-02f, -1.28389904e-02f, 1.05976544e-01f, 2.13696674e-01f, -3.23471248e-01f, -7.06579387e-02f, -8.75453949e-02f, -2.54270613e-01f, -6.36402592e-02f, 2.64351904e-01f, -1.61477663e-02f, -1.15134493e-01f, -1.92592181e-02f, 1.98332682e-01f, -1.00694727e-02f, 1.61194876e-01f, -2.65768081e-01f, -9.31106973e-03f, 1.01908378e-01f, 4.23135012e-02f, 1.20310046e-01f, -3.52424048e-02f, 1.00034237e-01f, -1.15986638e-01f, -1.76551759e-01f, 7.43712485e-02f, -2.36050963e-01f, -4.46200222e-01f, 1.61512941e-01f, -1.56687170e-01f, 5.51835895e-02f, -5.27917175e-04f, 2.17145219e-01f, -9.08948854e-02f, -8.65194127e-02f, -2.37681016e-01f, -3.50553803e-02f, 2.74779290e-01f, 1.49247229e-01f, 1.01481616e-01f, -1.37689278e-01f, 1.60585254e-01f, -6.71252832e-02f, 1.80229783e-01f, 1.30417356e-02f, 2.99555492e-02f, 7.62947425e-02f, -9.35936496e-02f, -3.59745920e-01f, -1.21186413e-01f, -1.54281519e-02f, 8.60951543e-02f, 3.23513210e-01f},
  {-1.56820282e-01f, 4.01225120e-01f, -1.27592888e-02f, -1.10030092e-01f, 2.38196746e-01f, -2.31097668e-01f, -1.99642628e-02f, -1.81058615e-01f, -1.93998870e-02f, 1.47264943e-01f, -7.37468749e-02f, -5.43580689e-02f, -8.56354684e-02f, -8.83979257e-03f, 1.03879318e-01f, 2.49117777e-01f, -1.52709642e-02f, 1.84504241e-01f, -4.60698977e-02f, 6.33884966e-02f, -5.95575497e-02f, -1.19381748e-01f, -1.76244840e-01f, -1.28110588e-01f, -1.07469317e-02f, 1.64929181e-01f, -2.61762172e-01f, 2.26357847e-01f, -4.60031331e-02f, 1.85891345e-01f, 3.60981189e-02f, 7.40305930e-02f, 2.95543298e-02f, 5.17263897e-02f, 1.56534165e-01f, -1.42062962e-01f, -3.27258278e-03f, 1.00137636e-01f, 2.30026528e-01f, 1.64493486e-01f, -6.83474392e-02f, -3.70540172e-02f, 8.60467255e-02f, -1.27849191e-01f, 2.10568160e-02f, 2.62637669e-03f, 2.11844027e-01f, -1.46469146e-01f, -1.28681421e-01f, 4.05270606e-02f, 1.71285465e-01f, 3.24804217e-01f, -9.09266546e-02f, -1.70643836e-01f, 8.39697197e-02f, 4.50738281e-01f, -7.41658285e-02f, -7.96651021e-02f, 3.05459023e-01f, 1.94285914e-01f, -1.35321230e-01f, 8.82019401e-02f, 1.34043187e-01f, -4.89432216e-01f},
  {2.49529779e-01f, -2.75188953e-01f, 1.10432126e-01f, -2.36594036e-01f, 3.55051793e-02f, -1.69734910e-01f, 3.18082683e-02f, 2.82880850e-02f, 2.40795966e-02f, -9.42712426e-02f, -8.86811987e-02f, -1.49574324e-01f, -2.24078625e-01f, 1.80454776e-01f, 4.89402376e-03f, -2.54280835e-01f, -1.06542617e-01f, -2.36133467e-02f, -9.75729153e-02f, 1.23874396e-01f, 1.08375832e-01f, -2.32679352e-01f, 6.23605810e-02f, 8.54580849e-02f, 2.73867138e-02f, -1.93411663e-01f, -7.36849681e-02f, 7.08722100e-02f, -1.12869047e-01f, 4.66209091e-02f, -1.55234590e-01f, 6.83917254e-02f, -7.89208934e-02f, 2.28048265e-02f, -2.24106297e-01f, -7.63629377e-02f, 3.52463387e-02f, -6.73871068e-03f, 1.24436125e-01f, -1.41320124e-01f, 1.44237220e-01f, -1.80655951e-03f, 1.49352044e-01f, 2.95294821e-01f, -2.99593667e-03f, 7.95764290e-03f, -1.20146923e-01f, 1.08055174e-01f, -9.44874436e-02f, -3.83292228e-01f, -2.23274902e-01f, -2.84585804e-01f, 1.07455291e-01f, -3.79990973e-02f, 1.03790849e-01f, 1.50045186e-01f, -2.43086040e-01f, 6.63994700e-02f, -1.60719961e-01f, -3.51583570e-01f, 5.78701645e-02f, 8.80552009e-02f, 6.79623261e-02f, -4.21873629e-02f},
  {5.05577400e-02f, -2.53804058e-01f, -8.36041197e-02f, 5.89870773e-02f, 7.86028057e-02f, 9.77517199e-03f, -1.82925966e-02f, 2.69997027e-02f, 1.78829685e-01f, 3.97312036e-03f, 2.27466404e-01f, 1.72944702e-02f, 2.05621123e-01f, 2.12518707e-01f, -1.09057374e-01f, -4.32723574e-02f, -1.00090295e-01f, 2.11173873e-02f, 2.02610701e-01f, 7.03906938e-02f, 1.34885728e-01f, 1.66771099e-01f, 7.96268284e-02f, -2.33773991e-01f, -9.85613465e-03f, -1.41577110e-01f, 5.79581447e-02f, -2.98995197e-01f, 2.24497914e-01f, 2.71439731e-01f, -1.49618328e-01f, -1.43386468e-01f, -1.15485534e-01f, -1.26421735e-01f, 5.93270920e-02f, -1.53558150e-01f, -9.27271098e-02f, 1.51248828e-01f, -1.25626013e-01f, -1.96687460e-01f, -1.33979768e-01f, -1.32224277e-01f, -1.71792358e-01f, -1.41038164e-01f, 6.13608181e-01f, -1.44495681e-01f, -6.13600307e-04f, -1.32452205e-01f, 1.58385292e-01f, 1.88373357e-01f, 5.76325208e-02f, 2.02563450e-01f, -1.41532198e-01f, 2.39690512e-01f, -1.13982365e-01f, -1.62640169e-01f, -1.97483882e-01f, -1.55882120e-01f, 1.38756990e-01f, -2.38246724e-01f, -6.06854260e-03f, 1.93336815e-01f, -3.04222196e-01f, -9.15721059e-02f},
  {8.48946348e-02f, 2.77972490e-01f, -7.59873539e-02f, -4.77908067e-02f, -1.17032282e-01f, -2.26885244e-01f, 1.48036972e-01f, 3.10011208e-01f, -7.91211799e-02f, -2.64257118e-02f, 1.98564872e-01f, -1.57779515e-01f, -1.04796827e-01f, 2.23974243e-01f, 1.62504673e-01f, 2.79068261e-01f, 2.61803299e-01f, -1.19836330e-01f, 2.20304709e-02f, 1.22653604e-01f, -1.97204575e-02f, -9.48918518e-03f, -1.90679446e-01f, 2.55578250e-01f, -1.84067577e-01f, 1.85457125e-01f, 3.13018747e-02f, 4.36011665e-02f, 3.19516152e-01f, -5.11085540e-02f, -1.90627798e-01f, 1.39922500e-01f, 1.65130690e-01f, 2.19995171e-01f, 1.33414641e-01f, 1.25610143e-01f, 5.80390692e-02f, 2.06275091e-01f, 2.34418556e-01f, -1.40344471e-01f, -1.75207019e-01f, 1.25061512e-01f, -1.19163044e-01f, 4.82134260e-02f, 7.26998076e-02f, -1.11969762e-01f, -1.28652066e-01f, -2.21289769e-01f, 5.90530820e-02f, -1.28326178e-01f, -9.68701094e-02f, -4.69855294e-02f, -1.62857115e-01f, -1.80646166e-01f, -2.70516992e-01f, 3.43153924e-01f, 3.65973301e-02f, 7.98873603e-02f, -7.28942035e-03f, -6.05365708e-02f, 3.45411189e-02f, 1.94245383e-01f, -5.86827919e-02f, -5.10017127e-02f},
  {-1.38680935e-01f, 1.14272013e-01f, -2.80499637e-01f, -4.61198710e-04f, -2.07955707e-02f, -6.95036724e-02f, -1.27493478e-02f, -6.65926188e-02f, -9.42777470e-02f, 1.35716364e-01f, 4.52095121e-02f, -1.35144904e-01f, -2.76997477e-01f, 1.96889173e-02f, -1.04302689e-01f, 5.42964458e-01f, -1.52091503e-01f, 1.60073474e-01f, -2.80792434e-02f, -2.04529583e-01f, -5.37340865e-02f, -3.97296175e-02f, -2.53422614e-02f, -3.46971303e-01f, -2.35639766e-01f, 1.77635089e-01f, -5.19873440e-01f, 1.37495130e-01f, 7.21702501e-02f, 2.13098824e-01f, -3.35736535e-02f, 1.80107385e-01f, 1.53031543e-01f, 2.05312565e-01f, 1.55689910e-01f, 1.80311590e-01f, -1.11474514e-01f, 1.81946278e-01f, -3.93804200e-02f, 1.58816800e-01f, -1.51848644e-01f, 2.21322984e-01f, 8.84046555e-02f, -1.05325617e-01f, -3.01409829e-02f, -1.56465262e-01f, -2.16641694e-01f, -1.69719070e-01f, 9.71115679e-02f, -5.57499975e-02f, -5.15282564e-02f, -1.03095166e-01f, -4.48134482e-01f, 2.59667367e-01f, 1.76284045e-01f, 1.40188918e-01f, -2.08706498e-01f, -3.48865360e-01f, 7.50838742e-02f, 2.99439371e-01f, -2.20577762e-01f, 3.98478091e-01f, -1.28262611e-02f, -3.65644097e-01f},
  {-1.25142157e-01f, -2.06054851e-01f, -3.64410393e-02f, -7.53673017e-02f, 2.71093640e-02f, 2.16153622e-01f, -1.34082511e-01f, -1.31860241e-01f, 1.44605726e-01f, -1.87954128e-01f, -7.88099766e-02f, 1.23249844e-01f, -2.71455079e-01f, 1.43641382e-01f, -1.87527418e-01f, -1.49593621e-01f, -1.07133530e-01f, -2.70306885e-01f, 4.92892973e-03f, -1.98185638e-01f, 3.18172783e-01f, -1.35738283e-01f, 2.69733556e-02f, -1.57562569e-01f, -2.49784309e-02f, -2.91208085e-03f, -1.41193882e-01f, 5.57321198e-02f, 4.95217219e-02f, -3.51261050e-02f, 4.00757231e-02f, 1.52645437e-02f, -6.51370510e-02f, -7.48851076e-02f, -1.73719749e-02f, 2.02965438e-01f, 1.17811762e-01f, -1.60822585e-01f, -3.66832793e-01f, -8.12314898e-02f, -3.77596729e-02f, -1.16417147e-01f, 1.01596482e-01f, 2.66572945e-02f, -6.90952092e-02f, 3.81040201e-02f, -5.69076426e-02f, 1.46035969e-01f, 2.71479726e-01f, -3.44832204e-02f, 2.44290352e-01f, 9.09444317e-02f, 1.11125141e-01f, 1.01365425e-01f, 7.06795603e-02f, -2.42136996e-02f, -6.06216453e-02f, 3.34099866e-02f, -1.61610320e-02f, -1.26744747e-01f, -1.45758063e-01f, -8.03862363e-02f, -9.24559981e-02f, 3.43465507e-01f},
  {6.91482499e-02f, 6.15385361e-02f, 3.23887840e-02f, -1.12683892e-01f, -2.54292358e-02f, -1.06944345e-01f, -6.24755099e-02f, 1.56578824e-01f, -3.98029499e-02f, 3.34528238e-01f, -2.57491350e-01f, 4.65136953e-02f, 4.91195694e-02f, 3.34829748e-01f, -1.69202983e-01f, 3.56111526e-01f, -9.92405787e-02f, 2.38836363e-01f, 9.21326131e-02f, -5.58089763e-02f, -4.35829312e-01f, 5.81903495e-02f, -5.30816801e-02f, 3.90392840e-02f, -2.04248905e-01f, -1.85056955e-01f, -1.03626922e-01f, 1.38416395e-01f, 1.78470716e-01f, -3.45895559e-01f, 2.19670787e-01f, 3.72884236e-02f, 1.79270104e-01f, -1.26439944e-01f, -4.71657850e-02f, -8.23509246e-02f, -1.83540314e-01f, -3.83591675e-03f, 3.59607369e-01f, -5.12284972e-02f, -1.67828754e-01f, 1.65559307e-01f, 2.60550361e-02f, 6.53960630e-02f, -1.87259719e-01f, 2.02119708e-01f, -3.86028737e-02f, -1.38764739e-01f, -7.90034160e-02f, 3.31534110e-02f, 8.35866854e-03f, 4.99131605e-02f, 3.76679674e-02f, -3.53332795e-02f, -1.72301248e-01f, 3.10904324e-01f, -1.16746739e-01f, 1.26856536e-01f, 2.56259501e-01f, -4.73018661e-02f, -1.54145032e-01f, 2.87866276e-02f, 1.29224807e-02f, -2.64609575e-01f},
  {-3.70052159e-02f, -1.75240859e-01f, -7.54327029e-02f, 3.97434011e-02f, -1.24887519e-01f, 2.52474397e-01f, 1.63012579e-01f, 6.10661842e-02f, 5.44088669e-02f, -3.21122289e-01f, 2.34058835e-02f, -1.46399647e-01f, 2.57796627e-02f, -4.25806604e-02f, -1.62870303e-01f, -1.16157763e-01f, -1.53033227e-01f, -8.82865638e-02f, -2.01534942e-01f, -8.30484331e-02f, 6.12171367e-02f, -2.03913134e-02f, -6.36690333e-02f, -4.71577123e-02f, 1.58026323e-01f, 1.22540463e-02f, 2.26440981e-01f, -6.95003048e-02f, 2.16987118e-01f, -8.97661448e-02f, -6.39726147e-02f, 1.29486114e-01f, -6.33216724e-02f, -1.30250648e-01f, -1.42010152e-01f, 6.39576837e-02f, 1.73728853e-01f, 3.88181172e-02f, -3.05810004e-01f, 2.03417223e-02f, -1.59304947e-01f, -1.91466793e-01f, 1.53312430e-01f, -4.69577089e-02f, -8.58509839e-02f, -9.11909342e-02f, -1.10292606e-01f, 3.08204070e-02f, 3.18456292e-01f, -1.22477688e-01f, 2.32450590e-02f, -1.62299365e-01f, 8.17474052e-02f, 1.48185745e-01f, 5.40941581e-02f, -3.10544431e-01f, -1.50069878e-01f, 1.63427934e-01f, 6.77198470e-02f, -3.64803731e-01f, -4.35933731e-02f, -2.56085157e-01f, -8.69872943e-02f, 2.98455387e-01f},
  {6.33625984e-02f, -2.09117517e-01f, 5.75348623e-02f, -4.65514977e-03f, 1.02770723e-01f, -1.38217077e-01f, -2.33749479e-01f, 1.90269336e-01f, -1.08627463e-02f, -2.35915050e-01f, -1.27295265e-02f, -6.43256754e-02f, -2.18882069e-01f, -4.99016754e-02f, 2.18971387e-01f, -9.99031961e-02f, -1.58176832e-02f, 4.11826745e-02f, 6.32572100e-02f, -1.71293825e-01f, 1.59935892e-01f, -2.62845829e-02f, 1.68073103e-01f, -1.08924769e-01f, 1.76425986e-02f, -2.32455999e-01f, -9.07286406e-02f, -1.56989947e-01f, -4.51680366e-03f, -1.58536717e-01f, 1.37803033e-01f, -3.79783124e-01f, -1.35801822e-01f, -1.19181588e-01f, 1.59344912e-01f, 6.97750822e-02f, 2.13911504e-01f, -1.09083161e-01f, -2.26448283e-01f, 1.89421058e-01f, -1.92399144e-01f, 1.92667902e-01f, 2.50527021e-02f, 4.39766841e-03f, 1.34243891e-01f, 1.30511522e-01f, -7.50777051e-02f, -7.00204372e-02f, 1.27338441e-02f, -1.27341390e-01f, 2.04591393e-01f, 2.28617370e-01f, 3.01828057e-01f, -6.98004384e-03f, 8.64360109e-02f, -2.77590513e-01f, -1.11685716e-01f, 1.76139027e-02f, 4.34212647e-02f, -4.01440293e-01f, -1.25768669e-02f, -1.94359437e-01f, -1.27814502e-01f, 2.73004681e-01f},
  {2.78694510e-01f, -2.63958797e-02f, 5.13643548e-02f, 9.69550535e-02f, 1.07384957e-01f, 4.15298305e-02f, 1.19736657e-01f, -1.06289061e-02f, 3.30595732e-01f, 6.81261644e-02f, -1.98168680e-02f, 1.96094379e-01f, -3.33224922e-01f, -1.34369642e-01f, 1.85275286e-01f, 2.51813352e-01f, 1.26971170e-01f, -3.80819850e-02f, 4.58137482e-01f, 1.28150871e-02f, 3.57066579e-02f, -9.24312696e-02f, -5.60190622e-03f, -6.71097338e-02f, 2.50480890e-01f, -5.90038225e-02f, 3.77293915e-01f, -6.78304881e-02f, 2.25059524e-01f, -2.45942157e-02f, 2.26156861e-01f, -1.29578069e-01f, 5.95336437e-01f, 1.60621136e-01f, 2.05162689e-01f, -1.60828363e-02f, 1.63331345e-01f, 4.84783128e-02f, -1.87052786e-01f, 1.17596418e-01f, -4.59291413e-02f, -4.67829704e-01f, -5.91490604e-03f, 1.10040851e-01f, 2.73246989e-02f, -2.39692569e-01f, -1.00399338e-01f, 1.22713476e-01f, 2.13718265e-01f, -2.91739911e-01f, -1.60993487e-01f, -5.09064615e-01f, 1.54854283e-01f, 1.44316062e-01f, 5.72446957e-02f, -3.43008339e-02f, 1.78278685e-01f, -1.27093494e-01f, -1.03806786e-01f, -1.91926494e-01f, -1.05011918e-01f, -2.46171027e-01f, 1.51905622e-02f, 1.42937556e-01f},
  {-2.61026263e-01f, 2.10244715e-01f, 1.71610385e-01f, -3.83503623e-02f, 9.83624235e-02f, 3.23360413e-02f, -2.40275085e-01f, 1.29381880e-01f, 5.56360371e-02f, 6.90738186e-02f, 2.12425757e-02f, -9.36027840e-02f, 2.91619431e-02f, -4.15759794e-02f, -1.74653567e-02f, 6.42413199e-02f, 1.06097043e-01f, 6.09461218e-02f, -3.29683609e-02f, -1.67701542e-01f, -2.37009272e-01f, -2.19699115e-01f, 3.19636725e-02f, 6.14924617e-02f, -6.37638988e-03f, -3.98310088e-02f, -2.73809172e-02f, 4.30156291e-02f, -8.61238316e-02f, 2.01400161e-01f, -1.08554162e-01f, 1.55760229e-01f, 1.44899003e-02f, 2.07070261e-01f, 1.90927014e-01f, -1.00294389e-01f, -6.35344386e-02f, 1.03281319e-01f, 3.53386998e-01f, 5.95482104e-02f, -9.53321904e-02f, 2.43501008e-01f, -1.96926430e-01f, 1.10675976e-01f, -4.30308171e-02f, -1.21799946e-01f, -7.53465071e-02f, -9.87196639e-02f, -3.06218415e-01f, 2.74400443e-01f, -1.43880114e-01f, 2.04505906e-01f, -7.52750859e-02f, -6.93779215e-02f, -1.91583559e-01f, 4.27056521e-01f, -6.50694445e-02f, 3.67643088e-02f, 2.71328151e-01f, 4.33747381e-01f, -2.03653947e-01f, 3.11993212e-01f, 2.68911179e-02f, -2.13421628e-01f},
  {-1.98875219e-02f, 2.00676814e-01f, 2.07121987e-02f, -1.28154397e-01f, 1.36563674e-01f, -1.83102325e-01f, -1.65115595e-01f, -1.07497856e-01f, -1.68782756e-01f, 1.90538824e-01f, 3.06798033e-02f, 6.18382990e-02f, -1.57483697e-01f, 2.40185320e-01f, 1.65181816e-01f, -5.04651628e-02f, 3.00363954e-02f, -2.97393017e-02f, 1.15789309e-01f, -1.18484199e-01f, 5.62179647e-02f, -1.41374454e-01f, -2.01379582e-02f, 7.98099563e-02f, -2.82730728e-01f, 1.19387753e-01f, -2.25515530e-01f, 1.15647778e-01f, 1.21273525e-01f, 2.55104870e-01f, -1.38857126e-01f, 1.72589675e-01f, 1.30506838e-02f, 1.82486579e-01f, -1.09975353e-01f, -1.49571449e-01f, -9.61033627e-02f, 3.48643516e-03f, 3.16153258e-01f, 6.09972561e-03f, 3.36838402e-02f, 1.00038469e-01f, 2.49220729e-01f, -1.80391893e-01f, -3.15352619e-01f, -1.70963392e-01f, -6.13262169e-02f, 9.52706560e-02f, -1.45236656e-01f, 3.18993926e-02f, 1.83343306e-01f, 4.53699492e-02f, -2.99016774e-01f, -3.88492756e-02f, -1.17948003e-01f, 4.64324772e-01f, 1.57671869e-01f, -7.96978548e-02f, 7.20380396e-02f, 3.32905412e-01f, 9.24832672e-02f, 4.55323160e-01f, 2.95165069e-02f, -1.39007598e-01f},
  {-2.14600399e-01f, 4.20884676e-02f, -2.17577606e-01f, -7.47063607e-02f, -8.18862170e-02f, -9.83778462e-02f, -1.62380353e-01f, 1.80317611e-01f, 2.29266249e-02f, 2.24530362e-02f, 1.34250835e-01f, -1.16344541e-01f, -2.06151053e-01f, 7.08989874e-02f, 1.32827796e-02f, 1.56782597e-01f, 1.11428082e-01f, 1.35902151e-01f, 1.67235479e-01f, -1.16327219e-01f, 6.77445233e-02f, -1.06048003e-01f, 4.06679045e-03f, -8.82804319e-02f, -2.92790920e-01f, 1.20958678e-01f, -8.65587518e-02f, 1.34342015e-01f, 8.97416472e-02f, 2.09926918e-01f, 1.66823387e-01f, 7.59985298e-02f, 4.81131580e-03f, 1.13066755e-01f, 1.05329826e-01f, -4.98891920e-02f, 6.58258200e-02f, 8.98427963e-02f, 3.19406152e-01f, 2.48207271e-01f, 5.36826290e-02f, 1.59957465e-02f, -6.16602227e-02f, -4.88058738e-02f, 1.79074615e-01f, 2.78817974e-02f, 3.59587744e-02f, -6.47688657e-02f, -2.32749015e-01f, 1.51838496e-01f, -1.02228433e-01f, 2.44094312e-01f, -2.09981233e-01f, -8.01401436e-02f, -7.01598823e-02f, 4.00616169e-01f, -6.75956979e-02f, -5.96237034e-02f, 1.35962501e-01f, 3.74655604e-01f, -1.97080880e-01f, 3.34501266e-01f, -1.72051266e-02f, -4.52506393e-01f},
  {1.33743539e-01f, 1.10983886e-01f, 1.75322667e-02f, -8.87090489e-02f, 8.10347274e-02f, 1.68385521e-01f, -1.28200725e-01f, 1.24194764e-01f, -6.28504008e-02f, -8.26424509e-02f, -8.62522051e-02f, 2.95038670e-01f, -1.99012473e-01f, -2.21674424e-02f, -1.40238181e-01f, 9.68739986e-02f, 2.00422406e-02f, 2.85972990e-02f, -4.87859249e-02f, -2.29917556e-01f, 4.98475283e-02f, -2.47905832e-02f, 2.92477161e-01f, 8.73509422e-02f, -2.01805443e-01f, 1.48546249e-01f, 3.12120289e-01f, -2.11528257e-01f, -1.95454117e-02f, 1.05294408e-02f, 2.53090113e-01f, -3.30929458e-02f, 1.04941819e-02f, -4.76896064e-03f, 6.53736666e-02f, 1.54703245e-01f, 1.00500256e-01f, -1.18168816e-02f, -4.47210044e-01f, 1.03993472e-02f, 3.23561102e-01f, -1.18850298e-01f, 2.78785765e-01f, 1.64014548e-01f, -4.24781702e-02f, -7.91990981e-02f, -1.31091282e-01f, 4.24584076e-02f, 2.86329299e-01f, 1.53286219e-01f, -1.71032816e-01f, 1.65614769e-01f, 2.81528145e-01f, -2.40542162e-02f, 2.32603088e-01f, -2.28046924e-01f, 1.95106879e-01f, -1.67666096e-02f, -1.64225131e-01f, -2.52289295e-01f, -2.45503113e-01f, -2.91101988e-02f, 1.45775378e-01f, 1.22573897e-01f},
  {5.79913780e-02f, 1.50384819e-02f, -1.19741252e-02f, 1.22563951e-01f, 5.50833531e-03f, 3.06639690e-02f, 2.24035047e-02f, 4.29182947e-02f, 2.33783931e-01f, -7.11471587e-02f, -2.21264437e-01f, 3.86095941e-02f, -1.67063892e-01f, -4.77490500e-02f, -2.00571835e-01f, 3.12721655e-02f, 3.03337127e-02f, -2.59260923e-01f, 1.54145733e-01f, 1.43054202e-01f, 2.57281661e-01f, -4.74212207e-02f, -1.39454588e-01f, 7.98363313e-02f, 7.51196072e-02f, 2.58481968e-02f, 3.45368177e-01f, -7.70332962e-02f, 2.37080246e-01f, 1.82763822e-02f, 1.84040412e-01f, -4.60770391e-02f, -1.48496017e-01f, 9.11431685e-02f, -5.73661178e-02f, -1.32865101e-01f, 1.42613217e-01f, -1.91457003e-01f, -4.66556638e-01f, 1.89005077e-01f, -3.61454114e-02f, 3.50831635e-02f, 1.85643971e-01f, 2.26892903e-01f, -7.19292439e-04f, 1.62973197e-03f, -2.54429281e-02f, -1.05243906e-01f, 3.11455131e-01f, -1.10575154e-01f, -9.33456048e-03f, -3.29547971e-02f, 3.13642293e-01f, 2.74649560e-01f, 6.59791231e-02f, -2.26168036e-01f, 2.71547697e-02f, 8.42243135e-02f, -1.46921307e-01f, -2.41981000e-01f, 1.51495874e-01f, -2.11855948e-01f, 2.54420619e-02f, 1.25676990e-01f},
  {1.93418324e-01f, 3.17588188e-02f, 1.68977361e-02f, -1.67623997e-01f, -8.14299583e-02f, -3.62425707e-02f, -1.94023803e-01f, 1.89830557e-01f, 2.99006272e-02f, -1.01851091e-01f, -1.24310553e-01f, -1.11327045e-01f, -4.24333662e-02f, 1.31257311e-01f, 8.99817199e-02f, 6.78000823e-02f, 2.80305028e-01f, 1.85079589e-01f, 4.38736640e-02f, -8.44197497e-02f, -2.99908996e-01f, -2.37306476e-01f, 4.55255359e-02f, -5.41103538e-03f, -1.41771272e-01f, 1.82043120e-01f, -2.60489374e-01f, 5.33046015e-02f, 2.14118406e-01f, -5.26297651e-03f, -2.46547554e-02f, -5.48521765e-02f, -1.19144544e-01f, -2.57323240e-03f, 7.88586289e-02f, -2.34427825e-01f, 8.92244279e-03f, 7.53535032e-02f, 2.80358076e-01f, 5.97010516e-02f, 1.30835801e-01f, -5.40593266e-02f, -1.29699111e-02f, -2.48327628e-02f, -2.44430214e-01f, 2.50007957e-01f, 1.04720913e-01f, -6.37230650e-02f, -7.07632229e-02f, -1.12943770e-02f, 1.69540197e-01f, 3.10946375e-01f, -5.08974865e-02f, -1.70743808e-01f, 1.69727057e-01f, 7.97557309e-02f, 2.84749299e-01f, -1.72730401e-01f, 2.45749220e-01f, 3.64497662e-01f, 1.51126757e-01f, -9.85947251e-03f, -2.95188669e-02f, -2.82721877e-01f},
  {-2.36901388e-01f, -1.36168316e-01f, 4.88217250e-02f, -1.88777789e-01f, -1.23015828e-01f, 3.28677803e-01f, -1.98927075e-01f, 1.65010095e-01f, 1.21769421e-01f, -2.10483628e-03f, -1.29589792e-02f, -1.35392621e-01f, 4.84640688e-01f, 7.41839260e-02f, -1.76594332e-01f, 2.85972506e-01f, -1.48899049e-01f, -3.86642851e-02f, -1.20094139e-02f, -8.31793994e-02f, 1.68230057e-01f, -1.44008696e-01f, 8.80470946e-02f, -1.12094276e-01f, -5.90964071e-02f, -4.05827276e-02f, -1.63247094e-01f, 1.82340369e-01f, -3.73481400e-02f, 3.11547369e-01f, 3.37359399e-01f, -1.58727124e-01f, 2.91871354e-02f, -2.49876246e-01f, 1.19234324e-02f, -6.85697421e-02f, 1.49009928e-01f, 3.04475967e-02f, 1.78880140e-01f, 8.35564267e-03f, 2.49179173e-03f, -1.64164707e-01f, -9.65761691e-02f, -8.53861566e-04f, 3.67193758e-01f, -4.65463325e-02f, 2.01708585e-01f, -1.32163063e-01f, -2.76422277e-02f, -7.27551430e-02f, -6.48546964e-02f, 1.45770341e-01f, 3.59833501e-02f, -3.78820330e-01f, -1.74491420e-01f, 1.09330155e-01f, 4.36163209e-02f, 9.35537964e-02f, -1.50154233e-01f, -1.28522262e-01f, -1.33401304e-01f, -3.52884568e-02f, -1.30282119e-01f, 2.20228493e-01f},
  {2.83074200e-01f, -3.21621895e-02f, -1.71911836e-01f, 4.00148630e-02f, -1.56101733e-01f, 1.83449283e-01f, 1.68072984e-01f, -5.43353595e-02f, -1.96166605e-01f, 4.57688496e-02f, -1.83881633e-02f, -2.20202431e-02f, -1.81304023e-01f, 2.17928514e-02f, 3.48685235e-02f, -3.43337953e-02f, -1.18295951e-02f, -3.33202519e-02f, 1.48880649e-02f, -1.25433356e-01f, 1.18895851e-01f, 1.12989135e-01f, 1.44809902e-01f, -1.11285061e-01f, -9.23688263e-02f, -5.18589653e-02f, 1.28773078e-01f, -2.79511046e-02f, 4.35646288e-02f, 6.69068620e-02f, 4.09305654e-02f, 7.44431019e-02f, -2.91956076e-03f, 6.25847578e-02f, 9.27340016e-02f, 1.64808840e-01f, 2.08338648e-01f, -9.13580209e-02f, -2.98601985e-01f, 1.57171488e-01f, 1.23479925e-01f, -2.07866669e-01f, 1.88395932e-01f, -1.73290059e-01f, -8.49524587e-02f, -5.86948916e-02f, -3.72284316e-02f, 8.72114673e-02f, -6.32137358e-02f, 2.69727379e-01f, -1.81969389e-01f, -2.29177833e-01f, 2.75149941e-01f, 2.27705404e-01f, -4.80812415e-02f, -8.39796662e-02f, -8.00548587e-03f, 7.11167529e-02f, -1.38976723e-01f, -3.81729007e-01f, -1.14008375e-01f, -3.48125249e-02f, 8.74765962e-02f, 3.34200054e-01f},
  {1.54642537e-01f, -2.49778647e-02f, 1.64939761e-01f, -1.52365774e-01f, -4.21150178e-02f, 1.31934304e-02f, -4.99035092e-03f, -2.29193211e-01f, 1.77278221e-01f, -2.88500309e-01f, -1.45317852e-01f, -7.02982843e-02f, 4.85275090e-02f, 2.45820940e-01f, -1.28820404e-01f, -2.90244937e-01f, 2.00372618e-02f, -3.45145166e-01f, 7.98145384e-02f, 1.79507256e-01f, 1.86535999e-01f, 4.81282026e-02f, -4.61638719e-02f, 2.40125991e-02f, -9.65372026e-02f, 2.34003693e-01f, -3.90904918e-02f, -4.08404730e-02f, -1.04077190e-01f, -3.35492283e-01f, -1.39172077e-01f, 5.11608720e-02f, 4.16644551e-02f, 1.83916375e-01f, 8.22394267e-02f, -8.95537436e-02f, 7.37813562e-02f, -7.25707114e-02f, -4.45069708e-02f, 7.48966681e-03f, -2.24312022e-01f, -1.58913001e-01f, -4.35883030e-02f, 1.90589383e-01f, 2.38807872e-01f, 7.51046091e-03f, -1.70567200e-01f, 1.15063809e-01f, 3.58316861e-02f, 2.18158439e-01f, -1.02481432e-02f, 1.40909910e-01f, 1.30783036e-01f, 5.76026365e-02f, 1.84902519e-01f, -2.45668918e-01f, -1.42125174e-01f, -1.15681022e-01f, 1.33482233e-01f, -4.15799886e-01f, 7.63870105e-02f, -3.07550073e-01f, 4.64785211e-02f, 8.98045450e-02f},
  {8.38901475e-02f, 1.11075200e-01f, -4.34153005e-02f, -2.59005427e-01f, 1.49783760e-01f, 9.82822664e-03f, 1.02700703e-01f, -9.42652449e-02f, -1.25071779e-01f, 9.78112221e-02f, -1.84825182e-01f, -9.68328118e-02f, 4.01871175e-01f, -6.05943128e-02f, -1.65547252e-01f, 1.08100899e-01f, 1.60343483e-01f, -7.96918571e-02f, 6.11942410e-02f, -6.01756619e-04f, -7.50288442e-02f, -2.25647122e-01f, 2.90715188e-01f, -1.02619443e-03f, 3.99396718e-02f, -1.67325512e-01f, -8.88473995e-04f, 1.02224544e-01f, 4.58053350e-02f, 1.98654272e-02f, 1.95364639e-01f, 1.69669136e-01f, 3.38599801e-01f, -1.96794942e-01f, 1.73117638e-01f, 2.26758234e-02f, -1.92841664e-01f, -3.91467400e-02f, 2.99747765e-01f, -3.16207647e-01f, 2.30193585e-02f, -1.83880538e-01f, -1.19086802e-01f, -5.81666417e-02f, -7.57208541e-02f, 1.89424440e-01f, 9.34025273e-02f, -2.85572678e-01f, -4.59277257e-02f, 1.76488504e-01f, 4.06937078e-02f, 3.20756406e-01f, -1.01537220e-01f, -3.23805183e-01f, 1.93494588e-01f, -8.78628790e-02f, 1.04925126e-01f, 1.23435065e-01f, 2.82932192e-01f, -6.11853637e-02f, -1.55584842e-01f, 2.19774456e-03f, -7.40276799e-02f, -1.48409735e-02f},
  {-7.88314119e-02f, 3.07548523e-01f, 3.71726626e-03f, 4.38643284e-02f, 5.79409525e-02f, 7.70644322e-02f, 1.09587863e-01f, -2.17635725e-02f, 1.26168236e-01f, -1.17163494e-01f, 2.85804626e-02f, -6.19090311e-02f, -9.06218588e-02f, 2.10789204e-01f, 3.47690105e-01f, -4.36262898e-02f, 9.66547132e-02f, -6.13049828e-02f, 9.64903831e-02f, -6.99054524e-02f, 1.44130185e-01f, 1.14722969e-02f, -1.54625282e-01f, 1.99258804e-01f, -2.12598160e-01f, -2.81289011e-01f, -1.65863503e-02f, -1.96029544e-01f, 1.51844397e-01f, 1.10680252e-01f, -7.62701035e-02f, -1.73896048e-02f, -8.59159008e-02f, -5.10286577e-02f, -1.32864237e-01f, 4.49942388e-02f, -5.16175898e-03f, 2.04645637e-02f, -1.44166723e-01f, 9.65487212e-02f, -2.19529927e-01f, 6.29406869e-02f, -1.74260825e-01f, 1.28671748e-03f, 1.09706596e-01f, 3.73291411e-02f, 4.00531180e-02f, -1.74673319e-01f, 2.42270008e-01f, 2.44423985e-01f, -5.97068295e-02f, -2.63402700e-01f, 1.11222275e-01f, 6.58881590e-02f, 3.13804746e-01f, -1.94599137e-01f, 7.18185529e-02f, -2.50293940e-01f, -1.05628319e-01f, -1.72376499e-01f, -3.34855006e-03f, -6.00595921e-02f, -8.39590803e-02f, 1.02181010e-01f},
  {1.56379834e-01f, 2.90320843e-01f, -2.22880289e-01f, -1.12330645e-01f, 2.74602678e-02f, -3.34762782e-01f, 5.25616407e-02f, -3.55782360e-02f, 7.11430563e-03f, 2.39625812e-01f, 2.07397386e-01f, 3.72416861e-02f, -2.99772441e-01f, 1.25211343e-01f, -4.21092957e-02f, 1.63174152e-01f, -4.67141047e-02f, 1.02393515e-01f, -6.71921670e-02f, -1.43540174e-01f, -9.48333591e-02f, -1.95005119e-01f, -1.61970422e-01f, 1.41767144e-01f, 3.25672477e-02f, -3.38009186e-02f, -2.49989539e-01f, -9.68633369e-02f, -1.53326362e-01f, 1.28779754e-01f, 3.87048461e-02f, -5.10363886e-03f, 2.60917284e-02f, 2.64749646e-01f, 2.05525622e-01f, 2.59520084e-01f, 3.26152742e-02f, 2.33979017e-01f, 1.90815479e-01f, -1.21753216e-01f, 3.80905019e-03f, 6.14690483e-02f, -1.71147641e-02f, 1.27377152e-01f, -5.71702095e-03f, 9.24520567e-03f, 2.03911532e-02f, -1.02905490e-01f, -8.53623375e-02f, -2.40590442e-02f, 1.14382185e-01f, 1.29649714e-01f, -2.22010463e-01f, -8.18376243e-02f, 1.71696078e-02f, 4.45472479e-01f, -4.68900092e-02f, -2.05134004e-01f, 4.52988148e-02f, 3.53276134e-01f, -1.52632371e-01f, 3.52493823e-01f, 1.04069553e-01f, -2.68014759e-01f}
};
static const float MLP0_BIAS[MLP0_OUT_DIM] = {
  -1.13931827e-01f, 4.31463309e-02f, -5.51075153e-02f, -9.37061682e-02f, 1.01887267e-02f, 2.89047509e-02f, 7.53307110e-03f, 1.73169710e-02f, -1.26930373e-02f, -1.72939211e-01f, -1.32720182e-02f, -3.32786925e-02f, 8.14531650e-03f, -7.44600222e-02f, -1.54990964e-02f, 2.26416867e-02f, -1.38008175e-02f, -1.63818270e-01f, 3.61903571e-02f, -1.00154907e-01f, -1.51302060e-02f, 9.23966393e-02f, -1.63372189e-01f, -2.46384703e-02f, 3.23066749e-02f, 1.65690389e-02f, -1.12377532e-01f, -1.61282852e-01f, 7.41957724e-02f, -2.99832467e-02f, -4.33618799e-02f, 3.32969544e-03f, 3.20390575e-02f, -8.87827761e-03f, -6.69353679e-02f, -1.07489206e-01f, -2.70599544e-01f, -5.33612221e-02f, 9.20882672e-02f, -1.46691933e-01f, -1.82666648e-02f, 4.16182205e-02f, -8.61451551e-02f, -2.18631849e-02f, -1.35965331e-03f, -9.48495939e-02f, -1.15587763e-01f, 1.26038352e-02f, 8.87093600e-03f, 1.07491031e-01f, 5.37033677e-02f, -2.27009788e-01f, 2.32635681e-02f, -5.20937927e-02f, -2.79413760e-02f, -1.32205978e-01f, -3.22670899e-02f, -1.81510374e-01f, -1.65979043e-01f, -1.27870038e-01f, -1.70695223e-02f, -1.49412647e-01f, -6.75453320e-02f, -8.97445306e-02f
};

static const float MLP1_WEIGHT[MLP1_OUT_DIM][MLP1_IN_DIM] = {
  {1.75855637e-01f, 6.28428161e-02f, -9.91855115e-02f, -4.91225660e-01f, 6.84659183e-02f, 9.63568985e-02f, 1.23017818e-01f, -8.96282569e-02f, 6.95887208e-02f, 4.62761074e-01f, 1.18760444e-01f, 1.18377797e-01f, 5.50745986e-02f, 3.65626931e-01f, -1.14236683e-01f, 9.30854976e-02f, -1.59085870e-01f, 2.05309123e-01f, 6.69788942e-02f, -1.97612002e-01f, 3.39398593e-01f, 8.72308984e-02f, 2.70248801e-01f, -1.21622995e-01f, 7.19052404e-02f, 7.79164433e-02f, -1.22140110e-01f, -6.85442328e-01f, 6.52721152e-02f, 8.89086798e-02f, 1.60202146e-01f, -1.54777065e-01f, 6.46866560e-02f, 1.17674708e-01f, 5.72003245e-01f, -1.73120171e-01f, -3.02836597e-01f, -1.26144722e-01f, 8.32102001e-02f, -1.79131910e-01f, -9.58514586e-02f, 6.90116733e-02f, -1.18171722e-01f, 2.37657025e-01f, 2.26631254e-01f, -2.00125605e-01f, -1.13710068e-01f, 9.95071083e-02f, -1.67165935e-01f, 6.86247423e-02f, 1.18958384e-01f, 2.36253873e-01f, -8.27522352e-02f, -1.17184527e-01f, -1.07503258e-01f, 1.47476792e-01f, 7.41688088e-02f, -2.02833012e-01f, -6.37599766e-01f, 1.43474996e-01f, 7.29782879e-02f, -3.47124279e-01f, 2.11593509e-01f, -1.74259961e-01f}
};
static const float MLP1_BIAS[MLP1_OUT_DIM] = {
  2.08625868e-01f
};

#endif /* MLP_WEIGHTS_FP32_H */
