/*
 * Auto-generated PRUNED model weights for LSTM-MLP SOC prediction (FP32 base)
 * Checkpoint: soc_pruned_hidden45.pt
 * DO NOT EDIT MANUALLY
 */

#ifndef MODEL_WEIGHTS_H
#define MODEL_WEIGHTS_H

/* Model configuration */
#define INPUT_SIZE 6
#define HIDDEN_SIZE 45
#define MLP_HIDDEN 64
#define NUM_LAYERS 1

/* LSTM input weights: [4*HIDDEN_SIZE=180, INPUT_SIZE=6] */
const float LSTM_WEIGHT_IH[1080] = {
    -0.24773365f, -0.22661316f, -0.02534973f, -0.03411379f, 0.42336211f, -1.30561745f, 0.27960289f, -0.07521989f,
    0.03308372f, 0.03688499f, -0.64668673f, 0.35002670f, 0.11482222f, -0.06272284f, -0.00410038f, -0.11530036f,
    1.58111763f, 0.17815986f, -0.45067057f, 0.05359838f, -0.12750340f, 0.15644217f, -0.42711681f, 0.95672244f,
    -0.12245166f, -0.08574846f, 0.01688031f, 0.00730442f, -0.18941252f, 0.07698555f, -0.07328092f, -0.15878716f,
    -0.01302525f, 0.02789070f, 1.23106658f, 1.17344451f, 0.17805393f, 0.07291535f, -0.08171625f, -0.01498717f,
    1.42306781f, -0.16847841f, -0.34815705f, -0.02470652f, -0.10366423f, -0.17407097f, -1.35740781f, 0.78908467f,
    -0.07111446f, 0.18258482f, 0.03327678f, 0.37610522f, 0.47800127f, 0.16395247f, -0.27955127f, -0.36162028f,
    -0.19348091f, 0.00973947f, 0.02837098f, 0.66791785f, 0.18642209f, 0.13800129f, 0.12690441f, 0.13250157f,
    0.52704531f, 1.62642026f, 0.04300323f, 0.06412698f, 0.04603895f, -0.09631880f, 1.57276845f, -0.45950893f,
    -0.06060160f, 0.04160524f, -0.10463008f, -0.06444974f, 0.34041354f, 0.87536502f, -0.07342986f, 0.10675380f,
    -0.27705091f, 0.33315933f, 0.36673334f, -1.08482277f, 0.23718643f, 0.26890361f, 0.04415378f, -0.07740423f,
    0.43272576f, 0.49745074f, -0.19031112f, -0.30816686f, 0.05079687f, -0.27078149f, 0.55882692f, -0.53912121f,
    -0.20779331f, -0.04347995f, -0.13203731f, 0.02951521f, -1.28183615f, 0.45860356f, 0.09706501f, -0.05265799f,
    -0.01858708f, 0.00523822f, -1.37488651f, 1.38516223f, 0.08361657f, 0.01127599f, -0.01417154f, -0.14130870f,
    0.95308679f, -1.51626658f, 0.09669396f, -0.03022265f, 0.06985673f, 0.03619051f, 2.24371147f, 1.59590340f,
    0.28274494f, -0.03030298f, 0.24335113f, -0.16017780f, 1.11177444f, -0.76534176f, -0.19603597f, 0.26873302f,
    -0.02329110f, -0.03396659f, -1.69810891f, 0.81008339f, -0.05671039f, 0.00509894f, -0.15365976f, 0.04141342f,
    -2.13043070f, 0.44754678f, -0.08425502f, -0.33244044f, 0.16371834f, -0.00923527f, 0.73043507f, -2.02300572f,
    0.27805978f, 0.22190984f, -0.10404185f, -0.14348173f, -0.63767505f, -1.42624879f, 0.17911771f, 0.01384364f,
    -0.02638450f, -0.15088956f, -0.49825543f, -0.89878416f, 0.27135101f, -0.16335705f, -0.13344537f, 0.06345654f,
    0.39341435f, 0.31184307f, 0.08142506f, -0.17095381f, 0.09158129f, 0.14631335f, 1.34955084f, -0.69970667f,
    -0.05252416f, 0.05190979f, -0.31672776f, 0.16496766f, 0.61458868f, 1.48748589f, 0.19333212f, 0.24512751f,
    -0.14749619f, -0.02892489f, -2.51544690f, 0.58867019f, 0.30070367f, 0.28656167f, 0.03150162f, 0.07905776f,
    0.03147356f, -0.20858057f, -0.18018392f, -0.26101938f, 0.07978580f, -0.11678179f, 2.19230556f, -1.43244612f,
    0.10847832f, 0.15006742f, -0.11395822f, -0.14727236f, 1.34990597f, -0.57797843f, 0.09503780f, 0.50928199f,
    0.09818827f, -0.03454594f, -0.71773642f, 0.14125577f, -0.06826362f, -0.09189513f, -0.12438013f, 0.05339343f,
    0.37776393f, -0.64459205f, 0.13698803f, 0.23231278f, -0.35328633f, -0.05925339f, -0.30234671f, 0.07796491f,
    -0.10583185f, -0.41972637f, 0.10529613f, 0.13962153f, 1.41792595f, -1.01730752f, -0.15705237f, -0.14198190f,
    -0.21550277f, 0.09277585f, 2.07085109f, -1.49562180f, -0.03681671f, -0.09795861f, 0.05508564f, 0.12476917f,
    1.40926802f, 1.13398218f, 0.19020747f, 0.02197971f, 0.25698173f, -0.21903306f, -0.12907343f, 0.45268711f,
    0.09284637f, -0.14091654f, 0.20397170f, -0.10788357f, 0.59731406f, -0.47597489f, 0.20873393f, 0.23251854f,
    -0.24496132f, -0.02758210f, 0.11054256f, -0.55055839f, 0.08944154f, 0.05810053f, -0.02466478f, 0.29172459f,
    -0.65406960f, -1.68477345f, 0.04637217f, -0.05241024f, 0.28098023f, -0.10319576f, 1.73383665f, -1.64671540f,
    0.08900660f, -0.07107785f, -0.00239791f, 0.05654546f, 0.58446938f, -0.95530480f, -0.37750795f, -0.10594067f,
    0.00320772f, -0.07674621f, 0.00820308f, -1.17683351f, 0.19073784f, -0.14791091f, 0.21031550f, 0.01808388f,
    -0.38777635f, 0.40670913f, -0.04411886f, -0.17292894f, 0.18021666f, -0.02536690f, 1.95448828f, 2.03874373f,
    -0.39885285f, -0.20475523f, -0.19537053f, 0.09195241f, -0.34918314f, -0.76056975f, -0.16784948f, 0.06315700f,
    0.11913829f, -0.23748815f, -0.21127841f, -0.80555332f, -0.25846192f, -0.19384132f, 0.05111809f, -0.07462145f,
    1.39610803f, 1.32513463f, 0.00721618f, -0.12347041f, 0.07513516f, -0.22460243f, 1.32649720f, 0.75910372f,
    -0.46455792f, 0.10967790f, -0.05706665f, -0.24933092f, -1.27221477f, 0.86898148f, -0.29483753f, -0.10384975f,
    0.13634901f, 0.36332136f, 1.52515316f, 0.01871362f, -0.01118590f, -0.08132047f, 0.01756454f, 0.06946047f,
    -0.23868114f, 0.04603301f, 0.27572992f, 0.10478345f, -0.04148080f, 0.08590557f, 0.79234815f, 1.14542580f,
    0.12664296f, -0.28515077f, -0.26289010f, 0.12399544f, 1.47858608f, 0.44725850f, 0.09580873f, -0.06337504f,
    0.22474231f, -0.00791982f, 0.71900010f, 0.91754061f, -0.09247383f, 0.08756715f, 0.33537924f, -0.22868519f,
    1.19862831f, -0.76703721f, 0.08025003f, 0.34890994f, 0.12184173f, 0.02514416f, 0.15960325f, 0.40145552f,
    -0.08268460f, -0.24845015f, -0.01349744f, -0.23354711f, 1.02123201f, -0.33509335f, -0.05142780f, 0.00553492f,
    0.11060864f, -0.17210494f, -0.97122645f, 0.14120884f, -0.08205064f, 0.10292024f, -0.04250947f, -0.03159817f,
    -1.06650317f, 0.97553742f, 0.23274699f, -0.21744590f, 0.12493506f, 0.09228185f, 0.83843350f, -1.53020048f,
    -0.17914018f, -0.16425207f, -0.13586369f, -0.26054013f, 2.57584453f, 0.90213013f, 0.00467087f, -0.05489959f,
    0.26482600f, -0.22041433f, 2.40929413f, -0.48580214f, 0.03171270f, 0.32670075f, -0.21482170f, -0.01345532f,
    -1.37213993f, 1.02996230f, 0.05166552f, -0.19491453f, -0.09467499f, -0.04340878f, -2.55841112f, 0.69984388f,
    -0.19808938f, -0.12273914f, 0.22601791f, 0.07909984f, 0.96298331f, 0.02818008f, 0.35491294f, -0.08428144f,
    -0.07252739f, 0.21591038f, -0.96279705f, -1.22403586f, -0.05047724f, -0.29884878f, 0.22302289f, 0.13267502f,
    0.08632351f, 1.12651491f, 0.22241659f, -0.10451236f, 0.09037590f, -0.18307331f, -0.07836009f, -0.27739236f,
    0.04068470f, -0.09780371f, 0.44393015f, 0.12126258f, 1.17346478f, -0.23978773f, -0.07199489f, -0.01089735f,
    -0.05101167f, 0.14279495f, 0.16666426f, 2.97402525f, -0.00820163f, 0.40818799f, 0.00610675f, -0.24534968f,
    -3.36000299f, 0.40035924f, 0.36137503f, 0.37820008f, -0.18588926f, -0.00298195f, 0.39718112f, -0.06466500f,
    0.12246075f, -0.35421729f, -0.08560744f, -0.07311634f, 2.56237507f, 0.62118697f, -0.03053012f, -0.13056770f,
    0.06625651f, -0.17669894f, 0.64426315f, 1.54422808f, 0.37045935f, 0.69993693f, -0.01252035f, 0.26300159f,
    -0.49712133f, -2.21535087f, 0.07023584f, -0.10164771f, -0.18037827f, 0.23792043f, 0.85586345f, 1.29810357f,
    -0.07833257f, -0.12440158f, 0.41528994f, -0.14725402f, 0.24834386f, -0.48460066f, -0.04889882f, -0.37700665f,
    0.14952871f, -0.07906217f, 1.90490270f, 0.16208550f, -0.11077546f, -0.19313836f, -0.08840147f, -0.00894921f,
    1.83206928f, 0.37636328f, -0.07371681f, 0.05583803f, -0.31168377f, 0.12480000f, 1.31832123f, 0.80400306f,
    0.02602465f, -0.14645374f, 0.02587876f, 0.09564799f, -0.16652977f, -1.42922068f, 0.16552386f, -0.04277397f,
    0.20380573f, -0.10580607f, 0.42047146f, -1.54090917f, 0.12455664f, 0.32120925f, -0.17181243f, 0.15484560f,
    -0.01652443f, -1.23387134f, 0.00493077f, 0.01745025f, -0.00627593f, 0.35949805f, 0.09631345f, -1.72059143f,
    -0.10727430f, -0.17352031f, 0.30507690f, -0.22507329f, 1.43758237f, 0.48451719f, -0.01919826f, -0.38664514f,
    -0.15181059f, 0.02348044f, -0.53780246f, -1.37491238f, 0.17355445f, 0.17743608f, -0.07796297f, 0.14239168f,
    1.85302603f, -0.10169979f, 0.00020177f, 0.14679843f, -0.13723589f, 0.19893831f, 1.06899214f, -1.17248380f,
    0.06340587f, -0.43168646f, -0.05660232f, -0.19555239f, 2.18589044f, -0.36989912f, 0.30496836f, -0.01271368f,
    0.07810424f, -0.01921437f, 2.80185127f, 1.66721094f, -0.22318439f, -0.10751205f, -0.06286400f, 0.14720611f,
    -1.65529466f, -0.28005406f, 0.18205985f, -0.21343367f, -0.06985288f, -0.10042375f, 3.20352173f, 0.67364210f,
    -0.17952448f, 0.25172457f, -0.05108882f, 0.13306072f, -2.65327740f, 0.57718253f, -0.17506187f, 0.09744268f,
    0.11260918f, -0.18453540f, -1.31733549f, -0.07512318f, 0.03271479f, -0.39573309f, 0.01460401f, -0.02866193f,
    -1.60672617f, 0.46367759f, 0.05759526f, -0.06074203f, 0.00128979f, 0.04746076f, 2.53576207f, 0.50601429f,
    0.32305294f, -0.04732091f, -0.12185415f, -0.21053293f, 1.87453222f, 1.12004209f, 0.02359093f, 0.20868196f,
    0.10032798f, -0.16442300f, -3.71610117f, 0.00598218f, -0.39326587f, 0.21004976f, -0.02452433f, 0.10628702f,
    -0.77255642f, -0.16838741f, 0.04116785f, -0.02229903f, 0.00258774f, -0.07732522f, -2.00932145f, 1.00957561f,
    0.31036800f, 0.12006427f, -0.00007554f, 0.01791126f, -0.63796198f, 1.31944823f, 0.21401544f, -0.18602057f,
    0.02492061f, -0.16075438f, 2.55572033f, 0.03959879f, 0.35108638f, -0.10291936f, -0.00345279f, 0.04198506f,
    1.81664777f, 0.46818972f, 0.26272035f, 0.17205620f, 0.09764255f, 0.02418175f, -0.75221533f, -0.24109109f,
    -0.14882997f, 0.18569604f, -0.11136255f, 0.06456878f, -0.12344372f, 1.01360834f, 0.15839274f, -0.28305548f,
    -0.05582775f, -0.09395669f, 3.03272510f, 0.25982949f, 0.26989165f, -0.16454053f, 0.07050370f, -0.22221451f,
    1.32286620f, -0.49882725f, 0.13478607f, -0.07576492f, -0.00292993f, 0.29453602f, 1.72718942f, 0.65267581f,
    -0.04439140f, 0.01105440f, -0.14967960f, -0.26719460f, 0.31876409f, -1.01821411f, -0.04593397f, -0.42228407f,
    -0.01743451f, 0.09050540f, 2.11292553f, -2.16916132f, 0.10198134f, -0.17593038f, -0.02982824f, -0.28418913f,
    -0.63881016f, -0.58217168f, 0.24150907f, -0.38169736f, -0.02912870f, -0.00788232f, 2.61352849f, -2.47091937f,
    -0.27794868f, 0.19948491f, -0.12549838f, 0.01971401f, -0.23200230f, 0.54329485f, 0.09641046f, 0.26199520f,
    0.03659845f, -0.11416402f, -0.84211296f, 1.13952291f, -0.18166897f, -0.45844063f, -0.18973152f, 0.06321525f,
    3.73312259f, -0.36657086f, -0.51527864f, 0.38425943f, -0.02424758f, -0.05826563f, -1.50148630f, 0.10649353f,
    0.07634930f, 0.15538107f, 0.14867033f, 0.19464129f, -1.45623446f, 0.04156681f, 0.18813267f, 0.28863323f,
    -0.10951772f, -0.11425883f, -4.41988850f, 0.76345187f, 0.31583676f, -0.07506820f, -0.28158769f, -0.04917439f,
    -2.41079903f, 0.91561949f, 0.11454792f, -0.42168882f, -0.16018966f, -0.08196605f, 0.78809452f, 1.03365481f,
    -0.16652448f, 0.04893947f, 0.02802946f, -0.07115417f, -3.39453459f, 0.76251864f, -0.07752877f, -0.20709349f,
    -0.05066838f, 0.08056100f, -0.06754465f, -1.42169070f, -0.11352087f, -0.44587272f, 0.11303916f, 0.11359909f,
    3.40309620f, -0.63618726f, -0.22429295f, 0.30847725f, -0.12677383f, 0.03651465f, -3.69061351f, 0.46051940f,
    0.07989633f, -0.18650281f, -0.03191036f, 0.06391288f, 4.59780598f, 0.71537483f, 0.04207082f, 0.04624737f,
    -0.00137563f, -0.44833153f, -0.65780091f, 1.24356627f, -0.18329607f, 0.05672756f, 0.01700497f, -0.12853333f,
    -1.04489875f, 0.74028283f, 0.06794843f, -0.06495990f, -0.02675817f, -0.07518100f, 1.31638002f, 0.18180370f,
    0.28050357f, -0.14743181f, 0.00255388f, -0.22123773f, 0.23091826f, -0.50557578f, -0.01463596f, -0.27974865f,
    -0.04606072f, 0.05278587f, 2.57341552f, -0.92824048f, 0.27737248f, -0.12146346f, -0.00963836f, 0.24098055f,
    1.63101661f, -0.65745014f, -0.50614810f, 0.01713679f, 0.08408090f, 0.10549886f, 0.62822002f, -1.01218033f,
    0.00660911f, 0.01967105f, 0.11525594f, -0.14510848f, 0.07989130f, 1.56070924f, -0.03605640f, -0.08493816f,
    -0.02516853f, 0.08307079f, 1.72091675f, 1.28658593f, -0.36797541f, 0.06175414f, -0.04374019f, 0.01568523f,
    -0.17912121f, 0.16582584f, 0.04747795f, 0.30495796f, -0.19813178f, 0.08648667f, -0.31681001f, 0.37809229f,
    -0.22839442f, -0.31424648f, 0.14196227f, -0.02931267f, 0.67389339f, 1.29312193f, 0.37473783f, -0.12770280f,
    -0.02762934f, -0.18796906f, 1.36018324f, 0.55182308f, -0.24318634f, 0.25626293f, -0.03181118f, -0.00463115f,
    -1.34231877f, 0.21980022f, -0.26512235f, -0.04207525f, 0.00740448f, 0.48375955f, 0.77175021f, 0.24078824f,
    -0.27654845f, 0.09930576f, 0.01775559f, 0.19455329f, -0.01879500f, 0.10418012f, -0.03715808f, 0.23314330f,
    0.07451802f, -0.09360868f, 0.42708656f, 1.09711277f, -0.12228175f, -0.06066874f, -0.25772417f, 0.03402152f,
    0.89889348f, -0.58728915f, -0.08908624f, 0.20562391f, -0.00490222f, -0.24236190f, 0.96050674f, 1.20119846f,
    -0.33898452f, 0.10563608f, 0.29309496f, 0.05902289f, 1.58924997f, -0.44939375f, -0.03569355f, 0.34498650f,
    0.01299987f, 0.09628651f, -0.19253685f, 1.20610535f, -0.19810840f, -0.26326701f, 0.10370809f, -0.32685325f,
    0.51407057f, -0.23632212f, -0.28332555f, 0.23222031f, 0.28983566f, 0.05236794f, -1.65175986f, 0.37935287f,
    0.07332071f, 0.31041375f, -0.16086461f, -0.06447208f, -1.30032861f, 0.70565933f, 0.16808566f, -0.27955306f,
    0.04654542f, -0.24547246f, 0.44264251f, -2.00209117f, -0.06163537f, -0.07786458f, -0.07413522f, -0.19575948f,
    2.52508473f, 0.58951324f, 0.24946262f, -0.29197922f, 0.19366513f, 0.08045236f, 0.88734323f, -0.31939822f,
    -0.09153071f, 0.29017556f, -0.00689775f, -0.07204087f, -0.68341756f, 1.04501092f, 0.10898420f, -0.03832563f,
    -0.09416293f, 0.13034184f, -1.79079723f, 0.60522747f, 0.19202748f, -0.14342330f, 0.10966914f, 0.12747408f,
    0.81337965f, -0.90861511f, 0.15562989f, 0.13200180f, -0.14862850f, 0.16981879f, -0.60965103f, -1.68106270f,
    0.38758016f, -0.13101603f, 0.06616278f, 0.02365715f, 0.17072412f, -0.01431702f, 0.10314898f, -0.42198464f,
    -0.16063784f, -0.13927835f, 0.59412295f, -0.25163132f, 0.12072457f, 0.06468274f, -0.07382738f, -0.02537074f,
    1.37710071f, -0.55461919f, 0.20110153f, 0.28853697f, 0.07858948f, 0.24855687f, 1.01864016f, 2.63129115f,
    -0.31827152f, 0.03901109f, -0.13563138f, -0.27944285f, -1.91521776f, 0.55347818f, 0.34904426f, 0.31613559f,
    0.23080930f, 0.11108167f, 0.28304821f, -0.13595963f, 0.14637473f, 0.02282526f, -0.13132329f, -0.12911303f,
    2.15869522f, -0.66470754f, -0.15647094f, 0.07813334f, 0.06418104f, -0.03096816f, 1.08529449f, 0.84065807f,
    -0.02562181f, 0.57111371f, -0.03093614f, 0.04572466f, -0.33473125f, -0.68902028f, 0.01323293f, 0.13192765f,
    -0.11070114f, 0.23024948f, 0.52014911f, -0.07375805f, -0.37828442f, -0.06333452f, 0.02920362f, 0.11110403f,
    1.09892261f, -0.23792675f, 0.14784053f, -0.02716892f, -0.13787416f, -0.11871015f, 0.63489467f, -0.18676323f,
    0.08984748f, 0.03865846f, -0.09219161f, -0.10360166f, 1.08114481f, -0.00167212f, -0.04457295f, -0.12497946f,
    -0.08682540f, -0.03607608f, 0.62249720f, 0.07245494f, 0.07101957f, 0.01975876f, 0.35153055f, -0.06195040f,
    0.31512478f, -0.11526679f, 0.24720782f, -0.13165517f, -0.18880768f, 0.06320332f, 0.59978986f, -0.92369229f,
    0.35602286f, 0.48916262f, -0.03657043f, 0.22963990f, -0.20681436f, -0.51119590f, 0.22853938f, -0.02733966f,
    -0.03546247f, 0.32271472f, -0.20710334f, -0.54711223f, -0.07483381f, -0.06160565f, 0.10839577f, -0.08561058f,
    2.08477950f, -0.36000609f, -0.04742633f, -0.22627060f, 0.09761195f, 0.12400717f, -0.25983489f, -1.14097822f
};

/* LSTM hidden weights: [4*HIDDEN_SIZE=180, HIDDEN_SIZE=45] */
const float LSTM_WEIGHT_HH[8100] = {
    -0.23216231f, 0.05806668f, -0.05307838f, -0.08944538f, 0.10646737f, -0.19982432f, -0.12063065f, -0.05289524f,
    -0.04600278f, -0.06119167f, -0.11249500f, -0.10476007f, 0.20399594f, 0.10682398f, -0.16204295f, -0.09506589f,
    -0.18285890f, -0.07700173f, -0.08673444f, -0.04907855f, -0.01635472f, -0.14689280f, -0.12252968f, 0.04633730f,
    -0.23411658f, 0.12257830f, 0.21003400f, 0.15770575f, 0.16496742f, 0.18522514f, 0.08393949f, 0.05813858f,
    0.09934788f, -0.10056680f, -0.09462871f, -0.27154672f, -0.10585326f, 0.11890604f, -0.06907021f, 0.16621082f,
    0.20866776f, 0.14054751f, -0.15696734f, -0.29273343f, -0.15976030f, -0.04544453f, -0.22620274f, -0.05115555f,
    0.19304846f, -0.19790556f, -0.03837121f, -0.13201362f, -0.19245942f, 0.25112730f, 0.26079649f, 0.12160336f,
    0.13639890f, -0.38512453f, -0.03528026f, 0.11506969f, 0.27951089f, 0.21823938f, 0.17431244f, 0.03533977f,
    -0.12238809f, 0.20353083f, 0.15921682f, -0.23615026f, 0.24093913f, -0.10489649f, 0.33177921f, -0.16722023f,
    -0.02379704f, -0.02727032f, -0.14176291f, 0.09735550f, 0.10662623f, 0.16438249f, 0.10035742f, 0.12832932f,
    0.26218694f, 0.12128092f, 0.07735374f, 0.25384730f, -0.32087174f, -0.20847702f, 0.00350356f, -0.20895952f,
    0.12250388f, 0.34997091f, -0.11130332f, -0.03747406f, 0.04575652f, -0.16563040f, 0.21540390f, -0.02129795f,
    0.12234274f, -0.05116711f, 0.02534446f, 0.00321474f, -0.06209506f, 0.08902987f, -0.03296850f, -0.20504484f,
    -0.01500068f, -0.21290284f, 0.08650033f, 0.21659496f, 0.16912778f, 0.01714877f, 0.03565056f, -0.00214567f,
    -0.05922464f, -0.11842559f, 0.37646556f, -0.08130653f, -0.10440865f, -0.02023345f, -0.05887213f, -0.13818911f,
    -0.13571285f, -0.10188594f, 0.04863254f, 0.09877292f, 0.04401036f, -0.03650539f, -0.04925523f, 0.19950283f,
    -0.01013378f, 0.01831442f, 0.07915259f, 0.19681540f, 0.20607281f, -0.00042850f, -0.00512656f, -0.11716585f,
    0.21190792f, 0.04717068f, -0.05396729f, 0.11945675f, -0.11675704f, 0.21792355f, -0.07426082f, 0.03467744f,
    0.04243617f, 0.03080814f, 0.02140643f, 0.14205924f, -0.17780708f, 0.04909205f, -0.17043486f, -0.16190687f,
    0.04379558f, 0.06164926f, -0.10393932f, -0.07597934f, 0.05004127f, 0.02955025f, 0.10517848f, -0.00131152f,
    0.02149259f, 0.06675790f, 0.16046183f, 0.33253753f, -0.04009096f, 0.14934340f, 0.04309030f, -0.20498569f,
    0.06496222f, -0.04484190f, 0.11133032f, 0.05063995f, 0.15170287f, -0.00629510f, -0.04315592f, 0.19715779f,
    -0.08990785f, 0.00474878f, 0.08515433f, -0.08375006f, -0.22483698f, -0.00058454f, -0.06607038f, -0.26660141f,
    0.28869784f, -0.31683692f, 0.08772102f, 0.03459661f, 0.11015584f, -0.02743578f, -0.25960347f, 0.04050774f,
    0.13805139f, -0.01725671f, -0.09594951f, -0.27349943f, -0.09206462f, -0.15342450f, 0.12538046f, -0.23160326f,
    -0.13248476f, -0.05052493f, 0.00939183f, -0.07217937f, -0.22832865f, -0.08684998f, 0.11187865f, -0.07337561f,
    0.17347568f, -0.16875970f, 0.24782869f, -0.13913016f, -0.12439295f, -0.06736571f, 0.15442076f, -0.03939234f,
    -0.14226204f, -0.11702598f, -0.10410635f, 0.04550776f, 0.14522028f, 0.14166589f, -0.15430920f, 0.00247607f,
    -0.10148470f, -0.10098947f, 0.04531227f, -0.01997142f, -0.12906568f, 0.14285752f, -0.01775061f, 0.07213315f,
    -0.04830747f, 0.25582653f, 0.15902594f, 0.01519763f, -0.14187087f, 0.02762654f, -0.03488095f, 0.04427205f,
    0.12342265f, 0.08344132f, 0.05769787f, 0.11961624f, 0.21759684f, 0.00203781f, 0.02898375f, 0.05886985f,
    -0.00186356f, -0.13268422f, 0.15165837f, -0.08806977f, -0.01825135f, -0.00461688f, -0.25169319f, 0.14257699f,
    -0.02007084f, -0.05919719f, -0.11786726f, 0.00387493f, 0.03879435f, 0.10856728f, 0.31052396f, 0.14370415f,
    -0.14649203f, -0.20200618f, -0.01279981f, 0.20197225f, 0.12137682f, 0.13305973f, -0.25410825f, -0.14753263f,
    -0.14681312f, -0.10664426f, 0.01871194f, 0.11899285f, -0.02374856f, -0.00700469f, 0.04828159f, -0.24089222f,
    -0.04286166f, -0.10565049f, -0.32371300f, 0.19079791f, -0.04239165f, -0.04954862f, 0.12829351f, 0.16337082f,
    0.01104062f, 0.27431476f, 0.05580762f, 0.16058314f, -0.04790046f, 0.02831271f, 0.12589204f, 0.06010571f,
    -0.18206081f, 0.16023308f, -0.00314871f, -0.08188337f, -0.00016271f, 0.10332723f, -0.01412590f, 0.04857332f,
    -0.01593349f, -0.07027137f, 0.26896152f, 0.05699968f, 0.24186206f, -0.05485515f, -0.01757836f, -0.15384553f,
    -0.16807342f, -0.16102965f, 0.15016305f, -0.07142111f, -0.11887793f, 0.04030252f, -0.12885554f, 0.33330774f,
    -0.07499774f, -0.05465147f, 0.17278174f, -0.11207684f, -0.18577906f, -0.06372030f, -0.19085829f, 0.11836942f,
    -0.01690663f, 0.17609632f, -0.00352659f, 0.00673319f, -0.14413904f, 0.17874546f, 0.03514327f, -0.27744883f,
    0.04753417f, -0.22842023f, 0.16475217f, 0.10803841f, 0.12199127f, 0.04340485f, -0.02632621f, 0.26489499f,
    0.08030489f, 0.16396266f, -0.10369606f, 0.07400689f, 0.17427449f, 0.06412340f, 0.08171126f, 0.28211451f,
    0.04814017f, 0.07289793f, 0.20040876f, -0.04961067f, -0.09948555f, -0.00408124f, -0.03738381f, 0.09926647f,
    -0.01465306f, -0.10383802f, 0.09981940f, 0.15310320f, 0.22989720f, -0.21302760f, 0.01559234f, -0.19256315f,
    -0.25381860f, 0.01293042f, -0.09597765f, 0.13595474f, 0.05779099f, -0.02018636f, -0.00574331f, -0.08731953f,
    0.00212956f, 0.25903967f, 0.12553875f, -0.16690490f, -0.11299597f, 0.09690102f, -0.13597082f, -0.10970716f,
    -0.08844475f, -0.07275159f, 0.32731915f, 0.13198230f, 0.11388952f, -0.06941313f, 0.06289425f, 0.05393950f,
    0.14893484f, -0.10389934f, 0.06009434f, -0.02672030f, 0.00801577f, 0.33246973f, -0.02974469f, -0.25339594f,
    0.17585962f, -0.04476826f, -0.07164894f, 0.01799502f, 0.04790370f, -0.16831380f, -0.09822936f, 0.17994533f,
    -0.24242827f, 0.22172186f, 0.03834963f, -0.04042079f, -0.01308098f, 0.15698592f, 0.06893466f, -0.11285041f,
    0.27192780f, 0.11817627f, 0.31021151f, 0.06864150f, -0.00055132f, -0.26975748f, -0.02391664f, -0.07746214f,
    -0.22772948f, -0.14088039f, -0.24251555f, 0.01571542f, 0.22258851f, 0.09501208f, 0.08532846f, 0.03845188f,
    -0.00548833f, 0.09845811f, 0.08181893f, 0.02329762f, 0.02670874f, -0.12509587f, 0.20300940f, 0.00622632f,
    0.22666311f, 0.19034597f, 0.08033513f, 0.07468845f, -0.12966344f, -0.15253416f, 0.11252811f, 0.04095133f,
    0.08497170f, 0.10830068f, -0.06959214f, -0.21718517f, -0.17984663f, 0.10326611f, 0.11504430f, -0.02118634f,
    -0.05354404f, 0.09325302f, -0.17299798f, 0.00768360f, 0.10024328f, 0.26940048f, -0.09797204f, 0.03091290f,
    -0.03948803f, 0.05121886f, -0.01366315f, 0.14279325f, 0.13058093f, -0.24952656f, 0.00304730f, -0.18923613f,
    -0.06370459f, -0.25913283f, 0.06473572f, -0.35433716f, 0.04531086f, -0.02621865f, -0.11807229f, -0.05652018f,
    0.02371639f, -0.01919248f, -0.17209606f, -0.18321402f, 0.14184353f, 0.08402161f, -0.05617584f, -0.08947220f,
    0.06802148f, 0.06656949f, -0.19115457f, 0.02460773f, 0.24077123f, 0.19823027f, -0.02376891f, -0.00762979f,
    0.11924589f, -0.01358363f, 0.15472278f, -0.09189555f, 0.06624051f, 0.21668144f, 0.01826000f, 0.05188328f,
    -0.04214121f, 0.11162989f, -0.10606320f, 0.17064126f, 0.00109876f, -0.14689283f, 0.06140142f, -0.21137758f,
    0.13854769f, 0.09957610f, 0.10847248f, -0.12880300f, 0.05274927f, 0.05188879f, -0.05005437f, -0.01638362f,
    0.02092738f, 0.13735949f, 0.13934483f, 0.10462897f, 0.08712454f, -0.03281664f, -0.16277720f, -0.11709537f,
    -0.03980708f, -0.11956846f, -0.13535967f, 0.17048641f, 0.02296400f, -0.00138845f, -0.19365683f, 0.13015920f,
    0.04605466f, -0.20460473f, -0.13924944f, 0.13767342f, 0.10784924f, -0.01876549f, 0.07275332f, 0.10965208f,
    0.03152094f, 0.07867099f, -0.00589264f, -0.06822556f, -0.21934526f, 0.06342090f, -0.17374320f, 0.12230200f,
    -0.17929296f, 0.26507968f, 0.12927219f, 0.21839575f, 0.16472439f, 0.13169657f, 0.15820426f, -0.09384653f,
    -0.06993317f, 0.08404884f, 0.10856868f, -0.11217205f, 0.23345162f, -0.01514588f, -0.08454736f, 0.03923439f,
    0.01350393f, -0.03814051f, -0.06784365f, 0.25236934f, -0.05127179f, -0.01867357f, 0.08060943f, -0.12412110f,
    0.05333696f, 0.09035175f, -0.05458495f, 0.31928271f, 0.08030852f, 0.02597252f, 0.04645417f, -0.06302914f,
    0.00070872f, 0.05631887f, 0.41902778f, -0.42705965f, 0.15080790f, 0.15942413f, 0.18537381f, 0.38580146f,
    -0.40136895f, 0.09328693f, 0.17102015f, 0.25693461f, 0.01827628f, 0.47448656f, -0.20822851f, 0.29716453f,
    -0.14339262f, 0.06647965f, -0.28705841f, -0.16148910f, -0.01656873f, -0.32584497f, -0.08590530f, 0.11298967f,
    -0.40044546f, -0.57828832f, -0.16293247f, 0.58023322f, 0.55797851f, 0.35776368f, -0.35772786f, -0.05857045f,
    0.05632643f, 0.30156916f, 0.19077443f, -0.44306439f, -0.50758183f, -0.26750976f, 0.22843330f, -0.21706392f,
    -0.49370489f, 0.62143975f, 0.47079602f, -0.09755509f, -0.25829384f, -0.48087904f, 0.04224757f, -0.13021654f,
    -0.04464070f, 0.29045996f, -0.06991569f, -0.21086259f, -0.01765359f, 0.04511296f, -0.37525260f, -0.16640404f,
    0.02816423f, 0.10072131f, 0.08491547f, 0.03362757f, 0.03762069f, 0.10819780f, -0.17882992f, 0.33345973f,
    0.19367233f, -0.21922006f, 0.08498196f, -0.05180305f, 0.12739366f, -0.25379434f, -0.12121101f, -0.05983993f,
    0.09392672f, 0.19012141f, -0.18938754f, 0.00992673f, 0.08296631f, 0.15012482f, 0.00163001f, -0.44525638f,
    0.10159138f, -0.09809658f, -0.26662943f, 0.18559766f, -0.05419726f, 0.29758513f, 0.18860760f, -0.18113947f,
    0.05034244f, -0.14484483f, -0.26803103f, 0.03825283f, -0.25892401f, 0.36492088f, -0.14558876f, 0.15230098f,
    0.12532364f, -0.20830533f, -0.08291032f, -0.08936240f, 0.10621109f, 0.11156866f, 0.08670060f, 0.03704955f,
    -0.02710840f, -0.05094018f, -0.09985994f, -0.05007422f, 0.12290537f, -0.09455107f, -0.05230016f, 0.12037864f,
    -0.07706407f, -0.00837832f, -0.03816636f, 0.29847798f, 0.01125788f, -0.12376528f, -0.09367439f, 0.02013144f,
    -0.16065939f, 0.18384625f, -0.12563452f, -0.06004934f, -0.04669209f, 0.01237560f, 0.24079286f, -0.02388153f,
    -0.14455301f, -0.09754593f, 0.19576573f, -0.12661307f, 0.13021097f, 0.31425574f, 0.31648606f, -0.05500177f,
    0.08444390f, -0.07566638f, 0.09822325f, -0.05284713f, 0.12872994f, 0.01925571f, 0.02074276f, -0.01522443f,
    -0.36440647f, 0.16737981f, 0.04996330f, 0.02181019f, 0.05220196f, 0.05625666f, -0.08824224f, 0.03111475f,
    -0.01315352f, -0.11206452f, -0.06503849f, -0.00367589f, -0.06444339f, -0.01682914f, -0.14445835f, 0.08771647f,
    -0.08193308f, 0.04778090f, -0.04986655f, -0.11123912f, -0.24588658f, 0.14885288f, 0.12706086f, 0.19206443f,
    0.02112141f, -0.17142741f, 0.15832171f, 0.02450173f, 0.11638919f, 0.12519775f, 0.10942551f, 0.12116998f,
    0.16018572f, -0.07096498f, -0.29582790f, -0.05432037f, 0.02189933f, -0.10569216f, 0.00844602f, -0.18829800f,
    -0.05707217f, 0.21917355f, -0.07422985f, -0.04866635f, 0.05141642f, 0.20488039f, -0.22543004f, 0.01478679f,
    0.20063975f, -0.09886254f, 0.43383047f, -0.08326393f, -0.20112363f, 0.00890039f, 0.18756863f, -0.18908490f,
    -0.24071784f, -0.02642578f, -0.02581737f, -0.05621717f, -0.15239599f, 0.02681413f, 0.05226826f, 0.12205594f,
    0.05873402f, -0.06683968f, 0.03498304f, 0.08868623f, 0.24469885f, -0.01072482f, 0.18304724f, 0.29338983f,
    0.15750307f, 0.11984839f, 0.28338009f, 0.09013911f, 0.25414148f, -0.07723202f, -0.02186289f, 0.06422967f,
    -0.09262239f, -0.18605149f, -0.09942885f, -0.13613163f, -0.00389174f, 0.11674278f, 0.08625480f, -0.10834375f,
    -0.06896846f, -0.15518762f, -0.27571675f, 0.01327251f, 0.08202574f, -0.17706183f, -0.14758700f, 0.18267922f,
    -0.00157017f, -0.02566816f, -0.17460245f, 0.17525572f, -0.04048388f, -0.04177364f, -0.05401706f, 0.11299627f,
    -0.15173380f, 0.16873762f, 0.06093039f, 0.31489620f, 0.09323528f, 0.02911158f, -0.04070657f, -0.23721445f,
    -0.00940928f, -0.01425653f, 0.25836623f, -0.01702162f, 0.10022051f, 0.15621221f, -0.09285977f, 0.36500320f,
    -0.02780019f, -0.10371956f, -0.01264645f, -0.06559724f, -0.09186585f, 0.07207931f, 0.00665860f, -0.19184089f,
    0.03650503f, 0.03203748f, -0.19170670f, 0.18478628f, -0.07190294f, -0.07150233f, -0.04528163f, -0.04328746f,
    -0.20431797f, -0.13179314f, -0.10939855f, 0.03687983f, 0.07223175f, -0.00221349f, -0.07954746f, 0.01467262f,
    -0.07220790f, -0.07341439f, -0.03916271f, -0.13754828f, 0.05936710f, -0.03251708f, -0.08370421f, -0.01548260f,
    0.05861950f, 0.10929963f, -0.00524494f, 0.10894420f, 0.05986109f, 0.01948299f, -0.17131633f, 0.03669457f,
    0.08523818f, -0.18152165f, 0.04472376f, 0.07948948f, 0.27627245f, -0.05237542f, 0.11099626f, -0.03787882f,
    0.21024662f, 0.03997171f, 0.02448532f, 0.06287557f, 0.12998535f, -0.32753721f, -0.03910398f, 0.33068550f,
    -0.04818039f, 0.22147009f, -0.20314385f, 0.02089610f, -0.20316072f, 0.20102987f, -0.14812037f, -0.14935449f,
    -0.16293232f, -0.04934585f, -0.12957524f, 0.10018609f, 0.02320615f, 0.18870667f, 0.06583128f, 0.05217455f,
    0.33921936f, 0.02382531f, -0.08707116f, -0.11328572f, 0.00732048f, 0.26390880f, -0.37307462f, -0.01257358f,
    -0.02381971f, -0.07771245f, 0.16733852f, 0.15791795f, -0.24505660f, -0.25564021f, 0.07641568f, 0.22767603f,
    0.18090273f, 0.14812717f, -0.02595795f, -0.02049214f, 0.02212006f, -0.20019449f, 0.05232373f, -0.14595345f,
    0.21515366f, -0.02757565f, 0.09250905f, 0.00143099f, 0.04496714f, 0.05088049f, 0.02374451f, 0.06588728f,
    0.01292320f, -0.04437639f, -0.05541988f, 0.07151160f, 0.00045615f, -0.01408767f, 0.07122175f, -0.07557319f,
    0.06189204f, 0.08543621f, 0.03291181f, 0.29312950f, -0.10276107f, -0.04066941f, -0.16807343f, 0.01316106f,
    -0.03754907f, 0.10649310f, 0.19782776f, 0.21822065f, -0.17574008f, -0.06359292f, -0.08064560f, 0.17149277f,
    0.24383846f, 0.07225922f, -0.31429437f, -0.08600254f, 0.14841650f, -0.04266030f, 0.26300883f, 0.25990677f,
    0.06428615f, 0.10918320f, 0.09098000f, -0.03954604f, 0.04585082f, 0.18104477f, 0.27183938f, 0.18274112f,
    0.01467725f, 0.02216840f, 0.00664869f, 0.11403883f, 0.08300778f, -0.05681051f, 0.19549668f, -0.11061067f,
    0.06864456f, 0.12410931f, -0.08706347f, -0.18987569f, -0.05532337f, 0.21888062f, -0.14677708f, -0.16583186f,
    -0.29383099f, 0.12014394f, -0.01485653f, -0.08859139f, -0.10806141f, 0.06393941f, 0.04200088f, 0.14271207f,
    0.24853949f, -0.02408359f, -0.00662849f, 0.04833868f, -0.05158839f, 0.00559161f, 0.17742641f, 0.36591306f,
    0.02074389f, 0.09729435f, 0.10789012f, -0.04725201f, 0.07324880f, -0.02993339f, -0.07729910f, 0.00597542f,
    0.13964638f, 0.02781950f, -0.07249465f, -0.10449402f, 0.00259324f, -0.07277002f, -0.03463988f, 0.22479679f,
    -0.10602950f, 0.01571387f, -0.02667254f, 0.02110549f, 0.02642356f, -0.24935418f, 0.01520977f, 0.18196520f,
    -0.09875441f, -0.21407823f, -0.06317986f, 0.00772438f, 0.09827864f, 0.19262451f, 0.01126570f, -0.01265474f,
    -0.07688262f, -0.21530831f, 0.11455909f, 0.12177025f, 0.05737413f, -0.01658133f, -0.08207022f, -0.16683584f,
    0.09889700f, -0.04887233f, -0.06314899f, -0.18616001f, 0.00935501f, -0.06514005f, 0.08298229f, -0.01631573f,
    -0.07040786f, 0.11209932f, -0.17660400f, 0.00054063f, -0.17607419f, 0.08357643f, 0.02937816f, -0.07096920f,
    0.04936105f, 0.06237303f, 0.04134929f, 0.17269522f, -0.06615704f, 0.08200309f, -0.01082620f, -0.13643861f,
    -0.23573479f, -0.11266987f, -0.00895727f, -0.18920228f, -0.08326658f, 0.06849419f, 0.24463978f, 0.18430218f,
    0.25391889f, 0.03220014f, 0.02900686f, 0.11048665f, 0.07228409f, 0.12269598f, -0.06575063f, 0.08608367f,
    0.07658657f, -0.00905078f, -0.00389846f, -0.14312966f, 0.23979850f, -0.02863356f, 0.14074691f, -0.06106853f,
    0.24989976f, 0.28664801f, -0.08213712f, -0.00948076f, 0.04590759f, 0.09153892f, 0.07756033f, 0.06039610f,
    -0.14079663f, 0.10814548f, -0.05550958f, -0.14045265f, 0.07540537f, 0.11927997f, -0.09446652f, 0.11576436f,
    0.22329846f, 0.08851217f, 0.19751269f, -0.02120836f, -0.03436324f, 0.05556199f, 0.09868430f, 0.14015327f,
    -0.06151990f, -0.04106205f, 0.15902366f, 0.41205046f, 0.10504449f, 0.12581833f, 0.05670612f, -0.13654324f,
    0.00183558f, 0.03442416f, 0.17566571f, -0.03618155f, -0.00162576f, -0.02757088f, 0.21620245f, -0.14420047f,
    0.24057992f, -0.07833473f, -0.22965023f, -0.20727836f, -0.02451096f, 0.00091197f, 0.18757701f, -0.01953724f,
    -0.07859968f, -0.08197346f, 0.01320897f, 0.09118393f, -0.03157689f, 0.08822162f, 0.12792489f, -0.01054915f,
    -0.16374083f, 0.12648919f, 0.01259934f, -0.14905232f, 0.07762436f, -0.19087951f, 0.08556164f, -0.31949520f,
    0.02495753f, 0.01262032f, 0.07306833f, -0.21100031f, -0.22133651f, -0.03590993f, 0.10538644f, 0.42633137f,
    -0.06031808f, -0.22725390f, 0.01182023f, 0.00927828f, 0.07458496f, -0.30349338f, -0.00276956f, -0.04371909f,
    0.15573625f, -0.02364570f, -0.00248798f, -0.06694175f, -0.13385357f, -0.01776549f, 0.03924599f, -0.09534887f,
    0.20708156f, 0.05947860f, -0.17593561f, -0.15928651f, 0.21315484f, -0.12573785f, 0.15266371f, 0.17040852f,
    -0.05690405f, 0.22329593f, -0.01585197f, 0.06494964f, 0.12937681f, 0.03470209f, 0.14086673f, -0.14168508f,
    -0.39087403f, -0.01243756f, 0.12488229f, -0.11077862f, 0.32253882f, -0.20768857f, -0.07839139f, 0.24753673f,
    0.33756909f, 0.06775662f, -0.12434616f, -0.37493441f, 0.16892031f, -0.07752460f, 0.04299159f, 0.21300313f,
    0.14752765f, -0.02028775f, -0.03895653f, 0.14858371f, 0.19300795f, -0.14761633f, 0.22691204f, 0.02144085f,
    0.28466108f, -0.35324997f, 0.04648679f, -0.01236501f, -0.32487145f, 0.06270389f, -0.06040363f, 0.14675923f,
    0.16053306f, 0.14432387f, 0.18152900f, 0.07214266f, -0.07365530f, 0.34156927f, -0.04834320f, -0.16879234f,
    0.23049808f, 0.11331614f, 0.12637572f, -0.10115770f, 0.20654027f, 0.14510904f, 0.08669933f, 0.42675883f,
    0.10008960f, 0.27511632f, 0.00004971f, -0.17063867f, -0.02308046f, -0.17653836f, 0.02363284f, 0.02262841f,
    -0.22169170f, 0.23919702f, 0.07088130f, 0.07523329f, 0.13532199f, 0.04549905f, 0.19156055f, -0.10531104f,
    -0.02059534f, 0.04142834f, 0.00943739f, 0.00384549f, 0.20421503f, 0.17205024f, 0.08418515f, -0.02746954f,
    0.03589257f, -0.14790404f, -0.13242424f, -0.09678285f, 0.04172827f, 0.09270688f, 0.00149335f, -0.01159445f,
    0.13841541f, -0.01074327f, 0.16589598f, 0.10674282f, 0.02179011f, 0.16289465f, 0.28403091f, 0.04147390f,
    0.00640683f, 0.04196188f, -0.07665112f, 0.02956144f, 0.04400308f, -0.02434555f, -0.01619827f, -0.11486048f,
    0.14280067f, 0.10018663f, -0.01731577f, 0.16201134f, 0.14806907f, -0.06648910f, -0.00228358f, -0.07347348f,
    0.01667429f, 0.19646639f, -0.06680312f, -0.09108701f, 0.03098938f, 0.01280996f, 0.01368779f, -0.09383192f,
    0.03186588f, 0.11547828f, 0.04975655f, -0.07021455f, 0.00865882f, 0.11632541f, 0.23572092f, 0.16156138f,
    0.12196055f, 0.08512931f, 0.11065923f, 0.02165828f, -0.14037843f, 0.08340528f, -0.16754732f, -0.10313090f,
    0.11387271f, 0.06177637f, -0.18727668f, -0.15676422f, 0.07212982f, 0.09466532f, 0.13892695f, -0.08757105f,
    0.02973783f, 0.21752389f, 0.15438457f, -0.11591092f, 0.02598359f, -0.14692938f, -0.04703012f, 0.10865998f,
    0.12905097f, 0.16450930f, -0.15182483f, -0.26936349f, 0.09134216f, -0.01180779f, 0.22717847f, 0.25884733f,
    -0.08039505f, -0.09105965f, -0.11540652f, 0.11600210f, -0.12891828f, -0.23221934f, 0.00809010f, 0.01111518f,
    -0.18433109f, 0.24280295f, -0.12606594f, -0.17660742f, -0.01829649f, 0.12679701f, 0.08959954f, 0.07807049f,
    0.07871164f, 0.00690174f, -0.16177291f, -0.09158585f, 0.05848423f, 0.09337884f, 0.04840631f, -0.09643813f,
    0.33028272f, -0.15490012f, -0.16034369f, 0.05774762f, -0.01905287f, -0.03641500f, -0.08185676f, 0.06525657f,
    0.01239459f, -0.12806082f, -0.29948604f, 0.03689570f, 0.21672602f, -0.01312587f, -0.03401063f, 0.14197536f,
    0.10162093f, 0.13759857f, -0.18315670f, -0.18010746f, 0.12307486f, 0.27713782f, 0.29076076f, -0.07334479f,
    -0.15180477f, -0.05648289f, 0.18532752f, 0.03534865f, 0.21528974f, 0.12003539f, -0.05653593f, 0.04134881f,
    -0.27626762f, 0.15718555f, -0.09147788f, 0.00947594f, -0.04264478f, -0.18335035f, 0.00062736f, -0.03561983f,
    -0.07847169f, 0.29077145f, 0.11727198f, 0.04365929f, 0.01765793f, 0.16503465f, -0.02818638f, 0.15855084f,
    0.17342852f, -0.17963126f, 0.16532299f, 0.03978528f, -0.30057347f, -0.08173436f, -0.01390855f, -0.10080557f,
    -0.31943393f, -0.00661320f, 0.05164721f, 0.13782914f, 0.02109605f, -0.04129719f, 0.09043611f, 0.15797843f,
    -0.03573558f, 0.04885983f, 0.07638568f, 0.06807108f, -0.05531561f, -0.02189736f, -0.03905727f, 0.07036185f,
    -0.05620034f, 0.01515527f, -0.00989216f, -0.04856260f, 0.13472003f, -0.12087833f, -0.21449867f, 0.07891716f,
    0.11783760f, 0.07493880f, 0.07926954f, 0.09857194f, -0.06131626f, 0.05613775f, -0.15716541f, 0.01136319f,
    0.17409874f, 0.05963400f, -0.02678117f, 0.08351506f, -0.28496000f, 0.13562194f, 0.11407140f, -0.25399393f,
    0.11576406f, 0.13354987f, -0.11751512f, -0.07834169f, 0.09722549f, -0.25488195f, -0.06177221f, -0.06432609f,
    0.18539470f, 0.05899616f, -0.10961237f, 0.02248701f, 0.03611136f, -0.03675807f, 0.18861437f, 0.14879620f,
    -0.20923106f, 0.00407178f, -0.04019324f, 0.00590781f, -0.31613356f, -0.11697968f, -0.20708019f, 0.00714537f,
    0.04342645f, -0.13619140f, 0.16702470f, 0.19440062f, 0.06008044f, -0.06136352f, -0.16643977f, -0.02578894f,
    -0.09245525f, -0.20685822f, -0.12122855f, -0.07835031f, 0.23473918f, 0.04056623f, -0.04621340f, -0.11417125f,
    -0.13882858f, 0.12222060f, 0.33610058f, 0.02188689f, 0.02520903f, 0.16550213f, -0.05497047f, -0.07668164f,
    -0.03420612f, -0.01465831f, -0.10290730f, 0.06392016f, -0.04431917f, -0.17562655f, 0.08586968f, 0.08794637f,
    0.14492583f, 0.07584483f, 0.03512198f, -0.03028124f, 0.21772289f, 0.19806623f, -0.15165544f, -0.09831239f,
    0.13125022f, 0.18555924f, 0.22162747f, -0.11403397f, 0.08263008f, -0.09411854f, -0.04884203f, -0.01323612f,
    -0.04476407f, -0.14468518f, -0.11517059f, 0.05273484f, 0.00866818f, 0.06041558f, -0.01180585f, 0.23569185f,
    0.20073380f, 0.01770247f, -0.14639330f, -0.07888389f, 0.09990317f, 0.06418227f, -0.06348918f, 0.39945948f,
    0.25018370f, -0.10857115f, 0.38849798f, 0.20181660f, 0.24780847f, 0.23246637f, -0.03710379f, -0.25176123f,
    0.19408134f, 0.26511291f, 0.23940687f, 0.24753949f, -0.23463616f, 0.21290326f, 0.22507150f, -0.05516401f,
    -0.10746203f, -0.19692267f, -0.15268461f, -0.33000073f, 0.25180566f, -0.02942560f, -0.22322264f, -0.43810150f,
    0.13684206f, 0.09244271f, 0.26234072f, 0.22901540f, -0.43402600f, -0.14282340f, 0.00907853f, 0.31758755f,
    0.16798995f, -0.15759897f, 0.02990123f, -0.30352676f, 0.01100073f, 0.13009888f, -0.22357853f, 0.30071360f,
    0.37423444f, 0.20300210f, -0.09764481f, -0.22247340f, -0.02297054f, 0.10710018f, -0.05395104f, 0.06557088f,
    0.08412685f, -0.06397033f, 0.01053619f, 0.02848100f, -0.05451582f, 0.05765532f, -0.13472858f, -0.15292720f,
    -0.00756536f, 0.04174897f, -0.06387109f, 0.02059943f, -0.07135794f, 0.21832341f, 0.19932893f, 0.02021704f,
    -0.06696811f, -0.13238551f, -0.15083382f, 0.00925834f, 0.04949668f, 0.06195770f, 0.15714927f, 0.03527139f,
    0.11326279f, -0.22048654f, 0.31441623f, 0.10266899f, 0.02326189f, 0.15567233f, 0.11361878f, -0.05297421f,
    -0.06547225f, 0.10911026f, 0.07941764f, -0.00883199f, 0.06467916f, -0.11840614f, 0.02929073f, 0.12549368f,
    -0.14351997f, -0.00758918f, -0.10700777f, 0.18252350f, -0.19032517f, 0.24521221f, 0.00779065f, -0.19158819f,
    -0.20506188f, 0.03577694f, 0.01293956f, 0.02697621f, -0.09151988f, 0.03915584f, 0.19977613f, 0.19587177f,
    0.00900927f, -0.36597636f, -0.23129207f, -0.06840412f, 0.17118599f, 0.13554044f, -0.04428426f, -0.10341232f,
    0.05512936f, 0.11438379f, -0.03876715f, -0.00072274f, -0.11038852f, 0.05543401f, -0.15636261f, -0.07197668f,
    -0.04208174f, 0.01573209f, 0.21841188f, 0.12248693f, 0.09191349f, -0.08840986f, 0.00528684f, -0.01002393f,
    0.09752750f, -0.01068719f, 0.07605331f, 0.22605899f, 0.19053280f, -0.06400483f, 0.04674086f, -0.13858472f,
    -0.10373197f, 0.01208697f, -0.04290046f, -0.01817981f, -0.08039179f, -0.07693891f, -0.34619471f, -0.14353572f,
    0.01057595f, -0.19730738f, 0.06190218f, -0.02199368f, -0.01427867f, 0.11880033f, -0.01069692f, -0.01654673f,
    0.25284272f, 0.06483419f, 0.03557855f, -0.01009738f, -0.10153300f, 0.01134427f, -0.15192871f, 0.08382854f,
    0.15277183f, 0.07544805f, -0.04018780f, -0.06644841f, -0.11727758f, -0.02880321f, 0.03097020f, -0.24317163f,
    0.05571414f, -0.14144792f, 0.12885377f, 0.26486275f, 0.10663470f, -0.02054741f, 0.05057291f, -0.09150604f,
    -0.07540236f, -0.08960063f, 0.16256581f, -0.21365085f, -0.15591879f, 0.02485592f, -0.00313032f, 0.15656501f,
    -0.25205645f, 0.00002843f, 0.06214578f, 0.09514023f, -0.13524070f, -0.17165115f, -0.06428862f, 0.14419553f,
    0.07288232f, -0.07000643f, -0.09863319f, -0.11156940f, 0.36549559f, 0.01956594f, -0.14699891f, 0.07158794f,
    -0.12898020f, -0.07722846f, 0.12065653f, -0.25015232f, -0.00451591f, 0.10468763f, 0.01966694f, -0.13268441f,
    0.08176130f, 0.18456595f, 0.14074095f, -0.06624730f, 0.11261095f, -0.04192327f, -0.01949855f, 0.03921327f,
    0.04361869f, -0.16362746f, 0.21366151f, -0.03807195f, -0.06744094f, -0.05298867f, -0.01151698f, 0.00400091f,
    0.00776029f, -0.00000602f, 0.00725892f, -0.22463092f, 0.11902308f, -0.25109184f, -0.13453551f, -0.04244955f,
    -0.05983538f, -0.04789444f, -0.13735625f, -0.00311922f, 0.02741789f, 0.27954063f, 0.24561594f, -0.15159307f,
    0.08110523f, 0.18854806f, -0.03275948f, -0.22308946f, -0.10468874f, -0.13602799f, -0.08954458f, 0.03636196f,
    -0.03863795f, 0.11102954f, -0.16968173f, -0.03145830f, -0.36031109f, -0.08019248f, 0.11495493f, -0.03401231f,
    0.09037916f, -0.47188008f, -0.00345906f, 0.03213317f, -0.00076326f, 0.08880078f, -0.15102686f, 0.10600331f,
    -0.01725823f, -0.27448314f, -0.07651908f, -0.06753581f, 0.12989265f, 0.20371059f, -0.08142456f, -0.09869388f,
    -0.08154738f, 0.21019262f, 0.02928893f, 0.00609811f, 0.12642011f, -0.11283663f, -0.03895358f, 0.08757267f,
    0.09485415f, -0.07237688f, -0.01094073f, -0.06701142f, 0.15855308f, -0.02554977f, 0.17526160f, 0.10733738f,
    0.19541514f, -0.11729115f, -0.13186504f, -0.04672146f, -0.03256226f, 0.02489805f, 0.20621631f, -0.05149275f,
    -0.18420096f, -0.04539819f, 0.08876861f, 0.02764716f, -0.11431972f, -0.09968536f, 0.00908641f, 0.02212711f,
    0.03289742f, -0.09922196f, 0.14752765f, 0.05490227f, 0.01138984f, -0.11877861f, -0.09750217f, 0.02559430f,
    0.15434684f, 0.09625129f, -0.17164463f, -0.10074370f, 0.03446583f, -0.15350604f, 0.11382642f, -0.06992012f,
    0.04660066f, 0.10930698f, -0.10623264f, -0.04486318f, 0.07482743f, 0.07945130f, -0.03213184f, -0.11361840f,
    -0.10539497f, 0.07081303f, 0.06976110f, -0.07017315f, -0.20349555f, -0.14110443f, -0.10744814f, -0.13155174f,
    -0.02243376f, -0.11222150f, -0.26103389f, 0.02435851f, 0.01909086f, 0.01849349f, -0.05843407f, -0.07019910f,
    0.17987442f, 0.15832610f, -0.12567782f, -0.14205183f, -0.16434748f, 0.07844026f, 0.05308105f, -0.12494068f,
    -0.10209853f, -0.02749292f, 0.17130107f, -0.13476306f, -0.19877051f, -0.21006188f, 0.18994096f, 0.11865172f,
    -0.23483539f, -0.08620617f, 0.22503968f, 0.09566721f, 0.04223498f, -0.28428483f, -0.06025612f, 0.10688717f,
    0.07050757f, -0.32034928f, -0.30876696f, -0.00379035f, 0.04587536f, 0.09141868f, 0.09489419f, 0.08822193f,
    0.09675382f, -0.17035942f, 0.13205031f, 0.01413483f, 0.02369522f, -0.03163309f, 0.08418832f, -0.19866800f,
    -0.04478595f, -0.12965676f, 0.08268768f, -0.14758307f, -0.10180311f, 0.13165811f, -0.07262916f, 0.22020744f,
    -0.05179241f, 0.18282822f, -0.08782492f, 0.16464518f, -0.15103379f, 0.16907072f, -0.07078120f, -0.17608501f,
    0.06136564f, 0.06938063f, -0.06338875f, 0.03818256f, -0.22812702f, -0.14219385f, -0.06774027f, 0.10510297f,
    0.21693143f, 0.11715423f, -0.17355451f, -0.01421145f, -0.15395153f, -0.03634198f, -0.24977800f, -0.14452781f,
    -0.03626131f, -0.16558665f, 0.09520182f, -0.00701854f, 0.03762829f, 0.15992683f, 0.06088075f, -0.05287614f,
    0.01061950f, 0.08881730f, 0.05123488f, -0.06374673f, -0.15400809f, 0.08105464f, -0.19934574f, -0.06007660f,
    -0.07873680f, -0.11173549f, 0.26445577f, 0.10273159f, -0.02834569f, -0.29594949f, -0.13989712f, 0.00087766f,
    0.04781378f, 0.26094121f, -0.06444971f, -0.03519461f, 0.03472877f, -0.12223715f, -0.27194738f, -0.06503791f,
    0.16181634f, -0.21942741f, -0.04744314f, -0.12782075f, -0.13358958f, 0.02614010f, -0.34223917f, -0.16343278f,
    0.02274738f, 0.01006208f, -0.16864935f, -0.08687013f, 0.06167829f, 0.14080556f, 0.04220789f, -0.23199680f,
    -0.04978075f, -0.15224974f, -0.01440489f, -0.01888842f, -0.08906704f, -0.09247315f, 0.00025356f, -0.27319267f,
    -0.04672315f, 0.05415490f, -0.02575412f, 0.23129866f, 0.19291945f, 0.27871528f, 0.33545738f, -0.03503099f,
    -0.03409226f, 0.05227473f, -0.10021614f, 0.03221520f, -0.25236428f, 0.01526810f, 0.06428975f, 0.01213300f,
    -0.01022462f, -0.03107763f, -0.22835356f, -0.27127108f, -0.26504225f, -0.14905159f, -0.06473660f, -0.09697571f,
    -0.00340591f, 0.14952935f, -0.10100729f, 0.12829168f, -0.18223605f, 0.05823321f, 0.24482641f, 0.18563770f,
    -0.00265734f, 0.16991045f, -0.40907302f, -0.10011767f, 0.16254324f, 0.37345636f, 0.19858825f, 0.14420366f,
    -0.30572477f, 0.04731004f, 0.17941070f, 0.22679791f, -0.25992081f, 0.06012001f, -0.05260341f, 0.10012710f,
    -0.24880606f, 0.05803901f, 0.00223090f, -0.14757441f, -0.03439799f, -0.15475625f, -0.05884919f, -0.01327212f,
    0.08345610f, 0.23771925f, 0.04851402f, -0.09324319f, 0.08934633f, -0.33366328f, -0.24943644f, -0.23614866f,
    -0.20794939f, 0.05771364f, 0.11835659f, -0.15712696f, -0.00101299f, 0.05994509f, -0.11858926f, 0.12908700f,
    -0.07409429f, 0.04679682f, -0.01967363f, 0.07613031f, -0.10327011f, -0.06243117f, 0.16083610f, -0.21861747f,
    0.02463894f, -0.17700359f, -0.13377683f, 0.16872296f, 0.29069421f, -0.06193314f, -0.11999380f, 0.05505930f,
    0.06251157f, -0.00072770f, 0.16666155f, 0.29586616f, -0.06473759f, -0.33720908f, -0.23504227f, -0.21760873f,
    0.06615509f, 0.04829005f, 0.06227227f, -0.04605230f, 0.23201716f, 0.10092034f, -0.06511796f, -0.00575095f,
    -0.03604028f, -0.09030875f, 0.11094110f, -0.12116886f, -0.11516362f, 0.18009780f, 0.00380535f, 0.15203685f,
    -0.10725013f, 0.14452724f, -0.10112402f, -0.19218299f, 0.03973973f, -0.12755330f, 0.15391074f, -0.01589427f,
    -0.10183901f, 0.14403506f, -0.10939268f, -0.15159556f, 0.28142026f, -0.08272112f, -0.05550946f, -0.06560961f,
    -0.27611417f, -0.21678956f, 0.17374244f, -0.10173885f, -0.07075851f, -0.03348159f, 0.10259201f, 0.00133954f,
    -0.09792219f, 0.07562818f, 0.36817983f, -0.08515805f, 0.34857807f, 0.01522750f, -0.02755641f, -0.20312436f,
    -0.13536222f, -0.05274075f, -0.23946068f, 0.19880465f, -0.03294190f, 0.07205911f, 0.10564232f, -0.13604797f,
    0.19117455f, -0.03537196f, -0.23193291f, -0.08892997f, -0.31835827f, -0.28515413f, 0.08958545f, -0.53681523f,
    -0.33075723f, 0.22140031f, -0.49562231f, 0.18752190f, 0.42940649f, 0.00487525f, -0.26914459f, -0.17667316f,
    0.18909095f, 0.25011095f, 0.22933023f, -0.16680968f, -0.38256940f, -0.17759123f, 0.18098013f, 0.05707240f,
    -0.50330681f, -0.43614587f, -0.40822911f, -0.23009004f, -0.36215475f, 0.10711282f, -0.22673595f, 0.35092720f,
    0.08127084f, -0.14650840f, 0.01585631f, 0.60082531f, 0.14432122f, -0.06341806f, -0.33236495f, 0.16070722f,
    -0.13687229f, -0.11957275f, 0.34224635f, -0.37348068f, 0.22125387f, 0.22010809f, -0.31612185f, -0.33851534f,
    -0.28103429f, -0.29053563f, -0.07398328f, -0.01638426f, 0.05164031f, -0.08259971f, 0.17168871f, 0.04370480f,
    -0.09924117f, 0.23402357f, 0.35318932f, 0.09859084f, -0.18391334f, -0.23710820f, 0.14497428f, -0.15860723f,
    -0.05092489f, 0.11135490f, -0.14623533f, -0.07769063f, 0.15966901f, 0.15907812f, -0.19568044f, -0.22978762f,
    0.06556790f, 0.21553287f, -0.01232309f, -0.06355031f, -0.03827016f, -0.04030157f, 0.14189482f, 0.00772073f,
    0.09857109f, -0.06119097f, -0.11986868f, -0.10490625f, 0.02458160f, 0.01757612f, 0.06356087f, 0.02847201f,
    -0.00637983f, -0.24593660f, -0.23742485f, 0.07983772f, 0.07642084f, 0.01870024f, 0.09956512f, -0.10333972f,
    -0.29639772f, 0.12047671f, -0.20760781f, -0.15314081f, 0.17782837f, -0.25375479f, 0.22205162f, 0.13025780f,
    -0.26231900f, -0.07828901f, -0.11837773f, -0.38801935f, 0.11234863f, -0.22792095f, 0.22433592f, 0.10588880f,
    0.12584199f, -0.06269475f, 0.22622366f, 0.23395689f, -0.04730547f, 0.16538507f, 0.08961941f, 0.15724792f,
    -0.05273398f, 0.05446168f, -0.08519697f, 0.11081014f, 0.04424372f, -0.01705271f, 0.02799842f, -0.06935521f,
    -0.14256872f, 0.08965410f, -0.01114788f, 0.36885047f, 0.09650293f, 0.09042015f, 0.25602329f, -0.11215189f,
    -0.06777117f, -0.02390958f, -0.02619124f, -0.00899894f, -0.00565923f, 0.07119976f, 0.03919061f, -0.25992602f,
    0.31721717f, -0.23551103f, 0.00796098f, 0.11012587f, -0.17808072f, -0.30593088f, -0.31886765f, -0.18657224f,
    0.21439788f, 0.22453992f, 0.02810666f, -0.24355954f, -0.28425893f, 0.05187686f, 0.13312939f, -0.18945032f,
    -0.16102985f, -0.26705244f, -0.01140251f, -0.03317129f, -0.09828350f, -0.03093599f, 0.05258865f, -0.19622301f,
    0.22883749f, 0.14557649f, 0.29442975f, 0.00853955f, -0.17422925f, -0.07027362f, 0.00341967f, 0.18292055f,
    0.21175267f, 0.07501353f, 0.17224054f, 0.02710383f, -0.15969212f, -0.11418534f, -0.22914900f, -0.05750585f,
    0.00611728f, 0.13908169f, -0.13481377f, -0.05169553f, 0.21854714f, 0.10891588f, -0.23780419f, 0.03068188f,
    -0.23491989f, -0.48026526f, 0.00322701f, -0.19290027f, -0.22449023f, 0.22879663f, 0.02362233f, 0.03469545f,
    -0.03333453f, -0.24328536f, 0.14368998f, 0.23836799f, -0.25466290f, -0.06535707f, 0.01980932f, -0.29967874f,
    -0.10479134f, -0.21030436f, 0.07294149f, 0.27197379f, -0.09384440f, 0.18858331f, -0.05895098f, 0.35733005f,
    -0.08697919f, -0.12137318f, -0.30506068f, -0.03882704f, 0.30870044f, 0.03276749f, 0.38423559f, 0.23149060f,
    -0.29989603f, 0.08536769f, -0.07502593f, -0.34848124f, -0.05963115f, -0.08275528f, -0.12288273f, -0.10257171f,
    0.12757030f, -0.00096076f, -0.00264039f, -0.05471714f, 0.00436893f, 0.27422228f, 0.23375539f, -0.03028567f,
    -0.20919080f, 0.17062719f, -0.10600580f, 0.43169430f, -0.27566376f, 0.08680256f, -0.05365788f, -0.06810274f,
    -0.13163596f, -0.13232274f, 0.06924901f, -0.11571006f, -0.07650330f, 0.23188546f, 0.33374923f, -0.02885874f,
    -0.16788584f, -0.17205292f, 0.11585851f, 0.19318867f, -0.04074390f, -0.01620042f, 0.02734743f, 0.12725873f,
    0.00526301f, -0.02021613f, 0.03841233f, 0.20805740f, 0.10987838f, 0.04648773f, -0.22570820f, 0.08608690f,
    -0.02861353f, 0.00996726f, 0.31078929f, 0.06678876f, -0.17676584f, 0.07092120f, 0.21199208f, 0.24379399f,
    -0.09106963f, 0.11890928f, -0.01435926f, -0.38077360f, -0.21921919f, 0.11445416f, 0.17824486f, -0.17963214f,
    -0.05677867f, -0.40863553f, -0.14707972f, 0.17291197f, 0.01998628f, -0.04986906f, -0.21863239f, -0.02449782f,
    -0.04648409f, -0.09615197f, -0.01077322f, 0.22274444f, -0.12490764f, -0.09863314f, -0.17921640f, -0.06192088f,
    0.20142685f, 0.08072751f, 0.10408361f, -0.11009453f, -0.06640556f, -0.03040086f, 0.14949776f, 0.08251509f,
    0.01091613f, -0.02278858f, 0.05869943f, -0.25219512f, -0.02566570f, 0.07930762f, 0.08666512f, 0.03638814f,
    0.00734308f, 0.04267132f, 0.03799885f, 0.17876023f, 0.09353671f, 0.29782861f, -0.04451997f, 0.16202512f,
    -0.05678228f, -0.10514652f, 0.10061439f, -0.06210418f, 0.04934416f, -0.05440678f, -0.17025758f, 0.10790373f,
    -0.19062339f, -0.07542586f, -0.15368263f, 0.25916028f, 0.06115544f, -0.03872019f, -0.13468482f, 0.19657916f,
    0.06106419f, 0.19785191f, 0.04603216f, -0.09615691f, -0.03167020f, 0.29088920f, -0.06033867f, -0.13906765f,
    -0.25491861f, -0.04626091f, -0.25986227f, 0.08522575f, 0.26896793f, 0.02862815f, 0.01745900f, -0.31222150f,
    0.00368099f, -0.14094847f, -0.32528830f, -0.03272086f, 0.17812322f, 0.01433000f, -0.26933116f, 0.17362836f,
    0.15476602f, -0.07816517f, -0.02806542f, -0.20615968f, 0.15068501f, -0.20893660f, -0.08517666f, -0.22167340f,
    -0.12067241f, -0.15256453f, 0.33742079f, 0.16357912f, 0.09284360f, 0.26978046f, 0.22140527f, -0.10561013f,
    -0.17418450f, 0.18649343f, 0.19106933f, 0.06496860f, -0.10426623f, 0.01245586f, -0.05854306f, 0.00222277f,
    -0.02496257f, -0.15444742f, -0.03946729f, -0.05221253f, 0.26435918f, -0.03689150f, 0.07733732f, 0.10234126f,
    -0.24288023f, 0.08617425f, 0.18632685f, 0.05330354f, 0.16101579f, 0.11089639f, -0.13458306f, 0.25304848f,
    0.09515170f, -0.01397222f, -0.40349278f, -0.76481462f, 0.05580720f, 0.14000246f, -0.16576654f, 0.20514667f,
    -0.76047224f, 0.36550951f, -0.11298218f, -0.54387975f, -0.54087776f, -0.04174732f, -0.43494692f, 0.22787946f,
    -0.35591662f, 0.13737933f, 0.16631302f, 0.45958868f, -0.13719921f, 0.02356998f, 0.37717569f, 0.12134460f,
    -0.28675085f, 0.36748159f, 0.11385804f, -0.10641383f, -0.42760283f, -0.43318066f, -0.57638890f, 0.77611005f,
    0.26584139f, -0.11159200f, -0.42822561f, -0.05736372f, 0.43833402f, 0.01623129f, 0.64917058f, 0.15225357f,
    0.43002349f, 0.21903776f, -0.27934349f, -0.32774699f, -0.12688071f, 0.43298453f, 0.36738673f, 0.14859746f,
    -0.06380763f, -0.20655078f, 0.15135188f, -0.34056714f, -0.19113620f, -0.18633911f, 0.03514975f, -0.25011778f,
    -0.31800079f, -0.18968029f, -0.13219889f, 0.04475589f, 0.08292378f, -0.12517992f, 0.02125125f, -0.08918186f,
    0.15327737f, 0.17203575f, -0.25373706f, 0.05308703f, 0.13926587f, -0.02021710f, -0.05219702f, -0.09566051f,
    0.06119078f, 0.02381920f, 0.17049350f, -0.14328185f, -0.06451359f, 0.10837725f, 0.33524096f, 0.23118240f,
    -0.22029300f, 0.15143257f, -0.19021550f, -0.17237173f, 0.02003846f, -0.00459656f, -0.02892405f, 0.04446432f,
    -0.13462590f, 0.03939267f, -0.02376371f, 0.04730942f, -0.10243724f, -0.15189134f, 0.21727253f, -0.07377956f,
    0.01403652f, -0.14829615f, -0.00190496f, 0.00140490f, 0.00504087f, -0.06377247f, -0.07759160f, 0.00115786f,
    0.00364822f, 0.03171983f, -0.07998871f, -0.16135654f, -0.07434582f, 0.10020118f, 0.19298349f, -0.19848192f,
    0.08579491f, -0.03884547f, 0.21368262f, -0.04323098f, 0.14003031f, -0.06841908f, -0.14827563f, -0.28351986f,
    0.05853401f, 0.08379011f, 0.22330983f, 0.01594544f, -0.08792408f, -0.19942042f, -0.03524140f, 0.11364621f,
    -0.01440800f, -0.03190676f, -0.00768086f, 0.24621797f, -0.15039721f, -0.09775864f, 0.30932173f, 0.02442839f,
    0.02644085f, 0.01787922f, -0.07396401f, 0.14031556f, -0.00084488f, 0.03901574f, -0.04542152f, 0.03186322f,
    -0.05021615f, -0.50561571f, 0.06143059f, -0.21339105f, 0.04656074f, -0.10318003f, 0.06835258f, -0.15571786f,
    0.17688946f, 0.08199418f, -0.02740399f, 0.04516611f, -0.26697692f, 0.08270372f, 0.15023966f, -0.23145890f,
    0.10128789f, -0.06829955f, 0.14414100f, -0.05919024f, -0.09472466f, -0.19098756f, -0.03504786f, 0.31864211f,
    0.19969153f, 0.00087409f, -0.34972998f, 0.35631821f, -0.14550093f, 0.01311126f, 0.14363164f, -0.14482978f,
    -0.08442964f, 0.12055932f, -0.01269264f, -0.39638317f, 0.12164534f, 0.04018492f, -0.18474345f, 0.00441008f,
    -0.22656395f, -0.05489037f, 0.19463262f, -0.08672191f, -0.10384295f, 0.15621608f, 0.13738106f, -0.23247187f,
    -0.08128111f, 0.28095862f, -0.09989724f, 0.44814324f, -0.04805489f, -0.00858997f, -0.33744565f, 0.23143882f,
    0.12630405f, -0.25688034f, -0.00638693f, -0.20211335f, -0.09990870f, -0.04297968f, 0.28533173f, -0.04381784f,
    0.05879762f, 0.03095720f, -0.13363224f, 0.20297407f, 0.00845224f, 0.23474984f, -0.00767412f, 0.14883359f,
    0.37094676f, 0.16074765f, 0.33005846f, 0.42591697f, -0.17738028f, 0.14398727f, 0.07888186f, -0.18062246f,
    -0.03071143f, -0.13525739f, -0.21657614f, 0.22591829f, -0.13769089f, 0.18663722f, 0.42972213f, -0.18827976f,
    0.13019262f, 0.03369009f, -0.25258157f, -0.40710548f, 0.18652926f, 0.08562231f, -0.39415854f, -0.05448498f,
    0.13780595f, 0.16111732f, 0.09260323f, -0.06062840f, 0.15570998f, -0.15060736f, 0.13256136f, 0.01423536f,
    0.13316123f, -0.30842903f, 0.13841856f, -0.02227345f, 0.35979888f, -0.10505296f, -0.02369122f, 0.20158143f,
    -0.02898857f, 0.02922351f, 0.06288908f, 0.28915751f, 0.09948574f, -0.04235255f, 0.13380052f, -0.09943391f,
    0.15741271f, 0.02961665f, -0.03819103f, -0.03739638f, -0.07248854f, -0.13736670f, 0.01015700f, 0.07087343f,
    -0.29346266f, -0.18998839f, 0.17072427f, -0.17289467f, 0.10169967f, 0.04723635f, -0.11645520f, 0.16373713f,
    -0.00200436f, -0.11124271f, -0.18813418f, -0.24440032f, 0.03532869f, 0.23464027f, 0.01403436f, -0.18834056f,
    -0.17913185f, 0.03423482f, 0.19916309f, 0.18844146f, 0.00219593f, -0.24581052f, 0.03717677f, -0.14979073f,
    0.18299139f, 0.13726941f, 0.18417005f, -0.16540037f, 0.16963701f, 0.14106704f, 0.14190271f, -0.18613376f,
    -0.28006631f, -0.03767795f, -0.06667634f, -0.15658322f, -0.01836235f, 0.28330493f, -0.00337191f, 0.15889840f,
    -0.13605224f, 0.04080850f, -0.08058284f, 0.00934594f, -0.07369034f, -0.05989582f, -0.30576441f, 0.09564389f,
    0.23670921f, -0.16665694f, 0.08587316f, -0.23431559f, 0.30538994f, -0.18688081f, -0.16914611f, -0.14168569f,
    0.06389485f, -0.09249818f, -0.23141749f, -0.21087162f, 0.11081742f, -0.19045906f, 0.18084539f, -0.09594330f,
    0.09860232f, 0.36476919f, -0.00947140f, 0.03730495f, -0.00427300f, -0.08336376f, 0.18877576f, -0.01454837f,
    -0.15565582f, -0.03364379f, -0.03476495f, 0.31661594f, 0.06766945f, -0.19773339f, -0.17521754f, -0.13202816f,
    0.00278916f, 0.11149396f, 0.22900343f, 0.05031488f, -0.07390368f, -0.03160673f, -0.15877868f, -0.33235911f,
    -0.08665232f, -0.06957107f, -0.05831194f, -0.03275513f, -0.12828863f, 0.18135348f, -0.03745229f, -0.01067176f,
    -0.02217430f, -0.14150132f, -0.08207394f, -0.02051901f, 0.08189449f, -0.12590197f, 0.07305208f, 0.17534989f,
    -0.08618274f, -0.01137474f, 0.16985580f, 0.24477999f, 0.20956793f, 0.08387103f, 0.12575331f, -0.06932629f,
    -0.04313076f, -0.02197971f, 0.08651245f, 0.12916966f, 0.18420848f, -0.10204585f, 0.02557718f, 0.11814556f,
    0.15676260f, 0.01296146f, 0.20121829f, -0.14876567f, -0.15909375f, 0.23746321f, -0.21243204f, 0.10867762f,
    0.27674797f, 0.09922497f, -0.07738449f, -0.12951489f, 0.02209304f, 0.06027391f, -0.02613979f, 0.14636563f,
    -0.12768008f, 0.15300210f, 0.23050582f, -0.03221149f, -0.08063997f, 0.00799796f, 0.02440666f, 0.13566670f,
    -0.11261888f, 0.08320618f, 0.08492519f, -0.06754952f, -0.24052837f, 0.08897791f, 0.10017493f, 0.08984301f,
    -0.11473706f, -0.38328192f, 0.16331652f, -0.12921999f, 0.14553560f, -0.29653412f, 0.26631787f, 0.03604105f,
    0.22567184f, 0.10834092f, -0.35509601f, 0.07027116f, -0.12198833f, -0.28525329f, -0.09316327f, 0.10123599f,
    0.59152055f, 0.02825548f, 0.30251202f, 0.16403991f, -0.09497147f, 0.09342289f, -0.33791173f, -0.35953817f,
    -0.11851475f, -0.17671286f, 0.18731187f, 0.22867674f, -0.22314896f, -0.19881822f, -0.06056886f, -0.16168675f,
    0.02539419f, -0.16828379f, -0.16374995f, 0.07561557f, 0.14849512f, -0.05244521f, -0.34481609f, 0.15541330f,
    -0.06994957f, 0.12610944f, -0.28460363f, -0.00027630f, -0.09532588f, 0.25590062f, -0.05455368f, -0.03633262f,
    0.26028505f, -0.13180497f, -0.10384497f, -0.01012181f, 0.23447299f, -0.00957301f, -0.01239406f, -0.22637260f,
    -0.08374656f, 0.05510911f, -0.01479824f, 0.04586831f, -0.37033889f, -0.06015099f, -0.02405950f, 0.00801139f,
    0.08506814f, -0.04608253f, 0.13091405f, -0.18711559f, -0.08768605f, -0.27027544f, -0.04815269f, 0.14075653f,
    0.03685514f, -0.04802449f, 0.06430655f, 0.00434047f, 0.34302133f, -0.08106286f, -0.05697792f, -0.21006095f,
    -0.05963439f, -0.04854887f, 0.12283432f, -0.03570498f, -0.34224018f, -0.16512460f, 0.01131705f, 0.01578302f,
    0.06228646f, 0.25971690f, 0.13243569f, -0.04316578f, 0.21431752f, 0.09869830f, -0.08813772f, -0.14776222f,
    -0.04161183f, -0.06811632f, 0.14086178f, -0.08057490f, 0.02911495f, 0.02412820f, -0.01876599f, 0.43191233f,
    0.01063472f, 0.07303767f, 0.09623649f, 0.06555351f, 0.18355569f, -0.02381995f, 0.14155637f, 0.09989472f,
    -0.20866418f, -0.19791244f, -0.15150347f, -0.12883143f, -0.02591916f, 0.32274839f, 0.09571814f, 0.04166156f,
    0.13412154f, 0.05928607f, 0.04601840f, -0.01564271f, 0.09838353f, -0.06404743f, 0.03146159f, 0.20905967f,
    0.14327541f, -0.25812700f, -0.30438539f, -0.05635128f, 0.34176368f, 0.16471142f, 0.26059791f, 0.15121272f,
    -0.19275311f, 0.17397568f, 0.20410465f, -0.04523607f, -0.09838555f, 0.12981941f, -0.05972392f, 0.07703867f,
    -0.09275256f, 0.11191618f, 0.05453710f, -0.26924726f, -0.17867582f, 0.09317819f, -0.02839313f, 0.10503035f,
    -0.05477892f, -0.06124988f, 0.08231729f, -0.22052431f, 0.02826909f, -0.17179058f, -0.14673775f, 0.02211678f,
    -0.14117062f, 0.03811587f, 0.03913929f, -0.18835725f, -0.29500219f, -0.04892167f, -0.05902280f, -0.02349672f,
    -0.19369292f, -0.22355171f, 0.13869812f, 0.16013549f, -0.26614049f, -0.39360034f, 0.28542009f, -0.16975506f,
    0.38771710f, -0.15725833f, -0.11722792f, -0.11825494f, 0.28737271f, 0.03339971f, -0.34430084f, 0.03331700f,
    -0.10329759f, 0.06077617f, 0.16137144f, 0.19918631f, -0.13873886f, -0.23467515f, -0.09922555f, -0.10943957f,
    -0.03616890f, 0.11706862f, 0.13304256f, -0.19042991f, -0.15711704f, 0.21954192f, -0.21922556f, 0.17811856f,
    0.00068269f, -0.01085011f, 0.23271158f, 0.02432994f, -0.14150864f, -0.05388761f, 0.07345166f, 0.29356673f,
    -0.35248902f, -0.43822974f, 0.28367263f, 0.34565678f, -0.24375165f, 0.24424821f, -0.45612291f, -0.10701693f,
    -0.04217802f, 0.20226347f, -0.03252292f, 0.00080174f, -0.50554961f, 0.05922088f, 0.08750946f, 0.20407052f,
    0.14303827f, 0.10654498f, -0.21117829f, 0.13216993f, 0.18541019f, 0.41897270f, -0.10857546f, 0.31556252f,
    0.03245233f, 0.32680506f, -0.40496159f, 0.12800305f, 0.14322454f, 0.05883691f, -0.14961345f, -0.07459245f,
    0.09096496f, -0.05839781f, 0.18869852f, 0.13189054f, 0.35971043f, -0.22790872f, 0.38567179f, 0.10785623f,
    -0.27121049f, -0.10662218f, 0.15918605f, 0.16466232f, -0.08865447f, 0.26702043f, -0.06940270f, 0.01742616f,
    0.36288127f, 0.07704744f, 0.14056806f, -0.05552777f, -0.03842623f, -0.00609574f, 0.00810388f, 0.19914001f,
    0.00717620f, -0.25253716f, 0.12862025f, -0.09163081f, 0.21340968f, -0.08889526f, 0.02934915f, -0.08689630f,
    0.09561103f, 0.07714523f, -0.12111126f, -0.00600226f, 0.26420289f, 0.22922304f, 0.02301371f, -0.11427055f,
    -0.12902403f, 0.07289642f, -0.09178400f, -0.14909707f, -0.14674793f, -0.05714832f, 0.12129267f, -0.16769308f,
    0.11620412f, -0.04673203f, 0.05464359f, 0.18791129f, 0.08977563f, -0.24377190f, -0.07975006f, 0.08842558f,
    0.11701436f, 0.12408743f, -0.09615287f, -0.08222421f, 0.04469598f, -0.11755419f, -0.07816545f, 0.01158541f,
    -0.12057413f, 0.25491986f, 0.06556833f, -0.01847699f, -0.00514095f, 0.03927827f, -0.07875575f, 0.18334101f,
    -0.00267992f, 0.10894992f, 0.02653535f, 0.02506260f, -0.29663879f, -0.04771553f, -0.00223127f, -0.04650050f,
    -0.09835602f, 0.11954653f, 0.23463437f, -0.04061263f, -0.04530448f, 0.19932815f, -0.04597054f, 0.28600648f,
    -0.07793254f, 0.03844380f, -0.11122420f, 0.02705987f, 0.19630979f, -0.18707256f, 0.26041496f, -0.14990377f,
    -0.10106596f, 0.09075786f, 0.17884444f, -0.02195112f, -0.44514123f, 0.01453845f, 0.08139272f, -0.00310856f,
    0.11640321f, -0.11296422f, 0.16645855f, 0.29288486f, -0.07676516f, -0.00698403f, -0.11869603f, 0.01966582f,
    0.00501947f, 0.17651206f, 0.13833092f, -0.17137650f, -0.05546275f, 0.00090112f, -0.19029054f, 0.20369075f,
    0.20103683f, -0.13264406f, -0.15776439f, 0.01394476f, -0.15810259f, -0.15338869f, -0.39954466f, 0.02958688f,
    -0.03268915f, 0.04622438f, 0.00917650f, -0.12965082f, -0.00458590f, 0.18675101f, 0.07424484f, -0.11689820f,
    -0.06234175f, 0.10294898f, -0.15490495f, -0.07261749f, 0.04958949f, -0.04738227f, -0.02953932f, 0.02721884f,
    -0.15225831f, -0.01220355f, -0.14276546f, 0.07952683f, -0.00422830f, -0.07784272f, 0.06028229f, 0.00213439f,
    0.16144286f, 0.00433506f, 0.01319052f, -0.21462305f, -0.00396753f, 0.04397273f, -0.13172492f, -0.30902117f,
    -0.04994766f, 0.02048927f, 0.07692948f, 0.10817542f, 0.02111140f, 0.11784666f, 0.12791969f, 0.21013340f,
    -0.09700104f, -0.05234976f, -0.07314631f, 0.02395551f, -0.00755871f, 0.08605977f, -0.01529105f, -0.13596578f,
    -0.03142797f, -0.18390429f, 0.25971675f, 0.13427962f, -0.07009929f, -0.05649728f, -0.01722861f, -0.08414585f,
    -0.02962017f, -0.09152775f, 0.12266353f, 0.16829392f, 0.01120604f, -0.07588633f, 0.23467985f, -0.00956262f,
    0.16867873f, 0.01423315f, -0.07778462f, 0.18186022f, 0.18301082f, -0.05662896f, -0.05262899f, 0.06974135f,
    -0.13061340f, -0.07127408f, 0.18364392f, -0.03869183f, -0.07967991f, 0.01342201f, 0.12178576f, 0.15119129f,
    0.11295997f, -0.22194397f, -0.04644300f, -0.02407251f, 0.11959074f, -0.05849017f, 0.06066624f, -0.17217855f,
    0.09192031f, 0.00258287f, 0.12813456f, -0.01224389f, -0.00945377f, 0.03290176f, 0.04862155f, -0.09262370f,
    0.01152418f, 0.21371047f, 0.17073992f, -0.08791065f, 0.16894861f, -0.09647779f, -0.12889686f, 0.05872124f,
    0.05524909f, 0.19034530f, -0.06337970f, 0.00064126f, 0.03115960f, -0.09021205f, -0.11387508f, -0.00932614f,
    -0.37291783f, -0.10768639f, -0.03991184f, -0.19182841f, 0.15047398f, 0.02316015f, -0.40504885f, -0.03097154f,
    -0.06560131f, 0.24053980f, -0.15552993f, -0.02935505f, -0.11795323f, -0.15481694f, 0.31485566f, 0.23194912f,
    -0.00659373f, -0.31548578f, 0.11497454f, -0.00200199f, -0.15594833f, -0.39279991f, -0.14387147f, -0.02614945f,
    -0.01440640f, 0.17243050f, -0.17846274f, -0.06330188f, 0.30990085f, -0.07992955f, 0.13705604f, -0.33467454f,
    0.02919574f, 0.05377199f, -0.14436384f, -0.02185576f, 0.21453007f, -0.07643701f, -0.14962719f, -0.46240896f,
    -0.45275831f, -0.16582373f, 0.25429827f, 0.35918558f, 0.06115405f, 0.18008400f, 0.10902113f, -0.05665837f,
    0.00159408f, -0.16256331f, -0.14719552f, -0.16924794f, -0.00029850f, -0.21787719f, -0.14537588f, 0.06727295f,
    -0.09895661f, -0.01782176f, 0.12176014f, 0.04443904f, -0.05717103f, 0.05643563f, -0.01693916f, 0.14019760f,
    0.14345422f, -0.13148813f, 0.16124557f, 0.15778717f, -0.00149456f, -0.07515711f, -0.07885646f, 0.05728522f,
    0.06412946f, -0.07322538f, -0.06598761f, -0.10228042f, 0.05938304f, -0.08201898f, 0.14070155f, 0.12199804f,
    0.01250617f, 0.18766850f, -0.17712659f, -0.33810997f, -0.11889445f, -0.20700249f, 0.17913029f, 0.22665548f,
    -0.21664564f, -0.38499311f, 0.43918052f, 0.40962732f, -0.33923072f, -0.15334983f, -0.29174307f, 0.25791258f,
    -0.29848221f, -0.09322207f, -0.17065869f, 0.21856910f, -0.31945455f, 0.27235281f, -0.32964039f, 0.37664255f,
    0.01936075f, 0.17831449f, -0.37031862f, -0.07162226f, 0.29847008f, 0.26817277f, -0.15523174f, 0.34266552f,
    0.25383684f, 0.11318569f, -0.46846497f, -0.21363266f, -0.02807347f, 0.18435416f, -0.01866284f, -0.14193504f,
    -0.22333640f, -0.10073874f, 0.28964925f, 0.25391963f, 0.40988311f, -0.28363481f, 0.29217732f, -0.07762603f,
    -0.40347615f, -0.38198000f, -0.08832609f, 0.44597399f, 0.38623109f, -0.30276886f, -0.02094017f, 0.11539561f,
    -0.05140060f, 0.19533731f, -0.18998343f, -0.11661074f, 0.25227576f, 0.29728442f, -0.11825151f, -0.11318398f,
    0.17186955f, -0.06021321f, 0.07022895f, -0.08048385f, -0.11424500f, -0.11538360f, 0.02980211f, 0.10159747f,
    -0.10543629f, -0.11048536f, -0.20844756f, 0.02336095f, -0.00950684f, -0.03536498f, -0.11743675f, 0.03988463f,
    -0.07210048f, -0.11169165f, 0.10410248f, 0.13900048f, -0.05430470f, -0.08795001f, 0.22261834f, 0.29090306f,
    0.02907471f, 0.01507265f, 0.20360473f, 0.06760674f, 0.02767198f, -0.07610384f, -0.17170461f, -0.08611173f,
    0.13888060f, 0.01466767f, -0.04148673f, 0.03361095f, 0.00399834f, -0.32322195f, 0.08991135f, -0.19304110f,
    0.06695475f, -0.04364022f, -0.06118969f, 0.04990485f, -0.06968187f, -0.26186341f, 0.16071336f, 0.17002630f,
    0.01670536f, -0.29639873f, -0.42310202f, -0.06749233f, -0.00104138f, -0.00977226f, 0.09672920f, -0.26068476f,
    -0.00444191f, 0.09516472f, 0.04530442f, -0.18385924f, 0.01924294f, -0.18037803f, 0.27583888f, -0.11979727f,
    0.07494313f, -0.06256698f, -0.05203181f, 0.15099432f, -0.03799656f, 0.07124296f, 0.06022415f, 0.11755380f,
    -0.01350056f, -0.03512249f, -0.15503652f, 0.03206294f, -0.05152951f, 0.16775015f, 0.00710228f, 0.15175748f,
    -0.13480353f, 0.03534776f, 0.13035581f, -0.02349029f, 0.09763929f, -0.17430110f, -0.20520705f, -0.49928930f,
    -0.00376698f, 0.08540078f, -0.25682780f, 0.20027964f, -0.15108448f, -0.16205285f, 0.20005040f, -0.02364312f,
    -0.13011037f, 0.22386700f, 0.09658575f, 0.04813565f, 0.01606038f, 0.08350265f, 0.17822193f, -0.20693813f,
    0.22050579f, 0.00536322f, -0.06215569f, 0.09219680f, 0.12339070f, -0.04479536f, -0.05444689f, -0.05920365f,
    -0.02323879f, -0.11103358f, 0.14377561f, 0.11371662f, 0.22253168f, 0.00314277f, -0.15876777f, 0.04592838f,
    -0.04666479f, -0.30796060f, 0.02640833f, 0.15880166f, -0.03789120f, -0.13898577f, -0.17849860f, 0.05119586f,
    0.12983473f, -0.23470475f, 0.01404063f, -0.04746024f, 0.09571535f, 0.03543980f, -0.14817640f, -0.15237442f,
    0.10925265f, 0.26230231f, 0.09719336f, -0.11861700f, -0.10833606f, 0.26582393f, 0.04140148f, -0.23084143f,
    -0.03796581f, -0.20236325f, -0.15638708f, 0.05501704f, -0.22964819f, 0.05866312f, 0.19964141f, 0.04792197f,
    -0.10351042f, 0.08533610f, 0.35216084f, 0.06084321f, 0.02104226f, 0.14858851f, -0.04370689f, 0.04219405f,
    0.04009071f, -0.01565344f, -0.04203773f, 0.04489902f, 0.11530948f, -0.17084588f, -0.27111888f, -0.18917607f,
    0.25074089f, -0.11156325f, -0.02510830f, -0.09205909f, -0.06194667f, -0.17974634f, -0.32175475f, -0.24818438f,
    0.00374662f, -0.19834766f, -0.00495856f, -0.20908338f, -0.10629281f, 0.15089744f, 0.39436013f, 0.13561763f,
    -0.04674159f, -0.08649407f, 0.38764608f, -0.13974848f, -0.04481043f, 0.10762497f, -0.00618876f, -0.01175364f,
    0.01361692f, 0.00773151f, 0.03754991f, -0.07818332f, 0.04306384f, -0.40862572f, 0.11379620f, 0.17521676f,
    -0.02289163f, 0.00187418f, -0.21567529f, -0.02945911f, -0.03511524f, 0.12686126f, 0.26032093f, 0.00996585f,
    0.15422475f, -0.15896629f, -0.23603959f, 0.01704350f, 0.00206362f, 0.28639033f, 0.10511439f, 0.01363403f,
    0.13250671f, 0.02715881f, 0.22042952f, -0.02186584f, 0.01950674f, 0.15537363f, -0.12665401f, -0.24804299f,
    0.00011564f, -0.08534373f, -0.15488873f, -0.13835621f, -0.20684774f, -0.01267189f, 0.00410004f, 0.12107540f,
    -0.04282867f, -0.01167130f, 0.10424498f, -0.13633625f, -0.22127366f, 0.13246024f, 0.07406964f, 0.24004292f,
    0.08797522f, -0.35528639f, 0.08572239f, 0.26113975f, -0.08338156f, -0.18858713f, -0.22275084f, -0.07419503f,
    -0.03506635f, 0.04215936f, 0.09252799f, 0.18423085f, 0.09257311f, 0.00423833f, -0.23689081f, -0.18948820f,
    -0.05610405f, 0.08225852f, 0.12416898f, -0.15223847f, 0.14097801f, -0.19722722f, -0.29170215f, 0.16354477f,
    -0.18377493f, 0.18660906f, 0.08242824f, 0.03831539f, 0.07604779f, -0.15584394f, -0.20504329f, 0.29061359f,
    -0.20559946f, 0.10034791f, -0.11631593f, -0.09465441f, 0.07414628f, -0.32900369f, -0.04443598f, -0.01283777f,
    -0.11299126f, -0.08939585f, 0.02579403f, -0.24069385f, 0.11082325f, 0.19379587f, 0.03269670f, -0.08063812f,
    -0.01453667f, 0.36087438f, -0.07513660f, 0.01198011f, -0.28455096f, 0.00644596f, 0.06087969f, 0.30095905f,
    -0.16026407f, 0.12782545f, -0.16308250f, 0.08072307f, -0.11066355f, -0.29579577f, 0.00192407f, 0.24041465f,
    -0.25517204f, -0.19386981f, 0.03557552f, 0.02738485f, -0.07656315f, -0.20918626f, -0.20431796f, 0.10553948f,
    0.23718441f, 0.00736671f, -0.54151046f, -0.15342478f, -0.13089837f, -0.01066070f, -0.06326019f, 0.09488719f,
    0.18347362f, 0.38200474f, -0.09860191f, 0.17816189f, 0.14658344f, 0.20266657f, -0.07603112f, 0.01273308f,
    0.06187082f, -0.29776058f, -0.03810122f, -0.04430092f, -0.15678748f, -0.14215800f, 0.02539452f, -0.07639889f,
    -0.02222013f, -0.19212683f, 0.29789576f, -0.04170745f, 0.04064883f, 0.01096578f, 0.33550847f, 0.08557068f,
    -0.15241455f, -0.01745781f, 0.04820623f, 0.25121304f, 0.06332152f, -0.10056987f, -0.03011875f, -0.02556499f,
    0.11709901f, 0.09223431f, 0.10773651f, -0.15184422f, 0.02840472f, 0.03186382f, 0.11923405f, -0.01875803f,
    -0.24088867f, -0.04670782f, -0.06684327f, 0.07322884f, 0.13285162f, -0.01414850f, 0.09986032f, 0.02624082f,
    0.14068677f, -0.05388228f, 0.15835804f, -0.20154610f, 0.15976386f, -0.12491420f, 0.28535536f, -0.21441527f,
    -0.22489516f, 0.10465968f, -0.07659024f, 0.10975158f, 0.05266016f, 0.13926800f, 0.04766306f, 0.02091449f,
    -0.06388801f, 0.00521029f, 0.17127623f, 0.13056859f, -0.11467760f, -0.03165916f, -0.29715097f, -0.18711038f,
    -0.08140168f, 0.16074440f, 0.08489799f, -0.07175193f, 0.02346189f, 0.09412099f, -0.14050263f, 0.07251140f,
    0.00466898f, -0.04239353f, -0.11901995f, 0.06375830f, 0.10388763f, 0.02305753f, 0.14135101f, -0.17441039f,
    0.03494793f, 0.11685015f, -0.05246830f, 0.03961286f, -0.09500353f, -0.00128071f, -0.09119836f, -0.04311033f,
    0.05121668f, -0.06169581f, 0.00383721f, -0.13631018f, -0.01146060f, -0.12202707f, 0.00977629f, 0.00273076f,
    -0.07505967f, 0.02621576f, -0.21280017f, -0.20106782f, -0.07963464f, 0.06865390f, -0.09309043f, -0.29729787f,
    0.02394223f, -0.10741339f, -0.09674076f, -0.11012450f, -0.05381533f, 0.05900370f, 0.05904018f, -0.08682670f,
    0.24948403f, 0.02400881f, -0.08478534f, 0.00423549f, -0.09383667f, 0.19750035f, -0.05650715f, -0.12969586f,
    -0.10793842f, 0.05074549f, 0.09431285f, 0.33776999f, -0.19970968f, -0.10109286f, 0.00038367f, 0.05394574f,
    -0.21545197f, -0.10959122f, -0.14448883f, -0.07852445f, -0.02189923f, 0.08095288f, 0.03152952f, -0.16724259f,
    -0.22658315f, 0.12297287f, 0.10161152f, -0.04919926f, 0.03580104f, 0.11379211f, -0.15718213f, -0.04276845f,
    -0.08559804f, 0.01320794f, 0.12473890f, 0.01765575f, 0.00723057f, -0.17098720f, -0.15435782f, -0.00299566f,
    0.11284966f, -0.14260872f, -0.10625242f, -0.11825138f, 0.15816502f, -0.08123056f, 0.19179676f, 0.15986742f,
    -0.05304731f, 0.16876367f, 0.06966037f, -0.15209530f, 0.01973153f, 0.01634955f, 0.06805407f, 0.16058831f,
    -0.10245414f, 0.16288628f, 0.05603302f, 0.16878518f, -0.03013886f, -0.14980029f, 0.15012154f, 0.01961172f,
    0.02385574f, -0.12622832f, 0.02571816f, 0.13641502f, 0.06449115f, 0.00431123f, -0.10402016f, -0.00593825f,
    0.12806334f, 0.01928453f, 0.07773482f, -0.05901640f, -0.19220959f, 0.13347614f, -0.08672805f, 0.02019653f,
    0.06809993f, -0.17534775f, 0.13891858f, 0.13647394f, -0.01079724f, 0.11697967f, -0.01671003f, 0.04865890f,
    -0.02615853f, 0.23930536f, -0.08980396f, 0.05267518f, 0.17270802f, -0.08161040f, 0.17301515f, -0.06079946f,
    -0.06849398f, -0.12862830f, 0.03360303f, 0.19585523f, 0.06866128f, -0.11238827f, -0.03626636f, -0.06982628f,
    0.07173794f, 0.06978746f, 0.11979316f, 0.09195074f, -0.00848604f, 0.12887773f, 0.07654278f, 0.01213183f,
    -0.05586500f, 0.01479720f, 0.16322103f, -0.01511536f, 0.10869347f, -0.00454637f, -0.00586072f, 0.05332729f,
    -0.01753275f, 0.01616189f, 0.13035569f, -0.00210006f, 0.07791347f, -0.05199841f, -0.16579349f, 0.13786595f,
    0.01868417f, -0.17853965f, 0.13802053f, -0.09329572f, 0.15236285f, 0.00071461f, -0.11367183f, 0.02475768f,
    0.06866287f, -0.13333353f, 0.15239801f, -0.03479148f, -0.05005300f, 0.05470161f, 0.21124545f, -0.02471011f,
    -0.08777689f, 0.02499092f, 0.04176128f, -0.07344377f, 0.14586991f, 0.06749440f, 0.06166962f, -0.01724807f,
    -0.17264184f, -0.05646089f, -0.13497856f, 0.02891357f, 0.04548611f, -0.04166459f, -0.00953639f, 0.09885990f,
    0.12669657f, -0.07018203f, 0.01480726f, -0.02142796f, -0.05713198f, -0.08127657f, 0.04969946f, 0.01863771f,
    -0.17819628f, -0.13742949f, 0.11788073f, 0.02803593f, -0.07030053f, -0.01904064f, 0.04730957f, 0.08695908f,
    -0.11498161f, 0.03017483f, 0.03473429f, 0.04372334f, 0.11327045f, 0.08374140f, 0.08698231f, -0.08957387f,
    0.00320121f, -0.07528989f, 0.05656688f, 0.08843633f, 0.01969787f, 0.14490171f, 0.00580889f, -0.17760205f,
    0.14025559f, -0.16163971f, 0.22249381f, 0.06516557f, -0.02352895f, -0.05823245f, 0.13687217f, 0.16657795f,
    -0.04443547f, -0.04937855f, -0.02247721f, -0.04199769f, 0.09715533f, -0.08985452f, -0.04067674f, 0.10044885f,
    -0.08538795f, -0.03667997f, -0.07206443f, 0.11063451f, -0.03151750f, -0.04214441f, -0.15849152f, -0.06311338f,
    -0.15051338f, 0.06305353f, 0.18244991f, 0.04727495f, 0.01587206f, -0.04460127f, 0.10447594f, -0.07822916f,
    0.10938935f, 0.30917737f, -0.08302773f, 0.00884258f, 0.05852159f, -0.01983106f, 0.38115588f, 0.09368495f,
    0.01795839f, -0.12844168f, -0.06764359f, 0.20823334f, 0.32405210f, 0.07249074f, -0.17487383f, 0.09002028f,
    0.05996219f, -0.05233752f, -0.06611365f, -0.31266832f, -0.18939476f, -0.02767851f, -0.03114249f, -0.14580366f,
    0.06599928f, -0.21091543f, 0.08113558f, -0.06263832f, 0.16831718f, -0.09553921f, -0.04041961f, 0.03293632f,
    -0.00606103f, -0.01448576f, -0.16881664f, 0.20494354f, 0.00111162f, -0.01858814f, -0.17337629f, -0.04399750f,
    -0.08717229f, -0.05306391f, 0.05828678f, -0.15853858f, -0.12395848f, -0.10633240f, -0.01144018f, -0.17779431f,
    -0.05849910f, 0.03928419f, 0.06560747f, -0.07344053f, 0.22471081f, -0.03808388f, -0.12227235f, -0.09640839f,
    0.06348154f, -0.01274405f, 0.05729813f, -0.09522521f, 0.04492904f, -0.18460122f, 0.02476468f, 0.08501483f,
    -0.14532299f, 0.16602845f, 0.04703009f, -0.04335473f, -0.13225648f, 0.00946252f, -0.08117647f, 0.07826942f,
    -0.08548342f, -0.13316931f, 0.20744294f, 0.09512658f, 0.17592579f, -0.14096148f, 0.05321899f, 0.07327811f,
    -0.05614232f, -0.00810799f, 0.18886247f, -0.04687067f, -0.04260624f, 0.10840239f, -0.08191496f, 0.02178262f,
    0.10017558f, -0.14777035f, -0.00836944f, 0.04523600f, -0.03504493f, -0.17549394f, 0.07161890f, -0.13904621f,
    0.19432944f, 0.08683579f, 0.24012737f, -0.02915724f, -0.00569018f, 0.05882880f, -0.00823968f, 0.01196314f,
    -0.06572975f, 0.11805896f, 0.03523352f, 0.02844439f, -0.16364758f, 0.13434075f, 0.01931319f, 0.02739868f,
    -0.01463753f, 0.02387110f, -0.01286678f, -0.10205933f, 0.04567963f, 0.02529822f, -0.07832473f, -0.14698106f,
    0.13211581f, -0.13024396f, 0.06755917f, 0.21630493f, -0.05813880f, -0.06754968f, 0.01175158f, -0.17449379f,
    0.03103678f, 0.03017495f, 0.02192537f, 0.17131740f, 0.13289568f, -0.04790208f, 0.05242731f, -0.04322827f,
    0.15624028f, 0.06227680f, 0.20530145f, -0.04811545f, 0.22948444f, -0.08482900f, -0.12829553f, -0.13943423f,
    0.25143489f, -0.06149265f, -0.03386426f, 0.06249243f, -0.06733304f, 0.15497771f, -0.03918669f, 0.15986674f,
    -0.15923488f, -0.14953412f, 0.28156069f, 0.02624551f, -0.00357532f, 0.11403184f, 0.12718539f, 0.08085483f,
    0.03514538f, -0.18183203f, -0.15956423f, -0.01882903f, -0.05880140f, -0.03707401f, -0.06874943f, 0.12425379f,
    0.11278606f, -0.08227403f, -0.11195525f, 0.06459156f, -0.18249205f, 0.05154222f, 0.03080478f, -0.16244519f,
    0.13082680f, 0.02205638f, -0.01095328f, -0.05396677f, 0.08000436f, -0.06793279f, 0.18838362f, 0.07680201f,
    0.00920856f, 0.16071779f, 0.12963508f, -0.12838852f, 0.04531386f, 0.04562768f, 0.44370276f, 0.00031039f,
    -0.10695029f, -0.04915685f, -0.01740433f, 0.14256822f, 0.10730103f, -0.08183959f, -0.12578833f, 0.11146840f,
    0.06599084f, -0.02422122f, -0.00058945f, 0.01012869f, -0.06804509f, 0.16408335f, 0.03743118f, -0.10480042f,
    0.16674548f, 0.00760614f, -0.25352001f, 0.08844708f, -0.02652791f, -0.02671168f, -0.13253689f, -0.15711747f,
    -0.03154440f, -0.18463461f, 0.02123942f, 0.16747952f, -0.03230029f, 0.20788415f, 0.15448152f, -0.07544263f,
    0.16721264f, -0.11139232f, -0.02610879f, -0.06455768f, 0.00216348f, -0.06500565f, -0.15074238f, 0.22032672f,
    -0.01799577f, 0.06778975f, -0.01458634f, 0.00154021f, 0.02719919f, -0.13882506f, -0.01202479f, -0.13845636f,
    0.00320507f, -0.11094657f, -0.06032589f, -0.11333810f, 0.00582272f, -0.05382557f, -0.06870667f, -0.09038460f,
    0.04943457f, 0.09786803f, 0.05469319f, -0.03476179f, -0.04152805f, 0.10342278f, -0.06337976f, -0.15528721f,
    0.16326979f, -0.05588084f, -0.10207522f, 0.11925033f, 0.22009884f, -0.07769700f, -0.01643382f, 0.10491891f,
    0.19901817f, 0.07764728f, 0.08813820f, 0.05935239f, -0.01193582f, -0.03993199f, 0.08509595f, -0.11134738f,
    0.03058560f, 0.01931637f, 0.17302071f, -0.15921287f, 0.04953681f, -0.04316276f, -0.16993010f, 0.03723153f,
    -0.05853168f, -0.04271905f, 0.05995271f, -0.00443839f, 0.14539091f, 0.00864805f, 0.01550836f, -0.08501006f,
    0.04592757f, -0.23080879f, -0.01604864f, 0.05365727f, -0.04671627f, -0.21435082f, 0.08918990f, -0.23410729f,
    0.10079434f, -0.01779609f, -0.03860846f, 0.20463257f, 0.19413234f, -0.05966244f, -0.02125547f, -0.24644810f,
    -0.12031479f, -0.10696127f, -0.01462479f, -0.20705067f, -0.07825307f, 0.04939353f, 0.23700805f, 0.23990121f,
    0.07569376f, 0.13207355f, -0.19367307f, -0.16063853f, -0.09647342f, -0.19024146f, -0.07997150f, 0.15095486f,
    -0.22739489f, -0.03494744f, 0.06351682f, 0.08882470f, -0.08695702f, 0.04901380f, 0.12680177f, 0.05975642f,
    0.11827747f, -0.00261017f, -0.03284847f, 0.02517961f, 0.00731823f, 0.10931006f, 0.03433377f, 0.12047406f,
    -0.05725455f, 0.12403362f, 0.00715393f, -0.04229542f, -0.03623433f, -0.07811531f, 0.12186384f, -0.06394423f,
    -0.06883243f, 0.06585413f, -0.07501385f, 0.07336572f, 0.14636463f, -0.02178291f, 0.02696547f, -0.06292541f,
    0.17008232f, 0.00537966f, 0.04186105f, -0.13249084f, 0.05170949f, 0.09302826f, -0.16612498f, 0.12922218f,
    0.19131495f, -0.00371130f, 0.02352946f, -0.15798050f, 0.15232760f, -0.06644291f, -0.05055477f, -0.01105845f,
    -0.01784598f, 0.05408392f, 0.11845903f, 0.11365242f, 0.00873289f, -0.09209399f, 0.23122452f, 0.04554984f,
    0.13893601f, -0.02409640f, -0.00346852f, -0.06316477f, -0.10211314f, -0.11412901f, 0.15100522f, -0.03737117f,
    -0.03179961f, -0.17292832f, 0.06625272f, 0.06049795f, 0.00463224f, -0.10602771f, -0.05922083f, 0.08473572f,
    0.04235559f, 0.16163598f, -0.00242529f, -0.10400265f, -0.10570194f, -0.24233566f, -0.08807530f, 0.09620664f,
    0.12709312f, 0.10103963f, 0.09381289f, 0.02628011f, 0.00669594f, 0.07744402f, -0.05029265f, 0.14845894f,
    0.17472009f, -0.32579565f, 0.05287997f, 0.05427754f, -0.06563095f, -0.06721920f, 0.04936124f, -0.01245600f,
    -0.13197751f, -0.13723549f, -0.10186445f, 0.08922331f, 0.07248694f, 0.14966276f, 0.10947350f, 0.12001038f,
    0.15670611f, 0.01576545f, 0.03319638f, 0.08782648f, 0.08937374f, -0.03762686f, 0.08787835f, -0.14812964f,
    0.08368929f, 0.09311453f, -0.03410313f, -0.04294490f, -0.08770211f, 0.08188355f, -0.06647656f, -0.00757954f,
    0.04563929f, -0.10567842f, -0.14651471f, -0.11605477f, -0.05935100f, -0.02403781f, -0.00425552f, -0.11703328f,
    -0.12119140f, 0.03131357f, -0.15505889f, -0.14558299f, 0.12703894f, -0.00128350f, 0.02542081f, 0.09170276f,
    0.09056771f, -0.17708093f, 0.16936998f, 0.03538370f, 0.15935259f, -0.11761832f, -0.10836800f, -0.06459809f,
    -0.08411139f, -0.09738197f, -0.00422056f, 0.11114038f, -0.07084125f, -0.03462874f, 0.11533038f, 0.06257587f,
    0.00590076f, -0.05551335f, 0.10851822f, 0.13275051f, 0.05378524f, 0.01408964f, -0.11778016f, -0.16376522f,
    0.02566378f, -0.02776761f, 0.10789892f, 0.03712627f, -0.03580438f, -0.22066069f, 0.04158385f, -0.01067592f,
    -0.08660830f, -0.10109028f, 0.07999918f, -0.08625155f, 0.01958532f, 0.06209737f, 0.21993734f, 0.07984708f,
    -0.19841905f, -0.08233993f, -0.08696976f, 0.04056463f, 0.05225336f, -0.08649227f, 0.10151099f, 0.02478971f,
    -0.08906835f, -0.08952381f, 0.05839082f, -0.05575930f, 0.13845430f, -0.04762416f, -0.04278088f, 0.01065234f,
    0.23547032f, 0.09684773f, -0.09220918f, 0.10231385f, -0.00287624f, -0.20377599f, -0.24759845f, -0.07710678f,
    -0.14549384f, -0.21702716f, 0.15358198f, -0.26719138f, 0.20917931f, 0.26974124f, 0.20664905f, -0.01714643f,
    -0.10642986f, 0.13397174f, -0.02737650f, 0.03368687f, 0.29786253f, 0.12165486f, 0.28077725f, -0.02151392f,
    -0.10382508f, 0.04500098f, -0.09381104f, 0.10653945f, -0.02829579f, 0.00634312f, 0.12143429f, 0.06861697f,
    0.05942358f, -0.13713402f, -0.17558496f, -0.09801948f, -0.12075612f, 0.14833692f, -0.16223341f, -0.00079564f,
    0.10533699f, 0.06865889f, 0.04194184f, 0.07198544f, -0.19761331f, 0.16257235f, 0.23294640f, 0.08236660f,
    0.06067956f, -0.17194736f, 0.21869254f, -0.13309298f, -0.15099318f, -0.13677149f, -0.01085606f, -0.09530514f,
    0.11672229f, -0.09404804f, -0.08170954f, 0.09763256f, -0.18170269f, -0.05348079f, -0.06742714f, -0.12126244f,
    -0.01678061f, 0.33949819f, 0.11393968f, -0.00071054f, -0.08629266f, -0.08813830f, 0.00701303f, -0.08519563f,
    -0.14321348f, -0.07545979f, 0.04647258f, -0.10286884f, 0.08225062f, 0.03221012f, 0.10701868f, -0.11627825f,
    -0.08883683f, -0.07672825f, -0.01265081f, -0.09107645f, -0.13030609f, 0.03680498f, -0.10627457f, 0.00542845f,
    -0.09769187f, 0.07730749f, 0.03937035f, -0.04237802f, 0.14000911f, -0.00183935f, 0.02631197f, 0.01388534f,
    0.06239909f, 0.02558816f, 0.05543981f, 0.05175853f, -0.01341286f, 0.13614345f, 0.08033345f, -0.07238065f,
    -0.08993860f, -0.00171594f, 0.13483384f, -0.12563285f, -0.02148542f, 0.12572579f, -0.07811686f, 0.09135643f,
    0.05988866f, -0.11008608f, 0.10827175f, -0.01314728f, -0.00577744f, 0.04849732f, 0.04369906f, -0.08626270f,
    -0.06620950f, 0.01249050f, -0.09286651f, -0.11320430f, -0.17291164f, -0.11289077f, -0.13759212f, -0.15912564f,
    -0.09459634f, -0.05844513f, -0.03533848f, -0.01924311f, -0.06267900f, 0.10975286f, 0.04150837f, -0.01427703f,
    -0.03298149f, 0.03982623f, 0.25428945f, 0.16223051f, -0.10048477f, 0.13413206f, -0.02730086f, -0.04988182f,
    -0.00572809f, 0.11900980f, 0.02765873f, 0.00097656f, 0.02389199f, 0.17699705f, -0.05161151f, -0.25703990f,
    -0.07610089f, 0.04373714f, -0.01556785f, -0.00630179f, 0.06386345f, -0.14401533f, -0.11221951f, 0.02530167f,
    -0.03229330f, -0.05698165f, -0.19285540f, 0.11467820f, -0.15467791f, -0.08839676f, 0.06569236f, -0.13302344f,
    -0.02748879f, -0.11468074f, -0.14032643f, 0.08738966f, -0.08395986f, 0.09845269f, 0.11367402f, -0.16507934f,
    -0.18102764f, 0.02142303f, 0.10232522f, 0.05972509f, -0.06876861f, -0.07368769f, 0.14983040f, -0.03229018f,
    0.13346270f, -0.11365658f, -0.01211223f, 0.02291836f, -0.02711827f, -0.08335426f, 0.03386880f, -0.06011871f,
    0.07859710f, -0.18950140f, 0.06625190f, 0.00384770f, 0.03631095f, -0.10476930f, 0.00253397f, -0.06433820f,
    -0.03623429f, -0.07386509f, -0.17816445f, 0.09021264f, 0.02084498f, 0.09388175f, -0.08184497f, -0.00627780f,
    0.16285005f, 0.11140346f, 0.13057102f, 0.00272121f, -0.10849990f, 0.00066832f, -0.08559494f, -0.15353970f,
    0.12012991f, -0.07495744f, 0.08401005f, 0.21801715f, 0.00845744f, -0.03838188f, 0.16800241f, 0.07390028f,
    -0.00363030f, -0.20643441f, -0.13132702f, 0.09135403f, -0.14107347f, -0.11888054f, 0.10749738f, 0.16770549f,
    0.02780630f, 0.14141433f, 0.00447215f, -0.01426108f, 0.00660939f, -0.21418302f, -0.21291541f, 0.01309480f,
    -0.13798845f, 0.03494783f, -0.08845910f, -0.11849921f, 0.01176849f, -0.03053144f, -0.07740659f, -0.01052528f,
    -0.02641402f, 0.14786404f, 0.03676174f, 0.02261423f, -0.11272226f, -0.04850275f, -0.03868032f, 0.11418760f,
    0.08738695f, -0.00923562f, -0.06383586f, -0.14155297f, 0.14520037f, 0.01503898f, -0.02378507f, -0.19087179f,
    -0.12471762f, -0.09630951f, -0.09669228f, 0.11841370f, -0.03182437f, -0.05600099f, -0.09553001f, -0.02909857f,
    0.15419614f, 0.00961936f, -0.15291874f, 0.21880893f, 0.03700189f, -0.01957632f, 0.18038897f, -0.02090549f,
    -0.05566189f, 0.08864332f, 0.09108632f, -0.04866742f, -0.15027703f, -0.09128260f, -0.03718555f, -0.08876835f,
    -0.11723975f, 0.22145540f, 0.00787219f, -0.01602265f, -0.04553264f, -0.12246329f, -0.07827163f, 0.01961641f,
    0.17363784f, -0.05864424f, -0.01917486f, -0.12958118f, 0.01653476f, 0.09429610f, 0.11653868f, 0.07732682f,
    0.11313693f, 0.10973420f, 0.02119267f, 0.03772986f, -0.17740755f, 0.22956471f, -0.07927686f, 0.20848031f,
    -0.11332428f, -0.11376415f, 0.07340555f, -0.04343257f, 0.02422832f, 0.03402434f, -0.04348115f, -0.13878359f,
    0.07955309f, 0.01840007f, 0.08718853f, -0.07798829f, -0.01908628f, -0.19551048f, 0.05018265f, -0.00143648f,
    -0.22238691f, -0.03623771f, -0.00074093f, 0.03514742f, 0.13833347f, -0.03044276f, -0.05984248f, 0.10455420f,
    0.12662679f, -0.04356898f, -0.10981288f, 0.09069306f, 0.01859211f, 0.09204336f, -0.08675597f, 0.04666311f,
    0.12923336f, 0.13210525f, 0.05281946f, -0.04794607f, 0.14221378f, -0.14160781f, -0.07050361f, 0.02369918f,
    0.05087312f, 0.05528323f, -0.04430067f, -0.08765544f, -0.14873178f, -0.03849440f, 0.11100111f, -0.11956428f,
    -0.03395887f, -0.11218383f, 0.16740000f, 0.00423445f, -0.09361245f, 0.18213640f, 0.11661945f, 0.07243718f,
    0.06764726f, -0.17171448f, -0.00659802f, 0.08415514f, -0.12240426f, -0.20591632f, -0.03968247f, 0.10169887f,
    0.08019263f, -0.07190511f, 0.03746839f, -0.11739016f, -0.18883146f, -0.03900925f, 0.12087332f, 0.04741357f,
    -0.01290549f, -0.05738111f, -0.15536055f, 0.09161323f, -0.15087521f, -0.04169401f, -0.17241737f, 0.07785475f,
    0.29664755f, -0.09944583f, 0.03424240f, 0.02731931f, 0.05534897f, -0.13318898f, 0.05220919f, -0.12748928f,
    0.20481206f, -0.14531295f, 0.12302630f, -0.19499084f, 0.00583843f, -0.00427179f, -0.08445984f, -0.23141710f,
    -0.13275166f, 0.09594551f, -0.16267604f, 0.05474824f, -0.02611621f, -0.04158109f, 0.00178429f, 0.06892690f,
    -0.21814056f, 0.04131406f, -0.05668974f, -0.10614894f, 0.08178746f, 0.03970887f, 0.07468000f, 0.05607538f,
    -0.16152282f, -0.13600782f, 0.00728028f, -0.02307436f, -0.02178271f, 0.01431731f, -0.00068886f, -0.01631505f,
    0.07761852f, -0.04214679f, 0.04933425f, -0.11118136f, 0.05228017f, -0.02194680f, 0.09895093f, 0.02122010f,
    -0.07701467f, 0.20661701f, 0.03208400f, 0.14334972f, 0.16290182f, -0.04636570f, 0.06480177f, 0.16349310f,
    -0.03974499f, -0.07167271f, -0.03067536f, -0.14408639f, 0.01767712f, -0.10515316f, 0.05712716f, 0.03042724f,
    -0.10752897f, 0.08373022f, 0.01529739f, 0.06855835f, 0.37961337f, -0.19949983f, -0.19765191f, -0.15813114f,
    -0.00931080f, 0.15635557f, 0.10362177f, -0.15666558f, -0.03839493f, -0.24077192f, -0.21313986f, 0.04130729f,
    0.03125890f, -0.00858439f, 0.06391838f, 0.10198356f, 0.04466793f, 0.02942048f, -0.00779152f, 0.14319819f,
    -0.07678135f, -0.04082895f, 0.01733619f, -0.05665832f, -0.02570302f, -0.12002208f, -0.12982944f, 0.04106639f,
    -0.04240624f, -0.03463399f, 0.03356090f, -0.13874307f, -0.17831850f, -0.03616266f, -0.15198214f, -0.04499222f,
    0.15420541f, 0.13376269f, -0.11601072f, -0.13034141f, -0.02613782f, -0.01442232f, -0.17412691f, 0.05039843f,
    0.18458600f, -0.00351888f, 0.09155189f, -0.12659827f, 0.01958091f, -0.10999848f, -0.00355362f, -0.11922493f,
    -0.14311995f, 0.02947315f, 0.15526026f, -0.09230376f, 0.05255836f, -0.03540778f, -0.06053614f, 0.09801453f,
    -0.02455888f, -0.01465500f, 0.13264583f, -0.10825174f, -0.04583202f, -0.07322163f, -0.01494879f, -0.01169225f,
    0.03454832f, -0.06304096f, 0.13055214f, -0.17732346f, 0.03871515f, -0.00590173f, 0.18411912f, -0.04995393f,
    0.00047518f, -0.13839199f, 0.17274840f, 0.07764580f, 0.03506337f, -0.00055845f, -0.16278791f, -0.07499541f,
    0.09895830f, -0.00117826f, -0.07255382f, 0.08261555f, -0.25445452f, -0.16006619f, -0.03306612f, 0.05863105f,
    -0.10059683f, -0.18827760f, -0.01340937f, 0.04512299f, 0.12487330f, 0.11611148f, -0.02047801f, 0.02169762f,
    0.02349494f, -0.05488569f, 0.14050546f, -0.04837018f, -0.08106267f, -0.21522450f, 0.01410299f, 0.05271896f,
    -0.06124238f, -0.00501896f, -0.09917953f, 0.02481783f, 0.15989320f, -0.14321762f, -0.03437537f, 0.07801478f,
    0.05036884f, 0.08282477f, -0.22664611f, -0.05792948f, 0.08254090f, 0.11613029f, 0.22659452f, -0.11880949f,
    -0.03019744f, -0.01204417f, 0.10405201f, -0.16047901f, -0.14759120f, -0.09720917f, -0.15480466f, -0.07306393f,
    0.10070639f, -0.01803874f, 0.09852181f, 0.10294727f, -0.01625783f, 0.11235245f, 0.03604771f, 0.10588391f,
    0.04658320f, 0.10343036f, 0.21286146f, 0.06757828f, 0.03223218f, 0.22167820f, 0.14584745f, 0.00299148f,
    -0.04197304f, 0.01019094f, 0.10858480f, -0.12024240f, -0.13135991f, -0.11121754f, -0.16000880f, -0.14140905f,
    0.05169060f, -0.10358024f, -0.16145810f, 0.05715311f, -0.08292002f, -0.14620905f, 0.07225812f, -0.02894201f,
    -0.05825154f, -0.17779979f, 0.09387613f, 0.02749588f, 0.03536189f, -0.07774349f, 0.17956068f, 0.03860449f,
    -0.11723105f, -0.02866744f, -0.01308642f, -0.00548578f, -0.03561902f, -0.02884413f, -0.03905528f, 0.08138809f,
    -0.14912108f, 0.03113951f, 0.10049559f, 0.16477434f, 0.02518838f, 0.12810671f, 0.02516615f, 0.04380314f,
    -0.05708260f, -0.17404060f, 0.23454934f, -0.08682653f, 0.17582729f, -0.04788261f, 0.00277156f, -0.07672896f,
    -0.15555783f, -0.01155410f, 0.16443008f, 0.13170409f, -0.09915395f, 0.05342447f, -0.13724466f, 0.23809686f,
    -0.09249393f, -0.20147373f, -0.03487709f, 0.25154606f, 0.08130194f, 0.02824392f, -0.04034030f, 0.08628809f,
    0.29990357f, 0.20771410f, 0.30921650f, 0.01256572f, 0.10903418f, -0.01357275f, 0.07882961f, -0.00734565f,
    -0.11642396f, -0.14758430f, -0.05134598f, -0.04179886f, 0.01366460f, 0.14859016f, -0.11907049f, -0.20063837f,
    0.01230839f, 0.11117440f, 0.21832719f, -0.07549715f, 0.07794311f, -0.09448337f, 0.05533677f, 0.15000470f,
    -0.09689060f, 0.12381557f, 0.05764318f, 0.12975410f, -0.14559743f, -0.05255853f, 0.11638123f, -0.13529898f,
    0.02411894f, 0.06839171f, 0.04394251f, 0.14319611f, 0.11935000f, 0.08185916f, -0.14755584f, 0.24182171f,
    0.10865422f, 0.05601354f, 0.16625711f, -0.10501526f, -0.03273844f, 0.15579528f, 0.04919238f, 0.06437413f,
    0.05021927f, -0.31590638f, 0.08785015f, -0.03093290f, 0.05663069f, -0.07860535f, 0.21761706f, 0.16634640f,
    0.10426828f, -0.12845923f, -0.00993658f, 0.08985567f, -0.06514046f, 0.04613879f, 0.02670009f, 0.13834530f,
    0.19404487f, -0.10528882f, 0.11416973f, 0.05924415f, -0.21732637f, 0.08198570f, -0.00558589f, 0.06319720f,
    -0.00838608f, -0.01753703f, 0.05698439f, -0.00950267f, 0.05004918f, -0.03827943f, -0.02257180f, -0.05803327f,
    0.03276890f, -0.04813489f, -0.10109073f, 0.06646855f, 0.01452927f, -0.13778348f, -0.04263360f, -0.07550467f,
    -0.16685548f, 0.25516579f, -0.05147958f, 0.03256284f, -0.09307525f, 0.07733974f, 0.01112416f, -0.07576138f,
    0.13849916f, 0.09980962f, -0.14987065f, 0.04770006f, -0.03493855f, -0.18117291f, 0.08776009f, 0.01647492f,
    -0.09704685f, -0.04816153f, -0.06000236f, 0.12393554f, 0.11979540f, 0.17325154f, 0.09748971f, 0.14561172f,
    -0.10489560f, 0.14668302f, -0.11181728f, 0.09066502f, -0.11279351f, 0.05197262f, 0.08923170f, 0.04417784f,
    -0.02703187f, 0.23117617f, 0.06172980f, 0.16124503f, 0.29020029f, 0.08836429f, 0.03524746f, 0.20225033f,
    0.01358380f, -0.12727790f, 0.04702694f, 0.01785142f, 0.24426036f, -0.06231883f, 0.18553758f, -0.20604788f,
    -0.03376949f, -0.09813552f, 0.03915111f, -0.30033505f, -0.03258258f, 0.08385205f, 0.02454170f, 0.07738139f,
    0.01947875f, -0.16023357f, 0.08736824f, -0.08123407f, -0.01925984f, 0.08250804f, -0.05333492f, -0.10511949f,
    0.00422319f, -0.02088186f, 0.09669987f, 0.11834607f, 0.30596998f, 0.07260168f, -0.06126498f, 0.03271353f,
    0.02441377f, -0.22754610f, 0.01989117f, 0.19303602f, -0.05726920f, 0.10161059f, -0.03675247f, -0.03810557f,
    0.00923176f, 0.01293587f, 0.06493761f, 0.11121075f, -0.02972822f, 0.10091362f, -0.03773547f, -0.11458170f,
    -0.02139579f, -0.09562193f, -0.09903932f, 0.11923581f, -0.06757911f, 0.03492454f, -0.04373119f, -0.00566272f,
    -0.00169176f, -0.01123461f, -0.00926915f, -0.08384724f, 0.11097724f, 0.01376826f, -0.02375190f, 0.13929865f,
    -0.00456941f, 0.01962987f, 0.07990471f, 0.02200879f, 0.09615922f, -0.05135751f, 0.05662979f, 0.06997344f,
    0.06558170f, 0.01487999f, 0.16273779f, 0.15690979f, 0.02510048f, -0.12610790f, 0.03157718f, 0.01512426f,
    -0.02321808f, 0.07082789f, -0.00476949f, 0.10353509f, -0.06319890f, -0.00238753f, -0.10295652f, 0.11022907f,
    0.05885439f, -0.03640426f, -0.11248117f, -0.18440749f, 0.13799751f, -0.19467124f, -0.00919715f, -0.08642767f,
    0.13983229f, 0.05563255f, 0.08900519f, -0.07038990f, 0.16474234f, -0.04965206f, 0.06023641f, 0.02271977f,
    -0.10958069f, 0.05405144f, 0.07004961f, -0.14318517f, 0.01517052f, -0.05952618f, -0.10299987f, -0.09280481f,
    0.11396226f, 0.17986029f, 0.09866333f, 0.13538915f, -0.04351673f, 0.01163104f, -0.15831862f, 0.02504334f,
    -0.04981579f, -0.01325050f, -0.06191733f, -0.13595092f, -0.08217791f, -0.12334090f, -0.17373978f, -0.07041988f,
    0.03194636f, -0.13875543f, -0.04872099f, -0.04596907f, -0.15672877f, 0.03817587f, -0.16438094f, 0.03667520f,
    0.10808203f, 0.08363353f, 0.10498779f, 0.05031584f, -0.00007656f, -0.00212869f, -0.10536769f, 0.12736446f,
    -0.05853229f, 0.06095551f, 0.16288756f, 0.17241733f, -0.08380450f, 0.05410000f, 0.05309583f, -0.00995321f,
    -0.02010394f, -0.02968013f, 0.11076533f, -0.06128983f, -0.14335994f, -0.05170020f, 0.01412736f, -0.16343394f,
    -0.08596841f, 0.10851265f, -0.08182845f, -0.03577959f, 0.13284521f, -0.03079548f, 0.32169724f, 0.00372957f,
    -0.00718341f, -0.02848467f, 0.19917047f, 0.10711987f, 0.05356443f, 0.01157602f, 0.10452719f, -0.02861223f,
    -0.04907466f, 0.09567064f, -0.09122082f, 0.05576776f, -0.10630524f, -0.05348925f, 0.05486716f, -0.12788561f,
    0.05887965f, -0.08748355f, 0.23375450f, 0.10249198f, -0.05119069f, 0.11366607f, 0.05141968f, -0.00070753f,
    -0.02668927f, 0.22176883f, 0.07927197f, 0.07084644f, -0.10669364f, 0.09625695f, -0.07895833f, -0.04100564f,
    -0.07799525f, 0.01089028f, -0.11386160f, -0.15391804f, 0.14027661f, 0.02233304f, 0.08812730f, 0.01145122f,
    -0.05633129f, 0.01025585f, -0.07715247f, -0.03196070f, -0.07537556f, -0.09295424f, -0.07485038f, 0.20257097f,
    -0.03785009f, -0.05865176f, -0.14340432f, 0.00305808f, -0.11515903f, 0.04545563f, -0.10993119f, 0.10858361f,
    0.15935330f, 0.02693446f, 0.04527500f, 0.18489273f, 0.16796632f, 0.01618241f, -0.00646425f, -0.01160789f,
    0.04982032f, -0.03252379f, 0.02221052f, -0.06667427f, 0.09464567f, -0.00070190f, 0.03869818f, -0.07023307f,
    -0.06418067f, -0.22997691f, -0.07727801f, -0.10800917f, 0.03819710f, 0.02605689f, -0.07896097f, 0.18017617f,
    0.10458912f, 0.14973283f, 0.06834812f, -0.06388543f, -0.06458893f, -0.17710641f, 0.04109264f, 0.19349910f,
    -0.13602713f, 0.20200513f, 0.07094927f, -0.04744957f, -0.09562532f, -0.11522717f, -0.00885029f, 0.26126063f,
    -0.10900356f, 0.09172304f, -0.00966861f, -0.00982274f, 0.10051650f, 0.00032224f, -0.09372712f, 0.18586515f,
    0.11546370f, 0.25061506f, 0.21148589f, -0.02370420f, -0.09055994f, 0.05288959f, 0.14192709f, 0.01788399f,
    -0.09408259f, -0.02250740f, -0.11231280f, -0.15361272f, 0.02134131f, 0.01616305f, -0.13454610f, -0.06533486f,
    -0.09185714f, 0.04913957f, -0.08691733f, -0.00639767f, -0.15368958f, -0.21149239f, 0.09364861f, 0.04026704f,
    0.08778750f, -0.06032510f, -0.02486365f, -0.15409185f, -0.18186802f, 0.11793856f, 0.08115346f, 0.03899908f,
    0.05643943f, 0.12546049f, 0.17340642f, -0.25317594f, -0.02175209f, -0.05228136f, 0.15214847f, 0.13672245f,
    0.01677103f, -0.14948232f, -0.04900633f, 0.02533748f, 0.10492370f, 0.19337410f, 0.03385902f, 0.09443267f,
    -0.15326174f, 0.09288613f, 0.00151369f, 0.04235679f, -0.03370281f, 0.02885942f, 0.06725542f, 0.13325372f,
    -0.06766996f, -0.07986951f, 0.11681071f, -0.04102562f, 0.04574671f, -0.21194617f, -0.00447700f, -0.01588135f,
    0.02039831f, -0.28265792f, -0.07521405f, 0.00143340f, 0.01532670f, 0.07303955f, -0.03684070f, 0.06836603f,
    -0.00163469f, 0.11827692f, -0.13094607f, 0.09068956f, 0.00579274f, -0.05394830f, 0.06545920f, 0.04342750f,
    0.06644940f, 0.04092311f, -0.06289984f, 0.23111741f, 0.05377170f, 0.07004283f, 0.07069731f, -0.02828816f,
    -0.01968757f, -0.13880832f, 0.17370771f, -0.03741815f, -0.07837757f, 0.01607217f, 0.10423231f, -0.05670926f,
    0.07096872f, 0.01765600f, -0.11633538f, 0.02312108f, -0.00945189f, 0.16340846f, 0.08347990f, -0.10479575f,
    0.30792549f, 0.07197650f, -0.15599257f, -0.03697253f, -0.28911662f, -0.03350956f, 0.11575893f, -0.07786272f,
    -0.33201730f, -0.14479482f, -0.01850270f, 0.04462790f, -0.20571294f, -0.01992735f, -0.14319858f, 0.14538835f,
